{"learner":{"attributes":{"best_iteration":"49","best_ntree_limit":"0"},"feature_names":["0","1","2","3","4","5","6","7","8","9","10","11","12","13","14","15","16","17","18","19","20","21","22","23","24","25","26","27","28","29","30","31","32","33","34","35","36","37","38","39","40","41","42","43","44","45","46","47","48","49","50","51","52","53","54","55","56","57","58","59","60","61","62","63","64","65","66","67","68","69","70","71","72","73","74","75","76","77","78","79","80","81","82","83","84","85","86","87","88","89","90","91","92","93","94","95","96","97","98","99","100","101","102","103","104","105","106","107","108","109","110","111","112","113","114","115","116","117","118","119","120","121","122","123","124","125","126","127","128","129","130","131","132","133","134","135","136","137","138","139","140","141","142","143","144","145","146","147","148","149","150","151","152","153","154","155","156","157","158","159","160","161","162","163","164","165","166","167","168","169","170","171","172","173","174","175","176","177","178","179","180","181","182","183","184","185","186","187","188","189","190","191","192","193","194","195","196","197","198","199"],"feature_types":["float","float","float","float","float","float","float","float","float","float","float","float","float","float","float","float","float","float","float","float","float","float","float","float","float","float","float","float","float","float","float","float","float","float","float","float","float","float","float","float","float","float","float","float","float","float","float","float","float","float","float","float","float","float","float","float","float","float","float","float","float","float","float","float","float","float","float","float","float","float","float","float","float","float","float","float","float","float","float","float","float","float","float","float","float","float","float","float","float","float","float","float","float","float","float","float","float","float","float","float","float","float","float","float","float","float","float","float","float","float","float","float","float","float","float","float","float","float","float","float","float","float","float","float","float","float","float","float","float","float","float","float","float","float","float","float","float","float","float","float","float","float","float","float","float","float","float","float","float","float","float","float","float","float","float","float","float","float","float","float","float","float","float","float","float","float","float","float","float","float","float","float","float","float","float","float","float","float","float","float","float","float","float","float","float","float","float","float","float","float","float","float","float","float","float","float","float","float","float","float"],"gradient_booster":{"model":{"boosted_rounds":50,"weights":[-9.3228245E-1,4.7708932E-1,1.978643E-1,3.1587514E-1,-2.8353137E-1,5.617606E-2,-5.4240924E-1,-1.7135791E-1,-5.0635684E-1,-1.3180368E-1,-6.001391E-1,-5.387628E-1,-9.9054165E-2,-3.8209677E-1,4.350708E-1,-7.009767E-4,3.8229507E-1,4.9817166E-1,-4.19605E-1,-2.4630179E-1,5.1578707E-1,1.2467886E-1,-1.1215078E-1,6.5931994E-1,-6.2815475E-1,-2.3559566E-1,1.104298E0,-1.9387639E-1,4.942018E-1,4.6809402E-1,4.9446926E-1,-4.336773E-1,-3.0152422E-1,1.2237027E-1,5.7202274E-1,-6.497446E-1,-7.551312E-2,5.778231E-1,2.3908619E-2,-3.0132622E-1,1.0613343E-1,4.22543E-2,-6.448616E-2,1.4981663E-1,4.4423983E-1,3.424056E-1,-4.2213774E-1,6.30115E-1,-4.0952703E-1,-4.772494E-2,-2.9164034E-1,1.0102664E0,4.9904805E-1,-4.0755144E-1,1.1246116E-1,4.4688994E-1,-2.0162362E-1,6.3978475E-1,-9.832317E-1,3.172071E-1,-8.603108E-1,1.5521892E0,4.0937528E-1,8.245549E-2,-3.557148E-1,3.909135E-1,-4.1532242E-1,-8.044593E-1,4.9278647E-1,3.6116257E-1,-3.3471215E-1,-3.9631218E-2,9.2837787E-1,-4.6071863E-1,-3.3750904E-1,-6.990177E-1,1.3469063E0,8.0814046E-1,5.532111E-1,-6.510847E-1,5.630559E-1,-2.4013346E-1,5.337127E-1,1.4340125E0,-1.6746222E0,-2.8842026E-1,-9.231396E-1,2.806329E-1,3.677439E-2,0E0,1.5485024E-2,1.526272E-1,1.227841E0,5.3976737E-3,1.9538043E-1,4.0428063E-1,-7.2310257E-1,1.1689401E-2,-6.354331E-2,1.2480516E-1,-4.9938697E-1,-3.0882433E-1,0E0,-3.4111604E-1,0E0,1.1771061E-1,-1.764074E-1,0E0,0E0,1.19182944E-1,0E0,2.7755335E-1,-1.7745547E-2,-8.407423E-3,-6.848785E-1,-4.6267217E-1,-6.962421E-1,6.42659E-1,-1.7500415E0,4.7775233E-1,-5.614327E-1,-2.7955103E-1,-1.2273787E-1,-1.23887345E-1,-1.977206E-1,-5.741024E-1,2.4808508E-1,-6.1436695E-1,9.292044E-1,-5.176567E-1,-1.4863006E0,-2.4283199E-1,1.6940165E0,-3.5409623E-1,-1.1026348E-1,-9.3037896E-2,2.6573944E0,-1.4684778E0,-2.6694924E-1,6.2854123E-1,-4.296687E-1,6.7172766E-1,-2.3588853E-1,-1.3759599E0,-3.329141E-2,6.756748E-1,8.672272E-10,8.873147E-1,-8.391503E-1,4.141806E0,2.727229E-1,0E0,-3.9698012E0,-3.5856026E-1,-1.7684765E-1,6.25035E-1,-1.1029811E0,-2.2691226E0,2.742609E-1,-6.0750164E-2,1.6725298E0,-7.059194E-1,2.1261108E0,0E0,4.435662E-1,-1.9212221E0,1.1959741E0,-3.5304253E0,-5.4456395E-1,-2.4649933E-1,-8.0126256E-2,-1.2752723E0,1.5351005E-1,-1.6645821E0,-3.7655312E-1,1.0126014E0,-3.7116042E-1,1.3710943E0,8.7196153E-1,-6.491842E-1,4.8769295E-1,-1.3763576E-2,4.2967297E-2,8.061452E-1,-2.7324507E-1,2.732021E-1,0E0,-1.1332451E0,-2.2961185E0,2.9134706E-1,-5.8845186E-1,-3.205971E-1,-8.715065E-1,1.8704665E0,-3.3797795E-1,0E0,2.7797105E0,2.145803E-1,4.069324E-1,1.5941384E0,6.455591E-1]},"name":"gblinear"},"learner_model_param":{"base_score":"5E-1","num_class":"0","num_feature":"200","num_target":"1"},"objective":{"name":"binary:logistic","reg_loss_param":{"scale_pos_weight":"1"}}},"version":[1,6,0]}