{"learner":{"attributes":{"best_iteration":"49","best_ntree_limit":"50"},"feature_names":["0","1","2","3","4","5","6","7","8","9","10","11","12","13","14","15","16","17","18","19","20","21","22","23","24","25","26","27","28","29","30","31","32","33","34","35","36","37","38","39","40","41","42","43","44","45","46","47","48","49","50","51","52","53","54","55","56","57","58","59","60","61","62","63","64","65","66","67","68","69","70","71","72","73","74","75","76","77","78","79","80","81","82","83","84","85","86","87","88","89","90","91","92","93","94","95","96","97","98","99","100","101","102","103","104","105","106","107","108","109","110","111","112","113","114","115","116","117","118","119","120","121","122","123","124","125","126","127","128","129","130","131","132","133","134","135","136","137","138","139","140","141","142","143","144","145","146","147","148","149","150","151","152","153","154","155","156","157","158","159","160","161","162","163","164","165","166","167","168","169","170","171","172","173","174","175","176","177","178","179","180","181","182","183","184","185","186","187","188","189","190","191","192","193","194","195","196","197","198","199"],"feature_types":["float","float","float","float","float","float","float","float","float","float","float","float","float","float","float","float","float","float","float","float","float","float","float","float","float","float","float","float","float","float","float","float","float","float","float","float","float","float","float","float","float","float","float","float","float","float","float","float","float","float","float","float","float","float","float","float","float","float","float","float","float","float","float","float","float","float","float","float","float","float","float","float","float","float","float","float","float","float","float","float","float","float","float","float","float","float","float","float","float","float","float","float","float","float","float","float","float","float","float","float","float","float","float","float","float","float","float","float","float","float","float","float","float","float","float","float","float","float","float","float","float","float","float","float","float","float","float","float","float","float","float","float","float","float","float","float","float","float","float","float","float","float","float","float","float","float","float","float","float","float","float","float","float","float","float","float","float","float","float","float","float","float","float","float","float","float","float","float","float","float","float","float","float","float","float","float","float","float","float","float","float","float","float","float","float","float","float","float","float","float","float","float","float","float","float","float","float","float","float","float"],"gradient_booster":{"model":{"gbtree_model_param":{"num_parallel_tree":"1","num_trees":"50","size_leaf_vector":"0"},"tree_info":[0,0,0,0,0,0,0,0,0,0,0,0,0,0,0,0,0,0,0,0,0,0,0,0,0,0,0,0,0,0,0,0,0,0,0,0,0,0,0,0,0,0,0,0,0,0,0,0,0,0],"trees":[{"base_weights":[1.0109713E0,1.425654E0,-9.463598E-1,1.5306463E0,-3.1790724E-1,1.7806979E-1,-1.4731977E0,1.5793803E0,-1.720128E-1,-9.545733E-1,7.343576E-1,-6.241515E-1,1.3106936E0,1.6324114E0,-1.5840226E0,-3.1372795E-1,1.620377E0,-1.0907242E0,9.870227E-1,2.9568192E-1,-1.4800029E0,1.5864112E0,-1.5409145E-1,-1.1119466E0,1.723886E0,1.6707436E0,-0E0,-1.6401857E0,4.5945328E-1],"categories":[],"categories_nodes":[],"categories_segments":[],"categories_sizes":[],"default_left":[1,1,1,1,1,1,1,1,1,1,1,1,1,0,1,0,0,0,0,0,0,0,0,0,0,0,0,0,0],"id":0,"left_children":[1,3,5,7,9,11,13,15,17,19,21,23,25,-1,27,-1,-1,-1,-1,-1,-1,-1,-1,-1,-1,-1,-1,-1,-1],"loss_changes":[3.298156E2,6.2027527E1,4.261422E1,2.7020386E1,1.2692166E1,2.0600828E1,1.6693802E1,2.4610413E1,9.126361E0,8.528318E0,5.8872004E0,1.4303459E1,5.3229275E0,0E0,6.035347E0,0E0,0E0,0E0,0E0,0E0,0E0,0E0,0E0,0E0,0E0,0E0,0E0,0E0,0E0],"parents":[2147483647,0,0,1,1,2,2,3,3,4,4,5,5,6,6,7,7,8,8,9,9,10,10,11,11,12,12,14,14],"right_children":[2,4,6,8,10,12,14,16,18,20,22,24,26,-1,28,-1,-1,-1,-1,-1,-1,-1,-1,-1,-1,-1,-1,-1,-1],"split_conditions":[8.110975E-1,5.832491E-1,7.8692013E-1,8.7591445E-1,3.4362623E-1,6.2408847E-1,6.030561E-1,1.862762E-1,4.8793843E-1,2.8721797E-1,1.8822716E-1,7.249282E-1,7.1833444E-1,1.7383167E-1,5E-1,-3.3408154E-2,1.7255016E-1,-1.1614867E-1,1.05105735E-1,3.1486478E-2,-1.5760204E-1,1.6893323E-1,-1.6408838E-2,-1.1840859E-1,1.8357259E-1,1.7791358E-1,-0E0,-1.7465954E-1,4.8926108E-2],"split_indices":[103,122,67,49,88,98,15,199,92,96,44,36,130,0,196,0,0,0,0,0,0,0,0,0,0,0,0,0,0],"split_type":[0,0,0,0,0,0,0,0,0,0,0,0,0,0,0,0,0,0,0,0,0,0,0,0,0,0,0,0,0],"sum_hessian":[4.06E2,3.3525E2,7.075E1,3.165E2,1.875E1,2.225E1,4.85E1,3.08E2,8.5E0,1.2E1,6.75E0,1.275E1,9.5E0,1.5E0,4.7E1,6.25E0,3.0175E2,5E0,3.5E0,3.25E0,8.75E0,3.75E0,3E0,1.075E1,2E0,7.75E0,1.75E0,4.6E1,1E0],"tree_param":{"num_deleted":"0","num_feature":"200","num_nodes":"29","size_leaf_vector":"0"}},{"base_weights":[9.0993E-1,1.2830263E0,-8.4983104E-1,1.3777317E0,-2.822982E-1,1.5777631E-1,-1.324215E0,1.4217569E0,-1.4749184E-1,-7.6478034E-1,1.0251809E0,-5.555663E-1,1.173605E0,1.4710671E0,-1.4251868E0,-2.8045028E-1,1.4590651E0,3.982876E-1,-1.6689097E0,1.714902E-1,-1.3886718E0,-0E0,1.5333147E0,-1.1273847E0,1.1253879E0,1.5085945E-1,1.7473484E0,-1.4963048E0,-0E0],"categories":[],"categories_nodes":[],"categories_segments":[],"categories_sizes":[],"default_left":[1,1,1,1,1,1,1,1,1,1,1,1,1,0,1,0,0,0,0,0,0,0,0,0,0,0,0,0,0],"id":1,"left_children":[1,3,5,7,9,11,13,15,17,19,21,23,25,-1,27,-1,-1,-1,-1,-1,-1,-1,-1,-1,-1,-1,-1,-1,-1],"loss_changes":[2.6495972E2,4.9943848E1,3.4222244E1,2.1786377E1,1.1650012E1,1.638369E1,1.3584366E1,2.0054382E1,7.7313147E0,8.8023815E0,3.2375903E0,1.2224742E1,4.523714E0,0E0,5.2506104E0,0E0,0E0,0E0,0E0,0E0,0E0,0E0,0E0,0E0,0E0,0E0,0E0,0E0,0E0],"parents":[2147483647,0,0,1,1,2,2,3,3,4,4,5,5,6,6,7,7,8,8,9,9,10,10,11,11,12,12,14,14],"right_children":[2,4,6,8,10,12,14,16,18,20,22,24,26,-1,28,-1,-1,-1,-1,-1,-1,-1,-1,-1,-1,-1,-1,-1,-1],"split_conditions":[8.110975E-1,5.832491E-1,7.8692013E-1,8.7591445E-1,5.8949447E-1,6.2408847E-1,6.030561E-1,1.862762E-1,4.828093E-1,2.6136947E-1,7.19545E-1,8.5911226E-1,6.072569E-1,1.566505E-1,9.9973446E-1,-2.9864496E-2,1.5537243E-1,4.2412713E-2,-1.7771828E-1,1.8261591E-2,-1.4787641E-1,-0E0,1.632791E-1,-1.2005255E-1,1.1983993E-1,1.606467E-2,1.8607105E-1,-1.59338E-1,-0E0],"split_indices":[103,122,67,49,19,98,15,199,179,86,39,24,24,0,17,0,0,0,0,0,0,0,0,0,0,0,0,0,0],"split_type":[0,0,0,0,0,0,0,0,0,0,0,0,0,0,0,0,0,0,0,0,0,0,0,0,0,0,0,0,0],"sum_hessian":[4.0317883E2,3.329051E2,7.027373E1,3.1423685E2,1.8668255E1,2.2134647E1,4.8139084E1,3.057633E2,8.473527E0,1.3938664E1,4.7295904E0,1.2695653E1,9.438994E0,1.4887253E0,4.6650356E1,6.2482567E0,2.9951508E2,5.981939E0,2.4915876E0,5.2328477E0,8.705817E0,1.2433407E0,3.4862497E0,9.713465E0,2.9821882E0,3.7322886E0,5.7067056E0,4.4665535E1,1.9848242E0],"tree_param":{"num_deleted":"0","num_feature":"200","num_nodes":"29","size_leaf_vector":"0"}},{"base_weights":[8.2868034E-1,1.1682265E0,-7.6972914E-1,1.2552218E0,-2.5114012E-1,1.4561039E-1,-1.2050809E0,1.4258225E0,8.7000275E-1,9.4978327E-1,-6.9935435E-1,-1.0323217E0,6.970964E-1,1.3426934E0,-1.298294E0,1.4667208E0,-1.3084975E-1,1.0196193E0,-5.452951E-1,1.4396956E0,-0E0,4.9021968E-1,-1.4250566E0,2.9021442E-1,-1.7039869E0,1.1024513E0,-9.5972943E-1,-1.3650796E0,-0E0],"categories":[],"categories_nodes":[],"categories_segments":[],"categories_sizes":[],"default_left":[1,1,1,1,1,1,1,1,1,1,1,1,1,0,1,0,0,0,0,0,0,0,0,0,0,0,0,0,0],"id":2,"left_children":[1,3,5,7,9,11,13,15,17,19,21,23,25,-1,27,-1,-1,-1,-1,-1,-1,-1,-1,-1,-1,-1,-1,-1,-1],"loss_changes":[2.15202E2,4.091696E1,2.8117706E1,1.9028748E1,9.849059E0,1.4048829E1,1.1212585E1,1.4266327E1,2.0516853E1,2.9384813E0,1.2445593E1,6.6921587E0,1.0312973E1,0E0,4.4456635E0,0E0,0E0,0E0,0E0,0E0,0E0,0E0,0E0,0E0,0E0,0E0,0E0,0E0,0E0],"parents":[2147483647,0,0,1,1,2,2,3,3,4,4,5,5,6,6,7,7,8,8,9,9,10,10,11,11,12,12,14,14],"right_children":[2,4,6,8,10,12,14,16,18,20,22,24,26,-1,28,-1,-1,-1,-1,-1,-1,-1,-1,-1,-1,-1,-1,-1,-1],"split_conditions":[8.110975E-1,5.832491E-1,7.8692013E-1,3.6645663E-1,5.7024634E-1,3.9931345E-1,6.030561E-1,9.84465E-1,9.882643E-1,6.50424E-1,8.224334E-1,5.534227E-1,8.685867E-1,1.4298029E-1,9.9973446E-1,1.5618767E-1,-1.3933884E-2,1.0857688E-1,-5.8067203E-2,1.5330982E-1,-0E0,5.2202348E-2,-1.5175094E-1,3.0904256E-2,-1.8145359E-1,1.17397465E-1,-1.02199346E-1,-1.4536414E-1,-0E0],"split_indices":[103,122,67,103,30,35,15,97,63,88,41,27,84,0,17,0,0,0,0,0,0,0,0,0,0,0,0,0,0],"split_type":[0,0,0,0,0,0,0,0,0,0,0,0,0,0,0,0,0,0,0,0,0,0,0,0,0,0,0,0,0],"sum_hessian":[3.9609647E2,3.269758E2,6.912066E1,3.0844934E2,1.852646E1,2.1883736E1,4.7236923E1,2.1279321E2,9.565613E1,4.7072406E0,1.3819221E1,6.6657276E0,1.5218008E1,1.4597772E0,4.5777145E1,2.0768185E2,5.1113544E0,8.685578E1,8.800344E0,3.461153E0,1.2460877E0,4.9572544E0,8.861966E0,1.977914E0,4.6878133E0,1.2489212E1,2.728796E0,4.379232E1,1.9848242E0],"tree_param":{"num_deleted":"0","num_feature":"200","num_nodes":"29","size_leaf_vector":"0"}},{"base_weights":[7.6001114E-1,1.0716485E0,-7.038514E-1,1.1147009E0,-1.4932027E0,1.291556E-1,-1.1065652E0,1.1599522E0,-2.9286468E-1,-4.773958E-1,1.0127728E0,1.2368407E0,-1.1935126E0,8.16328E-1,1.3145982E0,1.1660892E0,-8.216491E-1,-8.801103E-1,1.4256594E0,1.4250579E0,-0E0,-1.3268001E0,-3.180229E-1],"categories":[],"categories_nodes":[],"categories_segments":[],"categories_sizes":[],"default_left":[1,1,1,1,0,1,1,1,1,1,1,0,1,0,0,0,0,0,0,0,0,0,0],"id":3,"left_children":[1,3,5,7,-1,9,11,13,15,17,19,-1,21,-1,-1,-1,-1,-1,-1,-1,-1,-1,-1],"loss_changes":[1.7651274E2,3.5031616E1,2.3182137E1,2.0461304E1,0E0,1.1860051E1,9.35548E0,1.5027771E1,7.0876536E0,9.256927E0,3.726472E0,0E0,4.3118973E0,0E0,0E0,0E0,0E0,0E0,0E0,0E0,0E0,0E0,0E0],"parents":[2147483647,0,0,1,1,2,2,3,3,5,5,6,6,7,7,8,8,9,9,10,10,12,12],"right_children":[2,4,6,8,-1,10,12,14,16,18,20,-1,22,-1,-1,-1,-1,-1,-1,-1,-1,-1,-1],"split_conditions":[8.110975E-1,5E-1,7.8692013E-1,8.7591445E-1,-1.5900767E-1,6.2408847E-1,6.030561E-1,4.4744372E-1,3.2202378E-1,7.249282E-1,6.2344587E-1,1.3170828E-1,9.616515E-1,8.692886E-2,1.3998848E-1,1.2417411E-1,-8.749549E-2,-9.372089E-2,1.5181513E-1,1.5175109E-1,-0E0,-1.4128785E-1,-3.3865515E-2],"split_indices":[103,167,67,49,0,98,15,45,20,36,22,0,71,0,0,0,0,0,0,0,0,0,0],"split_type":[0,0,0,0,0,0,0,0,0,0,0,0,0,0,0,0,0,0,0,0,0,0,0],"sum_hessian":[3.8646768E2,3.1893863E2,6.752905E1,3.1388425E2,5.0544E0,2.157535E1,4.5953705E1,3.0447833E2,9.405912E0,1.2436043E1,9.139307E0,1.4189813E0,4.4534725E1,9.5594E1,2.0888432E2,2.2294233E0,7.1764894E0,1.0500714E1,1.9353288E0,6.446483E0,2.6928236E0,3.8114677E1,6.4200473E0],"tree_param":{"num_deleted":"0","num_feature":"200","num_nodes":"23","size_leaf_vector":"0"}},{"base_weights":[7.00694E-1,9.8812306E-1,-6.473871E-1,1.0673461E0,-2.568382E-1,7.1370745E-1,-8.648699E-1,1.2144214E0,6.2742084E-1,-6.532971E-1,7.9325974E-1,-2.2835314E-1,1.2662333E0,-1.0329586E0,8.108331E-1,1.2454243E0,-1.3465905E0,-3.0250254E-1,8.146426E-1,2.5252974E-1,-1.1571718E0,1.2849716E0,-1.3420291E-1,3.1781718E-1,-1.1852248E0,-0E0,1.571844E0,-1.2480428E0,-6.5598683E-3,1.5119561E0,-2.5293756E-1],"categories":[],"categories_nodes":[],"categories_segments":[],"categories_sizes":[],"default_left":[1,1,1,1,1,1,1,1,1,1,1,1,1,1,1,0,0,0,0,0,0,0,0,0,0,0,0,0,0,0,0],"id":4,"left_children":[1,3,5,7,9,11,13,15,17,19,21,23,25,27,29,-1,-1,-1,-1,-1,-1,-1,-1,-1,-1,-1,-1,-1,-1,-1,-1],"loss_changes":[1.4559459E2,3.0977386E1,1.9513441E1,1.7867523E1,7.476705E0,5.0913424E0,1.6162067E1,1.7235168E1,1.3156252E1,6.6656938E0,2.7173455E0,1.9674307E0,2.1679392E0,1.0814362E1,4.3365307E0,0E0,0E0,0E0,0E0,0E0,0E0,0E0,0E0,0E0,0E0,0E0,0E0,0E0,0E0,0E0,0E0],"parents":[2147483647,0,0,1,1,2,2,3,3,4,4,5,5,6,6,7,7,8,8,9,9,10,10,11,11,12,12,13,13,14,14],"right_children":[2,4,6,8,10,12,14,16,18,20,22,24,26,28,30,-1,-1,-1,-1,-1,-1,-1,-1,-1,-1,-1,-1,-1,-1,-1,-1],"split_conditions":[8.110975E-1,5.832491E-1,7.124035E-1,6.030647E-1,5.8949447E-1,5.243994E-1,1E0,9.2701286E-1,3.8157472E-1,2.0699939E-1,7.7475905E-1,3.7519628E-1,8.2838356E-1,9.616515E-1,8.869701E-1,1.3262232E-1,-1.4339527E-1,-3.221279E-2,8.674939E-2,2.6891302E-2,-1.2322453E-1,1.3683362E-1,-1.4290954E-2,3.3843607E-2,-1.262118E-1,-0E0,1.6738199E-1,-1.3290116E-1,-6.98545E-4,1.6100466E-1,-2.6934728E-2],"split_indices":[103,122,15,58,19,36,51,67,199,29,87,20,103,71,58,0,0,0,0,0,0,0,0,0,0,0,0,0,0,0,0],"split_type":[0,0,0,0,0,0,0,0,0,0,0,0,0,0,0,0,0,0,0,0,0,0,0,0,0,0,0,0,0,0,0],"sum_hessian":[3.7525354E2,3.096354E2,6.561814E1,2.9151685E2,1.8118567E1,8.697662E0,5.692048E1,2.1755034E2,7.39665E1,1.3526076E1,4.592491E0,2.8585677E0,5.839095E0,5.2025433E1,4.895047E0,2.1515984E2,2.3905013E0,1.1914987E1,6.2051514E1,4.455885E0,9.070191E0,3.3768668E0,1.2156242E0,1.4669478E0,1.3916199E0,1.1756184E0,4.6634765E0,4.2578506E1,9.446928E0,3.2519631E0,1.6430839E0],"tree_param":{"num_deleted":"0","num_feature":"200","num_nodes":"31","size_leaf_vector":"0"}},{"base_weights":[6.487995E-1,8.41445E-1,-1.0845239E0,1.0958071E0,3.1343517E-1,1.0441562E0,-1.1994085E0,1.1387995E0,-9.910107E-1,-2.995793E-2,8.083878E-1,-1.2933401E0,1.0572277E-1,1.1979028E0,-2.4456574E-1,1.1961895E0,-2.239883E0,3.309324E-1,-5.355596E-1,9.307193E-1,-1.9218832E0,-1.3610907E0,-0E0],"categories":[],"categories_nodes":[],"categories_segments":[],"categories_sizes":[],"default_left":[1,1,1,1,1,0,1,1,1,1,1,1,0,0,0,0,0,0,0,0,0,0,0],"id":5,"left_children":[1,3,5,7,9,-1,11,13,15,17,19,21,-1,-1,-1,-1,-1,-1,-1,-1,-1,-1,-1],"loss_changes":[1.21021805E2,4.313092E1,8.902229E0,1.9814728E1,1.859417E1,0E0,4.857044E0,1.8147827E1,1.2032839E1,1.1516974E1,1.4329504E1,3.1595535E0,0E0,0E0,0E0,0E0,0E0,0E0,0E0,0E0,0E0,0E0,0E0],"parents":[2147483647,0,0,1,1,2,2,3,3,4,4,6,6,7,7,8,8,9,9,10,10,11,11],"right_children":[2,4,6,8,10,-1,12,14,16,18,20,22,-1,-1,-1,-1,-1,-1,-1,-1,-1,-1,-1],"split_conditions":[8.9214146E-1,6.030647E-1,2.7292493E-1,9.271878E-1,2.1388622E-1,1.1118975E-1,9.9973446E-1,5.832491E-1,3.984245E-1,7.091758E-1,7.677049E-1,4.729503E-1,1.1258171E-2,1.2756187E-1,-2.6043234E-2,1.2737943E-1,-2.3851989E-1,3.5240218E-2,-5.7030488E-2,9.911013E-2,-2.0465685E-1,-1.4493936E-1,-0E0],"split_indices":[67,58,11,95,46,0,17,122,0,15,56,184,0,0,0,0,0,0,0,0,0,0,0],"split_type":[0,0,0,0,0,0,0,0,0,0,0,0,0,0,0,0,0,0,0,0,0,0,0],"sum_hessian":[3.627867E2,3.2678162E2,3.6005096E1,2.1984734E2,1.0693428E2,1.6008201E0,3.4404278E1,2.156654E2,4.1819425E0,6.2498554E1,4.4435726E1,3.2477818E1,1.9264588E0,2.0720178E2,8.463621E0,1.3640274E0,2.8179154E0,3.5851093E1,2.6647463E1,4.272397E1,1.7117574E0,3.1029617E1,1.4482012E0],"tree_param":{"num_deleted":"0","num_feature":"200","num_nodes":"23","size_leaf_vector":"0"}},{"base_weights":[6.022015E-1,8.519182E-1,-5.576527E-1,8.899549E-1,-1.3321208E0,1.0103326E-1,-8.9571077E-1,5.13798E-1,1.0588056E0,-8.0481136E-1,5.381225E-1,1.0012712E0,-9.692115E-1,-0E0,8.5406286E-1,1.0958433E0,-1.2669581E0,2.9004872E-1,-1.4239591E0,8.6764705E-1,-7.114583E-1,-0E0,-1.080872E0],"categories":[],"categories_nodes":[],"categories_segments":[],"categories_sizes":[],"default_left":[1,1,1,1,0,1,1,1,1,1,1,0,1,0,0,0,0,0,0,0,0,0,0],"id":6,"left_children":[1,3,5,7,-1,9,11,13,15,17,19,-1,21,-1,-1,-1,-1,-1,-1,-1,-1,-1,-1],"loss_changes":[1.0159789E2,2.3745468E1,1.4159155E1,1.7181183E1,0E0,7.932552E0,5.7491417E0,1.57505665E1,1.6712341E1,4.841562E0,5.9183946E0,0E0,4.634556E0,0E0,0E0,0E0,0E0,0E0,0E0,0E0,0E0,0E0,0E0],"parents":[2147483647,0,0,1,1,2,2,3,3,5,5,6,6,7,7,8,8,9,9,10,10,12,12],"right_children":[2,4,6,8,-1,10,12,14,16,18,20,-1,22,-1,-1,-1,-1,-1,-1,-1,-1,-1,-1],"split_conditions":[8.110975E-1,5E-1,7.8692013E-1,4.2474753E-1,-1.4185442E-1,3.9931345E-1,6.030561E-1,5.306123E-1,9.271878E-1,5.534227E-1,8.685867E-1,1.0662303E-1,3.3979967E-1,-0E0,9.094716E-2,1.16693795E-1,-1.3491541E-1,3.088661E-2,-1.5163408E-1,9.2393704E-2,-7.5761534E-2,-0E0,-1.15099534E-1],"split_indices":[103,167,67,45,0,35,15,52,95,27,84,0,112,0,0,0,0,0,0,0,0,0,0],"split_type":[0,0,0,0,0,0,0,0,0,0,0,0,0,0,0,0,0,0,0,0,0,0,0],"sum_hessian":[3.502098E2,2.8854984E2,6.165997E1,2.838573E2,4.692561E0,2.0376883E1,4.1283085E1,8.8938385E1,1.949189E2,6.230252E0,1.414663E1,1.2633779E0,4.0019707E1,3.5163082E1,5.3775307E1,1.9209526E2,2.8236306E0,1.9394224E0,4.2908297E0,1.1536398E1,2.6102324E0,3.8762934E0,3.6143414E1],"tree_param":{"num_deleted":"0","num_feature":"200","num_nodes":"23","size_leaf_vector":"0"}},{"base_weights":[5.5995953E-1,7.278121E-1,-9.630963E-1,1.0198942E0,3.1484994E-1,9.1237164E-1,-1.0726681E0,1.0665616E0,-6.573993E-1,6.563303E-2,1.1249905E0,-1.1716168E0,1.9756486E-1,1.0875092E0,-1.4285896E0,-2.5143507E0,1.176811E0,-3.2635397E-1,4.503877E-1,1.2294147E0,-1.0691584E0,-1.2377183E0,-0E0],"categories":[],"categories_nodes":[],"categories_segments":[],"categories_sizes":[],"default_left":[1,1,1,1,1,0,1,1,1,1,1,1,0,0,0,0,0,0,0,0,0,0,0],"id":7,"left_children":[1,3,5,7,9,-1,11,13,15,17,19,21,-1,-1,-1,-1,-1,-1,-1,-1,-1,-1,-1],"loss_changes":[8.611161E1,3.5966583E1,6.9114227E0,1.41102295E1,2.49563E1,0E0,4.4979744E0,8.868042E0,1.6059069E1,1.4767463E1,6.8152313E0,2.5419044E0,0E0,0E0,0E0,0E0,0E0,0E0,0E0,0E0,0E0,0E0,0E0],"parents":[2147483647,0,0,1,1,2,2,3,3,4,4,6,6,7,7,8,8,9,9,10,10,11,11],"right_children":[2,4,6,8,10,-1,12,14,16,18,20,22,-1,-1,-1,-1,-1,-1,-1,-1,-1,-1,-1],"split_conditions":[8.9214146E-1,3.5992497E-1,2.7292493E-1,9.84465E-1,9.178804E-1,9.715632E-2,9.9973446E-1,9.1998523E-1,2.6912215E-1,4.8793843E-1,9.6516013E-1,4.729503E-1,2.103822E-2,1.15806304E-1,-1.5212716E-1,-2.677473E-1,1.2531585E-1,-3.475267E-2,4.7960732E-2,1.3091749E-1,-1.1385218E-1,-1.3180174E-1,-0E0],"split_indices":[67,103,11,97,11,0,17,81,38,92,112,184,0,0,0,0,0,0,0,0,0,0,0],"split_type":[0,0,0,0,0,0,0,0,0,0,0,0,0,0,0,0,0,0,0,0,0,0,0],"sum_hessian":[3.3729453E2,3.041336E2,3.3160934E1,1.7737006E2,1.2676355E2,1.556535E0,3.1604397E1,1.7288304E2,4.4870124E0,9.745595E1,2.9307604E1,2.9712757E1,1.8916405E0,1.7166203E2,1.2210059E0,2.3732753E0,2.113737E0,4.7584503E1,4.987144E1,2.8213356E1,1.0942483E0,2.828213E1,1.4306284E0],"tree_param":{"num_deleted":"0","num_feature":"200","num_nodes":"23","size_leaf_vector":"0"}},{"base_weights":[5.206685E-1,7.417352E-1,-4.9593484E-1,8.134564E-1,-2.6236328E-1,5.3699934E-1,-6.72809E-1,9.583808E-1,4.125944E-1,7.493352E-1,-6.52197E-1,-2.2818042E-1,1.0308627E0,-8.139532E-1,6.744761E-1,1.0114243E0,-3.244237E-1,5.7729834E-1,-6.141264E-1,-6.578614E-2,1.2340146E0,2.732854E-1,-1.2542293E0,1.0277343E-1,-1.0192678E0,-0E0,1.3623515E0,-1.0325211E0,3.9591238E-2,-3.9478585E-1,1.2068311E0],"categories":[],"categories_nodes":[],"categories_segments":[],"categories_sizes":[],"default_left":[1,1,1,1,1,1,1,1,1,1,1,1,1,1,1,0,0,0,0,0,0,0,0,0,0,0,0,0,0,0,0],"id":8,"left_children":[1,3,5,7,9,11,13,15,17,19,21,23,25,27,29,-1,-1,-1,-1,-1,-1,-1,-1,-1,-1,-1,-1,-1,-1,-1,-1],"loss_changes":[7.322348E1,1.9566269E1,1.0610777E1,1.3798004E1,6.7936296E0,3.4527342E0,9.52676E0,1.2809647E1,1.1388418E1,2.3839388E0,7.721718E0,1.2036855E0,2.1593046E0,8.989887E0,2.9192314E0,0E0,0E0,0E0,0E0,0E0,0E0,0E0,0E0,0E0,0E0,0E0,0E0,0E0,0E0,0E0,0E0],"parents":[2147483647,0,0,1,1,2,2,3,3,4,4,5,5,6,6,7,7,8,8,9,9,10,10,11,11,12,12,13,13,14,14],"right_children":[2,4,6,8,10,12,14,16,18,20,22,24,26,28,30,-1,-1,-1,-1,-1,-1,-1,-1,-1,-1,-1,-1,-1,-1,-1,-1],"split_conditions":[8.110975E-1,5.832491E-1,7.124035E-1,6.030647E-1,5.7024634E-1,5.243994E-1,1E0,8.533838E-1,5.760779E-1,5.041615E-1,8.224334E-1,3.7519628E-1,8.2838356E-1,9.616515E-1,3.1612206E-1,1.0770421E-1,-3.454712E-2,6.147515E-2,-6.539688E-2,-7.005412E-3,1.3140734E-1,2.9101523E-2,-1.3355994E-1,1.0944102E-2,-1.0853945E-1,-0E0,1.4507362E-1,-1.0995076E-1,4.2159786E-3,-4.2039823E-2,1.2851262E-1],"split_indices":[103,122,15,58,30,36,51,67,84,103,41,20,103,71,82,0,0,0,0,0,0,0,0,0,0,0,0,0,0,0,0],"split_type":[0,0,0,0,0,0,0,0,0,0,0,0,0,0,0,0,0,0,0,0,0,0,0,0,0,0,0,0,0,0,0],"sum_hessian":[3.252074E2,2.675558E2,5.7651623E1,2.502189E2,1.7336884E1,7.982631E0,4.966899E1,1.8278543E2,6.743347E1,4.4372E0,1.2899684E1,2.7071998E0,5.275431E0,4.5322624E1,4.346368E0,1.7593079E2,6.8546553E0,5.856501E1,8.868461E0,1.2449499E0,3.1922498E0,4.7349863E0,8.164698E0,1.4363896E0,1.2708101E0,1.095446E0,4.1799855E0,3.658154E1,8.741085E0,1.1106147E0,3.2357528E0],"tree_param":{"num_deleted":"0","num_feature":"200","num_nodes":"31","size_leaf_vector":"0"}},{"base_weights":[4.855692E-1,6.720026E-1,-6.01E-1,7.497011E-1,-1.0512315E0,-9.114428E-1,-4.4412658E-2,8.613505E-1,1.4358695E-1,-1.1966124E0,-0E0,-2.752662E-2,-1.1420052E0,9.234668E-1,-3.8623837E-1,5.6996727E-1,1.0700366E0,-1.6432178E0,3.789097E-1,-1.3614308E0,-0E0,1.5504546E0,-5.564574E-1,-1.3318157E0,-3.7450126E-1,-9.196445E-2,1.4844835E0,-0E0,-1.2279512E0],"categories":[],"categories_nodes":[],"categories_segments":[],"categories_sizes":[],"default_left":[1,1,1,1,1,1,1,1,1,1,0,1,1,1,1,0,0,0,0,0,0,0,0,0,0,0,0,0,0],"id":9,"left_children":[1,3,5,7,9,11,13,15,17,19,-1,21,23,25,27,-1,-1,-1,-1,-1,-1,-1,-1,-1,-1,-1,-1,-1,-1],"loss_changes":[6.333893E1,3.5612373E1,7.322054E0,1.6777832E1,2.097848E0,5.178671E0,5.2945986E0,1.2209915E1,1.6384436E1,2.1379013E0,0E0,4.8037896E0,2.301937E0,3.0237346E0,4.473066E0,0E0,0E0,0E0,0E0,0E0,0E0,0E0,0E0,0E0,0E0,0E0,0E0,0E0,0E0],"parents":[2147483647,0,0,1,1,2,2,3,3,4,4,5,5,6,6,7,7,8,8,9,9,11,11,12,12,13,13,14,14],"right_children":[2,4,6,8,10,12,14,16,18,20,-1,22,24,26,28,-1,-1,-1,-1,-1,-1,-1,-1,-1,-1,-1,-1,-1,-1],"split_conditions":[8.7591445E-1,5E-1,9.773922E-1,6.9690365E-1,9.347668E-1,6.363162E-1,4.898197E-1,5.306123E-1,5.1904745E-2,5.5592555E-1,-0E0,4.934624E-1,8.641319E-1,5.1768936E-2,9.3644917E-1,6.0694482E-2,1.139457E-1,-1.7498243E-1,4.0349208E-2,-1.4497557E-1,-0E0,1.6510428E-1,-5.9255846E-2,-1.4182194E-1,-3.987976E-2,-9.793079E-3,1.5807918E-1,-0E0,-1.3076165E-1],"split_indices":[49,167,92,79,66,20,143,52,46,18,0,85,77,199,26,0,0,0,0,0,0,0,0,0,0,0,0,0,0],"split_type":[0,0,0,0,0,0,0,0,0,0,0,0,0,0,0,0,0,0,0,0,0,0,0,0,0,0,0,0,0],"sum_hessian":[3.1245673E2,2.671212E2,4.533553E1,2.5589944E2,1.12217455E1,2.8480673E1,1.6854858E1,2.1534337E2,4.055608E1,1.0123635E1,1.0981102E0,6.375411E0,2.210526E1,3.9854376E0,1.286942E1,9.095275E1,1.2439062E2,4.4480186E0,3.6108063E1,8.972162E0,1.1514732E0,1.3414948E0,5.033916E0,1.7156704E1,4.9485574E0,1.0808655E0,2.9045722E0,8.638021E0,4.2313986E0],"tree_param":{"num_deleted":"0","num_feature":"200","num_nodes":"29","size_leaf_vector":"0"}},{"base_weights":[4.514812E-1,5.921316E-1,-8.380163E-1,8.255795E-1,1.5601143E-1,7.9222196E-1,-9.4391394E-1,8.697476E-1,-9.2615825E-1,2.814447E-1,-9.056715E-1,-1.0487882E0,2.2376624E-1,9.1763115E-1,-9.661865E-1,9.4033253E-1,-1.87901E0,-3.6817049E-3,7.180892E-1,-1.4223124E0,3.2652676E-1,-1.1161397E0,-0E0],"categories":[],"categories_nodes":[],"categories_segments":[],"categories_sizes":[],"default_left":[1,1,1,1,1,0,1,1,1,1,1,1,0,0,0,0,0,0,0,0,0,0,0],"id":10,"left_children":[1,3,5,7,9,-1,11,13,15,17,19,21,-1,-1,-1,-1,-1,-1,-1,-1,-1,-1,-1],"loss_changes":[5.44356E1,2.7127785E1,5.131975E0,1.3604095E1,1.2387844E1,0E0,3.8424625E0,1.5111313E1,7.7002254E0,1.1075727E1,6.7308216E0,1.9848995E0,0E0,0E0,0E0,0E0,0E0,0E0,0E0,0E0,0E0,0E0,0E0],"parents":[2147483647,0,0,1,1,2,2,3,3,4,4,6,6,7,7,8,8,9,9,10,10,11,11],"right_children":[2,4,6,8,10,-1,12,14,16,18,20,22,-1,-1,-1,-1,-1,-1,-1,-1,-1,-1,-1],"split_conditions":[8.9214146E-1,6.030647E-1,2.7292493E-1,9.271878E-1,8.111894E-1,8.4361866E-2,9.9973446E-1,9.1671324E-1,3.984245E-1,2.1388622E-1,4.9997607E-1,4.729503E-1,2.3828343E-2,9.77164E-2,-1.02886945E-1,1.00133814E-1,-2.0009138E-1,-3.9205613E-4,7.646764E-2,-1.5145873E-1,3.477107E-2,-1.18855104E-1,-0E0],"split_indices":[67,58,11,95,84,0,17,79,0,46,51,184,0,0,0,0,0,0,0,0,0,0,0],"split_type":[0,0,0,0,0,0,0,0,0,0,0,0,0,0,0,0,0,0,0,0,0,0,0],"sum_hessian":[3.008309E2,2.7162466E2,2.9206242E1,1.7611516E2,9.550949E1,1.4689116E0,2.773733E1,1.7208699E2,4.0281706E0,8.587559E1,9.633898E0,2.5873732E1,1.8635986E0,1.6800201E2,4.084981E0,1.1712174E0,2.8569534E0,5.1214035E1,3.4661552E1,7.093516E0,2.540382E0,2.443757E1,1.4361608E0],"tree_param":{"num_deleted":"0","num_feature":"200","num_nodes":"23","size_leaf_vector":"0"}},{"base_weights":[4.2039514E-1,5.8684635E-1,-5.2932024E-1,6.57145E-1,-9.693779E-1,-8.284709E-1,-6.964061E-3,7.633565E-1,1.0555999E-1,-1.307113E0,-1.4926726E-1,-0E0,-1.0596395E0,1.149534E0,-2.604977E-1,3.3490673E-1,9.1049993E-1,4.7266614E-1,-7.7040577E-1,6.82851E-1,-1.0128522E0,1.3256603E0,-4.6347705E-1,-0E0,-1.1588075E0,1.5642754E0,-0E0,4.4965923E-1,-6.025216E-1],"categories":[],"categories_nodes":[],"categories_segments":[],"categories_sizes":[],"default_left":[1,1,1,1,1,1,1,1,1,0,1,1,1,1,1,0,0,0,0,0,0,0,0,0,0,0,0,0,0],"id":11,"left_children":[1,3,5,7,9,11,13,15,17,-1,19,21,23,25,27,-1,-1,-1,-1,-1,-1,-1,-1,-1,-1,-1,-1,-1,-1],"loss_changes":[4.5813244E1,2.6848679E1,6.2260485E0,1.3391899E1,2.0824394E0,4.7002945E0,4.280475E0,1.1783203E1,1.2392062E1,0E0,2.692104E0,3.4638996E0,2.3099499E0,3.9437962E-1,3.4090579E0,0E0,0E0,0E0,0E0,0E0,0E0,0E0,0E0,0E0,0E0,0E0,0E0,0E0,0E0],"parents":[2147483647,0,0,1,1,2,2,3,3,4,4,5,5,6,6,7,7,8,8,10,10,11,11,12,12,13,13,14,14],"right_children":[2,4,6,8,10,12,14,16,18,-1,20,22,24,26,28,-1,-1,-1,-1,-1,-1,-1,-1,-1,-1,-1,-1,-1,-1],"split_conditions":[8.7591445E-1,5E-1,9.773922E-1,6.9690365E-1,9.624059E-1,6.363162E-1,8.556334E-2,2.8148156E-1,5.660652E-1,-1.3919142E-1,2.9734802E-2,4.934624E-1,2.4733633E-2,6.420859E-1,2.9971936E-1,3.5663433E-2,9.6957006E-2,5.0333112E-2,-8.203871E-2,7.271521E-2,-1.0785626E-1,1.4116646E-1,-4.9354587E-2,-0E0,-1.2339871E-1,1.6657603E-1,-0E0,4.788316E-2,-6.4161114E-2],"split_indices":[49,167,92,79,105,20,0,53,84,0,46,85,28,91,130,0,0,0,0,0,0,0,0,0,0,0,0,0,0],"split_type":[0,0,0,0,0,0,0,0,0,0,0,0,0,0,0,0,0,0,0,0,0,0,0,0,0,0,0,0,0],"sum_hessian":[2.8958566E2,2.4688394E2,4.2701706E1,2.365484E2,1.033555E1,2.6495667E1,1.6206041E1,1.975357E2,3.9012695E1,6.8536706E0,3.48188E0,6.1169643E0,2.0378702E1,2.5277424E0,1.3678298E1,5.1437088E1,1.4609862E2,2.7925827E1,1.1086866E1,1.4579595E0,2.0239205E0,1.3819121E0,4.735052E0,1.61999E0,1.8758713E1,1.5219766E0,1.0057658E0,3.935643E0,9.742655E0],"tree_param":{"num_deleted":"0","num_feature":"200","num_nodes":"29","size_leaf_vector":"0"}},{"base_weights":[3.913862E-1,5.149561E-1,-7.6452625E-1,7.4028385E-1,1.1373194E-1,5.9650826E-1,-8.7592584E-1,8.042272E-1,-4.1723913E-1,2.2524573E-1,-8.164691E-1,-9.856225E-1,1.9488226E-1,8.737036E-1,-2.9900536E-1,2.9221767E-1,-1.0036484E0,8.6506E-2,1.0340964E0,2.2798856E-1,-1.368323E0,-3.911091E-1,-1.1968399E0],"categories":[],"categories_nodes":[],"categories_segments":[],"categories_sizes":[],"default_left":[1,1,1,1,1,0,1,1,1,1,1,1,0,0,0,0,0,0,0,0,0,0,0],"id":12,"left_children":[1,3,5,7,9,-1,11,13,15,17,19,21,-1,-1,-1,-1,-1,-1,-1,-1,-1,-1,-1],"loss_changes":[3.970394E1,2.2357338E1,4.1753483E0,1.210891E1,9.189173E0,0E0,3.3483524E0,1.2020996E1,3.705176E0,8.638481E0,5.972401E0,2.0351963E0,0E0,0E0,0E0,0E0,0E0,0E0,0E0,0E0,0E0,0E0,0E0],"parents":[2147483647,0,0,1,1,2,2,3,3,4,4,6,6,7,7,8,8,9,9,10,10,11,11],"right_children":[2,4,6,8,10,-1,12,14,16,18,20,22,-1,-1,-1,-1,-1,-1,-1,-1,-1,-1,-1],"split_conditions":[8.9214146E-1,6.030647E-1,3.052957E-1,5.832491E-1,8.111894E-1,6.352077E-2,9.9973446E-1,8.8479996E-1,2.8721797E-1,8.3337057E-1,1.6498494E-1,2.5509704E-2,2.0752557E-2,9.3038656E-2,-3.184038E-2,3.1117577E-2,-1.0687617E-1,9.2118215E-3,1.101185E-1,2.4277968E-2,-1.4570951E-1,-4.1648295E-2,-1.2744868E-1],"split_indices":[67,58,13,122,84,0,17,79,96,9,24,46,0,0,0,0,0,0,0,0,0,0,0],"split_type":[0,0,0,0,0,0,0,0,0,0,0,0,0,0,0,0,0,0,0,0,0,0,0],"sum_hessian":[2.7887115E2,2.523621E2,2.6509043E1,1.607438E2,9.161831E1,1.6383166E0,2.4870726E1,1.5277066E2,7.9731393E0,8.23318E1,9.286505E0,2.3014616E1,1.8561101E0,1.4417899E2,8.591677E0,3.1962705E0,4.7768683E0,7.0852036E1,1.1479768E1,2.8763084E0,6.410197E0,6.705657E0,1.630896E1],"tree_param":{"num_deleted":"0","num_feature":"200","num_nodes":"23","size_leaf_vector":"0"}},{"base_weights":[3.6404163E-1,5.326161E-1,-3.815332E-1,1.9268475E-1,7.6868397E-1,-6.7953664E-1,1.9472742E-1,4.1469195E-1,-4.890991E-1,8.219365E-1,-1.1019852E0,1.3902286E-1,-9.838448E-1,7.3149705E-1,-5.136819E-1,5.6491673E-1,-5.214309E-1,-1.6007091E0,1.0264257E-1,8.585314E-1,-3.9122504E-1,-1.9687421E0,5.2502334E-2,7.8367215E-1,-5.580899E-1,1.3139983E-1,-1.1602368E0,-7.168158E-1,1.2924664E0,-1.0717839E0,1.0351646E-1],"categories":[],"categories_nodes":[],"categories_segments":[],"categories_sizes":[],"default_left":[1,1,1,1,1,1,1,1,1,1,1,1,1,1,1,0,0,0,0,0,0,0,0,0,0,0,0,0,0,0,0],"id":13,"left_children":[1,3,5,7,9,11,13,15,17,19,21,23,25,27,29,-1,-1,-1,-1,-1,-1,-1,-1,-1,-1,-1,-1,-1,-1,-1,-1],"loss_changes":[3.3880203E1,1.7129974E1,8.676976E0,1.3746503E1,1.2693596E1,8.653895E0,6.241654E0,9.7713995E0,1.5132452E1,5.828209E0,4.3223686E0,3.923036E0,5.3679543E0,8.11129E0,2.76422E0,0E0,0E0,0E0,0E0,0E0,0E0,0E0,0E0,0E0,0E0,0E0,0E0,0E0,0E0,0E0,0E0],"parents":[2147483647,0,0,1,1,2,2,3,3,4,4,5,5,6,6,7,7,8,8,9,9,10,10,11,11,12,12,13,13,14,14],"right_children":[2,4,6,8,10,12,14,16,18,20,22,24,26,28,30,-1,-1,-1,-1,-1,-1,-1,-1,-1,-1,-1,-1,-1,-1,-1,-1],"split_conditions":[8.464987E-1,3.9585483E-1,4.8793843E-1,4.9962357E-1,7.677049E-1,2.8468293E-1,7.999642E-1,8.3352757E-1,5.0861216E-1,9.015822E-1,8.732152E-1,4.9166766E-1,1.935638E-1,9.4635546E-2,8.4901714E-1,6.0156662E-2,-5.552596E-2,-1.7045577E-1,1.09301675E-2,9.1423005E-2,-4.166064E-2,-2.0964675E-1,5.590851E-3,8.345141E-2,-5.942969E-2,1.399246E-2,-1.2355091E-1,-7.633204E-2,1.3763173E-1,-1.1413176E-1,1.1023225E-2],"split_indices":[67,76,92,115,56,125,73,14,95,15,45,85,76,199,119,0,0,0,0,0,0,0,0,0,0,0,0,0,0,0,0],"split_type":[0,0,0,0,0,0,0,0,0,0,0,0,0,0,0,0,0,0,0,0,0,0,0,0,0,0,0,0,0,0,0],"sum_hessian":[2.6889584E2,2.198987E2,4.899714E1,9.1061386E1,1.2883731E2,3.2908215E1,1.6088924E1,6.928919E1,2.1772192E1,1.2555499E2,3.282319E0,8.442191E0,2.4466022E1,9.583869E0,6.505055E0,6.0204422E1,9.084773E0,7.873004E0,1.3899189E1,1.2231029E2,3.2447064E0,2.1363947E0,1.1459243E0,4.785246E0,3.656945E0,2.926307E0,2.1539717E1,2.4080815E0,7.175788E0,3.868808E0,2.636247E0],"tree_param":{"num_deleted":"0","num_feature":"200","num_nodes":"31","size_leaf_vector":"0"}},{"base_weights":[3.383672E-1,6.82767E-1,-0E0,7.422024E-1,-1.1005765E0,-1.6063336E-1,7.391759E-1,3.364512E-1,9.4281024E-1,-2.6706092E0,8.8716716E-1,1.6973524E-1,-5.584817E-1,-1.1514882E0,9.555787E-1,-6.087338E-1,7.3416793E-1,9.855747E-1,-1.0682263E0,-7.3355824E-1,4.6744767E-1,-7.1299267E-1,3.9542317E-1,-0E0,-2.8311415E0,1.0609359E0,-3.82675E-1],"categories":[],"categories_nodes":[],"categories_segments":[],"categories_sizes":[],"default_left":[1,1,1,1,1,1,1,1,1,0,0,1,1,1,1,0,0,0,0,0,0,0,0,0,0,0,0],"id":14,"left_children":[1,3,5,7,9,11,13,15,17,-1,-1,19,21,23,25,-1,-1,-1,-1,-1,-1,-1,-1,-1,-1,-1,-1],"loss_changes":[3.0119255E1,1.3413055E1,1.563512E1,9.440559E0,1.2994689E1,1.4333878E1,9.536703E0,1.5886458E1,7.0505905E0,0E0,0E0,1.5452771E1,7.467325E0,5.560358E0,3.3823452E0,0E0,0E0,0E0,0E0,0E0,0E0,0E0,0E0,0E0,0E0,0E0,0E0],"parents":[2147483647,0,0,1,1,2,2,3,3,4,4,5,5,6,6,7,7,8,8,11,11,12,12,13,13,14,14],"right_children":[2,4,6,8,10,12,14,16,18,-1,-1,20,22,24,26,-1,-1,-1,-1,-1,-1,-1,-1,-1,-1,-1,-1],"split_conditions":[3.5992497E-1,9.84465E-1,1E0,4.4744372E-1,2.6912215E-1,7.124035E-1,4.530888E-1,3.255288E-1,9.5324266E-1,-2.8438693E-1,9.4472356E-2,2.7665293E-1,5.948974E-1,4.124251E-1,9.918263E-1,-6.482264E-2,7.817983E-2,1.04951546E-1,-1.13752924E-1,-7.8114904E-2,4.977741E-2,-7.5924926E-2,4.210769E-2,-0E0,-3.0148163E-1,1.1297658E-1,-4.0750165E-2],"split_indices":[103,97,51,45,38,15,34,28,99,0,0,41,19,2,77,0,0,0,0,0,0,0,0,0,0,0,0],"split_type":[0,0,0,0,0,0,0,0,0,0,0,0,0,0,0,0,0,0,0,0,0,0,0,0,0,0,0],"sum_hessian":[2.5926343E2,1.282785E2,1.3098491E2,1.2443736E2,3.8411365E0,1.0745334E2,2.3531578E1,4.2061504E1,8.2375854E1,2.2950256E0,1.5461109E0,5.797165E1,4.948169E1,2.1581457E0,2.1373432E1,1.2056214E1,3.000529E1,8.092636E1,1.4494987E0,1.3920458E1,4.4051193E1,4.3069893E1,6.4117966E0,1.1151363E0,1.0430094E0,2.0186838E1,1.1865944E0],"tree_param":{"num_deleted":"0","num_feature":"200","num_nodes":"27","size_leaf_vector":"0"}},{"base_weights":[3.154483E-1,5.949784E-1,-5.5435557E-2,3.2263866E-1,9.7455126E-1,2.4129745E-1,-3.6219892E-1,4.9255693E-1,-8.639402E-1,1.0180949E0,-7.9866624E-1,-5.6495417E-2,6.80062E-1,-5.1403075E-1,6.567446E-1,6.084023E-1,-4.9385756E-1,-1.3326806E-1,-1.6910975E0,1.06668E0,-3.7800545E-1,4.66559E-1,-7.2031766E-1,1.0243341E0,1.2863135E-1,5.831503E-2,-7.768371E-1,-1.1480304E-1,1.2082131E0],"categories":[],"categories_nodes":[],"categories_segments":[],"categories_sizes":[],"default_left":[1,1,1,1,1,1,1,1,1,1,0,1,1,1,1,0,0,0,0,0,0,0,0,0,0,0,0,0,0],"id":15,"left_children":[1,3,5,7,9,11,13,15,17,19,-1,21,23,25,27,-1,-1,-1,-1,-1,-1,-1,-1,-1,-1,-1,-1,-1,-1],"loss_changes":[2.6186985E1,1.4111301E1,9.763652E0,1.6791939E1,4.6825066E0,7.295385E0,8.168966E0,8.531773E0,5.1610565E0,4.300926E0,0E0,1.09079075E1,3.6076632E0,7.429908E0,3.3342674E0,0E0,0E0,0E0,0E0,0E0,0E0,0E0,0E0,0E0,0E0,0E0,0E0,0E0,0E0],"parents":[2147483647,0,0,1,1,2,2,3,3,4,4,5,5,6,6,7,7,8,8,9,9,11,11,12,12,13,13,14,14],"right_children":[2,4,6,8,10,12,14,16,18,20,-1,22,24,26,28,-1,-1,-1,-1,-1,-1,-1,-1,-1,-1,-1,-1,-1,-1],"split_conditions":[6.030647E-1,7.804313E-1,6.8271583E-1,9.882643E-1,9.5390403E-1,5.055593E-1,5.818236E-1,5.832491E-1,4.9893105E-1,9.9128914E-1,-8.50481E-2,1.8307015E-1,1.7385426E-1,2.882471E-1,7.5067157E-1,6.478734E-2,-5.2589737E-2,-1.4191404E-2,-1.8008102E-1,1.1358825E-1,-4.0252917E-2,4.9682777E-2,-7.670494E-2,1.09078944E-1,1.3697652E-2,6.209831E-3,-8.2723565E-2,-1.2225107E-2,1.2865978E-1],"split_indices":[58,45,67,63,99,95,139,122,116,28,0,95,44,38,17,0,0,0,0,0,0,0,0,0,0,0,0,0,0],"split_type":[0,0,0,0,0,0,0,0,0,0,0,0,0,0,0,0,0,0,0,0,0,0,0,0,0,0,0,0,0],"sum_hessian":[2.4978842E2,1.4325757E2,1.06530846E2,8.4243614E1,5.9013958E1,5.3263058E1,5.3267784E1,7.409113E1,1.0152484E1,5.7898563E1,1.1153921E0,3.1005283E1,2.2257776E1,4.682182E1,6.4459662E0,6.6794014E1,7.29712E0,5.7406006E0,4.411884E0,5.6324753E1,1.5738131E0,1.6890985E1,1.4114298E1,1.3099154E1,9.158621E0,1.4094028E1,3.272779E1,2.284537E0,4.161429E0],"tree_param":{"num_deleted":"0","num_feature":"200","num_nodes":"29","size_leaf_vector":"0"}},{"base_weights":[2.9352227E-1,9.083795E-1,1.3849089E-1,9.949769E-1,-0E0,-1.21157214E-1,4.675902E-1,-3.4264896E-2,1.0364629E0,9.255061E-1,-1.0136585E0,6.141526E-2,-7.828455E-1,-6.006789E-1,5.679613E-1,1.0785921E0,-0E0,-5.0224803E-2,8.6826587E-1,-0E0,-1.0622284E0,-1.3314558E0,2.9624772E-1,6.4336234E-1,-9.077049E-1],"categories":[],"categories_nodes":[],"categories_segments":[],"categories_sizes":[],"default_left":[1,1,1,1,1,1,1,0,1,0,0,1,1,1,1,0,0,0,0,0,0,0,0,0,0],"id":16,"left_children":[1,3,5,7,9,11,13,-1,15,-1,-1,17,19,21,23,-1,-1,-1,-1,-1,-1,-1,-1,-1,-1],"loss_changes":[2.2385794E1,3.7261925E0,1.667599E1,2.399025E0,3.9464643E0,1.3309458E1,9.208744E0,0E0,2.0612411E0,0E0,0E0,7.934197E0,5.1739883E0,5.1033573E0,8.6641445E0,0E0,0E0,0E0,0E0,0E0,0E0,0E0,0E0,0E0,0E0],"parents":[2147483647,0,0,1,1,2,2,3,3,4,4,5,5,6,6,8,8,11,11,12,12,13,13,14,14],"right_children":[2,4,6,8,10,12,14,-1,16,-1,-1,18,20,22,24,-1,-1,-1,-1,-1,-1,-1,-1,-1,-1],"split_conditions":[5.57724E-2,5.2771795E-1,4.8793843E-1,1.3901845E-1,9.9393094E-1,8.5267556E-1,1.8132817E-2,-3.6487887E-3,6.030647E-1,9.8554984E-2,-1.0794213E-1,9.179127E-1,7.779308E-2,4.1240074E-2,5E-1,1.1485675E-1,-0E0,-5.348322E-3,9.2459604E-2,-0E0,-1.1311422E-1,-1.4178362E-1,3.1546727E-2,6.851015E-2,-9.665937E-2],"split_indices":[103,61,92,29,109,67,113,0,58,0,0,11,23,44,118,0,0,0,0,0,0,0,0,0,0],"split_type":[0,0,0,0,0,0,0,0,0,0,0,0,0,0,0,0,0,0,0,0,0,0,0,0,0],"sum_hessian":[2.4073637E2,4.7771107E1,1.9296527E2,4.357987E1,4.191238E0,1.0695649E2,8.600877E1,1.1877148E0,4.2392155E1,2.208079E0,1.9831586E0,8.319835E1,2.3758142E1,6.924176E0,7.90846E1,4.09163E1,1.475852E0,7.250953E1,1.0688819E1,6.2727003E0,1.7485441E1,4.1425023E0,2.781674E0,7.559083E1,3.4937694E0],"tree_param":{"num_deleted":"0","num_feature":"200","num_nodes":"25","size_leaf_vector":"0"}},{"base_weights":[2.703481E-1,5.7884866E-1,-7.7289063E-3,-3.825776E-2,7.394014E-1,-1.1299267E-1,8.298918E-1,-1.9453236E0,4.1624638E-1,1.2533946E-1,9.108084E-1,1.0826147E-2,-6.8424857E-1,-1.9336994E-1,9.753257E-1,-2.6331236E0,-1.9499837E-1,9.112269E-1,-5.6059605E-1,-4.0421638E-1,8.6199343E-1,9.7263753E-1,-3.3402222E-1,5.0923127E-1,-1.8229498E-1,4.6369067E-1,-9.50084E-1,-0E0,1.1153809E0],"categories":[],"categories_nodes":[],"categories_segments":[],"categories_sizes":[],"default_left":[1,1,1,1,1,1,1,1,1,1,1,1,1,0,1,0,0,0,0,0,0,0,0,0,0,0,0,0,0],"id":17,"left_children":[1,3,5,7,9,11,13,15,17,19,21,23,25,-1,27,-1,-1,-1,-1,-1,-1,-1,-1,-1,-1,-1,-1,-1,-1],"loss_changes":[2.0381409E1,1.1458298E1,1.0388161E1,2.0253178E1,8.858162E0,8.0786E0,2.366333E0,3.9465446E0,8.837474E0,8.133908E0,5.675045E0,8.733852E0,6.431574E0,0E0,2.2041292E0,0E0,0E0,0E0,0E0,0E0,0E0,0E0,0E0,0E0,0E0,0E0,0E0,0E0,0E0],"parents":[2147483647,0,0,1,1,2,2,3,3,4,4,5,5,6,6,7,7,8,8,9,9,10,10,11,11,12,12,14,14],"right_children":[2,4,6,8,10,12,14,16,18,20,22,24,26,-1,28,-1,-1,-1,-1,-1,-1,-1,-1,-1,-1,-1,-1,-1,-1],"split_conditions":[3.5992497E-1,1.8508151E-1,9.260778E-1,5.175173E-1,2.8148156E-1,9.882643E-1,9.85767E-1,5.514333E-1,7.4935794E-1,1.277366E-1,7.541554E-1,6.030647E-1,6.360831E-1,-2.0591512E-2,2.6376867E-1,-2.8039518E-1,-2.076492E-2,9.7034425E-2,-5.9696563E-2,-4.3044057E-2,9.179167E-2,1.03573896E-1,-3.5569247E-2,5.4226846E-2,-1.9412166E-2,4.9377333E-2,-1.0117222E-1,-0E0,1.187743E-1],"split_indices":[103,84,38,0,53,63,68,6,43,41,35,58,112,0,36,0,0,0,0,0,0,0,0,0,0,0,0,0,0],"split_type":[0,0,0,0,0,0,0,0,0,0,0,0,0,0,0,0,0,0,0,0,0,0,0,0,0,0,0,0,0],"sum_hessian":[2.3400168E2,1.11842E2,1.22159676E2,2.2402317E1,8.943969E1,1.0909764E2,1.3062036E1,4.532779E0,1.7869537E1,2.0204025E1,6.9235664E1,8.889914E1,2.0198498E1,1.1661872E0,1.1895848E1,3.030763E0,1.5020161E0,1.2224725E1,5.644813E0,1.1333149E1,8.870875E0,6.63719E1,2.8637621E0,2.5597994E1,6.3301147E1,3.4173374E0,1.678116E1,1.0303648E0,1.0865483E1],"tree_param":{"num_deleted":"0","num_feature":"200","num_nodes":"29","size_leaf_vector":"0"}},{"base_weights":[2.4982189E-1,8.519421E-1,1.0974728E-1,9.455005E-1,-0E0,-1.21132255E-1,4.10218E-1,-0E0,1.0141758E0,8.807675E-1,-8.675252E-1,-2.6780779E-2,-1.2287788E0,5.2204245E-1,-3.9948046E-1,8.173711E-1,-1.201769E0,1.0385747E0,-0E0,-0E0,-2.085928E0,9.715296E-2,-5.7193553E-1,-8.368251E-1,-3.0740218E0,5.985146E-1,-8.3355254E-1,-1.7628797E0,5.192175E-2],"categories":[],"categories_nodes":[],"categories_segments":[],"categories_sizes":[],"default_left":[1,1,1,1,1,1,1,1,1,0,1,1,1,1,1,0,0,0,0,0,0,0,0,0,0,0,0,0,0],"id":18,"left_children":[1,3,5,7,9,11,13,15,17,-1,19,21,23,25,27,-1,-1,-1,-1,-1,-1,-1,-1,-1,-1,-1,-1,-1,-1],"loss_changes":[1.8624908E1,3.4100952E0,1.2979183E1,2.3152466E0,3.1511483E0,1.0145971E1,7.431841E0,2.6336565E0,6.672096E-1,0E0,2.9731045E0,6.7316146E0,3.4335403E0,7.3475437E0,6.6375866E0,0E0,0E0,0E0,0E0,0E0,0E0,0E0,0E0,0E0,0E0,0E0,0E0,0E0,0E0],"parents":[2147483647,0,0,1,1,2,2,3,3,4,4,5,5,6,6,7,7,8,8,10,10,11,11,12,12,13,13,14,14],"right_children":[2,4,6,8,10,12,14,16,18,-1,20,22,24,26,28,-1,-1,-1,-1,-1,-1,-1,-1,-1,-1,-1,-1,-1,-1],"split_conditions":[5.57724E-2,5.2771795E-1,4.8793843E-1,1.3031593E-2,9.9393094E-1,8.885803E-1,9.9127364E-1,7.5384276E-3,9.0623033E-1,9.3790874E-2,1.4866342E-1,8.7591445E-1,4.2237845E-1,5E-1,4.1385155E-2,8.703993E-2,-1.2797357E-1,1.1059539E-1,-0E0,-0E0,-2.2212559E-1,1.0345592E-2,-6.090408E-2,-8.9111544E-2,-3.273454E-1,6.373442E-2,-8.876306E-2,-1.8772493E-1,5.529026E-3],"split_indices":[103,61,92,13,109,21,70,1,76,0,18,49,109,118,44,0,0,0,0,0,0,0,0,0,0,0,0,0,0],"split_type":[0,0,0,0,0,0,0,0,0,0,0,0,0,0,0,0,0,0,0,0,0,0,0,0,0,0,0,0,0],"sum_hessian":[2.2694276E2,4.2099514E1,1.8484325E2,3.799294E1,4.106573E0,1.0351993E2,8.1323326E1,2.721439E0,3.52715E1,2.0051413E0,2.1014318E0,9.584897E1,7.6709566E0,7.20398E1,9.283522E0,1.6959186E0,1.0255203E0,3.4251865E1,1.0196342E0,1.062292E0,1.03914E0,7.729973E1,1.8549242E1,6.577812E0,1.0931448E0,6.8572266E1,3.467536E0,2.5979638E0,6.6855583E0],"tree_param":{"num_deleted":"0","num_feature":"200","num_nodes":"29","size_leaf_vector":"0"}},{"base_weights":[2.3000205E-1,8.2150495E-1,9.909634E-2,9.1735375E-1,-0E0,1.8002863E-1,-6.5816027E-1,-1.2483678E-1,9.6712613E-1,9.3199223E-1,-7.474927E-1,-2.4534017E-2,4.3607846E-1,-1.0063324E0,3.395371E-1,1.0179615E0,-0E0,-1.9390185E0,-0E0,9.043018E-2,-7.5031793E-1,-4.8340803E-1,5.319355E-1,-1.1526579E0,1.983521E-1,1.262647E0,-4.302443E-1],"categories":[],"categories_nodes":[],"categories_segments":[],"categories_sizes":[],"default_left":[1,1,1,1,1,1,1,0,1,0,1,1,1,1,1,0,0,0,0,0,0,0,0,0,0,0,0],"id":19,"left_children":[1,3,5,7,9,11,13,-1,15,-1,17,19,21,23,25,-1,-1,-1,-1,-1,-1,-1,-1,-1,-1,-1,-1],"loss_changes":[1.6624733E1,3.0881577E0,1.0885293E1,2.2788353E0,2.8830009E0,8.8566475E0,6.236206E0,0E0,2.0134525E0,0E0,2.8478818E0,7.905479E0,6.58484E0,2.7947893E0,3.28247E0,0E0,0E0,0E0,0E0,0E0,0E0,0E0,0E0,0E0,0E0,0E0,0E0],"parents":[2147483647,0,0,1,1,2,2,3,3,4,4,5,5,6,6,8,8,10,10,11,11,12,12,13,13,14,14],"right_children":[2,4,6,8,10,12,14,-1,16,-1,18,20,22,24,26,-1,-1,-1,-1,-1,-1,-1,-1,-1,-1,-1,-1],"split_conditions":[5.57724E-2,5.2771795E-1,9.4382733E-1,1.3901845E-1,1.2497379E-1,4.8793843E-1,8.4307396E-1,-1.3293576E-2,6.030647E-1,9.9245675E-2,6.378279E-1,8.5267556E-1,1.8132817E-2,9.966371E-1,9.8383117E-1,1.0840034E-1,-0E0,-2.0648155E-1,-0E0,9.6296985E-3,-7.98996E-2,-5.1476993E-2,5.664457E-2,-1.2274384E-1,2.1122051E-2,1.3445634E-1,-4.581571E-2],"split_indices":[103,61,66,29,28,92,87,0,58,0,199,67,113,95,3,0,0,0,0,0,0,0,0,0,0,0,0],"split_type":[0,0,0,0,0,0,0,0,0,0,0,0,0,0,0,0,0,0,0,0,0,0,0,0,0,0,0],"sum_hessian":[2.2108026E2,3.9310143E1,1.8177011E2,3.5192554E1,4.1175876E0,1.6486528E2,1.6904825E1,1.1123285E0,3.4080227E1,1.8367125E0,2.2808752E0,9.0487274E1,7.437801E1,1.2930021E1,3.9748037E0,3.2703518E1,1.3767099E0,1.088554E0,1.1923212E0,7.748311E1,1.3004168E1,6.4901934E0,6.7887825E1,1.1926914E1,1.0031078E0,2.1215057E0,1.8532978E0],"tree_param":{"num_deleted":"0","num_feature":"200","num_nodes":"27","size_leaf_vector":"0"}},{"base_weights":[2.116525E-1,7.901038E-1,8.9823015E-2,8.886272E-1,-0E0,-1.4215113E-1,3.1812593E-1,-0E0,9.661774E-1,-9.39743E-1,6.027454E-1,-3.2674274E-1,8.025789E-1,3.289464E-2,6.6544497E-1,7.604654E-1,-1.127064E0,-0E0,9.9350405E-1,8.750622E-1,-0E0,-7.0834106E-1,-5.450893E-2,1.1543256E0,-5.2660924E-1,3.6047354E-1,-7.0823455E-1,9.011606E-1,-2.2856195E-2],"categories":[],"categories_nodes":[],"categories_segments":[],"categories_sizes":[],"default_left":[1,1,1,1,1,1,1,1,1,0,1,1,1,1,1,0,0,0,0,0,0,0,0,0,0,0,0,0,0],"id":20,"left_children":[1,3,5,7,9,11,13,15,17,-1,19,21,23,25,27,-1,-1,-1,-1,-1,-1,-1,-1,-1,-1,-1,-1,-1,-1],"loss_changes":[1.469629E1,2.7915077E0,9.552179E0,2.310423E0,2.3355272E0,1.4991713E1,8.656907E0,2.2169595E0,5.9669304E-1,0E0,2.6028627E-1,7.2373576E0,6.8019037E0,1.2177057E1,7.00334E0,0E0,0E0,0E0,0E0,0E0,0E0,0E0,0E0,0E0,0E0,0E0,0E0,0E0,0E0],"parents":[2147483647,0,0,1,1,2,2,3,3,4,4,5,5,6,6,7,7,8,8,10,10,11,11,12,12,13,13,14,14],"right_children":[2,4,6,8,10,12,14,16,18,-1,20,22,24,26,28,-1,-1,-1,-1,-1,-1,-1,-1,-1,-1,-1,-1,-1,-1],"split_conditions":[5.57724E-2,5.2771795E-1,4.520216E-1,1.3031593E-2,2.271789E-1,5.8132726E-1,2.6427823E-1,1.2330603E-2,4.080221E-2,-1.00071035E-1,8.323314E-1,3.8042238E-1,6.493188E-1,4.164803E-1,9.200324E-1,8.098018E-2,-1.2001841E-1,-0E0,1.0579592E-1,9.318333E-2,-0E0,-7.542958E-2,-5.8045285E-3,1.2292144E-1,-5.6077387E-2,3.8385984E-2,-7.541824E-2,9.596249E-2,-2.4339028E-3],"split_indices":[103,61,45,13,2,134,46,12,27,0,42,155,22,2,77,0,0,0,0,0,0,0,0,0,0,0,0,0,0],"split_type":[0,0,0,0,0,0,0,0,0,0,0,0,0,0,0,0,0,0,0,0,0,0,0,0,0,0,0,0,0],"sum_hessian":[2.1523598E2,3.6670452E1,1.7856552E2,3.252296E1,4.1474934E0,8.740718E1,9.115833E1,2.5377908E0,2.9985168E1,1.5721357E0,2.5753574E0,7.360011E1,1.3807068E1,5.090637E1,4.025197E1,1.4795619E0,1.0582287E0,1.0227981E0,2.896237E1,1.5569391E0,1.0184184E0,2.9818216E1,4.37819E1,1.1237858E1,2.569209E0,3.580773E1,1.5098636E1,3.0562012E1,9.689957E0],"tree_param":{"num_deleted":"0","num_feature":"200","num_nodes":"29","size_leaf_vector":"0"}},{"base_weights":[1.9542766E-1,7.599779E-1,8.170618E-2,8.272961E-1,-3.1087825E-1,1.5336438E-1,-6.065958E-1,2.917048E-1,1.0325625E0,6.463442E-2,7.8110737E-1,-9.4305074E-1,3.0198607E-1,5.9873784E-1,-9.1508555E-1,1.073413E0,-0E0,2.0182578E-1,-3.6240977E-1,9.627785E-1,-3.3597466E-1,-1.1843446E0,-0E0,1.1728514E0,-3.8454425E-1],"categories":[],"categories_nodes":[],"categories_segments":[],"categories_sizes":[],"default_left":[1,1,1,1,0,1,1,1,1,1,1,1,1,0,0,0,0,0,0,0,0,0,0,0,0],"id":21,"left_children":[1,3,5,7,-1,9,11,13,15,17,19,21,23,-1,-1,-1,-1,-1,-1,-1,-1,-1,-1,-1,-1],"loss_changes":[1.2991985E1,2.7532063E0,8.393881E0,2.8887596E0,0E0,8.418767E0,5.178333E0,3.4716675E0,7.9491806E-1,8.135933E0,4.1906633E0,2.585659E0,2.7273576E0,0E0,0E0,0E0,0E0,0E0,0E0,0E0,0E0,0E0,0E0,0E0,0E0],"parents":[2147483647,0,0,1,1,2,2,3,3,5,5,6,6,7,7,8,8,9,9,10,10,11,11,12,12],"right_children":[2,4,6,8,-1,10,12,14,16,18,20,22,24,-1,-1,-1,-1,-1,-1,-1,-1,-1,-1,-1,-1],"split_conditions":[5.57724E-2,8.671752E-1,9.4382733E-1,2.8148156E-1,-3.31047E-2,9.178804E-1,8.4307396E-1,6.313256E-1,8.762529E-1,4.9893105E-1,8.4234655E-1,9.999999E-1,9.8383117E-1,6.3758194E-2,-9.7445324E-2,1.1430524E-1,-0E0,2.1491956E-2,-3.8592167E-2,1.02524035E-1,-3.5777155E-2,-1.261181E-1,-0E0,1.2489421E-1,-4.0949218E-2],"split_indices":[103,98,66,53,0,11,87,73,76,116,23,115,3,0,0,0,0,0,0,0,0,0,0,0,0],"split_type":[0,0,0,0,0,0,0,0,0,0,0,0,0,0,0,0,0,0,0,0,0,0,0,0,0],"sum_hessian":[2.0939333E2,3.4308147E1,1.7508517E2,3.2752136E1,1.5560106E0,1.5928824E2,1.5796937E1,9.80459E0,2.2947546E1,1.4031902E2,1.8969229E1,1.1958518E1,3.8384194E0,8.174008E0,1.6305822E0,2.1923378E1,1.0241675E0,1.0715525E2,3.316376E1,1.6729824E1,2.2394042E0,9.422131E0,2.536387E0,2.0335233E0,1.8048961E0],"tree_param":{"num_deleted":"0","num_feature":"200","num_nodes":"25","size_leaf_vector":"0"}},{"base_weights":[1.7876291E-1,-1.5835029E-1,3.4306672E-1,4.4864365E-1,-3.7952384E-1,6.5804505E-1,1.0402663E-1,6.511462E-1,-7.929704E-1,-1.8237299E-1,-1.1029768E0,-5.7399154E-1,8.06256E-1,-2.4594395E-1,4.8700526E-1,2.1040347E-1,1.251365E0,-3.249781E-1,6.8344665E-1,-1.795016E0,-4.185962E-1,1.8574953E-1,-3.6550143E0,8.53178E-1,-1.0439117E0,3.5308364E-1,-6.1999357E-1,7.404225E-1,-1.706753E-1],"categories":[],"categories_nodes":[],"categories_segments":[],"categories_sizes":[],"default_left":[1,1,1,1,1,1,1,1,0,1,1,1,1,1,1,0,0,0,0,0,0,0,0,0,0,0,0,0,0],"id":22,"left_children":[1,3,5,7,9,11,13,15,-1,17,19,21,23,25,27,-1,-1,-1,-1,-1,-1,-1,-1,-1,-1,-1,-1,-1,-1],"loss_changes":[1.1446531E1,8.833787E0,1.00415535E1,4.203071E0,6.308193E0,1.0887598E1,1.0838648E1,3.1798396E0,0E0,4.6446795E0,3.5065517E0,1.5779516E1,4.505764E0,9.336423E0,6.7872086E0,0E0,0E0,0E0,0E0,0E0,0E0,0E0,0E0,0E0,0E0,0E0,0E0,0E0,0E0],"parents":[2147483647,0,0,1,1,2,2,3,3,4,4,5,5,6,6,7,7,9,9,10,10,11,11,12,12,13,13,14,14],"right_children":[2,4,6,8,10,12,14,16,-1,18,20,22,24,26,28,-1,-1,-1,-1,-1,-1,-1,-1,-1,-1,-1,-1,-1,-1],"split_conditions":[4.2564172E-1,3.0060333E-1,3.2145786E-1,2.3782335E-2,6.381066E-1,1.7782073E-2,3.8042238E-1,6.538774E-1,-8.4441565E-2,6.637789E-1,8.4555924E-1,6.827041E-1,8.956125E-1,2.2045673E-1,6.89707E-1,2.2405373E-2,1.3325493E-1,-3.460616E-2,7.2778635E-2,-1.9114706E-1,-4.457533E-2,1.9780032E-2,-3.8921392E-1,9.085293E-2,-1.1116371E-1,3.759905E-2,-6.6021666E-2,7.884586E-2,-1.8174812E-2],"split_indices":[199,91,81,113,88,7,155,24,0,18,35,199,86,22,42,0,0,0,0,0,0,0,0,0,0,0,0,0,0],"split_type":[0,0,0,0,0,0,0,0,0,0,0,0,0,0,0,0,0,0,0,0,0,0,0,0,0,0,0,0,0],"sum_hessian":[2.0485036E2,6.605569E1,1.3879468E2,1.6990969E1,4.906472E1,5.8910168E1,7.9884514E1,1.4983542E1,2.007426E0,3.9148964E1,9.915754E0,5.934367E0,5.29758E1,4.1011063E1,3.887345E1,9.161909E0,5.8216333E0,3.414954E1,4.9994254E0,4.5332007E0,5.382553E0,4.627821E0,1.3065467E0,5.1953064E1,1.0227351E0,1.5213657E1,2.5797403E1,2.8648792E1,1.0224658E1],"tree_param":{"num_deleted":"0","num_feature":"200","num_nodes":"29","size_leaf_vector":"0"}},{"base_weights":[1.6460356E-1,-8.291641E-2,3.7937945E-1,-2.4241096E-1,7.218383E-1,6.1318144E-2,6.859E-1,-4.227073E-1,2.285272E-1,1.130066E0,-2.9404736E-1,3.3557725E-1,-6.2759477E-1,7.624911E-1,-7.769162E-1,-1.001462E0,-1.1948252E-1,5.309924E-1,-5.9957963E-1,1.496399E-1,-1.5335239E0,9.284106E-1,-1.2436307E-3,-1.6061285E0,-8.49178E-2,8.215328E-1,-6.835556E-1,-2.4275255E0,2.9053402E-1],"categories":[],"categories_nodes":[],"categories_segments":[],"categories_sizes":[],"default_left":[1,1,1,1,1,1,1,1,1,0,1,1,1,1,1,0,0,0,0,0,0,0,0,0,0,0,0,0,0],"id":23,"left_children":[1,3,5,7,9,11,13,15,17,-1,19,21,23,25,27,-1,-1,-1,-1,-1,-1,-1,-1,-1,-1,-1,-1,-1,-1],"loss_changes":[1.0795233E1,1.1526978E1,1.0155518E1,6.65792E0,6.518699E0,1.0049887E1,6.0793877E0,9.336988E0,5.1131086E0,0E0,2.8475494E0,8.323299E0,6.9644866E0,4.5131607E0,5.3053226E0,0E0,0E0,0E0,0E0,0E0,0E0,0E0,0E0,0E0,0E0,0E0,0E0,0E0,0E0],"parents":[2147483647,0,0,1,1,2,2,3,3,4,4,5,5,6,6,7,7,8,8,10,10,11,11,12,12,13,13,14,14],"right_children":[2,4,6,8,10,12,14,16,18,-1,20,22,24,26,28,-1,-1,-1,-1,-1,-1,-1,-1,-1,-1,-1,-1,-1,-1],"split_conditions":[4.520216E-1,5.8132726E-1,2.6427823E-1,4.879247E-1,5.9821117E-1,4.164803E-1,9.8645735E-1,7.606457E-1,6.5229106E-1,1.2033809E-1,7.338926E-1,3.2358247E-1,9.848908E-1,9.534508E-1,2.6912215E-1,-1.0664334E-1,-1.2723414E-2,5.6544136E-2,-6.384783E-2,1.5934803E-2,-1.6330138E-1,9.886427E-2,-1.3243132E-4,-1.7103286E-1,-9.042698E-3,8.748311E-2,-7.2790235E-2,-2.5850153E-1,3.0938288E-2],"split_indices":[45,134,46,44,22,2,77,81,22,0,79,91,85,88,38,0,0,0,0,0,0,0,0,0,0,0,0,0,0],"split_type":[0,0,0,0,0,0,0,0,0,0,0,0,0,0,0,0,0,0,0,0,0,0,0,0,0,0,0,0,0],"sum_hessian":[2.0006004E2,9.178752E1,1.0827253E2,7.71667E1,1.4620816E1,5.4000053E1,5.4272472E1,5.6627056E1,2.0539646E1,1.0805547E1,3.8152695E0,3.9183968E1,1.4816088E1,5.192481E1,2.347667E0,1.8853018E1,3.777404E1,1.5521407E1,5.018239E0,2.4969068E0,1.3183626E0,1.4767657E1,2.441631E1,4.9264855E0,9.889602E0,5.024806E1,1.6767504E0,1.1146756E0,1.2329915E0],"tree_param":{"num_deleted":"0","num_feature":"200","num_nodes":"29","size_leaf_vector":"0"}},{"base_weights":[1.5119226E-1,6.744148E-1,5.7707872E-2,7.95109E-1,-0E0,-1.2661296E-1,3.1092066E-1,1.7544025E-1,9.9693E-1,7.9156184E-1,-7.392117E-1,-2.0713203E-2,-8.504909E-1,5.051263E-1,-8.235804E-2,-1.3100163E0,6.4779836E-1,1.0437324E0,-0E0,-0E0,-1.9586223E0,7.041367E-1,-1.1409891E-1,-0E0,-1.2282249E0,6.0532796E-1,-6.872253E-1,6.594536E-1,-3.8796765E-1],"categories":[],"categories_nodes":[],"categories_segments":[],"categories_sizes":[],"default_left":[1,1,1,1,1,1,1,1,1,0,1,1,1,1,1,0,0,0,0,0,0,0,0,0,0,0,0,0,0],"id":24,"left_children":[1,3,5,7,9,11,13,15,17,-1,19,21,23,25,27,-1,-1,-1,-1,-1,-1,-1,-1,-1,-1,-1,-1,-1,-1],"loss_changes":[9.141829E0,2.751812E0,7.8591595E0,2.4944143E0,2.1442614E0,6.815362E0,5.670574E0,4.425768E0,6.3447E-1,0E0,2.8935828E0,5.3387523E0,4.343155E0,5.7694197E0,4.992812E0,0E0,0E0,0E0,0E0,0E0,0E0,0E0,0E0,0E0,0E0,0E0,0E0,0E0,0E0],"parents":[2147483647,0,0,1,1,2,2,3,3,4,4,5,5,6,6,7,7,8,8,10,10,11,11,12,12,13,13,14,14],"right_children":[2,4,6,8,10,12,14,16,18,-1,20,22,24,26,28,-1,-1,-1,-1,-1,-1,-1,-1,-1,-1,-1,-1,-1,-1],"split_conditions":[5.57724E-2,5.2771795E-1,4.8793843E-1,2.8148156E-1,1.2497379E-1,8.049743E-1,9.7540855E-1,5.819827E-1,8.154176E-1,8.429157E-2,4.8937726E-1,2.6487795E-1,7.40078E-1,5E-1,4.6171492E-1,-1.3950057E-1,6.8982534E-2,1.11144625E-1,-0E0,-0E0,-2.0856911E-1,7.4981876E-2,-1.2150126E-2,-0E0,-1.307908E-1,6.445996E-2,-7.318101E-2,7.022367E-2,-4.1313767E-2],"split_indices":[103,61,92,53,28,21,70,44,11,0,78,58,112,118,96,0,0,0,0,0,0,0,0,0,0,0,0,0,0],"split_type":[0,0,0,0,0,0,0,0,0,0,0,0,0,0,0,0,0,0,0,0,0,0,0,0,0,0,0,0,0],"sum_hessian":[1.9492464E2,2.8669601E1,1.6625504E2,2.497653E1,3.6930702E0,9.499331E1,7.126173E1,6.7932386E0,1.8183292E1,1.4401221E0,2.2529483E0,8.3524475E1,1.146884E1,4.8615738E1,2.2645987E1,1.3611099E0,5.432129E0,1.717073E1,1.012562E0,1.1856742E0,1.067274E0,8.870363E0,7.4654106E1,3.0953507E0,8.373489E0,4.5266052E1,3.3496885E0,6.0923533E0,1.6553633E1],"tree_param":{"num_deleted":"0","num_feature":"200","num_nodes":"29","size_leaf_vector":"0"}},{"base_weights":[1.3930392E-1,-1.2604553E-1,3.0229253E-1,3.9318058E-1,-3.2384002E-1,6.272484E-1,8.094375E-2,-7.467998E-2,8.107655E-1,-8.941358E-2,-8.530109E-1,-5.055414E-1,7.698402E-1,-1.986244E0,1.5507475E-1,3.2856253E-1,-1.0463214E0,1.0459585E0,-1.7541096E-2,1.6786914E-1,-5.5952823E-1,-1.2155886E0,-2.6804827E-2,4.183099E-1,-2.9109292E0,8.250016E-1,-9.621376E-1,2.7511978E-1,-7.663613E-1],"categories":[],"categories_nodes":[],"categories_segments":[],"categories_sizes":[],"default_left":[1,1,1,1,1,1,1,1,1,1,1,1,1,0,1,0,0,0,0,0,0,0,0,0,0,0,0,0,0],"id":25,"left_children":[1,3,5,7,9,11,13,15,17,19,21,23,25,-1,27,-1,-1,-1,-1,-1,-1,-1,-1,-1,-1,-1,-1,-1,-1],"loss_changes":[8.348911E0,7.294243E0,8.213997E0,4.0967426E0,5.9990225E0,7.8063126E0,1.0064073E1,3.6548738E0,2.62005E0,4.6925373E0,3.945342E0,1.2209686E1,3.998949E0,0E0,7.4624643E0,0E0,0E0,0E0,0E0,0E0,0E0,0E0,0E0,0E0,0E0,0E0,0E0,0E0,0E0],"parents":[2147483647,0,0,1,1,2,2,3,3,4,4,5,5,6,6,7,7,8,8,9,9,10,10,11,11,12,12,14,14],"right_children":[2,4,6,8,10,12,14,16,18,20,22,24,26,-1,28,-1,-1,-1,-1,-1,-1,-1,-1,-1,-1,-1,-1,-1,-1],"split_conditions":[4.8283345E-1,3.0060333E-1,3.2145786E-1,3.968578E-1,7.0256543E-1,1.7782073E-2,2.037156E-2,8.711933E-1,5.8132726E-1,8.428422E-1,6.491443E-1,4.5443067E-1,9.0003955E-1,-2.1151048E-1,5.760779E-1,3.4987856E-2,-1.1142032E-1,1.1138168E-1,-1.8679103E-3,1.7875992E-2,-5.958285E-2,-1.2944518E-1,-2.8543833E-3,4.4544842E-2,-3.0997804E-1,8.785249E-2,-1.0245578E-1,2.9296862E-2,-8.160802E-2],"split_indices":[199,91,81,82,79,7,59,15,134,69,18,67,98,0,84,0,0,0,0,0,0,0,0,0,0,0,0,0,0],"split_type":[0,0,0,0,0,0,0,0,0,0,0,0,0,0,0,0,0,0,0,0,0,0,0,0,0,0,0,0,0],"sum_hessian":[1.9084026E2,7.136612E1,1.1947414E2,1.8936302E1,5.242982E1,4.7419334E1,7.20548E1,8.328441E0,1.06078615E1,3.7043545E1,1.5386276E1,4.878503E0,4.2540833E1,2.2357845E0,6.9819016E1,5.5000257E0,2.8284152E0,8.764322E0,1.843539E0,2.3207678E1,1.3835868E1,1.0239318E1,5.1469574E0,3.3691623E0,1.5093406E0,4.1532555E1,1.0082766E0,6.2292088E1,7.5269284E0],"tree_param":{"num_deleted":"0","num_feature":"200","num_nodes":"29","size_leaf_vector":"0"}},{"base_weights":[1.2728259E-1,-7.940356E-2,3.1743038E-1,-2.231678E-1,6.8644524E-1,3.5472304E-2,6.137448E-1,9.9622095E-1,-2.9641795E-1,1.1043319E0,-2.2936128E-1,3.1286043E-1,-4.980399E-1,6.8971497E-1,-8.5366684E-1,1.2155187E0,-0E0,-6.4750457E-1,-6.0715873E-2,-1.052186E0,3.715757E-1,5.4790956E-1,-4.7747064E-1,8.7850964E-1,-7.00735E-1,7.5237644E-1,-6.145839E-1],"categories":[],"categories_nodes":[],"categories_segments":[],"categories_sizes":[],"default_left":[1,1,1,1,1,1,1,1,1,0,1,1,1,1,0,0,0,0,0,0,0,0,0,0,0,0,0],"id":26,"left_children":[1,3,5,7,9,11,13,15,17,-1,19,21,23,25,-1,-1,-1,-1,-1,-1,-1,-1,-1,-1,-1,-1,-1],"loss_changes":[7.4453726E0,9.427781E0,7.8668165E0,6.2889514E0,5.561844E0,7.4972925E0,5.1588135E0,3.021059E-1,5.4766555E0,0E0,2.2342803E0,6.436736E0,4.625276E0,3.7604103E0,0E0,0E0,0E0,0E0,0E0,0E0,0E0,0E0,0E0,0E0,0E0,0E0,0E0],"parents":[2147483647,0,0,1,1,2,2,3,3,4,4,5,5,6,6,7,7,8,8,10,10,11,11,12,12,13,13],"right_children":[2,4,6,8,10,12,14,16,18,-1,20,22,24,26,-1,-1,-1,-1,-1,-1,-1,-1,-1,-1,-1,-1,-1],"split_conditions":[4.520216E-1,5.8132726E-1,2.6427823E-1,1.9607625E-5,5.9821117E-1,3.89095E-1,7.327362E-1,8.565637E-1,3.8042238E-1,1.17597714E-1,5.6990314E-1,9.7087157E-1,3.2004175E-1,9.534508E-1,-9.090499E-2,1.2943774E-1,-0E0,-6.895125E-2,-6.4654914E-3,-1.12044826E-1,3.956823E-2,5.834561E-2,-5.0844733E-2,9.3550436E-2,-7.461963E-2,8.0118805E-2,-6.54456E-2],"split_indices":[45,134,46,0,22,9,90,78,155,0,6,101,81,88,0,0,0,0,0,0,0,0,0,0,0,0,0],"split_type":[0,0,0,0,0,0,0,0,0,0,0,0,0,0,0,0,0,0,0,0,0,0,0,0,0,0,0],"sum_hessian":[1.8618199E2,8.786248E1,9.831951E1,7.457093E1,1.329155E1,5.131293E1,4.700658E1,3.8042347E0,7.076669E1,9.527715E0,3.7638347E0,3.442398E1,1.6888952E1,4.5044903E1,1.9616742E0,2.7568195E0,1.0474151E0,2.7505215E1,4.326148E1,1.9623796E0,1.8014553E0,2.7058142E1,7.3658385E0,1.824139E0,1.5064814E1,4.337611E1,1.668796E0],"tree_param":{"num_deleted":"0","num_feature":"200","num_nodes":"27","size_leaf_vector":"0"}},{"base_weights":[1.1721486E-1,7.389762E-1,5.3583626E-2,1.0235325E0,-0E0,-1.1651588E-1,2.9625577E-1,-1.568502E0,5.692501E-1,4.6176765E-2,-4.6131173E-1,-5.0328624E-1,3.854867E-1,8.0840707E-1,-0E0,3.4489378E-1,-3.3267006E-1,-8.4995425E-1,1.0104647E-1,-0E0,-1.4861443E0,-0E0,5.9132284E-1],"categories":[],"categories_nodes":[],"categories_segments":[],"categories_sizes":[],"default_left":[1,1,1,0,1,1,1,0,1,1,1,1,1,0,0,0,0,0,0,0,0,0,0],"id":27,"left_children":[1,3,5,-1,7,9,11,-1,13,15,17,19,21,-1,-1,-1,-1,-1,-1,-1,-1,-1,-1],"loss_changes":[6.762762E0,3.620657E0,6.932921E0,0E0,4.038718E0,5.6120787E0,4.900524E0,0E0,3.3602428E-1,7.2757897E0,7.3649454E0,3.7485437E0,5.2688913E0,0E0,0E0,0E0,0E0,0E0,0E0,0E0,0E0,0E0,0E0],"parents":[2147483647,0,0,1,1,2,2,4,4,5,5,6,6,8,8,9,9,10,10,11,11,12,12],"right_children":[2,4,6,-1,8,10,12,-1,14,16,18,20,22,-1,-1,-1,-1,-1,-1,-1,-1,-1,-1],"split_conditions":[4.0436033E-2,6.4559054E-1,4.8793843E-1,1.0899358E-1,6.9261014E-1,6.313256E-1,1.8132817E-2,-1.670261E-1,5.605618E-1,4.9893105E-1,6.468158E-1,1.4738622E-1,3.8202918E-1,8.608538E-2,-0E0,3.6726933E-2,-3.5425257E-2,-9.050964E-2,1.0760203E-2,-0E0,-1.5825604E-1,-0E0,6.296859E-2],"split_indices":[103,88,92,0,20,73,113,0,12,116,73,46,199,0,0,0,0,0,0,0,0,0,0],"split_type":[0,0,0,0,0,0,0,0,0,0,0,0,0,0,0,0,0,0,0,0,0,0,0],"sum_hessian":[1.8167819E2,1.6075264E1,1.6560294E2,1.1831114E1,4.2441497E0,9.6062996E1,6.953993E1,1.2347888E0,3.0093608E0,6.42154E1,3.1847591E1,6.373941E0,6.3165993E1,2.0016937E0,1.0076671E0,3.669679E1,2.7518614E1,1.9393675E1,1.2453916E1,3.9538925E0,2.4200487E0,2.125846E1,4.1907536E1],"tree_param":{"num_deleted":"0","num_feature":"200","num_nodes":"23","size_leaf_vector":"0"}},{"base_weights":[1.0750182E-1,7.1359414E-1,4.8581086E-2,1.0118667E0,-0E0,5.7514193E-3,9.336748E-1,-1.2495958E0,5.3972334E-1,7.773819E-2,-4.7756115E-1,1.20814E0,-2.093035E-2,7.8203964E-1,-0E0,-1.7071209E0,1.1618639E-1,-6.7762643E-1,6.5335256E-1],"categories":[],"categories_nodes":[],"categories_segments":[],"categories_sizes":[],"default_left":[1,1,1,0,1,1,1,0,1,1,1,0,0,0,0,0,0,0,0],"id":28,"left_children":[1,3,5,-1,7,9,11,-1,13,15,17,-1,-1,-1,-1,-1,-1,-1,-1],"loss_changes":[5.9644957E0,3.3770542E0,5.6932945E0,0E0,3.0035694E0,5.2315607E0,2.4624734E0,0E0,3.0742067E-1,8.564093E0,4.3897567E0,0E0,0E0,0E0,0E0,0E0,0E0,0E0,0E0],"parents":[2147483647,0,0,1,1,2,2,4,4,5,5,6,6,8,8,9,9,10,10],"right_children":[2,4,6,-1,8,10,12,-1,14,16,18,-1,-1,-1,-1,-1,-1,-1,-1],"split_conditions":[4.0436033E-2,6.4559054E-1,5E-1,1.0775132E-1,6.9261014E-1,9.882643E-1,5.764656E-1,-1.3306653E-1,8.448434E-1,5.5530064E-2,7.585937E-1,1.28652E-1,-2.228824E-3,8.3277576E-2,-0E0,-1.8178731E-1,1.2372416E-2,-7.215885E-2,6.957398E-2],"split_indices":[103,88,162,0,20,63,79,0,44,26,45,0,0,0,0,0,0,0,0],"split_type":[0,0,0,0,0,0,0,0,0,0,0,0,0,0,0,0,0,0,0],"sum_hessian":[1.7846518E2,1.4996622E1,1.6346857E2,1.075213E1,4.244492E0,1.5651027E2,6.9583025E0,1.3777695E0,2.8667226E0,1.3719344E2,1.9316822E1,5.8388777E0,1.1194249E0,1.8632567E0,1.0034659E0,2.5904152E0,1.3460303E2,1.6819311E1,2.497512E0],"tree_param":{"num_deleted":"0","num_feature":"200","num_nodes":"19","size_leaf_vector":"0"}},{"base_weights":[9.797339E-2,2.5775698E-1,-9.830477E-2,5.2056307E-1,-6.600124E-2,-1.2385228E0,-1.1776043E-2,5.9116364E-1,-1.1072648E0,-1.0584118E0,1.19146965E-1,-0E0,-2.7138288E0,4.9726856E-1,-1.7047878E-1,6.505515E-1,-1.6320761E0,-1.8132232E0,4.8506504E-1,3.5249943E-1,-5.16597E-1,8.2991225E-1,-1.0483727E0,6.6146195E-1,-1.1473439E0,-9.191082E-1,-0E0],"categories":[],"categories_nodes":[],"categories_segments":[],"categories_sizes":[],"default_left":[1,1,1,1,1,1,1,1,0,1,1,1,0,1,1,0,0,0,0,0,0,0,0,0,0,0,0],"id":29,"left_children":[1,3,5,7,9,11,13,15,-1,17,19,21,-1,23,25,-1,-1,-1,-1,-1,-1,-1,-1,-1,-1,-1,-1],"loss_changes":[5.608243E0,8.6315975E0,6.977639E0,6.087597E0,8.453746E0,9.089766E0,5.682503E0,6.527094E0,0E0,9.176553E0,5.256093E0,2.4158204E0,0E0,4.183102E0,7.1299543E0,0E0,0E0,0E0,0E0,0E0,0E0,0E0,0E0,0E0,0E0,0E0,0E0],"parents":[2147483647,0,0,1,1,2,2,3,3,4,4,5,5,6,6,7,7,9,9,10,10,11,11,13,13,14,14],"right_children":[2,4,6,8,10,12,14,16,-1,18,20,22,-1,24,26,-1,-1,-1,-1,-1,-1,-1,-1,-1,-1,-1,-1],"split_conditions":[6.1780477E-1,4.9962357E-1,8.398688E-3,8.649591E-1,3.706104E-1,1.4456406E-1,1.6656469E-1,7.6072717E-1,-1.17910035E-1,7.72737E-1,8.9093626E-1,1.991398E-2,-2.8898928E-1,8.964038E-1,2.6387426E-1,6.927571E-2,-1.7379597E-1,-1.9308591E-1,5.165344E-2,3.753684E-2,-5.5011205E-2,8.837541E-2,-1.1163876E-1,7.0437536E-2,-1.22177966E-1,-9.787369E-2,-0E0],"split_indices":[73,115,34,67,95,88,23,90,0,199,95,1,0,78,23,0,0,0,0,0,0,0,0,0,0,0,0],"split_type":[0,0,0,0,0,0,0,0,0,0,0,0,0,0,0,0,0,0,0,0,0,0,0,0,0,0,0],"sum_hessian":[1.7607932E2,9.8567894E1,7.751141E1,5.531644E1,4.3251453E1,5.0214276E0,7.248999E1,5.333844E1,1.9780011E0,7.249034E0,3.6002422E1,2.7486832E0,2.2727442E0,1.6420774E1,5.6069214E1,5.219203E1,1.1464088E0,5.1005464E0,2.1484873E0,2.6955858E1,9.046562E0,1.5152007E0,1.2334824E0,1.5231704E1,1.1890708E0,1.0360292E1,4.570892E1],"tree_param":{"num_deleted":"0","num_feature":"200","num_nodes":"27","size_leaf_vector":"0"}},{"base_weights":[8.8829905E-2,-9.292944E-2,2.4901648E-1,-2.2349693E-1,6.286364E-1,5.7831116E-2,6.173422E-1,9.6760523E-1,-2.9439363E-1,1.0687677E0,-2.5619814E-1,3.4674603E-1,-2.3118201E-1,7.1972823E-1,-9.5733815E-1,-0E0,1.188698E0,-4.513909E-1,1.0681128E-1,-1.0794162E0,2.8697965E-1,-4.078688E-1,5.865334E-1,8.310152E-3,-7.105972E-1,-3.2600588E-1,8.105278E-1],"categories":[],"categories_nodes":[],"categories_segments":[],"categories_sizes":[],"default_left":[1,1,1,1,1,1,1,1,1,0,1,1,1,1,0,0,0,0,0,0,0,0,0,0,0,0,0],"id":30,"left_children":[1,3,5,7,9,11,13,15,17,-1,19,21,23,25,-1,-1,-1,-1,-1,-1,-1,-1,-1,-1,-1,-1,-1],"loss_changes":[5.105633E0,7.249062E0,6.204062E0,5.3611536E0,4.922323E0,5.269356E0,4.861434E0,1.0952711E-1,4.2390385E0,0E0,1.9604253E0,5.90903E0,3.849844E0,3.0484095E0,0E0,0E0,0E0,0E0,0E0,0E0,0E0,0E0,0E0,0E0,0E0,0E0,0E0],"parents":[2147483647,0,0,1,1,2,2,3,3,4,4,5,5,6,6,7,7,8,8,10,10,11,11,12,12,13,13],"right_children":[2,4,6,8,10,12,14,16,18,-1,20,22,24,26,-1,-1,-1,-1,-1,-1,-1,-1,-1,-1,-1,-1,-1],"split_conditions":[4.2475933E-1,5.8132726E-1,5.685611E-1,1.9607625E-5,5.9821117E-1,6.030647E-1,9.5324266E-1,4.663441E-1,4.5591488E-1,1.1381057E-1,5.6990314E-1,1.3956854E-1,4.180705E-1,1.7638266E-1,-1.019447E-1,-0E0,1.2658167E-1,-4.8067562E-2,1.1374083E-2,-1.149445E-1,3.0559791E-2,-4.3432996E-2,6.2458575E-2,8.849287E-4,-7.566983E-2,-3.4715604E-2,8.631121E-2],"split_indices":[45,134,76,0,22,58,99,95,44,0,6,95,84,30,0,0,0,0,0,0,0,0,0,0,0,0,0],"split_type":[0,0,0,0,0,0,0,0,0,0,0,0,0,0,0,0,0,0,0,0,0,0,0,0,0,0,0],"sum_hessian":[1.7246678E2,7.922651E1,9.324027E1,6.772185E1,1.150466E1,6.234556E1,3.0894718E1,3.3729582E0,6.434889E1,8.08649E0,3.4181697E0,3.210513E1,3.0240429E1,2.9333069E1,1.5616482E0,1.0636297E0,2.3093283E0,4.721037E1,1.7138523E1,1.7476795E0,1.6704901E0,7.200859E0,2.4904268E1,1.9426386E1,1.0814044E1,1.8696814E0,2.7463388E1],"tree_param":{"num_deleted":"0","num_feature":"200","num_nodes":"27","size_leaf_vector":"0"}},{"base_weights":[8.224917E-2,1.4104727E-1,-3.7928802E-1,8.091029E-2,6.6758424E-1,-7.14063E-1,2.5553513E-1,1.9602157E-1,-3.4577778E-1,1.0524735E0,-4.429851E-3,-0E0,-1.0910684E0,-8.595593E-1,8.8472044E-1,3.375778E-1,-1.6426237E-1,-5.751111E-1,2.3157656E-1,-0E0,1.1746985E0,1.0194826E0,-5.4308915E-1,7.8512764E-1,-5.349455E-1,-1.2298688E0,-0E0,1.2316674E0,-0E0],"categories":[],"categories_nodes":[],"categories_segments":[],"categories_sizes":[],"default_left":[1,1,1,1,1,1,1,1,1,1,1,1,1,0,1,0,0,0,0,0,0,0,0,0,0,0,0,0,0],"id":31,"left_children":[1,3,5,7,9,11,13,15,17,19,21,23,25,-1,27,-1,-1,-1,-1,-1,-1,-1,-1,-1,-1,-1,-1,-1,-1],"loss_changes":[4.4590883E0,4.377638E0,4.087758E0,6.619647E0,4.3273296E0,3.3254743E0,4.0144143E0,5.6225877E0,3.8918536E0,1.1770439E0,2.3986704E0,1.8064094E0,1.0369492E0,0E0,1.3677809E0,0E0,0E0,0E0,0E0,0E0,0E0,0E0,0E0,0E0,0E0,0E0,0E0,0E0,0E0],"parents":[2147483647,0,0,1,1,2,2,3,3,4,4,5,5,6,6,7,7,8,8,9,9,10,10,11,11,12,12,14,14],"right_children":[2,4,6,8,10,12,14,16,18,20,22,24,26,-1,28,-1,-1,-1,-1,-1,-1,-1,-1,-1,-1,-1,-1,-1,-1],"split_conditions":[8.545904E-1,8.562649E-1,8.4307396E-1,9.1172814E-1,5.8172333E-1,2.9362047E-1,3.1039634E-1,9.2347586E-1,4.9998972E-1,8.9521444E-1,9.5061064E-1,4.607346E-1,7.5805783E-1,-9.153246E-2,8.060968E-1,3.594787E-2,-1.7491916E-2,-6.1242234E-2,2.4660047E-2,-0E0,1.250909E-1,1.0856232E-1,-5.7832293E-2,8.360641E-2,-5.6965094E-2,-1.3096584E-1,-0E0,1.3115738E-1,-0E0],"split_indices":[79,8,87,64,23,91,41,0,183,10,10,41,26,0,21,0,0,0,0,0,0,0,0,0,0,0,0,0,0],"split_type":[0,0,0,0,0,0,0,0,0,0,0,0,0,0,0,0,0,0,0,0,0,0,0,0,0,0,0,0,0],"sum_hessian":[1.6899535E2,1.5093518E2,1.8060167E1,1.3638728E2,1.4547896E1,1.2376862E1,5.6833053E0,1.0840408E2,2.7983208E1,9.754135E0,4.7937613E0,4.2873697E0,8.089491E0,1.7413617E0,3.9419436E0,7.8895164E1,2.9508915E1,2.0692703E1,7.290504E0,1.073038E0,8.681097E0,1.3064743E0,3.487287E0,1.7294574E0,2.5579126E0,7.0501842E0,1.0393074E0,2.9310892E0,1.0108544E0],"tree_param":{"num_deleted":"0","num_feature":"200","num_nodes":"29","size_leaf_vector":"0"}},{"base_weights":[7.458015E-2,-8.225245E-2,2.2974516E-1,-1.946818E-1,5.985429E-1,4.044316E-2,6.1477685E-1,-2.966131E-1,4.668909E-1,1.0356672E0,-1.9077407E-1,1.4951034E-1,-8.5207045E-1,9.47759E-1,6.4037025E-2,-5.269121E-1,-2.7094908E-2,1.1191125E0,-2.940844E-1,8.0029756E-2,-1.0820862E0,2.8324825E-1,-5.07294E-1,-0E0,-1.5486425E0,1.0030049E0,-0E0,6.696181E-1,-3.588587E-1],"categories":[],"categories_nodes":[],"categories_segments":[],"categories_sizes":[],"default_left":[1,1,1,1,1,1,1,1,1,0,1,1,1,1,1,0,0,0,0,0,0,0,0,0,0,0,0,0,0],"id":32,"left_children":[1,3,5,7,9,11,13,15,17,-1,19,21,23,25,27,-1,-1,-1,-1,-1,-1,-1,-1,-1,-1,-1,-1,-1,-1],"loss_changes":[4.1311474E0,5.9916134E0,5.874296E0,4.649556E0,4.188281E0,5.2905884E0,4.4485455E0,3.5267982E0,4.755786E0,0E0,1.3653991E0,4.4850883E0,3.7816052E0,6.7034817E-1,2.9534423E0,0E0,0E0,0E0,0E0,0E0,0E0,0E0,0E0,0E0,0E0,0E0,0E0,0E0,0E0],"parents":[2147483647,0,0,1,1,2,2,3,3,4,4,5,5,6,6,7,7,8,8,10,10,11,11,12,12,13,13,14,14],"right_children":[2,4,6,8,10,12,14,16,18,-1,20,22,24,26,28,-1,-1,-1,-1,-1,-1,-1,-1,-1,-1,-1,-1,-1,-1],"split_conditions":[4.520216E-1,5.8132726E-1,5.685611E-1,8.940294E-1,5.9821117E-1,7.027172E-1,6.6108084E-1,7.606457E-1,9.358512E-1,1.10285774E-1,7.338926E-1,8.2605124E-1,7.851299E-1,6.463256E-1,4.471544E-1,-5.6109637E-2,-2.8852734E-3,1.1917167E-1,-3.131636E-2,8.522182E-3,-1.1522883E-1,3.0162442E-2,-5.402055E-2,-0E0,-1.6491131E-1,1.0680765E-1,-0E0,7.130607E-2,-3.8214024E-2],"split_indices":[45,134,76,41,22,90,99,81,81,0,79,95,28,84,98,0,0,0,0,0,0,0,0,0,0,0,0,0,0],"split_type":[0,0,0,0,0,0,0,0,0,0,0,0,0,0,0,0,0,0,0,0,0,0,0,0,0,0,0,0,0],"sum_hessian":[1.6649512E2,8.108584E1,8.540927E1,7.0274734E1,1.0811103E1,5.819876E1,2.7210512E1,6.159957E1,8.675163E0,7.393272E0,3.417831E0,5.240351E1,5.795247E0,1.6346706E1,1.0863807E1,3.2138798E1,2.9460773E1,5.048538E0,3.626625E0,2.1663475E0,1.2514834E0,4.422105E1,8.182464E0,2.4705312E0,3.3247156E0,1.5260879E1,1.0858268E0,4.9862866E0,5.87752E0],"tree_param":{"num_deleted":"0","num_feature":"200","num_nodes":"29","size_leaf_vector":"0"}},{"base_weights":[6.8164475E-2,2.1134405E-1,-9.9126466E-2,4.5785344E-1,-8.5399546E-2,-2.5329122E-1,4.762772E-1,5.2892464E-1,-1.0102012E0,-9.477787E-1,7.85756E-2,-3.7768495E-1,3.3637697E-1,8.5227054E-1,-2.3324256E-1,6.555009E-1,-1.9186793E-1,-1.5828388E0,4.074455E-1,2.622023E-1,-6.8019676E-1,-1.390838E0,-2.7418545E-1,9.99777E-1,-2.0442542E-1,1.0989778E0,-3.8631663E-1,-8.936529E-1,5.2448505E-1],"categories":[],"categories_nodes":[],"categories_segments":[],"categories_sizes":[],"default_left":[1,1,1,1,1,1,1,1,0,1,1,1,1,1,1,0,0,0,0,0,0,0,0,0,0,0,0,0,0],"id":33,"left_children":[1,3,5,7,9,11,13,15,-1,17,19,21,23,25,27,-1,-1,-1,-1,-1,-1,-1,-1,-1,-1,-1,-1,-1,-1],"loss_changes":[3.9884415E0,6.7905455E0,6.4376345E0,4.9846725E0,6.1093993E0,4.35333E0,4.304888E0,4.6508036E0,0E0,6.573285E0,4.3772683E0,4.294455E0,3.8501594E0,3.510735E0,2.5388029E0,0E0,0E0,0E0,0E0,0E0,0E0,0E0,0E0,0E0,0E0,0E0,0E0,0E0,0E0],"parents":[2147483647,0,0,1,1,2,2,3,3,4,4,5,5,6,6,7,7,9,9,10,10,11,11,12,12,13,13,14,14],"right_children":[2,4,6,8,10,12,14,16,-1,18,20,22,24,26,28,-1,-1,-1,-1,-1,-1,-1,-1,-1,-1,-1,-1,-1,-1],"split_conditions":[6.1780477E-1,4.9962357E-1,9.8930013E-1,8.649591E-1,3.706104E-1,8.9249074E-1,8.4151834E-1,7.549884E-1,-1.0757396E-1,7.72737E-1,5.8316267E-1,8.398688E-3,4.3574476E-1,9.5754725E-1,4.8558873E-1,6.980275E-2,-2.0431567E-2,-1.685528E-1,4.3387916E-2,2.792131E-2,-7.243256E-2,-1.481071E-1,-2.9197367E-2,1.0646392E-1,-2.1768786E-2,1.1702757E-1,-4.1137956E-2,-9.516301E-2,5.5851188E-2],"split_indices":[73,115,85,67,95,41,69,21,0,199,133,34,86,98,18,0,0,0,0,0,0,0,0,0,0,0,0,0,0],"split_type":[0,0,0,0,0,0,0,0,0,0,0,0,0,0,0,0,0,0,0,0,0,0,0,0,0,0,0,0,0],"sum_hessian":[1.6398373E2,9.008549E1,7.389824E1,5.019228E1,3.989321E1,5.902201E1,1.4876226E1,4.8228664E1,1.9636128E0,6.889001E0,3.3004208E1,4.9493835E1,9.528176E0,1.021633E1,4.6598964E0,4.1658092E1,6.5705714E0,4.9592614E0,1.9297395E0,2.714728E1,5.8569293E0,4.0965223E0,4.5397312E1,4.7209024E0,4.807274E0,8.881342E0,1.3349884E0,2.8671248E0,1.7927717E0],"tree_param":{"num_deleted":"0","num_feature":"200","num_nodes":"29","size_leaf_vector":"0"}},{"base_weights":[6.126781E-2,2.7451916E-2,8.5641265E-1,1.7990042E-1,-1.5284406E-1,1.1607714E0,-9.4519846E-2,5.977184E-2,8.10975E-1,-2.9504824E-1,3.884275E-1,-1.618103E-1,3.1011817E-1,9.438544E-1,-6.644588E-2,-7.246497E-2,-7.162934E-1,7.968343E-1,-4.264096E-1],"categories":[],"categories_nodes":[],"categories_segments":[],"categories_sizes":[],"default_left":[1,1,1,1,1,0,0,1,1,1,1,0,0,0,0,0,0,0,0],"id":34,"left_children":[1,3,5,7,9,-1,-1,11,13,15,17,-1,-1,-1,-1,-1,-1,-1,-1],"loss_changes":[3.8605947E0,4.283176E0,2.2889009E0,6.034176E0,5.3037286E0,0E0,0E0,4.1167784E0,1.9868116E0,4.8143663E0,4.7570677E0,0E0,0E0,0E0,0E0,0E0,0E0,0E0,0E0],"parents":[2147483647,0,0,1,1,2,2,3,3,4,4,7,7,8,8,9,9,10,10],"right_children":[2,4,6,8,10,-1,-1,12,14,16,18,-1,-1,-1,-1,-1,-1,-1,-1],"split_conditions":[5E-1,6.1780477E-1,5.764656E-1,8.203989E-1,9.8930013E-1,1.2360783E-1,-1.0065197E-2,5.306123E-1,9.505176E-1,8.3352757E-1,8.4151834E-1,-1.72308E-2,3.302376E-2,1.0050885E-1,-7.0756664E-3,-7.7166255E-3,-7.627641E-2,8.485302E-2,-4.5407362E-2],"split_indices":[162,73,79,45,85,0,0,52,29,14,69,0,0,0,0,0,0,0,0],"split_type":[0,0,0,0,0,0,0,0,0,0,0,0,0,0,0,0,0,0,0],"sum_hessian":[1.6120558E2,1.5528563E2,5.9199543E0,8.5752525E1,6.9533104E1,4.9102874E0,1.009667E0,7.276183E1,1.2990687E1,5.5854023E1,1.3679084E1,3.7463676E1,3.529816E1,1.1812319E1,1.1783688E0,3.738434E1,1.8469685E1,9.550584E0,4.1285E0],"tree_param":{"num_deleted":"0","num_feature":"200","num_nodes":"19","size_leaf_vector":"0"}},{"base_weights":[5.4927833E-2,-7.172114E-2,2.4876155E-1,-8.687304E-3,-9.243947E-1,4.210973E-1,-1.1741524E-1,-8.250038E-2,5.4190755E-1,-0E0,-1.3554274E0,5.163064E-1,-6.25556E-1,-1.4168141E0,3.7169438E-2,1.14342764E-1,-5.851952E-1,7.538505E-1,-5.0793004E-1,-1.9965777E0,-7.679779E-1,-5.183384E-1,6.133533E-1,-1.6288192E0,6.103631E-1,-0E0,-2.388568E0,-7.888595E-1,2.623423E-1],"categories":[],"categories_nodes":[],"categories_segments":[],"categories_sizes":[],"default_left":[1,1,1,1,1,1,1,1,1,0,1,1,1,1,1,0,0,0,0,0,0,0,0,0,0,0,0,0,0],"id":35,"left_children":[1,3,5,7,9,11,13,15,17,-1,19,21,23,25,27,-1,-1,-1,-1,-1,-1,-1,-1,-1,-1,-1,-1,-1,-1],"loss_changes":[3.9991105E0,4.5795918E0,4.2349567E0,3.355103E0,2.338636E0,4.4158216E0,4.689346E0,8.070257E0,2.2752113E0,0E0,1.9816875E-2,4.231344E0,4.6173015E0,2.3458414E0,2.9204977E0,0E0,0E0,0E0,0E0,0E0,0E0,0E0,0E0,0E0,0E0,0E0,0E0,0E0,0E0],"parents":[2147483647,0,0,1,1,2,2,3,3,4,4,5,5,6,6,7,7,8,8,10,10,11,11,12,12,13,13,14,14],"right_children":[2,4,6,8,10,12,14,16,18,-1,20,22,24,26,28,-1,-1,-1,-1,-1,-1,-1,-1,-1,-1,-1,-1,-1,-1],"split_conditions":[4.8793843E-1,8.885803E-1,9.7540855E-1,9.179127E-1,4.7489846E-1,9.222306E-1,9.760774E-1,5.4493344E-1,9.918263E-1,-0E0,3.8619587E-1,1.0631022E-1,4.9251592E-1,4.7393286E-1,4.1385155E-2,1.2176094E-2,-6.2316068E-2,8.027578E-2,-5.4088283E-2,-2.126109E-1,-8.178017E-2,-5.5196643E-2,6.531456E-2,-1.7344914E-1,6.4996146E-2,-0E0,-2.5435302E-1,-8.40038E-2,2.7936218E-2],"split_indices":[92,21,70,11,66,24,70,8,77,0,6,29,68,74,44,0,0,0,0,0,0,0,0,0,0,0,0,0,0],"split_type":[0,0,0,0,0,0,0,0,0,0,0,0,0,0,0,0,0,0,0,0,0,0,0,0,0,0,0,0,0],"sum_hessian":[1.5902063E2,9.4508644E1,6.451198E1,8.859739E1,5.9112577E0,4.4861694E1,1.9650288E1,7.898986E1,9.6075325E0,1.8938247E0,4.017433E0,4.1595066E1,3.2666273E0,2.4500103E0,1.7200277E1,5.6001358E1,2.2988499E1,8.420946E0,1.1865867E0,1.4738066E0,2.5436263E0,3.0896037E0,3.8505463E1,2.0409055E0,1.2257218E0,1.1828041E0,1.2672062E0,3.1692545E0,1.4031022E1],"tree_param":{"num_deleted":"0","num_feature":"200","num_nodes":"29","size_leaf_vector":"0"}},{"base_weights":[4.833825E-2,-1.2991014E-1,1.6788484E-1,-3.352897E-1,1.8606977E-1,-1.5076559E0,2.0704083E-1,-4.455002E-1,7.032529E-1,4.914333E-1,-3.5046804E-1,2.8545406E-1,-4.9811336E-1,-5.5016685E-1,4.426477E-1,-0E0,9.069571E-1,-0E0,8.775751E-1,-7.271767E-1,6.9615364E-1,4.6950094E-2,5.79611E-1,4.1233617E-1,-8.610101E-1],"categories":[],"categories_nodes":[],"categories_segments":[],"categories_sizes":[],"default_left":[1,1,1,1,1,0,1,1,1,1,1,1,1,0,0,0,0,0,0,0,0,0,0,0,0],"id":36,"left_children":[1,3,5,7,9,-1,11,13,15,17,19,21,23,-1,-1,-1,-1,-1,-1,-1,-1,-1,-1,-1,-1],"loss_changes":[3.3640115E0,4.0516634E0,5.5853662E0,4.2275977E0,3.8589942E0,0E0,5.0768805E0,3.307323E0,2.0361423E-1,2.7335231E0,3.0731874E0,5.637916E0,3.122108E0,0E0,0E0,0E0,0E0,0E0,0E0,0E0,0E0,0E0,0E0,0E0,0E0],"parents":[2147483647,0,0,1,1,2,2,3,3,4,4,6,6,7,7,8,8,9,9,10,10,11,11,12,12],"right_children":[2,4,6,8,10,-1,12,14,16,18,20,22,24,-1,-1,-1,-1,-1,-1,-1,-1,-1,-1,-1,-1],"split_conditions":[4.8283345E-1,7.8419375E-1,5.5530064E-2,8.8700163E-1,9.433124E-1,-1.6054675E-1,5.784651E-1,7.673762E-1,9.7915875E-3,5.30523E-1,9.7061014E-1,4.197629E-1,5.722172E-1,-5.858598E-2,4.713652E-2,-0E0,9.657974E-2,-0E0,9.345092E-2,-7.743535E-2,7.413177E-2,4.999606E-3,6.172142E-2,4.3908715E-2,-9.168695E-2],"split_indices":[199,17,26,45,66,0,187,36,35,78,24,78,30,0,0,0,0,0,0,0,0,0,0,0,0],"split_type":[0,0,0,0,0,0,0,0,0,0,0,0,0,0,0,0,0,0,0,0,0,0,0,0,0],"sum_hessian":[1.5689375E2,6.118208E1,9.571168E1,3.8108894E1,2.3073187E1,1.8649455E0,9.384673E1,3.492438E1,3.184513E0,1.5341888E1,7.731299E0,8.514468E1,8.702053E0,3.1785835E1,3.1385455E0,1.0259987E0,2.1585143E0,6.987791E0,8.354097E0,6.0639462E0,1.6673529E0,4.8033092E1,3.7111584E1,2.0585034E0,6.6435494E0],"tree_param":{"num_deleted":"0","num_feature":"200","num_nodes":"25","size_leaf_vector":"0"}},{"base_weights":[4.520601E-2,1.2733586E-1,-2.1822323E-1,-5.2441902E-2,3.2889357E-1,3.2736454E-2,-7.237735E-1,3.9143866E-1,-2.794652E-1,5.3938574E-1,-1.8087307E-1,1.0314536E0,-1.8930726E-1,-1.2759384E0,-0E0,6.8331856E-1,-1.8430497E-1,-5.3669673E-1,6.5239537E-1,7.49207E-1,2.2774642E-2,-5.0456756E-1,5.3218E-1,-9.0586394E-1,2.2137508E-1,-1.4828284E0,-0E0,2.0204103E-1,-9.058502E-1],"categories":[],"categories_nodes":[],"categories_segments":[],"categories_sizes":[],"default_left":[1,1,1,1,1,1,1,1,1,1,1,0,1,1,1,0,0,0,0,0,0,0,0,0,0,0,0,0,0],"id":37,"left_children":[1,3,5,7,9,11,13,15,17,19,21,-1,23,25,27,-1,-1,-1,-1,-1,-1,-1,-1,-1,-1,-1,-1,-1,-1],"loss_changes":[3.3083699E0,4.490797E0,4.852938E0,6.182979E0,6.406385E0,5.533546E0,4.481943E0,3.657446E0,9.957666E0,4.1090603E0,3.7232382E0,0E0,5.7571387E0,1.2296886E0,1.3098592E0,0E0,0E0,0E0,0E0,0E0,0E0,0E0,0E0,0E0,0E0,0E0,0E0,0E0,0E0],"parents":[2147483647,0,0,1,1,2,2,3,3,4,4,5,5,6,6,7,7,8,8,9,9,10,10,12,12,13,13,14,14],"right_children":[2,4,6,8,10,12,14,16,18,20,22,-1,24,26,28,-1,-1,-1,-1,-1,-1,-1,-1,-1,-1,-1,-1,-1,-1],"split_conditions":[6.9690365E-1,5.306123E-1,2.9971936E-1,3.270638E-1,6.739384E-1,3.7190685E-1,9.8495686E-1,7.9377526E-1,3.76661E-1,8.9801615E-1,9.616515E-1,1.09837085E-1,2.3996955E-1,9.368737E-1,9.999844E-1,7.276499E-2,-1.9626206E-2,-5.715158E-2,6.947206E-2,7.97813E-2,2.4252185E-3,-5.373022E-2,5.6670606E-2,-9.646333E-2,2.3573715E-2,-1.5790293E-1,-0E0,2.1514878E-2,-9.646187E-2],"split_indices":[79,52,130,42,59,12,68,58,141,71,71,0,77,12,109,0,0,0,0,0,0,0,0,0,0,0,0,0,0],"split_type":[0,0,0,0,0,0,0,0,0,0,0,0,0,0,0,0,0,0,0,0,0,0,0,0,0,0,0,0,0],"sum_hessian":[1.5514645E2,1.1982806E2,3.5318405E1,6.193325E1,5.7894806E1,2.2898966E1,1.241944E1,2.01556E1,4.1777653E1,4.1719547E1,1.6175259E1,4.5982766E0,1.830069E1,6.742946E0,5.676494E0,1.3991974E1,6.163625E0,3.319415E1,8.583504E0,2.8928127E1,1.2791418E1,1.1644152E1,4.5311074E0,7.1391225E0,1.1161567E1,5.549467E0,1.1934793E0,4.3040133E0,1.3724808E0],"tree_param":{"num_deleted":"0","num_feature":"200","num_nodes":"29","size_leaf_vector":"0"}},{"base_weights":[4.197658E-2,-6.989642E-2,2.1878369E-1,5.436961E-1,-1.3759382E-1,3.2967257E-1,-3.3706224E-1,-1.5906919E-2,9.48367E-1,8.99717E-1,-1.7632349E-1,-8.25971E-1,4.0222707E-1,-1.503057E0,2.0966129E-1,7.4732023E-1,-1.4710048E0,-0E0,1.5596061E0,-6.8727545E-2,-6.244314E-1,-0E0,-1.3696309E0,-3.339563E-1,4.909289E-1,-0E0,-2.2510176E0,7.080307E-1,-6.021822E-1],"categories":[],"categories_nodes":[],"categories_segments":[],"categories_sizes":[],"default_left":[1,1,1,1,1,1,1,1,0,1,1,1,1,1,1,0,0,0,0,0,0,0,0,0,0,0,0,0,0],"id":38,"left_children":[1,3,5,7,9,11,13,15,-1,17,19,21,23,25,27,-1,-1,-1,-1,-1,-1,-1,-1,-1,-1,-1,-1,-1,-1],"loss_changes":[3.096125E0,3.5853841E0,3.7540166E0,2.3822396E0,2.9576292E0,4.1043706E0,6.649088E0,3.66407E0,0E0,1.4045708E0,3.5211678E0,6.304859E-1,3.2865868E0,2.698688E0,2.5092967E0,0E0,0E0,0E0,0E0,0E0,0E0,0E0,0E0,0E0,0E0,0E0,0E0,0E0,0E0],"parents":[2147483647,0,0,1,1,2,2,3,3,4,4,5,5,6,6,7,7,9,9,10,10,11,11,12,12,13,13,14,14],"right_children":[2,4,6,8,10,12,14,16,-1,18,20,22,24,26,28,-1,-1,-1,-1,-1,-1,-1,-1,-1,-1,-1,-1,-1,-1],"split_conditions":[4.8793843E-1,4.2773217E-2,6.406853E-1,6.2873864E-1,3.1784558E-1,1.7259695E-2,3.6930972E-1,4.5833442E-1,1.0098939E-1,3.4143093E-1,8.514165E-1,7.1833444E-1,1.1100319E-1,4.3286094E-1,5.8316267E-1,7.958038E-2,-1.5664387E-1,-0E0,1.660788E-1,-7.3186355E-3,-6.6494234E-2,-0E0,-1.458488E-1,-3.5562225E-2,5.227787E-2,-0E0,-2.3970559E-1,7.539653E-2,-6.412497E-2],"split_indices":[92,103,88,20,112,113,15,19,0,41,67,130,29,29,133,0,0,0,0,0,0,0,0,0,0,0,0,0,0],"split_type":[0,0,0,0,0,0,0,0,0,0,0,0,0,0,0,0,0,0,0,0,0,0,0,0,0,0,0,0,0],"sum_hessian":[1.5247528E2,9.153177E1,6.094352E1,8.301551E0,8.323022E1,5.161512E1,9.328398E0,2.9314137E0,5.370137E0,2.4898906E0,8.0740326E1,2.6067843E0,4.900834E1,3.2857249E0,6.0426726E0,1.684032E0,1.2473816E0,1.0899723E0,1.3999183E0,6.608098E1,1.4659348E1,1.328521E0,1.2782633E0,4.6170797E0,4.439126E1,1.2932969E0,1.9924281E0,4.15426E0,1.8884122E0],"tree_param":{"num_deleted":"0","num_feature":"200","num_nodes":"29","size_leaf_vector":"0"}},{"base_weights":[3.67146E-2,8.7809366E-1,9.04954E-3,1.1297152E0,-0E0,-1.4517422E-2,7.710556E-1,3.8126506E-2,-4.742798E-1,1.097753E0,-4.645114E-3,-1.1010668E0,7.114741E-2,4.8032138E-1,-6.977909E-1],"categories":[],"categories_nodes":[],"categories_segments":[],"categories_sizes":[],"default_left":[1,1,1,0,0,1,1,1,1,0,0,0,0,0,0],"id":39,"left_children":[1,3,5,-1,-1,7,9,11,13,-1,-1,-1,-1,-1,-1],"loss_changes":[3.030663E0,6.3214874E-1,3.0362585E0,0E0,0E0,3.6566527E0,1.8729105E0,4.1821637E0,3.442934E0,0E0,0E0,0E0,0E0,0E0,0E0],"parents":[2147483647,0,0,1,1,2,2,5,5,6,6,7,7,8,8],"right_children":[2,4,6,-1,-1,8,10,12,14,-1,-1,-1,-1,-1,-1],"split_conditions":[1.9607625E-5,8.8531005E-1,5E-1,1.2030073E-1,-0E0,9.882643E-1,5.1658106E-1,5.5530064E-2,1.3871521E-1,1.1689716E-1,-4.946473E-4,-1.1725003E-1,7.5763217E-3,5.11483E-2,-7.430612E-2],"split_indices":[0,78,162,0,0,63,79,26,129,0,0,0,0,0,0],"split_type":[0,0,0,0,0,0,0,0,0,0,0,0,0,0,0],"sum_hessian":[1.5063487E2,4.169137E0,1.4646574E2,3.010436E0,1.158701E0,1.413979E2,5.067828E0,1.2583185E2,1.5566062E1,4.049757E0,1.0180713E0,3.078714E0,1.22753136E2,2.4959536E0,1.3070108E1],"tree_param":{"num_deleted":"0","num_feature":"200","num_nodes":"15","size_leaf_vector":"0"}},{"base_weights":[3.3395622E-2,8.378321E-1,7.851541E-3,1.0921875E0,-0E0,-1.3852102E-1,1.4297622E-1,-5.314794E-1,3.7839334E-2,2.2454502E-1,-4.8281166E-1,7.533232E-1,-6.6935754E-1,-1.9370255E-1,4.278158E-1,-1.0684203E-2,4.7955653E-1,5.011953E-1,-8.7614614E-1],"categories":[],"categories_nodes":[],"categories_segments":[],"categories_sizes":[],"default_left":[1,1,1,0,0,1,1,1,1,1,1,0,0,0,0,0,0,0,0],"id":40,"left_children":[1,3,5,-1,-1,7,9,11,13,15,17,-1,-1,-1,-1,-1,-1,-1,-1],"loss_changes":[2.6235118E0,5.63056E-1,2.8861845E0,0E0,0E0,4.9833164E0,3.8296905E0,3.8627524E0,4.2853565E0,4.421874E0,3.3816237E0,0E0,0E0,0E0,0E0,0E0,0E0,0E0,0E0],"parents":[2147483647,0,0,1,1,2,2,5,5,6,6,7,7,8,8,9,9,10,10],"right_children":[2,4,6,-1,-1,8,10,12,14,16,18,-1,-1,-1,-1,-1,-1,-1,-1],"split_conditions":[1.9607625E-5,8.8531005E-1,4.2475933E-1,1.16304494E-1,-0E0,7.3308176E-1,7.027172E-1,3.498247E-2,6.8047917E-1,2.0504595E-1,2.6487795E-1,8.021963E-2,-7.127832E-2,-2.0626932E-2,4.5557104E-2,-1.1377358E-3,5.1066853E-2,5.3371117E-2,-9.3298756E-2],"split_indices":[0,78,45,0,0,39,90,34,29,46,58,0,0,0,0,0,0,0,0],"split_type":[0,0,0,0,0,0,0,0,0,0,0,0,0,0,0,0,0,0,0],"sum_hessian":[1.4973897E2,3.9532712E0,1.457857E2,2.7945702E0,1.158701E0,6.807496E1,7.771074E1,2.2024122E1,4.605084E1,6.951295E1,8.197791E0,1.75349E0,2.0270632E1,2.803498E1,1.801586E1,3.5069622E1,3.444333E1,1.950987E0,6.246804E0],"tree_param":{"num_deleted":"0","num_feature":"200","num_nodes":"19","size_leaf_vector":"0"}},{"base_weights":[3.0744545E-2,5.469552E-2,-8.239081E-1,-0E0,4.4868204E-1,-1.4137121E0,-0E0,1.8070044E-1,-2.1178773E-1,7.7684873E-1,-4.877699E-1,-1.8304491E-1,-2.093427E0,-9.191663E-2,4.64951E-1,5.4943997E-1,-3.1078818E-1,-0E0,1.0328736E0,-9.3968934E-1,-0E0],"categories":[],"categories_nodes":[],"categories_segments":[],"categories_sizes":[],"default_left":[1,1,1,1,1,1,0,1,1,1,1,0,0,0,0,0,0,0,0,0,0],"id":41,"left_children":[1,3,5,7,9,11,-1,13,15,17,19,-1,-1,-1,-1,-1,-1,-1,-1,-1,-1],"loss_changes":[2.616281E0,2.95126E0,2.1149595E0,4.8773794E0,5.3237276E0,6.333947E-1,0E0,5.613779E0,4.23589E0,2.2281914E0,1.3029319E0,0E0,0E0,0E0,0E0,0E0,0E0,0E0,0E0,0E0,0E0],"parents":[2147483647,0,0,1,1,2,2,3,3,4,4,5,5,7,7,8,8,9,9,10,10],"right_children":[2,4,6,8,10,12,-1,14,16,18,20,-1,-1,-1,-1,-1,-1,-1,-1,-1,-1],"split_conditions":[9.8652214E-1,8.2522756E-1,5.055506E-1,5.2083874E-1,8.212757E-1,1.844157E-1,-0E0,2.8148156E-1,9.407726E-2,9.843036E-1,1.02081805E-1,-1.9492025E-2,-2.2292414E-1,-9.787987E-3,4.9511544E-2,5.850858E-2,-3.3095106E-2,-0E0,1.09988295E-1,-1.0006532E-1,-0E0],"split_indices":[77,9,38,15,21,82,0,53,9,68,199,0,0,0,0,0,0,0,0,0,0],"split_type":[0,0,0,0,0,0,0,0,0,0,0,0,0,0,0,0,0,0,0,0,0],"sum_hessian":[1.4793556E2,1.4452162E2,3.4139497E0,1.2772322E2,1.6798395E1,2.211688E0,1.2022617E0,6.9847725E1,5.7875496E1,1.2864484E1,3.9339108E0,1.0718222E0,1.1398659E0,3.469358E1,3.5154144E1,6.0323954E0,5.18431E1,3.502571E0,9.361913E0,2.5287495E0,1.4051613E0],"tree_param":{"num_deleted":"0","num_feature":"200","num_nodes":"21","size_leaf_vector":"0"}},{"base_weights":[2.777958E-2,-7.444323E-2,1.9338486E-1,4.926244E-1,-1.3330016E-1,5.116216E-1,5.1782364E-3,9.29761E-1,-4.3233152E-2,-5.043508E-1,-2.9729513E-2,-0E0,8.797786E-1,1.3843869E-1,-9.931922E-1,-1.2613701E0,6.795996E-1,-8.4503436E-1,4.141544E-1,3.5135854E-2,-9.0400285E-1,-2.958298E-1,5.009254E-1,1.0564919E0,-0E0,-8.513752E-2,6.5176815E-1,-1.5416121E-1,-2.041064E0],"categories":[],"categories_nodes":[],"categories_segments":[],"categories_sizes":[],"default_left":[1,1,1,1,1,1,1,0,1,1,1,1,1,1,1,0,0,0,0,0,0,0,0,0,0,0,0,0,0],"id":42,"left_children":[1,3,5,7,9,11,13,-1,15,17,19,21,23,25,27,-1,-1,-1,-1,-1,-1,-1,-1,-1,-1,-1,-1,-1,-1],"loss_changes":[2.5404642E0,2.7603688E0,3.1871662E0,2.224051E0,2.826532E0,3.806745E0,4.52058E0,0E0,2.7947612E0,5.412079E0,4.12235E0,1.2880821E0,2.0472498E0,4.1480317E0,2.2777586E0,0E0,0E0,0E0,0E0,0E0,0E0,0E0,0E0,0E0,0E0,0E0,0E0,0E0,0E0],"parents":[2147483647,0,0,1,1,2,2,3,3,4,4,5,5,6,6,8,8,9,9,10,10,11,11,12,12,13,13,14,14],"right_children":[2,4,6,8,10,12,14,-1,16,18,20,22,24,26,28,-1,-1,-1,-1,-1,-1,-1,-1,-1,-1,-1,-1,-1,-1],"split_conditions":[4.8793843E-1,4.2773217E-2,3.2624334E-1,6.4559054E-1,1.00829974E-1,1.0327603E-1,5.784651E-1,9.9008076E-2,6.9261014E-1,4.4542643E-1,8.885803E-1,9.3749446E-1,6.149434E-1,6.165432E-1,5.171308E-1,-1.3432035E-1,7.236897E-2,-8.9985736E-2,4.4102333E-2,3.741535E-3,-9.626515E-2,-3.1502225E-2,5.3342376E-2,1.1250335E-1,-0E0,-9.066096E-3,6.9405265E-2,-1.6416267E-2,-2.1734813E-1],"split_indices":[92,103,96,88,41,12,187,0,20,78,21,105,1,98,23,0,0,0,0,0,0,0,0,0,0,0,0,0,0],"split_type":[0,0,0,0,0,0,0,0,0,0,0,0,0,0,0,0,0,0,0,0,0,0,0,0,0,0,0,0,0],"sum_hessian":[1.4628384E2,8.845196E1,5.7831894E1,7.4540944E0,8.099786E1,2.0426876E1,3.7405018E1,4.6526446E0,2.80145E0,1.6537388E1,6.446047E1,8.606774E0,1.1820102E1,3.3481155E1,3.9238615E0,1.3170255E0,1.4844245E0,1.2489515E1,4.0478725E0,5.944545E1,5.0150228E0,5.352824E0,3.2539504E0,1.0027971E1,1.7921307E0,2.2600609E1,1.0880547E1,2.4691844E0,1.4546771E0],"tree_param":{"num_deleted":"0","num_feature":"200","num_nodes":"29","size_leaf_vector":"0"}},{"base_weights":[2.5319103E-2,9.942106E-2,-2.0612213E-1,5.11843E-1,5.273078E-3,3.1025779E-2,-6.701196E-1,8.521668E-1,-0E0,4.8324756E-2,-1.0541614E0,9.692159E-1,-1.6635683E-1,-1.0111161E0,4.5213416E-2,9.695974E-1,-0E0,6.887916E-1,-8.787721E-1,-1.083298E0,8.688041E-2,-1.4561669E0,-0E0,-8.181727E-1,2.0389336E-1,-0E0,-1.206548E0,-4.658862E-1,5.4526234E-1],"categories":[],"categories_nodes":[],"categories_segments":[],"categories_sizes":[],"default_left":[1,1,1,1,1,1,1,1,1,1,1,0,1,1,1,0,0,0,0,0,0,0,0,0,0,0,0,0,0],"id":43,"left_children":[1,3,5,7,9,11,13,15,17,19,21,-1,23,25,27,-1,-1,-1,-1,-1,-1,-1,-1,-1,-1,-1,-1,-1,-1],"loss_changes":[2.4238112E0,4.045558E0,4.0104327E0,3.7011256E0,3.64394E0,4.3765817E0,3.4549341E0,1.2673149E0,4.5853367E0,3.3331668E0,8.676238E-1,0E0,4.465985E0,2.1027431E0,9.1062725E-1,0E0,0E0,0E0,0E0,0E0,0E0,0E0,0E0,0E0,0E0,0E0,0E0,0E0,0E0],"parents":[2147483647,0,0,1,1,2,2,3,3,4,4,5,5,6,6,7,7,8,8,9,9,10,10,12,12,13,13,14,14],"right_children":[2,4,6,8,10,12,14,16,18,20,22,-1,24,26,28,-1,-1,-1,-1,-1,-1,-1,-1,-1,-1,-1,-1,-1,-1],"split_conditions":[6.9690365E-1,3.1880486E-1,2.9971936E-1,8.394593E-1,9.6842766E-1,3.7190685E-1,8.338107E-1,8.939843E-1,5.4540545E-1,5.6449816E-2,9.189663E-1,1.0320954E-1,2.3996955E-1,8.615437E-2,2.2097304E-1,1.0325016E-1,-0E0,7.334781E-2,-9.357838E-2,-1.1535787E-1,9.251691E-3,-1.5506381E-1,-0E0,-8.7125294E-2,2.1712128E-2,-0E0,-1.2848248E-1,-4.9611133E-2,5.8063712E-2],"split_indices":[79,0,130,69,77,12,87,67,28,26,86,0,77,42,27,0,0,0,0,0,0,0,0,0,0,0,0,0,0],"split_type":[0,0,0,0,0,0,0,0,0,0,0,0,0,0,0,0,0,0,0,0,0,0,0,0,0,0,0,0,0],"sum_hessian":[1.4464441E2,1.1132371E2,3.3320698E1,1.962363E1,9.170008E1,2.1291471E1,1.2029225E1,1.2170261E1,7.4533696E0,8.861414E1,3.0859334E0,4.1668296E0,1.7124641E1,8.651155E0,3.3780706E0,1.0746764E1,1.4234967E0,3.96893E0,3.4844396E0,2.4531496E0,8.6160995E1,2.0220335E0,1.0639001E0,6.72419E0,1.0400453E1,1.1339046E0,7.5172505E0,1.1404992E0,2.2375715E0],"tree_param":{"num_deleted":"0","num_feature":"200","num_nodes":"29","size_leaf_vector":"0"}},{"base_weights":[2.272573E-2,-0E0,7.310194E-1,-1.5851404E-1,1.0013238E-1,1.0608871E0,-0E0,-3.643757E-1,1.6134107E-1,7.767952E-1,1.4691996E-2,1.7525508E-1,-5.350816E-1,-6.9899726E-1,3.6273542E-1,9.6026236E-1,-0E0,4.042691E-1,-1.1676263E-1],"categories":[],"categories_nodes":[],"categories_segments":[],"categories_sizes":[],"default_left":[1,1,1,1,1,0,0,1,1,1,1,0,0,0,0,0,0,0,0],"id":44,"left_children":[1,3,5,7,9,-1,-1,11,13,15,17,-1,-1,-1,-1,-1,-1,-1,-1],"loss_changes":[2.4124506E0,2.202505E0,1.5534163E0,3.6716843E0,4.437178E0,0E0,0E0,3.3201709E0,3.3169506E0,1.4173136E0,4.014865E0,0E0,0E0,0E0,0E0,0E0,0E0,0E0,0E0],"parents":[2147483647,0,0,1,1,2,2,3,3,4,4,7,7,8,8,9,9,10,10],"right_children":[2,4,6,8,10,-1,-1,12,14,16,18,-1,-1,-1,-1,-1,-1,-1,-1],"split_conditions":[5E-1,4.8283345E-1,5.1658106E-1,7.851708E-1,2.727485E-1,1.1297139E-1,-0E0,1.4899206E-1,1.21217474E-1,7.284359E-1,3.1035927E-1,1.8662503E-2,-5.697959E-2,-7.4434586E-2,3.8626846E-2,1.0225609E-1,-0E0,4.304967E-2,-1.2433779E-2],"split_indices":[162,199,79,17,0,0,0,78,30,26,81,0,0,0,0,0,0,0,0],"split_type":[0,0,0,0,0,0,0,0,0,0,0,0,0,0,0,0,0,0,0],"sum_hessian":[1.4281721E2,1.3817401E2,4.6432023E0,5.4090607E1,8.40834E1,3.5800087E0,1.0631933E0,3.392901E1,2.01616E1,8.714606E0,7.53688E1,7.3986583E0,2.653035E1,3.3148959E0,1.6846704E1,7.236557E0,1.4780494E0,2.0039774E1,5.532902E1],"tree_param":{"num_deleted":"0","num_feature":"200","num_nodes":"19","size_leaf_vector":"0"}},{"base_weights":[2.0851688E-2,1.2140999E0,3.467304E-3,4.5552365E-2,-5.156347E-1,-4.0161155E-2,3.0827364E-1,-8.694127E-1,3.9880016E-1,3.2809652E-2,-5.665518E-1,-0E0,7.512528E-1,-9.8662615E-1,-0E0,-0E0,9.450786E-1],"categories":[],"categories_nodes":[],"categories_segments":[],"categories_sizes":[],"default_left":[1,0,1,1,1,1,1,1,1,0,0,0,0,0,0,0,0],"id":45,"left_children":[1,-1,3,5,7,9,11,13,15,-1,-1,-1,-1,-1,-1,-1,-1],"loss_changes":[2.2841232E0,0E0,2.8068306E0,3.0820253E0,3.3434198E0,4.006432E0,4.97083E0,6.025076E-1,7.5223374E-1,0E0,0E0,0E0,0E0,0E0,0E0,0E0,0E0],"parents":[2147483647,0,0,2,2,3,3,4,4,5,5,6,6,7,7,8,8],"right_children":[2,-1,4,6,8,10,12,14,16,-1,-1,-1,-1,-1,-1,-1,-1],"split_conditions":[2.7262938E-1,1.2928666E-1,9.4382733E-1,9.8623234E-1,6.5469587E-1,9.999999E-1,4.2754656E-1,9.6124E-1,8.539286E-1,3.493823E-3,-6.033078E-2,-0E0,7.999915E-2,-1.0506351E-1,-0E0,-0E0,1.0063921E-1],"split_indices":[112,0,66,68,18,109,78,78,20,0,0,0,0,0,0,0,0],"split_type":[0,0,0,0,0,0,0,0,0,0,0,0,0,0,0,0,0],"sum_hessian":[1.415817E2,1.5809526E0,1.4000075E2,1.3046513E2,9.535614E0,9.6837975E1,3.362716E1,7.298787E0,2.236827E0,8.4161E1,1.267697E1,1.9164986E1,1.4462173E1,6.2844644E0,1.0143224E0,1.0039198E0,1.232907E0],"tree_param":{"num_deleted":"0","num_feature":"200","num_nodes":"17","size_leaf_vector":"0"}},{"base_weights":[1.8544788E-2,7.862447E-1,-0E0,1.0311005E0,-0E0,4.512496E-2,-3.4387738E-1,7.784213E-2,-7.525549E-1,-0E0,-7.7536976E-1,1.491102E-1,-2.996965E-1,-1.2445834E0,-0E0,-2.2281753E-1,6.4608556E-1,-0E0,-1.0932044E0],"categories":[],"categories_nodes":[],"categories_segments":[],"categories_sizes":[],"default_left":[1,1,1,0,0,1,1,1,1,1,1,0,0,0,0,0,0,0,0],"id":46,"left_children":[1,3,5,-1,-1,7,9,11,13,15,17,-1,-1,-1,-1,-1,-1,-1,-1],"loss_changes":[2.092666E0,3.9699507E-1,2.1638603E0,0E0,0E0,2.7975543E0,2.5649633E0,3.06568E0,1.1637139E0,1.3503928E0,2.175146E0,0E0,0E0,0E0,0E0,0E0,0E0,0E0,0E0],"parents":[2147483647,0,0,1,1,2,2,5,5,6,6,7,7,8,8,9,9,10,10],"right_children":[2,4,6,-1,-1,8,10,12,14,16,18,-1,-1,-1,-1,-1,-1,-1,-1],"split_conditions":[1.9607625E-5,8.8531005E-1,9.882643E-1,1.0979948E-1,-0E0,9.729548E-1,5.886228E-1,9.999999E-1,7.661933E-1,8.5891426E-1,5.535255E-1,1.5878396E-2,-3.191398E-2,-1.3253278E-1,-0E0,-2.3727316E-2,6.8800144E-2,-0E0,-1.1641278E-1],"split_indices":[0,78,63,0,0,179,26,109,30,20,13,0,0,0,0,0,0,0,0],"split_type":[0,0,0,0,0,0,0,0,0,0,0,0,0,0,0,0,0,0,0],"sum_hessian":[1.4068958E2,3.4542365E0,1.3723534E2,2.3780117E0,1.0762248E0,1.21030075E2,1.620527E1,1.16915405E2,4.1146693E0,8.758806E0,7.4464645E0,9.954952E1,1.7365877E1,2.2498133E0,1.864856E0,6.2811666E0,2.47764E0,1.885018E0,5.5614467E0],"tree_param":{"num_deleted":"0","num_feature":"200","num_nodes":"19","size_leaf_vector":"0"}},{"base_weights":[1.6009677E-2,-1.4023216E-3,6.8308544E-1,1.0668429E-1,-1.399643E-1,1.0168833E0,-0E0,7.3191684E-1,-0E0,-2.6198077E-1,3.4414884E-1,9.109671E-1,-0E0,7.5066596E-1,-7.212917E-2,-4.9841875E-1,7.2808965E-4,7.3674214E-1,-3.7945572E-1],"categories":[],"categories_nodes":[],"categories_segments":[],"categories_sizes":[],"default_left":[1,1,1,1,1,0,0,1,1,1,1,0,0,0,0,0,0,0,0],"id":47,"left_children":[1,3,5,7,9,-1,-1,11,13,15,17,-1,-1,-1,-1,-1,-1,-1,-1],"loss_changes":[1.9883976E0,2.0456226E0,1.3712165E0,4.7038217E0,3.5899954E0,0E0,0E0,1.5930266E0,3.6495333E0,3.3736115E0,3.4613984E0,0E0,0E0,0E0,0E0,0E0,0E0,0E0,0E0],"parents":[2147483647,0,0,1,1,2,2,3,3,4,4,7,7,8,8,9,9,10,10],"right_children":[2,4,6,8,10,-1,-1,12,14,16,18,-1,-1,-1,-1,-1,-1,-1,-1],"split_conditions":[5E-1,6.1780477E-1,5.1658106E-1,1.7946418E-1,9.8930013E-1,1.0828552E-1,-0E0,9.635549E-1,4.0975608E-2,5.5454457E-1,8.4151834E-1,9.700676E-2,-0E0,7.993666E-2,-7.6808664E-3,-5.3075448E-2,7.753257E-5,7.845395E-2,-4.0407352E-2],"split_indices":[162,73,79,98,85,0,0,0,35,21,69,0,0,0,0,0,0,0,0],"split_type":[0,0,0,0,0,0,0,0,0,0,0,0,0,0,0,0,0,0,0],"sum_hessian":[1.3970525E2,1.3537689E2,4.328346E0,7.387872E1,6.1498173E1,3.2741165E0,1.0542294E0,1.034125E1,6.353747E1,5.000651E1,1.1491662E1,8.591969E0,1.7492818E0,5.9354067E0,5.7602066E1,2.7389292E1,2.2617218E1,7.9301353E0,3.561527E0],"tree_param":{"num_deleted":"0","num_feature":"200","num_nodes":"19","size_leaf_vector":"0"}},{"base_weights":[1.4767451E-2,7.250121E-1,-0E0,1.0025748E0,-0E0,-7.230659E-1,1.7519716E-2,-1.2105738E0,-0E0,-2.5536232E-2,3.7923402E-1,-2.225523E-1,9.44535E-2,-2.092696E-2,8.1206214E-1],"categories":[],"categories_nodes":[],"categories_segments":[],"categories_sizes":[],"default_left":[1,1,1,0,0,1,1,0,0,1,1,0,0,0,0],"id":48,"left_children":[1,3,5,-1,-1,7,9,-1,-1,11,13,-1,-1,-1,-1],"loss_changes":[1.8303668E0,4.70899E-1,2.0783126E0,0E0,0E0,1.382942E0,2.2365808E0,0E0,0E0,2.814163E0,3.075347E0,0E0,0E0,0E0,0E0],"parents":[2147483647,0,0,1,1,2,2,5,5,6,6,9,9,10,10],"right_children":[2,4,6,-1,-1,8,10,-1,-1,12,14,-1,-1,-1,-1],"split_conditions":[1.9607636E-5,6.8006414E-1,1.9607709E-5,1.0676184E-1,-0E0,4.5912132E-1,4.9998972E-1,-1.2891117E-1,-0E0,2.3946336E-1,5.912886E-1,-2.3699073E-2,1.0058132E-2,-2.228463E-3,8.64746E-2],"split_indices":[0,65,0,0,0,99,183,0,0,82,109,0,0,0,0],"split_type":[0,0,0,0,0,0,0,0,0,0,0,0,0,0,0],"sum_hessian":[1.3883478E2,3.5305157E0,1.3530426E2,2.310346E0,1.2201699E0,3.8887691E0,1.314155E2,2.3250782E0,1.5636908E0,1.1611937E2,1.5296122E1,4.564108E1,7.0478294E1,7.308733E0,7.9873886E0],"tree_param":{"num_deleted":"0","num_feature":"200","num_nodes":"15","size_leaf_vector":"0"}},{"base_weights":[1.3253544E-2,1.1002165E0,-0E0,4.1927192E-2,-4.2562208E-1,-1.615195E-2,3.842644E-1,-8.090501E-1,-0E0,8.336477E-2,-3.109652E-1,5.963192E-1,-5.971706E-1,-1.0600348E0,-0E0,5.537182E-1,-5.181675E-1],"categories":[],"categories_nodes":[],"categories_segments":[],"categories_sizes":[],"default_left":[1,0,1,1,1,1,1,1,1,0,0,0,0,0,0,0,0],"id":49,"left_children":[1,-1,3,5,7,9,11,13,15,-1,-1,-1,-1,-1,-1,-1,-1],"loss_changes":[1.8212085E0,0E0,2.381049E0,2.6794848E0,1.9288433E0,3.2144918E0,4.049968E0,1.2729754E0,1.6351278E0,0E0,0E0,0E0,0E0,0E0,0E0,0E0,0E0],"parents":[2147483647,0,0,2,2,3,3,4,4,5,5,6,6,7,7,8,8],"right_children":[2,-1,4,6,8,10,12,14,16,-1,-1,-1,-1,-1,-1,-1,-1],"split_conditions":[2.7262938E-1,1.17159486E-1,9.2233574E-1,9.21494E-1,8.488476E-1,4.9893105E-1,9.790317E-1,4.9653772E-1,2.8900702E-2,8.877319E-3,-3.3113956E-2,6.3500635E-2,-6.35913E-2,-1.12880625E-1,-0E0,5.8964156E-2,-5.5178445E-2],"split_indices":[112,0,67,112,96,116,29,199,46,0,0,0,0,0,0,0,0],"split_type":[0,0,0,0,0,0,0,0,0,0,0,0,0,0,0,0,0],"sum_hessian":[1.3826216E2,1.5153654E0,1.367468E2,1.24823616E2,1.1923177E1,1.05386505E2,1.943711E1,6.2399015E0,5.6832747E0,7.743513E1,2.7951382E1,1.6435936E1,3.0011754E0,4.763878E0,1.4760239E0,2.7257829E0,2.9574919E0],"tree_param":{"num_deleted":"0","num_feature":"200","num_nodes":"17","size_leaf_vector":"0"}}]},"name":"gbtree"},"learner_model_param":{"base_score":"5E-1","num_class":"0","num_feature":"200","num_target":"1"},"objective":{"name":"binary:logistic","reg_loss_param":{"scale_pos_weight":"1"}}},"version":[1,6,0]}