{"learner":{"attributes":{"best_iteration":"49","best_ntree_limit":"50"},"feature_names":["0","1","2","3","4","5","6","7","8","9","10","11","12","13","14","15","16","17","18","19","20","21","22","23","24","25","26","27","28","29","30","31","32","33","34","35","36","37","38","39","40","41","42","43","44","45","46","47","48","49","50","51","52","53","54","55","56","57","58","59","60","61","62","63","64","65","66","67","68","69","70","71","72","73","74","75","76","77","78","79","80","81","82","83","84","85","86","87","88","89","90","91","92","93","94","95","96","97","98","99","100","101","102","103","104","105","106","107","108","109","110","111","112","113","114","115","116","117","118","119","120","121","122","123","124","125","126","127","128","129","130","131","132","133","134","135","136","137","138","139","140","141","142","143","144","145","146","147","148","149","150","151","152","153","154","155","156","157","158","159","160","161","162","163","164","165","166","167","168","169","170","171","172","173","174","175","176","177","178","179","180","181","182","183","184","185","186","187","188","189","190","191","192","193","194","195","196","197","198","199"],"feature_types":["float","float","float","float","float","float","float","float","float","float","float","float","float","float","float","float","float","float","float","float","float","float","float","float","float","float","float","float","float","float","float","float","float","float","float","float","float","float","float","float","float","float","float","float","float","float","float","float","float","float","float","float","float","float","float","float","float","float","float","float","float","float","float","float","float","float","float","float","float","float","float","float","float","float","float","float","float","float","float","float","float","float","float","float","float","float","float","float","float","float","float","float","float","float","float","float","float","float","float","float","float","float","float","float","float","float","float","float","float","float","float","float","float","float","float","float","float","float","float","float","float","float","float","float","float","float","float","float","float","float","float","float","float","float","float","float","float","float","float","float","float","float","float","float","float","float","float","float","float","float","float","float","float","float","float","float","float","float","float","float","float","float","float","float","float","float","float","float","float","float","float","float","float","float","float","float","float","float","float","float","float","float","float","float","float","float","float","float","float","float","float","float","float","float","float","float","float","float","float","float"],"gradient_booster":{"gbtree":{"model":{"gbtree_model_param":{"num_parallel_tree":"1","num_trees":"50","size_leaf_vector":"0"},"tree_info":[0,0,0,0,0,0,0,0,0,0,0,0,0,0,0,0,0,0,0,0,0,0,0,0,0,0,0,0,0,0,0,0,0,0,0,0,0,0,0,0,0,0,0,0,0,0,0,0,0,0],"trees":[{"base_weights":[1.012315E0,1.4272928E0,-9.540623E-1,1.5323851E0,-3.466616E-1,2.0224293E-1,-1.4845341E0,1.5811685E0,-2.3528294E-1,-8.571361E-1,1.1578747E0,-6.6665924E-1,1.3684111E0,1.9999366E0,-1.5957427E0,-3.999848E-1,1.6222035E0,-1.199981E0,1.14283E0,4.4442335E-1,-1.4736742E0,-3.9992404E-1,1.7142586E0,-1.1627818E0,1.9999524E0,1.7419232E0,-2.8566003E-1,-1.6521719E0,9.99905E-1,-1.5293894E0,1.9999524E0,1.6512989E0,-8.5711575E-1,9.99905E-1,-1.7499763E0,-0E0,1.9999524E0,-1.999924E0,1.3845861E0,6.666033E-1,-1.8749881E0,1.999962E0,9.99905E-1,-0E0,-1.7241248E0,1.9999859E0,-0E0,-1.7272706E0,-0E0,-1.9999708E0,-0E0,1.6686387E0,-3.99962E-1,1.999905E0,-1.999962E0,-9.99905E-1,-1.9999683E0,1.9999524E0,3.9992404E-1,-9.99905E-1,-1.9999864E0,-9.999525E-1,1.33327E0,-0E0,-1.9999847E0,-0E0,-1.7674396E0,1.999905E0,-1.999905E0],"categories":[],"categories_nodes":[],"categories_segments":[],"categories_sizes":[],"default_left":[1,1,1,1,1,1,1,1,1,1,1,1,1,0,1,1,1,1,1,1,1,0,1,1,0,1,0,1,0,1,0,1,1,0,1,0,0,0,1,0,1,0,0,1,1,0,0,1,1,0,0,0,0,0,0,0,0,0,0,0,0,0,0,0,0,0,0,0,0],"id":0,"left_children":[1,3,5,7,9,11,13,15,17,19,21,23,25,-1,27,29,31,33,35,37,39,-1,41,43,-1,45,-1,47,-1,49,-1,51,53,-1,55,-1,-1,-1,57,-1,59,-1,-1,61,63,-1,-1,65,67,-1,-1,-1,-1,-1,-1,-1,-1,-1,-1,-1,-1,-1,-1,-1,-1,-1,-1,-1,-1],"loss_changes":[3.312972E2,6.250049E1,4.3397278E1,2.7292786E1,1.4400484E1,2.254568E1,1.8793854E1,2.503949E1,1.1300439E1,1.1234552E1,4.117112E0,1.6867743E1,5.8693886E0,0E0,6.884163E0,1.6940582E1,2.1767395E1,6.0497055E0,3.4284086E0,1.0341322E1,8.159885E0,0E0,7.140417E-1,7.016734E0,0E0,3.4838219E0,0E0,5.7074966E0,0E0,3.058735E0,0E0,1.0608398E1,1.1427975E1,0E0,7.497635E-1,0E0,0E0,0E0,1.9690375E0,0E0,8.747864E-1,0E0,0E0,4.6662235E0,3.448223E0,0E0,0E0,3.0528412E0,7.99924E0,0E0,0E0,0E0,0E0,0E0,0E0,0E0,0E0,0E0,0E0,0E0,0E0,0E0,0E0,0E0,0E0,0E0,0E0,0E0,0E0],"parents":[2147483647,0,0,1,1,2,2,3,3,4,4,5,5,6,6,7,7,8,8,9,9,10,10,11,11,12,12,14,14,15,15,16,16,17,17,18,18,19,19,20,20,22,22,23,23,25,25,27,27,29,29,31,31,32,32,34,34,38,38,40,40,43,43,44,44,47,47,48,48],"right_children":[2,4,6,8,10,12,14,16,18,20,22,24,26,-1,28,30,32,34,36,38,40,-1,42,44,-1,46,-1,48,-1,50,-1,52,54,-1,56,-1,-1,-1,58,-1,60,-1,-1,62,64,-1,-1,66,68,-1,-1,-1,-1,-1,-1,-1,-1,-1,-1,-1,-1,-1,-1,-1,-1,-1,-1,-1,-1],"split_conditions":[8.110975E-1,5.832491E-1,7.8692013E-1,8.7591445E-1,5.8949447E-1,6.2408847E-1,6.030561E-1,1.862762E-1,4.8793843E-1,2.0699939E-1,7.19545E-1,7.249282E-1,7.1833444E-1,1.9105234E0,5E-1,8.767812E-1,9.271878E-1,3.2202378E-1,1.4975911E-1,3.8808596E-1,5.7024634E-1,-3.8204423E-1,8.39488E-1,7.043437E-1,1.9105386E0,8.0884165E-1,-2.7288875E-1,9.9973446E-1,9.552012E-1,8.9545465E-1,1.9105386E0,9.2459744E-1,4.1529807E-1,9.552012E-1,7.777009E-1,-0E0,1.9105386E0,-1.9105114E0,1.7449737E-1,6.368008E-1,4.0951036E-2,1.9105476E0,9.552012E-1,6.7139006E-1,9.3211114E-2,1.9105705E0,-0E0,1.7150594E-1,4.203957E-1,-1.9105561E0,-0E0,1.5940372E0,-3.820805E-1,1.9104933E0,-1.9105476E0,-9.552012E-1,-1.9105537E0,1.9105386E0,3.8204423E-1,-9.552012E-1,-1.910571E0,-9.552466E-1,1.2736621E0,-0E0,-1.9105694E0,-0E0,-1.6884209E0,1.9104933E0,-1.9104933E0],"split_indices":[103,122,67,49,19,98,15,199,92,29,39,36,130,0,196,20,95,20,29,15,30,0,0,15,0,30,0,17,0,14,0,66,0,0,0,0,0,0,44,0,1,0,0,17,4,0,0,2,88,0,0,0,0,0,0,0,0,0,0,0,0,0,0,0,0,0,0,0,0],"split_type":[0,0,0,0,0,0,0,0,0,0,0,0,0,0,0,0,0,0,0,0,0,0,0,0,0,0,0,0,0,0,0,0,0,0,0,0,0,0,0,0,0,0,0,0,0,0,0,0,0,0,0,0,0,0,0,0,0,0,0,0,0,0,0,0,0,0,0,0,0],"sum_hessian":[4.06E2,3.3525E2,7.075E1,3.165E2,1.875E1,2.225E1,4.85E1,3.08E2,8.5E0,1.4E1,4.75E0,1.275E1,9.5E0,1.5E0,4.7E1,6.25E0,3.0175E2,5E0,3.5E0,4.5E0,9.5E0,1.25E0,3.5E0,1.075E1,2E0,7.75E0,1.75E0,4.6E1,1E0,4.25E0,2E0,2.9825E2,3.5E0,1E0,4E0,1.5E0,2E0,1.25E0,3.25E0,1.5E0,8E0,2.5E0,1E0,3.5E0,7.25E0,6.75E0,1E0,4.4E1,2E0,3.25E0,1E0,2.9575E2,2.5E0,1E0,2.5E0,1E0,3E0,2E0,1.25E0,1E0,7E0,2E0,1.5E0,1E0,6.25E0,1E0,4.3E1,1E0,1E0],"tree_param":{"num_deleted":"0","num_feature":"200","num_nodes":"69","size_leaf_vector":"0"}},{"base_weights":[3.6379614E-1,7.0186317E-1,-1.9376472E-1,7.406263E-1,-2.1977193E0,-3.2904148E-1,7.73981E-1,7.8348744E-1,-1.1120161E0,7.087002E-2,-7.0052654E-1,1.0560726E0,-3.098064E-1,2.3317859E-1,8.920726E-1,2.2843477E-1,-3.6966774E0,1.9421287E-1,-2.6173515E0,-1.7584908E0,-4.6775627E-1,3.121833E-1,1.1706816E0,8.144468E-1,-1.357325E0,5.4565823E-1,-4.4981794E0,9.2249155E-1,-1.567139E0,-6.577481E-1,1.1785135E0,-9.904404E-1,3.9607906E-1,-8.4353787E-1,-3.4486253E0,1.0881945E0,-5.913345E-1,1.250814E0,6.8857396E-1,-1.3121581E0,7.806278E-1,9.635204E-1,-4.4384474E-1,5.8305633E-1,-2.0533898E0,8.841154E-1,-1.0025708E-1,-2.6897178E0,-2.52102E-1,-5.9235168E0,-2.5040644E-1,4.309671E-1,1.5800312E0,-9.33276E-1,8.377072E-2,1.4840086E0,1.2018872E0],"categories":[],"categories_nodes":[],"categories_segments":[],"categories_sizes":[],"default_left":[1,1,1,1,0,1,1,1,1,1,1,1,1,1,1,1,0,1,0,1,1,0,1,0,0,1,0,1,0,0,0,1,1,1,1,1,1,1,0,0,0,0,0,0,0,0,0,0,0,0,0,0,0,0,0,0,0],"id":1,"left_children":[1,3,5,7,-1,9,11,13,15,17,19,21,23,25,27,29,-1,31,-1,33,35,-1,37,-1,-1,39,-1,41,-1,-1,-1,43,45,47,49,51,53,55,-1,-1,-1,-1,-1,-1,-1,-1,-1,-1,-1,-1,-1,-1,-1,-1,-1,-1,-1],"loss_changes":[4.314498E1,1.6015854E1,1.131077E1,1.116571E1,0E0,1.1261451E1,3.2395792E0,8.212418E0,1.1016211E1,1.2103745E1,9.677504E0,7.1667385E-1,2.577172E0,3.348575E1,8.5867E0,1.7628138E0,0E0,8.346768E0,0E0,1.0958832E1,6.1936116E0,0E0,2.8126144E-1,0E0,0E0,9.274587E0,0E0,6.3562546E0,0E0,0E0,0E0,8.499311E0,7.223793E0,5.0201926E0,1.9700712E1,7.659173E-1,6.888853E0,7.101631E-2,0E0,0E0,0E0,0E0,0E0,0E0,0E0,0E0,0E0,0E0,0E0,0E0,0E0,0E0,0E0,0E0,0E0,0E0,0E0],"parents":[2147483647,0,0,1,1,2,2,3,3,5,5,6,6,7,7,8,8,9,9,10,10,11,11,12,12,13,13,14,14,15,15,17,17,19,19,20,20,22,22,25,25,27,27,31,31,32,32,33,33,34,34,35,35,36,36,37,37],"right_children":[2,4,6,8,-1,10,12,14,16,18,20,22,24,26,28,30,-1,32,-1,34,36,-1,38,-1,-1,40,-1,42,-1,-1,-1,44,46,48,50,52,54,56,-1,-1,-1,-1,-1,-1,-1,-1,-1,-1,-1,-1,-1,-1,-1,-1,-1,-1,-1],"split_conditions":[6.030647E-1,9.2701286E-1,5.818236E-1,9.1671324E-1,-2.0994637E0,6.8271583E-1,8.1404686E-1,1.4798284E-1,6.565357E-1,9.5262444E-1,6.2048125E-1,2.7254707E-1,5.8691984E-1,6.150578E-1,5E-1,5.970694E-1,-3.5314064E0,6.923552E-1,-2.500335E0,9.8307633E-1,1.1253139E-1,2.982262E-1,4.4707656E-1,7.780345E-1,-1.2966417E0,1.4286822E-1,-4.297075E0,5.832491E-1,-1.4970753E0,-6.283415E-1,1.1258246E0,2.102942E-1,5.1829886E-1,6.9344215E-2,8.691904E-1,2.3692073E-1,4.8793843E-1,1.324891E-1,6.577892E-1,-1.2534941E0,7.457275E-1,9.204433E-1,-4.240013E-1,5.56989E-1,-1.9615868E0,8.4458834E-1,-9.5774785E-2,-2.5694659E0,-2.40831E-1,-5.658688E0,-2.3921128E-1,4.116994E-1,1.5093911E0,-8.915511E-1,8.00255E-2,1.4176614E0,1.1481533E0],"split_indices":[58,67,139,79,0,67,103,95,42,119,66,36,27,11,167,18,0,106,0,68,41,0,35,0,0,76,0,122,0,0,0,79,15,77,112,7,92,1,0,0,0,0,0,0,0,0,0,0,0,0,0,0,0,0,0,0,0],"split_type":[0,0,0,0,0,0,0,0,0,0,0,0,0,0,0,0,0,0,0,0,0,0,0,0,0,0,0,0,0,0,0,0,0,0,0,0,0,0,0,0,0,0,0,0,0,0,0,0,0,0,0,0,0,0,0,0,0],"sum_hessian":[2.2889417E2,1.4249503E2,8.639914E1,1.4061525E2,1.8797842E0,7.580307E1,1.0596067E1,1.374357E2,3.179543E0,3.650472E1,3.9298355E1,8.407758E0,2.1883101E0,2.2649437E1,1.1478626E2,2.0936847E0,1.0858583E0,3.4903297E1,1.601422E0,7.086967E0,3.2211388E1,1.122541E0,7.2852163E0,1.0554519E0,1.1328583E0,2.1246262E1,1.4031762E0,1.1338381E2,1.4024488E0,1.0832174E0,1.0104673E0,5.081573E0,2.9821722E1,4.597935E0,2.4890318E0,2.3700285E0,2.9841358E1,6.246733E0,1.038483E0,2.3853996E0,1.886086E1,1.1007841E2,3.3054047E0,2.0487275E0,3.0328455E0,1.5036679E1,1.4785044E1,1.1155527E0,3.4823823E0,1.4031762E0,1.0858556E0,1.0145317E0,1.3554968E0,1.9808483E1,1.0032875E1,1.0829991E0,5.163734E0],"tree_param":{"num_deleted":"0","num_feature":"200","num_nodes":"57","size_leaf_vector":"0"}},{"base_weights":[2.6800877E-1,3.7375718E-1,-4.9351618E-1,5.94106E-1,4.0021263E-2,-6.6741216E-1,1.6029209E0,6.590002E-1,-1.0155365E0,1.8163499E-1,-8.3049196E-1,1.0802989E0,-9.1308E-1,7.646584E-1,5.358323E-3,-2.4114555E-1,-2.3979979E0,-3.206388E-1,5.055205E-1,-4.390121E0,1.1036627E-1,6.6209304E-1,-1.2267978E0,7.9966223E-1,-1.1046497E0,-1.3182687E0,6.089061E-1,-1.1899679E0,5.3205274E-2,6.6352916E-1,-9.9088615E-1,-8.249185E-1,1.3064369E0,1.6543324E0,-5.3063744E-1,-1.4151922E0,8.1093496E-1,2.8676317E0,7.567905E-1,-2.3613682E-1,-3.4374368E0,1.3789761E0,-2.4836975E-1,5.741197E-1,-3.0443027E0,7.199287E-1,-6.614777E-1,8.9401376E-1,-2.5702012E-1,-2.9600098E0,3.164582E-1,-3.2438377E-1,-1.1908427E0,3.1630962E0,-3.005767E-1,-3.0663338E0,-1.2439376E0],"categories":[],"categories_nodes":[],"categories_segments":[],"categories_sizes":[],"default_left":[1,1,1,1,1,1,0,1,1,1,1,0,1,1,1,0,0,1,1,0,1,1,1,1,0,1,1,1,1,1,1,1,1,0,0,1,0,0,0,0,0,0,0,0,0,0,0,0,0,0,0,0,0,0,0,0,0],"id":2,"left_children":[1,3,5,7,9,11,-1,13,15,17,19,-1,21,23,25,-1,-1,27,29,-1,31,33,35,37,-1,39,41,43,45,47,49,51,53,-1,-1,55,-1,-1,-1,-1,-1,-1,-1,-1,-1,-1,-1,-1,-1,-1,-1,-1,-1,-1,-1,-1,-1],"loss_changes":[1.195977E1,9.589691E0,6.6015515E0,8.204519E0,6.393023E0,7.1794434E0,0E0,5.214245E0,3.2583861E0,7.256115E0,2.4301365E1,0E0,7.244787E0,4.252796E0,8.393116E0,0E0,0E0,5.683016E0,6.411768E0,0E0,6.420101E0,2.8817296E0,4.6935215E0,5.6560287E0,0E0,7.544996E0,4.7638445E0,1.7201857E1,5.826467E0,5.2041483E0,6.667384E0,5.8972883E-1,7.514519E0,0E0,0E0,3.1640816E0,0E0,0E0,0E0,0E0,0E0,0E0,0E0,0E0,0E0,0E0,0E0,0E0,0E0,0E0,0E0,0E0,0E0,0E0,0E0,0E0,0E0],"parents":[2147483647,0,0,1,1,2,2,3,3,4,4,5,5,7,7,8,8,9,9,10,10,12,12,13,13,14,14,17,17,18,18,20,20,21,21,22,22,23,23,25,25,26,26,27,27,28,28,29,29,30,30,31,31,32,32,35,35],"right_children":[2,4,6,8,10,12,-1,14,16,18,20,-1,22,24,26,-1,-1,28,30,-1,32,34,36,38,-1,40,42,44,46,48,50,52,54,-1,-1,56,-1,-1,-1,-1,-1,-1,-1,-1,-1,-1,-1,-1,-1,-1,-1,-1,-1,-1,-1,-1,-1],"split_conditions":[9.882643E-1,6.313256E-1,9.705215E-1,9.729548E-1,9.857942E-1,3.188138E-1,1.5312575E0,6.0146356E-1,3.5240442E-1,4.8793843E-1,3.457672E-1,1.0320009E0,1.3871521E-1,9.648053E-1,3.0399537E-1,-2.3036441E-1,-2.2907882E0,4.120169E-2,9.9999994E-1,-4.193847E0,3.5561508E-1,4.1383207E-1,8.5102546E-1,2.0052165E-1,-1.0552629E0,1.6658685E-1,5.2829087E-1,1.6832346E-2,3.9313513E-1,7.9271436E-1,5.1154256E-1,9.6554065E-1,8.690543E-1,1.5803704E0,-5.069137E-1,1.8485707E-1,7.7467966E-1,2.7394257E0,7.2295594E-1,-2.2557962E-1,-3.2837558E0,1.3173249E0,-2.3726563E-1,5.4845196E-1,-2.9081979E0,6.877421E-1,-6.319043E-1,8.540442E-1,-2.4552926E-1,-2.8276737E0,3.0231E-1,-3.098812E-1,-1.1376026E0,3.0216804E0,-2.871385E-1,-2.929244E0,-1.1883236E0],"split_indices":[63,73,71,179,70,81,0,36,99,92,34,0,129,103,7,0,0,12,109,0,99,78,19,199,0,5,96,12,37,103,21,26,72,0,0,103,0,0,0,0,0,0,0,0,0,0,0,0,0,0,0,0,0,0,0,0,0],"split_type":[0,0,0,0,0,0,0,0,0,0,0,0,0,0,0,0,0,0,0,0,0,0,0,0,0,0,0,0,0,0,0,0,0,0,0,0,0,0,0,0,0,0,0,0,0,0,0,0,0,0,0,0,0,0,0,0,0],"sum_hessian":[1.4851326E2,1.3040485E2,1.8108416E1,7.854518E1,5.1859665E1,1.6721445E1,1.3869709E0,7.5501335E1,3.043846E0,4.460371E1,7.2559524E0,2.0607352E0,1.466071E1,6.499504E1,1.0506291E1,1.951035E0,1.092811E0,1.7486217E1,2.7117493E1,1.5169286E0,5.739024E0,2.4348845E0,1.2225826E1,6.3800396E1,1.1946484E0,3.2902849E0,7.2160068E0,5.2584906E0,1.2227728E1,2.4527634E1,2.5898588E0,3.2205718E0,2.5184522E0,1.3291974E0,1.1056873E0,1.1191212E1,1.0346142E0,1.2957565E0,6.250464E1,2.1781032E0,1.1121815E0,3.8014064E0,3.4146004E0,2.6947951E0,2.5636952E0,6.3261933E0,5.9015346E0,1.961627E1,4.911365E0,1.0334091E0,1.5564497E0,1.3602263E0,1.8603456E0,1.1684942E0,1.349958E0,1.0516108E0,1.0139601E1],"tree_param":{"num_deleted":"0","num_feature":"200","num_nodes":"57","size_leaf_vector":"0"}},{"base_weights":[2.221992E-1,-7.772098E-2,4.6254417E-1,-6.4568985E-1,2.3215306E-1,7.196634E-1,7.4438356E-2,-3.1792042E-1,-2.164115E0,-1.352672E-2,1.0476248E0,6.1187446E-1,2.9455683E0,-3.1424254E-1,7.0137084E-1,5.3974956E-1,-6.4628375E-1,-4.197487E0,-1.0078266E0,-4.147431E-1,5.9670025E-1,1.3240509E0,5.9543014E-1,7.34987E-1,-5.717138E-1,-6.084999E-1,1.6952555E0,-7.0187783E-1,1.0755116E0,-5.103188E-1,1.4213322E0,1.2822438E0,-9.809041E-1,-1.6056023E0,-2.1242121E-1,8.6350036E-1,-1.4021254E0,1.1747491E0,1.7953902E0,-4.698566E-2,1.0386156E0,-1.1486535E-2,9.0395075E-1,-2.4124677E0,5.768346E-1,-1.994113E0,-3.025097E-1,9.198036E-1,1.892719E0,4.816501E-1,2.3354814E0,-6.579171E-1,-2.7135167E0,-2.8918452E0,-3.908642E-1,-5.1804644E-1,5.3627014E-1,1.2325752E0,-2.2947767E-1,1.0706968E0,1.3941056E0,7.1803784E-1,-1.4701695E0,-6.711268E-1,9.813618E-1,-1.3878009E-1,-3.563027E0,2.4066232E-1,-9.372601E-1,1.067169E0,2.3163795E-1],"categories":[],"categories_nodes":[],"categories_segments":[],"categories_sizes":[],"default_left":[1,1,1,1,1,1,1,1,1,1,1,1,0,1,1,1,1,0,0,1,1,1,1,1,1,1,0,0,1,0,1,0,1,1,1,1,0,1,0,0,0,1,1,0,0,1,1,1,0,0,0,0,0,0,0,0,0,0,0,0,0,0,0,0,0,0,0,0,0,0,0],"id":3,"left_children":[1,3,5,7,9,11,13,15,17,19,21,23,-1,25,27,29,31,-1,-1,33,35,37,39,41,43,45,-1,-1,47,-1,49,-1,51,53,55,57,-1,59,-1,-1,-1,61,63,-1,-1,65,67,69,-1,-1,-1,-1,-1,-1,-1,-1,-1,-1,-1,-1,-1,-1,-1,-1,-1,-1,-1,-1,-1,-1,-1],"loss_changes":[7.7788644E0,8.449122E0,5.977955E0,8.433749E0,6.2228785E0,8.645189E0,5.8172283E0,3.9252248E0,7.0730553E0,5.843927E0,8.987107E-1,5.0081596E0,0E0,8.713622E0,4.7966886E0,3.5721395E0,6.5041647E0,0E0,0E0,3.469528E0,5.0492315E0,3.137784E-1,7.7688336E-1,3.9265995E0,6.8461494E0,5.4497137E0,0E0,0E0,9.17573E-1,0E0,1.8016486E0,0E0,4.8060465E0,3.2671876E0,2.8166676E0,3.3697357E0,0E0,7.712841E-2,0E0,0E0,0E0,6.114517E0,3.095251E0,0E0,0E0,6.767659E0,3.630243E0,6.143122E-1,0E0,0E0,0E0,0E0,0E0,0E0,0E0,0E0,0E0,0E0,0E0,0E0,0E0,0E0,0E0,0E0,0E0,0E0,0E0,0E0,0E0,0E0,0E0],"parents":[2147483647,0,0,1,1,2,2,3,3,4,4,5,5,6,6,7,7,8,8,9,9,10,10,11,11,13,13,14,14,15,15,16,16,19,19,20,20,21,21,22,22,23,23,24,24,25,25,28,28,30,30,32,32,33,33,34,34,35,35,37,37,41,41,42,42,45,45,46,46,47,47],"right_children":[2,4,6,8,10,12,14,16,18,20,22,24,-1,26,28,30,32,-1,-1,34,36,38,40,42,44,46,-1,-1,48,-1,50,-1,52,54,56,58,-1,60,-1,-1,-1,62,64,-1,-1,66,68,70,-1,-1,-1,-1,-1,-1,-1,-1,-1,-1,-1,-1,-1,-1,-1,-1,-1,-1,-1,-1,-1,-1,-1],"split_conditions":[4.236626E-1,7.7466935E-1,3.837248E-1,8.407855E-1,8.144902E-1,9.846835E-1,2.6442602E-1,6.3948953E-1,4.167282E-1,4.8307097E-1,4.9962357E-1,9.2860854E-1,2.8138778E0,5.569388E-1,1.363712E-1,4.255302E-1,4.712549E-2,-4.0098257E0,-9.627686E-1,3.7158448E-1,9.9238527E-1,8.416239E-1,2.3114896E-1,1.3233282E-1,2.6912215E-1,2.769884E-1,1.619464E0,-6.7049825E-1,9.0201557E-1,-4.8750347E-1,2.1471819E-2,1.2249173E0,9.2160165E-1,3.1578928E-1,5.3693074E-1,6.2951374E-1,-1.3394392E0,4.207847E-1,1.7151219E0,-4.4885024E-2,9.921811E-1,3.1578928E-1,2.9907554E-1,-2.304611E0,5.510455E-1,5.950173E-2,8.1421363E-1,6.6345555E-1,1.8080993E0,4.601165E-1,2.2310667E0,-6.285029E-1,-2.5922008E0,-2.7625566E0,-3.7338942E-1,-4.9488562E-1,5.122946E-1,1.1774691E0,-2.1921818E-1,1.0228281E0,1.3317778E0,6.859358E-1,-1.4044412E0,-6.4112204E-1,9.3748707E-1,-1.3257551E-1,-3.403731E0,2.2990279E-1,-8.953571E-1,1.0194579E0,2.2128189E-1],"split_indices":[45,39,66,199,199,70,46,112,18,23,115,77,0,39,28,42,0,0,0,66,150,29,17,82,38,59,0,0,95,0,113,0,20,72,77,22,0,2,0,0,0,72,199,0,0,2,95,1,0,0,0,0,0,0,0,0,0,0,0,0,0,0,0,0,0,0,0,0,0,0,0],"split_type":[0,0,0,0,0,0,0,0,0,0,0,0,0,0,0,0,0,0,0,0,0,0,0,0,0,0,0,0,0,0,0,0,0,0,0,0,0,0,0,0,0,0,0,0,0,0,0,0,0,0,0,0,0,0,0,0,0,0,0,0,0,0,0,0,0,0,0,0,0,0,0],"sum_hessian":[1.079129E2,4.800648E1,5.990642E1,1.694615E1,3.1060331E1,3.603384E1,2.3872581E1,1.3937617E1,3.0085316E0,2.3869097E1,7.1912346E0,3.4369545E1,1.664295E0,1.4736318E1,9.136263E0,3.8586671E0,1.0078951E1,1.0905974E0,1.9179342E0,1.4400867E1,9.468229E0,4.4628754E0,2.7283592E0,3.1131445E1,3.2381E0,1.2854097E1,1.88222E0,1.9231313E0,7.2131314E0,1.7610009E0,2.0976663E0,1.4901927E0,8.5887575E0,2.0912688E0,1.2309599E1,8.353292E0,1.114937E0,3.3894372E0,1.0734383E0,1.1137369E0,1.6146222E0,5.7458777E0,2.5385567E1,1.2441732E0,1.993927E0,2.3250916E0,1.0529006E1,6.0588202E0,1.1543113E0,1.0344388E0,1.0632274E0,7.2392917E0,1.3494661E0,1.0157009E0,1.0755678E0,8.741384E0,3.5682156E0,6.2446856E0,2.108607E0,2.2992258E0,1.0902115E0,3.8302217E0,1.9156561E0,1.1891327E0,2.4196434E1,1.0653331E0,1.2597585E0,5.6737146E0,4.8552914E0,4.9900928E0,1.0687271E0],"tree_param":{"num_deleted":"0","num_feature":"200","num_nodes":"71","size_leaf_vector":"0"}},{"base_weights":[2.261602E-1,3.2166308E-1,-5.701321E-1,4.2189127E-1,-5.534078E-1,1.02234125E-1,-9.559513E-1,9.741509E-2,5.8252376E-1,1.1814655E0,-9.389467E-1,-3.9044213E-1,1.1722555E0,-2.0979938E-1,-1.1672227E0,3.6062247E-1,-8.517996E-1,7.059504E-1,-1.7953622E-1,-2.0722322E0,-4.7390756E-1,-1.0318642E0,3.8309783E-1,-9.0796274E-1,-1.2519075E0,-3.9024767E-3,8.731389E-1,-3.457068E-1,-1.6298819E0,7.488345E-1,-9.6378696E-1,-1.8900049E0,2.4183212E-1,2.4533513E-1,-1.054195E0,-1.5143123E0,-1.1286588E0,9.8270625E-1,-2.616293E-1,1.5305222E0,5.858397E-1,7.04043E-1,-8.5331327E-1,-2.1944816E0,-1.0444266E0,6.5914685E-1,1.4174621E0,8.4428865E-1,-3.3511233E-1,8.1016964E-1,-2.6653603E-1,-4.310437E-1,-1.544649E0,-1.2029202E0,-1.0615029E0],"categories":[],"categories_nodes":[],"categories_segments":[],"categories_sizes":[],"default_left":[1,1,1,1,1,1,1,1,1,0,1,1,0,0,1,1,1,1,1,0,1,0,0,0,1,1,1,1,1,1,0,0,1,1,1,0,1,0,0,0,0,0,0,0,0,0,0,0,0,0,0,0,0,0,0],"id":4,"left_children":[1,3,5,7,9,11,13,15,17,-1,19,21,-1,-1,23,25,27,29,31,-1,33,-1,-1,-1,35,37,39,41,43,45,-1,-1,47,49,51,-1,53,-1,-1,-1,-1,-1,-1,-1,-1,-1,-1,-1,-1,-1,-1,-1,-1,-1,-1],"loss_changes":[6.905298E0,7.1110744E0,2.5225813E0,3.7915573E0,5.572935E0,1.8690631E0,9.738717E-1,6.0181885E0,4.5767136E0,0E0,3.592525E0,1.2045035E0,0E0,0E0,1.0551214E-1,3.523419E0,2.0590196E0,2.998476E0,4.8883452E0,0E0,2.0175068E0,0E0,0E0,0E0,1.17123604E-1,2.802183E0,1.4802203E0,1.6883885E0,6.808834E-1,2.4480953E0,0E0,0E0,1.8914696E0,6.240792E-1,8.17472E-1,0E0,1.2101173E-2,0E0,0E0,0E0,0E0,0E0,0E0,0E0,0E0,0E0,0E0,0E0,0E0,0E0,0E0,0E0,0E0,0E0,0E0],"parents":[2147483647,0,0,1,1,2,2,3,3,4,4,5,5,6,6,7,7,8,8,10,10,11,11,14,14,15,15,16,16,17,17,18,18,20,20,24,24,25,25,26,26,27,27,28,28,29,29,32,32,33,33,34,34,36,36],"right_children":[2,4,6,8,10,12,14,16,18,-1,20,22,-1,-1,24,26,28,30,32,-1,34,-1,-1,-1,36,38,40,42,44,46,-1,-1,48,50,52,-1,54,-1,-1,-1,-1,-1,-1,-1,-1,-1,-1,-1,-1,-1,-1,-1,-1,-1,-1],"split_conditions":[8.9214146E-1,7.1833444E-1,2.8900702E-2,1.8543386E-1,3.6349016E-1,9.031819E-1,1.11536704E-1,3.8195628E-1,7.88117E-1,1.1286446E0,2.3370092E-1,1.2535423E-1,1.1198463E0,-2.0041966E-1,1.9586396E-1,3.3648413E-1,5.019094E-1,7.540843E-1,1.5509656E-1,-1.9795868E0,4.9252564E-1,-9.8573154E-1,3.6597028E-1,-8.6736953E-1,1.6467085E-1,1.4551869E-1,2.0933814E-1,8.478124E-1,4.6912426E-1,6.904198E-1,-9.20698E-1,-1.8055065E0,5.6286144E-1,5.969171E-1,6.118197E-1,-1.4466103E0,1.2826316E-1,9.387714E-1,-2.499324E-1,1.4620956E0,5.59648E-1,6.725666E-1,-8.151633E-1,-2.0963707E0,-9.9773234E-1,6.296777E-1,1.3540902E0,8.0654216E-1,-3.2013014E-1,7.7394855E-1,-2.5461972E-1,-4.117726E-1,-1.4755908E0,-1.14914E0,-1.0140452E0],"split_indices":[67,130,46,77,103,32,28,13,21,0,66,199,0,0,42,72,19,22,41,0,94,0,0,0,0,78,17,14,3,91,0,0,42,10,22,0,77,0,0,0,0,0,0,0,0,0,0,0,0,0,0,0,0,0,0],"split_type":[0,0,0,0,0,0,0,0,0,0,0,0,0,0,0,0,0,0,0,0,0,0,0,0,0,0,0,0,0,0,0,0,0,0,0,0,0,0,0,0,0,0,0,0,0,0,0,0,0,0,0,0,0,0,0],"sum_hessian":[9.080188E1,8.107796E1,9.723924E0,7.274595E1,8.33201E0,3.5452967E0,6.1786265E0,2.4088327E1,4.8657623E1,1.5149033E0,6.817107E0,2.4275E0,1.1177968E0,1.3635162E0,4.8151107E0,1.8859016E1,5.2293096E0,4.1875416E1,6.7822056E0,1.983406E0,4.833701E0,1.3271474E0,1.1003525E0,1.1858346E0,3.6292758E0,1.102053E1,7.8384867E0,3.1685152E0,2.0607946E0,4.082691E1,1.048506E0,1.3405817E0,5.441624E0,2.1583502E0,2.675351E0,1.1596122E0,2.4696636E0,2.2824965E0,8.738033E0,2.3837595E0,5.454727E0,1.0326885E0,2.1358268E0,1.0490004E0,1.0117942E0,3.5998344E1,4.828565E0,2.6620376E0,2.7795866E0,1.0261786E0,1.1321718E0,1.1783632E0,1.4969878E0,1.1721152E0,1.2975485E0],"tree_param":{"num_deleted":"0","num_feature":"200","num_nodes":"55","size_leaf_vector":"0"}},{"base_weights":[7.643722E-2,-4.1357066E-2,4.8898852E-1,-1.1061862E0,8.928005E-3,1.4265691E-3,9.1024464E-1,-2.3537211E0,-1.5293327E-1,-1.6206069E0,4.046707E-2,2.8405654E-1,-1.5113196E0,1.1065845E0,-4.7606146E-1,-3.9074883E-2,6.88309E-1,1.2620733E0,-1.7367977E-1,1.5225707E0,1.0204232E0,3.2246575E-2,-9.70795E-1,1.1538345E0,6.0344826E-2,1.097113E0,1.427194E0,5.804234E-1,-5.341402E-1,6.5924406E-1,1.108531E0,-2.6636276E-1,2.03806E-1,-2.1349876E0,2.36001E-1,1.788575E0,8.538602E-1,-6.950521E-1,1.0352157E0,2.731989E-1,-9.8647344E-1,1.0735761E0,1.1963259E0],"categories":[],"categories_nodes":[],"categories_segments":[],"categories_sizes":[],"default_left":[1,1,1,1,1,1,1,0,0,0,1,1,0,1,0,1,1,1,1,0,1,1,1,1,1,0,0,0,1,0,1,0,0,0,0,0,0,0,0,0,0,0,0],"id":5,"left_children":[1,3,5,7,9,11,13,-1,-1,-1,15,17,-1,19,-1,21,23,25,27,-1,29,31,33,35,37,-1,-1,-1,39,-1,41,-1,-1,-1,-1,-1,-1,-1,-1,-1,-1,-1,-1],"loss_changes":[3.5244317E0,3.020878E0,3.3083875E0,3.0252428E0,2.7685225E0,3.1922398E0,2.352222E0,0E0,0E0,0E0,2.7233872E0,2.8165593E0,0E0,2.7107143E-1,0E0,3.1279263E0,1.6893721E0,5.4395437E-2,1.1648983E0,0E0,1.9939327E-1,2.2398603E0,4.702485E0,6.316743E-1,1.8119694E0,0E0,0E0,0E0,1.0589662E0,0E0,1.52544975E-2,0E0,0E0,0E0,0E0,0E0,0E0,0E0,0E0,0E0,0E0,0E0,0E0],"parents":[2147483647,0,0,1,1,2,2,3,3,4,4,5,5,6,6,10,10,11,11,13,13,15,15,16,16,17,17,18,18,20,20,21,21,22,22,23,23,24,24,28,28,30,30],"right_children":[2,4,6,8,10,12,14,-1,-1,-1,16,18,-1,20,-1,22,24,26,28,-1,30,32,34,36,38,-1,-1,-1,40,-1,42,-1,-1,-1,-1,-1,-1,-1,-1,-1,-1,-1,-1],"split_conditions":[7.005775E-1,9.149072E-3,1.8896887E-1,1.3307507E-1,2.2372011E-2,1.4806369E-1,7.572397E-1,-2.248491E0,-1.4609593E-1,-1.5481528E0,8.4731257E-1,4.9860053E-2,-1.4437516E0,1.4051464E-1,-4.547777E-1,7.6824963E-1,6.029763E-1,1.2542239E-1,7.556208E-1,1.4544996E0,4.7240847E-1,1.1297923E-1,7.861374E-1,8.745692E-1,4.2336148E-1,1.0480633E0,1.363387E0,5.544738E-1,2.0103872E-1,6.297706E-1,5.784651E-1,-2.544542E-1,1.9469424E-1,-2.0395365E0,2.2544986E-1,1.7086114E0,8.156858E-1,-6.639777E-1,9.889333E-1,2.6098472E-1,-9.423702E-1,1.0255786E0,1.1428405E0],"split_indices":[44,61,12,84,38,8,35,0,0,0,42,103,0,88,0,42,91,66,44,0,23,46,42,42,19,0,0,0,79,0,75,0,0,0,0,0,0,0,0,0,0,0,0],"split_type":[0,0,0,0,0,0,0,0,0,0,0,0,0,0,0,0,0,0,0,0,0,0,0,0,0,0,0,0,0,0,0,0,0,0,0,0,0,0,0,0,0,0,0],"sum_hessian":[7.252398E1,5.6415607E1,1.6108376E1,2.5440962E0,5.387151E1,7.4666724E0,8.641704E0,1.1019108E0,1.4421855E0,1.0228093E0,5.28487E1,6.2913136E0,1.1753583E0,7.56969E0,1.0720129E0,4.706938E1,5.7793193E0,2.005817E0,4.285497E0,1.298663E0,6.2710276E0,4.372241E1,3.3469718E0,3.3188338E0,2.4604852E0,1.003684E0,1.0021329E0,1.3858852E0,2.8996117E0,1.2299976E0,5.04103E0,1.5953627E1,2.7768784E1,1.7035961E0,1.6433756E0,1.0649984E0,2.2538354E0,1.3862367E0,1.0742487E0,1.0411404E0,1.8584714E0,3.606292E0,1.4347379E0],"tree_param":{"num_deleted":"0","num_feature":"200","num_nodes":"43","size_leaf_vector":"0"}},{"base_weights":[6.7455545E-2,5.6099534E-1,-1.2048701E-2,1.5852501E0,1.0209368E-1,-1.0616226E0,5.468766E-2,1.199178E0,1.8726413E0,1.1625938E0,-2.7170727E-1,-1.10275514E-1,-3.0112338E0,3.5585147E-1,-1.3821025E-1,1.8785894E-1,-1.1924961E0,8.013697E-1,-9.789916E-1,6.0954577E-1,-2.413506E-1,-3.415949E-1,1.657354E-1,5.894139E-1,-3.0841404E-1,2.733923E-1,1.1470256E0,7.9470325E-1,-5.958128E-1,-2.4317467E-1,-1.2414013E0,-9.1192305E-1,3.5127252E-1,7.3057765E-1,-6.903567E-2,4.037263E-1,1.3753052E0,-1.2372547E0,-9.952401E-2,2.4891645E-1,-4.6020558E-1,5.5470645E-1,-7.850227E-1],"categories":[],"categories_nodes":[],"categories_segments":[],"categories_sizes":[],"default_left":[1,1,1,1,1,1,1,0,0,0,1,1,0,1,1,1,0,0,0,1,1,1,1,0,0,1,1,0,1,1,0,0,1,0,0,0,0,0,0,0,0,0,0],"id":6,"left_children":[1,3,5,7,9,11,13,-1,-1,-1,15,17,-1,19,21,23,-1,-1,-1,25,27,29,31,-1,-1,33,35,-1,37,39,-1,-1,41,-1,-1,-1,-1,-1,-1,-1,-1,-1,-1],"loss_changes":[2.4993167E0,4.1535654E0,3.842545E0,3.030796E-1,2.419369E0,6.082573E0,2.996355E0,0E0,0E0,0E0,1.9095438E0,1.7455906E0,0E0,3.051037E0,1.9435544E0,5.9985197E-1,0E0,0E0,0E0,2.5534968E0,2.2048798E0,1.6679583E0,2.5200121E0,0E0,0E0,1.3613772E0,9.2259216E-1,0E0,1.4239753E0,1.8133544E0,0E0,0E0,2.48556E0,0E0,0E0,0E0,0E0,0E0,0E0,0E0,0E0,0E0,0E0],"parents":[2147483647,0,0,1,1,2,2,3,3,4,4,5,5,6,6,10,10,11,11,13,13,14,14,15,15,19,19,20,20,21,21,22,22,25,25,26,26,28,28,29,29,32,32],"right_children":[2,4,6,8,10,12,14,-1,-1,-1,16,18,-1,20,22,24,-1,-1,-1,26,28,30,32,-1,-1,34,36,-1,38,40,-1,-1,42,-1,-1,-1,-1,-1,-1,-1,-1,-1,-1],"split_conditions":[9.925838E-2,1.3556722E-1,1.4847276E-1,4.9665865E-1,1.1952988E-1,9.0299594E-1,3.6249325E-1,1.1455652E0,1.7889192E0,1.1106166E0,6.8297404E-1,6.351535E-1,-2.8766074E0,4.9962357E-1,9.8623234E-1,6.177937E-1,-1.139182E0,7.655421E-1,-9.3522286E-1,6.0448456E-1,4.9408418E-1,9.388049E-1,1.516349E-1,5.6306237E-1,-2.9462546E-1,8.475226E-2,1.0125673E-1,7.5917363E-1,3.7286097E-1,2.4637228E-1,-1.1859007E0,-8.7115276E-1,9.472139E-1,6.9791496E-1,-6.5949224E-2,3.856765E-1,1.313818E0,-1.1819395E0,-9.507449E-2,2.3778789E-1,-4.3963072E-1,5.2990663E-1,-7.4992585E-1],"split_indices":[28,82,28,67,2,112,103,0,0,0,22,39,0,115,68,91,0,0,0,29,27,28,41,0,0,61,41,0,21,13,0,0,15,0,0,0,0,0,0,0,0,0,0],"split_type":[0,0,0,0,0,0,0,0,0,0,0,0,0,0,0,0,0,0,0,0,0,0,0,0,0,0,0,0,0,0,0,0,0,0,0,0,0,0,0,0,0,0,0],"sum_hessian":[6.369418E1,8.837109E0,5.4857067E1,2.7342153E0,6.1028934E0,3.2796044E0,5.1577465E1,1.16693E0,1.5672853E0,1.5905743E0,4.512319E0,2.2041159E0,1.0754883E0,2.0137726E1,3.1439737E1,3.009949E0,1.5023704E0,1.0754312E0,1.1286848E0,1.4133786E1,6.003941E0,1.8835985E1,1.2603752E1,1.6638503E0,1.3460985E0,8.695547E0,5.4382386E0,1.530421E0,4.47352E0,1.6978945E1,1.8570404E0,1.8511535E0,1.0752599E1,3.723917E0,4.97163E0,1.277852E0,4.1603866E0,1.9513078E0,2.522212E0,5.196371E0,1.1782575E1,9.119919E0,1.6326798E0],"tree_param":{"num_deleted":"0","num_feature":"200","num_nodes":"43","size_leaf_vector":"0"}},{"base_weights":[1.0063055E-1,-1.471117E-2,3.9054608E-1,-2.1583904E-1,2.0142001E-1,7.231459E-1,-3.243517E-2,-9.97154E-2,-9.439709E-1,2.7672747E-1,-8.053327E-1,-5.913774E-1,9.415461E-1,-2.5628132E-1,1.1085916E0,-3.4441492E-1,3.086796E-1,-5.272377E-1,-1.5976804E0,1.1261893E-1,8.6256313E-1,1.1597232E0,3.8454828E-1,8.55377E-1,-5.158445E-1,4.3082374E-1,-6.539218E-1,8.634441E-1,-2.3031384E-1,-3.231887E-2,7.999323E-1,5.3154886E-1,1.3629518E0,1.2889985E0,7.034634E-1,-9.8085634E-2,8.258594E-1,-1.0441092E0,1.2649529E-1,-3.984116E-1,8.77997E-1,1.9643128E-1,-9.3413115E-1,1.2531778E0,3.6985037E-1,3.8694438E-1,-8.682956E-1,8.2782455E-2,-6.5790176E-1,1.0397729E0,5.0005704E-1,1.1620982E0,-2.3366497E-1,1.1680495E0,1.5272377E0,-1.2817857E0,-7.3371434E-1,7.84939E-1,-6.309047E-1],"categories":[],"categories_nodes":[],"categories_segments":[],"categories_sizes":[],"default_left":[1,1,1,1,1,1,1,1,1,1,0,0,1,1,0,1,1,0,0,1,1,1,1,0,1,1,1,1,1,1,1,1,0,1,0,0,0,1,1,0,0,0,0,0,0,0,0,0,0,0,0,0,0,0,0,0,0,0,0],"id":7,"left_children":[1,3,5,7,9,11,13,15,17,19,-1,-1,21,23,-1,25,27,-1,-1,29,31,33,35,-1,37,39,41,43,45,47,49,51,-1,53,-1,-1,-1,55,57,-1,-1,-1,-1,-1,-1,-1,-1,-1,-1,-1,-1,-1,-1,-1,-1,-1,-1,-1,-1],"loss_changes":[1.8805016E0,1.7487824E0,2.251777E0,1.761848E0,1.470121E0,2.5724244E0,1.799404E0,1.7960372E0,7.805891E-1,1.7344607E0,0E0,0E0,9.336014E-1,1.6994865E0,0E0,2.6966221E0,2.0135098E0,0E0,0E0,1.4040754E0,6.537378E-1,3.2545185E-1,4.6071136E-1,0E0,1.6203966E0,1.1890819E0,1.9139085E0,6.381972E-1,1.3449775E0,8.3814865E-1,1.7639339E-1,1.1466238E0,0E0,1.2370062E-1,0E0,0E0,0E0,1.931169E-1,1.0746237E0,0E0,0E0,0E0,0E0,0E0,0E0,0E0,0E0,0E0,0E0,0E0,0E0,0E0,0E0,0E0,0E0,0E0,0E0,0E0,0E0],"parents":[2147483647,0,0,1,1,2,2,3,3,4,4,5,5,6,6,7,7,8,8,9,9,12,12,13,13,15,15,16,16,19,19,20,20,21,21,22,22,24,24,25,25,26,26,27,27,28,28,29,29,30,30,31,31,33,33,37,37,38,38],"right_children":[2,4,6,8,10,12,14,16,18,20,-1,-1,22,24,-1,26,28,-1,-1,30,32,34,36,-1,38,40,42,44,46,48,50,52,-1,54,-1,-1,-1,56,58,-1,-1,-1,-1,-1,-1,-1,-1,-1,-1,-1,-1,-1,-1,-1,-1,-1,-1,-1,-1],"split_conditions":[5.685611E-1,4.0260556E-1,5.3769314E-1,5.737798E-1,9.505396E-1,1.9590084E-2,8.370324E-1,7.04662E-1,8.507929E-1,7.650082E-1,-7.693279E-1,-5.6493807E-1,6.388259E-1,1.1688439E-1,1.0590286E0,2.551986E-1,4.064607E-1,-5.03666E-1,-1.5262513E0,9.081421E-1,8.4732014E-1,2.203906E-2,3.8084245E-1,8.171348E-1,6.4287406E-1,6.346892E-3,1.852209E-1,2.3067164E-1,4.1081497E-1,8.042048E-1,5.462986E-1,7.775764E-1,1.3020169E0,6.157745E-1,6.720129E-1,-9.3700424E-2,7.889369E-1,2.6850465E-1,7.799341E-1,-3.805994E-1,8.387435E-1,1.8764922E-1,-8.92368E-1,1.1971507E0,3.533151E-1,3.6964488E-1,-8.294758E-1,7.9081416E-2,-6.284883E-1,9.9328667E-1,4.7770047E-1,1.1101431E0,-2.2321828E-1,1.1158283E0,1.4589579E0,-1.2244797E0,-7.009114E-1,7.498459E-1,-6.026982E-1],"split_indices":[76,78,39,84,81,103,23,67,43,96,0,0,73,2,0,36,10,0,0,30,11,113,87,0,96,11,98,79,21,103,36,95,0,66,0,0,0,78,96,0,0,0,0,0,0,0,0,0,0,0,0,0,0,0,0,0,0,0,0],"split_type":[0,0,0,0,0,0,0,0,0,0,0,0,0,0,0,0,0,0,0,0,0,0,0,0,0,0,0,0,0,0,0,0,0,0,0,0,0,0,0,0,0,0,0,0,0,0,0,0,0,0,0,0,0,0,0,0,0,0,0],"sum_hessian":[5.6235115E1,4.0229603E1,1.6005512E1,2.0838293E1,1.939131E1,8.960158E0,7.045353E0,1.7972189E1,2.8661034E0,1.8041832E1,1.3494769E0,1.2765186E0,7.68364E0,5.8899484E0,1.1554043E0,1.1238568E1,6.733621E0,1.7503918E0,1.1157116E0,1.4093907E1,3.9479253E0,5.5209165E0,2.1627235E0,1.1148592E0,4.7750893E0,3.206576E0,8.031992E0,3.318351E0,3.4152703E0,1.16393175E1,2.4545894E0,2.3762147E0,1.5717106E0,4.3018374E0,1.2190788E0,1.0328959E0,1.1298276E0,2.6202915E0,2.154798E0,1.1233081E0,2.0832682E0,1.9906414E0,6.0413504E0,1.8541508E0,1.4642001E0,1.735752E0,1.6795183E0,9.830456E0,1.8088624E0,1.3636355E0,1.0909538E0,1.3028051E0,1.0734096E0,2.8535488E0,1.4482888E0,1.4838032E0,1.1364883E0,1.1527677E0,1.0020303E0],"tree_param":{"num_deleted":"0","num_feature":"200","num_nodes":"59","size_leaf_vector":"0"}},{"base_weights":[6.984499E-2,-7.070074E-2,2.875709E-1,3.8090724E-2,-4.3964615E-1,-4.5807898E-1,3.6498952E-1,1.5001133E-1,-5.0006247E-1,-7.55597E-1,7.781322E-2,8.476399E-1,2.3888516E-1,6.079852E-2,1.0680592E0,-7.6123744E-1,2.0635991E-1,-1.8284698E0,-3.656149E-1,7.178513E-1,-3.787964E-1,4.6244285E-1,1.089733E0,1.3048208E-1,9.789715E-1,1.7864999E-1,-5.3823036E-1,-4.7197244E-1,-9.751085E-1,-6.1252534E-1,4.482038E-2,1.1431068E0,1.0326271E0,-1.1348293E-1,6.124303E-1,4.299919E-1,-2.3493631E-1,9.992502E-2,-1.1122954E0,1.4312455E-1,-7.059678E-1,9.480877E-1,2.3873838E-2],"categories":[],"categories_nodes":[],"categories_segments":[],"categories_sizes":[],"default_left":[1,1,1,1,1,0,1,1,1,1,1,1,1,1,0,1,0,0,1,0,0,0,1,1,0,1,1,0,0,0,0,0,0,1,1,0,0,0,0,0,0,0,0],"id":8,"left_children":[1,3,5,7,9,-1,11,13,15,17,19,21,23,25,-1,27,-1,-1,29,-1,-1,-1,31,33,-1,35,37,-1,-1,-1,-1,-1,-1,39,41,-1,-1,-1,-1,-1,-1,-1,-1],"loss_changes":[1.4183873E0,1.1306442E0,1.0496608E0,1.310173E0,1.0488086E0,0E0,1.0025189E0,1.4747946E0,6.9100845E-1,1.6662583E0,7.1069735E-1,3.1805778E-1,1.0477319E0,1.1586877E0,0E0,1.690185E-1,0E0,0E0,2.960899E-1,0E0,0E0,0E0,6.179571E-3,1.339533E0,0E0,1.4257337E0,9.8853755E-1,0E0,0E0,0E0,0E0,0E0,0E0,1.1499659E0,7.563089E-1,0E0,0E0,0E0,0E0,0E0,0E0,0E0,0E0],"parents":[2147483647,0,0,1,1,2,2,3,3,4,4,6,6,7,7,8,8,9,9,10,10,11,11,12,12,13,13,15,15,18,18,22,22,23,23,25,25,26,26,33,33,34,34],"right_children":[2,4,6,8,10,-1,12,14,16,18,20,22,24,26,-1,28,-1,-1,30,-1,-1,-1,32,34,-1,36,38,-1,-1,-1,-1,-1,-1,40,42,-1,-1,-1,-1,-1,-1,-1,-1],"split_conditions":[4.8793843E-1,6.8595195E-1,1.0631022E-1,8.7591445E-1,3.549032E-1,-4.3759918E-1,1.4229956E-1,9.5550156E-1,8.4198105E-1,3.203072E-1,9.4792676E-1,3.7815377E-2,7.5893235E-1,8.4782416E-1,1.0203084E0,7.619372E-2,1.9713397E-1,-1.7467225E0,6.736685E-1,6.857576E-1,-3.6186117E-1,4.4176793E-1,5.683035E-1,7.789763E-1,9.352036E-1,8.938937E-1,1.3871521E-1,-4.508715E-1,-9.3151337E-1,-5.851405E-1,4.281655E-2,1.0920008E0,9.864604E-1,7.326765E-1,6.3397706E-1,4.1076782E-1,-2.2443278E-1,9.545757E-2,-1.0625669E0,1.3672574E-1,-6.744054E-1,9.0570056E-1,2.2806486E-2],"split_indices":[92,19,29,49,93,0,34,30,9,46,97,3,36,67,0,38,0,0,81,0,0,0,42,17,0,30,129,0,0,0,0,0,0,26,79,0,0,0,0,0,0,0,0],"split_type":[0,0,0,0,0,0,0,0,0,0,0,0,0,0,0,0,0,0,0,0,0,0,0,0,0,0,0,0,0,0,0,0,0,0,0,0,0,0,0,0,0,0,0],"sum_hessian":[4.6351177E1,2.816789E1,1.8183285E1,2.1753227E1,6.4146633E0,1.7102221E0,1.6473063E1,1.8008207E1,3.7450204E0,3.9829397E0,2.4317236E0,3.4122605E0,1.3060802E1,1.6413319E1,1.594888E0,2.7342582E0,1.0107622E0,1.0617459E0,2.9211938E0,1.0125798E0,1.4191437E0,1.3170614E0,2.0951993E0,1.1392265E1,1.6685371E0,1.3715185E1,2.6981335E0,1.1624562E0,1.5718021E0,1.8240873E0,1.0971067E0,1.082128E0,1.0130712E0,7.5634203E0,3.8288448E0,8.531008E0,5.184178E0,1.277663E0,1.4204705E0,5.2775383E0,2.2858822E0,2.4381764E0,1.3906684E0],"tree_param":{"num_deleted":"0","num_feature":"200","num_nodes":"43","size_leaf_vector":"0"}},{"base_weights":[3.1543925E-2,9.886363E-2,-4.003449E-1,1.4239697E-1,-4.8967338E-1,-9.8844784E-1,-1.214912E-1,7.3394275E-1,1.0495997E-1,-1.1406602E0,1.4942026E-1,5.645827E-1,-4.3256256E-1,2.0611562E-1,-2.2741961E-1,-9.3439376E-1,-4.5888703E-2,1.1025294E0,1.5600339E-1,-4.3491337E-2,-8.8911736E-1,2.1697809E-1,-3.414277E-1,-1.9893065E-1,6.0404176E-1],"categories":[],"categories_nodes":[],"categories_segments":[],"categories_sizes":[],"default_left":[1,1,1,1,1,0,1,0,1,0,0,0,1,1,1,0,0,0,1,1,0,0,0,0,0],"id":9,"left_children":[1,3,5,7,9,-1,11,-1,13,-1,-1,-1,15,17,19,-1,-1,-1,21,23,-1,-1,-1,-1,-1],"loss_changes":[1.1410112E0,8.698778E-1,8.677771E-1,7.000505E-1,9.729405E-1,0E0,7.661683E-1,0E0,9.996888E-1,0E0,0E0,0E0,4.7923416E-1,1.0238987E0,8.4422046E-1,0E0,0E0,0E0,6.5479916E-1,5.4635614E-1,0E0,0E0,0E0,0E0,0E0],"parents":[2147483647,0,0,1,1,2,2,3,3,4,4,6,6,8,8,12,12,13,13,14,14,18,18,19,19],"right_children":[2,4,6,8,10,-1,12,-1,14,-1,-1,-1,16,18,20,-1,-1,-1,22,24,-1,-1,-1,-1,-1],"split_conditions":[5.784651E-1,9.672824E-1,1.6019572E-1,1.1801011E-1,9.161069E-1,-9.442563E-1,6.2366885E-1,7.011296E-1,9.0387434E-1,-1.0896635E0,1.4273998E-1,5.3934133E-1,1.4797826E-1,3.6380257E-2,2.4947998E-1,-8.926189E-1,-4.383711E-2,1.0532376E0,7.3330474E-1,7.042223E-1,-8.4936666E-1,2.0727743E-1,-3.2616317E-1,-1.9003686E-1,5.7703626E-1],"split_indices":[187,17,18,39,14,0,73,0,0,0,0,0,76,12,99,0,0,0,90,29,0,0,0,0,0],"split_type":[0,0,0,0,0,0,0,0,0,0,0,0,0,0,0,0,0,0,0,0,0,0,0,0,0],"sum_hessian":[3.9245205E1,3.3953064E1,5.292138E0,3.1614725E1,2.3383398E0,1.7020891E0,3.590049E0,1.8815546E0,2.9733171E1,1.158465E0,1.1798748E0,1.1198634E0,2.4701858E0,2.2795826E1,6.9373446E0,1.074908E0,1.3952776E0,1.2067865E0,2.158904E1,5.4285464E0,1.508798E0,1.9231812E1,2.357229E0,4.377807E0,1.0507392E0],"tree_param":{"num_deleted":"0","num_feature":"200","num_nodes":"25","size_leaf_vector":"0"}},{"base_weights":[7.8032985E-3,-5.779452E-1,4.443984E-2,-2.5044546E-1,-8.942154E-1,-3.3579074E-2,3.3399495E-1,3.3289105E-2,-5.8711493E-1,-4.8609444E-1,4.7748557E-1,-5.1516216E-2,5.146679E-1,2.08318E-2,-1.00279E0,8.941022E-1,2.6774696E-1,1.8889043E-1,-2.418647E-1,8.1162685E-1,-9.642032E-2,1.1244426E0,6.687338E-1,7.9596454E-1,-1.412928E-1,6.1673975E-1,-6.6570514E-3,-3.9767024E-1,2.533107E-1,5.802016E-1,1.097828E0,-5.2750653E-1,3.095503E-1],"categories":[],"categories_nodes":[],"categories_segments":[],"categories_sizes":[],"default_left":[1,1,1,0,0,1,1,1,1,0,1,1,1,0,0,1,1,1,1,1,0,0,0,0,1,0,0,0,0,0,0,0,0],"id":10,"left_children":[1,3,5,-1,-1,7,9,11,13,-1,15,17,19,-1,-1,21,23,25,27,29,-1,-1,-1,-1,31,-1,-1,-1,-1,-1,-1,-1,-1],"loss_changes":[7.6486105E-1,2.1720082E-1,7.5785685E-1,0E0,0E0,9.781613E-1,8.379049E-1,9.62543E-1,7.1988946E-1,0E0,5.294386E-1,9.1730577E-1,6.409475E-1,0E0,0E0,1.05166316E-1,8.710289E-1,7.411413E-1,8.63156E-1,1.5726554E-1,0E0,0E0,0E0,0E0,3.9557946E-1,0E0,0E0,0E0,0E0,0E0,0E0,0E0,0E0],"parents":[2147483647,0,0,1,1,2,2,5,5,6,6,7,7,8,8,10,10,11,11,12,12,15,15,16,16,17,17,18,18,19,19,24,24],"right_children":[2,4,6,-1,-1,8,10,12,14,-1,16,18,20,-1,-1,22,24,26,28,30,-1,-1,-1,-1,32,-1,-1,-1,-1,-1,-1,-1,-1],"split_conditions":[1.7638266E-1,9.725268E-1,8.6192703E-1,-2.3924853E-1,-8.542368E-1,8.173472E-1,1.0046527E-1,6.400423E-1,5.102508E-1,-4.643621E-1,2.7207887E-1,3.3482146E-1,9.264058E-1,1.990045E-2,-9.579572E-1,2.9971936E-1,3.0620557E-1,3.2358247E-1,4.265622E-1,4.9893105E-1,-9.210955E-2,1.074171E0,6.38836E-1,7.6037854E-1,3.9507437E-1,5.891665E-1,-6.3594277E-3,-3.798912E-1,2.419857E-1,5.54262E-1,1.0487463E0,-5.0392276E-1,2.9571092E-1],"split_indices":[30,103,20,0,0,95,88,96,26,0,0,98,105,0,0,130,18,91,4,116,0,0,0,0,21,0,0,0,0,0,0,0,0],"split_type":[0,0,0,0,0,0,0,0,0,0,0,0,0,0,0,0,0,0,0,0,0,0,0,0,0,0,0,0,0,0,0,0,0],"sum_hessian":[3.564394E1,2.0980194E0,3.3545918E1,1.030859E0,1.0671602E0,2.6425419E1,7.1205006E0,2.3577091E1,2.8483286E0,1.060244E0,6.0602565E0,2.0045452E1,3.5316381E0,1.1565641E0,1.6917644E0,2.0291598E0,4.031097E0,8.857762E0,1.118769E1,2.37679E0,1.1548479E0,1.0033019E0,1.0258578E0,1.7593607E0,2.2717361E0,2.7786605E0,6.079102E0,8.510179E0,2.6775117E0,1.3143364E0,1.0624537E0,1.223682E0,1.048054E0],"tree_param":{"num_deleted":"0","num_feature":"200","num_nodes":"33","size_leaf_vector":"0"}},{"base_weights":[2.271809E-2,1.9454692E-1,-6.433254E-2,5.7419133E-1,-2.2045847E-2,-1.2468915E-1,3.3323207E-1,5.6710523E-2,9.229473E-1,-5.2377504E-1,2.6313892E-1,-2.611891E-1,8.0827875E-3,7.62733E-1,-1.567765E-1,1.1091561E0,6.821081E-1,-8.949986E-1,-7.122552E-2,6.076235E-1,-1.9523793E-1,-4.2216837E-1,-4.7968803E-3,5.784547E-1,-9.5763214E-2,3.081257E-1,1.0201082E0,-5.5918336E-1,4.325832E-2,-3.1113577E-1,3.643816E-1,3.2454822E-2,-8.190005E-1,-9.297459E-1,-2.8586107E-1,4.146802E-1,-1.7869306E-1],"categories":[],"categories_nodes":[],"categories_segments":[],"categories_sizes":[],"default_left":[1,1,1,1,1,1,1,0,1,1,1,1,1,0,0,0,0,0,0,1,0,1,1,0,1,0,0,1,0,0,0,1,0,0,0,0,0],"id":11,"left_children":[1,3,5,7,9,11,13,-1,15,17,19,21,23,-1,-1,-1,-1,-1,-1,25,-1,27,29,-1,31,-1,-1,33,-1,-1,-1,35,-1,-1,-1,-1,-1],"loss_changes":[4.7154084E-1,8.7171876E-1,5.0204915E-1,6.949123E-1,9.6579266E-1,3.2924804E-1,5.8042085E-1,0E0,1.0299587E-1,4.1086787E-1,6.7955494E-1,3.696683E-1,5.4545885E-1,0E0,0E0,0E0,0E0,0E0,0E0,3.0341083E-1,0E0,3.5093713E-1,3.907452E-1,0E0,7.22441E-1,0E0,0E0,4.304489E-1,0E0,0E0,0E0,5.340276E-1,0E0,0E0,0E0,0E0,0E0],"parents":[2147483647,0,0,1,1,2,2,3,3,4,4,5,5,6,6,8,8,9,9,10,10,11,11,12,12,19,19,21,21,22,22,24,24,27,27,31,31],"right_children":[2,4,6,8,10,12,14,-1,16,18,20,22,24,-1,-1,-1,-1,-1,-1,26,-1,28,30,-1,32,-1,-1,34,-1,-1,-1,36,-1,-1,-1,-1,-1],"split_conditions":[3.2145786E-1,5.3858656E-1,9.841224E-1,1.00767545E-1,4.7317386E-1,6.272526E-1,2.9971936E-1,5.417511E-2,2.1296614E-1,2.728806E-1,8.991782E-1,3.76661E-1,7.141185E-1,7.286327E-1,-1.4976734E-1,1.0595679E0,6.516124E-1,-8.54985E-1,-6.804117E-2,4.5428187E-1,-1.8650924E-1,6.728158E-1,6.893325E-1,5.525931E-1,7.8817356E-1,2.9435003E-1,9.745012E-1,7.07999E-1,4.132433E-2,-2.972255E-1,3.4809083E-1,3.153563E-1,-7.823846E-1,-8.881788E-1,-2.730808E-1,3.961407E-1,-1.7070405E-1],"split_indices":[81,42,92,8,26,86,130,0,3,13,42,141,86,0,0,0,0,0,0,67,0,66,0,0,21,0,0,199,0,0,0,23,0,0,0,0,0],"split_type":[0,0,0,0,0,0,0,0,0,0,0,0,0,0,0,0,0,0,0,0,0,0,0,0,0,0,0,0,0,0,0,0,0,0,0,0,0],"sum_hessian":[3.1523903E1,1.0600573E1,2.092333E1,3.8509881E0,6.7495847E0,1.8165724E1,2.7576058E0,1.5505576E0,2.3004305E0,2.4462314E0,4.3033533E0,8.957463E0,9.208261E0,1.4696373E0,1.2879685E0,1.2971348E0,1.0032957E0,1.343751E0,1.1024804E0,2.4570272E0,1.8463261E0,5.5023623E0,3.455101E0,1.4184375E0,7.7898226E0,1.4236039E0,1.0334233E0,4.2511024E0,1.25126E0,1.8883954E0,1.5667057E0,6.616666E0,1.173157E0,1.8044003E0,2.446702E0,2.3546557E0,4.26201E0],"tree_param":{"num_deleted":"0","num_feature":"200","num_nodes":"37","size_leaf_vector":"0"}},{"base_weights":[2.7575163E-2,4.9665853E-1,-8.324653E-3,-1.6623022E-1,6.73335E-2,3.200126E-2,-4.7229567E-1,2.9578367E-1,-5.250533E-2,6.29405E-1,-2.1077003E-1,-6.62766E-1,-1.4416601E-1,8.045875E-2,7.082905E-1,-2.1681874E-1,2.2791946E-1,-7.449718E-1,-5.112871E-3,-3.8043764E-1,-9.5293283E-1,2.6265728E-1,-4.3383518E-1,1.0067338E0,4.0418682E-1,-3.2083187E-2,-7.259468E-1,6.0006684E-1,-3.2527026E-2,-3.7309304E-1,4.4405913E-1,6.6350627E-1,-6.160962E-2,-2.8739926E-1,4.0389076E-1,2.694443E-1,-2.8423023E-1],"categories":[],"categories_nodes":[],"categories_segments":[],"categories_sizes":[],"default_left":[1,0,1,1,1,1,1,1,1,0,1,1,0,1,1,1,1,0,1,0,0,1,0,0,0,1,0,0,1,0,0,0,0,0,0,0,0],"id":12,"left_children":[1,-1,3,5,7,9,11,13,15,-1,17,19,-1,21,23,25,27,-1,29,-1,-1,31,-1,-1,-1,33,-1,-1,35,-1,-1,-1,-1,-1,-1,-1,-1],"loss_changes":[4.691327E-1,0E0,3.0913398E-1,5.0859785E-1,4.789304E-1,7.3782355E-1,2.0586103E-1,5.345699E-1,5.2867943E-1,0E0,3.9730102E-1,1.706546E-1,0E0,3.705797E-1,1.8721128E-1,6.803936E-1,4.109046E-1,0E0,4.316746E-1,0E0,0E0,3.796718E-1,0E0,0E0,0E0,5.909127E-1,0E0,0E0,1.895274E-1,0E0,0E0,0E0,0E0,0E0,0E0,0E0,0E0],"parents":[2147483647,0,0,2,2,3,3,4,4,5,5,6,6,7,7,8,8,10,10,11,11,13,13,14,14,15,15,16,16,18,18,21,21,25,25,28,28],"right_children":[2,-1,4,6,8,10,12,14,16,-1,18,20,-1,22,24,26,28,-1,30,-1,-1,32,-1,-1,-1,34,-1,-1,36,-1,-1,-1,-1,-1,-1,-1,-1],"split_conditions":[4.3453164E-2,4.7445393E-1,2.500962E-1,2.9971936E-1,2.1386006E-1,2.2208568E-1,7.966845E-1,5.501163E-1,5.626244E-1,6.0126555E-1,1.9400565E-1,1.3851745E-1,-1.3772063E-1,5.2426547E-1,1.7126212E-1,7.8671336E-1,6.5283966E-1,-7.1166563E-1,5.306123E-1,-3.6342904E-1,-9.103291E-1,8.475226E-2,-4.1443926E-1,9.617247E-1,3.8611642E-1,7.7170366E-1,-6.9349116E-1,5.73239E-1,2.9315108E-1,-3.564128E-1,4.2420614E-1,6.3384223E-1,-5.8855176E-2,-2.745502E-1,3.858336E-1,2.5739798E-1,-2.7152285E-1],"split_indices":[103,0,41,130,38,87,199,21,5,0,1,46,0,44,46,15,1,0,52,0,0,61,0,0,0,0,0,0,45,0,0,0,0,0,0,0,0],"split_type":[0,0,0,0,0,0,0,0,0,0,0,0,0,0,0,0,0,0,0,0,0,0,0,0,0,0,0,0,0,0,0,0,0,0,0,0,0],"sum_hessian":[2.785547E1,1.9804643E0,2.5875006E1,8.382081E0,1.7492926E1,5.087024E0,3.295057E0,6.019215E0,1.147371E1,1.470025E0,3.6169994E0,2.0846725E0,1.2103847E0,3.9549806E0,2.0642347E0,7.234835E0,4.2388744E0,1.0052819E0,2.6117175E0,1.0567735E0,1.0278988E0,2.920516E0,1.0344645E0,1.0416555E0,1.0225792E0,5.308756E0,1.9260793E0,1.7453456E0,2.4935288E0,1.4357244E0,1.175993E0,1.3061659E0,1.6143502E0,3.3481958E0,1.9605603E0,1.1333992E0,1.3601296E0],"tree_param":{"num_deleted":"0","num_feature":"200","num_nodes":"37","size_leaf_vector":"0"}},{"base_weights":[1.3453055E-2,-1.9686632E-1,9.173124E-2,4.508997E-1,-3.5049292E-1,1.8052392E-2,5.2579784E-1,-1.2773405E-1,-7.7175814E-1,1.6539675E-1,-2.4226013E-1,9.348238E-1,6.434143E-3,-3.5986695E-1,2.1098807E-1,-2.36087E-1,3.1689993E-1,-3.918722E-1,1.6582983E-2,-6.0558385E-1,-9.735041E-2,4.9277443E-2,-5.1371676E-1,9.70408E-1,2.0923097E-1,-6.3700035E-2,-5.9825104E-1,3.2928178E-1,-3.0444998E-1,4.793209E-1,-4.335678E-2,-7.62137E-1,-4.1122186E-1],"categories":[],"categories_nodes":[],"categories_segments":[],"categories_sizes":[],"default_left":[1,1,1,0,1,1,1,1,0,1,1,0,0,1,0,1,1,1,1,0,0,0,0,0,1,0,1,0,0,0,0,0,0],"id":13,"left_children":[1,3,5,-1,7,9,11,13,-1,15,17,-1,-1,19,-1,21,23,25,27,-1,-1,-1,-1,-1,29,-1,31,-1,-1,-1,-1,-1,-1],"loss_changes":[4.053262E-1,6.645082E-1,5.7378614E-1,0E0,5.064327E-1,5.883404E-1,5.5297786E-1,2.7763763E-1,0E0,5.9581494E-1,2.1473426E-1,0E0,0E0,1.3508445E-1,0E0,2.12643E-1,5.002924E-1,2.3790252E-1,2.038353E-1,0E0,0E0,0E0,0E0,0E0,4.1659847E-1,0E0,6.5999806E-2,0E0,0E0,0E0,0E0,0E0,0E0],"parents":[2147483647,0,0,1,1,2,2,4,4,5,5,6,6,7,7,9,9,10,10,13,13,15,15,16,16,17,17,18,18,24,24,26,26],"right_children":[2,4,6,-1,8,10,12,14,-1,16,18,-1,-1,20,-1,22,24,26,28,-1,-1,-1,-1,-1,30,-1,32,-1,-1,-1,-1,-1,-1],"split_conditions":[2.7751145E-1,2.2451119E-1,7.468479E-1,4.3074086E-1,1.7341274E-1,6.992781E-1,5.619005E-1,4.3497533E-1,-7.372544E-1,2.7993643E-1,4.3432322E-1,8.930297E-1,6.1464855E-3,5.734333E-1,2.0155522E-1,1.4399004E-1,1.6389933E-1,7.540111E-2,8.2643753E-1,-5.785094E-1,-9.2998065E-2,4.7074348E-2,-4.907495E-1,9.27023E-1,6.1780477E-1,-6.0852133E-2,3.1021744E-1,3.1456023E-1,-2.9083863E-1,4.5789143E-1,-4.1418385E-2,-7.2806334E-1,-3.9283696E-1],"split_indices":[28,35,87,0,28,90,84,44,0,36,19,0,0,81,0,38,23,38,77,0,0,0,0,0,73,0,18,0,0,0,0,0,0],"split_type":[0,0,0,0,0,0,0,0,0,0,0,0,0,0,0,0,0,0,0,0,0,0,0,0,0,0,0,0,0,0,0,0,0],"sum_hessian":[2.462041E1,6.6776247E0,1.7942785E1,1.2799792E0,5.3976455E0,1.5339298E1,2.6034873E0,3.5308232E0,1.8668222E0,9.795263E0,5.5440354E0,1.4563518E0,1.1471356E0,2.095213E0,1.4356102E0,2.6834605E0,7.1118026E0,3.5135562E0,2.0304792E0,1.0820482E0,1.0131648E0,1.3231282E0,1.3603321E0,1.005844E0,6.1059585E0,1.3566873E0,2.156869E0,1.0287408E0,1.0017384E0,2.9509299E0,3.1550286E0,1.1492876E0,1.0075814E0],"tree_param":{"num_deleted":"0","num_feature":"200","num_nodes":"33","size_leaf_vector":"0"}},{"base_weights":[1.8948963E-2,-1.4150644E-2,3.7111253E-1,3.698284E-2,-3.3088192E-1,-6.308171E-2,1.926654E-1,-7.436028E-2,-7.376908E-1,-1.7584772E-1,1.9602768E-1,4.7196522E-1,-9.192247E-2,-5.548441E-1,-3.577552E-2,-1.00795716E-1,3.788848E-1,6.530317E-1,9.433769E-2,1.546597E-1,-6.258914E-1,-5.3891957E-1,9.4054595E-2,8.775322E-1,3.7356016E-1,4.483577E-1,-1.2887302E-1],"categories":[],"categories_nodes":[],"categories_segments":[],"categories_sizes":[],"default_left":[1,1,0,1,1,1,1,0,0,1,1,1,1,0,1,0,0,1,0,1,0,0,0,0,0,0,0],"id":14,"left_children":[1,3,-1,5,7,9,11,-1,-1,13,15,17,19,-1,21,-1,-1,23,-1,25,-1,-1,-1,-1,-1,-1,-1],"loss_changes":[2.530487E-1,3.2136184E-1,0E0,2.6613176E-1,2.877505E-1,3.0382872E-1,5.313328E-1,0E0,0E0,3.8458723E-1,1.7115623E-1,2.3060232E-1,4.3594152E-1,0E0,3.456347E-1,0E0,0E0,1.4293766E-1,0E0,1.8861288E-1,0E0,0E0,0E0,0E0,0E0,0E0,0E0],"parents":[2147483647,0,0,1,1,3,3,4,4,5,5,6,6,9,9,10,10,11,11,12,12,14,14,17,17,19,19],"right_children":[2,4,-1,6,8,10,12,-1,-1,14,16,18,20,-1,22,-1,-1,24,-1,26,-1,-1,-1,-1,-1,-1,-1],"split_conditions":[7.200775E-1,6.3534975E-1,3.5452083E-1,4.197629E-1,4.8815912E-1,8.448374E-1,6.256562E-1,-7.103578E-2,-7.047101E-1,3.0873114E-1,8.3181866E-2,7.317314E-1,7.5688934E-1,-5.300381E-1,1.1417026E-2,-9.628934E-2,3.619456E-1,5.4972494E-1,9.012004E-2,9.9999994E-1,-5.9790903E-1,-5.148255E-1,8.98496E-2,8.3829945E-1,3.5685903E-1,4.283125E-1,-1.2311137E-1],"split_indices":[22,88,0,78,69,20,79,0,0,45,46,78,29,0,6,0,0,22,0,109,0,0,0,0,0,0,0],"split_type":[0,0,0,0,0,0,0,0,0,0,0,0,0,0,0,0,0,0,0,0,0,0,0,0,0,0,0],"sum_hessian":[2.1705944E1,1.9840847E1,1.8650969E0,1.7082697E1,2.758151E0,1.0398487E1,6.68421E0,1.6916684E0,1.0664827E0,7.2455463E0,3.1529405E0,3.373615E0,3.3105946E0,1.9550496E0,5.290497E0,1.201722E0,1.9512185E0,2.280094E0,1.093521E0,2.2646303E0,1.0459642E0,1.0852904E0,4.2052064E0,1.26421E0,1.0158839E0,1.1125392E0,1.1520913E0],"tree_param":{"num_deleted":"0","num_feature":"200","num_nodes":"27","size_leaf_vector":"0"}},{"base_weights":[1.9466665E-3,2.3359394E-1,-5.2198846E-2,5.42605E-1,3.132078E-2,-5.4378146E-1,-1.3402075E-2,2.531245E-1,-2.2319287E-1,2.385538E-2,-4.432763E-1,-2.9659884E-2,4.4780645E-1,2.7831538E-2,-4.7167733E-1,3.320134E-1,-3.640513E-2],"categories":[],"categories_nodes":[],"categories_segments":[],"categories_sizes":[],"default_left":[1,1,1,0,1,0,1,0,0,1,0,1,0,1,0,0,0],"id":15,"left_children":[1,3,5,-1,7,-1,9,-1,-1,11,-1,13,-1,15,-1,-1,-1],"loss_changes":[2.51793E-1,2.3767641E-1,3.1024826E-1,0E0,1.2978053E-1,0E0,2.4156418E-1,0E0,0E0,3.1488374E-1,0E0,3.1316194E-1,0E0,2.1307388E-1,0E0,0E0,0E0],"parents":[2147483647,0,0,1,1,2,2,4,4,6,6,9,9,11,11,13,13],"right_children":[2,4,6,-1,8,-1,10,-1,-1,12,-1,14,-1,16,-1,-1,-1],"split_conditions":[4.3282896E-2,9.5918405E-1,8.712882E-2,5.183462E-1,1.4621663E-1,-5.194701E-1,9.993744E-1,2.4180782E-1,-2.1321437E-1,9.081421E-1,-4.2345828E-1,8.621308E-1,4.277859E-1,3.1760496E-1,-4.5058957E-1,3.1716973E-1,-3.477753E-2],"split_indices":[7,0,6,0,88,0,85,0,0,30,0,67,0,96,0,0,0],"split_type":[0,0,0,0,0,0,0,0,0,0,0,0,0,0,0,0,0],"sum_hessian":[2.0073553E1,3.8034122E0,1.627014E1,1.504512E0,2.2989001E0,1.189967E0,1.50801735E1,1.228585E0,1.0703151E0,1.3877207E1,1.2029666E0,1.2321626E1,1.5555805E0,1.0903268E1,1.4183587E0,1.9013282E0,9.001939E0],"tree_param":{"num_deleted":"0","num_feature":"200","num_nodes":"17","size_leaf_vector":"0"}},{"base_weights":[2.191219E-3,-5.637616E-2,2.2852506E-1,-9.359339E-2,4.0334606E-1,4.7593346E-1,7.5326025E-2,-5.8112476E-2,-4.6283394E-1,-8.640259E-2,3.053143E-1,1.7808592E-1,-1.3472001E-1,5.013757E-1,-1.8479403E-2,-5.45727E-1,-6.257306E-2,5.2637845E-1,-1.462557E-1],"categories":[],"categories_nodes":[],"categories_segments":[],"categories_sizes":[],"default_left":[1,1,1,1,0,0,1,1,0,0,0,1,1,0,0,0,1,0,0],"id":16,"left_children":[1,3,5,7,-1,-1,9,11,-1,-1,-1,13,15,-1,-1,-1,17,-1,-1],"loss_changes":[2.535792E-1,2.599659E-1,1.4900354E-1,1.8412444E-1,0E0,0E0,9.0366796E-2,2.3207362E-1,0E0,0E0,0E0,1.996357E-1,2.8713128E-1,0E0,0E0,0E0,4.0602335E-1,0E0,0E0],"parents":[2147483647,0,0,1,1,2,2,3,3,6,6,7,7,11,11,12,12,16,16],"right_children":[2,4,6,8,-1,-1,10,12,-1,-1,-1,14,16,-1,-1,-1,18,-1,-1],"split_conditions":[8.066844E-1,8.940294E-1,3.267513E-1,8.908643E-1,3.8531327E-1,4.546554E-1,8.0823016E-1,1.4142933E-1,-4.4214156E-1,-8.25397E-2,2.916643E-1,4.3085688E-1,1.7742866E-1,4.7896016E-1,-1.7653225E-2,-5.213286E-1,2.577161E-1,5.028451E-1,-1.397169E-1],"split_indices":[17,41,23,14,0,0,27,18,0,0,0,42,81,0,0,0,86,0,0],"split_type":[0,0,0,0,0,0,0,0,0,0,0,0,0,0,0,0,0,0,0],"sum_hessian":[1.9128475E1,1.5195885E1,3.9325895E0,1.4058013E1,1.1378726E0,1.5036515E0,2.428938E0,1.2825816E1,1.2321959E0,1.4258571E0,1.0030808E0,3.1407948E0,9.685021E0,1.1877661E0,1.9530287E0,1.446019E0,8.239003E0,1.024876E0,7.2141266E0],"tree_param":{"num_deleted":"0","num_feature":"200","num_nodes":"19","size_leaf_vector":"0"}},{"base_weights":[5.0051175E-3,-3.8587157E-2,2.923569E-1,3.5387164E-3,-4.729764E-1,-2.3523128E-2,5.35291E-1,-4.35681E-2,3.741216E-1,-8.8559E-2,3.749869E-1,-4.7419885E-1,-3.0009096E-2,-1.9430475E-1,1.9518557E-1],"categories":[],"categories_nodes":[],"categories_segments":[],"categories_sizes":[],"default_left":[1,1,1,1,0,0,0,1,0,1,0,0,1,0,0],"id":17,"left_children":[1,3,5,7,-1,-1,-1,9,-1,11,-1,-1,13,-1,-1],"loss_changes":[2.2859715E-1,2.8996646E-1,1.8451576E-1,2.5215793E-1,0E0,0E0,0E0,2.4126908E-1,0E0,2.6119766E-1,0E0,0E0,3.7166148E-1,0E0,0E0],"parents":[2147483647,0,0,1,1,2,2,3,3,7,7,9,9,12,12],"right_children":[2,4,6,8,-1,-1,-1,10,-1,12,-1,-1,14,-1,-1],"split_conditions":[7.1708965E-1,6.39518E-1,3.7950552E-1,6.403115E-1,-4.5183057E-1,-2.2471456E-2,5.113592E-1,7.497971E-1,3.5739538E-1,1.1920039E-1,3.5822198E-1,-4.5299837E-1,2.7974963E-1,-1.8561777E-1,1.8645921E-1],"split_indices":[88,88,199,23,0,0,0,80,0,103,0,0,44,0,0],"split_type":[0,0,0,0,0,0,0,0,0,0,0,0,0,0,0],"sum_hessian":[1.8247427E1,1.5843571E1,2.4038556E0,1.4442736E1,1.4008352E0,1.0448619E0,1.3589936E0,1.2813664E1,1.629071E0,1.1570199E1,1.2434657E0,1.5248868E0,1.0045312E1,5.8082204E0,4.2370915E0],"tree_param":{"num_deleted":"0","num_feature":"200","num_nodes":"15","size_leaf_vector":"0"}},{"base_weights":[3.6288612E-3,2.8845813E-2,-4.0630215E-1,1.3707738E-1,-6.694272E-2,3.2892337E-1,-1.0489675E-2,-2.5320455E-1,6.3808374E-2,5.232922E-1,1.1325838E-2,1.4190483E-1,-4.5251185E-1,-4.751073E-1,4.8245516E-2,-8.0774486E-2,2.9590222E-1,2.1499391E-1,8.132549E-1,3.3490914E-1,-1.3028486E-1,-2.8565663E-1,-6.593571E-1,7.256525E-2,-4.0201557E-1,3.6369765E-1,-2.3868185E-1],"categories":[],"categories_nodes":[],"categories_segments":[],"categories_sizes":[],"default_left":[1,1,0,1,1,1,1,1,1,1,0,1,0,1,0,1,0,0,0,0,0,0,0,1,0,0,0],"id":18,"left_children":[1,3,-1,5,7,9,11,13,15,17,-1,19,-1,21,-1,23,-1,-1,-1,-1,-1,-1,-1,25,-1,-1,-1],"loss_changes":[1.7902434E-1,1.691842E-1,0E0,2.1694264E-1,2.1083328E-1,2.0560607E-1,2.917398E-1,2.3888528E-1,1.7068157E-1,1.8463749E-1,0E0,1.6918367E-1,0E0,7.1706235E-2,0E0,1.543789E-1,0E0,0E0,0E0,0E0,0E0,0E0,0E0,1.921838E-1,0E0,0E0,0E0],"parents":[2147483647,0,0,1,1,3,3,4,4,5,5,6,6,7,7,8,8,9,9,11,11,13,13,15,15,23,23],"right_children":[2,4,-1,6,8,10,12,14,16,18,-1,20,-1,22,-1,24,-1,-1,-1,-1,-1,-1,-1,26,-1,-1,-1],"split_conditions":[8.3895814E-1,5.6446874E-1,-3.881372E-1,6.030647E-1,5.8386624E-1,8.4430355E-1,4.78041E-1,4.3682003E-1,5.643893E-1,1.1920039E-1,1.0819483E-2,7.2284496E-1,-4.3228093E-1,1.9633052E-1,4.6088554E-2,4.8246655E-1,2.8267303E-1,2.0538196E-1,7.768959E-1,3.19936E-1,-1.24460086E-1,-2.728855E-1,-6.298785E-1,4.2280167E-2,-3.8404226E-1,3.4743744E-1,-2.2801086E-1],"split_indices":[46,39,0,58,81,20,44,44,77,103,0,67,0,1,0,79,0,0,0,0,0,0,0,46,0,0,0],"split_type":[0,0,0,0,0,0,0,0,0,0,0,0,0,0,0,0,0,0,0,0,0,0,0,0,0,0,0],"sum_hessian":[1.7321903E1,1.6318312E1,1.0035912E0,7.662001E0,8.656311E0,3.3314977E0,4.3305035E0,3.5705707E0,5.0857406E0,2.066504E0,1.2649938E0,3.2201042E0,1.1103994E0,2.0568223E0,1.5137484E0,3.1333876E0,1.9523529E0,1.0017434E0,1.0647606E0,1.8843194E0,1.3357847E0,1.0143524E0,1.0424699E0,2.1207724E0,1.0126152E0,1.0959523E0,1.0248201E0],"tree_param":{"num_deleted":"0","num_feature":"200","num_nodes":"27","size_leaf_vector":"0"}},{"base_weights":[7.362286E-3,4.4318724E-2,-3.0872005E-1,1.1457401E-1,-1.1840019E-1,-3.518296E-2,2.0988518E-1,-3.637674E-1,9.6362665E-2,-1.8609408E-1,1.0978549E-1,-3.212872E-2,3.2859713E-1,-1.397669E-1,-5.930998E-1,-1.2246207E-1,3.8741043E-1,2.3759522E-1,-2.018627E-2,1.2833016E-1,-1.8599206E-1,6.6956586E-1,1.8145023E-1,6.259204E-2,3.2923058E-1],"categories":[],"categories_nodes":[],"categories_segments":[],"categories_sizes":[],"default_left":[1,1,0,1,1,1,1,1,1,0,1,1,1,0,0,0,0,0,0,0,0,0,1,0,0],"id":19,"left_children":[1,3,-1,5,7,9,11,13,15,-1,17,19,21,-1,-1,-1,-1,-1,-1,-1,-1,-1,23,-1,-1],"loss_changes":[1.9042626E-1,1.6687667E-1,0E0,1.4554843E-1,2.3197106E-1,8.675064E-2,1.7904297E-1,1.0547769E-1,1.495003E-1,0E0,3.360924E-2,5.0624605E-2,2.0967326E-1,0E0,0E0,0E0,0E0,0E0,0E0,0E0,0E0,0E0,5.1262088E-2,0E0,0E0],"parents":[2147483647,0,0,1,1,3,3,4,4,5,5,6,6,7,7,8,8,10,10,11,11,12,12,22,22],"right_children":[2,4,-1,6,8,10,12,14,16,-1,18,20,22,-1,-1,-1,-1,-1,-1,-1,-1,-1,24,-1,-1],"split_conditions":[2.447119E-2,4.1861778E-1,-2.949178E-1,4.7876304E-1,4.0098974E-1,4.6728483E-1,5.1676226E-1,3.76661E-1,9.904583E-2,-1.7777418E-1,3.2078904E-1,6.440747E-1,3.7431926E-1,-1.335182E-1,-5.6658345E-1,-1.16987035E-1,3.7009007E-1,2.269728E-1,-1.928378E-2,1.2259277E-1,-1.7767672E-1,6.396309E-1,4.546591E-1,5.979367E-2,3.1451133E-1],"split_indices":[113,59,0,22,61,21,27,141,199,0,77,0,23,0,0,0,0,0,0,0,0,0,97,0,0],"split_type":[0,0,0,0,0,0,0,0,0,0,0,0,0,0,0,0,0,0,0,0,0,0,0,0,0],"sum_hessian":[1.6303984E1,1.4597536E1,1.7064478E0,1.0195937E1,4.4015994E0,3.9649858E0,6.230951E0,2.0546257E0,2.346974E0,1.942996E0,2.0219898E0,2.050292E0,4.180659E0,1.0396051E0,1.0150205E0,1.3395241E0,1.0074496E0,1.0198426E0,1.0021473E0,1.003333E0,1.046959E0,1.260103E0,2.920556E0,1.6190298E0,1.3015262E0],"tree_param":{"num_deleted":"0","num_feature":"200","num_nodes":"25","size_leaf_vector":"0"}},{"base_weights":[5.2633705E-3,-5.7598624E-2,1.5329358E-1,-1.628554E-2,-3.6529806E-1,-2.0427834E-2,3.4035996E-1,2.3860556E-1,-5.1601667E-2,2.3825905E-1,-2.1437283E-1,5.849979E-1,1.4039361E-1,-1.2636252E-1,1.2096763E-1,-3.2344174E-2,-3.785191E-1,3.7522668E-1,-5.4208066E-2,-3.1076756E-1,5.5998128E-2],"categories":[],"categories_nodes":[],"categories_segments":[],"categories_sizes":[],"default_left":[1,1,1,1,0,1,1,0,1,0,0,0,0,1,1,1,0,0,0,0,0],"id":20,"left_children":[1,3,5,7,-1,9,11,-1,13,-1,-1,-1,-1,15,17,19,-1,-1,-1,-1,-1],"loss_changes":[1.4493592E-1,1.3892595E-1,1.5090948E-1,8.673993E-2,0E0,1.207595E-1,1.09304935E-1,0E0,1.0921523E-1,0E0,0E0,0E0,0E0,1.399974E-1,1.1398347E-1,1.0586056E-1,0E0,0E0,0E0,0E0,0E0],"parents":[2147483647,0,0,1,1,2,2,3,3,5,5,6,6,8,8,13,13,14,14,15,15],"right_children":[2,4,6,8,-1,10,12,-1,14,-1,-1,-1,-1,16,18,20,-1,-1,-1,-1,-1],"split_conditions":[4.8793843E-1,8.514165E-1,5.4146975E-1,2.1363238E-1,-3.489663E-1,3.0484772E-1,9.433731E-1,2.2793798E-1,7.994237E-1,2.2760695E-1,-2.0478864E-1,5.588438E-1,1.3411689E-1,8.938937E-1,6.189736E-1,4.5610833E-1,-3.6159626E-1,3.5845104E-1,-5.178453E-2,-2.9687375E-1,5.349456E-2],"split_indices":[92,67,21,17,0,18,97,0,199,0,0,0,0,30,17,67,0,0,0,0,0],"split_type":[0,0,0,0,0,0,0,0,0,0,0,0,0,0,0,0,0,0,0,0,0],"sum_hessian":[1.5574364E1,1.0931562E1,4.642801E0,9.637851E0,1.2937118E0,2.407002E0,2.2357988E0,1.1725297E0,8.465321E0,1.0311493E0,1.3758527E0,1.0053649E0,1.2304338E0,5.90688E0,2.5584412E0,4.3028927E0,1.6039871E0,1.0438644E0,1.5145767E0,1.0366902E0,3.2662027E0],"tree_param":{"num_deleted":"0","num_feature":"200","num_nodes":"21","size_leaf_vector":"0"}},{"base_weights":[3.4744297E-3,5.287615E-2,-2.9166833E-1,1.0219852E-1,-1.7543633E-1,-6.9971874E-2,-4.891998E-1,3.1250343E-1,3.506908E-2,4.863158E-2,-3.772465E-1,5.411699E-1,1.4504492E-1,-2.3664418E-1,9.589817E-2,9.274027E-3,2.6607892E-1,1.3991238E-1,-2.378451E-1,4.1844255E-1,1.360781E-1],"categories":[],"categories_nodes":[],"categories_segments":[],"categories_sizes":[],"default_left":[1,1,1,1,1,0,0,1,1,0,0,0,0,0,1,1,1,0,0,0,0],"id":21,"left_children":[1,3,5,7,9,-1,-1,11,13,-1,-1,-1,-1,-1,15,17,19,-1,-1,-1,-1],"loss_changes":[2.1706572E-1,1.4361878E-1,9.342249E-2,1.4804515E-1,1.02475025E-1,0E0,0E0,9.710485E-2,1.3140576E-1,0E0,0E0,0E0,0E0,0E0,9.57525E-2,1.3899902E-1,4.334928E-2,0E0,0E0,0E0,0E0],"parents":[2147483647,0,0,1,1,2,2,3,3,4,4,7,7,8,8,14,14,15,15,16,16],"right_children":[2,4,6,8,10,-1,-1,12,14,-1,-1,-1,-1,-1,16,18,20,-1,-1,-1,-1],"split_conditions":[9.2365813E-1,9.7592896E-1,1.5232246E-1,1.7413512E-1,4.6630397E-1,-6.684357E-2,-4.6732864E-1,8.7915206E-1,2.3093762E-1,4.6457358E-2,-3.6038056E-1,5.169752E-1,1.3856025E-1,-2.260643E-1,3.76661E-1,4.9609554E-1,5.3077734E-1,1.3365717E-1,-2.272115E-1,3.9973482E-1,1.2999432E-1],"split_indices":[26,70,88,44,98,0,0,15,44,0,0,0,0,0,141,77,65,0,0,0,0],"split_type":[0,0,0,0,0,0,0,0,0,0,0,0,0,0,0,0,0,0,0,0,0],"sum_hessian":[1.4888893E1,1.2754359E1,2.1345341E0,1.0488864E1,2.2654946E0,1.0059745E0,1.1285596E0,2.5375972E0,7.9512672E0,1.0733235E0,1.1921712E0,1.0725083E0,1.465089E0,1.454171E0,6.497096E0,4.305898E0,2.1911983E0,2.8170578E0,1.4888401E0,1.0084932E0,1.182705E0],"tree_param":{"num_deleted":"0","num_feature":"200","num_nodes":"21","size_leaf_vector":"0"}},{"base_weights":[1.9699815E-3,-2.9377054E-2,4.0494397E-1,1.1192498E-2,-3.5936323E-1,8.536656E-2,-1.1025048E-1,5.2363074E-1,1.6319828E-2,-3.9703274E-1,4.144868E-2,8.129878E-2,-2.0311871E-1,2.0308903E-1,-1.5203099E-1,3.9503786E-1,-2.1220117E-3],"categories":[],"categories_nodes":[],"categories_segments":[],"categories_sizes":[],"default_left":[1,1,0,1,0,1,1,0,1,0,1,1,0,0,0,0,0],"id":22,"left_children":[1,3,-1,5,-1,7,9,-1,11,-1,13,15,-1,-1,-1,-1,-1],"loss_changes":[1.8149605E-1,1.784612E-1,0E0,1.069092E-1,0E0,2.2293273E-1,1.9579837E-1,0E0,9.076103E-2,0E0,9.203986E-2,1.2859502E-1,0E0,0E0,0E0,0E0,0E0],"parents":[2147483647,0,0,1,1,3,3,5,5,6,6,8,8,10,10,11,11],"right_children":[2,4,-1,6,-1,8,10,-1,12,-1,14,16,-1,-1,-1,-1,-1],"split_conditions":[7.9045784E-1,8.1893945E-1,3.8683972E-1,6.313256E-1,-3.4329683E-1,4.0975608E-2,1.65896E-1,5.0022024E-1,7.5829816E-1,-3.792822E-1,4.9976456E-1,4.6059078E-1,-1.9403768E-1,1.9400932E-1,-1.4523399E-1,3.773765E-1,-2.0271407E-3],"split_indices":[36,95,0,73,0,35,72,0,21,0,144,19,0,0,0,0,0],"split_type":[0,0,0,0,0,0,0,0,0,0,0,0,0,0,0,0,0],"sum_hessian":[1.4365089E1,1.33280735E1,1.0370162E0,1.186862E1,1.4594536E0,7.3687625E0,4.4998574E0,1.0027262E0,6.3660364E0,1.5570091E0,2.9428484E0,4.9119644E0,1.4540718E0,1.6036165E0,1.3392321E0,1.0319645E0,3.8799999E0],"tree_param":{"num_deleted":"0","num_feature":"200","num_nodes":"17","size_leaf_vector":"0"}},{"base_weights":[1.9279744E-3,-2.9310131E-2,3.1086475E-1,-6.959571E-2,1.7300071E-1,-1.21046305E-2,-2.7163792E-1,3.8433096E-1,-2.4300998E-2,2.672926E-1,-6.863306E-2,-1.0155524E-1,-4.390625E-1,-3.6444443E-1,1.0055894E-3,6.9114E-2,-2.4445169E-1],"categories":[],"categories_nodes":[],"categories_segments":[],"categories_sizes":[],"default_left":[1,1,0,1,1,1,1,0,0,0,1,0,0,0,1,0,0],"id":23,"left_children":[1,3,-1,5,7,9,11,-1,-1,-1,13,-1,-1,-1,15,-1,-1],"loss_changes":[1.3322635E-1,1.0214884E-1,0E0,1.2139578E-1,8.680676E-2,1.2851423E-1,6.587753E-2,0E0,0E0,0E0,1.3947478E-1,0E0,0E0,0E0,9.157713E-2,0E0,0E0],"parents":[2147483647,0,0,1,1,3,3,4,4,5,5,6,6,10,10,14,14],"right_children":[2,4,-1,6,8,10,12,-1,-1,-1,14,-1,-1,-1,16,-1,-1],"split_conditions":[9.9996525E-1,8.157473E-1,2.969666E-1,9.273917E-1,4.4309026E-1,2.2766495E-1,8.475226E-2,3.6714828E-1,-2.3214549E-2,2.5534245E-1,3.8662285E-1,-9.701491E-2,-4.194329E-1,-3.4815085E-1,6.576226E-1,6.602405E-2,-2.3352274E-1],"split_indices":[169,28,0,0,78,11,61,0,0,0,77,0,0,0,36,0,0],"split_type":[0,0,0,0,0,0,0,0,0,0,0,0,0,0,0,0,0],"sum_hessian":[1.3802212E1,1.2534482E1,1.2677299E0,1.0453396E1,2.0810857E0,8.138155E0,2.3152409E0,1.0050528E0,1.0760329E0,1.3691784E0,6.7689767E0,1.1487848E0,1.1664561E0,1.290128E0,5.478849E0,4.2891116E0,1.1897371E0],"tree_param":{"num_deleted":"0","num_feature":"200","num_nodes":"17","size_leaf_vector":"0"}},{"base_weights":[-5.116184E-4,2.844221E-1,-4.3072738E-2,-2.752266E-1,-1.4750062E-2,-1.8104845E-1,3.9729632E-2,-4.521048E-2,-3.5304263E-1,2.1178542E-1,-3.0271754E-2,3.729652E-1,1.1590279E-2,-2.2820331E-1,6.460534E-2,-2.7496243E-2,2.4011083E-1],"categories":[],"categories_nodes":[],"categories_segments":[],"categories_sizes":[],"default_left":[1,0,1,0,1,1,1,0,0,1,1,0,0,0,1,0,0],"id":24,"left_children":[1,-1,3,-1,5,7,9,-1,-1,11,13,-1,-1,-1,15,-1,-1],"loss_changes":[1.6241045E-1,0E0,7.659893E-2,0E0,9.4118655E-2,5.9855394E-2,9.4244204E-2,0E0,0E0,7.298105E-2,1.0443859E-1,0E0,0E0,0E0,6.0773715E-2,0E0,0E0],"parents":[2147483647,0,0,2,2,4,4,5,5,6,6,9,9,10,10,14,14],"right_children":[2,-1,4,-1,6,8,10,-1,-1,12,14,-1,-1,-1,16,-1,-1],"split_conditions":[1.512874E-1,2.7170616E-1,2.056959E-1,-2.6292175E-1,1.4312771E-1,2.3908055E-1,2.1995854E-1,-4.318921E-2,-3.372588E-1,3.3060342E-1,2.7461487E-1,3.5629067E-1,1.10721E-2,-2.180008E-1,4.7348922E-1,-2.626694E-2,2.2937596E-1],"split_indices":[0,0,17,0,42,82,79,0,0,13,78,0,0,0,98,0,0],"split_type":[0,0,0,0,0,0,0,0,0,0,0,0,0,0,0,0,0],"sum_hessian":[1.3394249E1,1.7404221E0,1.1653827E1,1.2668035E0,1.0387023E1,2.563555E0,7.8234677E0,1.4326364E0,1.1309186E0,2.2628891E0,5.560579E0,1.2533367E0,1.0095524E0,1.8020865E0,3.7584925E0,2.464588E0,1.2939047E0],"tree_param":{"num_deleted":"0","num_feature":"200","num_nodes":"17","size_leaf_vector":"0"}},{"base_weights":[8.4026967E-4,2.3618057E-1,-3.6844548E-2,2.7074497E-3,-2.7061614E-1,-1.9215569E-1,5.473397E-2,-6.30183E-2,-3.2018292E-1,3.982381E-1,-1.4349127E-3,-1.0501165E-1,1.3788395E-1,-2.8488812E-1,-2.7647331E-2,-2.6512988E-2,4.2012984E-1],"categories":[],"categories_nodes":[],"categories_segments":[],"categories_sizes":[],"default_left":[1,0,1,1,0,1,1,0,0,0,1,1,1,0,0,0,0],"id":25,"left_children":[1,-1,3,5,-1,7,9,-1,-1,-1,11,13,15,-1,-1,-1,-1],"loss_changes":[1.15744956E-1,0E0,1.0401956E-1,9.7508825E-2,0E0,3.347107E-2,1.4653312E-1,0E0,0E0,0E0,9.4159774E-2,5.206081E-2,1.2913273E-1,0E0,0E0,0E0,0E0],"parents":[2147483647,0,0,2,2,3,3,5,5,6,6,10,10,11,11,12,12],"right_children":[2,-1,4,6,-1,8,10,-1,-1,-1,12,14,16,-1,-1,-1,-1],"split_conditions":[1.1797397E-1,2.256214E-1,8.869701E-1,1.03511095E-1,-2.5851744E-1,1.16117984E-1,1.82847E-1,-6.0200877E-2,-3.0586818E-1,3.8043365E-1,5.478167E-1,4.930644E-1,2.7490556E-1,-2.7215135E-1,-2.6411274E-2,-2.5327645E-2,4.0134665E-1],"split_indices":[18,0,58,1,0,2,1,0,0,0,29,42,41,0,0,0,0],"split_type":[0,0,0,0,0,0,0,0,0,0,0,0,0,0,0,0,0],"sum_hessian":[1.3048733E1,1.8014241E0,1.1247309E1,9.6193905E0,1.6279182E0,2.0266886E0,7.592702E0,1.0093391E0,1.0173496E0,1.0672938E0,6.5254083E0,3.7432024E0,2.7822058E0,1.1253866E0,2.6178157E0,1.7579399E0,1.024266E0],"tree_param":{"num_deleted":"0","num_feature":"200","num_nodes":"17","size_leaf_vector":"0"}},{"base_weights":[2.8652453E-3,-2.6026088E-1,3.3937454E-2,-2.3651702E-2,2.2677128E-1,-8.996896E-2,1.6907291E-1,3.4977204E-1,4.68731E-2,-1.7503113E-2,-3.9849862E-1,3.4243792E-1,-3.4436665E-2,-1.7540655E-1,7.8549325E-2,-2.6027644E-2,2.0511684E-1],"categories":[],"categories_nodes":[],"categories_segments":[],"categories_sizes":[],"default_left":[1,0,1,1,1,1,1,0,0,1,0,0,0,0,1,0,0],"id":26,"left_children":[1,-1,3,5,7,9,11,-1,-1,13,-1,-1,-1,-1,15,-1,-1],"loss_changes":[1.0399578E-1,0E0,1.2638503E-1,1.1197737E-1,5.787444E-2,1.4571352E-1,7.9156764E-2,0E0,0E0,8.0081955E-2,0E0,0E0,0E0,0E0,4.3460727E-2,0E0,0E0],"parents":[2147483647,0,0,2,2,3,3,4,4,5,5,6,6,9,9,14,14],"right_children":[2,-1,4,6,8,10,12,-1,-1,14,-1,-1,-1,-1,16,-1,-1],"split_conditions":[2.6346743E-1,-2.4862513E-1,7.4547654E-1,8.811259E-1,5.6897736E-1,7.15733E-1,1.7778093E-1,3.3413443E-1,4.4777498E-2,3.9967364E-1,-3.8068253E-1,3.271282E-1,-3.289707E-2,-1.6756447E-1,3.1665283E-1,-2.4864E-2,1.9594647E-1],"split_indices":[36,0,45,30,103,42,32,0,0,42,0,0,0,0,23,0,0],"split_type":[0,0,0,0,0,0,0,0,0,0,0,0,0,0,0,0,0],"sum_hessian":[1.2722407E1,1.3433739E0,1.1379034E1,8.761847E0,2.6171875E0,6.5190945E0,2.2427518E0,1.5540904E0,1.0630971E0,5.279403E0,1.239691E0,1.2113218E0,1.0314301E0,1.9971757E0,3.2822275E0,1.7968348E0,1.4853928E0],"tree_param":{"num_deleted":"0","num_feature":"200","num_nodes":"17","size_leaf_vector":"0"}},{"base_weights":[1.5142888E-3,5.3742237E-2,-1.1372135E-1,1.5365371E-2,3.0977255E-1,-3.4046444E-1,-2.1930572E-2,2.3117304E-1,-5.2642293E-2,1.6303866E-1,-1.6007227E-1,-3.641211E-1,3.0163461E-2,-9.497573E-2,2.7648944E-1,2.4401119E-2,-2.8666663E-1],"categories":[],"categories_nodes":[],"categories_segments":[],"categories_sizes":[],"default_left":[1,1,1,1,0,0,1,0,1,0,0,0,1,1,0,0,0],"id":27,"left_children":[1,3,5,7,-1,-1,9,-1,11,-1,-1,-1,13,15,-1,-1,-1],"loss_changes":[7.4143484E-2,8.327448E-2,7.992475E-2,1.0823476E-1,0E0,0E0,6.9884904E-2,0E0,1.4463167E-1,0E0,0E0,0E0,1.3653144E-1,6.7221954E-2,0E0,0E0,0E0],"parents":[2147483647,0,0,1,1,2,2,3,3,6,6,8,8,12,12,13,13],"right_children":[2,4,6,8,-1,-1,10,-1,12,-1,-1,-1,14,16,-1,-1,-1],"split_conditions":[6.311515E-1,5.2771795E-1,3.0539137E-1,3.4773767E-2,2.9592323E-1,-3.2524297E-1,6.191752E-1,2.2083776E-1,2.3043622E-1,1.5574951E-1,-1.5291576E-1,-3.4784198E-1,4.8314077E-1,5.264771E-1,2.6412815E-1,2.3310194E-2,-2.7385032E-1],"split_indices":[22,61,98,12,0,0,17,0,10,0,0,0,44,78,0,0,0],"split_type":[0,0,0,0,0,0,0,0,0,0,0,0,0,0,0,0,0],"sum_hessian":[1.2320166E1,8.478363E0,3.8418026E0,7.3735056E0,1.1048578E0,1.1067805E0,2.735022E0,1.7671696E0,5.606336E0,1.1690278E0,1.5659943E0,1.1776565E0,4.4286795E0,2.9364903E0,1.4921893E0,1.8092635E0,1.1272268E0],"tree_param":{"num_deleted":"0","num_feature":"200","num_nodes":"17","size_leaf_vector":"0"}},{"base_weights":[-2.7965658E-4,2.4549107E-1,-2.3376042E-2,6.5529165E-3,-2.2771811E-1,-4.577567E-2,2.8956577E-1,1.918376E-1,-8.4640294E-2,-3.0504075E-1,-3.9340638E-2,-1.5153167E-1,1.0413483E-1],"categories":[],"categories_nodes":[],"categories_segments":[],"categories_sizes":[],"default_left":[1,0,1,1,0,1,0,0,1,0,1,0,0],"id":28,"left_children":[1,-1,3,5,-1,7,-1,-1,9,-1,11,-1,-1],"loss_changes":[6.811426E-2,0E0,6.712589E-2,1.4175606E-1,0E0,7.4575335E-2,0E0,0E0,6.927292E-2,0E0,9.269698E-2,0E0,0E0],"parents":[2147483647,0,0,2,2,3,3,5,5,8,8,10,10],"right_children":[2,-1,4,6,-1,8,-1,-1,10,-1,12,-1,-1],"split_conditions":[1.1460443E-1,2.3451565E-1,7.4951005E-1,6.0344714E-1,-2.1753728E-1,2.2213474E-1,2.7661985E-1,1.8326092E-1,2.123129E-1,-2.91403E-1,8.028655E-1,-1.4475699E-1,9.947917E-2],"split_indices":[86,0,23,23,0,17,0,0,98,0,26,0,0],"split_type":[0,0,0,0,0,0,0,0,0,0,0,0,0],"sum_hessian":[1.2003234E1,1.0307559E0,1.0972478E1,9.5703E0,1.4021784E0,8.076612E0,1.493687E0,1.1349899E0,6.9416227E0,1.1831316E0,5.7584915E0,3.2319338E0,2.5265577E0],"tree_param":{"num_deleted":"0","num_feature":"200","num_nodes":"13","size_leaf_vector":"0"}},{"base_weights":[1.2260673E-4,-2.197391E-1,2.7932284E-2,2.6005363E-1,-1.4375064E-2,-1.9651155E-1,1.5524609E-2,9.9017255E-2,-6.726645E-2,2.4713281E-1,2.9109588E-3,-1.9592121E-1,4.4399973E-2,1.1598136E-1,-8.475709E-2,-9.471322E-2,1.8134616E-1],"categories":[],"categories_nodes":[],"categories_segments":[],"categories_sizes":[],"default_left":[1,0,1,0,1,0,1,1,1,0,1,0,1,0,0,0,0],"id":29,"left_children":[1,-1,3,-1,5,-1,7,9,11,-1,13,-1,15,-1,-1,-1,-1],"loss_changes":[7.198944E-2,0E0,1.0269572E-1,0E0,4.8173666E-2,0E0,5.2506056E-2,5.3816203E-2,5.4795995E-2,0E0,2.2745147E-2,0E0,3.8890738E-2,0E0,0E0,0E0,0E0],"parents":[2147483647,0,0,2,2,4,4,6,6,7,7,8,8,10,10,12,12],"right_children":[2,-1,4,-1,6,-1,8,10,12,-1,14,-1,16,-1,-1,-1,-1],"split_conditions":[1.7526347E-2,-2.09915E-1,1.4078966E-1,2.4842715E-1,3.8729244E-1,-1.8772592E-1,9.1172814E-1,5.848466E-1,8.062804E-1,2.3608398E-1,6.7535305E-1,-1.8716197E-1,5.149112E-1,1.10796064E-1,-8.096777E-2,-9.047878E-2,1.7323853E-1],"split_indices":[2,0,8,0,12,0,64,66,8,0,18,0,26,0,0,0,0],"split_type":[0,0,0,0,0,0,0,0,0,0,0,0,0,0,0,0,0],"sum_hessian":[1.17769575E1,1.3219874E0,1.0454969E1,1.6121383E0,8.842832E0,1.2473943E0,7.595437E0,3.7822661E0,3.813171E0,1.4880103E0,2.2942557E0,1.7722038E0,2.0409672E0,1.0024382E0,1.2918177E0,1.0121292E0,1.0288382E0],"tree_param":{"num_deleted":"0","num_feature":"200","num_nodes":"17","size_leaf_vector":"0"}},{"base_weights":[1.2072807E-3,2.0969166E-1,-1.8659096E-2,-2.014478E-1,1.2913119E-2,-8.786269E-2,1.1688403E-1,-2.1082127E-1,4.3161917E-2,2.0789662E-1,-4.7696505E-2,-3.8860434E-1,-2.7448267E-2,1.5948734E-1,-8.210984E-2,3.3146304E-1,7.3989876E-2],"categories":[],"categories_nodes":[],"categories_segments":[],"categories_sizes":[],"default_left":[1,0,1,0,1,1,1,1,1,1,0,0,0,0,0,0,0],"id":30,"left_children":[1,-1,3,-1,5,7,9,11,13,15,-1,-1,-1,-1,-1,-1,-1],"loss_changes":[4.799221E-2,0E0,6.1045013E-2,0E0,9.4478205E-2,7.377465E-2,6.6498965E-2,7.696997E-2,3.230048E-2,4.725749E-2,0E0,0E0,0E0,0E0,0E0,0E0,0E0],"parents":[2147483647,0,0,2,2,4,4,5,5,6,6,7,7,8,8,9,9],"right_children":[2,-1,4,-1,6,8,10,12,14,16,-1,-1,-1,-1,-1,-1,-1],"split_conditions":[9.977647E-2,2.0031676E-1,1.12040326E-1,-1.9244146E-1,4.6695262E-1,5.972697E-1,7.0256543E-1,5.3062356E-1,8.1277335E-1,5.8245206E-1,-4.556409E-2,-3.712306E-1,-2.622111E-2,1.5235698E-1,-7.843887E-2,3.1664398E-1,7.068194E-2],"split_indices":[99,0,88,0,67,72,79,96,18,154,0,0,0,0,0,0,0],"split_type":[0,0,0,0,0,0,0,0,0,0,0,0,0,0,0,0,0],"sum_hessian":[1.1582823E1,1.0081142E0,1.0574708E1,1.557942E0,9.016767E0,4.5782733E0,4.438493E0,2.3622093E0,2.2160642E0,2.8583887E0,1.5801042E0,1.1991227E0,1.1630865E0,1.1494554E0,1.0666087E0,1.486223E0,1.3721656E0],"tree_param":{"num_deleted":"0","num_feature":"200","num_nodes":"17","size_leaf_vector":"0"}},{"base_weights":[1.509226E-4,1.1521268E-1,-4.1769627E-2,8.105131E-3,2.6607114E-1,3.900715E-2,-1.3893998E-1,-6.81826E-2,1.1645032E-1,-2.2790499E-1,4.4281032E-2,2.2834492E-1,-6.0194423E-3,-4.0742433E-1,-1.07592665E-1],"categories":[],"categories_nodes":[],"categories_segments":[],"categories_sizes":[],"default_left":[1,1,1,0,0,1,1,0,1,1,0,0,0,0,0],"id":31,"left_children":[1,3,5,-1,-1,7,9,-1,11,13,-1,-1,-1,-1,-1],"loss_changes":[5.476798E-2,4.8970584E-2,6.5319896E-2,0E0,0E0,3.7717517E-2,6.159375E-2,0E0,3.617214E-2,5.488108E-2,0E0,0E0,0E0,0E0,0E0],"parents":[2147483647,0,0,1,1,2,2,5,5,6,6,8,8,9,9],"right_children":[2,4,6,-1,-1,8,10,-1,12,14,-1,-1,-1,-1,-1],"split_conditions":[8.011018E-2,8.974309E-2,5.0972104E-1,7.7427668E-3,2.5417563E-1,3.6078566E-1,9.8623234E-1,-6.5134294E-2,7.7791905E-1,3.1560987E-1,4.2301316E-2,2.1813607E-1,-5.750325E-3,-3.892092E-1,-1.0278241E-1],"split_indices":[38,11,28,0,0,21,68,0,199,46,0,0,0,0,0],"split_type":[0,0,0,0,0,0,0,0,0,0,0,0,0,0,0],"sum_hessian":[1.1353073E1,3.032329E0,8.320744E0,1.7736733E0,1.2586557E0,4.543117E0,3.777627E0,1.9050689E0,2.6380482E0,2.5432441E0,1.2343827E0,1.3789471E0,1.259101E0,1.0202014E0,1.5230428E0],"tree_param":{"num_deleted":"0","num_feature":"200","num_nodes":"15","size_leaf_vector":"0"}},{"base_weights":[-5.884595E-4,-1.9403787E-1,3.890904E-2,9.697915E-3,2.5862646E-1,-1.9106603E-1,4.0354505E-2,1.0301038E-1,-5.5429276E-2,1.6454026E-1,-5.2377075E-2,6.767777E-2,-2.1061228E-1,4.6595704E-2,2.6614484E-1],"categories":[],"categories_nodes":[],"categories_segments":[],"categories_sizes":[],"default_left":[1,0,1,1,0,0,1,1,1,1,0,0,0,0,0],"id":32,"left_children":[1,-1,3,5,-1,-1,7,9,11,13,-1,-1,-1,-1,-1],"loss_changes":[8.557328E-2,0E0,5.9654765E-2,5.050266E-2,0E0,0E0,4.2740174E-2,4.1175563E-2,5.379957E-2,3.6936067E-2,0E0,0E0,0E0,0E0,0E0],"parents":[2147483647,0,0,2,2,3,3,6,6,7,7,8,8,9,9],"right_children":[2,-1,4,6,-1,-1,8,10,12,14,-1,-1,-1,-1,-1],"split_conditions":[2.8166306E-1,-1.8536282E-1,7.981677E-1,5.0704196E-2,2.4706379E-1,-1.8252385E-1,8.360328E-1,4.910312E-1,4.9843132E-1,2.4953774E-1,-5.00354E-2,6.465203E-2,-2.0119622E-1,4.4512503E-2,2.5424603E-1],"split_indices":[199,0,45,38,0,0,112,46,67,42,0,0,0,0,0],"split_type":[0,0,0,0,0,0,0,0,0,0,0,0,0,0,0],"sum_hessian":[1.1197637E1,1.8990318E0,9.298605E0,8.207819E0,1.0907859E0,1.0868906E0,7.1209283E0,4.3055153E0,2.815413E0,3.0846684E0,1.220847E0,1.5696188E0,1.2457942E0,1.4279783E0,1.65669E0],"tree_param":{"num_deleted":"0","num_feature":"200","num_nodes":"15","size_leaf_vector":"0"}},{"base_weights":[6.80481E-4,2.5852673E-2,-2.4575372E-1,1.9836275E-1,-1.2072733E-2,-1.8679088E-1,1.89969E-2,1.1858137E-1,-3.3639614E-2,-3.2412052E-2,2.3270807E-1,-9.263978E-2,1.2148442E-1,-2.5194797E-1,-2.0614304E-2],"categories":[],"categories_nodes":[],"categories_segments":[],"categories_sizes":[],"default_left":[1,1,0,0,1,0,1,1,1,0,0,1,0,0,0],"id":33,"left_children":[1,3,-1,-1,5,-1,7,9,11,-1,-1,13,-1,-1,-1],"loss_changes":[6.823516E-2,6.533675E-2,0E0,0E0,4.4442315E-2,0E0,3.642766E-2,4.1431095E-2,4.1592747E-2,0E0,0E0,3.77583E-2,0E0,0E0,0E0],"parents":[2147483647,0,0,1,1,4,4,6,6,7,7,8,8,11,11],"right_children":[2,4,-1,-1,6,-1,8,10,12,-1,-1,14,-1,-1,-1],"split_conditions":[5.835203E-1,1.4290789E-1,-2.3476656E-1,1.8949434E-1,1.9646493E-1,-1.7843984E-1,2.8432062E-1,5.5697016E-2,8.176131E-1,-3.0962974E-2,2.2230415E-1,3.462743E-1,1.160531E-1,-2.4068388E-1,-1.969268E-2],"split_indices":[121,44,0,0,54,0,47,1,12,0,0,90,0,0,0],"split_type":[0,0,0,0,0,0,0,0,0,0,0,0,0,0,0],"sum_hessian":[1.1003201E1,9.983786E0,1.0194154E0,1.7997632E0,8.184022E0,1.2360768E0,6.9479456E0,2.4031546E0,4.5447907E0,1.0341319E0,1.3690228E0,3.2929544E0,1.2518364E0,1.0248471E0,2.2681072E0],"tree_param":{"num_deleted":"0","num_feature":"200","num_nodes":"15","size_leaf_vector":"0"}},{"base_weights":[6.929794E-4,-7.7630684E-2,5.8304593E-2,7.5894095E-2,-1.4638424E-1,-1.0221275E-2,2.5547698E-1,-3.088281E-1,-2.2548368E-2,1.0718142E-1,-8.88404E-2,-1.9317591E-1,-2.3372399E-2],"categories":[],"categories_nodes":[],"categories_segments":[],"categories_sizes":[],"default_left":[1,1,1,0,1,1,0,0,0,0,1,0,0],"id":34,"left_children":[1,3,5,-1,7,9,-1,-1,-1,-1,11,-1,-1],"loss_changes":[4.8729163E-2,4.831118E-2,8.4107116E-2,0E0,6.356072E-2,4.262105E-2,0E0,0E0,0E0,0E0,1.8874425E-2,0E0,0E0],"parents":[2147483647,0,0,1,1,2,2,4,4,5,5,10,10],"right_children":[2,4,6,-1,8,10,-1,-1,-1,-1,12,-1,-1],"split_conditions":[3.8684717E-1,2.8407753E-1,5.616146E-1,7.250102E-2,5.987891E-1,2.5388366E-1,2.440551E-1,-2.95021E-1,-2.1540275E-2,1.0238955E-1,6.6406894E-1,-1.8453941E-1,-2.2327466E-2],"split_indices":[24,18,28,0,10,88,0,0,0,0,18,0,0],"split_type":[0,0,0,0,0,0,0,0,0,0,0,0,0],"sum_hessian":[1.0799465E1,4.576293E0,6.223172E0,1.4150794E0,3.1612139E0,4.6178055E0,1.6053671E0,1.367113E0,1.7941009E0,1.8515943E0,2.766211E0,1.0659578E0,1.7002534E0],"tree_param":{"num_deleted":"0","num_feature":"200","num_nodes":"13","size_leaf_vector":"0"}},{"base_weights":[7.2952296E-4,-2.131624E-2,1.7254856E-1,-1.3006076E-1,2.0823207E-2,-2.8161108E-1,-3.2268353E-2,1.12389274E-1,-5.913237E-2,2.4306194E-1,-3.1016884E-2,8.9393705E-2,-1.4934887E-1,-4.0689334E-2,-2.6689065E-1],"categories":[],"categories_nodes":[],"categories_segments":[],"categories_sizes":[],"default_left":[1,1,0,1,1,0,0,1,1,0,0,0,1,0,0],"id":35,"left_children":[1,3,-1,5,7,-1,-1,9,11,-1,-1,-1,13,-1,-1],"loss_changes":[4.0634956E-2,4.3561157E-2,0E0,3.9317098E-2,5.014774E-2,0E0,0E0,5.985881E-2,4.8990652E-2,0E0,0E0,0E0,2.9023264E-2,0E0,0E0],"parents":[2147483647,0,0,1,1,3,3,4,4,7,7,8,8,12,12],"right_children":[2,4,-1,6,8,-1,-1,10,12,-1,-1,-1,14,-1,-1],"split_conditions":[9.262426E-1,1.754606E-1,1.6483426E-1,2.3775536E-1,4.2735413E-1,-2.6902083E-1,-3.0825699E-2,4.9893105E-1,5.3831613E-1,2.3219512E-1,-2.963018E-2,8.539709E-2,2.428594E-1,-3.8870197E-2,-2.5495848E-1],"split_indices":[112,84,0,57,36,0,0,116,22,0,0,0,28,0,0],"split_type":[0,0,0,0,0,0,0,0,0,0,0,0,0,0,0],"sum_hessian":[1.0723829E1,9.503856E0,1.2199736E0,2.654902E0,6.8489532E0,1.0408738E0,1.6140282E0,3.1932237E0,3.6557298E0,1.6711355E0,1.5220882E0,1.3810364E0,2.2746933E0,1.1824265E0,1.0922668E0],"tree_param":{"num_deleted":"0","num_feature":"200","num_nodes":"15","size_leaf_vector":"0"}},{"base_weights":[-1.4329903E-1,-3.207284E-1,4.189749E-1,2.3064177E-1,-5.4817367E-1,5.8575046E-1,2.423741E-1,6.090254E-1,-1.1271396E-1,1.3809523E-1,-7.08728E-1,-1.1407238E0,-5.4085654E-1,-3.2776555E-1,-8.7270945E-1,-6.548786E-2,-5.6258714E-1],"categories":[],"categories_nodes":[],"categories_segments":[],"categories_sizes":[],"default_left":[1,1,1,1,1,0,0,0,0,0,1,0,1,1,0,0,0],"id":36,"left_children":[1,3,5,7,9,-1,-1,-1,-1,-1,11,-1,13,15,-1,-1,-1],"loss_changes":[1.2831948E0,1.226166E0,9.078646E-2,3.710001E-1,7.627497E-1,0E0,0E0,0E0,0E0,0E0,4.066596E-1,0E0,2.8557718E-1,1.5147445E-1,0E0,0E0,0E0],"parents":[2147483647,0,0,1,1,2,2,3,3,4,4,10,10,12,12,13,13],"right_children":[2,4,6,8,10,-1,-1,-1,-1,-1,12,-1,14,16,-1,-1,-1],"split_conditions":[7.979066E-1,1.7782187E-1,6.2589127E-1,1.9199748E-1,3.2624334E-1,5.5956274E-1,2.3153804E-1,5.817971E-1,-1.0767475E-1,1.3192126E-1,1.5545481E-1,-1.0897243E0,8.9236647E-1,6.932479E-1,-8.336924E-1,-6.256003E-2,-5.37435E-1],"split_indices":[24,13,87,84,96,0,0,0,0,0,28,0,30,79,0,0,0],"split_type":[0,0,0,0,0,0,0,0,0,0,0,0,0,0,0,0,0],"sum_hessian":[1.2862408E1,9.7772875E0,3.085121E0,2.855237E0,6.9220505E0,1.5864221E0,1.4986987E0,1.3584639E0,1.496773E0,1.3122816E0,5.609769E0,1.5697227E0,4.040046E0,2.4604294E0,1.5796167E0,1.1624577E0,1.2979716E0],"tree_param":{"num_deleted":"0","num_feature":"200","num_nodes":"17","size_leaf_vector":"0"}},{"base_weights":[-2.0529209E-3,-7.698221E-2,1.5249677E-1,1.5926152E-1,-1.2965162E-1,-1.8333053E-2,3.1672645E-1,-3.3081892E-1,-2.7382351E-2,-2.3969084E-1,-4.2634884E-1,7.857994E-2,-1.5943918E-1,2.4292001E-1,-8.490761E-2],"categories":[],"categories_nodes":[],"categories_segments":[],"categories_sizes":[],"default_left":[1,1,1,0,1,0,0,1,1,0,0,1,0,0,0],"id":37,"left_children":[1,3,5,-1,7,-1,-1,9,11,-1,-1,13,-1,-1,-1],"loss_changes":[1.3011774E-1,9.416631E-2,1.0295213E-1,0E0,1.2728941E-1,0E0,0E0,1.8092304E-2,5.7424683E-2,0E0,0E0,6.1169647E-2,0E0,0E0,0E0],"parents":[2147483647,0,0,1,1,2,2,4,4,7,7,8,8,11,11],"right_children":[2,4,6,-1,8,-1,-1,10,12,-1,-1,14,-1,-1,-1],"split_conditions":[4.6754405E-1,4.693029E-2,2.4754056E-1,1.5214126E-1,3.2525462E-1,-1.7513419E-2,3.0256623E-1,6.7228246E-1,7.150718E-1,-2.2897474E-1,-4.0728763E-1,5.325569E-1,-1.5231097E-1,2.3205954E-1,-8.1111565E-2],"split_indices":[44,35,41,0,34,0,0,43,82,0,0,0,0,0,0],"split_type":[0,0,0,0,0,0,0,0,0,0,0,0,0,0,0],"sum_hessian":[1.1236751E1,7.5681496E0,3.6686008E0,1.3793595E0,6.18879E0,1.7978842E0,1.8707166E0,2.0855367E0,4.1032534E0,1.067868E0,1.0176687E0,2.276152E0,1.8271013E0,1.135406E0,1.140746E0],"tree_param":{"num_deleted":"0","num_feature":"200","num_nodes":"15","size_leaf_vector":"0"}},{"base_weights":[8.4674766E-4,-7.372924E-2,5.3854078E-2,-2.6743075E-1,3.2666136E-5,9.1913074E-2,-1.342656E-1,1.5164423E-1,-9.994452E-2,-1.422597E-2,2.198748E-1,-1.9733763E-1,-1.8546863E-3,1.4826289E-1,-1.4783648E-1,6.6320226E-2,3.4222227E-1],"categories":[],"categories_nodes":[],"categories_segments":[],"categories_sizes":[],"default_left":[1,1,1,0,1,1,0,0,1,1,1,0,0,0,0,0,0],"id":38,"left_children":[1,3,5,-1,7,9,-1,-1,11,13,15,-1,-1,-1,-1,-1,-1],"loss_changes":[4.397167E-2,6.604818E-2,4.655491E-2,0E0,5.072553E-2,7.348496E-2,0E0,0E0,1.92414E-2,6.4181425E-2,4.604304E-2,0E0,0E0,0E0,0E0,0E0,0E0],"parents":[2147483647,0,0,1,1,2,2,4,4,5,5,8,8,9,9,10,10],"right_children":[2,4,6,-1,8,10,-1,-1,12,14,16,-1,-1,-1,-1,-1,-1],"split_conditions":[5.043334E-1,4.5781636E-1,7.932496E-1,-2.5547445E-1,7.9377526E-1,3.7002873E-1,-1.2826285E-1,1.4486451E-1,8.4583414E-1,7.289692E-1,6.283003E-1,-1.8851505E-1,-1.7717669E-3,1.4163435E-1,-1.41227E-1,6.335518E-2,3.269222E-1],"split_indices":[199,67,98,0,58,45,0,0,11,0,112,0,0,0,0,0,0],"split_type":[0,0,0,0,0,0,0,0,0,0,0,0,0,0,0,0,0],"sum_hessian":[1.1123889E1,4.620923E0,6.5029655E0,1.2747277E0,3.3461955E0,5.409134E0,1.0938315E0,1.3300997E0,2.0160956E0,2.956279E0,2.452855E0,1.0111549E0,1.0049407E0,1.333657E0,1.6226221E0,1.0880513E0,1.3648038E0],"tree_param":{"num_deleted":"0","num_feature":"200","num_nodes":"17","size_leaf_vector":"0"}},{"base_weights":[-1.0531027E-2,-9.631395E-2,1.2703398E-1,5.7178788E-2,-2.022624E-1,2.3248442E-1,-6.270601E-2,2.327098E-1,-9.705688E-2,2.1668734E-2,-3.69425E-1,4.0113783E-1,1.23287745E-1,-5.2817804E-1,-1.6189879E-1],"categories":[],"categories_nodes":[],"categories_segments":[],"categories_sizes":[],"default_left":[1,1,1,1,1,1,0,0,0,0,1,0,0,0,0],"id":39,"left_children":[1,3,5,7,9,11,-1,-1,-1,-1,13,-1,-1,-1,-1],"loss_changes":[1.3441916E-1,1.1411663E-1,8.754387E-2,7.757559E-2,1.554344E-1,5.1740617E-2,0E0,0E0,0E0,0E0,7.825473E-2,0E0,0E0,0E0,0E0],"parents":[2147483647,0,0,1,1,2,2,3,3,4,4,5,5,10,10],"right_children":[2,4,6,8,10,12,-1,-1,-1,-1,14,-1,-1,-1,-1],"split_conditions":[5.7189596E-1,2.9916665E-1,7.8064334E-1,6.2786025E-1,4.4791424E-1,3.6564508E-1,-5.990255E-2,2.223058E-1,-9.271766E-2,2.0699969E-2,5.6478965E-1,3.8320374E-1,1.177758E-1,-5.045642E-1,-1.5466061E-1],"split_indices":[21,18,24,112,0,37,0,0,0,0,81,0,0,0,0],"split_type":[0,0,0,0,0,0,0,0,0,0,0,0,0,0,0],"sum_hessian":[1.1390998E1,7.016396E0,4.3746014E0,2.8649318E0,4.1514645E0,2.8121905E0,1.562411E0,1.3402494E0,1.5246824E0,1.7741901E0,2.3772743E0,1.1048653E0,1.7073253E0,1.346655E0,1.0306193E0],"tree_param":{"num_deleted":"0","num_feature":"200","num_nodes":"15","size_leaf_vector":"0"}},{"base_weights":[-1.0779678E-3,6.1471004E-2,-7.7621035E-2,1.1519226E-2,2.599124E-1,-2.5544938E-2,-1.9525784E-1,1.0473441E-1,-7.462213E-2,-1.691256E-1,5.5910997E-2,2.4769057E-1,-2.7442511E-2,-2.5620818E-1,6.264233E-2,1.7806306E-1,-5.0946042E-2],"categories":[],"categories_nodes":[],"categories_segments":[],"categories_sizes":[],"default_left":[1,1,1,1,0,1,0,1,1,0,1,0,0,0,0,0,0],"id":40,"left_children":[1,3,5,7,-1,9,-1,11,13,-1,15,-1,-1,-1,-1,-1,-1],"loss_changes":[5.243571E-2,5.9708834E-2,3.01541E-2,3.8663432E-2,0E0,3.99486E-2,0E0,4.372503E-2,6.237579E-2,0E0,2.844546E-2,0E0,0E0,0E0,0E0,0E0,0E0],"parents":[2147483647,0,0,1,1,2,2,3,3,5,5,7,7,8,8,10,10],"right_children":[2,4,6,8,-1,10,-1,12,14,-1,16,-1,-1,-1,-1,-1,-1],"split_conditions":[5.9506154E-1,9.998772E-1,9.056128E-1,4.8366675E-1,2.4829224E-1,3.127125E-1,-1.8652825E-1,7.5623775E-1,5.9947157E-1,-1.6156434E-1,4.017561E-1,2.3661682E-1,-2.6215611E-2,-2.4475363E-1,5.9841715E-2,1.7010222E-1,-4.8668347E-2],"split_indices":[22,109,112,67,0,77,0,24,17,0,84,0,0,0,0,0,0],"split_type":[0,0,0,0,0,0,0,0,0,0,0,0,0,0,0,0,0],"sum_hessian":[1.0951873E1,6.02619E0,4.9256835E0,4.8147073E0,1.2114823E0,3.414806E0,1.5108775E0,2.3129368E0,2.5017705E0,1.2364707E0,2.1783352E0,1.1115052E0,1.2014318E0,1.0773046E0,1.4244659E0,1.016839E0,1.1614962E0],"tree_param":{"num_deleted":"0","num_feature":"200","num_nodes":"17","size_leaf_vector":"0"}},{"base_weights":[6.728503E-4,-1.6978806E-1,2.5472732E-2,5.940406E-2,-1.2602629E-1,1.0066194E-1,-7.41217E-2,4.8806503E-2,2.8429398E-1,-1.7096148E-3,1.5303195E-1,-1.3409656E-1,7.683412E-2],"categories":[],"categories_nodes":[],"categories_segments":[],"categories_sizes":[],"default_left":[1,0,1,1,0,1,0,1,0,1,0,0,0],"id":41,"left_children":[1,-1,3,5,-1,7,-1,9,-1,11,-1,-1,-1],"loss_changes":[4.52577E-2,0E0,4.8054643E-2,4.2086028E-2,0E0,5.5544388E-2,0E0,2.3978822E-2,0E0,3.187678E-2,0E0,0E0,0E0],"parents":[2147483647,0,0,2,2,3,3,5,5,7,7,9,9],"right_children":[2,-1,4,6,-1,8,-1,10,-1,12,-1,-1,-1],"split_conditions":[2.1630535E-1,-1.6219717E-1,9.882643E-1,9.9238527E-1,-1.20391905E-1,6.377752E-1,-7.080787E-2,5.8211005E-1,2.7158377E-1,5.4622895E-1,1.461902E-1,-1.2810138E-1,7.339902E-2],"split_indices":[39,0,63,150,0,29,0,131,0,88,0,0,0],"split_type":[0,0,0,0,0,0,0,0,0,0,0,0,0],"sum_hessian":[1.0709014E1,1.359655E0,9.349359E0,7.6390605E0,1.7102983E0,5.836395E0,1.8026657E0,4.5515966E0,1.2847979E0,3.065093E0,1.4865038E0,1.1417911E0,1.9233018E0],"tree_param":{"num_deleted":"0","num_feature":"200","num_nodes":"13","size_leaf_vector":"0"}},{"base_weights":[5.4060057E-4,1.6930239E-1,-4.6576053E-2,4.0838808E-2,3.261418E-1,-1.2293663E-3,-1.42609E-1,1.1501913E-1,-3.6629394E-2,-3.235175E-1,-2.6300123E-2,-1.7106354E-1,9.4192885E-3,1.01363875E-1,-3.9918482E-2,6.6609345E-3,-8.385146E-2],"categories":[],"categories_nodes":[],"categories_segments":[],"categories_sizes":[],"default_left":[1,1,1,0,0,1,1,0,1,0,0,0,1,0,1,0,0],"id":42,"left_children":[1,3,5,-1,-1,7,9,-1,11,-1,-1,-1,13,-1,15,-1,-1],"loss_changes":[8.4508285E-2,4.6703525E-2,3.6160506E-2,0E0,0E0,2.3215044E-2,5.6013964E-2,0E0,2.6798187E-2,0E0,0E0,0E0,1.4622162E-2,0E0,4.2969245E-3,0E0,0E0],"parents":[2147483647,0,0,1,1,2,2,5,5,6,6,8,8,12,12,14,14],"right_children":[2,4,6,-1,-1,8,10,-1,12,-1,-1,-1,14,-1,16,-1,-1],"split_conditions":[3.1760496E-1,1.5095726E-1,5.0620407E-1,3.9012987E-2,3.1156066E-1,3.427425E-1,7.216509E-1,1.0987685E-1,3.8042238E-1,-3.090537E-1,-2.5124297E-2,-1.6341563E-1,6.2415355E-1,9.68321E-2,4.495139E-1,6.363137E-3,-8.010262E-2],"split_indices":[96,47,36,0,0,24,6,0,155,0,0,0,101,0,95,0,0],"split_type":[0,0,0,0,0,0,0,0,0,0,0,0,0,0,0,0,0],"sum_hessian":[1.0626514E1,2.3197348E0,8.30678E0,1.2755591E0,1.0441757E0,5.6431003E0,2.6636791E0,1.3166693E0,4.326431E0,1.0420474E0,1.6216317E0,1.1043787E0,3.2220523E0,1.1258576E0,2.0961947E0,1.0164037E0,1.079791E0],"tree_param":{"num_deleted":"0","num_feature":"200","num_nodes":"17","size_leaf_vector":"0"}},{"base_weights":[2.118032E-5,5.925116E-2,-1.08708955E-1,2.527602E-1,3.5565994E-3,-1.7492497E-1,5.250048E-2,4.393347E-2,-1.0620085E-1,-2.940076E-1,-3.765213E-2,1.3347699E-1,-4.573634E-2],"categories":[],"categories_nodes":[],"categories_segments":[],"categories_sizes":[],"default_left":[1,1,1,0,1,1,0,1,0,0,0,0,0],"id":43,"left_children":[1,3,5,-1,7,9,-1,11,-1,-1,-1,-1,-1],"loss_changes":[6.736227E-2,7.296335E-2,3.9382752E-2,0E0,2.330078E-2,4.2712808E-2,0E0,3.0884245E-2,0E0,0E0,0E0,0E0,0E0],"parents":[2147483647,0,0,1,1,2,2,4,4,5,5,7,7],"right_children":[2,4,6,-1,8,10,-1,12,-1,-1,-1,-1,-1],"split_conditions":[4.9893105E-1,3.4482336E-1,4.0098974E-1,2.414598E-1,6.388259E-1,8.987447E-1,5.0153285E-2,6.145286E-1,-1.0145282E-1,-2.808631E-1,-3.596878E-2,1.2750949E-1,-4.3691557E-2],"split_indices":[116,42,61,0,73,112,0,46,0,0,0,0,0],"split_type":[0,0,0,0,0,0,0,0,0,0,0,0,0],"sum_hessian":[1.0460574E1,6.7722898E0,3.6882842E0,1.5131592E0,5.2591305E0,2.6148398E0,1.0734442E0,3.8453813E0,1.4137492E0,1.3998201E0,1.2150198E0,1.9245753E0,1.920806E0],"tree_param":{"num_deleted":"0","num_feature":"200","num_nodes":"13","size_leaf_vector":"0"}},{"base_weights":[6.6159095E-4,2.5666717E-2,-1.6955598E-1,-1.7873973E-2,1.108936E-1,-5.4109115E-2,1.4678302E-1,2.409892E-1,3.642207E-2,-1.5824434E-1,1.3123201E-2,1.6056184E-1,-7.470823E-2],"categories":[],"categories_nodes":[],"categories_segments":[],"categories_sizes":[],"default_left":[1,1,0,1,1,1,0,0,0,0,1,0,0],"id":44,"left_children":[1,3,-1,5,7,9,-1,-1,-1,-1,11,-1,-1],"loss_changes":[4.433676E-2,3.3724636E-2,0E0,3.586593E-2,2.9745627E-2,3.4521244E-2,0E0,0E0,0E0,0E0,3.878633E-2,0E0,0E0],"parents":[2147483647,0,0,1,1,3,3,4,4,5,5,10,10],"right_children":[2,4,-1,6,8,10,-1,-1,-1,-1,12,-1,-1],"split_conditions":[8.545499E-1,6.165432E-1,-1.6197547E-1,6.0734224E-1,2.9356104E-1,2.500962E-1,1.4022064E-1,2.3021504E-1,3.4793712E-2,-1.5116955E-1,6.6967696E-1,1.5338345E-1,-7.136817E-2],"split_indices":[98,98,0,78,1,41,0,0,0,0,20,0,0],"split_type":[0,0,0,0,0,0,0,0,0,0,0,0,0],"sum_hessian":[1.0419917E1,9.085767E0,1.3341502E0,6.012823E0,3.0729437E0,4.928756E0,1.0840671E0,1.118224E0,1.9547197E0,1.9342439E0,2.994512E0,1.11832E0,1.8761922E0],"tree_param":{"num_deleted":"0","num_feature":"200","num_nodes":"13","size_leaf_vector":"0"}},{"base_weights":[-7.800115E-2,-1.926024E-1,1.4642861E-1,-3.8679585E-1,-1.743728E-2,-1.5766744E-1,2.8365946E-1,-2.5268874E-1,-6.725184E-1,1.8791962E-1,-1.2838043E-1,1.3262095E-1,4.2116326E-1,-8.4888324E-2,-3.765724E-1,4.3978296E-2,-2.5051898E-1],"categories":[],"categories_nodes":[],"categories_segments":[],"categories_sizes":[],"default_left":[1,1,1,1,1,0,1,1,0,0,1,0,0,0,0,0,0],"id":45,"left_children":[1,3,5,7,9,-1,11,13,-1,-1,15,-1,-1,-1,-1,-1,-1],"loss_changes":[2.8800586E-1,2.521149E-1,1.5795672E-1,1.3460553E-1,8.879318E-2,0E0,5.4113984E-2,4.9692035E-2,0E0,0E0,5.3297244E-2,0E0,0E0,0E0,0E0,0E0,0E0],"parents":[2147483647,0,0,1,1,2,2,3,3,4,4,6,6,7,7,10,10],"right_children":[2,4,6,8,10,-1,12,14,-1,-1,16,-1,-1,-1,-1,-1,-1],"split_conditions":[4.3497586E-1,4.3831933E-1,1.8399365E-2,5.832491E-1,8.879914E-1,-1.5061845E-1,7.1092737E-1,3.747617E-1,-6.424514E-1,1.795181E-1,5.736507E-1,1.2669173E-1,4.023339E-1,-8.109313E-2,-3.597366E-1,4.2012114E-2,-2.3931877E-1],"split_indices":[44,103,38,122,14,0,0,44,0,0,41,0,0,0,0,0,0],"split_type":[0,0,0,0,0,0,0,0,0,0,0,0,0,0,0,0,0],"sum_hessian":[1.1197599E1,7.4128013E0,3.784798E0,3.5152E0,3.8976014E0,1.1766698E0,2.608128E0,2.392558E0,1.1226418E0,1.3667947E0,2.5308065E0,1.2432233E0,1.3649048E0,1.0164896E0,1.3760686E0,1.0492934E0,1.4815131E0],"tree_param":{"num_deleted":"0","num_feature":"200","num_nodes":"17","size_leaf_vector":"0"}},{"base_weights":[1.521775E-3,-1.0500335E-1,4.480061E-2,6.524363E-2,-1.9903673E-1,-6.559413E-2,1.2261199E-1,5.482339E-2,-2.072997E-1,2.8700808E-1,6.018795E-2,1.7411277E-1,-1.338693E-2],"categories":[],"categories_nodes":[],"categories_segments":[],"categories_sizes":[],"default_left":[1,1,1,0,0,1,1,0,0,0,1,0,0],"id":46,"left_children":[1,3,5,-1,-1,7,9,-1,-1,-1,11,-1,-1],"loss_changes":[4.8713755E-2,4.887778E-2,6.456071E-2,0E0,0E0,5.3024232E-2,4.5209683E-2,0E0,0E0,0E0,2.680197E-2,0E0,0E0],"parents":[2147483647,0,0,1,1,2,2,5,5,6,6,10,10],"right_children":[2,4,6,-1,-1,8,10,-1,-1,-1,12,-1,-1],"split_conditions":[2.7751145E-1,1.3871521E-1,1.731902E-1,6.2326718E-2,-1.9013819E-1,6.152512E-1,3.443126E-1,5.2372348E-2,-1.9803174E-1,2.741765E-1,2.453204E-1,1.6632853E-1,-1.2788427E-2],"split_indices":[28,129,35,0,0,103,23,0,0,0,38,0,0],"split_type":[0,0,0,0,0,0,0,0,0,0,0,0,0],"sum_hessian":[1.0567566E1,3.052369E0,7.515197E0,1.0857018E0,1.9666674E0,3.1065562E0,4.4086404E0,1.6790637E0,1.4274925E0,1.2129004E0,3.1957402E0,1.2545148E0,1.9412254E0],"tree_param":{"num_deleted":"0","num_feature":"200","num_nodes":"13","size_leaf_vector":"0"}},{"base_weights":[4.5864654E-4,-1.5903302E-1,2.6625572E-2,2.2247753E-1,-4.546317E-4,-1.0015239E-1,5.982819E-2,-2.0134264E-1,6.229704E-2,2.0608714E-1,2.6256844E-4,1.5044233E-1,-6.039982E-2,2.3614664E-2,-1.5860076E-1],"categories":[],"categories_nodes":[],"categories_segments":[],"categories_sizes":[],"default_left":[1,0,1,0,1,1,1,0,0,0,1,0,1,0,0],"id":47,"left_children":[1,-1,3,-1,5,7,9,-1,-1,-1,11,-1,13,-1,-1],"loss_changes":[4.3519348E-2,0E0,4.754855E-2,0E0,4.7316287E-2,4.8784763E-2,4.2715076E-2,0E0,0E0,0E0,3.1768203E-2,0E0,2.0495642E-2,0E0,0E0],"parents":[2147483647,0,0,2,2,4,4,5,5,6,6,10,10,12,12],"right_children":[2,-1,4,-1,6,8,10,-1,-1,-1,12,-1,14,-1,-1],"split_conditions":[1.9145867E-1,-1.5192297E-1,4.0975608E-2,2.12531E-1,3.473042E-1,6.221297E-1,4.9978617E-1,-1.9234101E-1,5.9511863E-2,1.968734E-1,4.6656656E-1,1.4371635E-1,2.4057394E-1,2.25589E-2,-1.5151003E-1],"split_indices":[29,0,35,0,47,22,37,0,0,0,87,0,26,0,0],"split_type":[0,0,0,0,0,0,0,0,0,0,0,0,0,0,0],"sum_hessian":[1.0430789E1,1.4696155E0,8.961173E0,1.088965E0,7.8722086E0,2.9669468E0,4.9052615E0,1.8285326E0,1.1384143E0,1.4191211E0,3.4861405E0,1.0034642E0,2.4826763E0,1.337462E0,1.1452143E0],"tree_param":{"num_deleted":"0","num_feature":"200","num_nodes":"15","size_leaf_vector":"0"}},{"base_weights":[-5.218831E-3,-5.8041666E-2,1.4697106E-1,2.0113373E-1,-1.0808772E-1,-1.3929979E-2,3.148124E-1,-6.5196015E-2,-3.3118835E-1,-5.318907E-3,-2.6995122E-1,9.140249E-2,-1.15590766E-1,2.5456613E-1,-4.884069E-2],"categories":[],"categories_nodes":[],"categories_segments":[],"categories_sizes":[],"default_left":[1,1,1,0,1,0,0,1,0,1,0,1,0,0,0],"id":48,"left_children":[1,3,5,-1,7,-1,-1,9,-1,11,-1,13,-1,-1,-1],"loss_changes":[8.45945E-2,1.0132916E-1,7.324396E-2,0E0,6.262768E-2,0E0,0E0,6.7319416E-2,0E0,4.5336828E-2,0E0,5.182404E-2,0E0,0E0,0E0],"parents":[2147483647,0,0,1,1,2,2,4,4,7,7,9,9,11,11],"right_children":[2,4,6,-1,8,-1,-1,10,-1,12,-1,14,-1,-1,-1],"split_conditions":[4.8793843E-1,7.5397804E-2,2.7359277E-1,1.9214144E-1,9.115997E-1,-1.3307197E-2,3.0073777E-1,5.250871E-1,-3.1638157E-1,5.7916975E-1,-2.5788224E-1,7.410947E-1,-1.1042293E-1,2.4318498E-1,-4.665712E-2],"split_indices":[92,41,15,0,17,0,0,44,0,22,0,24,0,0,0],"split_type":[0,0,0,0,0,0,0,0,0,0,0,0,0,0,0],"sum_hessian":[1.0523931E1,7.8128357E0,2.7110946E0,1.2641641E0,6.5486717E0,1.3838764E0,1.3272182E0,5.4930444E0,1.0556272E0,4.250518E0,1.2425265E0,2.2639267E0,1.9865912E0,1.0467637E0,1.2171631E0],"tree_param":{"num_deleted":"0","num_feature":"200","num_nodes":"15","size_leaf_vector":"0"}},{"base_weights":[7.731909E-4,3.551668E-2,-1.4266527E-1,1.9390102E-1,1.3592954E-2,-9.137155E-2,-1.9393381E-1,-1.0743342E-1,4.0761527E-2,-3.321991E-2,9.7858615E-2,-1.1501333E-1,4.6545506E-2,1.5545778E-1,-3.25433E-2,7.1189895E-2,2.6181448E-1],"categories":[],"categories_nodes":[],"categories_segments":[],"categories_sizes":[],"default_left":[1,1,1,0,1,0,0,0,1,1,1,0,0,1,0,0,0],"id":49,"left_children":[1,3,5,-1,7,-1,-1,-1,9,11,13,-1,-1,15,-1,-1,-1],"loss_changes":[5.1347874E-2,2.8789144E-2,5.255893E-3,0E0,2.3958514E-2,0E0,0E0,0E0,2.5151495E-2,1.6919289E-2,2.5252644E-2,0E0,0E0,2.0863775E-2,0E0,0E0,0E0],"parents":[2147483647,0,0,1,1,2,2,4,4,8,8,9,9,10,10,13,13],"right_children":[2,4,6,-1,8,-1,-1,-1,10,12,14,-1,-1,16,-1,-1,-1],"split_conditions":[9.2955625E-1,2.3528844E-1,1.0357894E-1,1.8523209E-1,2.6809722E-1,-8.728651E-2,-1.8526343E-1,-1.0263029E-1,6.062174E-1,2.768915E-1,7.7481925E-1,-1.0987131E-1,4.4464547E-2,5.1328063E-1,-3.1088356E-2,6.8007134E-2,2.5010926E-1],"split_indices":[0,7,46,0,78,0,0,0,20,41,9,0,0,29,0,0,0],"split_type":[0,0,0,0,0,0,0,0,0,0,0,0,0,0,0,0,0],"sum_hessian":[1.030551E1,8.296583E0,2.0089262E0,1.008258E0,7.2883253E0,1.0051423E0,1.0037838E0,1.3355275E0,5.9527974E0,2.5922818E0,3.3605158E0,1.2804585E0,1.3118234E0,2.3314369E0,1.029079E0,1.3012953E0,1.0301416E0],"tree_param":{"num_deleted":"0","num_feature":"200","num_nodes":"17","size_leaf_vector":"0"}}]},"name":"gbtree"},"name":"dart","weight_drop":[1E0,1E0,1E0,1E0,1E0,1E0,5.114326E-1,1E0,1E0,1E0,1E0,5.114326E-1,1E0,1E0,1E0,1E0,1E0,1E0,1E0,1E0,2.615633E-1,1E0,1E0,1E0,1E0,1E0,1E0,1E0,1E0,1E0,1E0,1E0,1E0,1E0,5.114326E-1,1E0,5.114326E-1,5.114326E-1,1E0,5.114326E-1,1E0,1E0,1E0,1E0,1E0,5.114326E-1,1E0,1E0,5.114326E-1,1E0]},"learner_model_param":{"base_score":"5E-1","num_class":"0","num_feature":"200","num_target":"1"},"objective":{"name":"binary:logistic","reg_loss_param":{"scale_pos_weight":"1"}}},"version":[1,6,0]}