{"learner":{"attributes":{"best_iteration":"49","best_ntree_limit":"0"},"feature_names":["0","1","2","3","4","5","6","7","8","9","10","11","12","13","14","15","16","17","18","19","20","21","22","23","24","25","26","27","28","29","30","31","32","33","34","35","36","37","38","39","40","41","42","43","44","45","46","47","48","49","50","51","52","53","54","55","56","57","58","59","60","61","62","63","64","65","66","67","68","69","70","71","72","73","74","75","76","77","78","79","80","81","82","83","84","85","86","87","88","89","90","91","92","93","94","95","96","97","98","99","100","101","102","103","104","105","106","107","108","109","110","111","112","113","114","115","116","117","118","119","120","121","122","123","124","125","126","127","128","129","130","131","132","133","134","135","136","137","138","139","140","141","142","143","144","145","146","147","148","149","150","151","152","153","154","155","156","157","158","159","160","161","162","163","164","165","166"],"feature_types":["float","float","float","float","float","float","float","float","float","float","float","float","float","float","float","float","float","float","float","float","float","float","float","float","float","float","float","float","float","float","float","float","float","float","float","float","float","float","float","float","float","float","float","float","float","float","float","float","float","float","float","float","float","float","float","float","float","float","float","float","float","float","float","float","float","float","float","float","float","float","float","float","float","float","float","float","float","float","float","float","float","float","float","float","float","float","float","float","float","float","float","float","float","float","float","float","float","float","float","float","float","float","float","float","float","float","float","float","float","float","float","float","float","float","float","float","float","float","float","float","float","float","float","float","float","float","float","float","float","float","float","float","float","float","float","float","float","float","float","float","float","float","float","float","float","float","float","float","float","float","float","float","float","float","float","float","float","float","float","float","float","float","float","float","float","float","float"],"gradient_booster":{"model":{"boosted_rounds":50,"weights":[0E0,0E0,0E0,0E0,0E0,0E0,0E0,0E0,-8.374393E-2,0E0,1.0696634E-3,-8.041017E-2,0E0,-6.598221E-4,1.6935432E-3,-1.1896235E-3,-4.8654564E-3,-6.2545557E-3,2.8177735E-4,7.1730814E-3,0E0,-2.1399945E-2,5.758138E-3,1.6897423E-2,-8.672568E-3,-1.7047442E-2,2.5444152E-2,-3.1326495E-3,-2.639577E-3,1.9167135E-3,-9.480772E-3,0E0,-1.1740683E-2,-1.1009092E-2,3.4974387E-3,-8.74252E-3,-4.7700405E-2,2.7233725E-2,-3.9392086E-3,-3.750454E-4,-3.7347473E-4,-4.3649073E-3,6.0217276E-2,-4.768766E-2,-7.425605E-3,-6.067655E-2,-3.705498E-3,-7.546286E-2,1.301702E-4,-1.2592926E-2,-1.839261E-2,-1.2209882E-2,-9.434718E-3,-9.151844E-2,-1.1822659E-1,-7.2230515E-3,-1.8101133E-3,-2.9354034E-2,-6.3681896E-3,4.695726E-3,-1.1658615E-2,-1.1650562E-2,5.2380037E-2,-1.3683956E-3,-2.3358356E-2,-3.332465E-2,-8.2768593E-4,-9.514902E-3,3.2051912E-4,-6.4601717E-3,-1.1537849E-2,-6.520665E-3,-1.4982319E-2,-9.056307E-3,-6.012996E-2,7.840654E-2,-2.0140775E-2,-2.6693845E-2,1.7995548E-3,-5.107707E-2,-1.732984E-2,-3.7827495E-2,-1.0904832E-2,-1.3554579E-2,-7.304504E-2,-9.806328E-4,3.0119464E-2,5.490762E-2,-4.2303912E-2,-3.8406406E-2,-3.758365E-2,-3.831543E-2,-3.943906E-2,-2.553777E-2,-2.6185134E-2,-1.5433529E-1,1.6770031E-2,-1.2909377E-1,-4.8584577E-2,6.22683E-3,5.9930257E-2,3.327831E-2,-1.52327E-2,1.7547438E-2,-2.050254E-2,-5.3378837E-3,1.7945731E-2,6.0372844E-2,8.531162E-3,1.3452148E-2,-1.3763128E-2,1.2033209E-2,-1.1619547E-2,-4.2299297E-2,2.2582246E-2,2.891145E-2,2.578511E-2,-1.4443941E-2,7.039837E-2,-6.680559E-3,-1.23293875E-2,3.3202384E-2,-6.677479E-3,-1.1619094E-1,-2.1508578E-2,2.6430968E-2,-1.7084127E-2,-8.1098214E-2,8.335801E-2,6.507405E-2,-1.9422716E-2,-1.6834518E-1,1.5702402E-2,-1.03079736E-1,4.9645092E-2,4.396982E-2,-5.2844983E-2,-6.78289E-3,3.5305902E-2,-1.5337443E-1,-1.1764719E-1,-2.2502348E-4,-4.3541778E-2,-7.8955635E-2,3.502791E-2,2.446752E-2,-1.4183345E-1,7.0198745E-2,-1.0801789E-2,-2.3370273E-2,-7.727004E-2,-8.4240034E-2,-5.21746E-2,4.7488052E-2,-4.307374E-2,2.7826587E-2,-3.201521E-2,-9.227205E-2,-1.7638894E-2,-8.3729304E-2,-3.614946E-2,-1.6283337E-2,9.016055E-3,1.36885885E-2,-1.5558389E-2,9.970785E-3,-8.478211E-3,1.9309031E0]},"name":"gblinear"},"learner_model_param":{"base_score":"5E-1","num_class":"0","num_feature":"167","num_target":"1"},"objective":{"name":"binary:logistic","reg_loss_param":{"scale_pos_weight":"1"}}},"version":[1,6,0]}