{"learner":{"attributes":{"best_iteration":"49","best_ntree_limit":"50"},"feature_names":["0","1","2","3","4","5","6","7","8","9","10","11","12","13","14","15","16","17","18","19","20","21","22","23","24","25","26","27","28","29","30","31","32","33","34","35","36","37","38","39","40","41","42","43","44","45","46","47","48","49","50","51","52","53","54","55","56","57","58","59","60","61","62","63","64","65","66","67","68","69","70","71","72","73","74","75","76","77","78","79","80","81","82","83","84","85","86","87","88","89","90","91","92","93","94","95","96","97","98","99","100","101","102","103","104","105","106","107","108","109","110","111","112","113","114","115","116","117","118","119","120","121","122","123","124","125","126","127","128","129","130","131","132","133","134","135","136","137","138","139","140","141","142","143","144","145","146","147","148","149","150","151","152","153","154","155","156","157","158","159","160","161","162","163","164","165","166","167","168","169","170","171","172","173","174","175","176","177","178","179","180","181","182","183","184","185","186","187","188","189","190","191","192","193","194","195","196","197","198","199"],"feature_types":["float","float","float","float","float","float","float","float","float","float","float","float","float","float","float","float","float","float","float","float","float","float","float","float","float","float","float","float","float","float","float","float","float","float","float","float","float","float","float","float","float","float","float","float","float","float","float","float","float","float","float","float","float","float","float","float","float","float","float","float","float","float","float","float","float","float","float","float","float","float","float","float","float","float","float","float","float","float","float","float","float","float","float","float","float","float","float","float","float","float","float","float","float","float","float","float","float","float","float","float","float","float","float","float","float","float","float","float","float","float","float","float","float","float","float","float","float","float","float","float","float","float","float","float","float","float","float","float","float","float","float","float","float","float","float","float","float","float","float","float","float","float","float","float","float","float","float","float","float","float","float","float","float","float","float","float","float","float","float","float","float","float","float","float","float","float","float","float","float","float","float","float","float","float","float","float","float","float","float","float","float","float","float","float","float","float","float","float","float","float","float","float","float","float","float","float","float","float","float","float"],"gradient_booster":{"gbtree":{"model":{"gbtree_model_param":{"num_parallel_tree":"1","num_trees":"50","size_leaf_vector":"0"},"tree_info":[0,0,0,0,0,0,0,0,0,0,0,0,0,0,0,0,0,0,0,0,0,0,0,0,0,0,0,0,0,0,0,0,0,0,0,0,0,0,0,0,0,0,0,0,0,0,0,0,0,0],"trees":[{"base_weights":[1.0123142E0,1.4272918E0,-9.540575E-1,1.5323842E0,-3.4664366E-1,2.0222779E-1,-1.4845272E0,1.5811675E0,-2.3524334E-1,-8.5711205E-1,1.1578039E0,-6.6663283E-1,1.3683757E0,1.9997122E0,-1.5957355E0,-3.9993095E-1,1.6222024E0,-1.1999136E0,1.1427338E0,4.4434854E-1,-1.4736388E0,-3.9965472E-1,1.7141623E0,-1.1627506E0,1.9997842E0,1.7418798E0,-2.8546765E-1,-1.6521646E0,9.995684E-1,-1.5293102E0,1.9997842E0,1.6512978E0,-8.5701954E-1,9.995684E-1,-1.7498921E0,-0E0,1.9997842E0,-1.9996547E0,1.3844826E0,6.663789E-1,-1.874946E0,1.9998274E0,9.995684E-1,-0E0,-1.7240784E0,1.9999361E0,-0E0,-1.727263E0,-0E0,-1.9998672E0,-0E0,1.6686376E0,-3.9982736E-1,1.9995683E0,-1.9998274E0,-9.995684E-1,-1.9998561E0,1.9997842E0,3.9965472E-1,-9.995684E-1,-1.9999384E0,-9.997842E-1,1.3330456E0,-0E0,-1.999931E0,-0E0,-1.7674319E0,1.9995683E0,-1.9995683E0,1.7670311E0,1.3406531E0,1.9995683E0,-1.9997122E0,-0E0,-1.9995683E0,-1.8095136E0,-0E0],"categories":[],"categories_nodes":[],"categories_segments":[],"categories_sizes":[],"default_left":[1,1,1,1,1,1,1,1,1,1,1,1,1,0,1,1,1,1,1,1,1,0,1,1,0,1,0,1,0,1,0,1,1,0,1,0,0,0,1,0,1,0,0,1,1,0,0,1,1,0,0,1,1,0,0,0,0,0,0,0,0,1,0,0,0,0,1,0,0,0,0,0,0,0,0,0,0],"id":0,"left_children":[1,3,5,7,9,11,13,15,17,19,21,23,25,-1,27,29,31,33,35,37,39,-1,41,43,-1,45,-1,47,-1,49,-1,51,53,-1,55,-1,-1,-1,57,-1,59,-1,-1,61,63,-1,-1,65,67,-1,-1,69,71,-1,-1,-1,-1,-1,-1,-1,-1,73,-1,-1,-1,-1,75,-1,-1,-1,-1,-1,-1,-1,-1,-1,-1],"loss_changes":[3.3129623E2,6.2500183E1,4.3396782E1,2.7292603E1,1.4399361E1,2.2544447E1,1.8792435E1,2.5039185E1,1.1299021E1,1.1233838E1,4.116468E0,1.6866062E1,5.868944E0,0E0,6.8834534E0,1.6938475E1,2.1766724E1,6.048662E0,3.4278316E0,1.0339343E1,8.159166E0,0E0,7.131758E-1,7.0163555E0,0E0,3.4836483E0,0E0,5.707451E0,0E0,3.0584173E0,0E0,1.0608154E1,1.1425859E1,0E0,7.489214E-1,0E0,0E0,0E0,1.9683542E0,0E0,8.7403107E-1,0E0,0E0,4.664653E0,3.448038E0,0E0,0E0,3.0528107E0,7.9965477E0,0E0,0E0,9.542969E0,9.596893E0,0E0,0E0,0E0,0E0,0E0,0E0,0E0,0E0,1.9991369E0,0E0,0E0,0E0,0E0,3.1981964E0,0E0,0E0,0E0,0E0,0E0,0E0,0E0,0E0,0E0,0E0],"parents":[2147483647,0,0,1,1,2,2,3,3,4,4,5,5,6,6,7,7,8,8,9,9,10,10,11,11,12,12,14,14,15,15,16,16,17,17,18,18,19,19,20,20,22,22,23,23,25,25,27,27,29,29,31,31,32,32,34,34,38,38,40,40,43,43,44,44,47,47,48,48,51,51,52,52,61,61,66,66],"right_children":[2,4,6,8,10,12,14,16,18,20,22,24,26,-1,28,30,32,34,36,38,40,-1,42,44,-1,46,-1,48,-1,50,-1,52,54,-1,56,-1,-1,-1,58,-1,60,-1,-1,62,64,-1,-1,66,68,-1,-1,70,72,-1,-1,-1,-1,-1,-1,-1,-1,74,-1,-1,-1,-1,76,-1,-1,-1,-1,-1,-1,-1,-1,-1,-1],"split_conditions":[8.110975E-1,5.832491E-1,7.8692013E-1,8.7591445E-1,5.8949447E-1,6.2408847E-1,6.030561E-1,1.862762E-1,4.8793843E-1,2.0699939E-1,7.19545E-1,7.249282E-1,7.1833444E-1,6.213354E-1,5E-1,8.767812E-1,9.271878E-1,3.2202378E-1,1.4975911E-1,3.8808596E-1,5.7024634E-1,-1.2417767E-1,8.39488E-1,7.043437E-1,6.2135774E-1,8.0884165E-1,-8.869834E-2,9.9973446E-1,3.105783E-1,8.9545465E-1,6.2135774E-1,9.2459744E-1,4.1529807E-1,3.105783E-1,7.777009E-1,-0E0,6.2135774E-1,-6.213175E-1,1.7449737E-1,2.0705219E-1,4.0951036E-2,6.2137115E-1,3.105783E-1,6.7139006E-1,9.3211114E-2,6.2140495E-1,-0E0,1.7150594E-1,4.203957E-1,-6.2138355E-1,-0E0,6.030647E-1,6.393301E-1,6.212907E-1,-6.2137115E-1,-3.105783E-1,-6.213801E-1,6.2135774E-1,1.2417767E-1,-3.105783E-1,-6.2140566E-1,8.30093E-1,4.141938E-1,-0E0,-6.2140334E-1,-0E0,5E-1,6.212907E-1,-6.212907E-1,5.4903847E-1,4.1655752E-1,6.212907E-1,-6.213354E-1,-0E0,-6.212907E-1,-5.622383E-1,-0E0],"split_indices":[103,122,67,49,19,98,15,199,92,29,39,36,130,0,196,20,95,20,29,15,30,0,0,15,0,30,0,17,0,14,0,66,0,0,0,0,0,0,44,0,1,0,0,17,4,0,0,2,88,0,0,58,22,0,0,0,0,0,0,0,0,0,0,0,0,0,162,0,0,0,0,0,0,0,0,0,0],"split_type":[0,0,0,0,0,0,0,0,0,0,0,0,0,0,0,0,0,0,0,0,0,0,0,0,0,0,0,0,0,0,0,0,0,0,0,0,0,0,0,0,0,0,0,0,0,0,0,0,0,0,0,0,0,0,0,0,0,0,0,0,0,0,0,0,0,0,0,0,0,0,0,0,0,0,0,0,0],"sum_hessian":[4.06E2,3.3525E2,7.075E1,3.165E2,1.875E1,2.225E1,4.85E1,3.08E2,8.5E0,1.4E1,4.75E0,1.275E1,9.5E0,1.5E0,4.7E1,6.25E0,3.0175E2,5E0,3.5E0,4.5E0,9.5E0,1.25E0,3.5E0,1.075E1,2E0,7.75E0,1.75E0,4.6E1,1E0,4.25E0,2E0,2.9825E2,3.5E0,1E0,4E0,1.5E0,2E0,1.25E0,3.25E0,1.5E0,8E0,2.5E0,1E0,3.5E0,7.25E0,6.75E0,1E0,4.4E1,2E0,3.25E0,1E0,2.9575E2,2.5E0,1E0,2.5E0,1E0,3E0,2E0,1.25E0,1E0,7E0,2E0,1.5E0,1E0,6.25E0,1E0,4.3E1,1E0,1E0,2.275E2,6.825E1,1E0,1.5E0,1E0,1E0,4.2E1,1E0],"tree_param":{"num_deleted":"0","num_feature":"200","num_nodes":"77","size_leaf_vector":"0"}},{"base_weights":[7.546842E-1,1.0632479E0,-7.158469E-1,1.1049266E0,-1.5853777E0,1.5138981E-1,-1.115371E0,7.466118E-1,1.2733698E0,-9.0354794E-1,-1.7949095E0,-5.0222266E-1,1.0231259E0,1.5369102E0,-1.1982772E0,3.551381E-1,1.1127251E0,1.3002697E0,-7.684201E-1,-1.5369778E0,-2.1113918E0,-9.961839E-1,1.0787843E0,1.4545493E0,1.1435363E-2,-1.3230066E0,-4.6128464E-1,-4.6650878E-1,7.936578E-1,1.2497871E0,-5.389114E-1,1.3171784E0,-1.5814993E0,-1.536936E0,3.0710754E-1,6.1478578E-2,-1.3695835E0,2.9530042E-1,1.6437229E0,7.740665E-1,1.6101023E0,-1.2918438E0,1.1285478E0,6.4895463E-1,-1.3868914E0,2.8182697E-1,-1.5668366E0,-8.6589295E-1,1.1537778E0,2.7675068E-1,1.4039775E0,6.739386E-1,1.3786881E0,-1.6859753E0,1.1120266E0,1.3343772E0,-8.1571263E-1,-1.0337937E0,1.1235073E0,-1.7120078E-1,-1.6214879E0,1.7953696E0,1.5370706E0,-1.4694862E0,-1.8072888E-1,-7.657366E-1,1.6112496E0,-3.8912573E-1,-1.9848449E0,1.7089236E0,1.408246E-1,4.446764E-1,-2.0204926E0,1.5701133E0,-5.8727518E-2,1.6340808E0,-6.0928255E-2,4.953225E-1,1.4876894E0,-2.259345E0,-1.1135564E0,1.3548003E0,-4.403117E-1,-1.8641411E0,-1.5370847E0,-1.5269876E0,-3.188881E-1,5.861496E-1,-9.5651895E-1],"categories":[],"categories_nodes":[],"categories_segments":[],"categories_sizes":[],"default_left":[1,1,1,1,1,1,1,1,1,0,1,1,1,0,1,1,1,1,1,0,0,1,1,1,1,1,1,1,1,1,1,1,0,0,0,1,1,0,0,0,1,0,0,0,1,1,0,1,1,1,1,1,1,1,0,1,0,0,0,0,1,0,0,1,1,0,0,0,0,0,0,0,0,0,0,0,0,0,0,0,0,0,0,0,0,0,0,0,0],"id":1,"left_children":[1,3,5,7,9,11,13,15,17,-1,19,21,23,-1,25,27,29,31,33,-1,-1,35,37,39,41,43,45,47,49,51,53,55,-1,-1,-1,57,59,-1,-1,-1,61,-1,-1,-1,63,65,-1,67,69,71,73,75,77,79,-1,81,-1,-1,-1,-1,83,-1,-1,85,87,-1,-1,-1,-1,-1,-1,-1,-1,-1,-1,-1,-1,-1,-1,-1,-1,-1,-1,-1,-1,-1,-1,-1,-1],"loss_changes":[1.7199336E2,3.4585907E1,2.2778484E1,1.8615936E1,6.922474E-1,1.1813844E1,9.896545E0,1.4136177E1,1.152417E1,0E0,3.014555E-1,9.253544E0,3.877243E0,0E0,4.01112E0,1.7175104E1,1.1538296E1,1.0090637E1,2.2554722E0,0E0,0E0,3.5661945E0,1.247592E0,6.582432E-1,3.867417E0,4.70253E0,5.1907773E0,1.07337475E1,9.804407E0,3.4924698E0,7.39579E0,7.5525513E0,0E0,0E0,0E0,2.7399309E0,2.01367E0,0E0,0E0,0E0,6.71463E-2,0E0,0E0,0E0,3.6011047E0,5.261635E0,0E0,7.0981817E0,1.8435888E0,6.4910994E0,3.463974E0,6.0746765E0,3.701828E0,7.5487614E-1,0E0,7.402771E0,0E0,0E0,0E0,0E0,1.1145592E-1,0E0,0E0,2.2378998E0,1.3788859E0,0E0,0E0,0E0,0E0,0E0,0E0,0E0,0E0,0E0,0E0,0E0,0E0,0E0,0E0,0E0,0E0,0E0,0E0,0E0,0E0,0E0,0E0,0E0,0E0],"parents":[2147483647,0,0,1,1,2,2,3,3,4,4,5,5,6,6,7,7,8,8,10,10,11,11,12,12,14,14,15,15,16,16,17,17,18,18,21,21,22,22,23,23,24,24,25,25,26,26,27,27,28,28,29,29,30,30,31,31,35,35,36,36,40,40,44,44,45,45,47,47,48,48,49,49,50,50,51,51,52,52,53,53,55,55,60,60,63,63,64,64],"right_children":[2,4,6,8,10,12,14,16,18,-1,20,22,24,-1,26,28,30,32,34,-1,-1,36,38,40,42,44,46,48,50,52,54,56,-1,-1,-1,58,60,-1,-1,-1,62,-1,-1,-1,64,66,-1,68,70,72,74,76,78,80,-1,82,-1,-1,-1,-1,84,-1,-1,86,88,-1,-1,-1,-1,-1,-1,-1,-1,-1,-1,-1,-1,-1,-1,-1,-1,-1,-1,-1,-1,-1,-1,-1,-1],"split_conditions":[8.110975E-1,5E-1,7.8692013E-1,4.4744372E-1,1.1609388E-1,6.2408847E-1,6.030561E-1,4.748383E-1,9.271878E-1,-2.8074354E-1,3.666519E-1,8.5911226E-1,6.2344587E-1,4.7753704E-1,9.616515E-1,3.8042238E-1,7.5915176E-1,9.99993E-1,6.219826E-1,-4.7755805E-1,-6.560356E-1,6.9117105E-1,2.2099894E-1,3.7026796E-1,9.6741784E-1,2.722603E-1,9.4461536E-1,3.8885048E-1,5.321498E-1,2.9015356E-1,6.9823956E-1,9.478993E-1,-4.9139145E-1,-4.7754508E-1,9.542212E-2,4.2057633E-1,6.313256E-1,9.1753505E-2,5.107251E-1,2.4051206E-1,7.813561E-1,-4.0139186E-1,3.506538E-1,2.0163825E-1,9.991269E-1,4.8112565E-1,-4.8683557E-1,4.9893105E-1,6.557739E-1,9.361268E-1,8.010658E-1,4.8748428E-1,1.2758744E-1,6.3158795E-2,3.4552044E-1,9.8645735E-1,-2.5345203E-1,-3.212125E-1,3.4908763E-1,-5.3194206E-2,3.0896974E-1,5.578436E-1,4.775869E-1,7.4023104E-1,9.925471E-1,-2.3792385E-1,5.006352E-1,-1.2090619E-1,-6.167159E-1,5.3098375E-1,4.375595E-2,1.3816647E-1,-6.2779206E-1,4.8785368E-1,-1.8247368E-2,5.077292E-1,-1.8931163E-2,1.5390284E-1,4.6224353E-1,-7.020065E-1,-3.4599578E-1,4.2095327E-1,-1.368103E-1,-5.792118E-1,-4.7759128E-1,-4.7445396E-1,-9.9082485E-2,1.8212394E-1,-2.972023E-1],"split_indices":[103,167,67,45,1,98,15,44,95,0,35,24,22,0,71,155,35,120,4,0,0,15,17,1,8,112,66,3,15,28,41,21,0,0,0,39,73,0,0,0,2,0,0,0,68,78,0,116,18,24,18,42,84,0,0,77,0,0,0,0,1,0,0,18,1,0,0,0,0,0,0,0,0,0,0,0,0,0,0,0,0,0,0,0,0,0,0,0,0],"split_type":[0,0,0,0,0,0,0,0,0,0,0,0,0,0,0,0,0,0,0,0,0,0,0,0,0,0,0,0,0,0,0,0,0,0,0,0,0,0,0,0,0,0,0,0,0,0,0,0,0,0,0,0,0,0,0,0,0,0,0,0,0,0,0,0,0,0,0,0,0,0,0,0,0,0,0,0,0,0,0,0,0,0,0,0,0,0,0,0,0],"sum_hessian":[3.790463E2,3.1330527E2,6.574101E1,3.0845166E2,4.8536177E0,2.0733736E1,4.5007275E1,9.863552E1,2.0981615E2,1.1414205E0,3.712197E0,1.1849039E1,8.884697E0,1.3640585E0,4.3643215E1,4.7667404E1,5.0968113E1,2.0708804E2,2.7281034E0,2.0460443E0,1.6661526E0,9.028498E0,2.8205416E0,6.22829E0,2.6564069E0,3.7325607E1,6.3176093E0,1.6587223E1,3.1080183E1,4.7062836E1,3.905275E0,2.058802E2,1.2078444E0,1.5913844E0,1.136719E0,2.355457E0,6.6730404E0,1.1820215E0,1.6385201E0,1.1593533E0,5.068937E0,1.2258651E0,1.4305418E0,1.1710635E0,3.615454E1,3.7778716E0,2.5397377E0,1.3307361E1,3.2798624E0,1.6828274E1,1.4251909E1,8.608557E0,3.845428E1,2.3044298E0,1.6008453E0,2.0423355E2,1.646653E0,1.15938E0,1.1960771E0,1.1593567E0,5.5136833E0,1.4315238E0,3.637413E0,3.383711E1,2.3174334E0,2.112741E0,1.6651305E0,9.331673E0,3.975688E0,2.118435E0,1.1614275E0,1.5682117E1,1.1461561E0,1.27985325E1,1.4533765E0,3.7324724E0,4.8760843E0,4.224242E0,3.4230038E1,1.1508819E0,1.1535479E0,2.019102E2,2.3233404E0,1.4215922E0,4.092091E0,3.222622E1,1.610888E0,1.1651305E0,1.1523027E0],"tree_param":{"num_deleted":"0","num_feature":"200","num_nodes":"89","size_leaf_vector":"0"}},{"base_weights":[6.0850656E-1,7.8822464E-1,-1.0544786E0,1.0605202E0,3.8198632E-1,9.8813957E-1,-1.1520228E0,1.1048503E0,-6.261304E-1,-1.0281423E-2,8.5115933E-1,-1.2218205E0,7.5459E-2,7.3060346E-1,1.2257667E0,-2.4045393E0,1.4751538E0,3.6749646E-1,-3.9980903E-1,1.0747867E0,2.5871475E-3,-1.2814244E0,3.5721682E-2,-1.6867907E0,7.941654E-1,1.2459077E0,-7.851928E-1,-3.172746E0,-1.5883586E0,1.4440998E0,1.504644E0,-1.0169302E0,6.6865927E-1,2.9192066E-1,-9.363335E-1,1.1893376E0,-5.215667E-1,9.0137476E-1,-5.2037305E-1,-4.6042228E-1,-1.3454726E0,9.169003E-1,-3.196095E-1,1.2764906E0,2.963682E-1,-1.5731986E0,5.5857176E-1,7.624946E-1,-1.6688589E0,-1.4643867E0,5.174674E-1,-1.0861373E0,4.6656105E-1,1.2523173E0,-2.7260444E-1,7.593656E-1,-1.4295727E0,1.5783355E-2,1.42724E0,1.3787768E0,-9.731219E-1,-5.194911E-1,-3.9996397E-1,-1.389237E0,-3.5957175E-1,9.8409456E-1,-1.1290574E0,-2.0345988E0,7.416107E-1,1.2912922E0,9.0252884E-2,-1.1540635E0,1.3690135E0,-2.240129E0,-7.9489005E-1,-1.1932483E0,8.4896284E-1,7.5519305E-1,-1.3906565E0,-1.1991721E0,6.500365E-1,3.4665823E-2,1.3070481E0,1.3620445E0,1.5197269E0,-4.701666E-1,-2.620247E0,-1.428552E0,-4.7847378E-1],"categories":[],"categories_nodes":[],"categories_segments":[],"categories_sizes":[],"default_left":[1,1,1,1,1,0,1,1,1,1,1,1,0,1,1,1,1,1,1,1,1,1,0,0,1,1,0,0,0,1,1,1,1,1,1,1,1,1,1,1,1,1,1,1,1,1,0,1,0,0,1,1,0,1,0,0,0,0,1,0,1,0,0,1,0,0,0,0,0,0,0,0,0,0,0,0,0,0,0,0,0,0,0,0,0,0,0,0,0],"id":2,"left_children":[1,3,5,7,9,-1,11,13,15,17,19,21,-1,23,25,27,-1,31,33,35,37,39,-1,-1,41,43,-1,-1,-1,-1,-1,45,47,49,51,53,55,57,59,61,63,65,67,69,71,73,-1,75,-1,-1,77,79,-1,81,-1,-1,-1,-1,83,-1,85,-1,-1,87,-1,-1,-1,-1,-1,-1,-1,-1,-1,-1,-1,-1,-1,-1,-1,-1,-1,-1,-1,-1,-1,-1,-1,-1,-1],"loss_changes":[9.963327E1,3.32791E1,6.478157E0,1.3467819E1,2.2220415E1,0E0,2.6591225E0,7.9413757E0,1.7237574E1,9.676297E0,1.0432423E1,2.2013588E0,0E0,6.585123E0,5.3728943E0,1.5644093E0,6.637573E-4,1.3917559E1,1.2015604E1,7.9568825E0,5.3900676E0,1.4733429E0,0E0,0E0,5.7090015E0,3.8132324E0,0E0,0E0,0E0,0E0,0E0,5.2271733E0,6.0132866E0,5.6015143E0,3.8321657E0,3.7383995E0,3.388339E0,1.9638243E0,6.2326956E0,6.8498254E-3,1.121273E0,5.171337E0,7.544111E0,2.2334442E0,6.376532E0,2.2867012E0,0E0,4.457405E0,0E0,0E0,5.684577E0,3.233324E0,0E0,2.5932808E0,0E0,0E0,0E0,0E0,1.47128105E-2,0E0,4.847996E0,0E0,0E0,8.9072037E-1,0E0,0E0,0E0,0E0,0E0,0E0,0E0,0E0,0E0,0E0,0E0,0E0,0E0,0E0,0E0,0E0,0E0,0E0,0E0,0E0,0E0,0E0,0E0,0E0,0E0],"parents":[2147483647,0,0,1,1,2,2,3,3,4,4,6,6,7,7,8,8,9,9,10,10,11,11,13,13,14,14,15,15,16,16,17,17,18,18,19,19,20,20,21,21,24,24,25,25,31,31,32,32,33,33,34,34,35,35,36,36,37,37,38,38,39,39,40,40,41,41,42,42,43,43,44,44,45,45,47,47,50,50,51,51,53,53,58,58,60,60,63,63],"right_children":[2,4,6,8,10,-1,12,14,16,18,20,22,-1,24,26,28,-1,32,34,36,38,40,-1,-1,42,44,-1,-1,-1,-1,-1,46,48,50,52,54,56,58,60,62,64,66,68,70,72,74,-1,76,-1,-1,78,80,-1,82,-1,-1,-1,-1,84,-1,86,-1,-1,88,-1,-1,-1,-1,-1,-1,-1,-1,-1,-1,-1,-1,-1,-1,-1,-1,-1,-1,-1,-1,-1,-1,-1,-1,-1],"split_conditions":[8.9214146E-1,3.6249325E-1,2.7292493E-1,9.84465E-1,2.2624813E-1,3.0702722E-1,9.9973446E-1,2.8148156E-1,2.6912215E-1,6.9964206E-1,5.017994E-1,4.729503E-1,2.3446048E-2,4.9875367E-1,9.302705E-1,3.7542316E-1,4.5834857E-1,2.500962E-1,8.398224E-1,9.082329E-1,9.707697E-2,3.4937483E-1,1.1099169E-2,-5.241068E-1,4.9893105E-1,7.541554E-1,-2.4396913E-1,-9.858115E-1,-4.9352273E-1,4.486997E-1,4.6751156E-1,9.9992514E-1,9.5196795E-1,5.4319307E-2,9.7662365E-1,9.015822E-1,7.817763E-1,4.2343298E-1,1.5626514E-1,8.8818765E-1,7.437253E-1,9.9030316E-1,6.914679E-1,8.637525E-1,5.384984E-1,8.3846885E-1,1.7355517E-1,1.5366197E-1,-5.1853514E-1,-4.550031E-1,9.271538E-1,5.8851266E-1,1.449663E-1,4.0280458E-1,-8.4701575E-2,2.3594432E-1,-4.4418597E-1,4.904084E-3,4.1239002E-1,4.2840305E-1,9.217649E-1,-1.6141231E-1,-1.2427376E-1,9.996786E-1,-1.117234E-1,3.0577037E-1,-3.5081214E-1,-6.321751E-1,2.3042764E-1,4.012205E-1,2.8042689E-2,-3.585818E-1,4.2536947E-1,-6.9603586E-1,-2.4698219E-1,-3.7075704E-1,2.6378328E-1,2.3464784E-1,-4.3209422E-1,-3.7259766E-1,2.019744E-1,1.0771101E-2,4.0611604E-1,4.232041E-1,4.7219798E-1,-1.4608659E-1,-8.141432E-1,-4.4386882E-1,-1.4866774E-1],"split_indices":[67,103,11,97,46,0,17,53,38,15,56,184,0,30,66,3,1,41,69,79,0,86,0,0,116,35,0,0,0,2147483647,2147483647,75,199,88,125,15,21,38,39,41,18,28,199,67,41,39,0,199,0,0,49,19,0,103,0,0,0,0,76,0,119,0,0,67,0,0,0,0,0,0,0,0,0,0,0,0,0,0,0,0,0,0,0,0,0,0,0,0,0],"split_type":[0,0,0,0,0,0,0,0,0,0,0,0,0,0,0,0,0,0,0,0,0,0,0,0,0,0,0,0,0,0,0,0,0,0,0,0,0,0,0,0,0,0,0,0,0,0,0,0,0,0,0,0,0,0,0,0,0,0,0,0,0,0,0,0,0,0,0,0,0,0,0,0,0,0,0,0,0,0,0,0,0,0,0,0,0,0,0,0,0],"sum_hessian":[3.3336874E2,3.0085568E2,3.2513073E1,1.8012169E2,1.2073398E2,1.4816773E0,3.1031397E1,1.7550905E2,4.61264E0,6.575576E1,5.4978218E1,2.9362146E1,1.6692518E0,4.2859283E1,1.3264977E2,2.4983673E0,2.1142726E0,3.3380775E1,3.2374985E1,4.3511074E1,1.1467143E1,2.8033768E1,1.3283778E0,1.0978776E0,4.1761406E1,1.3133458E2,1.3151842E0,1.2867357E0,1.2116318E0,1.0369608E0,1.0773118E0,5.9638577E0,2.7416918E1,1.4141649E1,1.8233335E1,4.059811E1,2.9129627E0,4.218252E0,7.248891E0,2.0292015E0,2.6004566E1,3.7616554E1,4.1448517E0,1.27236084E2,4.098499E0,4.40784E0,1.5560181E0,2.635897E1,1.0579476E0,1.6091856E0,1.2532464E1,1.6474468E1,1.7588675E0,3.892168E1,1.6764306E0,1.2081455E0,1.7048172E0,1.5718964E0,2.6463559E0,1.3952537E0,5.853637E0,1.0227846E0,1.0064169E0,2.489886E1,1.1057061E0,3.6420624E1,1.1959317E0,1.584546E0,2.5603056E0,1.2566767E2,1.5684147E0,1.7422395E0,2.3562593E0,2.3734674E0,2.0343723E0,1.1158402E0,2.524313E1,1.1144269E1,1.3881947E0,1.5467682E1,1.0067868E0,1.6745324E0,3.7247147E1,1.5549282E0,1.0914277E0,4.4845324E0,1.3691051E0,2.3868073E1,1.0307882E0],"tree_param":{"num_deleted":"2","num_feature":"200","num_nodes":"89","size_leaf_vector":"0"}},{"base_weights":[5.083837E-1,6.5719914E-1,-8.996967E-1,8.7489927E-1,2.3617937E-1,7.6815975E-1,-9.854727E-1,9.3605936E-1,-4.7340026E-1,3.522039E-1,-8.238074E-1,-1.0564815E0,5.1979538E-2,9.709259E-1,-3.105672E-1,-7.251334E-2,-2.1140423E0,7.1995914E-2,7.5466126E-1,-1.2727803E0,4.3191236E-1,-1.1666293E0,-4.307214E-1,1.0036001E0,-6.395463E-1,-1.2790301E0,9.2937535E-1,3.987483E-1,-1.4773728E0,-3.0984843E-1,5.342004E-1,8.6855626E-1,-1.913816E0,-2.167037E0,-8.176032E-1,1.333083E0,-7.1837795E-1,-1.2225864E0,-1.05286814E-1,5.631355E-1,-1.288825E0,6.373417E-1,1.0863147E0,-1.4203811E0,7.3582625E-1,-1.8320453E0,-5.253102E-1,-3.862234E-1,1.0396482E0,-4.537658E-1,1.0126106E0,9.471431E-1,-1.1943058E-1,1.0548685E0,3.0664286E-1,-2.7085338E0,-1.5745995E0,1.0607753E0,-1.4115225E0,-1.2693298E0,-4.0207213E-1,7.959442E-1,-1.5449448E0,1.1134757E0,2.7620232E-1,-1.3490505E0,-1.4903818E0,1.449781E0,4.6673426E-1,-2.3698656E-1,-1.5565223E0,5.3070444E-1,1.3376944E0,-2.2663112E-1,1.2351481E0,-4.817226E-1,1.2161261E0,1.315707E0,5.345667E-1,-1.4780622E0,9.108522E-1,-1.2729273E0,-1.673732E0,-1.8478253E0,-1.2328253E0],"categories":[],"categories_nodes":[],"categories_segments":[],"categories_sizes":[],"default_left":[1,1,1,1,1,0,1,1,1,1,1,1,0,1,1,1,0,1,1,1,1,1,1,1,1,1,0,1,0,1,1,1,0,1,1,0,0,1,0,0,0,1,1,1,0,0,0,0,1,1,1,1,1,1,1,0,0,0,1,1,0,0,0,0,0,0,0,0,0,0,0,0,0,0,0,0,0,0,0,0,0,0,0,0,0],"id":3,"left_children":[1,3,5,7,9,-1,11,13,15,17,19,21,-1,23,25,27,-1,29,31,33,35,37,39,41,43,45,-1,47,-1,49,51,53,-1,55,57,-1,-1,59,-1,-1,-1,61,63,65,-1,-1,-1,-1,67,69,71,73,75,77,79,-1,-1,-1,81,83,-1,-1,-1,-1,-1,-1,-1,-1,-1,-1,-1,-1,-1,-1,-1,-1,-1,-1,-1,-1,-1,-1,-1,-1,-1],"loss_changes":[6.0106857E1,2.3777702E1,3.9225464E0,1.4101624E1,1.0874554E1,0E0,1.9214802E0,7.1105957E0,4.879301E0,8.987591E0,4.9185166E0,1.6815815E0,0E0,8.373917E0,5.344402E0,3.9484417E0,0E0,8.292846E0,9.94198E0,2.614459E0,2.381652E0,1.2319489E0,3.1163166E0,4.724365E0,3.3983867E0,1.040595E0,0E0,2.246611E0,0E0,4.8967724E0,5.7379484E0,3.2840347E0,0E0,6.934252E-1,4.7513895E0,0E0,0E0,7.5535965E-1,0E0,0E0,0E0,9.945478E0,2.798996E0,8.8534355E-3,0E0,0E0,0E0,0E0,5.768299E-1,5.5464478E0,3.9475226E-1,4.4044333E0,3.9817257E0,3.1968307E0,8.424747E0,0E0,0E0,0E0,1.16325855E-1,3.9252472E-1,0E0,0E0,0E0,0E0,0E0,0E0,0E0,0E0,0E0,0E0,0E0,0E0,0E0,0E0,0E0,0E0,0E0,0E0,0E0,0E0,0E0,0E0,0E0,0E0,0E0],"parents":[2147483647,0,0,1,1,2,2,3,3,4,4,6,6,7,7,8,8,9,9,10,10,11,11,13,13,14,14,15,15,17,17,18,18,19,19,20,20,21,21,22,22,23,23,24,24,25,25,27,27,29,29,30,30,31,31,33,33,34,34,37,37,41,41,42,42,43,43,48,48,49,49,50,50,51,51,52,52,53,53,54,54,58,58,59,59],"right_children":[2,4,6,8,10,-1,12,14,16,18,20,22,-1,24,26,28,-1,30,32,34,36,38,40,42,44,46,-1,48,-1,50,52,54,-1,56,58,-1,-1,60,-1,-1,-1,62,64,66,-1,-1,-1,-1,68,70,72,74,76,78,80,-1,-1,-1,82,84,-1,-1,-1,-1,-1,-1,-1,-1,-1,-1,-1,-1,-1,-1,-1,-1,-1,-1,-1,-1,-1,-1,-1,-1,-1],"split_conditions":[8.9214146E-1,6.030647E-1,2.7292493E-1,5.832491E-1,8.111894E-1,2.3867676E-1,9.9973446E-1,9.1671324E-1,8.1296504E-1,2.1388622E-1,4.9997607E-1,9.616515E-1,1.6150687E-2,9.24086E-1,4.9228516E-1,8.7400436E-1,-6.5685916E-1,3.1325802E-1,9.567439E-1,8.337345E-1,9.0513444E-1,7.653754E-1,6.31428E-1,1.5477464E-1,2.1810528E-2,4.3780416E-1,2.8876844E-1,3.6409545E-1,-4.5903802E-1,5.770955E-1,3.9987978E-1,7.7569604E-1,-5.9464633E-1,1.9134183E-1,1.6907795E-1,4.1420543E-1,-2.2320893E-1,9.909743E-1,-3.271392E-2,1.7497319E-1,-4.0045393E-1,9.0871894E-1,8.533838E-1,6.051438E-1,2.2863033E-1,-5.692392E-1,-1.6322039E-1,-1.200044E-1,7.8504276E-1,7.514752E-1,4.6958375E-1,1.4436574E-1,8.4698546E-1,9.9766433E-1,3.9371473E-1,-8.41575E-1,-4.892476E-1,3.2959604E-1,6.0130703E-1,3.8524574E-1,-1.24928795E-1,2.4730973E-1,-4.800335E-1,3.459707E-1,8.581948E-2,-4.191667E-1,-4.630801E-1,4.504649E-1,1.4502013E-1,-7.363466E-2,-4.8363075E-1,1.6489644E-1,4.1563824E-1,-7.04171E-2,3.8377583E-1,-1.4967719E-1,3.7786546E-1,4.0880647E-1,1.660965E-1,-4.5925224E-1,2.8301308E-1,-3.9551428E-1,-5.200493E-1,-5.741422E-1,-3.830541E-1],"split_indices":[67,58,11,122,84,0,17,79,78,46,51,71,0,95,69,26,0,23,39,84,1,90,24,95,113,17,0,82,0,76,129,41,0,39,24,0,0,15,0,0,0,12,67,27,0,0,0,0,82,45,29,42,91,109,82,0,0,0,19,103,0,0,0,0,0,0,0,0,0,0,0,0,0,0,0,0,0,0,0,0,0,0,0,0,0],"split_type":[0,0,0,0,0,0,0,0,0,0,0,0,0,0,0,0,0,0,0,0,0,0,0,0,0,0,0,0,0,0,0,0,0,0,0,0,0,0,0,0,0,0,0,0,0,0,0,0,0,0,0,0,0,0,0,0,0,0,0,0,0,0,0,0,0,0,0,0,0,0,0,0,0,0,0,0,0,0,0,0,0,0,0,0,0],"sum_hessian":[2.868463E2,2.5942847E2,2.7417849E1,1.7100467E2,8.8423805E1,1.3408523E0,2.6076996E1,1.6358464E2,7.420034E0,7.970033E1,8.723471E0,2.4406874E1,1.6701216E0,1.591342E2,4.4504333E0,5.963203E0,1.4568311E0,4.698703E1,3.2713303E1,6.4261823E0,2.297288E0,2.0753162E1,3.653712E0,1.5597006E2,3.1641393E0,2.4989583E0,1.951475E0,4.46508E0,1.4981232E0,2.5729773E1,2.1257257E1,3.1374355E1,1.3389474E0,2.1672935E0,4.258889E0,1.2883402E0,1.0089477E0,1.9713408E1,1.0397545E0,1.6927099E0,1.9610021E0,2.8735445E1,1.2723462E2,2.0184987E0,1.1456404E0,1.4410595E0,1.057899E0,2.0066586E0,2.458421E0,2.320482E1,2.5249517E0,1.3027542E1,8.229715E0,2.3561396E1,7.81296E0,1.1319479E0,1.0353456E0,1.0229369E0,3.2359521E0,1.8650396E1,1.0630112E0,2.6788713E1,1.9467318E0,1.23106636E2,4.127983E0,1.0028081E0,1.0156907E0,1.4323144E0,1.0261066E0,1.9392956E1,3.8118649E0,1.0176741E0,1.5072777E0,2.566438E0,1.0461104E1,6.4738884E0,1.7558271E0,1.5693217E1,7.868178E0,1.9758899E0,5.8370705E0,2.118062E0,1.1178901E0,1.106331E0,1.7544065E1],"tree_param":{"num_deleted":"0","num_feature":"200","num_nodes":"85","size_leaf_vector":"0"}},{"base_weights":[4.2868143E-1,6.093728E-1,-4.199053E-1,6.783984E-1,-3.1039676E-1,-7.169479E-2,-8.312592E-1,4.990152E-1,9.137572E-1,6.832218E-1,-6.342358E-1,-7.901909E-1,3.8618073E-1,5.47951E-1,-9.167839E-1,1.0509722E0,3.1415373E-1,9.674761E-1,-3.5958514E-1,-2.792726E-1,1.1318214E0,2.8099218E-1,-1.18116E0,1.9855517E-1,-1.122244E0,5.3653854E-1,-1.2051355E0,-3.3236516E-1,-1.0763655E0,1.1546485E0,2.3523414E-1,5.0674325E-1,-1.6625312E-1,-2.228491E-1,1.0157018E0,-1.8404341E0,7.119359E-1,1.3756742E0,8.4513056E-1,-8.1376475E-1,1.1233088E0,-2.8076795E-1,-1.4084204E0,1.5347582E0,-1.0740217E0,-1.2894868E0,-4.4943288E-1,-1.2542605E0,6.952872E-1,2.0025948E-1,-1.2427511E0,1.1799678E-1,-1.1953409E0,1.1963339E0,6.480554E-1,1.2007511E0,-1.5067989E0,-2.4962142E-1,6.49842E-1,-5.6995183E-1,1.2205935E0,-1.1438019E0,9.5438343E-1,1.0622375E0,3.0854833E-1,1.4456785E0,7.3614323E-1,-1.6798453E0,-1.3314158E0,-1.609955E0,-1.1506033E0,1.0584555E0,-1.9216406E-1,-9.090493E-1,1.2873578E0,-1.2248973E0,-8.557963E-1,1.1901015E0,1.295104E0,2.1863092E-1,-2.3698545E0,7.138898E-1,-1.4678955E0,-1.2558594E0,-6.394961E-2,1.3214394E0,1.192226E0,1.0854124E0,-1.8554176E-1,-1.223295E0,9.615211E-1,-1.2123889E0,-1.4000129E0,-1.2492645E0,-9.2306995E-1,1.3972293E-1,1.3295747E0,5.214272E-1,-1.5066178E0,-1.4171346E0,-1.1954762E0],"categories":[],"categories_nodes":[],"categories_segments":[],"categories_sizes":[],"default_left":[1,1,1,1,1,1,1,1,1,1,1,1,1,0,1,1,1,1,1,0,1,1,1,1,1,1,0,1,1,1,1,1,1,1,1,0,0,0,0,0,1,0,1,0,0,1,0,0,1,1,0,0,1,1,0,0,0,1,1,1,1,0,0,1,1,0,0,0,1,0,1,1,1,0,0,1,0,0,0,0,0,0,0,0,0,0,0,0,0,0,0,0,0,0,0,0,0,0,0,0,0],"id":4,"left_children":[1,3,5,7,9,11,13,15,17,19,21,23,25,-1,27,29,31,33,35,-1,37,39,41,43,45,47,-1,49,51,53,55,57,59,61,63,-1,-1,-1,-1,-1,65,-1,67,-1,-1,69,-1,-1,71,73,-1,-1,75,77,-1,-1,-1,79,81,83,85,-1,-1,87,89,-1,-1,-1,91,-1,93,95,97,-1,-1,99,-1,-1,-1,-1,-1,-1,-1,-1,-1,-1,-1,-1,-1,-1,-1,-1,-1,-1,-1,-1,-1,-1,-1,-1,-1],"loss_changes":[3.7654808E1,1.2854195E1,6.1747074E0,7.950653E0,4.5476565E0,7.6812096E0,2.3313255E0,1.0904583E1,5.5720444E0,1.5002235E0,5.336115E0,2.984136E0,3.4116333E0,0E0,1.7349386E0,2.2671108E0,7.407628E0,4.4869843E0,5.231995E0,0E0,1.6470695E-1,3.6766167E0,1.3646355E0,3.8846836E0,7.6480675E-1,3.703763E0,0E0,1.9361981E0,2.0775623E0,5.015831E-1,5.0862556E0,6.1859894E0,1.2826636E1,3.2991555E0,2.471321E0,0E0,0E0,0E0,0E0,0E0,2.803166E-1,0E0,1.1004925E-1,0E0,0E0,2.4131107E-1,0E0,0E0,3.8577137E0,3.0370443E0,0E0,0E0,1.3251114E-1,1.2458801E-2,0E0,0E0,0E0,9.027503E0,6.5183372E0,6.1583347E0,1.3691425E-2,0E0,0E0,2.038391E0,4.639584E0,0E0,0E0,0E0,3.276682E-2,0E0,8.441591E-2,2.1149092E0,3.260067E0,0E0,0E0,6.80294E-2,0E0,0E0,0E0,0E0,0E0,0E0,0E0,0E0,0E0,0E0,0E0,0E0,0E0,0E0,0E0,0E0,0E0,0E0,0E0,0E0,0E0,0E0,0E0,0E0,0E0],"parents":[2147483647,0,0,1,1,2,2,3,3,4,4,5,5,6,6,7,7,8,8,9,9,10,10,11,11,12,12,14,14,15,15,16,16,17,17,18,18,20,20,21,21,22,22,23,23,24,24,25,25,27,27,28,28,29,29,30,30,31,31,32,32,33,33,34,34,40,40,42,42,45,45,48,48,49,49,52,52,53,53,57,57,58,58,59,59,60,60,63,63,64,64,68,68,70,70,71,71,72,72,75,75],"right_children":[2,4,6,8,10,12,14,16,18,20,22,24,26,-1,28,30,32,34,36,-1,38,40,42,44,46,48,-1,50,52,54,56,58,60,62,64,-1,-1,-1,-1,-1,66,-1,68,-1,-1,70,-1,-1,72,74,-1,-1,76,78,-1,-1,-1,80,82,84,86,-1,-1,88,90,-1,-1,-1,92,-1,94,96,98,-1,-1,100,-1,-1,-1,-1,-1,-1,-1,-1,-1,-1,-1,-1,-1,-1,-1,-1,-1,-1,-1,-1,-1,-1,-1,-1,-1],"split_conditions":[8.110975E-1,5.832491E-1,8.7362826E-1,4.8793843E-1,5.7024634E-1,4.5537096E-1,2.722603E-1,4.2773217E-2,9.9127364E-1,5.041615E-1,8.224334E-1,6.783822E-2,9.769099E-1,1.7025517E-1,8.4766984E-2,6.77121E-1,4.9893105E-1,2.1939625E-1,4.151448E-2,-8.6773455E-2,8.539083E-1,6.363162E-1,2.4138507E-2,8.3025247E-1,9.882188E-1,1.6587257E-1,-3.7445053E-1,5.3918624E-1,3.4937483E-1,5.784651E-1,6.9102085E-1,1.2758744E-1,9.189016E-1,7.393276E-1,1E0,-5.718457E-1,2.212073E-1,4.2743903E-1,2.6259255E-1,-2.528468E-1,2.3775536E-1,-8.723808E-2,1.12820156E-1,4.768684E-1,-3.3371186E-1,5.808562E-1,-1.3964437E-1,-3.897143E-1,5.6517375E-1,7.240941E-1,-3.8613817E-1,3.6663063E-2,9.9916863E-1,9.633098E-1,2.0135884E-1,3.7308824E-1,-4.6818107E-1,8.384141E-1,6.739384E-1,5.510084E-1,5.2712345E-1,-3.5539344E-1,2.9653877E-1,7.9271436E-1,1.3069513E-1,4.4919023E-1,2.2872883E-1,-5.2194875E-1,2.5152674E-1,-5.0023293E-1,4.3251914E-1,1.487299E-1,1.5521276E-1,-2.8245288E-1,3.9999804E-1,6.017466E-2,-2.659065E-1,3.697793E-1,4.0240487E-1,6.793134E-2,-7.3634315E-1,2.2181441E-1,-4.5609334E-1,-3.9021108E-1,-1.9869937E-2,4.105876E-1,3.704394E-1,3.372511E-1,-5.7650127E-2,-3.8009292E-1,2.987565E-1,-3.7670425E-1,-4.3500134E-1,-3.8816196E-1,-2.8680927E-1,4.3413647E-2,4.1311535E-1,1.620139E-1,-4.6812484E-1,-4.403213E-1,-3.7144926E-1],"split_indices":[103,122,67,92,30,35,112,103,70,103,41,77,59,0,0,22,116,199,44,0,81,20,2,69,92,61,0,99,86,187,46,84,11,2,109,0,0,0,0,0,57,0,38,0,0,67,0,0,22,38,0,0,29,0,0,0,0,41,59,0,3,0,0,103,13,0,0,0,78,0,55,77,0,0,0,76,0,0,0,0,0,0,0,0,0,0,0,0,0,0,0,0,0,0,0,0,0,0,0,0,0],"split_type":[0,0,0,0,0,0,0,0,0,0,0,0,0,0,0,0,0,0,0,0,0,0,0,0,0,0,0,0,0,0,0,0,0,0,0,0,0,0,0,0,0,0,0,0,0,0,0,0,0,0,0,0,0,0,0,0,0,0,0,0,0,0,0,0,0,0,0,0,0,0,0,0,0,0,0,0,0,0,0,0,0,0,0,0,0,0,0,0,0,0,0,0,0,0,0,0,0,0,0,0,0],"sum_hessian":[2.4557602E2,2.024652E2,4.3110825E1,1.8833199E2,1.4133207E1,2.3347904E1,1.9762922E1,1.0687615E2,8.145583E1,3.4737E0,1.0659507E1,9.088E0,1.4259904E1,1.1536467E0,1.8609274E1,2.6813734E1,8.0062416E1,7.815886E1,3.2969732E0,1.104015E0,2.3696852E0,3.9869382E0,6.672569E0,2.2844253E0,6.8035746E0,1.3029102E1,1.2308023E0,3.9921057E0,1.4617169E1,2.3789654E1,3.0240793E0,5.7151814E1,2.29106E1,3.042933E0,7.511593E1,1.3842851E0,1.9126881E0,1.2796974E0,1.0899879E0,1.7334565E0,2.2534816E0,1.3451327E0,5.327436E0,1.1145204E0,1.169905E0,5.448566E0,1.3550087E0,1.0607184E0,1.1968384E1,2.5182943E0,1.4738114E0,1.3238435E0,1.3293325E1,2.1980152E1,1.809502E0,1.9458469E0,1.0782325E0,9.092E0,4.8059814E1,1.7745388E1,5.165214E0,1.7075095E0,1.3354235E0,7.0477394E1,4.6385283E0,1.2290283E0,1.0244534E0,1.176151E0,4.1512847E0,1.6464163E0,3.8021498E0,8.493221E0,3.475162E0,1.246218E0,1.2720764E0,1.2227672E1,1.0656542E0,2.0679651E1,1.3005003E0,7.447107E0,1.6448932E0,4.6649185E1,1.4106311E0,7.533099E0,1.0212288E1,1.1306255E0,4.0345883E0,6.9192635E1,1.2847612E0,1.3861126E0,3.2524157E0,1.5200506E0,2.6312342E0,2.6508243E0,1.1513253E0,1.9356251E0,6.557596E0,2.252173E0,1.2229891E0,1.6210508E0,1.0606621E1],"tree_param":{"num_deleted":"0","num_feature":"200","num_nodes":"101","size_leaf_vector":"0"}},{"base_weights":[3.6290446E-1,5.0453275E-1,-4.6011817E-1,5.6228733E-1,-9.02302E-1,-5.688707E-1,6.2106156E-1,9.06321E-1,4.457313E-1,-3.0367568E-1,-1.2295009E0,-6.989689E-1,4.7657424E-1,1.1527823E0,-1.6890359E-1,9.896766E-1,1.5431458E-1,2.590789E-1,6.772591E-1,-1.2184242E0,6.008852E-1,-1.1634367E0,-1.4624029E0,8.881004E-1,-7.685309E-1,-8.3077735E-1,1.3787441E0,5.787373E-1,1.1172448E0,1.3105705E0,-8.6458045E-1,3.8357848E-1,-2.835545E-1,7.314376E-1,-6.725479E-1,-1.2256776E0,-1.1251543E0,-1.0437717E0,-4.03169E-1,-7.0991826E-1,8.970839E-1,1.1369158E0,5.5562294E-1,1.204647E0,1.4168556E0,2.9190207E-1,-2.0458753E0,-1.7785841E0,4.2907435E-1,9.432429E-1,-5.343508E-1,8.0157083E-1,-2.530672E-1,-1.3425131E0,1.1253473E-1,-1.1903855E0,-4.9309912E-1,1.3313648E0,-6.1486053E-1,4.448679E-1,1.1605672E0,1.1340616E0,1.1934289E0,4.8518437E-1,-1.115304E0,3.7356296E-1,1.4508508E0,1.717021E-1,-9.432256E-1,-8.047997E-1,8.340768E-1,-1.0899279E0,1.176379E0,-1.4766914E0,-9.800022E-1,-1.1919622E0,3.9569116E-1,3.406941E-1,-8.5072803E-1],"categories":[],"categories_nodes":[],"categories_segments":[],"categories_sizes":[],"default_left":[1,1,1,1,1,1,1,1,1,1,1,1,1,0,0,1,1,1,1,0,0,1,0,0,1,0,0,1,1,1,1,1,1,1,1,0,0,1,1,0,1,1,0,0,0,0,0,0,1,1,1,1,1,0,0,1,1,0,1,0,0,0,0,0,0,0,0,0,0,0,0,0,0,0,0,0,0,0,0],"id":5,"left_children":[1,3,5,7,9,11,13,15,17,19,21,23,25,-1,-1,27,29,31,33,-1,-1,35,-1,-1,37,-1,-1,39,41,43,45,47,49,51,53,-1,-1,55,57,-1,59,61,-1,-1,-1,-1,-1,-1,63,65,67,69,71,-1,-1,73,75,-1,77,-1,-1,-1,-1,-1,-1,-1,-1,-1,-1,-1,-1,-1,-1,-1,-1,-1,-1,-1,-1],"loss_changes":[2.4500927E1,1.4570965E1,3.6285133E0,6.907009E0,1.3844452E0,3.8138037E0,1.184957E0,2.7319984E0,5.5601425E0,2.0685923E0,6.921244E-2,2.752986E0,3.659865E0,0E0,0E0,2.056404E0,5.125236E0,4.81288E0,4.199957E0,0E0,0E0,7.475376E-3,0E0,0E0,2.4018307E0,0E0,0E0,3.8139734E0,3.3008575E-1,2.18122E-2,3.1596782E0,5.699564E0,4.0901227E0,3.8126106E0,1.166039E0,0E0,0E0,1.0992918E0,3.7689662E0,0E0,8.876209E-1,3.6621094E-3,0E0,0E0,0E0,0E0,0E0,0E0,4.917609E0,6.5163684E-1,3.186863E0,2.6914406E0,4.3918095E0,0E0,0E0,6.470232E-1,1.7801821E0,0E0,2.0622518E0,0E0,0E0,0E0,0E0,0E0,0E0,0E0,0E0,0E0,0E0,0E0,0E0,0E0,0E0,0E0,0E0,0E0,0E0,0E0,0E0],"parents":[2147483647,0,0,1,1,2,2,3,3,4,4,5,5,6,6,7,7,8,8,9,9,10,10,11,11,12,12,15,15,16,16,17,17,18,18,21,21,24,24,27,27,28,28,29,29,30,30,31,31,32,32,33,33,34,34,37,37,38,38,40,40,41,41,48,48,49,49,50,50,51,51,52,52,55,55,56,56,58,58],"right_children":[2,4,6,8,10,12,14,16,18,20,22,24,26,-1,-1,28,30,32,34,-1,-1,36,-1,-1,38,-1,-1,40,42,44,46,48,50,52,54,-1,-1,56,58,-1,60,62,-1,-1,-1,-1,-1,-1,64,66,68,70,72,-1,-1,74,76,-1,78,-1,-1,-1,-1,-1,-1,-1,-1,-1,-1,-1,-1,-1,-1,-1,-1,-1,-1,-1,-1],"split_conditions":[8.7591445E-1,5E-1,7.342578E-1,5.57724E-2,2.9734802E-2,9.616515E-1,6.8886197E-1,5.2771795E-1,4.8793843E-1,9.624059E-1,5.326578E-1,2.0819546E-1,6.1240804E-1,3.5818377E-1,-5.248044E-2,2.8148156E-1,1.2497379E-1,7.5269115E-1,5E-1,-3.785795E-1,1.8670249E-1,7.9836595E-1,-4.543867E-1,2.759438E-1,8.073198E-1,-2.5813282E-1,4.283929E-1,5.819827E-1,8.216338E-1,5.4751277E-1,4.1806737E-1,6.0812578E-2,3.2682994E-1,9.9127364E-1,4.9259034E-1,-3.8083324E-1,-3.4959936E-1,8.5094863E-1,8.806227E-1,-2.205804E-1,1.0859709E-2,8.3969903E-1,1.7263894E-1,3.7429875E-1,4.402346E-1,9.0697594E-2,-6.356788E-1,-5.5262816E-1,8.7403804E-1,3.7367266E-1,3.497739E-1,2.1934163E-2,2.954411E-1,-4.1713545E-1,3.4965936E-2,5.2829087E-1,3.680038E-1,4.1367152E-1,4.1003507E-1,1.3822597E-1,3.6060262E-1,3.5236698E-1,3.7081313E-1,1.507528E-1,-3.4653878E-1,1.1607064E-1,4.5079735E-1,5.334997E-2,-2.930719E-1,-2.5006124E-1,2.5915802E-1,-3.386541E-1,3.6551553E-1,-4.588263E-1,-3.0449885E-1,-3.7035745E-1,1.2294615E-1,1.0585788E-1,-2.6433176E-1],"split_indices":[49,167,44,103,46,71,42,61,92,105,45,17,87,0,0,53,28,21,118,0,0,95,0,0,17,0,0,44,10,34,39,103,66,70,68,0,0,24,103,0,43,67,0,0,0,0,0,0,44,36,90,46,2,0,0,96,41,0,78,0,0,0,0,0,0,0,0,0,0,0,0,0,0,0,0,0,0,0,0],"split_type":[0,0,0,0,0,0,0,0,0,0,0,0,0,0,0,0,0,0,0,0,0,0,0,0,0,0,0,0,0,0,0,0,0,0,0,0,0,0,0,0,0,0,0,0,0,0,0,0,0,0,0,0,0,0,0,0,0,0,0,0,0,0,0,0,0,0,0,0,0,0,0,0,0,0,0,0,0,0,0],"sum_hessian":[2.1019402E2,1.7933415E2,3.0859858E1,1.7226259E2,7.071566E0,2.8039818E1,2.8200407E0,4.359154E1,1.2867105E2,2.4996512E0,4.571915E0,2.4936998E1,3.1028178E0,1.685851E0,1.1341897E0,3.924129E1,4.3502493E0,7.124047E1,5.743058E1,1.2430642E0,1.256587E0,3.5630765E0,1.0088385E0,1.0468448E0,2.3890154E1,1.2667165E0,1.8361014E0,9.296756E0,2.9944534E1,2.0379636E0,2.3122854E0,5.7946304E1,1.3294166E1,5.521469E1,2.215887E0,1.3526347E0,2.2104418E0,1.3624856E1,1.0265299E1,1.8414156E0,7.4553404E0,2.893047E1,1.0140646E0,1.0227511E0,1.0152127E0,1.1682289E0,1.1440564E0,1.1939733E0,5.675233E1,2.2561657E0,1.1038E1,5.154334E1,3.6713538E0,1.195896E0,1.0199912E0,1.075943E1,2.8654258E0,1.116338E0,9.148961E0,2.7452722E0,4.7100687E0,2.7546837E1,1.3836335E0,5.4762974E1,1.9893582E0,1.0634847E0,1.192681E0,4.047552E0,6.9904475E0,1.0220652E0,5.0521275E1,2.3158534E0,1.3555005E0,4.556516E0,6.2029138E0,1.6043767E0,1.261049E0,1.8108702E0,7.3380904E0],"tree_param":{"num_deleted":"0","num_feature":"200","num_nodes":"79","size_leaf_vector":"0"}},{"base_weights":[2.9877242E-1,3.9320067E-1,-6.5790117E-1,5.777555E-1,9.146986E-2,7.2956455E-1,-7.519602E-1,3.7189588E-1,8.8368475E-1,1.924875E-1,-8.0223465E-1,-8.520693E-1,2.0002253E-1,4.7306922E-1,-4.6499977E-1,9.897629E-1,2.4832848E-2,9.0114206E-2,9.0733904E-1,-1.1504338E0,2.6826224E-1,-9.759779E-1,-2.6849392E-1,5.8003354E-1,-2.9308316E-1,1.3149798E-1,-1.0987078E0,1.0244622E0,3.239055E-2,9.6624756E-1,-2.160481E0,4.3817196E-5,1.02787E0,1.1987545E0,-4.8189823E-2,-1.6111429E0,-3.7741798E-1,-2.2650862E-1,-1.0811944E0,5.305212E-1,-1.2074381E0,6.7320734E-1,-2.693229E-1,1.153204E0,-8.7984884E-1,7.068428E-1,-1.1554365E0,-1.8992643E-1,-1.5978206E0,1.0739806E0,7.0151526E-1,1.130258E0,6.046674E-1,1.8050858E-1,-4.6083128E-1,1.2114638E0,4.5549324E-1,1.0814992E0,1.7069327E0,-1.2343676E0,-2.0917175E0,-1.196366E0,-7.4591005E-1,7.321366E-1,-4.1648883E-1,-1.3411311E0,8.712193E-1,-2.8791854E-1,-2.391216E0,1.8335414E-1,1.1698714E0,-1.2730439E0,-1.9367163E0,1.1050645E0,4.0860012E-1,-7.984758E-1,1.0993774E0,2.6966017E-1,-8.682727E-1,-1.2656269E0,-6.1254622E-3,1.2823105E0,1.1695217E0,9.214612E-1,1.1293408E0,-1.6099846E0,-1.1306353E0,-1.5434925E-1,-1.1185483E0],"categories":[],"categories_nodes":[],"categories_segments":[],"categories_sizes":[],"default_left":[1,1,1,1,1,0,1,1,1,1,1,1,0,1,1,1,1,1,1,1,0,1,1,1,1,1,1,1,0,1,0,1,1,1,0,1,0,0,1,0,0,1,1,0,1,1,0,0,1,1,1,0,0,1,1,1,0,1,0,0,0,1,1,0,0,0,0,0,0,0,0,0,0,0,0,0,0,0,0,0,0,0,0,0,0,0,0,0,0],"id":6,"left_children":[1,3,5,7,9,-1,11,13,15,17,19,21,-1,23,25,27,29,31,33,35,-1,37,39,41,43,45,47,49,-1,51,-1,53,55,57,-1,59,-1,-1,61,-1,-1,63,65,-1,67,69,-1,-1,71,73,75,-1,-1,77,79,81,-1,83,-1,-1,-1,85,87,-1,-1,-1,-1,-1,-1,-1,-1,-1,-1,-1,-1,-1,-1,-1,-1,-1,-1,-1,-1,-1,-1,-1,-1,-1,-1],"loss_changes":[1.6648895E1,9.340593E0,2.160697E0,6.5542564E0,5.7471704E0,0E0,1.4780054E0,5.2679415E0,3.8135872E0,4.185392E0,2.4100761E0,1.0140219E0,0E0,4.548931E0,2.53673E0,1.2373657E0,9.46853E0,4.2255507E0,1.9955196E0,1.7364926E0,0E0,9.1202164E-1,1.8443135E0,3.8547325E0,5.770173E0,2.5587268E0,1.4750738E0,5.742569E-1,0E0,1.9002986E-1,0E0,3.7965844E0,4.5998E-1,3.259592E-1,0E0,5.5196E-1,0E0,0E0,3.9101315E-1,0E0,0E0,2.8186893E0,5.8856087E0,0E0,4.3264112E0,5.7836604E-1,0E0,0E0,2.2974634E-1,6.4414597E-1,2.8537488E0,0E0,0E0,3.0669916E0,4.6997857E0,8.803844E-3,0E0,3.327751E-2,0E0,0E0,0E0,2.0413971E-1,5.7159054E-1,0E0,0E0,0E0,0E0,0E0,0E0,0E0,0E0,0E0,0E0,0E0,0E0,0E0,0E0,0E0,0E0,0E0,0E0,0E0,0E0,0E0,0E0,0E0,0E0,0E0,0E0],"parents":[2147483647,0,0,1,1,2,2,3,3,4,4,6,6,7,7,8,8,9,9,10,10,11,11,13,13,14,14,15,15,16,16,17,17,18,18,19,19,21,21,22,22,23,23,24,24,25,25,26,26,27,27,29,29,31,31,32,32,33,33,35,35,38,38,41,41,42,42,44,44,45,45,48,48,49,49,50,50,53,53,54,54,55,55,57,57,61,61,62,62],"right_children":[2,4,6,8,10,-1,12,14,16,18,20,22,-1,24,26,28,30,32,34,36,-1,38,40,42,44,46,48,50,-1,52,-1,54,56,58,-1,60,-1,-1,62,-1,-1,64,66,-1,68,70,-1,-1,72,74,76,-1,-1,78,80,82,-1,84,-1,-1,-1,86,88,-1,-1,-1,-1,-1,-1,-1,-1,-1,-1,-1,-1,-1,-1,-1,-1,-1,-1,-1,-1,-1,-1,-1,-1,-1,-1],"split_conditions":[8.9214146E-1,6.030647E-1,2.7292493E-1,7.804313E-1,8.111894E-1,2.2668475E-1,9.9973446E-1,9.882643E-1,5.82723E-1,8.3337057E-1,4.9997607E-1,9.616515E-1,6.214948E-2,9.4710165E-1,4.9893105E-1,7.540843E-1,8.9406633E-1,4.9998972E-1,9.251102E-1,7.7601206E-1,8.33524E-2,1.3556722E-1,2.3329383E-1,8.204341E-1,1.6417271E-1,7.687722E-1,4.5158538E-1,2.447119E-2,1.0064146E-2,5.077983E-1,-6.7128825E-1,6.018577E-1,7.030152E-1,8.426598E-1,-1.4973176E-2,8.29831E-1,-1.1726844E-1,-7.037903E-2,9.67804E-1,1.6483952E-1,-3.75166E-1,5E-1,4.6848977E-1,3.5831478E-1,6.988156E-1,4.8220825E-1,-3.5900846E-1,-5.9012495E-2,1.7455539E-1,7.3085105E-1,6.30543E-1,3.5118517E-1,1.8787767E-1,9.729548E-1,3.4829986E-1,2.4001355E-1,1.415274E-1,9.62272E-1,5.3036517E-1,-3.8353333E-1,-6.4992255E-1,3.8934773E-1,7.66706E-1,2.2748391E-1,-1.2940824E-1,-4.1670606E-1,2.7069864E-1,-8.945986E-2,-7.429805E-1,5.6970403E-2,3.6349356E-1,-3.9555052E-1,-6.0176176E-1,3.4335724E-1,1.2695712E-1,-2.4809633E-1,3.415902E-1,8.3786756E-2,-2.697831E-1,-3.9324597E-1,-1.9032571E-3,3.9842975E-1,3.633849E-1,2.8630942E-1,3.5090017E-1,-5.002422E-1,-3.513024E-1,-4.7958225E-2,-3.4754682E-1],"split_indices":[67,58,11,45,84,0,17,63,161,9,51,71,0,0,116,22,42,183,65,14,0,82,79,46,99,96,21,113,0,3,0,13,42,34,0,112,0,0,97,0,0,114,67,0,39,36,0,0,24,90,20,0,0,179,47,44,0,13,0,0,0,103,29,0,0,0,0,0,0,0,0,0,0,0,0,0,0,0,0,0,0,0,0,0,0,0,0,0,0],"split_type":[0,0,0,0,0,0,0,0,0,0,0,0,0,0,0,0,0,0,0,0,0,0,0,0,0,0,0,0,0,0,0,0,0,0,0,0,0,0,0,0,0,0,0,0,0,0,0,0,0,0,0,0,0,0,0,0,0,0,0,0,0,0,0,0,0,0,0,0,0,0,0,0,0,0,0,0,0,0,0,0,0,0,0,0,0,0,0,0,0],"sum_hessian":[1.8429887E2,1.6774236E2,1.655652E1,1.0407999E2,6.3662373E1,1.0508488E0,1.55056715E1,6.2216167E1,4.1863823E1,5.7197662E1,6.4647107E0,1.4030679E1,1.4749924E0,5.5506443E1,6.709726E0,3.7261135E1,4.6026864E0,5.003307E1,7.164591E0,4.8783417E0,1.5863687E0,1.157274E1,2.4579394E0,4.870692E1,6.799523E0,3.4559872E0,3.2537384E0,3.595743E1,1.3037022E0,3.217019E0,1.3856671E0,4.5648994E1,4.384074E0,5.4905457E0,1.6740452E0,3.0562756E0,1.8220662E0,1.4251724E0,1.0147567E1,1.32767E0,1.1302694E0,4.3892456E1,4.8144646E0,1.9622191E0,4.837304E0,2.3885036E0,1.0674837E0,1.1537899E0,2.0999486E0,3.1175816E1,4.781616E0,2.212328E0,1.0046912E0,3.280463E1,1.2844366E1,3.3187943E0,1.0652801E0,4.4618764E0,1.0286692E0,1.7136527E0,1.3426229E0,7.5521007E0,2.5954666E0,4.1640965E1,2.2514892E0,2.482216E0,2.3322484E0,3.4761484E0,1.3611556E0,1.1214981E0,1.2670056E0,1.0729618E0,1.0269868E0,2.9783787E1,1.3920287E0,1.002181E0,3.7794354E0,3.0234924E1,2.5697062E0,4.6367364E0,8.207629E0,1.2303143E0,2.08848E0,1.0289363E0,3.4329402E0,1.0346811E0,6.5174193E0,1.0035291E0,1.5919377E0],"tree_param":{"num_deleted":"0","num_feature":"200","num_nodes":"89","size_leaf_vector":"0"}},{"base_weights":[2.4775773E-1,3.7545675E-1,-2.8917295E-1,1.6546953E-1,5.812929E-1,1.2871015E-1,-5.4953367E-1,4.2838573E-1,-1.9909604E-1,7.459098E-1,-5.451293E-2,3.5293302E-1,-7.3281425E-1,-8.4167576E-1,-2.5419322E-1,7.412916E-1,-1.376225E-1,4.7126025E-2,-9.6264786E-1,8.19073E-1,-2.8040317E-1,1.4093223E-1,-1.9423729E0,9.6212006E-1,-9.039309E-2,-1.4462957E0,2.394304E-1,1.6777271E-1,-9.745816E-1,1.4552666E-1,-8.834554E-1,9.206187E-1,3.176808E-1,-3.6838862E-1,7.079441E-1,-3.3513337E-1,6.798181E-1,2.8082596E-3,-1.6221435E0,1.3090964E-1,8.8191843E-1,-1.0294019E0,7.9481995E-1,1.0270357E0,-2.5173047E-1,5.153986E-1,1.1138271E0,5.795395E-1,-5.004763E-1,-1.5261988E-1,-1.0849891E0,-2.4379773E-1,7.4897724E-1,-1.139756E0,-2.3753124E-1,4.8480675E-1,1.0355889E0,1.200529E0,-7.6723024E-2,6.2632823E-1,-6.979276E-1,1.2293829E0,-1.0410732E-1,-6.3057756E-1,7.226061E-1,-1.7790288E-1,1.0980222E0,1.1382039E0,-1.1718888E0,-5.642629E-1,-2.0590732E0,1.1013564E0,-1.4989583E0,9.310256E-1,-4.1631526E-1,-1.3206437E0,-7.271797E-1,1.1463242E0,7.124275E-1,-1.3388721E0,1.3133606E-1,1.1458397E0,1.0969445E0,-2.5657326E-2,1.1569831E0,1.9394171E-1,-1.3689963E0,-1.170043E0,-5.3909254E-1,-8.058293E-1,1.0194145E0,1.6652822E0,-1.5676564E-1,-1.0816883E0,-1.2283908E0,1.146044E0,-9.2136294E-1,2.428086E-1,1.1498586E0,1.3972796E0,9.84935E-1,7.9109484E-1,-1.050242E0,1.2505425E0,-3.426858E-1,4.761912E-1,-9.1306776E-1,-9.253276E-1,3.7708727E-1,-1.4076032E-1,1.2061564E0,1.2000154E0,-1.5739627E0,1.1633239E0,8.261414E-1,-1.6924878E0,-2.5311122E0,1.1251831E0,1.0827404E0,9.739257E-1,-3.519683E-2,1.1867484E0,1.1110609E0,-2.1040971E0,-4.7623435E-1,-1.1644068E0,4.584384E-1,-1.1287559E0,-1.3868747E0,-1.1677567E0,-3.042316E-1],"categories":[],"categories_nodes":[],"categories_segments":[],"categories_sizes":[],"default_left":[1,1,1,1,1,1,1,1,1,1,1,1,1,1,1,1,1,1,1,1,1,1,0,1,1,0,0,0,1,1,1,1,1,1,1,1,1,1,1,1,1,1,0,1,1,0,1,1,1,0,1,1,1,1,0,1,1,1,1,1,1,0,0,1,1,1,1,0,0,0,1,1,0,1,0,0,0,1,0,1,1,1,1,0,0,0,0,1,0,1,0,0,0,0,0,0,0,0,0,0,0,0,0,0,0,0,0,0,0,0,0,0,0,0,0,0,0,1,1,0,0,0,0,0,0,0,0,0,0,0,0],"id":7,"left_children":[1,3,5,7,9,11,13,15,17,19,21,23,25,27,29,31,33,35,37,39,41,43,-1,45,47,-1,-1,-1,49,51,53,55,57,59,61,63,65,67,69,71,73,75,-1,77,79,-1,-1,83,85,-1,87,89,91,93,-1,95,97,99,101,103,105,-1,-1,107,109,111,113,-1,-1,-1,115,-1,-1,119,-1,-1,-1,121,-1,123,125,-1,-1,-1,-1,-1,-1,127,-1,129,-1,-1,-1,-1,-1,-1,-1,-1,-1,-1,-1,-1,-1,-1,-1,-1,-1,-1,-1,-1,-1,-1,-1,-1,-1,-1,-1,-1,-1,-1,-1,-1,-1,-1,-1,-1,-1,-1,-1,-1,-1],"loss_changes":[1.1172085E1,5.6892815E0,3.4062715E0,6.2457857E0,6.9576454E0,2.321182E0,1.6638055E0,6.7053733E0,5.133238E0,3.965084E0,5.044803E0,2.5756493E0,1.7217246E0,1.3012137E0,2.4131603E0,1.8515797E0,2.6297634E0,4.9929976E0,4.23974E0,2.1312141E0,2.8294897E0,4.310523E0,0E0,2.715242E-1,1.5161198E0,0E0,0E0,0E0,7.7706623E-1,1.3783396E0,6.163833E-1,8.575964E-1,2.5256991E0,3.4709544E0,1.2238989E0,4.02143E0,2.7895277E0,3.6034906E0,1.8273582E0,6.524588E0,2.879551E0,1.8140626E-1,0E0,1.4196491E-1,3.575131E0,0E0,6.5231323E-4,7.326475E-1,2.0653768E0,0E0,3.4997272E-1,2.5310073E0,1.9101619E0,1.2732983E-2,0E0,3.3253617E0,1.2271461E0,9.3978405E-2,4.234827E0,1.5940082E0,2.0093634E0,0E0,0E0,2.9879317E0,1.1732947E0,4.9020953E0,9.194994E-2,0E0,0E0,0E0,4.8257637E-1,1.9407272E-4,0E0,1.8042831E0,0E0,0E0,0E0,2.9387474E-3,0E0,1.4754033E0,2.689731E0,0E0,0E0,0E0,0E0,0E0,0E0,5.74131E-2,0E0,4.473318E-1,0E0,0E0,0E0,0E0,0E0,0E0,0E0,0E0,0E0,0E0,0E0,0E0,0E0,0E0,0E0,0E0,0E0,0E0,0E0,0E0,0E0,0E0,0E0,0E0,0E0,0E0,0E0,0E0,0E0,0E0,0E0,0E0,0E0,0E0,0E0,0E0,0E0,0E0,0E0,0E0,0E0],"parents":[2147483647,0,0,1,1,2,2,3,3,4,4,5,5,6,6,7,7,8,8,9,9,10,10,11,11,12,12,13,13,14,14,15,15,16,16,17,17,18,18,19,19,20,20,21,21,23,23,24,24,28,28,29,29,30,30,31,31,32,32,33,33,34,34,35,35,36,36,37,37,38,38,39,39,40,40,41,41,43,43,44,44,46,46,47,47,48,48,50,50,51,51,52,52,53,53,55,55,56,56,57,57,58,58,59,59,60,60,63,63,64,64,65,65,66,66,70,70,71,71,73,73,77,77,79,79,80,80,87,87,89,89],"right_children":[2,4,6,8,10,12,14,16,18,20,22,24,26,28,30,32,34,36,38,40,42,44,-1,46,48,-1,-1,-1,50,52,54,56,58,60,62,64,66,68,70,72,74,76,-1,78,80,-1,-1,84,86,-1,88,90,92,94,-1,96,98,100,102,104,106,-1,-1,108,110,112,114,-1,-1,-1,116,-1,-1,120,-1,-1,-1,122,-1,124,126,-1,-1,-1,-1,-1,-1,128,-1,130,-1,-1,-1,-1,-1,-1,-1,-1,-1,-1,-1,-1,-1,-1,-1,-1,-1,-1,-1,-1,-1,-1,-1,-1,-1,-1,-1,-1,-1,-1,-1,-1,-1,-1,-1,-1,-1,-1,-1,-1,-1],"split_conditions":[6.739384E-1,5.306123E-1,7.8692013E-1,4.233809E-1,6.9690365E-1,9.882643E-1,8.263285E-1,9.548098E-1,7.7824616E-1,5.832491E-1,6.978667E-1,2.9971936E-1,9.813725E-1,3.0851978E-1,4.6361655E-1,6.983595E-1,3.76661E-1,5.565109E-1,1.5752485E-1,1.4046274E-1,7.1962035E-1,4.0401384E-1,-6.035193E-1,4.3057498E-1,3.9987978E-1,-4.49382E-1,7.4393995E-2,5.212906E-2,1.6498494E-1,2.4763101E-1,9.999992E-1,2.6376867E-1,2.6786432E-1,3.810519E-1,4.723776E-1,7.019594E-1,1.9178881E-1,1.01460084E-1,8.997025E-1,1.0470721E-1,7.559718E-1,7.6212186E-1,2.4696042E-1,6.4368093E-1,5.1590574E-1,1.6014074E-1,3.460799E-1,5.790168E-1,1.1265278E-1,-4.742089E-2,1.8804075E-1,9.654149E-1,9.388148E-1,9.980835E-1,-7.38039E-2,7.7481115E-1,3.612303E-2,6.719905E-1,3.744112E-1,2.9347625E-2,1.2542239E-1,3.819845E-1,-3.2347433E-2,5.678358E-1,3.121783E-1,7.7897E-1,4.1861778E-1,3.5365406E-1,-3.641204E-1,-1.7532349E-1,3.2208854E-1,3.4220508E-1,-4.6574494E-1,8.645791E-1,-1.2935431E-1,-4.1034037E-1,-2.2594374E-1,7.534157E-1,2.2136006E-1,2.9298103E-1,3.8052253E-2,3.560266E-1,3.4083423E-1,-7.9720495E-3,3.59489E-1,6.0260095E-2,-4.253641E-1,7.492239E-1,-1.6750273E-1,2.2060621E-1,3.1674474E-1,5.1742387E-1,-4.8709027E-2,-3.3609396E-1,-3.8167626E-1,3.5609007E-1,-2.8627887E-1,7.544364E-2,3.572753E-1,4.341521E-1,3.0603153E-1,2.4580297E-1,-3.2632318E-1,3.8855907E-1,-1.06476724E-1,1.479585E-1,-2.8370148E-1,-2.8751075E-1,1.17165685E-1,-4.3735977E-2,3.7476775E-1,3.7285966E-1,-4.8904973E-1,3.6145917E-1,2.5669238E-1,-5.2587694E-1,-7.8644794E-1,3.4960833E-1,3.3642086E-1,3.0261078E-1,-1.0936092E-2,3.6873743E-1,3.452204E-1,-6.537691E-1,-1.4797191E-1,-3.6179563E-1,1.424425E-1,-3.5071847E-1,-4.3091914E-1,-3.6283648E-1,-9.452853E-2],"split_indices":[59,52,67,19,79,63,17,0,28,122,84,130,92,91,76,39,141,26,18,95,39,86,0,36,129,0,0,0,24,99,115,36,28,27,91,22,46,34,30,34,35,81,0,73,86,0,46,29,199,0,44,81,20,17,0,49,35,81,42,7,66,0,0,17,77,14,59,0,0,0,76,46,0,67,0,0,0,199,0,1,0,2147483647,2147483647,0,0,0,0,18,0,42,0,0,0,0,0,0,0,0,0,0,0,0,0,0,0,0,0,0,0,0,0,0,0,0,0,0,0,2147483647,2147483647,0,0,0,0,0,0,0,0,0,0,0,0],"split_type":[0,0,0,0,0,0,0,0,0,0,0,0,0,0,0,0,0,0,0,0,0,0,0,0,0,0,0,0,0,0,0,0,0,0,0,0,0,0,0,0,0,0,0,0,0,0,0,0,0,0,0,0,0,0,0,0,0,0,0,0,0,0,0,0,0,0,0,0,0,0,0,0,0,0,0,0,0,0,0,0,0,0,0,0,0,0,0,0,0,0,0,0,0,0,0,0,0,0,0,0,0,0,0,0,0,0,0,0,0,0,0,0,0,0,0,0,0,0,0,0,0,0,0,0,0,0,0,0,0,0,0],"sum_hessian":[1.629397E2,1.3163383E2,3.130587E1,6.516092E1,6.6472916E1,1.2016899E1,1.928897E1,3.7859043E1,2.7301876E1,5.280247E1,1.3670441E1,9.535629E0,2.4812698E0,9.696257E0,9.592714E0,2.438118E1,1.3477864E1,2.0644192E1,6.6576843E0,4.9289192E1,3.5132809E0,1.2387742E1,1.2826989E0,4.0168858E0,5.5187435E0,1.4313314E0,1.0499383E0,1.1277215E0,8.568536E0,5.8658943E0,3.7268193E0,1.7128958E1,7.2522216E0,1.0588607E1,2.8892577E0,1.286858E1,7.775611E0,2.7017925E0,3.955892E0,4.125156E0,4.5164036E1,2.0710158E0,1.4422649E0,3.8041635E0,8.583578E0,1.0190381E0,2.9978478E0,2.0950737E0,3.42367E0,1.0151151E0,7.55342E0,3.5651038E0,2.3007908E0,2.66764E0,1.0591792E0,3.5762775E0,1.3552681E1,2.239758E0,5.0124636E0,2.634632E0,7.9539742E0,1.759786E0,1.1294718E0,1.0059268E1,2.8093126E0,2.548238E0,5.227373E0,1.3740658E0,1.3277267E0,1.1565874E0,2.7993047E0,2.585799E0,1.5393571E0,4.3518238E1,1.6457965E0,1.0539398E0,1.0170759E0,2.7573144E0,1.0468493E0,2.236767E0,6.3468113E0,1.0262724E0,1.9715754E0,1.0225892E0,1.0724845E0,1.902247E0,1.521423E0,6.5345144E0,1.018906E0,2.4675686E0,1.0975351E0,1.1439636E0,1.1568272E0,1.6146785E0,1.0529615E0,2.4326534E0,1.1436241E0,1.7078362E0,1.1844845E1,1.1700087E0,1.0697494E0,2.6498663E0,2.362597E0,1.602675E0,1.0319573E0,1.2314392E0,6.722535E0,7.7830825E0,2.2761853E0,1.0082377E0,1.8010747E0,1.282296E0,1.265942E0,4.213713E0,1.0136595E0,1.5761673E0,1.2231374E0,1.1240035E0,1.4617954E0,4.166861E1,1.8496302E0,1.2789501E0,1.4783642E0,1.1850435E0,1.0517237E0,1.2790039E0,5.0678077E0,5.4909673E0,1.043547E0,1.4328423E0,1.0347264E0],"tree_param":{"num_deleted":"4","num_feature":"200","num_nodes":"131","size_leaf_vector":"0"}},{"base_weights":[2.1748729E-1,4.3510813E-1,-3.937727E-2,1.5036708E-1,6.4249945E-1,-1.9189604E-1,6.889682E-1,2.183258E-1,-1.267264E0,9.8782086E-1,4.248872E-1,-8.942375E-2,-7.432397E-1,9.418432E-1,-1.9895305E-1,-4.2090476E-2,7.008894E-1,4.3096846E-1,1.059705E0,5.322944E-1,-1.7805588E0,-4.2125463E-1,1.339766E-1,2.3535895E-1,-8.768792E-1,9.754902E-3,1.0687943E0,-1.2040966E0,8.557675E-1,9.708252E-2,-1.0237883E0,-8.675284E-2,9.6646047E-1,1.0898323E0,6.509776E-1,6.224682E-1,-6.7297995E-1,3.0111346E-1,-6.814604E-1,2.7325797E-1,-7.880971E-1,-1.0760386E0,-2.1855056E-2,8.067149E-1,1.1087724E0,2.708326E-1,-6.611908E-1,-1.8370383E0,1.2396237E-1,1.2567211E0,-1.1038092E0,1.0950186E0,9.6931E-2,1.0782804E0,1.1955527E0,2.4157787E-2,8.0910003E-1,-3.7475207E-1,1.0124197E0,-1.015986E0,-6.3106894E-2,9.218923E-2,7.761816E-1,6.871025E-1,-1.3761659E0,-8.84347E-1,-1.1171621E0,1.0859205E0,1.2326796E0,-3.0706227E-1,5.3019226E-1,-1.4606373E0,1.527819E-1,9.2567414E-1,1.147189E0,1.0708718E0,1.1621503E0,1.131953E0,-4.3641105E-1,8.985821E-1,-2.9348677E-1,-1.002754E0,2.546986E-1,1.1420982E0,8.5050464E-1,-1.2745055E0,-3.1696427E-1,8.7435097E-1,-7.370525E-1,2.357668E-1,-7.9306275E-1,9.797396E-2,1.0740535E0,-1.8189545E0,-1.0590168E0,-1.2163742E0,-1.0869745E0,1.1377218E0,1.066522E0],"categories":[],"categories_nodes":[],"categories_segments":[],"categories_sizes":[],"default_left":[1,1,1,1,1,1,1,1,0,1,1,1,1,1,1,1,1,0,1,1,0,1,1,0,1,0,1,0,0,1,1,1,1,1,0,1,0,1,1,1,1,1,0,0,1,1,1,0,0,0,0,1,0,1,0,1,1,1,1,1,1,1,1,0,1,0,1,1,0,0,0,0,0,0,0,0,0,0,0,0,0,0,0,0,0,0,0,0,0,0,0,0,0,0,0,0,0,0,0],"id":8,"left_children":[1,3,5,7,9,11,13,15,-1,17,19,21,23,25,27,29,31,-1,33,35,-1,37,39,-1,41,-1,43,-1,-1,45,47,49,51,53,-1,55,-1,57,59,61,63,65,-1,-1,67,69,71,-1,-1,-1,-1,73,-1,75,-1,77,79,81,83,85,87,89,91,-1,93,-1,95,97,-1,-1,-1,-1,-1,-1,-1,-1,-1,-1,-1,-1,-1,-1,-1,-1,-1,-1,-1,-1,-1,-1,-1,-1,-1,-1,-1,-1,-1,-1,-1],"loss_changes":[7.837318E0,4.4817495E0,7.142865E0,3.0810947E0,3.2993298E0,3.0035448E0,2.500093E0,3.8360462E0,0E0,6.7883873E-1,6.3807406E0,3.3238957E0,1.089993E0,1.0249472E0,2.6160243E0,2.708886E0,2.2383456E0,0E0,1.8436813E-1,2.791851E0,0E0,3.3912177E0,3.4410534E0,0E0,1.2480092E0,0E0,7.908058E-2,0E0,0E0,2.287311E0,2.298648E0,3.6856034E0,8.9394855E-1,1.6117096E-2,0E0,2.6684265E0,0E0,2.2968884E0,2.7432117E0,2.1195421E0,3.0504522E0,4.6010017E-2,0E0,0E0,1.7731667E-2,2.11734E0,2.106484E0,0E0,0E0,0E0,0E0,6.068802E-2,0E0,6.88076E-3,0E0,2.8999505E0,1.7975845E0,9.685223E-1,4.8018217E-2,1.5546598E0,2.942176E0,2.1754327E0,1.244334E0,0E0,3.5180616E-1,0E0,1.3663292E-2,4.664421E-3,0E0,0E0,0E0,0E0,0E0,0E0,0E0,0E0,0E0,0E0,0E0,0E0,0E0,0E0,0E0,0E0,0E0,0E0,0E0,0E0,0E0,0E0,0E0,0E0,0E0,0E0,0E0,0E0,0E0,0E0,0E0],"parents":[2147483647,0,0,1,1,2,2,3,3,4,4,5,5,6,6,7,7,9,9,10,10,11,11,12,12,13,13,14,14,15,15,16,16,18,18,19,19,21,21,22,22,24,24,26,26,29,29,30,30,31,31,32,32,33,33,35,35,37,37,38,38,39,39,40,40,41,41,44,44,45,45,46,46,51,51,53,53,55,55,56,56,57,57,58,58,59,59,60,60,61,61,62,62,64,64,66,66,67,67],"right_children":[2,4,6,8,10,12,14,16,-1,18,20,22,24,26,28,30,32,-1,34,36,-1,38,40,-1,42,-1,44,-1,-1,46,48,50,52,54,-1,56,-1,58,60,62,64,66,-1,-1,68,70,72,-1,-1,-1,-1,74,-1,76,-1,78,80,82,84,86,88,90,92,-1,94,-1,96,98,-1,-1,-1,-1,-1,-1,-1,-1,-1,-1,-1,-1,-1,-1,-1,-1,-1,-1,-1,-1,-1,-1,-1,-1,-1,-1,-1,-1,-1,-1,-1],"split_conditions":[5.2083874E-1,2.8148156E-1,5.818236E-1,5.993501E-1,4.0798643E-1,9.436916E-1,8.791459E-1,9.856774E-2,-3.9375463E-1,9.994672E-2,8.655604E-1,2.9954982E-1,3.1783527E-1,1.2016773E-1,7.6187384E-1,7.9506345E-2,6.0184613E-2,1.3390724E-1,4.803534E-1,7.54122E-1,-5.532417E-1,1.2574619E-1,9.2071295E-1,7.3128946E-2,9.9726295E-1,3.0309688E-3,1.3997182E-1,-3.7412772E-1,2.6589757E-1,5.784651E-1,2.2043759E-1,3.0823106E-2,8.269212E-1,4.9499425E-1,2.0226681E-1,1.9646493E-1,-2.0910321E-1,3.6233616E-1,6.448102E-1,8.2039654E-1,5.000797E-1,5.369507E-1,-6.790637E-3,2.506563E-1,6.8290436E-1,4.3682003E-1,4.7933233E-1,-5.707906E-1,3.8516644E-2,3.9047885E-1,-3.429672E-1,1.4534858E-1,3.0117664E-2,8.026912E-1,3.7147304E-1,4.2766295E-2,7.51317E-1,3.0148113E-1,3.6023074E-1,8.455479E-1,7.703953E-1,6.5461814E-1,2.4511375E-1,2.1349126E-1,4.4885266E-1,-2.747776E-1,3.6076057E-1,3.3569968E-1,3.8300884E-1,-9.540805E-2,1.6473731E-1,-4.5383814E-1,4.7471233E-2,2.8761843E-1,3.5644585E-1,3.3273315E-1,3.610945E-1,3.5171184E-1,-1.3559833E-1,2.7920058E-1,-9.118998E-2,-3.1156808E-1,7.913801E-2,3.5486406E-1,2.6426235E-1,-3.9600465E-1,-9.8484725E-2,2.7167168E-1,-2.2901134E-1,7.3255666E-2,-2.4641442E-1,3.0441724E-2,3.3372176E-1,-5.651717E-1,-3.2904965E-1,-3.7794253E-1,-3.3773646E-1,3.5350427E-1,3.3138162E-1],"split_indices":[15,53,139,4,86,66,26,38,0,87,67,78,112,46,17,38,76,0,197,99,0,34,78,0,80,0,99,0,0,187,17,10,21,103,0,54,0,21,96,77,26,112,0,0,79,44,78,0,0,0,0,78,0,67,0,3,90,19,98,20,95,99,39,0,0,0,24,1,0,0,0,0,0,0,0,0,0,0,0,0,0,0,0,0,0,0,0,0,0,0,0,0,0,0,0,0,0,0,0],"split_type":[0,0,0,0,0,0,0,0,0,0,0,0,0,0,0,0,0,0,0,0,0,0,0,0,0,0,0,0,0,0,0,0,0,0,0,0,0,0,0,0,0,0,0,0,0,0,0,0,0,0,0,0,0,0,0,0,0,0,0,0,0,0,0,0,0,0,0,0,0,0,0,0,0,0,0,0,0,0,0,0,0,0,0,0,0,0,0,0,0,0,0,0,0,0,0,0,0,0,0],"sum_hessian":[1.4020172E2,7.589967E1,6.430205E1,3.1986044E1,4.391363E1,5.316885E1,1.1133201E1,3.0523125E1,1.4629196E0,1.6974848E1,2.6938784E1,4.483638E1,8.33247E0,8.665733E0,2.4674666E0,1.9824114E1,1.0699011E1,1.9414383E0,1.5033408E1,2.5687954E1,1.2508304E0,1.8040943E1,2.6795437E1,1.0007889E0,7.331681E0,1.0392017E0,7.626532E0,1.2636365E0,1.2038301E0,1.7362267E1,2.461847E0,2.6973796E0,8.001631E0,1.4000384E1,1.0330247E0,2.3900196E1,1.7877582E0,4.777173E0,1.3263769E1,2.3279484E1,3.515952E0,5.9461493E0,1.3855313E0,1.0108209E0,6.615711E0,1.4126014E1,3.236253E0,1.4411104E0,1.0207367E0,1.1620082E0,1.5353714E0,6.9705524E0,1.0310783E0,1.2624966E1,1.3754185E0,5.6831822E0,1.8217014E1,2.449301E0,2.327872E0,8.606828E0,4.6569414E0,1.7117493E1,6.1619916E0,1.0019008E0,2.5140514E0,1.0521588E0,4.8939905E0,5.5885205E0,1.0271904E0,4.375356E0,9.750657E0,1.6329626E0,1.6032904E0,1.6436262E0,5.326926E0,1.1604987E1,1.0199779E0,1.6692095E0,4.0139728E0,1.6849924E1,1.3670893E0,1.2264048E0,1.2228963E0,1.2911321E0,1.0367401E0,6.2826834E0,2.3241446E0,1.9474288E0,2.7095125E0,1.4729093E1,2.3884E0,1.8809085E0,4.281083E0,1.0486354E0,1.4654161E0,1.1383841E0,3.7556067E0,1.5165422E0,4.0719786E0],"tree_param":{"num_deleted":"0","num_feature":"200","num_nodes":"99","size_leaf_vector":"0"}},{"base_weights":[1.8409473E-1,3.6991858E-1,-3.564857E-2,1.7634378E-1,7.327224E-1,9.0647854E-2,-4.673582E-1,3.2326363E-2,7.174055E-1,3.2180828E-1,9.4409454E-1,1.7259729E-1,-5.2568793E-1,-2.2235124E-1,-1.0214502E0,4.6912244E-1,-1.5645018E-1,9.450615E-1,-2.9436216E-1,8.977029E-1,-5.47107E-1,1.0248853E0,-1.8367748E-1,2.2543555E-1,-6.1365324E-1,1.1266865E0,-9.8349726E-1,-4.1753006E-1,7.9802454E-1,-2.0817623E0,-6.4357126E-1,-5.8412856E-1,7.620669E-1,9.0422964E-1,-2.821139E-1,5.67908E-1,1.0303879E0,1.0842899E0,2.0128092E-1,-1.7089083E0,3.6912858E-1,1.0560253E0,6.294586E-1,-1.345071E-1,3.6896303E-1,-1.0858232E0,5.873463E-2,-1.2961899E0,-3.3048025E-1,-6.8056107E-1,1.6600354E-1,-1.1206864E0,1.2237768E-2,2.120444E-1,-1.4205692E0,1.0759149E0,2.4795243E-1,4.4879317E-1,1.2019308E0,-9.9185354E-1,-8.234571E-2,7.9542613E-1,1.0813153E0,1.1243196E0,1.0684317E0,1.1278448E0,1.0498921E0,7.645917E-2,-1.6643002E0,1.3168226E-1,6.4887905E-1,-1.6577156E0,-9.9015445E-1,-4.4503517E-2,-1.0046153E0,8.132614E-1,-4.822055E-1,1.1198483E0,9.009261E-1,-1.0022997E0,8.531057E-1,-1.4659137E-1,-1.5774499E0,2.946652E-1,-5.324866E-1,1.068871E0,1.1257129E0,1.0469494E0,1.0798687E0,3.9223617E-1,-7.2357696E-1,-1.3524126E-1,7.2820026E-1,3.798711E-1,1.0886475E0,-5.10479E-1,-1.2206084E0],"categories":[],"categories_nodes":[],"categories_segments":[],"categories_sizes":[],"default_left":[1,1,1,1,1,1,1,1,1,1,1,1,1,1,1,1,1,1,0,1,1,1,0,1,1,0,1,1,0,0,1,1,1,1,1,0,1,1,0,0,0,1,0,1,1,0,0,1,0,1,1,0,0,0,0,1,1,0,0,1,1,0,1,0,0,0,1,1,0,1,1,0,0,0,1,0,0,0,0,0,0,0,0,0,0,0,0,1,1,0,0,0,0,0,0,0,0],"id":9,"left_children":[1,3,5,7,9,11,13,15,17,19,21,23,25,27,29,31,33,35,-1,37,39,41,-1,43,45,-1,47,49,-1,-1,51,53,55,57,59,-1,61,63,-1,-1,-1,65,-1,67,69,-1,-1,71,-1,73,75,-1,-1,-1,-1,77,79,-1,-1,81,83,-1,85,-1,-1,-1,-1,89,-1,91,93,-1,-1,-1,95,-1,-1,-1,-1,-1,-1,-1,-1,-1,-1,-1,-1,-1,-1,-1,-1,-1,-1,-1,-1,-1,-1],"loss_changes":[5.031E0,4.6877985E0,3.0779467E0,3.391674E0,2.0166454E0,2.2056358E0,1.7340419E0,2.835014E0,2.1079288E0,3.948037E0,1.3976078E0,1.6012386E0,3.8765678E0,1.7643871E0,1.5682397E0,3.2013597E0,3.1992934E0,2.397027E-1,0E0,6.16029E-1,3.3477209E0,1.7548561E-1,0E0,1.8661351E0,7.709187E-1,0E0,8.1873107E-1,1.1418402E0,0E0,0E0,9.0415823E-1,1.5038884E0,1.3092947E0,3.4398818E-1,3.042543E0,0E0,7.207346E-2,1.429081E-3,0E0,0E0,0E0,4.9028397E-3,0E0,3.3236222E0,1.7148659E0,0E0,0E0,2.9904175E-1,0E0,1.0563915E0,9.695169E-1,0E0,0E0,0E0,0E0,3.7876606E-2,2.3285258E0,0E0,0E0,2.3324103E0,2.8425002E0,0E0,1.8177032E-3,0E0,0E0,0E0,1.6117096E-4,2.2857113E0,0E0,2.2257857E0,1.4008579E0,0E0,0E0,0E0,3.6174655E-1,0E0,0E0,0E0,0E0,0E0,0E0,0E0,0E0,0E0,0E0,0E0,0E0,0E0,0E0,0E0,0E0,0E0,0E0,0E0,0E0,0E0,0E0],"parents":[2147483647,0,0,1,1,2,2,3,3,4,4,5,5,6,6,7,7,8,8,9,9,10,10,11,11,12,12,13,13,14,14,15,15,16,16,17,17,19,19,20,20,21,21,23,23,24,24,26,26,27,27,30,30,31,31,32,32,33,33,34,34,36,36,37,37,41,41,43,43,44,44,47,47,49,49,50,50,55,55,56,56,59,59,60,60,62,62,66,66,67,67,69,69,70,70,74,74],"right_children":[2,4,6,8,10,12,14,16,18,20,22,24,26,28,30,32,34,36,-1,38,40,42,-1,44,46,-1,48,50,-1,-1,52,54,56,58,60,-1,62,64,-1,-1,-1,66,-1,68,70,-1,-1,72,-1,74,76,-1,-1,-1,-1,78,80,-1,-1,82,84,-1,86,-1,-1,-1,-1,90,-1,92,94,-1,-1,-1,96,-1,-1,-1,-1,-1,-1,-1,-1,-1,-1,-1,-1,-1,-1,-1,-1,-1,-1,-1,-1,-1,-1],"split_conditions":[6.030647E-1,7.804313E-1,5.737798E-1,9.865855E-1,2.8148156E-1,5.8316267E-1,9.3644917E-1,3.891557E-1,7.5487083E-1,4.3291518E-1,7.384602E-1,5E-1,4.9893105E-1,8.688289E-1,3.116508E-1,1.3933718E-1,1.3140908E-1,1.2424075E-1,-9.146197E-2,9.754385E-1,2.4398193E-1,1E0,-5.707087E-2,1.8369865E-1,8.6250055E-1,3.5007545E-1,9.9997556E-1,4.9997607E-1,2.4795611E-1,-6.4682937E-1,7.068403E-1,4.727564E-1,6.2366885E-1,3.0846086E-1,5.1328063E-1,1.7645605E-1,7.155254E-2,1.0170008E-1,6.254048E-2,-5.30979E-1,1.1469283E-1,7.191397E-2,1.9558059E-1,7.9619455E-1,4.005221E-1,-3.373787E-1,1.8249577E-2,4.83638E-1,-1.0268431E-1,5.6862247E-1,9.974141E-1,-3.4821117E-1,3.8024262E-3,6.588482E-2,-4.4138846E-1,6.6427433E-1,3.384871E-1,1.394456E-1,3.7345478E-1,3.1578928E-1,9.1172814E-1,2.4714875E-1,5.2771795E-1,3.4934002E-1,3.3197498E-1,3.5043538E-1,3.262145E-1,9.364243E-1,-5.171187E-1,8.044836E-1,1.9916865E-1,-5.1507276E-1,-3.0765325E-1,-1.3827794E-2,1.6805077E-1,2.526904E-1,-1.4982723E-1,3.4795073E-1,2.7992892E-1,-3.1142694E-1,2.6507053E-1,-4.5547754E-2,-4.9013326E-1,9.1556124E-2,-1.654502E-1,3.3211148E-1,3.4977293E-1,3.2530016E-1,3.3552858E-1,1.2187264E-1,-2.2482434E-1,-4.2021133E-2,2.2626084E-1,1.1803066E-1,3.3825627E-1,-1.5861215E-1,-3.7925816E-1],"split_indices":[58,45,84,68,53,133,26,86,90,19,22,167,116,26,82,76,82,46,0,0,86,109,0,72,27,0,51,51,0,0,30,91,73,36,29,0,19,46,0,0,0,46,0,45,42,0,0,59,0,7,85,0,0,0,0,77,26,0,0,72,64,0,61,0,0,0,18,39,0,9,99,0,0,0,19,0,0,0,0,0,0,0,0,0,0,0,0,2147483647,2147483647,0,0,0,0,0,0,0,0],"split_type":[0,0,0,0,0,0,0,0,0,0,0,0,0,0,0,0,0,0,0,0,0,0,0,0,0,0,0,0,0,0,0,0,0,0,0,0,0,0,0,0,0,0,0,0,0,0,0,0,0,0,0,0,0,0,0,0,0,0,0,0,0,0,0,0,0,0,0,0,0,0,0,0,0,0,0,0,0,0,0,0,0,0,0,0,0,0,0,0,0,0,0,0,0,0,0,0,0],"sum_hessian":[1.23204E2,6.675512E1,5.644888E1,4.353051E1,2.3224611E1,4.3671734E1,1.2777143E1,3.438015E1,9.150359E0,7.889403E0,1.5335208E1,3.8547123E1,5.1246142E0,8.860159E0,3.9169834E0,1.037545E1,2.4004702E1,7.4699793E0,1.6803802E0,4.745022E0,3.144381E0,1.4310429E1,1.0247794E0,3.6120285E1,2.4268367E0,1.1115927E0,4.0130215E0,7.4378586E0,1.4223003E0,1.0288717E0,2.8881116E0,2.2574723E0,8.117978E0,2.5423398E0,2.1462362E1,1.3791256E0,6.0908537E0,3.7418709E0,1.0031507E0,1.3866093E0,1.7577718E0,1.3264732E1,1.0456958E0,1.02961855E1,2.5824099E1,1.4260591E0,1.0007777E0,2.7131758E0,1.2998459E0,5.127396E0,2.3104627E0,1.6722049E0,1.2159067E0,1.1563115E0,1.1011608E0,5.0402513E0,3.0777268E0,1.0055124E0,1.5368276E0,4.71361E0,1.674875E1,1.0865161E0,5.0043373E0,1.0540314E0,2.6878395E0,1.0381198E0,1.2226613E1,9.048121E0,1.2480643E0,1.3977292E1,1.18468075E1,1.2431763E0,1.4699993E0,1.7310339E0,3.396362E0,1.1564128E0,1.15405E0,4.0267982E0,1.0134526E0,1.0035893E0,2.0741374E0,1.9294044E0,2.784206E0,9.114247E0,7.6345034E0,3.9163392E0,1.0879983E0,1.114678E1,1.0798323E0,6.4878745E0,2.560247E0,9.655865E0,4.321427E0,7.3510966E0,4.495711E0,1.0336456E0,2.3627164E0],"tree_param":{"num_deleted":"2","num_feature":"200","num_nodes":"97","size_leaf_vector":"0"}},{"base_weights":[1.528002E-1,2.3342213E-1,-2.570573E-1,2.6931012E-1,-6.936865E-1,-3.675448E-1,5.9822524E-1,7.0340264E-1,2.1124482E-1,-1.0826848E0,-1.6961694E-1,-5.026414E-1,5.069319E-1,1.133986E0,9.335569E-2,1.0434535E0,4.3764025E-2,1.1090206E-1,5.387149E-1,3.913918E-1,-6.2672836E-1,1.0420241E0,-9.18357E-2,1.0700849E0,1.0319315E0,-1.3603427E0,6.0224223E-1,1.7037183E-1,-7.2868305E-1,9.664589E-1,2.952033E-1,-7.4192524E-1,4.920364E-2,-7.893711E-2,1.0565348E0,3.619598E-1,-5.3044956E-2,-1.3206772E0,6.082533E-1,1.0619903E0,4.4547772E-1,-6.6027716E-2,9.648886E-1,2.5088612E-2,-9.0151817E-1,4.5698056E-1,-8.424167E-1,1.0289104E0,-1.6518062E-1,-8.485125E-1,-1.6005919E0,1.09133E0,9.458813E-1,-4.2759216E-1,4.8484725E-1,6.54461E-1,1.0741848E0,-1.0705361E0,-3.311983E-2],"categories":[],"categories_nodes":[],"categories_segments":[],"categories_sizes":[],"default_left":[1,1,1,1,1,1,1,1,1,0,0,1,1,0,0,1,1,1,1,0,1,0,0,0,0,0,1,1,1,1,1,1,0,0,0,1,1,1,0,1,0,1,1,0,1,0,0,0,0,0,0,0,0,0,0,0,0,0,0],"id":10,"left_children":[1,3,5,7,9,11,13,15,17,-1,-1,19,21,-1,-1,23,25,27,29,-1,31,-1,-1,-1,-1,-1,33,35,37,39,41,43,-1,-1,-1,45,47,49,-1,51,-1,53,55,-1,57,-1,-1,-1,-1,-1,-1,-1,-1,-1,-1,-1,-1,-1,-1],"loss_changes":[3.6348538E0,3.0582457E0,1.7084839E0,2.2302246E0,6.977285E-1,1.8917058E0,5.5885315E-1,2.3413434E0,2.5645983E0,0E0,0E0,1.5388405E0,6.8679583E-1,0E0,0E0,1.206398E-3,2.7847688E0,2.9830487E0,1.9063258E0,0E0,9.487138E-1,0E0,0E0,0E0,0E0,0E0,7.868158E-1,2.3884983E0,3.1279702E0,3.298521E-1,2.8226237E0,1.274322E0,0E0,0E0,0E0,3.437591E0,3.1247525E0,3.6096954E-1,0E0,1.823473E-2,0E0,1.5093588E0,1.3796425E-1,0E0,1.2640171E0,0E0,0E0,0E0,0E0,0E0,0E0,0E0,0E0,0E0,0E0,0E0,0E0,0E0,0E0],"parents":[2147483647,0,0,1,1,2,2,3,3,4,4,5,5,6,6,7,7,8,8,11,11,12,12,15,15,16,16,17,17,18,18,20,20,26,26,27,27,28,28,29,29,30,30,31,31,35,35,36,36,37,37,39,39,41,41,42,42,44,44],"right_children":[2,4,6,8,10,12,14,16,18,-1,-1,20,22,-1,-1,24,26,28,30,-1,32,-1,-1,-1,-1,-1,34,36,38,40,42,44,-1,-1,-1,46,48,50,-1,52,-1,54,56,-1,58,-1,-1,-1,-1,-1,-1,-1,-1,-1,-1,-1,-1,-1,-1],"split_conditions":[8.7591445E-1,5E-1,9.616515E-1,4.0436033E-2,9.624059E-1,9.9765056E-1,9.271538E-1,6.4559054E-1,9.867538E-1,-3.3640358E-1,-5.2702084E-2,3.1862038E-1,2.4579723E-1,3.523435E-1,2.9006772E-2,2.8148156E-1,7.0577407E-1,9.1462076E-1,9.9561924E-1,1.2161029E-1,5.758923E-1,3.237698E-1,-2.853449E-2,3.3248866E-1,3.2063392E-1,-4.2267534E-1,4.7363412E-1,6.313256E-1,7.968639E-1,6.162497E-1,9.238336E-1,3.090392E-2,1.5288182E-2,-2.452674E-2,3.2827845E-1,8.649591E-1,9.783299E-2,9.181827E-1,1.8899184E-1,4.8793843E-1,1.3841546E-1,8.9205253E-1,6.48528E-2,7.7953427E-3,9.988085E-1,1.4198953E-1,-2.6174933E-1,3.196952E-1,-5.1323667E-2,-2.6364335E-1,-4.9732375E-1,3.3908978E-1,2.9389706E-1,-1.3285819E-1,1.5064806E-1,2.0334916E-1,3.3376253E-1,-3.3262885E-1,-1.0290742E-2],"split_indices":[49,167,71,103,105,109,49,88,68,0,0,112,5,0,0,53,88,62,68,0,19,0,0,0,0,0,44,73,199,36,11,8,0,0,0,67,99,98,0,92,0,112,19,0,68,0,0,0,0,0,0,0,0,0,0,0,0,0,0],"split_type":[0,0,0,0,0,0,0,0,0,0,0,0,0,0,0,0,0,0,0,0,0,0,0,0,0,0,0,0,0,0,0,0,0,0,0,0,0,0,0,0,0,0,0,0,0,0,0,0,0,0,0,0,0,0,0,0,0,0,0],"sum_hessian":[1.100024E2,9.192178E1,1.8080622E1,8.849658E1,3.4252012E0,1.6012583E1,2.0680404E0,1.0440043E1,7.805653E1,1.9654751E0,1.4597262E0,1.3870277E1,2.1423047E0,1.0029104E0,1.06513E0,6.888364E0,3.5516798E0,5.974952E1,1.8307016E1,1.6900648E0,1.2180212E1,1.1316868E0,1.010618E0,2.0689034E0,4.8194604E0,1.0104551E0,2.5412247E0,5.579775E1,3.9517708E0,6.6405983E0,1.1666418E1,1.0407188E1,1.7730237E0,1.016342E0,1.5248826E0,3.0039623E1,2.5758127E1,2.739185E0,1.2125858E0,5.6109085E0,1.02969E0,7.5781097E0,4.088308E0,1.7920033E0,8.615186E0,2.7843254E1,2.1963692E0,2.4185536E0,2.3339573E1,1.0200646E0,1.7191204E0,4.476113E0,1.1347954E0,4.5756707E0,3.0024385E0,1.0656247E0,3.0226834E0,7.2111654E0,1.40402E0],"tree_param":{"num_deleted":"0","num_feature":"200","num_nodes":"59","size_leaf_vector":"0"}},{"base_weights":[1.2195047E-1,2.7420738E-1,-4.747587E-2,1.837791E-1,7.582137E-1,-1.458425E-1,5.1001626E-1,2.2346435E-1,-9.9542624E-1,9.875546E-1,-4.584616E-1,-9.508792E-2,-1.0908114E0,8.066706E-1,-2.1445397E-1,1.0114308E-1,6.1834216E-1,1.0661244E0,5.813549E-1,-2.6825023E-1,1.6792701E-1,-1.4647279E0,-7.028227E-1,9.987344E-1,5.691654E-2,3.0626687E-1,-7.4834305E-1,-1.7932653E-1,4.4884098E-1,8.4893364E-1,-2.5338218E-1,1.0492287E0,1.1228919E0,-1.0777888E-1,-9.563377E-1,9.444096E-1,-3.057809E-3,1.0556122E0,8.307862E-1,-2.695898E-1,1.0804645E0,9.3300515E-1,-2.8389849E-2,3.2416186E-1,1.0677205E0,-9.6815187E-1,5.1670283E-1,-2.3202857E-1,1.078584E0,-2.8301919E-1,-1.2629311E0,1.0931916E0,6.94848E-1,-1.0333356E0,1.3872E-1,1.0900522E0,1.0371364E0,-5.8170724E-1,1.5242167E-1,1.3808005E-1,1.058636E0,-1.3096094E0,2.840405E-1,1.0374125E0,-5.863542E-1,1.0861495E0,9.829443E-1,-3.3874708E-1,8.053606E-1,-1.092651E0,-1.5999472E0,1.1229873E0,-2.2090191E-2],"categories":[],"categories_nodes":[],"categories_segments":[],"categories_sizes":[],"default_left":[1,1,1,1,1,1,1,1,0,1,0,1,1,1,1,1,1,1,0,1,1,0,0,1,0,0,0,1,1,1,1,0,0,1,1,1,1,1,0,1,0,1,1,1,1,0,0,1,0,0,1,0,0,0,1,1,1,0,0,0,0,0,0,0,0,0,0,0,0,0,0,0,0],"id":11,"left_children":[1,3,5,7,9,11,13,15,-1,17,-1,19,21,23,25,27,29,31,-1,33,35,-1,-1,37,-1,-1,-1,39,41,43,45,-1,-1,47,49,51,53,-1,-1,57,-1,59,61,63,65,-1,-1,67,-1,-1,69,-1,-1,-1,71,-1,-1,-1,-1,-1,-1,-1,-1,-1,-1,-1,-1,-1,-1,-1,-1,-1,-1],"loss_changes":[2.6013122E0,2.3241339E0,2.617068E0,2.0938666E0,2.3329477E0,1.9452186E0,1.538493E0,2.0908744E0,0E0,2.237916E-1,0E0,1.7535503E0,2.9900098E-1,7.3084235E-1,5.781428E-1,3.2236452E0,2.0583217E0,4.714966E-3,0E0,2.5631444E0,2.0296082E0,0E0,0E0,3.7800312E-2,0E0,0E0,0E0,2.08013E0,3.4107125E0,9.2905617E-1,1.178884E0,0E0,0E0,2.774845E0,9.056039E-1,1.0165882E-1,1.8299612E0,1.0020733E-3,0E0,2.2489896E0,0E0,7.3121166E-1,2.9756389E0,1.5478436E0,8.034229E-3,0E0,0E0,1.8865566E0,0E0,0E0,1.7192268E-1,0E0,0E0,0E0,1.7431079E0,0E0,0E0,0E0,0E0,0E0,0E0,0E0,0E0,0E0,0E0,0E0,0E0,0E0,0E0,0E0,0E0,0E0,0E0],"parents":[2147483647,0,0,1,1,2,2,3,3,4,4,5,5,6,6,7,7,9,9,11,11,12,12,13,13,14,14,15,15,16,16,17,17,19,19,20,20,23,23,27,27,28,28,29,29,30,30,33,33,34,34,35,35,36,36,37,37,39,39,41,41,42,42,43,43,44,44,47,47,50,50,54,54],"right_children":[2,4,6,8,10,12,14,16,-1,18,-1,20,22,24,26,28,30,32,-1,34,36,-1,-1,38,-1,-1,-1,40,42,44,46,-1,-1,48,50,52,54,-1,-1,58,-1,60,62,64,66,-1,-1,68,-1,-1,70,-1,-1,-1,72,-1,-1,-1,-1,-1,-1,-1,-1,-1,-1,-1,-1,-1,-1,-1,-1,-1,-1],"split_conditions":[5.2083874E-1,6.3978875E-1,5.818236E-1,9.023092E-1,7.331402E-1,2.4472706E-2,8.791459E-1,3.76661E-1,-3.0929127E-1,4.803534E-1,-1.424497E-1,4.0098974E-1,8.515983E-1,9.2946076E-1,7.240436E-1,2.0008826E-1,9.871392E-1,7.799319E-1,1.8063419E-1,8.1663734E-1,5.90986E-1,-4.5510912E-1,-2.1837573E-1,6.739384E-1,1.7684674E-2,9.516092E-2,-2.3251946E-1,8.833537E-1,3.0608752E-1,1.1246665E-1,1.08376145E-1,3.2600835E-1,3.4889644E-1,5.8132726E-1,5.2134365E-1,3.5632035E-1,2.769884E-1,3.279918E-1,2.581356E-1,2.3632511E-1,3.357137E-1,1.8508151E-1,3.2569623E-1,2.6838097E-1,4.9356693E-1,-3.0081677E-1,1.6054597E-1,9.183346E-1,3.351294E-1,-8.793757E-2,8.669497E-2,3.3966818E-1,2.1589789E-1,-3.2107016E-1,6.721593E-1,3.3869275E-1,3.2225114E-1,-1.8074365E-1,4.7359303E-2,4.290318E-2,3.289313E-1,-4.0691188E-1,8.8254906E-2,3.2233694E-1,-1.8218751E-1,3.374801E-1,3.0541298E-1,-1.0525292E-1,2.5023553E-1,-3.3950022E-1,-4.9712342E-1,3.4892607E-1,-6.863696E-3],"split_indices":[15,95,139,79,2,113,26,141,0,197,0,61,79,15,103,12,85,81,0,95,66,0,0,59,0,0,0,45,4,103,39,0,0,134,26,24,59,1,0,82,0,84,47,39,23,0,0,11,0,0,46,0,0,0,95,2147483647,2147483647,0,0,0,0,0,0,0,0,0,0,0,0,0,0,0,0],"split_type":[0,0,0,0,0,0,0,0,0,0,0,0,0,0,0,0,0,0,0,0,0,0,0,0,0,0,0,0,0,0,0,0,0,0,0,0,0,0,0,0,0,0,0,0,0,0,0,0,0,0,0,0,0,0,0,0,0,0,0,0,0,0,0,0,0,0,0,0,0,0,0,0,0],"sum_hessian":[1.0083662E2,5.3110664E1,4.7725952E1,4.4750664E1,8.360001E0,4.0568604E1,7.157347E0,4.3294003E1,1.4566605E0,7.034387E0,1.3256133E0,3.8501152E1,2.0674517E0,5.078437E0,2.0789106E0,3.3055496E1,1.0238507E1,5.8933873E0,1.141E0,2.321719E1,1.5283964E1,1.052252E0,1.0151997E0,4.042339E0,1.0360978E0,1.0520251E0,1.0268855E0,1.8295908E1,1.4759588E1,8.097123E0,2.1413836E0,4.5475097E0,1.3458776E0,1.8827084E1,4.3901052E0,2.7586777E0,1.2525286E1,3.017764E0,1.0245749E0,1.7072983E1,1.2229263E0,7.3270216E0,7.4325666E0,2.3831024E0,5.714021E0,1.1108689E0,1.0305147E0,1.7042555E1,1.7845304E0,1.3740098E0,3.0160952E0,1.7272238E0,1.0314538E0,1.5154908E0,1.1009795E1,1.0455078E0,1.9722564E0,9.814933E0,7.258049E0,1.0004073E0,6.3266144E0,1.4574034E0,5.975163E0,1.3365741E0,1.0465282E0,4.68951E0,1.0245111E0,1.5453259E1,1.5892948E0,2.0045574E0,1.0115378E0,1.5465494E0,9.463246E0],"tree_param":{"num_deleted":"2","num_feature":"200","num_nodes":"73","size_leaf_vector":"0"}},{"base_weights":[1.0516623E-1,6.135477E-1,6.096263E-2,1.0336461E0,-2.120217E-2,9.094987E-1,3.4256008E-2,1.0590881E0,1.0196805E0,-6.7223465E-1,1.0823699E0,5.831317E-1,1.1262819E0,-8.471291E-2,2.2350731E-1,1.51689565E-2,-4.968102E-1,-1.1280425E-1,3.8745233E-1,1.4755794E-1,-2.5492993E-1,-8.6090875E-1,1.5045285E-1,-3.0556834E-1,1.0751482E0,4.6871862E-1,-6.450685E-1,7.2968084E-1,3.5350263E-2,-6.463101E-1,1.9669448E-1,-1.1224133E0,1.8189436E-1,1.1622262E0,-5.867378E-1,9.1244765E-2,-9.305797E-1,-1.764594E-1,6.141106E-1,-1.3127388E-1,9.936518E-1,-2.9019105E-1,3.220982E-1,-1.2303118E0,2.7789826E-2,8.5140836E-1,-3.441698E-1,-1.9708838E0,-9.0267384E-1,-1.1381779E0,-2.0293279E-2,9.068582E-1,-4.049909E-1,-1.3697039E0,-3.056392E-1,-9.5090353E-1,6.4227724E-1,7.6958674E-1,-2.7800461E-2],"categories":[],"categories_nodes":[],"categories_segments":[],"categories_sizes":[],"default_left":[1,1,1,1,1,1,1,1,1,0,0,0,0,1,1,1,1,1,1,1,1,1,1,1,0,1,0,1,1,1,1,1,0,0,1,1,1,1,1,0,0,0,0,0,0,0,0,0,0,0,0,0,0,0,0,0,0,0,0],"id":12,"left_children":[1,3,5,-1,9,11,13,-1,-1,-1,-1,-1,-1,15,17,19,21,23,25,27,29,31,33,35,-1,37,-1,39,41,43,45,47,-1,-1,49,51,53,55,57,-1,-1,-1,-1,-1,-1,-1,-1,-1,-1,-1,-1,-1,-1,-1,-1,-1,-1,-1,-1],"loss_changes":[2.0667763E0,1.962321E0,1.9173391E0,6.761551E-4,2.1046839E0,1.8192124E-1,1.8472803E0,0E0,0E0,0E0,0E0,0E0,0E0,2.0736809E0,1.7462538E0,1.4498105E0,2.316546E0,2.3761382E0,1.7864683E0,1.7770274E0,2.3573637E0,1.7158198E0,2.6390502E0,2.2149396E0,0E0,1.8517146E0,0E0,9.996102E-1,2.129644E0,2.8132718E0,2.1924555E0,9.36501E-1,0E0,0E0,6.3871866E-1,2.2105987E0,9.50989E-1,2.3014627E0,1.6080098E0,0E0,0E0,0E0,0E0,0E0,0E0,0E0,0E0,0E0,0E0,0E0,0E0,0E0,0E0,0E0,0E0,0E0,0E0,0E0,0E0],"parents":[2147483647,0,0,1,1,2,2,3,3,4,4,5,5,6,6,13,13,14,14,15,15,16,16,17,17,18,18,19,19,20,20,21,21,22,22,23,23,25,25,27,27,28,28,29,29,30,30,31,31,34,34,35,35,36,36,37,37,38,38],"right_children":[2,4,6,-1,10,12,14,-1,-1,-1,-1,-1,-1,16,18,20,22,24,26,28,30,32,34,36,-1,38,-1,40,42,44,46,48,-1,-1,50,52,54,56,58,-1,-1,-1,-1,-1,-1,-1,-1,-1,-1,-1,-1,-1,-1,-1,-1,-1,-1,-1,-1],"split_conditions":[4.0436033E-2,6.4559054E-1,1.9607642E-5,3.2116666E-1,1.9590084E-2,3.0251876E-1,4.8793843E-1,3.2907182E-1,3.168274E-1,-2.0887165E-1,3.3630577E-1,1.8118624E-1,3.4994975E-1,8.4782416E-1,3.7286097E-1,6.313256E-1,8.811259E-1,9.027307E-1,8.869701E-1,4.0975608E-2,5.4737496E-1,9.258213E-1,3.3940697E-1,3.012687E-1,3.340619E-1,2.10213E-1,-2.0043078E-1,4.9574345E-2,3.9585483E-1,2.3878753E-1,8.068435E-1,1.5287489E-1,5.6516834E-2,3.6111808E-1,2.9464608E-1,8.9895844E-1,5.2140725E-1,5.306123E-1,8.8066375E-1,-4.0788423E-2,3.0873993E-1,-9.016596E-2,1.000799E-1,-3.822731E-1,8.634644E-3,2.6454315E-1,-1.06937826E-1,-6.1237806E-1,-2.8047195E-1,-3.5364598E-1,-6.3053733E-3,2.8177208E-1,-1.258357E-1,-4.25584E-1,-9.496589E-2,-2.954575E-1,1.995635E-1,2.3912014E-1,-8.637948E-3],"split_indices":[103,88,0,53,103,199,92,2147483647,2147483647,0,0,0,0,67,21,73,30,112,58,35,21,155,10,18,0,17,0,38,76,82,112,59,0,0,1,26,81,52,69,0,0,0,0,0,0,0,0,0,0,0,0,0,0,0,0,0,0,0,0],"split_type":[0,0,0,0,0,0,0,0,0,0,0,0,0,0,0,0,0,0,0,0,0,0,0,0,0,0,0,0,0,0,0,0,0,0,0,0,0,0,0,0,0,0,0,0,0,0,0,0,0,0,0,0,0,0,0,0,0,0,0],"sum_hessian":[9.198295E1,7.357321E0,8.4625626E1,4.4276414E0,2.9296792E0,2.5817218E0,8.204391E1,1.5581512E0,2.8694901E0,1.8428904E0,1.0867889E0,1.0312165E0,1.5505053E0,5.0374645E1,3.1669258E1,4.0546227E1,9.828418E0,1.0377846E1,2.1291412E1,2.7210566E1,1.3335663E1,6.290533E0,3.5378852E0,8.929291E0,1.4485554E0,1.9738295E1,1.5531179E0,4.396757E0,2.2813808E1,7.144851E0,6.190811E0,5.0296564E0,1.2608768E0,1.49147E0,2.046415E0,5.461287E0,3.4680037E0,3.6294806E0,1.6108814E1,1.0313432E0,3.3654137E0,1.0683481E1,1.2130327E1,3.828606E0,3.3162456E0,2.801005E0,3.3898065E0,1.0342368E0,3.9954195E0,1.0365552E0,1.0098599E0,2.0661805E0,3.3951063E0,2.036403E0,1.4316008E0,1.8654634E0,1.7640172E0,1.2968427E1,3.1403878E0],"tree_param":{"num_deleted":"2","num_feature":"200","num_nodes":"59","size_leaf_vector":"0"}},{"base_weights":[8.723694E-2,1.0380328E0,6.482448E-2,-5.8841276E-1,9.206064E-2,-1.1983613E0,-1.3221104E-1,7.44224E-1,6.725186E-2,1.0004999E-1,1.0885209E0,9.652907E-1,4.035778E-2,1.1066914E0,8.000128E-1,-8.955237E-1,6.243084E-2,-5.534976E-3,3.9879835E-1,-7.562758E-2,3.7008935E-1,6.5989596E-1,-2.4219583E-1],"categories":[],"categories_nodes":[],"categories_segments":[],"categories_sizes":[],"default_left":[1,0,1,1,1,0,0,1,1,0,0,1,1,0,0,0,1,1,1,0,0,0,0],"id":13,"left_children":[1,-1,3,5,7,-1,-1,9,11,-1,-1,13,15,-1,-1,-1,17,19,21,-1,-1,-1,-1],"loss_changes":[1.7918484E0,0E0,1.4617623E0,9.144331E-1,1.2759374E0,0E0,0E0,6.404927E-1,1.8349538E0,0E0,0E0,5.0806522E-2,1.5238585E0,0E0,0E0,0E0,1.6481305E0,1.5787016E0,2.0282764E0,0E0,0E0,0E0,0E0],"parents":[2147483647,0,0,2,2,3,3,4,4,7,7,8,8,11,11,12,12,16,16,17,17,18,18],"right_children":[2,-1,4,6,8,-1,-1,10,12,-1,-1,14,16,-1,-1,-1,18,20,22,-1,-1,-1,-1],"split_conditions":[1.3948342E-2,3.2252964E-1,5.506867E-2,3.888146E-1,1.0479914E-1,-3.7234572E-1,-4.107961E-2,5.32055E-1,4.601257E-2,3.108677E-2,3.3821693E-1,5.6164443E-1,2.3749059E-2,3.438627E-1,2.485739E-1,-2.7825034E-1,7.113979E-1,9.212611E-1,9.497884E-1,-2.3498427E-2,1.1499135E-1,2.0503785E-1,-7.525325E-2],"split_indices":[38,0,26,34,39,0,0,22,28,0,0,22,41,0,0,0,44,112,42,0,0,0,0],"split_type":[0,0,0,0,0,0,0,0,0,0,0,0,0,0,0,0,0,0,0,0,0,0,0],"sum_hessian":[8.410847E1,1.9365293E0,8.2171936E1,3.2883234E0,7.888361E1,1.4066565E0,1.881667E0,2.8901846E0,7.599342E1,1.0071243E0,1.8830603E0,2.209178E0,7.378425E1,1.1891823E0,1.0199957E0,1.6996762E0,7.208457E1,5.9966553E1,1.2118018E1,5.0537296E1,9.429259E0,8.611109E0,3.5069091E0],"tree_param":{"num_deleted":"0","num_feature":"200","num_nodes":"23","size_leaf_vector":"0"}},{"base_weights":[6.6338554E-2,1.2018569E-1,-2.5569662E-1,9.954812E-1,9.7077325E-2,1.6806352E-1,-6.817979E-1,1.5528786E-1,-2.1283226E-1,5.116273E-1,-5.8684623E-1,-1.0846503E0,1.74776E-1,1.1282816E-1,6.6204375E-1,8.105911E-2,-8.6991626E-1,8.067443E-1,-1.8010788E-1,-1.3397772E0,-4.6234837E-1,2.1948081E-1,-2.610786E-1,9.4968784E-1,-1.8654348E-1,-3.5817784E-1,5.572715E-1,-4.759206E-1,-1.2646109E0,1.1124488E0,2.5366846E-1,-1.6019592E0,-1.1778883E0,9.844178E-2,5.107595E-1,-4.6051818E-1,2.644296E-1,1.1566716E0,7.7614045E-1,6.102757E-1,-7.9355717E-1,2.9345128E-1,1.1912706E0,1.5707406E-1,-6.6785675E-1,6.361176E-1,-8.173918E-1,-2.468515E-1,-1.0383756E0,-4.4936278E-1,6.3749444E-1,-2.935441E-1,-1.0938678E0,9.463163E-1,-4.0463576E-1],"categories":[],"categories_nodes":[],"categories_segments":[],"categories_sizes":[],"default_left":[1,1,1,0,1,1,1,1,1,1,0,1,0,1,1,1,1,1,0,1,0,1,1,1,0,1,1,0,0,0,0,0,0,1,1,1,1,0,0,0,1,1,0,0,0,0,0,0,0,0,0,0,0,0,0],"id":14,"left_children":[1,3,5,-1,7,9,11,13,15,17,-1,19,-1,21,23,25,27,29,-1,31,-1,33,35,37,-1,39,41,-1,-1,-1,-1,-1,-1,43,45,47,49,-1,-1,-1,51,53,-1,-1,-1,-1,-1,-1,-1,-1,-1,-1,-1,-1,-1],"loss_changes":[1.4134974E0,1.4121621E0,2.1085975E0,0E0,1.2274944E0,1.5182221E0,2.0096507E0,1.2322646E0,2.077951E0,8.216125E-1,0E0,6.280217E-1,0E0,2.1078506E0,1.0811534E0,1.5549092E0,5.163622E-1,4.7631514E-1,0E0,1.1800337E-1,0E0,1.4497384E0,1.2294778E0,1.1797118E-1,0E0,1.6302814E0,5.9598255E-1,0E0,0E0,0E0,0E0,0E0,0E0,1.3052328E0,2.009894E0,1.049376E0,8.592543E-1,0E0,0E0,0E0,3.9995468E-1,1.1484379E0,0E0,0E0,0E0,0E0,0E0,0E0,0E0,0E0,0E0,0E0,0E0,0E0,0E0],"parents":[2147483647,0,0,1,1,2,2,4,4,5,5,6,6,7,7,8,8,9,9,11,11,13,13,14,14,15,15,16,16,17,17,19,19,21,21,22,22,23,23,25,25,26,26,33,33,34,34,35,35,36,36,40,40,41,41],"right_children":[2,4,6,-1,8,10,12,14,16,18,-1,20,-1,22,24,26,28,30,-1,32,-1,34,36,38,-1,40,42,-1,-1,-1,-1,-1,-1,44,46,48,50,-1,-1,-1,52,54,-1,-1,-1,-1,-1,-1,-1,-1,-1,-1,-1,-1,-1],"split_conditions":[8.323853E-1,1.9607642E-5,2.9971936E-1,3.0930835E-1,5.832491E-1,8.846258E-1,9.9996525E-1,8.562649E-1,5.345056E-1,9.1671324E-1,-1.823404E-1,5.8211005E-1,5.430507E-2,9.1172814E-1,7.8518295E-1,2.2781281E-1,1.7410856E-1,8.3990854E-1,-5.596175E-2,8.801489E-1,-1.4365737E-1,7.7995265E-1,7.500596E-1,1.0174668E-1,-5.796137E-2,8.224334E-1,9.872811E-1,-1.4787443E-1,-3.9293027E-1,3.4565163E-1,7.8817934E-2,-4.9774858E-1,-3.659845E-1,9.8521745E-1,7.769481E-1,5.240867E-1,2.7469093E-1,3.5939223E-1,2.4115646E-1,1.8962023E-1,6.908934E-2,8.4732616E-1,3.7014255E-1,4.880486E-2,-2.0751137E-1,1.9764961E-1,-2.5397378E-1,-7.669982E-2,-3.226362E-1,-1.3962258E-1,1.9807743E-1,-9.1207795E-2,-3.398783E-1,2.9403222E-1,-1.2572534E-1],"split_indices":[79,0,130,0,122,15,169,8,22,79,0,131,0,64,23,99,44,69,0,79,0,20,45,44,0,41,85,0,0,0,0,0,0,74,35,34,36,0,0,0,18,67,0,0,0,0,0,0,0,0,0,0,0,0,0],"split_type":[0,0,0,0,0,0,0,0,0,0,0,0,0,0,0,0,0,0,0,0,0,0,0,0,0,0,0,0,0,0,0,0,0,0,0,0,0,0,0,0,0,0,0,0,0,0,0,0,0,0,0,0,0,0,0],"sum_hessian":[8.1516785E1,6.984022E1,1.1676565E1,1.7959201E0,6.8044304E1,5.8538575E0,5.822707E0,5.7285686E1,1.0758616E1,4.0233703E0,1.8304875E0,3.960542E0,1.8621652E0,5.285773E1,4.4279537E0,7.433298E0,3.3253186E0,2.8206234E0,1.2027466E0,2.808457E0,1.1520853E0,4.112768E1,1.173005E1,3.3073692E0,1.1205844E0,3.8662946E0,3.5670035E0,1.6646798E0,1.6606387E0,1.8160487E0,1.0045747E0,1.0711099E0,1.7373469E0,2.905538E1,1.20723E1,8.503604E0,3.226446E0,1.5072446E0,1.8001246E0,1.1987703E0,2.6675243E0,2.5193362E0,1.0476673E0,2.6990782E1,2.0645993E0,1.103142E1,1.0408802E0,6.2086577E0,2.2949462E0,1.1070838E0,2.119362E0,1.0014918E0,1.6660326E0,1.3021538E0,1.2171823E0],"tree_param":{"num_deleted":"0","num_feature":"200","num_nodes":"55","size_leaf_vector":"0"}},{"base_weights":[5.056183E-2,1.024527E0,3.41478E-2,1.5499156E-2,7.868037E-1,4.9658258E-2,-5.3118134E-1,3.3982825E-2,9.578293E-1,-8.8654536E-1,8.621155E-2,8.4013134E-1,1.6421774E-2,-1.1321537E0,-5.174887E-1,-7.649104E-1,3.3365846E-2,-8.636247E-3,4.3070662E-1],"categories":[],"categories_nodes":[],"categories_segments":[],"categories_sizes":[],"default_left":[1,0,1,1,0,1,1,1,0,1,0,0,1,0,0,0,1,0,0],"id":15,"left_children":[1,-1,3,5,-1,7,9,11,-1,13,-1,-1,15,-1,-1,-1,17,-1,-1],"loss_changes":[1.2103417E0,0E0,1.0450993E0,1.357079E0,0E0,9.734417E-1,9.3799686E-1,9.5165914E-1,0E0,2.4519515E-1,0E0,0E0,8.710137E-1,0E0,0E0,0E0,1.0752829E0,0E0,0E0],"parents":[2147483647,0,0,2,2,3,3,5,5,6,6,7,7,9,9,12,12,16,16],"right_children":[2,-1,4,6,-1,8,10,12,-1,14,-1,-1,16,-1,-1,-1,18,-1,-1],"split_conditions":[1.3948342E-2,3.1833324E-1,9.395333E-1,9.082329E-1,2.4446967E-1,9.6795464E-1,8.4138423E-1,1.9607642E-5,2.9760945E-1,8.2108945E-1,2.6786996E-2,2.6103923E-1,1.9607709E-5,-3.5177422E-1,-1.6079016E-1,-2.3766714E-1,9.9579036E-1,-2.6833892E-3,1.3382588E-1],"split_indices":[38,0,87,79,0,199,69,0,0,20,0,0,0,0,0,0,68,0,0],"split_type":[0,0,0,0,0,0,0,0,0,0,0,0,0,0,0,0,0,0,0],"sum_hessian":[7.573789E1,1.2548048E0,7.448309E1,7.268279E1,1.8002967E0,6.840907E1,4.273722E0,6.72488E1,1.1602687E0,2.7129054E0,1.560817E0,1.4331849E0,6.581562E1,1.6281781E0,1.0847272E0,1.3964499E0,6.441917E1,5.825958E1,6.159589E0],"tree_param":{"num_deleted":"0","num_feature":"200","num_nodes":"19","size_leaf_vector":"0"}},{"base_weights":[3.6859117E-2,1.6203058E-1,-8.928703E-2,1.355528E-2,5.5307883E-1,-6.0374546E-1,-3.6032204E-2,-9.164729E-2,5.6248236E-1,3.261325E-1,1.0352287E0,-1.0910085E0,8.382459E-2,4.5615005E-1,-1.0380481E-1,-1.492075E-1,1.0659409E0,4.407304E-2,9.4489884E-1,5.3926694E-1,-5.511152E-1,1.0608478E0,1.0237032E0,-1.4746368E0,-7.145212E-1,2.814743E-2,1.1022782E0,-5.5169474E-2,-1.3223191E0,3.4759575E-1,-2.53539E-1,8.0186164E-1,1.0431376E0,-1.9137946E-1,8.606863E-1,7.598008E-1,-5.1384634E-1,2.257606E-1,-1.9243124E-1,-2.7157876E-1,9.279952E-1,-6.584399E-2,-5.942527E-1,1.0321226E0,3.678652E-1,7.6221496E-1,-1.2427473E-1,-8.412833E-1,-7.9497494E-2,-1.743244E-1,1.0624E0,-9.8154485E-1,-7.880387E-2,1.0453465E0,5.771339E-2,5.2898407E-1,-7.03634E-1,-1.1591008E0,-3.0620795E-1,6.009006E-2,-4.7503704E-1],"categories":[],"categories_nodes":[],"categories_segments":[],"categories_sizes":[],"default_left":[1,1,1,1,1,1,1,1,1,1,1,1,0,1,1,1,0,0,1,1,0,1,1,0,0,1,0,1,0,1,1,0,0,0,1,0,0,1,1,0,0,1,1,0,0,1,1,1,1,0,0,0,0,0,0,0,0,0,0,0,0],"id":16,"left_children":[1,3,5,7,9,11,13,15,17,19,-1,23,-1,25,27,29,-1,-1,31,33,-1,-1,-1,-1,-1,35,-1,37,-1,39,41,-1,-1,-1,43,-1,-1,45,47,-1,-1,49,51,-1,-1,53,55,57,59,-1,-1,-1,-1,-1,-1,-1,-1,-1,-1,-1,-1],"loss_changes":[1.1668195E0,2.1533723E0,1.0080107E0,1.5527966E0,1.1162727E0,1.156785E0,1.1123123E0,1.5028547E0,8.5691667E-1,1.2977252E0,6.4611435E-5,2.9085827E-1,0E0,1.1155767E0,1.7366977E0,1.113963E0,0E0,0E0,3.4168005E-2,1.3117704E0,0E0,0E0,0E0,0E0,0E0,9.629531E-1,0E0,1.0870271E0,0E0,1.3405364E0,1.1356654E0,0E0,0E0,0E0,3.2710242E-1,0E0,0E0,1.7375501E0,1.3873618E0,0E0,0E0,1.4015323E0,1.2589538E0,0E0,0E0,7.2829366E-1,2.1188195E0,4.7672176E-1,8.908336E-1,0E0,0E0,0E0,0E0,0E0,0E0,0E0,0E0,0E0,0E0,0E0,0E0],"parents":[2147483647,0,0,1,1,2,2,3,3,4,4,5,5,6,6,7,7,8,8,9,9,10,10,11,11,13,13,14,14,15,15,18,18,19,19,25,25,27,27,29,29,30,30,34,34,37,37,38,38,41,41,42,42,45,45,46,46,47,47,48,48],"right_children":[2,4,6,8,10,12,14,16,18,20,-1,24,-1,26,28,30,-1,-1,32,34,-1,-1,-1,-1,-1,36,-1,38,-1,40,42,-1,-1,-1,44,-1,-1,46,48,-1,-1,50,52,-1,-1,54,56,58,60,-1,-1,-1,-1,-1,-1,-1,-1,-1,-1,-1,-1],"split_conditions":[6.030647E-1,7.804313E-1,1.524383E-1,9.865855E-1,4.2702773E-1,6.4016753E-1,3.4111015E-2,5.716777E-1,2.772885E-1,2.7498338E-1,3.216584E-1,3.5143232E-1,2.604534E-2,7.0667505E-2,5E-1,2.8602666E-1,3.3120105E-1,1.36940405E-2,2.83609E-1,7.569945E-2,-1.7123833E-1,3.2961854E-1,3.1807727E-1,-4.5818794E-1,-2.220106E-1,9.53845E-1,3.424915E-1,6.37708E-1,-4.1086096E-1,4.2677647E-1,4.131053E-1,2.4914835E-1,3.2411578E-1,-5.946397E-2,2.5617734E-1,2.3607953E-1,-1.5965843E-1,3.2106492E-1,1.5069655E-1,-8.4382884E-2,2.883396E-1,7.000481E-1,5.963871E-1,3.2069328E-1,1.1430028E-1,7.867065E-1,4.9962357E-1,4.0487248E-1,1.5123072E-1,-5.416475E-2,3.3010083E-1,-3.0497816E-1,-2.4485338E-2,3.2480213E-1,1.7932266E-2,1.6436191E-1,-2.1862781E-1,-3.6014697E-1,-9.514261E-2,1.8670727E-2,-1.4759989E-1],"split_indices":[58,45,39,68,95,72,10,49,28,61,78,124,0,38,157,0,0,0,109,98,0,2147483647,2147483647,0,0,0,0,103,0,199,6,0,0,0,6,0,0,44,35,0,0,98,9,0,0,41,115,42,44,0,0,0,0,0,0,0,0,0,0,0,0],"split_type":[0,0,0,0,0,0,0,0,0,0,0,0,0,0,0,0,0,0,0,0,0,0,0,0,0,0,0,0,0,0,0,0,0,0,0,0,0,0,0,0,0,0,0,0,0,0,0,0,0,0,0,0,0,0,0,0,0,0,0,0,0],"sum_hessian":[7.389459E1,3.7092308E1,3.6802288E1,2.6885412E1,1.0206894E1,3.4515097E0,3.3350777E1,2.2560818E1,4.3245955E0,6.9407845E0,3.2661092E0,2.0203605E0,1.4311491E0,4.0357494E0,2.9315027E1,2.1492493E1,1.0683255E0,1.8363463E0,2.488249E0,5.5844817E0,1.3563029E0,1.0018107E0,2.2642987E0,1.0001221E0,1.0202384E0,2.4280498E0,1.6076996E0,2.8190208E1,1.1248194E0,3.7294664E0,1.7763025E1,1.0149127E0,1.4733365E0,1.7057195E0,3.8787622E0,1.0335826E0,1.3944672E0,9.25175E0,1.893846E1,1.8040978E0,1.9253688E0,1.1454274E1,6.3087516E0,2.8770537E0,1.0017086E0,3.6535912E0,5.598159E0,2.8070352E0,1.6131424E1,1.0449901E1,1.0043731E0,3.6017056E0,2.707046E0,2.6057541E0,1.0478371E0,2.6309152E0,2.9672437E0,1.7605304E0,1.0465047E0,1.1922746E1,4.208678E0],"tree_param":{"num_deleted":"2","num_feature":"200","num_nodes":"61","size_leaf_vector":"0"}},{"base_weights":[3.5141863E-2,7.607452E-2,-2.7461496E-1,5.644152E-2,1.0395957E0,7.0726836E-1,-4.3494466E-1,3.54364E-2,7.268039E-1,-8.043502E-1,3.8223334E-2,6.346251E-3,5.4326767E-1,-1.0270511E-1,-1.0769863E0,6.317385E-1,-2.9714182E-1,4.035788E-2,-7.3917884E-1,9.999098E-1,-2.4234657E-1,-7.546265E-1,-1.347065E0,-1.06910184E-1,1.9404744E-1,-2.7984518E-1,-1.1385151E0,-2.1489474E-1,3.8245097E-1,3.5245746E-1,-2.6749068E-1],"categories":[],"categories_nodes":[],"categories_segments":[],"categories_sizes":[],"default_left":[1,1,1,1,0,0,1,1,0,1,1,1,1,0,1,0,0,1,1,0,0,0,0,1,1,0,0,0,0,0,0],"id":17,"left_children":[1,3,5,7,-1,-1,9,11,-1,13,15,17,19,-1,21,-1,-1,23,25,-1,-1,-1,-1,27,29,-1,-1,-1,-1,-1,-1],"loss_changes":[8.6848617E-1,1.1441691E0,1.2584282E0,8.346962E-1,0E0,0E0,1.2016284E0,8.492084E-1,0E0,7.379017E-1,5.998021E-1,1.3787324E0,1.1176498E0,0E0,2.410798E-1,0E0,0E0,1.1772871E0,4.3454063E-1,0E0,0E0,0E0,0E0,1.4034595E0,1.8609817E0,0E0,0E0,0E0,0E0,0E0,0E0],"parents":[2147483647,0,0,1,1,2,2,3,3,6,6,7,7,9,9,10,10,11,11,12,12,14,14,17,17,18,18,23,23,24,24],"right_children":[2,4,6,8,-1,-1,10,12,-1,14,16,18,20,-1,22,-1,-1,24,26,-1,-1,-1,-1,28,30,-1,-1,-1,-1,-1,-1],"split_conditions":[6.1515605E-1,5E-1,2.6487795E-1,9.8836184E-1,3.2301527E-1,2.1975705E-1,9.872811E-1,7.8984284E-1,2.2582698E-1,1.6498494E-1,8.121234E-1,7.1033573E-1,6.5837705E-1,-3.1911753E-2,6.576981E-1,1.9628897E-1,-9.232565E-2,2.4526668E-1,6.912667E-1,3.1068438E-1,-7.530008E-2,-2.3447181E-1,-4.1854978E-1,8.81652E-1,9.9999994E-1,-8.695137E-2,-3.5375077E-1,-6.677046E-2,1.1883226E-1,1.095129E-1,-8.311267E-2],"split_indices":[84,162,58,27,0,0,85,36,0,24,20,36,38,0,21,0,0,46,8,0,0,0,0,109,109,0,0,0,0,0,0],"split_type":[0,0,0,0,0,0,0,0,0,0,0,0,0,0,0,0,0,0,0,0,0,0,0,0,0,0,0,0,0,0,0],"sum_hessian":[6.8503845E1,6.050927E1,7.994572E0,5.9301376E1,1.2078947E0,1.1218009E0,6.8727713E0,5.7500305E1,1.8010694E0,3.860087E0,3.0126846E0,5.438577E1,3.1145356E0,1.0806231E0,2.7794638E0,1.0881715E0,1.9245131E0,5.2013443E1,2.3723283E0,1.9700081E0,1.1445276E0,1.26782E0,1.5116438E0,2.6560188E1,2.5453253E1,1.1037866E0,1.2685417E0,2.175952E1,4.8006682E0,1.8950098E1,6.503156E0],"tree_param":{"num_deleted":"0","num_feature":"200","num_nodes":"31","size_leaf_vector":"0"}},{"base_weights":[2.676352E-2,-9.477072E-3,3.7247452E-1,6.22992E-2,-1.9296297E-1,8.964042E-1,-1.4814724E-1,7.490277E-3,6.174782E-1,-1.129516E0,-1.1554124E-1,1.0746413E0,5.2672166E-1,-8.019835E-1,4.1072637E-1,-5.171385E-2,6.432275E-1,1.0235827E0,-5.7334535E-2,-2.9931387E-1,2.9972753E-1,1.0386845E0,1.1126491E0,-1.9251794E-1,1.5796866E-1,1.0631025E0,-3.0877087E-1,9.4578564E-1,1.0852484E0,3.6617786E-2,-6.895516E-1,-7.8780934E-2,9.142397E-1,-9.531845E-2,-7.628433E-1,3.1164616E-1,-5.8677304E-1,1.1638727E0,9.343462E-1,8.437761E-1,-1.4463021E-1,2.5583228E-1,-1.1524806E0,-4.9639198E-1,2.2183643E-1,1.0430527E0,-1.6310738E-1,-7.209403E-2,-1.278299E0,-7.1057E-2,7.7588516E-1,-9.9749863E-1,-3.376546E-2,-4.4462162E-1,4.5411685E-1,-1.3002176E0,-8.121951E-1],"categories":[],"categories_nodes":[],"categories_segments":[],"categories_sizes":[],"default_left":[1,1,1,1,1,1,1,1,1,0,1,1,0,0,0,1,1,1,0,1,1,0,0,1,1,1,0,0,0,1,1,1,0,1,1,1,1,0,0,0,1,0,1,0,0,0,0,0,0,0,0,0,0,0,0,0,0],"id":18,"left_children":[1,3,5,7,9,11,13,15,17,-1,19,21,-1,-1,-1,23,25,27,-1,29,31,-1,-1,33,35,37,-1,-1,-1,39,41,43,-1,45,47,49,51,-1,-1,-1,53,-1,55,-1,-1,-1,-1,-1,-1,-1,-1,-1,-1,-1,-1,-1,-1],"loss_changes":[8.198404E-1,7.7991885E-1,1.6938772E0,1.2948731E0,1.20691E0,2.0323896E-1,1.1379848E0,1.45834E0,1.0482793E0,0E0,1.1738164E0,1.9240379E-3,0E0,0E0,0E0,1.0463058E0,1.3197811E0,1.0577202E-2,0E0,1.3981689E0,1.0977328E0,0E0,0E0,1.1750078E0,1.6291671E0,2.8819561E-2,0E0,0E0,0E0,8.3854514E-1,2.1595225E0,3.6659104E-1,0E0,1.3976114E0,1.0984441E0,2.0969703E0,5.525353E-1,0E0,0E0,0E0,8.403709E-1,0E0,1.6559792E-1,0E0,0E0,0E0,0E0,0E0,0E0,0E0,0E0,0E0,0E0,0E0,0E0,0E0,0E0],"parents":[2147483647,0,0,1,1,2,2,3,3,4,4,5,5,6,6,7,7,8,8,10,10,11,11,15,15,16,16,17,17,19,19,20,20,23,23,24,24,25,25,29,29,30,30,31,31,33,33,34,34,35,35,36,36,40,40,42,42],"right_children":[2,4,6,8,10,12,14,16,18,-1,20,22,-1,-1,-1,24,26,28,-1,30,32,-1,-1,34,36,38,-1,-1,-1,40,42,44,-1,46,48,50,52,-1,-1,-1,54,-1,56,-1,-1,-1,-1,-1,-1,-1,-1,-1,-1,-1,-1,-1,-1],"split_conditions":[8.940294E-1,7.8647447E-1,5.73125E-1,9.08566E-1,7.925066E-1,5.247518E-1,3.6078566E-1,9.331129E-1,9.433731E-1,-3.5095462E-1,2.944252E-1,8.8988006E-1,1.6365895E-1,-2.491862E-1,1.2761778E-1,7.522199E-1,3.7538943E-1,2.4654551E-1,-1.781455E-2,1.6175151E-1,2.3157175E-1,3.2273215E-1,3.4571385E-1,7.64035E-1,8.7074137E-1,3.306908E-1,-9.5938936E-2,2.9386732E-1,3.372001E-1,8.475226E-2,6.7778796E-2,4.0469784E-1,2.840656E-1,4.9860053E-2,4.8331082E-1,2.1388622E-1,1.05568096E-1,3.616297E-1,2.9031295E-1,2.621717E-1,8.4901714E-1,7.949026E-2,7.1038663E-1,-1.5423514E-1,6.892733E-2,3.240894E-1,-5.0679486E-2,-2.240051E-2,-3.9718333E-1,-2.207829E-2,2.4107714E-1,-3.0993518E-1,-1.0491348E-2,-1.3814946E-1,1.4109974E-1,-4.0399373E-1,-2.523591E-1],"split_indices":[41,43,82,199,43,78,21,112,97,0,44,0,0,0,0,20,88,39,0,44,82,0,0,23,98,18,0,0,0,61,34,17,0,103,36,46,103,0,0,0,119,0,67,0,0,0,0,0,0,0,0,0,0,0,0,0,0],"split_type":[0,0,0,0,0,0,0,0,0,0,0,0,0,0,0,0,0,0,0,0,0,0,0,0,0,0,0,0,0,0,0,0,0,0,0,0,0,0,0,0,0,0,0,0,0,0,0,0,0,0,0,0,0,0,0,0,0],"sum_hessian":[6.542411E1,5.9215363E1,6.208745E0,4.2563114E1,1.665225E1,3.0949547E0,3.1137903E0,3.873942E1,3.8236935E0,1.2710518E0,1.5381198E1,2.087385E0,1.0075698E0,1.4353366E0,1.6784537E0,3.5438473E1,3.3009477E0,2.3875172E0,1.4361762E0,1.0663308E1,4.7178903E0,1.0784687E0,1.0089161E0,2.1202692E1,1.4235781E1,2.2909758E0,1.009972E0,1.058773E0,1.3287442E0,5.7297835E0,4.9335246E0,2.9191432E0,1.7987471E0,1.8115976E1,3.0867152E0,1.1801185E1,2.4345958E0,1.2832758E0,1.0077E0,1.0511298E0,4.6786537E0,1.6214012E0,3.3121233E0,1.22242E0,1.6967233E0,1.0178012E0,1.7098175E1,1.3194246E0,1.7672907E0,6.4681377E0,5.3330464E0,1.3965675E0,1.0380284E0,3.1174383E0,1.5612155E0,2.3085735E0,1.0035499E0],"tree_param":{"num_deleted":"0","num_feature":"200","num_nodes":"57","size_leaf_vector":"0"}},{"base_weights":[2.404348E-2,4.751362E-2,-4.7361806E-1,2.128194E-2,5.7332957E-1,-6.67838E-2,-1.0632424E0,4.3948606E-2,-6.1963725E-1,3.0685125E-2,1.0004185E0,-6.0431916E-1,6.38072E-2,7.2307914E-1,3.94867E-2,8.571527E-1,1.9187728E-2,-8.390133E-1,3.890955E-2],"categories":[],"categories_nodes":[],"categories_segments":[],"categories_sizes":[],"default_left":[1,1,1,1,1,0,0,1,0,0,0,0,1,0,1,0,1,0,0],"id":19,"left_children":[1,3,5,7,9,-1,-1,11,-1,-1,-1,-1,13,-1,15,-1,17,-1,-1],"loss_changes":[7.0923865E-1,7.997764E-1,6.5548366E-1,8.0235744E-1,6.3812417E-1,0E0,0E0,6.8671757E-1,0E0,0E0,0E0,0E0,8.298297E-1,0E0,8.2841635E-1,0E0,8.2433885E-1,0E0,0E0],"parents":[2147483647,0,0,1,1,2,2,3,3,4,4,7,7,12,12,14,14,16,16],"right_children":[2,4,6,8,10,-1,-1,12,-1,-1,-1,-1,14,-1,16,-1,18,-1,-1],"split_conditions":[9.76814E-1,9.579226E-1,2.4696344E-1,9.683716E-1,9.875709E-1,-2.0750554E-2,-3.3036262E-1,5.506867E-2,-1.9252898E-1,9.534249E-3,3.1084245E-1,-1.8776946E-1,1.0479914E-1,2.2466965E-1,4.601257E-2,2.6632798E-1,1.1172369E-1,-2.6069182E-1,1.208968E-2],"split_indices":[66,13,42,12,68,0,0,26,0,0,0,0,39,0,28,0,39,0,0],"split_type":[0,0,0,0,0,0,0,0,0,0,0,0,0,0,0,0,0,0,0],"sum_hessian":[6.073727E1,5.800268E1,2.7345881E0,5.524735E1,2.7553346E0,1.6185433E0,1.1160449E0,5.3360867E1,1.8864802E0,1.2139465E0,1.541388E0,1.5853884E0,5.177548E1,1.8414098E0,4.993407E1,1.2090942E0,4.8724976E1,1.0940752E0,4.76309E1],"tree_param":{"num_deleted":"0","num_feature":"200","num_nodes":"19","size_leaf_vector":"0"}},{"base_weights":[1.8140953E-2,3.8987675E-1,-1.15294065E-2,-2.9370856E-1,6.508382E-1,2.2062745E-2,-4.192885E-1,3.8070926E-1,1.1298467E0,-1.0614594E-2,4.2685157E-1,1.4915551E-1,-8.014828E-1,8.79149E-1,-1.1242514E-1,-3.2073725E-2,6.7283624E-1,6.40833E-1,-1.113275E-1,-4.369423E-1,-1.0496804E0,-4.4915572E-1,1.3492258E-2,9.4341147E-1,1.5154561E-1,-1.3230303E-1,-1.0504811E0,6.4347154E-1,-4.714054E-2,-7.1805835E-1,4.2296538E-1,9.612293E-1,2.3150842E-1,-7.4953073E-1,2.6800273E-2],"categories":[],"categories_nodes":[],"categories_segments":[],"categories_sizes":[],"default_left":[1,1,1,0,1,1,1,1,0,1,1,0,1,0,0,1,0,1,0,0,0,1,1,0,0,1,0,1,1,0,0,0,0,0,0],"id":20,"left_children":[1,3,5,-1,7,9,11,13,-1,15,17,-1,19,-1,-1,21,-1,23,-1,-1,-1,25,27,-1,-1,29,-1,31,33,-1,-1,-1,-1,-1,-1],"loss_changes":[6.5653867E-1,7.850446E-1,7.5505227E-1,0E0,4.1143227E-1,6.736572E-1,9.11796E-1,5.010038E-1,0E0,6.9066656E-1,4.3832093E-1,0E0,2.2638977E-1,0E0,0E0,8.682775E-1,0E0,4.0259016E-1,0E0,0E0,0E0,8.5682213E-1,1.573143E0,0E0,0E0,9.5876294E-1,0E0,4.7281766E-1,1.951103E0,0E0,0E0,0E0,0E0,0E0,0E0],"parents":[2147483647,0,0,1,1,2,2,4,4,5,5,6,6,7,7,9,9,10,10,12,12,15,15,17,17,21,21,22,22,25,25,27,27,28,28],"right_children":[2,4,6,-1,8,10,12,14,-1,16,18,-1,20,-1,-1,22,-1,24,-1,-1,-1,26,28,-1,-1,30,-1,32,34,-1,-1,-1,-1,-1,-1],"split_conditions":[4.0458985E-2,1.3491389E-1,9.2245215E-1,-9.125889E-2,8.827715E-1,8.3693576E-1,2.8900702E-2,5.4616135E-1,3.5105738E-1,9.8163164E-1,4.889041E-1,4.6344467E-2,5.716491E-1,2.731625E-1,-3.4931883E-2,1.368208E-2,2.0905857E-1,9.1451144E-1,-3.4590833E-2,-1.3576339E-1,-3.261487E-1,2.1938795E-1,4.3282896E-2,2.9312965E-1,4.70871E-2,1.8612038E-1,-3.263975E-1,9.575721E-1,8.712882E-2,-2.2310963E-1,1.3142058E-1,2.9866588E-1,7.193254E-2,-2.3288849E-1,8.327177E-3],"split_indices":[77,36,67,0,30,9,46,95,0,42,70,0,82,0,0,32,0,17,0,0,0,79,7,0,0,72,0,0,6,0,0,0,0,0,0],"split_type":[0,0,0,0,0,0,0,0,0,0,0,0,0,0,0,0,0,0,0,0,0,0,0,0,0,0,0,0,0,0,0,0,0,0,0],"sum_hessian":[5.95107E1,4.3998713E0,5.511083E1,1.2151492E0,3.184722E0,5.0915253E1,4.1955767E0,2.0369298E0,1.1477921E0,4.7111057E1,3.804195E0,1.6863343E0,2.5092423E0,1.013451E0,1.023479E0,4.5677498E1,1.43356E0,2.7225168E0,1.081678E0,1.0171058E0,1.4921366E0,4.4996886E0,4.117781E1,1.6816757E0,1.0408412E0,2.9473677E0,1.5523207E0,3.615861E0,3.756195E1,1.4346869E0,1.5126809E0,2.040739E0,1.5751221E0,3.5781033E0,3.3983845E1],"tree_param":{"num_deleted":"0","num_feature":"200","num_nodes":"35","size_leaf_vector":"0"}},{"base_weights":[1.4808447E-2,1.5121856E-1,-5.698004E-2,3.6876045E-2,6.5949154E-1,8.849146E-1,-8.70425E-2,1.3699786E-1,-6.367248E-1,9.684764E-1,2.6911607E-1,-4.218008E-1,1.1543437E-2,-2.2949504E-2,5.7622874E-1,-1.6726843E-1,-1.1076163E0,8.1171703E-1,1.1221372E0,-2.5772555E-2,-6.7733115E-1,1.1345661E-1,-3.5107836E-1,5.935932E-1,-1.5823741E-1,1.0234416E0,-1.9989344E-1,-7.5372314E-1,5.390294E-1,1.1576399E-1,-8.882841E-1,1.0409286E0,2.623747E-2,5.003945E-1,-5.461949E-1,-5.7500124E-1,1.445273E-1,-4.768046E-1,-1.1154705E0,-2.0533653E-1,2.0722477E-1,-1.1636686E0,-2.9342213E-1,2.2123478E-1,-1.0140898E0,3.8536346E-1,-4.3546036E-1,-1.3755101E0,-8.664672E-1,-3.5777357E-1,5.797156E-1,9.8302566E-2,1.0766225E0,-7.070871E-1,1.6336928E-1],"categories":[],"categories_nodes":[],"categories_segments":[],"categories_sizes":[],"default_left":[1,1,1,1,1,0,1,1,1,1,0,1,1,1,1,0,0,0,0,1,1,1,1,0,1,0,0,0,0,0,1,0,1,0,1,1,1,0,1,1,1,0,1,0,0,0,0,0,0,0,0,0,0,0,0],"id":21,"left_children":[1,3,5,7,9,-1,11,13,15,17,-1,19,21,23,25,-1,-1,-1,-1,27,29,31,33,-1,35,-1,-1,-1,-1,-1,37,-1,39,-1,41,43,45,-1,47,49,51,-1,53,-1,-1,-1,-1,-1,-1,-1,-1,-1,-1,-1,-1],"loss_changes":[5.6006527E-1,1.1458273E0,1.0605626E0,1.0855985E0,4.362359E-1,0E0,1.1984543E0,9.8499477E-1,4.5988363E-1,4.783714E-2,0E0,8.3571124E-1,1.0364184E0,8.568246E-1,1.2993512E0,0E0,0E0,0E0,0E0,1.3324513E0,8.4031844E-1,1.7707101E0,1.0221474E0,0E0,1.0634301E0,0E0,0E0,0E0,0E0,0E0,3.7008667E-1,0E0,8.388074E-1,0E0,7.806736E-1,1.240173E0,6.8163687E-1,0E0,1.6445017E-1,1.050464E0,1.0633924E0,0E0,6.714686E-1,0E0,0E0,0E0,0E0,0E0,0E0,0E0,0E0,0E0,0E0,0E0,0E0],"parents":[2147483647,0,0,1,1,2,2,3,3,4,4,6,6,7,7,8,8,9,9,11,11,12,12,13,13,14,14,19,19,20,20,21,21,22,22,24,24,30,30,32,32,34,34,35,35,36,36,38,38,39,39,40,40,42,42],"right_children":[2,4,6,8,10,-1,12,14,16,18,-1,20,22,24,26,-1,-1,-1,-1,28,30,32,34,-1,36,-1,-1,-1,-1,-1,38,-1,40,-1,42,44,46,-1,48,50,52,-1,54,-1,-1,-1,-1,-1,-1,-1,-1,-1,-1,-1,-1],"split_conditions":[3.9250413E-1,7.125335E-1,2.8124252E-2,6.9375086E-1,3.9840582E-1,2.7495393E-1,2.4929428E-1,2.8148156E-1,2.8721797E-1,3.1939805E-1,8.36177E-2,4.7326785E-1,6.32339E-1,1.409375E-1,5.807128E-1,-5.1972374E-2,-3.4415013E-1,2.5221056E-1,3.4866193E-1,1.13194466E-1,1.9307083E-1,3.0582967E-1,1.6498494E-1,1.8443675E-1,7.7048205E-2,3.1799597E-1,-6.210937E-2,-2.3419112E-1,1.6748312E-1,3.5969306E-2,8.7973726E-1,3.2342944E-1,5.014489E-1,1.5547878E-1,3.131714E-1,1.8438721E-2,7.565045E-1,-1.481491E-1,5.451095E-1,9.142379E-1,8.489988E-1,-3.6156628E-1,8.6582196E-1,6.874039E-2,-3.1509027E-1,1.1973721E-1,-1.3530293E-1,-4.2738804E-1,-2.6922208E-1,-1.1116468E-1,1.8012482E-1,3.0543827E-2,3.3451995E-1,-2.1970072E-1,5.076086E-2],"split_indices":[86,67,35,67,119,0,78,53,96,23,0,42,88,78,81,0,0,0,0,46,44,81,24,0,1,0,0,0,0,0,112,0,77,0,41,1,103,0,86,112,41,0,112,0,0,0,0,0,0,0,0,0,0,0,0],"split_type":[0,0,0,0,0,0,0,0,0,0,0,0,0,0,0,0,0,0,0,0,0,0,0,0,0,0,0,0,0,0,0,0,0,0,0,0,0,0,0,0,0,0,0,0,0,0,0,0,0,0,0,0,0,0,0],"sum_hessian":[5.71881E1,1.9720972E1,3.746713E1,1.6099934E1,3.6210375E0,1.1584078E0,3.630872E1,1.4017117E1,2.0828176E0,2.0206072E0,1.6004303E0,8.261241E0,2.804748E1,1.0274603E1,3.7425132E0,1.043457E0,1.0393605E0,1.0016094E0,1.0189978E0,3.2405825E0,5.0206585E0,2.1895142E1,6.152338E0,1.8482859E0,8.426317E0,2.3747208E0,1.3677925E0,1.4161403E0,1.8244423E0,1.0544226E0,3.9662356E0,1.8816011E0,2.0013542E1,1.1465732E0,5.005765E0,3.546243E0,4.880074E0,1.4115463E0,2.5546894E0,8.778732E0,1.1234809E1,1.4534843E0,3.5522807E0,1.260141E0,2.286102E0,3.4487479E0,1.4313263E0,1.2488036E0,1.3058858E0,7.3517585E0,1.4269736E0,9.984412E0,1.2503973E0,1.8646343E0,1.6876463E0],