{"learner":{"attributes":{"best_iteration":"49","best_ntree_limit":"50"},"feature_names":["0","1","2","3","4","5","6","7","8","9","10","11","12","13","14","15","16","17","18","19","20","21","22","23","24","25","26","27","28","29","30","31","32","33","34","35","36","37","38","39","40","41","42","43","44","45","46","47","48","49","50","51","52","53","54","55","56","57","58","59","60","61","62","63","64","65","66","67","68","69","70","71","72","73","74","75","76","77","78","79","80","81","82","83","84","85","86","87","88","89","90","91","92","93","94","95","96","97","98","99","100","101","102","103","104","105","106","107","108","109","110","111","112","113","114","115","116","117","118","119","120","121","122","123","124","125","126","127","128","129","130","131","132","133","134","135","136","137","138","139","140","141","142","143","144","145","146","147","148","149","150","151","152","153","154","155","156","157","158","159","160","161","162","163","164","165","166","167","168","169","170","171","172","173","174","175","176","177","178","179","180","181","182","183","184","185","186","187","188","189","190","191","192","193","194","195","196","197","198","199"],"feature_types":["float","float","float","float","float","float","float","float","float","float","float","float","float","float","float","float","float","float","float","float","float","float","float","float","float","float","float","float","float","float","float","float","float","float","float","float","float","float","float","float","float","float","float","float","float","float","float","float","float","float","float","float","float","float","float","float","float","float","float","float","float","float","float","float","float","float","float","float","float","float","float","float","float","float","float","float","float","float","float","float","float","float","float","float","float","float","float","float","float","float","float","float","float","float","float","float","float","float","float","float","float","float","float","float","float","float","float","float","float","float","float","float","float","float","float","float","float","float","float","float","float","float","float","float","float","float","float","float","float","float","float","float","float","float","float","float","float","float","float","float","float","float","float","float","float","float","float","float","float","float","float","float","float","float","float","float","float","float","float","float","float","float","float","float","float","float","float","float","float","float","float","float","float","float","float","float","float","float","float","float","float","float","float","float","float","float","float","float","float","float","float","float","float","float","float","float","float","float","float","float"],"gradient_booster":{"model":{"gbtree_model_param":{"num_parallel_tree":"1","num_trees":"50","size_leaf_vector":"0"},"tree_info":[0,0,0,0,0,0,0,0,0,0,0,0,0,0,0,0,0,0,0,0,0,0,0,0,0,0,0,0,0,0,0,0,0,0,0,0,0,0,0,0,0,0,0,0,0,0,0,0,0,0],"trees":[{"base_weights":[1.0123149E0,1.4272926E0,-9.5406145E-1,1.532385E0,-3.4665883E-1,2.0224065E-1,-1.4845328E0,1.5811683E0,-2.3527695E-1,-8.5713196E-1,1.1578618E0,-6.666548E-1,1.3684044E0,1.9998899E0,-1.5957413E0,-3.9997637E-1,1.6222032E0,-1.1999687E0,1.1428126E0,4.4441152E-1,-1.4736674E0,-3.998818E-1,1.7142394E0,-1.1627762E0,1.9999174E0,1.7419145E0,-2.8563058E-1,-1.6521704E0,9.998457E-1,-1.5293741E0,1.9999174E0,1.6512988E0,-8.5709924E-1,9.998457E-1,-1.7499593E0,-0E0,1.9999174E0,-1.9998678E0,1.3845665E0,6.6656625E-1,-1.8749795E0,1.9999338E0,9.998457E-1,-0E0,-1.7241155E0,1.9999756E0,-0E0,-1.727269E0,-0E0,-1.9999491E0,-0E0,1.6686385E0,-3.999409E-1,1.9998347E0,-1.9999338E0,-9.998457E-1,-1.9999449E0,1.9999174E0,3.998818E-1,-9.998457E-1,-1.9999764E0,-9.999228E-1,1.333228E0,-0E0,-1.9999735E0,-0E0,-1.767438E0,1.9998347E0,-1.9998347E0],"categories":[],"categories_nodes":[],"categories_segments":[],"categories_sizes":[],"default_left":[1,1,1,1,1,1,1,1,1,1,1,1,1,0,1,1,1,1,1,1,1,0,1,1,0,1,0,1,0,1,0,1,1,0,1,0,0,0,1,0,1,0,0,1,1,0,0,1,1,0,0,0,0,0,0,0,0,0,0,0,0,0,0,0,0,0,0,0,0],"id":0,"left_children":[1,3,5,7,9,11,13,15,17,19,21,23,25,-1,27,29,31,33,35,37,39,-1,41,43,-1,45,-1,47,-1,49,-1,51,53,-1,55,-1,-1,-1,57,-1,59,-1,-1,61,63,-1,-1,65,67,-1,-1,-1,-1,-1,-1,-1,-1,-1,-1,-1,-1,-1,-1,-1,-1,-1,-1,-1,-1],"loss_changes":[3.31297E2,6.2500427E1,4.3397194E1,2.7292786E1,1.4400301E1,2.2545479E1,1.8793602E1,2.5039429E1,1.1300207E1,1.1234431E1,4.1169996E0,1.6867447E1,5.8693104E0,0E0,6.8840485E0,1.694021E1,2.1767273E1,6.049527E0,3.428296E0,1.0340975E1,8.159763E0,0E0,7.1389484E-1,7.0166616E0,0E0,3.4837856E0,0E0,5.707489E0,0E0,3.058671E0,0E0,1.0608337E1,1.1427591E1,0E0,7.4962044E-1,0E0,0E0,0E0,1.968915E0,0E0,8.746605E-1,0E0,0E0,4.6659675E0,3.448185E0,0E0,0E0,3.0528412E0,7.9987655E0,0E0,0E0,0E0,0E0,0E0,0E0,0E0,0E0,0E0,0E0,0E0,0E0,0E0,0E0,0E0,0E0,0E0,0E0,0E0,0E0],"parents":[2147483647,0,0,1,1,2,2,3,3,4,4,5,5,6,6,7,7,8,8,9,9,10,10,11,11,12,12,14,14,15,15,16,16,17,17,18,18,19,19,20,20,22,22,23,23,25,25,27,27,29,29,31,31,32,32,34,34,38,38,40,40,43,43,44,44,47,47,48,48],"right_children":[2,4,6,8,10,12,14,16,18,20,22,24,26,-1,28,30,32,34,36,38,40,-1,42,44,-1,46,-1,48,-1,50,-1,52,54,-1,56,-1,-1,-1,58,-1,60,-1,-1,62,64,-1,-1,66,68,-1,-1,-1,-1,-1,-1,-1,-1,-1,-1,-1,-1,-1,-1,-1,-1,-1,-1,-1,-1],"split_conditions":[8.110975E-1,5.832491E-1,7.8692013E-1,8.7591445E-1,5.8949447E-1,6.2408847E-1,6.030561E-1,1.862762E-1,4.8793843E-1,2.0699939E-1,7.19545E-1,7.249282E-1,7.1833444E-1,4.3366715E-1,5E-1,8.767812E-1,9.271878E-1,3.2202378E-1,1.4975911E-1,3.8808596E-1,5.7024634E-1,-8.671258E-2,8.39488E-1,7.043437E-1,4.336731E-1,8.0884165E-1,-6.1937712E-2,9.9973446E-1,2.1681204E-1,8.9545465E-1,4.336731E-1,9.2459744E-1,4.1529807E-1,2.1681204E-1,7.777009E-1,-0E0,4.336731E-1,-4.3366235E-1,1.7449737E-1,1.445419E-1,4.0951036E-2,4.336767E-1,2.1681204E-1,6.7139006E-1,9.3211114E-2,4.3368572E-1,-0E0,1.7150594E-1,4.203957E-1,-4.3368E-1,-0E0,3.6183676E-1,-8.672539E-2,4.3365517E-1,-4.336767E-1,-2.1681204E-1,-4.3367907E-1,4.336731E-1,8.671258E-2,-2.1681204E-1,-4.336859E-1,-2.1682878E-1,2.8910452E-1,-0E0,-4.3368527E-1,-0E0,-3.8326102E-1,4.3365517E-1,-4.3365517E-1],"split_indices":[103,122,67,49,19,98,15,199,92,29,39,36,130,0,196,20,95,20,29,15,30,0,0,15,0,30,0,17,0,14,0,66,0,0,0,0,0,0,44,0,1,0,0,17,4,0,0,2,88,0,0,0,0,0,0,0,0,0,0,0,0,0,0,0,0,0,0,0,0],"split_type":[0,0,0,0,0,0,0,0,0,0,0,0,0,0,0,0,0,0,0,0,0,0,0,0,0,0,0,0,0,0,0,0,0,0,0,0,0,0,0,0,0,0,0,0,0,0,0,0,0,0,0,0,0,0,0,0,0,0,0,0,0,0,0,0,0,0,0,0,0],"sum_hessian":[4.06E2,3.3525E2,7.075E1,3.165E2,1.875E1,2.225E1,4.85E1,3.08E2,8.5E0,1.4E1,4.75E0,1.275E1,9.5E0,1.5E0,4.7E1,6.25E0,3.0175E2,5E0,3.5E0,4.5E0,9.5E0,1.25E0,3.5E0,1.075E1,2E0,7.75E0,1.75E0,4.6E1,1E0,4.25E0,2E0,2.9825E2,3.5E0,1E0,4E0,1.5E0,2E0,1.25E0,3.25E0,1.5E0,8E0,2.5E0,1E0,3.5E0,7.25E0,6.75E0,1E0,4.4E1,2E0,3.25E0,1E0,2.9575E2,2.5E0,1E0,2.5E0,1E0,3E0,2E0,1.25E0,1E0,7E0,2E0,1.5E0,1E0,6.25E0,1E0,4.3E1,1E0,1E0],"tree_param":{"num_deleted":"0","num_feature":"200","num_nodes":"69","size_leaf_vector":"0"}},{"base_weights":[8.218087E-1,1.1582E0,-7.764912E-1,1.243445E0,-2.8208092E-1,1.6466533E-1,-1.209185E0,1.3864452E0,8.1708336E-1,9.876622E-1,-7.1952325E-1,-5.425229E-1,1.1126404E0,1.6480153E0,-1.2993739E0,1.415338E0,-1.3306583E0,8.751664E-1,-2.1992981E0,1.5344499E0,-5.5946475E-1,5.056879E-1,-1.4040003E0,-1.0742173E0,1.1812742E0,1.550638E0,6.1309855E-2,-1.4290055E0,-5.2655643E-1,1.4466318E0,-3.998462E-1,-4.7679982E-1,-2.1743202E0,-7.018052E-2,1.051063E0,1.862535E0,9.35294E-1,-8.7841785E-1,1.4309922E0,-2.9715331E-2,-1.6814339E0,7.1278197E-4,-1.4535017E0,4.1413546E-1,1.7290944E0,8.9075047E-1,1.7010429E0,-1.2603416E0,1.1780977E0,5.5877614E-1,-1.4930197E0,2.6270565E-1,-1.6785564E0,1.476654E0,-3.6866716E-1,1.7248071E0,-1.6847473E0,4.442727E-1,-2.079314E0,6.934092E-1,1.4344702E0,1.693999E0,1.0641267E0,-1.6545825E0,-1.812153E0,-1.1333961E0,1.1333038E0,-2.3774554E-1,-1.707888E0,1.838911E0,1.6480736E0,-1.5780815E0,-2.5075847E-1,-8.2585394E-1,1.6632664E0],"categories":[],"categories_nodes":[],"categories_segments":[],"categories_sizes":[],"default_left":[1,1,1,1,1,1,1,1,1,1,1,1,1,0,1,1,1,1,0,1,0,1,1,1,1,1,1,1,1,1,1,0,0,1,1,0,0,0,1,0,1,1,1,0,0,0,1,0,0,0,1,1,0,0,0,0,0,0,0,0,0,0,0,0,0,0,0,0,0,0,0,0,0,0,0],"id":1,"left_children":[1,3,5,7,9,11,13,15,17,19,21,23,25,-1,27,29,31,33,-1,35,-1,37,39,41,43,45,47,49,51,53,55,-1,-1,57,59,-1,-1,-1,61,-1,63,65,67,-1,-1,-1,69,-1,-1,-1,71,73,-1,-1,-1,-1,-1,-1,-1,-1,-1,-1,-1,-1,-1,-1,-1,-1,-1,-1,-1,-1,-1,-1,-1],"loss_changes":[2.1119235E2,3.984189E1,2.7813301E1,1.8679108E1,1.0071748E1,1.4420542E1,1.205658E1,1.8011017E1,1.3481213E1,3.9306407E0,1.1310522E1,1.1291418E1,4.2318735E0,0E0,4.543541E0,1.2895203E1,1.7385197E0,1.2553631E1,0E0,6.744261E-1,0E0,6.1909657E0,3.2988586E0,3.8389902E0,1.2201476E0,6.4351463E-1,3.9896264E0,4.942482E0,5.924116E0,1.2162415E1,1.0502896E1,0E0,0E0,1.2241438E1,8.72802E0,0E0,0E0,0E0,2.7912855E-1,0E0,2.4738312E-2,3.1542718E0,2.1522322E0,0E0,0E0,0E0,3.8048744E-2,0E0,0E0,0E0,3.9759598E0,5.894674E0,0E0,0E0,0E0,0E0,0E0,0E0,0E0,0E0,0E0,0E0,0E0,0E0,0E0,0E0,0E0,0E0,0E0,0E0,0E0,0E0,0E0,0E0,0E0],"parents":[2147483647,0,0,1,1,2,2,3,3,4,4,5,5,6,6,7,7,8,8,9,9,10,10,11,11,12,12,14,14,15,15,16,16,17,17,19,19,21,21,22,22,23,23,24,24,25,25,26,26,27,27,28,28,29,29,30,30,33,33,34,34,38,38,40,40,41,41,42,42,46,46,50,50,51,51],"right_children":[2,4,6,8,10,12,14,16,18,20,22,24,26,-1,28,30,32,34,-1,36,-1,38,40,42,44,46,48,50,52,54,56,-1,-1,58,60,-1,-1,-1,62,-1,64,66,68,-1,-1,-1,70,-1,-1,-1,72,74,-1,-1,-1,-1,-1,-1,-1,-1,-1,-1,-1,-1,-1,-1,-1,-1,-1,-1,-1,-1,-1,-1,-1],"split_conditions":[8.110975E-1,5.832491E-1,7.8692013E-1,6.030647E-1,5.7024634E-1,6.2408847E-1,6.030561E-1,9.2701286E-1,9.567886E-1,6.50424E-1,8.224334E-1,8.5911226E-1,6.2344587E-1,3.573647E-1,9.616515E-1,9.24086E-1,6.5902615E-1,3.8157472E-1,-4.7690794E-1,5.689391E-1,-1.21317424E-1,6.363162E-1,2.4138507E-2,6.9117105E-1,2.2099894E-1,3.7026796E-1,9.6741784E-1,2.722603E-1,9.4461536E-1,9.1671324E-1,3.6322886E-1,-1.033919E-1,-4.7149158E-1,6.0718775E-1,2.2625695E-1,4.0388235E-1,2.028143E-1,-1.9048096E-1,4.377656E-1,-6.443636E-3,4.5278853E-1,2.591094E-1,6.313256E-1,8.980341E-2,3.7494636E-1,1.9315524E-1,7.813561E-1,-2.7329943E-1,2.554652E-1,1.211681E-1,9.991269E-1,4.8112565E-1,-3.6398745E-1,3.202058E-1,-7.994382E-2,3.740167E-1,-3.653299E-1,9.633854E-2,-4.5088992E-1,1.5036267E-1,3.1105843E-1,3.673361E-1,2.3075111E-1,-3.587888E-1,-3.9295724E-1,-2.4577187E-1,2.4575183E-1,-5.1554054E-2,-3.7034786E-1,3.987596E-1,3.5737735E-1,-3.421999E-1,-5.437585E-2,-1.7908272E-1,3.6067185E-1],"split_indices":[103,122,67,58,30,98,15,67,39,88,41,24,22,0,71,95,30,199,0,82,0,20,2,15,17,1,8,112,66,79,0,0,0,84,46,0,0,0,17,0,19,2,73,0,0,0,2,0,0,0,68,78,0,0,0,0,0,0,0,0,0,0,0,0,0,0,0,0,0,0,0,0,0,0,0],"split_type":[0,0,0,0,0,0,0,0,0,0,0,0,0,0,0,0,0,0,0,0,0,0,0,0,0,0,0,0,0,0,0,0,0,0,0,0,0,0,0,0,0,0,0,0,0,0,0,0,0,0,0,0,0,0,0,0,0,0,0,0,0,0,0,0,0,0,0,0,0,0,0,0,0,0,0],"sum_hessian":[3.928032E2,3.2450525E2,6.8297935E1,3.0637228E2,1.8132982E1,2.1510315E1,4.678762E1,2.2942401E2,7.694827E1,4.646235E0,1.3486748E1,1.2319692E1,9.190622E0,1.4316279E0,4.5355995E1,2.270101E2,2.41391E0,7.549461E1,1.4536587E0,3.4330237E0,1.2132112E0,4.833893E0,8.652855E0,9.415597E0,2.904095E0,6.4876456E0,2.7029772E0,3.8840702E1,6.515291E0,2.2316286E2,3.847237E0,1.1997981E0,1.2141118E0,1.1843189E1,6.3651424E1,2.2181497E0,1.214874E0,1.9367193E0,2.8971734E0,1.4534798E0,7.199375E0,2.4556553E0,6.959942E0,1.2099813E0,1.6941136E0,1.2044148E0,5.283231E0,1.2378849E0,1.4650923E0,1.211724E0,3.762898E1,3.8662899E0,2.6490014E0,2.1953221E2,3.630648E0,1.4497998E0,2.3974373E0,9.428811E0,2.4143782E0,3.2931934E1,3.0719488E1,1.687191E0,1.2099823E0,5.9735756E0,1.2257993E0,1.2269422E0,1.2287132E0,1.2044156E0,5.7555265E0,1.4655715E0,3.8176591E0,3.5217407E1,2.4115727E0,2.1754017E0,1.6908882E0],"tree_param":{"num_deleted":"0","num_feature":"200","num_nodes":"75","size_leaf_vector":"0"}},{"base_weights":[6.972425E-1,9.8228073E-1,-6.625067E-1,1.0211947E0,-1.4825794E0,1.3900551E-1,-1.0356225E0,6.678181E-1,1.1890932E0,-7.4005264E-1,-1.7101746E0,-9.4666576E-1,6.148144E-1,1.453253E0,-1.1119717E0,2.7086228E-1,1.0441734E0,1.2152272E0,-7.9017854E-1,-2.0536115E0,-1.4879761E0,5.4412234E-1,-1.5918506E0,9.602368E-1,-9.495951E-1,-1.1621926E0,6.9974554E-1,-4.9387702E-1,6.876215E-1,1.1801261E0,-5.9717387E-1,1.3365996E0,8.483366E-1,-1.5385708E0,2.9652163E-1,-1.5219628E0,-1.4525745E0,-1.6876111E0,-1.4474272E0,-8.530538E-1,1.2557536E0,-2.2464447E-1,-1.5719713E0,-1.2906958E0,-4.4254076E-1,-8.493449E-1,1.3011333E0,1.6371468E-1,1.318415E0,6.41354E-1,1.3026737E0,-1.812161E0,1.1481843E0,1.3595226E0,-3.4071913E-1,9.434332E-1,-1.016871E0,-1.8117745E0,-1.524834E0,1.4646918E0,4.6035433E-1,-1.1108797E-2,-1.3355635E0,3.9053643E-1,-1.249809E0],"categories":[],"categories_nodes":[],"categories_segments":[],"categories_sizes":[],"default_left":[1,1,1,1,1,1,1,1,1,0,1,1,1,0,1,1,1,1,1,0,1,0,1,1,1,1,0,1,1,1,1,1,1,0,0,0,0,1,0,0,1,0,0,1,1,0,0,0,0,0,0,0,0,0,0,0,0,0,0,0,0,0,0,0,0],"id":2,"left_children":[1,3,5,7,9,11,13,15,17,-1,19,21,23,-1,25,27,29,31,33,-1,35,-1,37,39,41,43,-1,45,47,49,51,53,55,-1,-1,-1,-1,57,-1,-1,59,-1,-1,61,63,-1,-1,-1,-1,-1,-1,-1,-1,-1,-1,-1,-1,-1,-1,-1,-1,-1,-1,-1,-1],"loss_changes":[1.4182541E2,2.9016083E1,1.8964506E1,1.7669159E1,7.941866E-1,1.0405303E1,8.2224655E0,1.4330254E1,1.0442963E1,0E0,2.740593E-1,5.9037414E0,7.568192E0,0E0,3.8199348E0,1.4878687E1,1.0987484E1,8.87262E0,2.1398277E0,0E0,2.1781921E-3,0E0,5.8771133E-2,6.1475677E0,1.1426048E0,3.7775307E0,0E0,1.0507011E1,9.985713E0,3.0020256E0,7.987067E0,5.756958E0,8.785633E0,0E0,0E0,0E0,0E0,5.1539898E-2,0E0,0E0,1.6391191E0,0E0,0E0,1.989788E0,4.162639E0,0E0,0E0,0E0,0E0,0E0,0E0,0E0,0E0,0E0,0E0,0E0,0E0,0E0,0E0,0E0,0E0,0E0,0E0,0E0,0E0],"parents":[2147483647,0,0,1,1,2,2,3,3,4,4,5,5,6,6,7,7,8,8,10,10,11,11,12,12,14,14,15,15,16,16,17,17,18,18,20,20,22,22,23,23,24,24,25,25,27,27,28,28,29,29,30,30,31,31,32,32,37,37,40,40,43,43,44,44],"right_children":[2,4,6,8,10,12,14,16,18,-1,20,22,24,-1,26,28,30,32,34,-1,36,-1,38,40,42,44,-1,46,48,50,52,54,56,-1,-1,-1,-1,58,-1,-1,60,-1,-1,62,64,-1,-1,-1,-1,-1,-1,-1,-1,-1,-1,-1,-1,-1,-1,-1,-1,-1,-1,-1,-1],"split_conditions":[8.110975E-1,5E-1,7.8692013E-1,4.4744372E-1,3.5736257E-1,3.9931345E-1,6.030561E-1,4.748383E-1,9.271878E-1,-1.6047709E-1,7.217904E-1,5.534227E-1,8.685867E-1,3.151314E-1,9.989054E-1,3.8042238E-1,7.5915176E-1,6.030647E-1,2.8447527E-1,-4.4531643E-1,2.610903E-1,1.1799049E-1,3.5395786E-1,8.2766974E-1,8.612859E-1,9.616515E-1,1.5173668E-1,4.6030253E-1,5.321498E-1,2.9015356E-1,6.9823956E-1,9.863578E-1,9.5262444E-1,-3.3363217E-1,6.429938E-2,-3.300308E-1,-3.1498426E-1,9.4847465E-1,-3.1386808E-1,-1.8498088E-1,8.6190844E-1,-4.8713144E-2,-3.408749E-1,2.6631492E-1,6.31428E-1,-1.8417664E-1,2.821449E-1,3.5500795E-2,2.858924E-1,1.3907474E-1,2.8247896E-1,-3.9295897E-1,2.4897861E-1,2.9480636E-1,-7.3883414E-2,2.0457926E-1,-2.2050391E-1,-3.9287516E-1,-3.3065343E-1,3.1761184E-1,9.982577E-2,-2.4088928E-3,-2.8961095E-1,8.468607E-2,-2.7101547E-1],"split_indices":[103,167,67,45,10,35,15,44,95,0,26,27,84,0,139,155,35,58,1,0,1,0,1,103,17,71,0,7,15,28,41,77,119,0,0,0,0,26,0,0,79,0,0,9,24,0,0,0,0,0,0,0,0,0,0,0,0,0,0,0,0,0,0,0,0],"split_type":[0,0,0,0,0,0,0,0,0,0,0,0,0,0,0,0,0,0,0,0,0,0,0,0,0,0,0,0,0,0,0,0,0,0,0,0,0,0,0,0,0,0,0,0,0,0,0,0,0,0,0,0,0,0,0,0,0,0,0,0,0,0,0,0,0],"sum_hessian":[3.6592487E2,3.0251093E2,6.341393E1,2.9780933E2,4.7016034E0,2.0143055E1,4.327087E1,9.592228E1,2.0188705E2,1.103177E0,3.5984266E0,6.1378274E0,1.4005228E1,1.2878168E0,4.1983055E1,4.668367E1,4.923861E1,1.9925618E2,2.6308784E0,1.4132805E0,2.185146E0,1.8539052E0,4.283922E0,1.1472246E1,2.5329819E0,4.0850758E1,1.1322987E0,1.6466972E1,3.0216698E1,4.5472233E1,3.766374E0,1.4972482E2,4.953136E1,1.558022E0,1.0728564E0,1.1125481E0,1.072598E0,2.575271E0,1.7086513E0,1.6075873E0,9.864659E0,1.170184E0,1.362798E0,3.4661316E1,6.189441E0,1.3745101E1,2.7218723E0,1.650701E1,1.3709686E1,8.426583E0,3.704565E1,2.2206244E0,1.5457499E0,1.4770628E2,2.0185323E0,4.7128613E1,2.4027472E0,1.4603506E0,1.1149203E0,7.8123064E0,2.0523524E0,1.1743093E0,3.3487007E1,3.0459442E0,3.143497E0],"tree_param":{"num_deleted":"0","num_feature":"200","num_nodes":"65","size_leaf_vector":"0"}},{"base_weights":[6.042736E-1,8.51013E-1,-5.763026E-1,8.846531E-1,-1.2823249E0,-8.4395505E-2,-1.0724165E0,9.268153E-1,-3.7699062E-1,-5.4201704E-1,-1.5080546E0,-4.2488834E-1,9.54729E-1,-1.1535113E0,2.1936014E-1,1.2347273E0,7.950461E-1,-9.202573E-1,9.7315574E-1,-1.7406982E0,-1.383816E0,-8.401329E-1,3.3115306E-1,1.2395389E0,-4.114228E-1,9.513084E-2,-1.2082518E0,1.286615E0,6.6146505E-1,5.763859E-1,1.0341711E0,-1.6894515E0,4.5227823E-1,1.7415512E-1,1.6273563E0,-1.4382405E0,-1.333777E0,1.1567919E0,-1.0141903E0,-6.811379E-1,1.025558E0,1.6524608E0,6.759356E-1,-1.3184174E0,-6.293547E-1,2.5806522E-1,1.3125988E0,1.0657824E0,-1.5367656E0,7.264873E-1,-1.023541E-1,1.0884901E0,-5.4434675E-1,-1.3432543E0,-1.9874794E0,-1.5182804E-1,1.0431174E0,-5.832523E-1,-1.4070308E0,9.531418E-1,-1.4838564E0,1.5430242E0,-8.248457E-1,1.373629E0,2.234811E0,-3.3133468E-1,1.4286361E0,-1.3555208E0,-6.040858E-1,3.2492098E-1,-1.4369756E0],"categories":[],"categories_nodes":[],"categories_segments":[],"categories_sizes":[],"default_left":[1,1,1,1,1,1,1,1,1,0,1,1,1,1,0,1,1,1,1,0,1,1,1,1,0,0,1,1,1,1,1,1,1,0,0,0,0,0,1,1,1,1,1,1,1,0,0,0,0,0,0,0,0,0,0,0,0,0,0,0,0,0,0,0,0,0,0,0,0,0,0],"id":3,"left_children":[1,3,5,7,9,11,13,15,17,-1,19,21,23,25,-1,27,29,31,33,-1,35,37,39,41,-1,-1,43,45,47,49,51,53,55,-1,-1,-1,-1,-1,57,59,61,63,65,67,69,-1,-1,-1,-1,-1,-1,-1,-1,-1,-1,-1,-1,-1,-1,-1,-1,-1,-1,-1,-1,-1,-1,-1,-1,-1,-1],"loss_changes":[9.762562E1,1.9893936E1,1.413866E1,1.4516846E1,7.1881866E-1,1.0292928E1,3.021782E0,1.0714264E1,6.4730597E0,0E0,9.4837666E-2,6.8791046E0,2.7937207E0,1.8552704E0,0E0,2.3538284E0,9.669594E0,6.6439805E0,1.3232546E0,0E0,5.4368973E-3,4.9160643E0,5.460531E0,1.3823271E0,0E0,0E0,1.657917E0,1.9393387E0,5.8384533E0,9.841946E0,7.574196E0,4.1559792E-1,8.0680597E-1,0E0,0E0,0E0,0E0,0E0,2.2021408E0,4.146269E0,4.4119406E0,5.562191E-1,1.9050069E0,5.786629E-1,3.2040966E0,0E0,0E0,0E0,0E0,0E0,0E0,0E0,0E0,0E0,0E0,0E0,0E0,0E0,0E0,0E0,0E0,0E0,0E0,0E0,0E0,0E0,0E0,0E0,0E0,0E0,0E0],"parents":[2147483647,0,0,1,1,2,2,3,3,4,4,5,5,6,6,7,7,8,8,10,10,11,11,12,12,13,13,15,15,16,16,17,17,18,18,20,20,21,21,22,22,23,23,26,26,27,27,28,28,29,29,30,30,31,31,32,32,38,38,39,39,40,40,41,41,42,42,43,43,44,44],"right_children":[2,4,6,8,10,12,14,16,18,-1,20,22,24,26,-1,28,30,32,34,-1,36,38,40,42,-1,-1,44,46,48,50,52,54,56,-1,-1,-1,-1,-1,58,60,62,64,66,68,70,-1,-1,-1,-1,-1,-1,-1,-1,-1,-1,-1,-1,-1,-1,-1,-1,-1,-1,-1,-1,-1,-1,-1,-1,-1,-1],"split_conditions":[8.110975E-1,5E-1,8.7362826E-1,8.7591445E-1,6.6152394E-1,7.6494145E-1,9.9973446E-1,5.57724E-2,7.19406E-1,-1.1753397E-1,8.1974506E-1,5.2771795E-1,9.681891E-1,2.722603E-1,4.7567263E-2,5.2771795E-1,4.8793843E-1,6.900948E-1,7.474376E-2,-3.774626E-1,2.1333082E-1,7.466889E-2,6.072569E-1,8.200971E-1,-8.921519E-2,2.0628696E-2,9.616515E-1,1.3901845E-1,8.244471E-1,6.962272E-1,5E-1,5.453508E-1,4.6396428E-1,3.7764754E-2,3.5288492E-1,-3.11876E-1,-2.8922355E-1,2.5084513E-1,8.4114015E-1,4.9932674E-1,6.1124825E-1,4.5897436E-1,5.5442214E-1,7.14394E-1,5.8245206E-1,5.5960286E-2,2.8463116E-1,2.3111014E-1,-3.3324072E-1,1.5753551E-1,-2.2195028E-2,2.360342E-1,-1.1803915E-1,-2.9127866E-1,-4.30976E-1,-3.292323E-2,2.2619534E-1,-1.2647565E-1,-3.051083E-1,2.0668453E-1,-3.217676E-1,3.3459786E-1,-1.7886408E-1,2.9786527E-1,4.8460874E-1,-7.184844E-2,3.0979332E-1,-2.939386E-1,-1.3099329E-1,7.045766E-2,-3.116017E-1],"split_indices":[103,167,67,49,103,77,17,103,44,0,15,61,52,112,0,61,92,81,1,0,77,2,24,79,0,0,71,29,44,79,118,103,29,0,0,0,0,0,50,111,84,87,46,18,154,0,0,0,0,0,0,0,0,0,0,0,0,0,0,0,0,0,0,0,0,0,0,0,0,0,0],"split_type":[0,0,0,0,0,0,0,0,0,0,0,0,0,0,0,0,0,0,0,0,0,0,0,0,0,0,0,0,0,0,0,0,0,0,0,0,0,0,0,0,0,0,0,0,0,0,0,0,0,0,0,0,0,0,0,0,0,0,0,0,0,0,0,0,0,0,0,0,0,0,0],"sum_hessian":[3.3514362E2,2.772076E2,5.793603E1,2.729043E2,4.3032856E0,2.9091509E1,2.8844522E1,2.640793E2,8.825006E0,1.0056871E0,3.2975988E0,2.1911764E1,7.1797447E0,2.7140797E1,1.7037241E0,7.914226E1,1.8493704E2,6.2929735E0,2.5320325E0,1.1475159E0,2.1500828E0,1.4143723E1,7.768042E0,5.941244E0,1.238501E0,1.1397717E0,2.6001026E1,7.2573166E1,6.5690894E0,9.660258E1,8.833447E1,4.032941E0,2.2600324E0,1.1399726E0,1.39206E0,1.0283933E0,1.1216896E0,1.1338947E0,1.3009828E1,3.1605065E0,4.6075354E0,3.4288404E0,2.5124035E0,2.1843828E1,4.1571984E0,1.788351E0,7.078482E1,5.548612E0,1.0204772E0,7.910823E1,1.7494343E1,8.539597E1,2.9385018E0,1.8659483E0,2.1669927E0,1.117354E0,1.1426784E0,6.204267E0,6.805561E0,1.0409741E0,2.1195323E0,3.6006825E0,1.0068531E0,2.3188486E0,1.1099919E0,1.0744203E0,1.437983E0,2.076505E1,1.0787771E0,1.9055046E0,2.2516937E0],"tree_param":{"num_deleted":"0","num_feature":"200","num_nodes":"71","size_leaf_vector":"0"}},{"base_weights":[5.2584237E-1,6.811385E-1,-9.216107E-1,9.058698E-1,2.4216938E-1,1.0905513E0,-1.0309674E0,9.5838934E-1,-3.0405554E-1,-3.9799966E-2,6.5623724E-1,-1.1088248E0,1.7119144E-1,9.9008596E-1,-5.926883E-1,5.5293816E-1,-9.1827226E-1,7.9933E-1,-2.3368229E-1,7.541399E-1,-1.9491032E0,-1.1695701E0,-1.8892892E-2,1.0253768E0,-3.565096E-1,1.3104303E0,-1.4204885E0,1.6120226E0,-4.9283907E-1,-1.5653268E0,-5.0337058E-2,1.1187304E0,-1.0949292E0,-1.7468199E-1,-2.1030433E0,9.6763754E-1,-4.3346718E-1,-1.218837E0,-2.5827289E-2,5.8317125E-1,1.1112943E0,-1.221462E0,1.597618E0,-1.349852E0,-1.5057243E0,-1.3701556E0,-1.7786266E0,5.2921665E-1,1.4130955E0,3.2317126E-1,-4.6222636E-1,1.15969E0,3.2048702E-1,4.3849257E-1,-1.6974891E0,-4.5459124E-1,-1.2857796E0],"categories":[],"categories_nodes":[],"categories_segments":[],"categories_sizes":[],"default_left":[1,1,1,1,1,0,1,1,1,1,1,1,0,1,1,1,1,1,1,1,0,1,0,1,1,0,1,0,0,1,0,1,0,1,0,1,1,1,0,0,0,0,0,0,0,0,0,0,0,0,0,0,0,0,0,0,0],"id":4,"left_children":[1,3,5,7,9,-1,11,13,15,17,19,21,-1,23,25,27,29,31,33,35,-1,37,-1,39,41,-1,43,-1,-1,45,-1,47,-1,49,-1,51,53,55,-1,-1,-1,-1,-1,-1,-1,-1,-1,-1,-1,-1,-1,-1,-1,-1,-1,-1,-1],"loss_changes":[6.872728E1,2.7239426E1,6.518776E0,1.1605072E1,1.0916227E1,0E0,2.6300278E0,8.605194E0,3.9991934E0,9.048922E0,9.660944E0,1.746994E0,0E0,8.151352E0,5.521908E0,3.513112E0,2.4852333E0,6.3159156E0,4.9828386E0,9.255867E0,0E0,1.4083099E0,0E0,6.3500824E0,7.4036994E0,0E0,1.4275074E-2,0E0,0E0,1.0506964E-1,0E0,1.549859E0,0E0,6.2700596E0,0E0,3.8454914E0,6.1309385E0,1.2257271E0,0E0,0E0,0E0,0E0,0E0,0E0,0E0,0E0,0E0,0E0,0E0,0E0,0E0,0E0,0E0,0E0,0E0,0E0,0E0],"parents":[2147483647,0,0,1,1,2,2,3,3,4,4,6,6,7,7,8,8,9,9,10,10,11,11,13,13,14,14,15,15,16,16,17,17,18,18,19,19,21,21,23,23,24,24,26,26,29,29,31,31,33,33,35,35,36,36,37,37],"right_children":[2,4,6,8,10,-1,12,14,16,18,20,22,-1,24,26,28,30,32,34,36,-1,38,-1,40,42,-1,44,-1,-1,46,-1,48,-1,50,-1,52,54,56,-1,-1,-1,-1,-1,-1,-1,-1,-1,-1,-1,-1,-1,-1,-1,-1,-1,-1,-1],"split_conditions":[8.9214146E-1,6.030647E-1,2.7292493E-1,5.832491E-1,2.1388622E-1,2.3648115E-1,9.9973446E-1,9.271878E-1,2.8721797E-1,3.635946E-1,9.567439E-1,4.729503E-1,3.7122097E-2,9.1671324E-1,3.984245E-1,7.103895E-1,3.019902E-1,5.8316267E-1,7.9704034E-1,5.8836806E-1,-4.226543E-1,7.437253E-1,-4.0968386E-3,1.4798284E-1,7.621637E-1,2.8416094E-1,4.666013E-1,3.4955987E-1,-1.0686994E-1,3.2723182E-1,-1.0915365E-2,1.0717818E-1,-2.3743048E-1,4.2039794E-1,-4.560355E-1,7.7569604E-1,8.961743E-1,3.4937483E-1,-5.6005316E-3,1.2645806E-1,2.4097918E-1,-2.6486856E-1,3.464363E-1,-2.9270935E-1,-3.2650957E-1,-2.9711208E-1,-3.856872E-1,1.1475825E-1,3.0642343E-1,7.007824E-2,-1.00231715E-1,2.5147358E-1,6.949617E-2,9.5085144E-2,-3.680929E-1,-9.857607E-2,-2.7881554E-1],"split_indices":[67,58,11,122,46,0,17,95,96,103,39,184,0,79,0,20,1,133,44,84,0,18,0,95,95,0,19,0,0,46,0,87,0,17,0,41,55,86,0,0,0,0,0,0,0,0,0,0,0,0,0,0,0,0,0,0,0],"split_type":[0,0,0,0,0,0,0,0,0,0,0,0,0,0,0,0,0,0,0,0,0,0,0,0,0,0,0,0,0,0,0,0,0,0,0,0,0,0,0,0,0,0,0,0,0,0,0,0,0,0,0,0,0,0,0,0,0],"sum_hessian":[3.0574832E2,2.7612335E2,2.9624962E1,1.826268E2,9.349655E1,1.526987E0,2.8097975E1,1.7502937E2,7.5974216E0,5.562027E1,3.787628E1,2.6389015E1,1.7089597E0,1.7152434E2,3.505045E0,3.171756E0,4.4256654E0,1.0439021E1,4.5181248E1,3.6504585E1,1.3716955E0,2.4995794E1,1.3932216E0,1.6714403E2,4.3803067E0,1.0624E0,2.442645E0,1.575917E0,1.595839E0,2.535357E0,1.8903083E0,8.932883E0,1.5061376E0,4.3798965E1,1.382283E0,3.0942192E1,5.562393E0,2.3963436E1,1.032358E0,2.719203E1,1.39952E2,3.036391E0,1.3439155E0,1.3367342E0,1.1059108E0,1.3243337E0,1.2110234E0,2.97516E0,5.957723E0,1.6035192E1,2.7763773E1,2.386086E1,7.0813313E0,3.291626E0,2.2707672E0,1.9301533E0,2.2033283E1],"tree_param":{"num_deleted":"0","num_feature":"200","num_nodes":"57","size_leaf_vector":"0"}},{"base_weights":[4.6185258E-1,6.699378E-1,-4.0047356E-1,3.0476218E-1,8.512603E-1,2.7127197E-1,-7.960242E-1,-7.072641E-2,7.085116E-1,4.9603012E-1,1.0041684E0,4.845556E-1,-1.3625896E0,-8.577198E-1,1.2110214E0,-5.9557486E-1,2.9756922E-1,8.394501E-1,-8.8210213E-1,6.278107E-1,-8.6915976E-1,1.0468442E0,-8.4731716E-1,8.324747E-1,-5.1483E-1,-1.2607008E0,-1.4901147E0,-7.377741E-1,-1.7862154E0,-7.4558353E-1,1.3746125E0,-7.154579E-1,6.319781E-1,-5.016243E-1,9.310798E-1,5.3633523E-1,-1.9222524E0,-1.7685672E0,6.939676E-1,6.906641E-1,-1.7125114E0,1.0707374E0,-9.31086E-1,-2.4983602E0,8.852629E-1,1.1132207E0,-6.1380726E-1,-1.570815E0,7.4550194E-1,-8.361028E-1,1.2170515E0,-3.1078668E0,-1.2729568E0,-5.628863E-3,-1.1372373E0,-1.2573272E0,9.284416E-1,8.0679023E-1,-1.9386489E0,-2.205269E0,1.2863058E0,2.5988248E-1,1.0979156E0,2.9948956E-1,1.1328559E0,-5.7481694E-1,-2.5070987E0,1.1144551E0,5.544797E-1,1.2019961E0,2.6551637E-1,5.619362E-1,-1.795595E0,-1.3197749E0,-1.9235758E0,1.420019E0,1.1004951E-1,-8.950709E-1,6.966501E-1,-1.2199569E0,-1.3505905E0],"categories":[],"categories_nodes":[],"categories_segments":[],"categories_sizes":[],"default_left":[1,1,1,1,1,1,1,1,1,1,1,1,1,1,0,1,1,1,1,1,1,1,1,1,1,0,0,1,1,1,0,1,1,1,1,0,0,0,1,0,1,1,0,0,0,1,1,1,1,1,0,0,1,0,0,0,0,0,0,0,0,0,0,0,0,0,0,0,0,0,0,0,0,0,0,0,0,0,0,0,0],"id":5,"left_children":[1,3,5,7,9,11,13,15,17,19,21,23,25,27,-1,29,31,33,35,37,39,41,43,45,47,-1,-1,49,51,53,-1,55,57,59,61,-1,-1,-1,63,-1,65,67,-1,-1,-1,69,71,73,75,77,-1,-1,79,-1,-1,-1,-1,-1,-1,-1,-1,-1,-1,-1,-1,-1,-1,-1,-1,-1,-1,-1,-1,-1,-1,-1,-1,-1,-1,-1,-1],"loss_changes":[4.9786552E1,1.4800232E1,1.4331698E1,1.124338E1,8.1126175E0,6.965754E0,4.203562E0,7.427757E0,7.4429646E0,8.085871E0,8.250175E0,6.148002E0,2.9574394E-2,3.6676006E0,0E0,4.6829605E0,7.6494884E0,4.057472E0,4.0103054E0,6.498087E0,5.2048674E0,4.823372E0,6.7294464E0,5.325532E0,6.076789E0,0E0,0E0,5.606411E0,2.5552015E0,4.2670584E0,0E0,4.9919567E0,7.628731E0,6.432214E0,3.46076E0,0E0,0E0,0E0,6.905611E0,0E0,2.321103E0,2.2757492E0,0E0,0E0,0E0,8.263655E-1,2.9625683E0,2.1951771E-1,8.919467E-1,2.5100555E0,0E0,0E0,1.07803345E-2,0E0,0E0,0E0,0E0,0E0,0E0,0E0,0E0,0E0,0E0,0E0,0E0,0E0,0E0,0E0,0E0,0E0,0E0,0E0,0E0,0E0,0E0,0E0,0E0,0E0,0E0,0E0,0E0],"parents":[2147483647,0,0,1,1,2,2,3,3,4,4,5,5,6,6,7,7,8,8,9,9,10,10,11,11,12,12,13,13,15,15,16,16,17,17,18,18,19,19,20,20,21,21,22,22,23,23,24,24,27,27,28,28,29,29,31,31,32,32,33,33,34,34,38,38,40,40,41,41,45,45,46,46,47,47,48,48,49,49,52,52],"right_children":[2,4,6,8,10,12,14,16,18,20,22,24,26,28,-1,30,32,34,36,38,40,42,44,46,48,-1,-1,50,52,54,-1,56,58,60,62,-1,-1,-1,64,-1,66,68,-1,-1,-1,70,72,74,76,78,-1,-1,80,-1,-1,-1,-1,-1,-1,-1,-1,-1,-1,-1,-1,-1,-1,-1,-1,-1,-1,-1,-1,-1,-1,-1,-1,-1,-1,-1,-1],"split_conditions":[6.739384E-1,4.2474753E-1,7.8692013E-1,4.5591488E-1,1.9049548E-1,5E-1,9.863897E-1,3.8042238E-1,7.5915176E-1,8.8376474E-1,9.8645735E-1,9.145044E-1,5.624728E-1,9.943326E-1,2.6260456E-1,8.661859E-1,7.326894E-1,1.7717749E-2,6.0384095E-1,1.7268546E-2,6.430115E-1,9.61699E-1,3.0803943E-1,8.111894E-1,7.0261693E-1,-2.7337733E-1,-3.2312468E-1,9.3979204E-1,7.534032E-1,5.865711E-2,2.9807854E-1,4.8608035E-1,9.206374E-1,5.362301E-1,2.699521E-1,1.1630189E-1,-4.1683182E-1,-3.8350585E-1,3.76661E-1,1.4976741E-1,7.224218E-1,1E0,-2.0190182E-1,-5.417582E-1,1.9196528E-1,5.8381987E-1,2.9971936E-1,1.9123486E-1,4.889041E-1,4.729503E-1,2.6391217E-1,-6.7392695E-1,2.5863063E-1,-1.2205937E-3,-2.466048E-1,-2.7264577E-1,2.013284E-1,1.7494884E-1,-4.2038733E-1,-4.782027E-1,2.7892965E-1,5.635435E-2,2.3807809E-1,6.494296E-2,2.4565472E-1,-1.2464648E-1,-5.436531E-1,2.4166459E-1,1.2023644E-1,2.6064745E-1,5.7576034E-2,1.21853344E-1,-3.8936672E-1,-2.8618726E-1,-4.1711876E-1,3.0792475E-1,2.3863742E-2,-1.9409211E-1,1.5106544E-1,-2.6454216E-1,-2.9286948E-1],"split_indices":[59,45,67,44,46,167,30,155,35,17,77,69,36,105,0,23,39,7,22,113,199,88,38,84,34,0,0,158,14,34,0,38,81,42,28,0,0,0,141,0,8,109,0,0,0,172,130,42,70,184,0,0,19,0,0,0,0,0,0,0,0,0,0,0,0,0,0,0,0,0,0,0,0,0,0,0,0,0,0,0,0],"split_type":[0,0,0,0,0,0,0,0,0,0,0,0,0,0,0,0,0,0,0,0,0,0,0,0,0,0,0,0,0,0,0,0,0,0,0,0,0,0,0,0,0,0,0,0,0,0,0,0,0,0,0,0,0,0,0,0,0,0,0,0,0,0,0,0,0,0,0,0,0,0,0,0,0,0,0,0,0,0,0,0,0],"sum_hessian":[2.7745908E2,2.2352188E2,5.393719E1,7.416255E1,1.4935933E2,1.9989529E1,3.3947662E1,3.8425934E1,3.5736618E1,4.4945244E1,1.0441408E2,1.768149E1,2.308039E0,3.2935326E1,1.0123383E0,1.5845421E1,2.2580511E1,3.3018635E1,2.7179828E0,4.0988747E1,3.9564974E0,1.0206169E2,2.3523889E0,1.3115645E1,4.5658436E0,1.2836688E0,1.0243702E0,2.9167553E1,3.7677727E0,1.4724396E1,1.1210252E0,5.603958E0,1.6976553E1,2.111629E0,3.0907007E1,1.1498361E0,1.5681467E0,1.101111E0,3.9887634E1,1.3884033E0,2.568094E0,1.0084359E2,1.2181027E0,1.2045777E0,1.147811E0,1.0983649E1,2.1319964E0,2.484383E0,2.0814607E0,2.777075E1,1.3968024E0,1.0538229E0,2.7139497E0,5.0962977E0,9.628098E0,4.2147603E0,1.389198E0,1.5895653E1,1.0809002E0,1.0813413E0,1.0302879E0,6.1531496E0,2.4753857E1,2.1006811E1,1.8880825E1,1.0561262E0,1.5119678E0,9.297038E1,7.8732033E0,9.942275E0,1.0413741E0,1.0686734E0,1.063323E0,1.451728E0,1.0326551E0,1.0095787E0,1.071882E0,2.6742027E1,1.0287225E0,1.6140668E0,1.099883E0],"tree_param":{"num_deleted":"0","num_feature":"200","num_nodes":"81","size_leaf_vector":"0"}},{"base_weights":[4.106844E-1,5.70209E-1,-5.081235E-1,7.64838E-1,2.002652E-1,-8.462565E-1,1.857277E-1,5.5581784E-1,1.0244609E0,3.0240944E-1,-6.805029E-1,9.528256E-1,-9.5645815E-1,1.1748018E0,-4.9517205E-1,6.020474E-1,-1.1766131E0,1.0675693E0,-3.9044613E-1,1.3002257E-1,8.986047E-1,3.7318644E-1,-1.1901736E0,-3.0191152E0,-8.6431694E-1,6.346792E-1,1.3122231E0,8.140472E-1,-1.0268958E0,-9.453086E-2,7.2740006E-1,-1.3091565E0,-1.0449777E0,1.0984452E0,-6.027513E-1,-3.1937805E-1,5.056444E-1,-3.562893E-1,1.0789757E0,-1.4541315E0,1.6464423E0,-1.4891652E0,7.471872E-3,1.3711157E0,-1.0027453E0,1.3608117E0,1.2123419E0,1.6149489E0,8.1250435E-3,-1.300463E0,1.4643193E-2,3.6205155E-1,-2.789863E0,8.163686E-1,-4.641133E-1,6.281434E-1,1.1267052E0,-1.3153741E-1,-1.8654145E0,6.50802E-1,-1.1860325E0,-1.9958879E-1,1.2081348E0,-1.9457676E0,-1.3147783E0,-1.2681302E0,-5.375643E-1,1.2854306E0,1.4083729E0,-1.6286707E0,-1.1900003E0],"categories":[],"categories_nodes":[],"categories_segments":[],"categories_sizes":[],"default_left":[1,1,1,1,1,1,1,1,1,1,1,0,1,1,1,1,1,1,0,1,1,1,1,0,1,0,1,1,1,1,1,0,0,1,0,1,1,0,1,0,0,1,0,0,1,1,0,0,0,1,0,0,0,0,0,0,0,0,0,0,0,0,0,0,0,0,0,0,0,0,0],"id":6,"left_children":[1,3,5,7,9,11,13,15,17,19,21,-1,23,25,27,29,31,33,-1,35,37,39,41,-1,43,-1,45,47,49,51,53,-1,-1,55,-1,57,59,-1,61,-1,-1,63,-1,-1,65,67,-1,-1,-1,69,-1,-1,-1,-1,-1,-1,-1,-1,-1,-1,-1,-1,-1,-1,-1,-1,-1,-1,-1,-1,-1],"loss_changes":[3.6687622E1,1.5356018E1,8.687589E0,7.583542E0,6.6145525E0,4.9360123E0,8.170862E0,6.2005043E0,3.80188E0,6.7711034E0,4.1033134E0,0E0,4.4580193E0,3.6689138E-1,5.002265E0,6.584612E0,3.475499E-2,3.1195755E0,0E0,8.627045E0,3.3448153E0,5.7952137E0,1.8442421E0,0E0,6.949032E0,0E0,1.8750668E-2,1.3393441E0,1.4562583E0,1.4153216E1,6.7747726E0,0E0,0E0,7.8907776E-1,0E0,6.756921E0,6.8359647E0,0E0,2.1337347E0,0E0,0E0,3.276415E-1,0E0,0E0,2.6103687E0,9.100914E-3,0E0,0E0,0E0,1.4630985E-1,0E0,0E0,0E0,0E0,0E0,0E0,0E0,0E0,0E0,0E0,0E0,0E0,0E0,0E0,0E0,0E0,0E0,0E0,0E0,0E0,0E0],"parents":[2147483647,0,0,1,1,2,2,3,3,4,4,5,5,6,6,7,7,8,8,9,9,10,10,12,12,13,13,14,14,15,15,16,16,17,17,19,19,20,20,21,21,22,22,24,24,26,26,27,27,28,28,29,29,30,30,33,33,35,35,36,36,38,38,41,41,44,44,45,45,49,49],"right_children":[2,4,6,8,10,12,14,16,18,20,22,-1,24,26,28,30,32,34,-1,36,38,40,42,-1,44,-1,46,48,50,52,54,-1,-1,56,-1,58,60,-1,62,-1,-1,64,-1,-1,66,68,-1,-1,-1,70,-1,-1,-1,-1,-1,-1,-1,-1,-1,-1,-1,-1,-1,-1,-1,-1,-1,-1,-1,-1,-1],"split_conditions":[8.533838E-1,6.030647E-1,4.8793843E-1,7.804313E-1,8.111894E-1,8.811143E-2,7.6766866E-1,9.268774E-1,9.9128914E-1,5.7707155E-1,1.6498494E-1,2.0661595E-1,9.311401E-2,4.8922712E-1,4.898197E-1,1.569634E-1,6.560123E-1,9.5390403E-1,-8.466649E-2,3.1325802E-1,6.1925465E-1,1.98551E-1,4.9997607E-1,-6.5468156E-1,5.758916E-2,1.3762733E-1,2.4275658E-1,1.4810045E-1,9.6958125E-1,9.790752E-1,5.832491E-1,-2.8388473E-1,-2.2659871E-1,6.817142E-2,-1.3070391E-1,2.1866312E-2,9.7559047E-1,-7.7259734E-2,2.0143351E-1,-3.153219E-1,3.5702363E-1,6.548176E-1,1.6202419E-3,2.9732028E-1,8.505461E-1,4.877163E-1,2.628909E-1,3.5019442E-1,1.7618792E-3,4.8774087E-1,3.1753108E-3,7.8509256E-2,-6.049693E-1,1.7702587E-1,-1.00640886E-1,1.3621008E-1,2.4432096E-1,-2.8523296E-2,-4.0450677E-1,1.411235E-1,-2.5718585E-1,-4.3279935E-2,2.619786E-1,-4.2193097E-1,-2.8510377E-1,-2.7498835E-1,-1.165684E-1,2.7873984E-1,3.0539933E-1,-3.5316992E-1,-2.580462E-1],"split_indices":[67,58,92,45,84,35,59,95,28,7,24,0,25,103,143,95,10,99,0,23,86,76,51,0,38,0,46,19,71,97,122,0,0,98,0,113,97,0,87,0,0,103,0,0,24,21,0,0,0,70,0,0,0,0,0,0,0,0,0,0,0,0,0,0,0,0,0,0,0,0,0],"split_type":[0,0,0,0,0,0,0,0,0,0,0,0,0,0,0,0,0,0,0,0,0,0,0,0,0,0,0,0,0,0,0,0,0,0,0,0,0,0,0,0,0,0,0,0,0,0,0,0,0,0,0,0,0,0,0,0,0,0,0,0,0,0,0,0,0,0,0,0,0,0,0],"sum_hessian":[2.5030354E2,2.1327469E2,3.7028862E1,1.3975081E2,7.352387E1,2.4896374E1,1.2132491E1,7.742069E1,6.233012E1,6.588342E1,7.6404476E0,1.4369098E0,2.3459463E1,4.9468727E0,7.185618E0,7.540852E1,2.0121684E0,6.048734E1,1.8427796E0,5.110649E1,1.4776932E1,2.4907703E0,5.1496773E0,1.0030668E0,2.2456396E1,1.0035623E0,3.9433103E0,2.0753586E0,5.1102595E0,1.1500382E1,6.3908142E1,1.0020353E0,1.0101333E0,5.938961E1,1.0977271E0,2.3267937E1,2.7838554E1,1.8569283E0,1.2920003E1,1.0227922E0,1.4679781E0,4.120991E0,1.0286859E0,1.309446E0,2.114695E1,2.6517534E0,1.2915568E0,1.0408268E0,1.0345318E0,4.0473347E0,1.0629249E0,9.834414E0,1.6659683E0,5.9467888E1,4.4402523E0,3.366693E0,5.602292E1,2.0747284E1,2.5206532E0,2.563867E1,2.1998844E0,1.1853119E0,1.1734692E1,1.1386623E0,2.9823291E0,1.3464913E1,7.6820374E0,1.0271354E0,1.6246182E0,1.0188046E0,3.0285301E0],"tree_param":{"num_deleted":"0","num_feature":"200","num_nodes":"71","size_leaf_vector":"0"}},{"base_weights":[3.618325E-1,5.04453E-1,-4.710895E-1,5.610693E-1,-8.6395717E-1,-7.515293E-1,-1.5195568E-2,9.876368E-1,4.6402642E-1,-1.2417482E0,-1.9198222E-1,9.48048E-1,-8.430944E-1,9.623846E-1,-3.3507204E-1,1.063928E0,-1.4663354E-1,-7.1896815E-1,5.135405E-1,-1.1890979E0,-1.4455528E0,8.2847476E-1,-1.1664939E0,7.111552E-1,-9.3363255E-1,1.427698E0,2.7598083E-1,8.266559E-2,-1.206928E0,1.1206809E0,4.4952753E-1,1.1954399E0,-1.5744544E0,4.7309425E-1,-2.1564665E0,5.3607476E-1,-1.4398712E0,-1.2505754E0,-1.1649002E0,-1.0986632E0,-3.5559496E-1,4.7896034E-1,-1.1667026E0,-1.4256228E0,-8.7713873E-1,1.1539642E0,6.8600523E-1,-7.4404514E-1,1.1573154E0,1.5656515E0,-1.5378653E-1,-3.0849073E0,-9.638513E-1,5.995799E-1,-9.8260514E-2,-1.1832304E0,-1.13881E0,-1.205742E0,2.8729197E-1,1.1691022E0,-8.561555E-1,-8.412039E-2,1.5692219E0],"categories":[],"categories_nodes":[],"categories_segments":[],"categories_sizes":[],"default_left":[1,1,1,1,1,1,1,1,1,1,1,0,1,1,1,1,1,1,1,1,0,0,0,0,1,0,0,1,1,1,1,0,0,1,1,1,0,0,1,1,1,1,0,0,0,0,0,0,0,0,0,0,0,0,0,0,0,0,0,0,0,0,0],"id":7,"left_children":[1,3,5,7,9,11,13,15,17,19,21,-1,23,25,27,29,31,33,35,37,-1,-1,-1,-1,39,-1,-1,41,43,45,47,-1,-1,49,51,53,-1,-1,55,57,59,61,-1,-1,-1,-1,-1,-1,-1,-1,-1,-1,-1,-1,-1,-1,-1,-1,-1,-1,-1,-1,-1],"loss_changes":[2.7027342E1,1.5049839E1,4.2524877E0,7.7216187E0,1.9590559E0,3.2048378E0,3.9613943E0,2.9917908E0,8.901436E0,5.2612305E-2,2.7622426E0,0E0,2.7498379E0,9.972739E-1,3.4766135E0,1.1292801E0,4.174884E0,1.0461581E1,6.420532E0,5.478859E-3,0E0,0E0,0E0,0E0,1.7612858E0,0E0,0E0,3.194987E0,2.2266865E-1,4.2874146E-1,2.314302E0,0E0,0E0,2.285951E0,3.0638876E0,5.8089066E0,0E0,0E0,1.0008812E-3,2.1318836E0,3.1300778E0,3.0078986E0,0E0,0E0,0E0,0E0,0E0,0E0,0E0,0E0,0E0,0E0,0E0,0E0,0E0,0E0,0E0,0E0,0E0,0E0,0E0,0E0,0E0],"parents":[2147483647,0,0,1,1,2,2,3,3,4,4,5,5,6,6,7,7,8,8,9,9,10,10,12,12,13,13,14,14,15,15,16,16,17,17,18,18,19,19,24,24,27,27,28,28,29,29,30,30,33,33,34,34,35,35,38,38,39,39,40,40,41,41],"right_children":[2,4,6,8,10,12,14,16,18,20,22,-1,24,26,28,30,32,34,36,38,-1,-1,-1,-1,40,-1,-1,42,44,46,48,-1,-1,50,52,54,-1,-1,56,58,60,62,-1,-1,-1,-1,-1,-1,-1,-1,-1,-1,-1,-1,-1,-1,-1,-1,-1,-1,-1,-1,-1],"split_conditions":[8.7591445E-1,5E-1,9.773922E-1,4.3017887E-2,9.624059E-1,2.1001944E-1,4.898197E-1,5.9028363E-1,2.037156E-2,5.223765E-1,2.9734802E-2,2.0557995E-1,2.746809E-1,9.271538E-1,9.3644917E-1,6.918268E-1,4.9552143E-1,5.2464557E-1,5E-1,2.900579E-1,-3.1346163E-1,1.7965104E-1,-2.5294897E-1,1.542108E-1,8.641319E-1,3.0958992E-1,5.9845205E-2,9.359286E-1,9.6762145E-1,5.784651E-1,1.1447836E-1,2.592258E-1,-3.4141338E-1,4.661069E-1,5.716777E-1,5.784651E-1,-3.122296E-1,-2.7118167E-1,3.8483828E-1,9.828374E-1,3.5232037E-1,7.1605206E-1,-2.5299424E-1,-3.091399E-1,-1.9020359E-1,2.5023195E-1,1.4875716E-1,-1.6134284E-1,2.5095865E-1,3.395045E-1,-3.334792E-2,-6.689483E-1,-2.0900682E-1,1.3001621E-1,-2.1307351E-2,-2.565782E-1,-2.4694584E-1,-2.6145974E-1,6.2297974E-2,2.5351456E-1,-1.8565348E-1,-1.824113E-2,3.402787E-1],"split_indices":[49,167,92,103,105,17,143,36,59,45,46,0,112,49,26,22,78,28,188,28,0,0,0,0,77,0,0,14,27,187,38,0,0,42,49,187,0,0,42,109,41,35,0,0,0,0,0,0,0,0,0,0,0,0,0,0,0,0,0,0,0,0,0],"split_type":[0,0,0,0,0,0,0,0,0,0,0,0,0,0,0,0,0,0,0,0,0,0,0,0,0,0,0,0,0,0,0,0,0,0,0,0,0,0,0,0,0,0,0,0,0,0,0,0,0,0,0,0,0,0,0,0,0,0,0,0,0,0,0],"sum_hessian":[2.2751859E2,1.942564E2,3.3262184E1,1.8653871E2,7.7176948E0,2.0593761E1,1.2668422E1,3.4571693E1,1.5196701E2,4.940099E0,2.777596E0,1.0526901E0,1.954107E1,3.1231716E0,9.54525E0,3.239306E1,2.1786344E0,6.104917E0,1.4586209E2,3.9265125E0,1.0135865E0,1.3567421E0,1.420854E0,1.075556E0,1.8465515E1,1.8612252E0,1.2619464E0,6.453156E0,3.0920942E0,2.9653671E1,2.7393875E0,1.1229883E0,1.0556462E0,3.337316E0,2.7676008E0,1.4419872E2,1.6633713E0,1.1071546E0,2.8193579E0,1.43642435E1,4.1012716E0,4.8992534E0,1.5539026E0,1.8589131E0,1.233181E0,2.7544249E1,2.1094234E0,1.0196706E0,1.7197168E0,1.2168117E0,2.1205044E0,1.5560734E0,1.2115275E0,1.310765E2,1.3122215E1,1.6524303E0,1.1669276E0,1.3334152E1,1.0300908E0,1.0135915E0,3.0876799E0,3.2306287E0,1.6686245E0],"tree_param":{"num_deleted":"0","num_feature":"200","num_nodes":"63","size_leaf_vector":"0"}},{"base_weights":[3.1223398E-1,5.7810104E-1,-4.7359325E-2,3.5469675E-1,9.1812027E-1,2.2873437E-1,-4.0501595E-1,4.7197735E-1,-5.38508E-1,1.0145984E0,1.22565575E-1,7.7314235E-2,1.0137691E0,-6.357914E-1,9.153559E-2,5.571551E-1,-4.933378E-1,2.6644817E-1,-1.0237826E0,1.0439472E0,1.4611606E-1,1.0261668E0,-2.4950309E0,-5.991915E-2,1.0407667E0,2.3063194E-2,1.1964357E0,4.8396635E-1,-7.823796E-1,1.0949656E0,-2.1488483E-1,2.504589E-1,8.7414217E-1,-1.1951553E0,1.2160974E0,1.1695237E0,-1.3143702E0,-2.064064E0,-6.835909E-1,8.3198005E-1,1.1324897E0,1.1766438E0,6.176864E-1,-3.565404E-1,4.70368E-1,1.2125345E0,3.303799E-1,1.2992058E0,1.1475365E0,1.3310143E0,2.6139112E-2,-1.5017622E0,-5.3987765E-1,3.0452698E-1,1.5229806E0,2.8510794E-1,-8.066087E-1,-2.0190637E-1,8.298861E-1,1.0176846E0,-3.4587204E-1,-2.1885817E0,-1.5982808E-1,1.150666E0,1.1880192E0,-1.2022119E0,-1.3457645E-1,1.1446657E0,9.549398E-2,1.2138264E0,1.1290717E0,1.1510369E0,1.2043433E0,5.844863E-1,-6.2210286E-1,-1.9630098E0,6.789009E-1,1.2504914E0,1.1590247E0,1.3467584E0,1.2531314E0,1.1673265E0,1.1414601E0,-2.1503437E0,-1.1149249E0,5.698472E-1,-7.001394E-1,7.815057E-1,-1.1079112E0,-1.2715579E0,-2.6577172E-1],"categories":[],"categories_nodes":[],"categories_segments":[],"categories_sizes":[],"default_left":[1,1,1,1,1,1,1,1,1,1,1,1,1,1,1,1,1,1,1,1,0,1,0,1,1,0,1,1,1,1,1,1,1,1,0,1,0,0,1,1,1,1,0,1,1,1,0,1,1,0,0,1,1,0,0,1,1,0,0,0,0,0,0,0,0,0,0,0,0,0,0,0,0,0,0,0,0,0,0,0,0,0,0,0,0,0,0,0,0,0,0],"id":8,"left_children":[1,3,5,7,9,11,13,15,17,19,21,23,25,27,29,31,33,35,37,39,-1,41,-1,43,45,-1,47,49,51,53,55,57,59,61,-1,63,-1,-1,65,67,69,71,-1,73,75,77,-1,79,81,-1,-1,83,85,-1,-1,87,89,-1,-1,-1,-1,-1,-1,-1,-1,-1,-1,-1,-1,-1,-1,-1,-1,-1,-1,-1,-1,-1,-1,-1,-1,-1,-1,-1,-1,-1,-1,-1,-1,-1,-1],"loss_changes":[2.0050444E1,9.158932E0,8.803063E0,7.6226444E0,3.6693802E0,5.98022E0,4.450536E0,5.2886763E0,3.2990773E0,1.0866356E0,1.2230621E1,5.576488E0,1.471961E0,4.352276E0,3.78899E0,5.7459984E0,6.2567744E0,4.5345044E0,1.8642807E0,7.7378845E-1,0E0,2.3601913E-1,0E0,5.8068075E0,6.414323E-1,0E0,3.4148216E-2,1.1900322E0,4.0898333E0,9.750457E-1,2.7929268E0,7.8741226E0,5.0900536E0,3.802462E0,0E0,3.5476685E-4,0E0,0E0,1.1303883E0,2.7984753E0,7.736206E-3,1.6393661E-3,0E0,5.916317E0,6.7195125E0,8.239269E-3,0E0,4.4579506E-3,2.1409988E-4,0E0,0E0,1.4824886E0,3.1185431E0,0E0,0E0,3.5379019E0,1.0869622E0,0E0,0E0,0E0,0E0,0E0,0E0,0E0,0E0,0E0,0E0,0E0,0E0,0E0,0E0,0E0,0E0,0E0,0E0,0E0,0E0,0E0,0E0,0E0,0E0,0E0,0E0,0E0,0E0,0E0,0E0,0E0,0E0,0E0,0E0],"parents":[2147483647,0,0,1,1,2,2,3,3,4,4,5,5,6,6,7,7,8,8,9,9,10,10,11,11,12,12,13,13,14,14,15,15,16,16,17,17,18,18,19,19,21,21,23,23,24,24,26,26,27,27,28,28,29,29,30,30,31,31,32,32,33,33,35,35,38,38,39,39,40,40,41,41,43,43,44,44,45,45,47,47,48,48,51,51,52,52,55,55,56,56],"right_children":[2,4,6,8,10,12,14,16,18,20,22,24,26,28,30,32,34,36,38,40,-1,42,-1,44,46,-1,48,50,52,54,56,58,60,62,-1,64,-1,-1,66,68,70,72,-1,74,76,78,-1,80,82,-1,-1,84,86,-1,-1,88,90,-1,-1,-1,-1,-1,-1,-1,-1,-1,-1,-1,-1,-1,-1,-1,-1,-1,-1,-1,-1,-1,-1,-1,-1,-1,-1,-1,-1,-1,-1,-1,-1,-1,-1],"split_conditions":[6.030647E-1,7.804313E-1,5.974158E-1,9.882643E-1,5.82723E-1,9.0844214E-1,4.1823637E-1,8.821774E-1,5.8901596E-1,7.540843E-1,8.9406633E-1,4.9998972E-1,2.6376867E-1,2.8148156E-1,3.267513E-1,2.3775536E-1,7.621637E-1,6.1488485E-1,4.289418E-1,5.306123E-1,3.168461E-2,6.045244E-1,-5.4103625E-1,3.76661E-1,5.3906584E-1,5.00115E-3,2.1330044E-1,7.9377526E-1,1.6587257E-1,2.9304725E-1,6.999311E-1,7.9575086E-1,5.832491E-1,7.4310017E-1,2.6370525E-1,5.020304E-1,-2.8501526E-1,-4.4758302E-1,5.628787E-1,4.3150756E-1,4.473862E-2,9.5262444E-1,1.3394251E-1,2.4688148E-1,1.9927418E-2,7.949345E-1,7.16414E-2,2.884249E-1,9.300765E-1,2.8862447E-1,5.6681493E-3,4.9200976E-1,3.3979967E-1,6.603531E-2,3.3025151E-1,8.111894E-1,6.1904186E-1,-4.378249E-2,1.7995708E-1,2.2068034E-1,-7.50008E-2,-4.7458413E-1,-3.4658004E-2,2.4951676E-1,2.576166E-1,-2.6069424E-1,-2.91823E-2,2.4821563E-1,2.0707441E-2,2.632128E-1,2.4483414E-1,2.4959718E-1,2.6115644E-1,1.2674323E-1,-1.3490021E-1,-4.2566988E-1,1.4721662E-1,2.7116343E-1,2.513293E-1,2.920385E-1,2.717359E-1,2.531295E-1,2.4752049E-1,-4.6629238E-1,-2.4176647E-1,1.2356881E-1,-1.5182209E-1,1.69466E-1,-2.4024558E-1,-2.7573162E-1,-5.7631403E-2],"split_indices":[58,45,50,63,161,14,19,79,14,22,42,183,36,53,23,57,95,15,17,52,0,6,0,141,41,0,46,58,61,84,67,199,122,199,0,15,0,0,27,19,46,119,0,42,113,112,0,36,11,0,0,85,112,0,0,84,23,0,0,0,0,0,0,0,0,0,0,0,0,0,0,0,0,0,0,0,0,0,0,0,0,0,0,0,0,0,0,0,0,0,0],"split_type":[0,0,0,0,0,0,0,0,0,0,0,0,0,0,0,0,0,0,0,0,0,0,0,0,0,0,0,0,0,0,0,0,0,0,0,0,0,0,0,0,0,0,0,0,0,0,0,0,0,0,0,0,0,0,0,0,0,0,0,0,0,0,0,0,0,0,0,0,0,0,0,0,0,0,0,0,0,0,0,0,0,0,0,0,0,0,0,0,0,0,0],"sum_hessian":[2.09723E2,1.2057539E2,8.914761E1,7.2766045E1,4.780935E1,5.0310177E1,3.8837433E1,6.43207E1,8.445345E0,4.2638348E1,5.1710005E0,4.2175434E1,8.134744E0,2.65148E1,1.2322635E1,5.910549E1,5.215212E0,3.1763082E0,5.2690363E0,4.1244396E1,1.39395E0,3.8440766E0,1.326924E0,3.6916885E1,5.258549E0,1.266512E0,6.868232E0,3.069154E0,2.3445646E1,2.882804E0,9.439831E0,3.0040611E1,2.9064878E1,3.6973376E0,1.5178739E0,2.0215492E0,1.1547588E0,1.2983378E0,3.9706986E0,1.2152802E1,2.9091595E1,2.8089406E0,1.035136E0,2.3674562E1,1.3242322E1,4.2344675E0,1.0240815E0,2.2133253E0,4.6549067E0,1.0767231E0,1.9924308E0,5.9107494E0,1.7534897E1,1.0127878E0,1.8700161E0,5.1163764E0,4.3234544E0,1.6869873E1,1.3170738E1,2.6005308E1,3.0595691E0,1.8867732E0,1.8105645E0,1.0051512E0,1.0163982E0,2.0417273E0,1.9289713E0,8.53075E0,3.6220524E0,1.1713424E0,2.7920254E1,1.4625365E0,1.3464042E0,5.210496E0,1.8464067E1,1.0451896E0,1.2197132E1,2.4755378E0,1.75893E0,1.087507E0,1.1258183E0,1.0874859E0,3.5674207E0,2.2081265E0,3.702623E0,2.2126412E0,1.5322255E1,3.772254E0,1.3441225E0,2.3246815E0,1.9987731E0],"tree_param":{"num_deleted":"0","num_feature":"200","num_nodes":"91","size_leaf_vector":"0"}},{"base_weights":[2.773038E-1,3.9472207E-1,-4.1072306E-1,1.3535915E-1,6.050157E-1,-7.1129704E-1,2.0843372E-1,1.8307753E-1,-2.0477993E0,-1.1940939E-1,6.8498474E-1,-1.6978082E-1,-1.0532423E0,1.173535E0,-2.7457955E-1,3.675606E-1,-3.3875227E-1,5.534274E-1,-1.0925156E0,7.1188647E-1,-1.4000001E0,-4.9753368E-1,1.3381841E0,4.5260507E-1,-1.306421E0,1.2045302E0,1.1218983E0,7.102323E-1,-7.4960643E-1,-1.4775638E-1,5.5189264E-1,-6.100354E-1,1.0991162E0,9.7165114E-1,-6.490262E-1,-1.7437148E0,5.592186E-1,4.195081E-1,8.479873E-1,4.2594236E-1,-1.1693336E0,-2.7598045E0,-1.1140207E0,-1.1666799E0,2.5059623E-1,1.7539239E-1,-1.3405802E0,7.605546E-1,-4.9365353E-2,8.6351824E-1,-8.554896E-1,8.074006E-1,1.2763027E0,1.2358655E-1,1.3884826E0,-1.1508989E0,-2.215251E0,7.3725414E-1,-2.7744076E-1,4.5836467E-1,1.0176135E0,1.3547623E0,-8.3972895E-1,-1.2710928E0,-1.127328E0,-6.54944E-1,-1.2326721E0,-9.743187E-1,-1.3423841E0],"categories":[],"categories_nodes":[],"categories_segments":[],"categories_sizes":[],"default_left":[1,1,1,1,1,1,1,1,0,1,1,1,1,1,1,1,1,1,1,1,0,1,0,0,1,0,0,0,1,1,1,1,1,1,0,1,0,1,1,1,1,0,1,1,0,0,0,0,0,0,0,0,0,0,0,0,0,0,0,0,0,0,0,0,0,0,0,0,0],"id":9,"left_children":[1,3,5,7,9,11,13,15,-1,17,19,21,23,25,27,29,31,33,35,37,-1,39,-1,-1,41,-1,-1,-1,43,45,47,49,51,53,-1,55,-1,57,59,61,63,-1,65,67,-1,-1,-1,-1,-1,-1,-1,-1,-1,-1,-1,-1,-1,-1,-1,-1,-1,-1,-1,-1,-1,-1,-1,-1,-1],"loss_changes":[1.5460458E1,8.916206E0,5.192022E0,7.625264E0,5.229973E0,3.4775057E0,4.250181E0,6.8959618E0,0E0,5.876223E0,4.560131E0,3.5927365E0,4.3889456E0,4.5189857E-3,2.8424888E0,5.0271626E0,7.2979703E0,2.668374E0,3.946405E0,3.193863E0,0E0,3.7048585E0,0E0,0E0,2.7551498E0,0E0,0E0,0E0,1.7100923E0,5.374643E0,4.8904896E0,5.6930094E0,1.5318155E-1,1.3914394E0,0E0,7.350731E-1,0E0,5.646233E0,3.6195908E0,2.956297E0,1.44171715E-2,0E0,4.7377014E-1,9.742975E-2,0E0,0E0,0E0,0E0,0E0,0E0,0E0,0E0,0E0,0E0,0E0,0E0,0E0,0E0,0E0,0E0,0E0,0E0,0E0,0E0,0E0,0E0,0E0,0E0,0E0],"parents":[2147483647,0,0,1,1,2,2,3,3,4,4,5,5,6,6,7,7,9,9,10,10,11,11,12,12,13,13,14,14,15,15,16,16,17,17,18,18,19,19,21,21,24,24,28,28,29,29,30,30,31,31,32,32,33,33,35,35,37,37,38,38,39,39,40,40,42,42,43,43],"right_children":[2,4,6,8,10,12,14,16,-1,18,20,22,24,26,28,30,32,34,36,38,-1,40,-1,-1,42,-1,-1,-1,44,46,48,50,52,54,-1,56,-1,58,60,62,64,-1,66,68,-1,-1,-1,-1,-1,-1,-1,-1,-1,-1,-1,-1,-1,-1,-1,-1,-1,-1,-1,-1,-1,-1,-1,-1,-1],"split_conditions":[8.533838E-1,3.9585483E-1,4.8793843E-1,8.881421E-1,4.7677276E-1,3.6688942E-1,6.739384E-1,4.9962357E-1,-4.440561E-1,6.992781E-1,9.3606853E-1,9.6322E-1,1.8612038E-1,2.4275658E-1,4.898197E-1,2.2261527E-1,6.43046E-1,8.625128E-1,7.535949E-1,2.6943558E-1,-3.0358374E-1,9.1367567E-1,2.9017922E-1,9.814538E-2,1.5132055E-1,2.6119697E-1,2.4327861E-1,1.540107E-1,9.220134E-1,5.2359635E-1,6.2105227E-1,2.047185E-1,2.4697495E-1,1.7102525E-1,-1.4073843E-1,4.1369638E-1,1.2126404E-1,3.6290264E-1,2.699521E-1,4.119971E-1,5.4989345E-2,-5.984512E-1,1.1104927E-1,4.496358E-1,5.4340668E-2,3.8033053E-2,-2.906988E-1,1.6492285E-1,-1.0704655E-2,1.8725005E-1,-1.8550909E-1,1.750812E-1,2.7676052E-1,2.6799189E-2,3.0108622E-1,-2.4956727E-1,-4.8036724E-1,1.5987025E-1,-6.0161784E-2,9.939432E-2,2.2066493E-1,2.9377413E-1,-1.8209146E-1,-2.7563077E-1,-2.4445602E-1,-1.4202167E-1,-2.672994E-1,-2.1127664E-1,-2.9108998E-1],"split_indices":[67,76,92,21,30,76,59,115,0,90,66,65,72,46,143,44,6,23,78,46,0,103,0,0,41,0,0,0,72,22,22,36,19,199,0,21,0,11,28,84,77,0,88,79,0,0,0,0,0,0,0,0,0,0,0,0,0,0,0,0,0,0,0,0,0,0,0,0,0],"split_type":[0,0,0,0,0,0,0,0,0,0,0,0,0,0,0,0,0,0,0,0,0,0,0,0,0,0,0,0,0,0,0,0,0,0,0,0,0,0,0,0,0,0,0,0,0,0,0,0,0,0,0,0,0,0,0,0,0,0,0,0,0,0,0,0,0,0,0,0,0],"sum_hessian":[1.9137329E2,1.6347498E2,2.7898325E1,7.319795E1,9.027702E1,1.8781126E1,9.1172E0,7.1632324E1,1.5656275E0,8.974734E0,8.130229E1,7.2694354E0,1.151169E1,3.0411022E0,6.0760975E0,5.292276E1,1.8709562E1,5.3059134E0,3.6688206E0,8.0266716E1,1.0355731E0,5.9716196E0,1.2978159E0,1.6568079E0,9.854882E0,1.898496E0,1.1426063E0,1.9770428E0,4.099055E0,1.3943015E1,3.8979744E1,1.5739998E1,2.9695647E0,3.9367864E0,1.3691269E0,2.631452E0,1.0373685E0,2.5496017E1,5.47707E1,2.5146701E0,3.4569495E0,1.1519805E0,8.702902E0,2.8928924E0,1.2061625E0,1.0970798E1,2.9722176E0,2.8937456E1,1.0042287E1,2.2474003E0,1.3492598E1,1.1224535E0,1.8471112E0,1.2974392E0,2.639347E0,1.1659545E0,1.4654976E0,1.7512222E1,7.9837947E0,1.6612818E1,3.815788E1,1.4503992E0,1.064271E0,1.0089703E0,2.447979E0,1.7876292E0,6.915272E0,1.3814106E0,1.5114818E0],"tree_param":{"num_deleted":"0","num_feature":"200","num_nodes":"69","size_leaf_vector":"0"}},{"base_weights":[2.4267101E-1,4.7460243E-1,-4.8135888E-2,2.6896462E-1,8.223158E-1,-2.9336694E-1,1.9261199E-1,1.5418343E-1,8.2062435E-1,3.31101E-1,1.0105474E0,1.2713857E0,-3.4452534E-1,-1.6974977E0,2.7765533E-1,-1.4749172E0,2.1402647E-1,9.750278E-1,-5.235236E-1,9.674125E-1,-8.438712E-1,1.0601184E0,-2.0997633E-1,-1.9978106E0,-2.798285E-1,-9.930458E-1,3.6989865E-1,3.3236837E-1,-7.385357E-1,1.1434727E0,5.6792166E-2,1.1116643E0,1.832182E-1,-3.252654E0,1.4889485E-1,1.0917048E0,3.1357607E-1,-1.0733489E0,-1.875388E-1,-2.078607E0,4.707707E-1,1.2096264E0,2.508604E-1,4.5292258E-1,-7.448545E-1,1.1632143E0,-1.4435353E0,1.2202572E0,1.1317796E0,1.0977869E0,1.1365043E0,1.1210655E0,-1.1161501E0,1.0762125E0,1.1009479E0,-2.1704938E0,-5.4784566E-1,2.8828424E-1,-4.0592805E-1,1.3295903E0,1.1697112E0,1.0587389E-1,1.0739353E0],"categories":[],"categories_nodes":[],"categories_segments":[],"categories_sizes":[],"default_left":[1,1,1,1,1,1,1,1,1,1,1,0,1,0,1,0,1,1,0,1,1,1,0,0,1,1,1,1,1,1,0,1,0,0,1,1,0,1,1,0,0,1,1,0,0,0,0,0,0,0,0,0,0,0,0,0,0,0,0,0,0,0,0],"id":10,"left_children":[1,3,5,7,9,11,13,15,17,19,21,-1,23,-1,25,-1,27,29,-1,31,33,35,-1,-1,37,39,41,43,45,47,-1,49,-1,-1,51,53,-1,55,57,-1,-1,59,61,-1,-1,-1,-1,-1,-1,-1,-1,-1,-1,-1,-1,-1,-1,-1,-1,-1,-1,-1,-1],"loss_changes":[1.1844158E1,6.985119E0,4.5999255E0,3.886941E0,3.3565788E0,3.0896149E0,6.3194585E0,4.9538097E0,2.1943188E0,7.5197606E0,1.5881062E0,0E0,3.997458E0,0E0,4.4098463E0,0E0,5.525281E0,1.4666367E0,0E0,7.378812E-1,8.449814E0,5.945473E-1,0E0,0E0,2.6339078E0,4.046315E0,3.5060563E0,5.661821E0,7.261899E0,6.842613E-3,0E0,1.5659332E-3,0E0,0E0,3.0771267E0,3.1394958E-3,0E0,2.1600885E0,3.3482542E0,0E0,0E0,2.0477295E-2,3.6660218E0,0E0,0E0,0E0,0E0,0E0,0E0,0E0,0E0,0E0,0E0,0E0,0E0,0E0,0E0,0E0,0E0,0E0,0E0,0E0,0E0],"parents":[2147483647,0,0,1,1,2,2,3,3,4,4,5,5,6,6,7,7,8,8,9,9,10,10,12,12,14,14,16,16,17,17,19,19,20,20,21,21,24,24,25,25,26,26,27,27,28,28,29,29,31,31,34,34,35,35,37,37,38,38,41,41,42,42],"right_children":[2,4,6,8,10,12,14,16,18,20,22,-1,24,-1,26,-1,28,30,-1,32,34,36,-1,-1,38,40,42,44,46,48,-1,50,-1,-1,52,54,-1,56,58,-1,-1,60,62,-1,-1,-1,-1,-1,-1,-1,-1,-1,-1,-1,-1,-1,-1,-1,-1,-1,-1,-1,-1],"split_conditions":[6.030647E-1,7.804313E-1,4.8283345E-1,8.891792E-1,2.8148156E-1,2.847134E-1,1.7246809E-2,6.901763E-3,9.6237797E-1,4.3291518E-1,7.523043E-1,2.7569428E-1,1.1194201E-1,-3.6809477E-1,4.775816E-2,-3.1982917E-1,9.4710165E-1,7.0577085E-1,-1.1352375E-1,6.1215055E-1,5.721609E-1,8.4306115E-1,-4.5532424E-2,-4.3321627E-1,1.336929E-1,1.4692968E-1,3.6201122E-1,5.638352E-1,1.6417271E-1,1.4940454E-2,1.2315126E-2,6.359775E-1,3.9730042E-2,-7.0532346E-1,7.15811E-1,4.0717706E-2,6.799757E-2,8.869701E-1,6.0575294E-1,-4.507366E-1,1.0208451E-1,5.6126412E-2,7.9988164E-1,9.821423E-2,-1.6151837E-1,2.522378E-1,-3.1302416E-1,2.6460728E-1,2.4542132E-1,2.3805016E-1,2.4644585E-1,2.4309802E-1,-2.4203216E-1,2.3337185E-1,2.387356E-1,-4.7066185E-1,-1.18797876E-1,6.251314E-2,-8.802368E-2,2.8831568E-1,2.5364664E-1,2.2958279E-2,2.3287804E-1],"split_indices":[58,45,199,41,53,103,113,0,71,19,22,0,39,0,41,0,0,96,0,41,112,98,0,0,82,82,66,84,99,11,0,73,0,0,23,103,0,58,112,0,0,46,9,0,0,0,0,0,0,0,0,0,0,0,0,0,0,0,0,0,0,0,0],"split_type":[0,0,0,0,0,0,0,0,0,0,0,0,0,0,0,0,0,0,0,0,0,0,0,0,0,0,0,0,0,0,0,0,0,0,0,0,0,0,0,0,0,0,0,0,0,0,0,0,0,0,0,0,0,0,0,0,0,0,0,0,0,0,0],"sum_hessian":[1.756053E2,9.769204E1,7.791326E1,6.138774E1,3.63043E1,3.8597546E1,3.9315712E1,5.081515E1,1.057259E1,1.0057839E1,2.624646E1,1.221869E0,3.737568E1,1.6927183E0,3.7622993E1,1.8003999E0,4.901475E1,9.48334E0,1.0892498E0,6.524559E0,3.5332804E0,2.5222189E1,1.0242711E0,1.4074206E0,3.5968258E1,2.546191E0,3.50768E1,4.3598442E1,5.4163103E0,8.0132065E0,1.4701339E0,5.510686E0,1.013873E0,1.0312476E0,2.5020328E0,2.4198162E1,1.0240259E0,3.7472422E0,3.2221016E1,1.4620403E0,1.0841507E0,4.3548956E0,3.0721907E1,3.9210457E1,4.3879833E0,1.464793E0,3.9515173E0,1.0572437E0,6.955962E0,3.5395284E0,1.9711577E0,1.4148519E0,1.0871807E0,9.048584E0,1.5149579E1,1.2134649E0,2.5337775E0,1.0136062E1,2.2084953E1,1.0862519E0,3.2686436E0,2.6120846E1,4.60106E0],"tree_param":{"num_deleted":"0","num_feature":"200","num_nodes":"63","size_leaf_vector":"0"}},{"base_weights":[2.113783E-1,4.3589795E-1,-4.7339246E-2,6.619915E-2,6.844665E-1,-2.0311165E-1,6.8925464E-1,-2.1817386E-1,5.399542E-1,7.507868E-1,-7.335998E-1,-9.840247E-2,-7.520051E-1,9.1330224E-1,-4.4647044E-1,5.692344E-1,-4.4529817E-1,7.007376E-1,-1.2480205E0,8.3217764E-1,-2.963957E-1,-2.14325E0,5.156647E-1,-5.033852E-1,1.8170898E-1,-9.3736565E-1,2.4559894E-1,-1.9222671E-1,1.0257696E0,5.269605E-1,-1.5436934E0,-8.7374955E-1,9.654003E-1,1.0864757E0,-6.141807E-1,-1.9707581E-1,9.512086E-1,8.81523E-1,-7.479149E-1,-2.055578E0,4.8121026E-1,4.2376366E-1,-6.8131495E-1,-4.6079665E-1,4.375599E-1,9.562799E-2,-1.0838991E0,1.0961548E0,3.9124057E-1,2.7925715E-1,1.2149656E0,-2.254767E-1,-1.3457334E0,1.1996496E0,-1.2711903E0,1.1423242E0,6.942821E-2,9.1945094E-1,-6.518751E-1,-3.7472743E-1,1.0779171E0,1.2580122E0,-6.501472E-1,-5.7639E-2,-1.006519E0,-7.6909296E-2,-1.9741209E0,6.1747164E-1,-2.1078949E-1,-1.1478431E0,-6.7860836E-1,1.1256502E0,8.61755E-1],"categories":[],"categories_nodes":[],"categories_segments":[],"categories_sizes":[],"default_left":[1,1,1,1,1,1,1,1,1,1,1,1,1,1,1,1,1,1,0,1,1,0,0,1,1,1,0,0,1,0,0,0,1,0,1,1,1,1,0,0,1,1,1,1,1,0,1,1,0,0,0,0,0,0,0,0,0,0,0,0,0,0,0,0,0,0,0,0,0,0,0,0,0],"id":11,"left_children":[1,3,5,7,9,11,13,15,17,19,21,23,25,27,29,31,33,35,-1,37,39,-1,-1,41,43,45,-1,-1,47,-1,-1,-1,49,-1,51,53,55,57,-1,-1,59,61,63,65,67,-1,69,71,-1,-1,-1,-1,-1,-1,-1,-1,-1,-1,-1,-1,-1,-1,-1,-1,-1,-1,-1,-1,-1,-1,-1,-1,-1],"loss_changes":[9.521253E0,8.064302E0,8.738138E0,4.7533274E0,4.935055E0,3.6128325E0,3.38274E0,3.9429455E0,3.8045049E0,4.272724E0,4.128785E0,5.988758E0,1.8623033E0,1.3806763E0,2.339533E0,2.8215423E0,4.426597E0,2.730679E0,0E0,3.6268082E0,4.945627E0,0E0,0E0,3.5608506E0,5.129952E0,1.2856622E0,0E0,0E0,4.49893E-1,0E0,0E0,0E0,6.6290975E-1,0E0,4.3824735E0,3.973408E0,1.5997839E0,2.6233711E0,0E0,0E0,1.2805231E0,3.113637E0,3.672884E0,5.1628685E0,2.60351E0,0E0,1.9248486E-1,6.2423706E-2,0E0,0E0,0E0,0E0,0E0,0E0,0E0,0E0,0E0,0E0,0E0,0E0,0E0,0E0,0E0,0E0,0E0,0E0,0E0,0E0,0E0,0E0,0E0,0E0,0E0],"parents":[2147483647,0,0,1,1,2,2,3,3,4,4,5,5,6,6,7,7,8,8,9,9,10,10,11,11,12,12,13,13,14,14,15,15,16,16,17,17,19,19,20,20,23,23,24,24,25,25,28,28,32,32,34,34,35,35,36,36,37,37,40,40,41,41,42,42,43,43,44,44,46,46,47,47],"right_children":[2,4,6,8,10,12,14,16,18,20,22,24,26,28,30,32,34,36,-1,38,40,-1,-1,42,44,46,-1,-1,48,-1,-1,-1,50,-1,52,54,56,58,-1,-1,60,62,64,66,68,-1,70,72,-1,-1,-1,-1,-1,-1,-1,-1,-1,-1,-1,-1,-1,-1,-1,-1,-1,-1,-1,-1,-1,-1,-1,-1,-1],"split_conditions":[5.2083874E-1,2.8148156E-1,5.818236E-1,9.856774E-2,9.1462076E-1,9.436916E-1,2.9971936E-1,3.544535E-1,6.0891545E-1,7.556019E-1,2.166985E-1,2.9954982E-1,9.9726295E-1,2.6376867E-1,9.0097296E-1,6.6551894E-1,1.3700306E-2,6.0184613E-2,-2.7062765E-1,8.637525E-1,2.534909E-1,-4.6475413E-1,1.1181957E-1,4.648272E-2,6.062174E-1,3.0881655E-1,5.325703E-2,-4.16835E-2,2.167274E-2,1.1426902E-1,-3.34743E-1,-1.8946867E-1,4.1661173E-1,2.3559739E-1,2.5711155E-1,3.0823106E-2,4.9974662E-1,9.261282E-1,-1.6218199E-1,-4.4574288E-1,2.7359277E-1,7.3057497E-1,1.3847385E-1,4.400539E-1,9.0664434E-1,2.07365E-2,9.824237E-1,8.735198E-1,8.483876E-2,6.055566E-2,2.6345983E-1,-4.889361E-2,-2.9181626E-1,2.6013863E-1,-2.756519E-1,2.4770787E-1,1.5055196E-2,1.993788E-1,-1.4135619E-1,-8.125796E-2,2.3374149E-1,2.727943E-1,-1.409815E-1,-1.2498759E-2,-2.1825913E-1,-1.6677435E-2,-4.2807925E-1,1.3389595E-1,-4.5708753E-2,-2.4890463E-1,-1.4715318E-1,2.4409218E-1,1.8686771E-1],"split_indices":[15,53,139,38,62,66,130,42,4,35,25,78,80,36,26,30,38,76,0,67,15,0,0,35,20,112,0,0,113,0,0,0,44,0,99,10,100,79,0,0,15,27,44,23,69,0,92,78,0,0,0,0,0,0,0,0,0,0,0,0,0,0,0,0,0,0,0,0,0,0,0,0,0],"split_type":[0,0,0,0,0,0,0,0,0,0,0,0,0,0,0,0,0,0,0,0,0,0,0,0,0,0,0,0,0,0,0,0,0,0,0,0,0,0,0,0,0,0,0,0,0,0,0,0,0,0,0,0,0,0,0,0,0,0,0,0,0,0,0,0,0,0,0,0,0,0,0,0,0],"sum_hessian":[1.6391222E2,8.77563E1,7.6155914E1,3.5281826E1,5.2474472E1,6.2862225E1,1.3293689E1,2.2047464E1,1.3234361E1,5.013009E1,2.344384E0,5.279173E1,1.0070493E1,1.11034155E1,2.190273E0,4.935641E0,1.7111824E1,1.2142531E1,1.0918291E0,4.6514915E1,3.6151714E0,1.1015356E0,1.2428484E0,2.1584929E1,3.12068E1,8.492654E0,1.577839E0,1.0251486E0,1.0078267E1,1.1605421E0,1.029731E0,1.0630913E0,3.8725495E0,1.6991876E0,1.5412637E1,2.6484807E0,9.494051E0,4.5106365E1,1.408551E0,1.1082156E0,2.5069559E0,3.475278E0,1.8109652E1,8.8875E0,2.2319302E1,1.0549275E0,7.4377265E0,9.071749E0,1.0065184E0,1.0330176E0,2.839532E0,1.0064935E1,5.347702E0,1.1512792E0,1.4972014E0,7.8027334E0,1.6913176E0,4.4017704E1,1.0886607E0,1.0296923E0,1.4772636E0,1.9559581E0,1.5193197E0,6.20677E0,1.1902882E1,7.0892615E0,1.798238E0,1.7471361E1,4.8479395E0,6.423843E0,1.0138836E0,8.057224E0,1.0145246E0],"tree_param":{"num_deleted":"0","num_feature":"200","num_nodes":"73","size_leaf_vector":"0"}},{"base_weights":[1.8669103E-1,6.873187E-1,8.7165095E-2,8.28414E-1,-2.7989182E-1,1.5737751E-1,-5.1536894E-1,1.0087999E0,2.7523896E-1,1.162018E0,-1.3237532E0,-3.6354808E-3,3.8246477E-1,-7.8843765E-2,-8.058888E-1,1.0481557E0,3.9728653E-1,-1.1868719E0,7.005973E-1,1.17924266E-1,-5.041475E-1,4.797732E-1,-6.017398E-1,-5.1910174E-1,7.3606175E-1,1.5859431E-1,-9.866153E-1,6.5485287E-1,1.0792338E0,1.0851538E0,-4.308709E-1,1.9552752E-2,7.597691E-1,-8.7281454E-1,2.8091753E-1,5.384811E-1,-6.090688E-1,-1.1882284E0,1.2800815E0,4.2441672E-1,-1.1515881E0,-5.383464E-1,-1.116439E0,1.2071697E0,1.0694896E0,1.0680914E0,1.1193211E0,2.5668168E-1,-2.9393426E-1,-4.8819813E-1,9.745485E-1,-6.2391067E-1,-1.653643E0,7.4257356E-1,-6.1977637E-1,6.227337E-1,-1.8307789E-1,-1.3145171E0,2.334652E-1,-2.3775275E0,-3.8571993E-1,-1.0941906E0,-1.2071122E0,-1.087343E0,-1.2125885E0],"categories":[],"categories_nodes":[],"categories_segments":[],"categories_sizes":[],"default_left":[1,1,1,1,1,1,1,1,1,0,0,1,1,1,1,1,0,0,1,1,1,1,1,1,0,0,1,0,1,1,0,1,1,1,1,1,1,1,0,0,1,0,1,0,0,0,0,0,0,0,0,0,0,0,0,0,0,0,0,0,0,0,0,0,0],"id":12,"left_children":[1,3,5,7,9,11,13,15,17,-1,-1,19,21,23,25,27,-1,-1,29,31,33,35,37,39,-1,-1,41,-1,43,45,-1,47,49,51,53,55,57,59,-1,-1,61,-1,63,-1,-1,-1,-1,-1,-1,-1,-1,-1,-1,-1,-1,-1,-1,-1,-1,-1,-1,-1,-1,-1,-1],"loss_changes":[7.563465E0,3.4354982E0,5.35699E0,2.191987E0,4.823552E0,4.1103425E0,1.6758575E0,3.984871E-1,3.3598552E0,0E0,0E0,4.022714E0,4.529593E0,1.894633E0,1.3831725E0,1.899929E-1,0E0,0E0,1.8210766E0,3.3586597E0,3.7395217E0,2.7513142E0,4.696439E0,2.0462742E0,0E0,0E0,3.8865185E-1,0E0,1.7641068E-2,1.4941692E-3,0E0,3.4289243E0,1.8949285E0,1.7083402E0,1.7166611E0,2.4827948E0,1.3088394E0,3.096003E0,0E0,0E0,6.1979294E-3,0E0,1.4151573E-2,0E0,0E0,0E0,0E0,0E0,0E0,0E0,0E0,0E0,0E0,0E0,0E0,0E0,0E0,0E0,0E0,0E0,0E0,0E0,0E0,0E0,0E0],"parents":[2147483647,0,0,1,1,2,2,3,3,4,4,5,5,6,6,7,7,8,8,11,11,12,12,13,13,14,14,15,15,18,18,19,19,20,20,21,21,22,22,23,23,26,26,28,28,29,29,31,31,32,32,33,33,34,34,35,35,36,36,37,37,40,40,42,42],"right_children":[2,4,6,8,10,12,14,16,18,-1,-1,20,22,24,26,28,-1,-1,30,32,34,36,38,40,-1,-1,42,-1,44,46,-1,48,50,52,54,56,58,60,-1,-1,62,-1,64,-1,-1,-1,-1,-1,-1,-1,-1,-1,-1,-1,-1,-1,-1,-1,-1,-1,-1,-1,-1,-1,-1],"split_conditions":[5.57724E-2,5.2771795E-1,9.2233574E-1,8.6361337E-1,1.2497379E-1,4.8793843E-1,2.8900702E-2,8.784486E-1,3.454386E-1,2.5197837E-1,-2.8704995E-1,7.5269115E-1,9.9127364E-1,8.454958E-1,4.703107E-1,1.1538183E-1,8.6149804E-2,-2.5736785E-1,4.932686E-2,8.0418885E-1,6.208824E-1,5E-1,3.6000496E-1,8.799778E-1,1.5961169E-1,3.4390464E-2,8.911066E-1,1.4200191E-1,1.2883027E-1,1.7942113E-1,-9.343242E-2,4.9962357E-1,8.954504E-2,5.3459734E-1,5.3418505E-1,9.9999994E-1,5.223589E-1,1.6818711E-1,2.7757993E-1,9.2032865E-2,4.2040113E-1,-1.1673801E-1,4.2008328E-1,2.6176932E-1,2.3191401E-1,2.3161082E-1,2.4271975E-1,5.566027E-2,-6.3738324E-2,-1.0586357E-1,2.1132648E-1,-1.3529223E-1,-3.5858506E-1,1.6102375E-1,-1.3439572E-1,1.35037E-1,-3.9699618E-2,-2.8504714E-1,5.062588E-2,-5.1555616E-1,-8.364163E-2,-2.3727033E-1,-2.6175687E-1,-2.3578544E-1,-2.6294437E-1],"split_indices":[103,61,67,0,28,92,46,12,26,0,0,21,70,11,112,77,0,0,103,155,72,118,10,95,0,0,71,0,87,39,0,115,46,46,36,109,103,24,0,0,78,0,19,0,0,0,0,0,0,0,0,0,0,0,0,0,0,0,0,0,0,0,0,0,0],"split_type":[0,0,0,0,0,0,0,0,0,0,0,0,0,0,0,0,0,0,0,0,0,0,0,0,0,0,0,0,0,0,0,0,0,0,0,0,0,0,0,0,0,0,0,0,0,0,0,0,0,0,0,0,0,0,0,0,0,0,0,0,0,0,0,0,0],"sum_hessian":[1.518015E2,2.5173618E1,1.26627884E2,2.1968966E1,3.2046525E0,1.1341235E2,1.3215532E1,1.6566498E1,5.402468E0,1.3456864E0,1.858966E0,6.611633E1,4.7296017E1,5.280997E0,7.934536E0,1.5564552E1,1.0019449E0,1.217415E0,4.1850533E0,5.3196243E1,1.2920091E1,4.3040726E1,4.255291E0,3.4287643E0,1.8522321E0,1.2520308E0,6.682505E0,1.1401751E0,1.4424377E1,3.123563E0,1.0614903E0,4.61269E1,7.069345E0,8.79169E0,4.1284013E0,4.083892E1,2.201806E0,3.244264E0,1.0110273E0,1.3759512E0,2.0528133E0,1.5009679E0,5.181537E0,1.0197314E0,1.3404646E1,2.0862737E0,1.0372894E0,2.6262094E1,1.9864805E1,1.0379127E0,6.031432E0,6.6667423E0,2.1249475E0,2.729527E0,1.3988743E0,3.6569138E1,4.269782E0,1.1984856E0,1.0033203E0,1.3070482E0,1.9372157E0,1.0107603E0,1.042053E0,3.979052E0,1.2024852E0],"tree_param":{"num_deleted":"0","num_feature":"200","num_nodes":"65","size_leaf_vector":"0"}},{"base_weights":[1.5949406E-1,7.800444E-1,9.0856194E-2,1.0644424E0,1.0380189E-1,1.7384276E-1,-3.021243E-1,1.1376673E0,1.0553392E0,-1.5013316E0,6.1737925E-1,4.8460547E-2,5.557875E-1,-3.8093895E-1,6.5085274E-1,1.0498718E0,1.0926331E0,-3.4692475E-1,1.0756584E0,1.09738074E-1,-8.966614E-1,-6.9468737E-1,6.5224564E-1,-6.22341E-1,-2.3964282E-2,1.0546322E0,1.0390216E0,1.0463343E0,1.1088587E0,3.787848E-1,-1.7773484E-1,-1.6515949E0,7.2638184E-1,9.9752665E-1,3.6087212E-1,4.2271975E-2,-8.876447E-1,4.6534932E-1,-7.2004324E-1,6.10734E-1,-3.0101675E-1,-1.1846433E0,-4.9083106E-2,-2.7768357E0,-1.1584642E0,1.1172367E0,2.5765756E-1,-8.358676E-1,6.8684745E-1,1.0843731E0,-4.9938223E-1,-1.3425825E-2,-1.0314023E0,1.5039772E-1,1.4939263E0,-1.0976666E0,3.4114305E-2],"categories":[],"categories_nodes":[],"categories_segments":[],"categories_sizes":[],"default_left":[1,1,1,1,1,1,1,0,1,0,1,1,1,1,0,1,0,0,1,1,1,0,1,1,1,0,0,0,0,1,1,1,0,1,1,1,1,1,1,0,0,0,0,0,0,0,0,0,0,0,0,0,0,0,0,0,0],"id":13,"left_children":[1,3,5,7,9,11,13,-1,15,-1,17,19,21,23,-1,25,-1,-1,27,29,31,-1,33,35,37,-1,-1,-1,-1,39,41,43,-1,45,47,49,51,53,55,-1,-1,-1,-1,-1,-1,-1,-1,-1,-1,-1,-1,-1,-1,-1,-1,-1,-1],"loss_changes":[6.089307E0,2.7381525E0,4.198101E0,6.354332E-3,3.4748833E0,5.089795E0,1.6857035E0,0E0,1.4982224E-3,0E0,1.4114485E0,4.6340866E0,3.168316E0,1.7862828E0,0E0,8.9645386E-5,0E0,0E0,1.7859936E-3,5.8120685E0,5.9697094E0,0E0,2.4532013E0,2.180647E0,2.8485627E0,0E0,0E0,0E0,0E0,6.1207066E0,4.705842E0,1.844595E0,0E0,9.8828125E-1,5.1594763E0,1.9915082E0,1.1106415E0,1.5906535E0,9.833387E-1,0E0,0E0,0E0,0E0,0E0,0E0,0E0,0E0,0E0,0E0,0E0,0E0,0E0,0E0,0E0,0E0,0E0,0E0],"parents":[2147483647,0,0,1,1,2,2,3,3,4,4,5,5,6,6,8,8,10,10,11,11,12,12,13,13,15,15,18,18,19,19,20,20,22,22,23,23,24,24,29,29,30,30,31,31,33,33,34,34,35,35,36,36,37,37,38,38],"right_children":[2,4,6,8,10,12,14,-1,16,-1,18,20,22,24,-1,26,-1,-1,28,30,32,-1,34,36,38,-1,-1,-1,-1,40,42,44,-1,46,48,50,52,54,56,-1,-1,-1,-1,-1,-1,-1,-1,-1,-1,-1,-1,-1,-1,-1,-1,-1,-1],"split_conditions":[4.0436033E-2,6.4559054E-1,8.7591445E-1,9.625618E-3,7.0577407E-1,9.867538E-1,4.803534E-1,2.4669805E-1,4.0098974E-1,-3.2555702E-1,4.560236E-1,9.1462076E-1,9.943642E-2,8.066844E-1,1.411345E-1,5.6440204E-1,2.3693259E-1,-7.522908E-2,4.742959E-1,6.2082046E-1,7.968639E-1,-1.5063983E-1,6.1650556E-1,2.910002E-1,8.310454E-1,2.2869226E-1,2.2530717E-1,2.2689289E-1,2.4045104E-1,4.9893105E-1,8.398688E-3,9.9907213E-1,1.5751263E-1,6.4110756E-1,3.8275588E-1,3.9987978E-1,1.0548631E-1,4.5099384E-1,8.924821E-1,1.3243492E-1,-6.5274134E-2,-2.5688457E-1,-1.06434515E-2,-6.0214436E-1,-2.5120777E-1,2.4226777E-1,5.5871885E-2,-1.8125413E-1,1.4893979E-1,2.3514144E-1,-1.08288795E-1,-2.91133E-3,-2.2365497E-1,3.261307E-2,3.239512E-1,-2.3802409E-1,7.397534E-3],"split_indices":[103,88,49,95,88,68,197,0,61,0,44,62,41,17,0,82,0,0,36,73,199,0,103,17,79,0,0,0,0,116,34,85,0,76,32,129,78,42,61,0,0,0,0,0,0,0,0,0,0,0,0,0,0,0,0,0,0],"split_type":[0,0,0,0,0,0,0,0,0,0,0,0,0,0,0,0,0,0,0,0,0,0,0,0,0,0,0,0,0,0,0,0,0,0,0,0,0,0,0,0,0,0,0,0,0,0,0,0,0,0,0,0,0,0,0,0,0],"sum_hessian":[1.4296707E2,1.4238205E1,1.2872887E2,1.0022825E1,4.215379E0,1.06284836E2,2.2444033E1,1.1063476E0,8.916478E0,1.0217389E0,3.1936405E0,8.001759E1,2.6267242E1,2.0729763E1,1.7142692E0,7.780063E0,1.1364144E0,1.028718E0,2.1649225E0,7.5145645E1,4.8719497E0,1.8809693E0,2.4386272E1,1.2366549E1,8.363215E0,5.39766E0,2.3824036E0,1.1520488E0,1.0128736E0,3.88171E1,3.6328545E1,3.3253179E0,1.546632E0,1.1160468E1,1.3225804E1,3.5280054E0,8.838543E0,4.9108777E0,3.452338E0,2.8942198E1,9.874905E0,4.115656E0,3.2212887E1,1.0131468E0,2.3121712E0,9.606024E0,1.5544448E0,2.8312173E0,1.0394587E1,1.2066865E0,2.3213186E0,1.2483127E0,7.59023E0,3.7597802E0,1.1510975E0,2.3005745E0,1.1517634E0],"tree_param":{"num_deleted":"0","num_feature":"200","num_nodes":"57","size_leaf_vector":"0"}},{"base_weights":[1.3714951E-1,5.951735E-1,5.871258E-2,7.4362105E-1,-1.9933262E-1,-8.42384E-2,2.694272E-1,2.2787875E-1,9.841859E-1,1.0776284E0,-9.3610317E-1,3.1249912E-2,-5.7539666E-1,3.7615222E-1,-4.5544583E-1,-2.7953345E-1,1.1129982E0,1.049293E0,3.1291053E-1,-5.7948127E-2,7.134987E-1,1.3976057E-1,-8.5566354E-1,2.4731272E-1,8.489917E-1,-1.9482417E0,-1.4035796E-1,5.835902E-1,-1.4148152E0,1.039156E0,1.0620941E0,1.24669366E-1,-5.0936043E-1,1.1147249E0,5.71784E-2,1.1075802E0,-4.3564305E-1,-1.1449903E0,4.4067644E-2,3.013253E-1,-1.3192836E0,1.0332358E0,2.1622229E-1,2.1747495E-1,-1.2460183E0,1.0913972E0,1.0537627E0,3.6685368E-1,-2.5924298E-1,-8.5649824E-1,1.3083924E-1,1.2126732E0,8.5360503E-1,-7.322935E-1,7.918382E-1,-1.1694305E0,1.6914344E-1,-2.3468034E0,-9.280716E-1,-6.136032E-1,7.416992E-1,6.63777E-1,1.4597747E-2,1.0937346E0,6.863852E-1,-8.791058E-1,7.677095E-1],"categories":[],"categories_nodes":[],"categories_segments":[],"categories_sizes":[],"default_left":[1,1,1,1,1,1,1,1,1,0,0,1,1,1,1,1,0,1,0,1,1,1,1,1,1,0,1,0,0,0,1,1,1,1,1,0,1,1,1,1,0,1,0,1,0,0,0,0,0,0,0,0,0,0,0,0,0,0,0,0,0,0,0,0,0,0,0],"id":14,"left_children":[1,3,5,7,9,11,13,15,17,-1,-1,19,21,23,25,27,-1,29,-1,31,33,35,37,39,41,-1,43,-1,-1,-1,45,47,49,51,53,-1,55,57,59,61,-1,63,-1,65,-1,-1,-1,-1,-1,-1,-1,-1,-1,-1,-1,-1,-1,-1,-1,-1,-1,-1,-1,-1,-1,-1,-1],"loss_changes":[4.850322E0,2.3282623E0,3.4722147E0,2.0634108E0,2.9236004E0,3.895731E0,3.604513E0,2.3762586E0,4.954958E-1,0E0,0E0,3.3838794E0,2.6207247E0,2.474028E0,2.8121955E0,3.2952373E0,0E0,1.0280609E-3,0E0,4.0537934E0,1.6928885E0,2.0500627E0,2.4454598E0,2.700545E0,1.0136852E0,0E0,1.9535905E0,0E0,0E0,0E0,7.9345703E-4,3.2552264E0,3.1478312E0,1.0174084E-1,1.414849E0,0E0,1.024619E0,1.8525343E0,1.0486729E0,3.2063348E0,0E0,1.410675E-1,0E0,2.2506378E0,0E0,0E0,0E0,0E0,0E0,0E0,0E0,0E0,0E0,0E0,0E0,0E0,0E0,0E0,0E0,0E0,0E0,0E0,0E0,0E0,0E0,0E0,0E0],"parents":[2147483647,0,0,1,1,2,2,3,3,4,4,5,5,6,6,7,7,8,8,11,11,12,12,13,13,14,14,15,15,17,17,19,19,20,20,21,21,22,22,23,23,24,24,26,26,30,30,31,31,32,32,33,33,34,34,36,36,37,37,38,38,39,39,41,41,43,43],"right_children":[2,4,6,8,10,12,14,16,18,-1,-1,20,22,24,26,28,-1,30,-1,32,34,36,38,40,42,-1,44,-1,-1,-1,46,48,50,52,54,-1,56,58,60,62,-1,64,-1,66,-1,-1,-1,-1,-1,-1,-1,-1,-1,-1,-1,-1,-1,-1,-1,-1,-1,-1,-1,-1,-1,-1,-1],"split_conditions":[5.57724E-2,5.2771795E-1,4.8793843E-1,2.8148156E-1,9.9393094E-1,8.5267556E-1,9.9127364E-1,1.4330524E-1,7.834878E-1,2.3367888E-1,-2.0298977E-1,9.179127E-1,7.779308E-2,8.403106E-1,1.6694444E-1,1.9610409E-2,2.4134867E-1,3.2610476E-2,6.785324E-2,4.9893105E-1,5.9265083E-1,3.3821738E-1,9.100926E-1,1E0,9.015822E-1,-4.2246747E-1,8.5026324E-1,1.2654892E-1,-3.067963E-1,2.2533631E-1,5.9389955E-1,3.1708705E-1,5.460438E-1,5.2563244E-1,3.6294913E-1,2.4017379E-1,8.9350915E-1,1.5287489E-1,6.3263845E-1,8.2612646E-1,-2.8608072E-1,9.5226014E-1,4.688683E-2,1.7693871E-1,-2.701935E-1,2.3666458E-1,2.285037E-1,7.955057E-2,-5.6215677E-2,-1.857278E-1,2.8371902E-2,2.6296273E-1,1.8510042E-1,-1.5879455E-1,1.7170657E-1,-2.5358576E-1,3.6677994E-2,-5.088938E-1,-2.0124817E-1,-1.3305709E-1,1.6083415E-1,1.4393707E-1,3.1654558E-3,2.3717144E-1,1.4883955E-1,-1.9063015E-1,1.6647436E-1],"split_indices":[103,61,92,53,109,67,70,18,10,0,0,11,23,29,39,38,0,103,0,116,23,78,30,140,15,0,69,0,0,0,199,73,76,78,21,0,112,59,0,69,0,41,0,99,0,0,0,0,0,0,0,0,0,0,0,0,0,0,0,0,0,0,0,0,0,0,0],"split_type":[0,0,0,0,0,0,0,0,0,0,0,0,0,0,0,0,0,0,0,0,0,0,0,0,0,0,0,0,0,0,0,0,0,0,0,0,0,0,0,0,0,0,0,0,0,0,0,0,0,0,0,0,0,0,0,0,0,0,0,0,0,0,0,0,0,0,0],"sum_hessian":[1.350113E2,1.9739973E1,1.1527134E2,1.6632496E1,3.1074772E0,6.8678474E1,4.6592865E1,5.290632E0,1.1341864E1,1.1368698E0,1.9706074E0,5.5603813E1,1.3074663E1,4.061344E1,5.979424E0,3.3627276E0,1.9279042E0,1.0338875E1,1.0029893E0,4.917448E1,6.429332E0,3.6810975E0,9.393566E0,3.1917002E1,8.696439E0,1.0420375E0,4.9373865E0,1.910276E0,1.4524516E0,5.776562E0,4.5623126E0,3.5010696E1,1.4163783E1,3.9899452E0,2.4393864E0,1.3726169E0,2.3084805E0,7.1080008E0,2.2855651E0,3.085335E1,1.0636508E0,6.7351313E0,1.9613075E0,3.7300744E0,1.207312E0,1.0058718E0,3.5564406E0,2.1468224E1,1.3542475E1,9.184084E0,4.979699E0,2.9011211E0,1.088824E0,1.1757356E0,1.2636509E0,1.0431063E0,1.2653742E0,1.0866686E0,6.0213323E0,1.1763722E0,1.109193E0,1.3626987E1,1.7226362E1,5.7344685E0,1.0006629E0,1.2462046E0,2.4838698E0],"tree_param":{"num_deleted":"0","num_feature":"200","num_nodes":"67","size_leaf_vector":"0"}},{"base_weights":[1.1846126E-1,7.0029694E-1,6.628238E-2,1.0461495E0,1.1674104E-2,1.14794984E-1,-4.3006605E-1,1.0922322E0,1.0381856E0,5.195064E-1,-1.2364985E0,-9.6479535E-1,1.404321E-1,-6.507427E-2,-8.010524E-1,1.0598861E0,1.0324495E0,-2.79049E-1,1.0879693E0,-2.0506277E0,1.4890675E-1,4.807103E-2,4.323333E-1,-3.2189822E-1,9.374769E-1,-1.5937588E-1,-1.0387052E0,-1.7770534E-2,6.6366637E-1,-1.1095744E-1,7.67265E-1,2.8931803E-1,-1.0630902E0,-7.279302E-1,-1.1525304E0,-1.8771952E-1,2.1667297E-1,8.9394045E-1,-2.9098487E-1,-8.304142E-1,2.1027264E-1,9.05945E-1,-4.449974E-1,1.1109755E0,-4.5432162E-1,-1.2503859E0,-1.091625E0],"categories":[],"categories_nodes":[],"categories_segments":[],"categories_sizes":[],"default_left":[1,1,1,1,1,1,1,0,1,1,0,1,1,1,1,0,0,0,0,0,0,1,1,1,0,0,1,1,1,1,1,1,0,0,1,0,0,0,0,0,0,0,0,0,0,0,0],"id":15,"left_children":[1,3,5,7,9,11,13,-1,15,17,-1,19,21,23,25,-1,-1,-1,-1,-1,-1,27,29,31,-1,-1,33,35,37,39,41,43,-1,-1,45,-1,-1,-1,-1,-1,-1,-1,-1,-1,-1,-1,-1],"loss_changes":[3.85293E0,2.4873705E0,2.8044314E0,2.233982E-3,2.213401E0,2.9364557E0,1.4040121E0,0E0,4.2581558E-4,1.1269424E0,0E0,2.976319E0,2.794052E0,1.3458394E0,7.840307E-1,0E0,0E0,0E0,0E0,0E0,0E0,3.1910875E0,4.5328646E0,1.8853617E0,0E0,0E0,1.324606E-1,2.8337092E0,1.6723616E0,2.1956272E0,2.5907755E0,1.3935788E0,0E0,0E0,1.6016483E-2,0E0,0E0,0E0,0E0,0E0,0E0,0E0,0E0,0E0,0E0,0E0,0E0],"parents":[2147483647,0,0,1,1,2,2,3,3,4,4,5,5,6,6,8,8,9,9,11,11,12,12,13,13,14,14,21,21,22,22,23,23,26,26,27,27,28,28,29,29,30,30,31,31,34,34],"right_children":[2,4,6,8,10,12,14,-1,16,18,-1,20,22,24,26,-1,-1,-1,-1,-1,-1,28,30,32,-1,-1,34,36,38,40,42,44,-1,-1,46,-1,-1,-1,-1,-1,-1,-1,-1,-1,-1,-1,-1],"split_conditions":[4.0436033E-2,6.4559054E-1,9.2233574E-1,1.2334204E-2,8.9208263E-1,5.506867E-2,1.3172457E-1,2.3684566E-1,2.8148156E-1,4.411341E-1,-2.6812914E-1,1.9199748E-1,5.817306E-1,4.894538E-1,6.9344215E-2,2.2983155E-1,2.2388203E-1,-6.0510524E-2,2.3592126E-1,-4.4466943E-1,3.2289762E-2,5.353892E-1,4.0935826E-1,8.4654427E-1,2.0328765E-1,-3.4559943E-2,4.440571E-1,3.8042238E-1,6.7220366E-1,7.269372E-1,9.352989E-1,2.5791225E-1,-2.3052634E-1,-1.5784839E-1,1.861197E-1,-4.0706135E-2,4.698456E-2,1.9384697E-1,-6.3098766E-2,-1.8007159E-1,4.5596678E-2,1.9645011E-1,-9.649569E-2,2.4091005E-1,-9.8517604E-2,-2.7114058E-1,-2.3671398E-1],"split_indices":[103,88,67,95,112,26,19,0,53,36,0,84,76,92,77,0,0,0,0,0,0,99,45,124,0,0,87,155,44,39,76,42,0,0,77,0,0,0,0,0,0,0,0,0,0,0,0],"split_type":[0,0,0,0,0,0,0,0,0,0,0,0,0,0,0,0,0,0,0,0,0,0,0,0,0,0,0,0,0,0,0,0,0,0,0,0,0,0,0,0,0,0,0,0,0,0,0],"sum_hessian":[1.2691367E2,1.0444654E1,1.1646902E2,6.952587E0,3.492067E0,1.0609927E2,1.0369742E1,1.021611E0,5.9309764E0,2.482256E0,1.009811E0,2.4609654E0,1.0363831E2,5.227303E0,5.142439E0,1.2343199E0,4.696656E0,1.0321225E0,1.4501336E0,1.2461344E0,1.214831E0,7.872825E1,2.4910067E1,4.161421E0,1.0658824E0,1.3899944E0,3.7524445E0,7.112119E1,7.6070547E0,9.499906E0,1.5410161E1,2.2805786E0,1.8808422E0,1.0063E0,2.7461445E0,4.123233E1,2.988886E1,6.1288486E0,1.4782058E0,2.9324799E0,6.5674257E0,1.3828351E1,1.58181E0,1.0835438E0,1.1970347E0,1.0525175E0,1.693627E0],"tree_param":{"num_deleted":"0","num_feature":"200","num_nodes":"47","size_leaf_vector":"0"}},{"base_weights":[1.0004557E-1,2.5839627E-1,-7.257615E-2,-1.5039988E-2,4.924531E-1,-1.604264E-1,4.606261E-1,-2.3996657E-1,4.0602022E-1,9.450373E-1,2.2365302E-1,-1.1348096E-1,-1.0389167E0,7.8711104E-1,-4.4767693E-1,4.7643065E-1,-4.453929E-1,7.365919E-1,-4.7173885E-1,3.4984067E-1,1.0332314E0,3.2081378E-1,-1.4835184E0,-2.8871483E-1,1.6778523E-1,-1.5219611E0,-6.369143E-1,2.3183873E-1,1.0566775E0,2.6025036E-1,-1.2515644E0,-1.0447324E-1,9.82628E-1,-5.98074E-2,-1.002317E0,9.7034574E-1,-3.1053996E-1,6.446883E-1,-1.241953E0,1.0848938E0,5.259462E-1,7.170279E-1,-4.0544566E-2,-1.406588E-1,-1.0077848E0,9.7617465E-1,-2.0363847E-2,1.0451065E0,1.0912124E0,1.1632278E0,7.557485E-1,8.4623283E-1,-5.4648393E-1,-2.0704253E0,-6.081963E-1,1.102266E0,3.0781728E-1,1.0613087E0,1.2933602E0,1.0792006E0,1.5818873E-1,-4.6455505E-1,7.6167196E-1,-3.0561173E-1,1.1519719E0,-1.5227896E0,-5.877633E-1,1.1143608E0,6.4075965E-1,-1.3822505E0,1.299047E-1,1.0602394E0,1.0369166E0],"categories":[],"categories_nodes":[],"categories_segments":[],"categories_sizes":[],"default_left":[1,1,1,1,1,1,1,1,1,1,1,1,1,1,1,1,1,1,1,0,1,1,0,1,1,0,0,0,1,0,0,0,1,1,1,1,0,0,0,1,0,1,1,1,1,1,1,1,0,0,0,0,0,0,0,0,0,0,0,0,0,0,0,0,0,0,0,0,0,0,0,0,0],"id":16,"left_children":[1,3,5,7,9,11,13,15,17,19,21,23,25,27,29,31,33,35,37,-1,39,41,-1,43,45,-1,-1,-1,47,-1,-1,-1,49,51,53,55,-1,-1,-1,57,-1,59,61,63,65,67,69,71,-1,-1,-1,-1,-1,-1,-1,-1,-1,-1,-1,-1,-1,-1,-1,-1,-1,-1,-1,-1,-1,-1,-1,-1,-1],"loss_changes":[3.3150537E0,4.0482097E0,2.717846E0,2.7627828E0,4.1459E0,2.0542698E0,2.433899E0,2.7983422E0,2.9472725E0,6.663952E-1,3.5464444E0,2.3307383E0,4.9035978E-1,9.0349984E-1,1.2350466E0,1.2460989E0,3.1732023E0,1.806149E0,2.3894315E0,0E0,2.8961372E-1,2.8966093E0,0E0,3.1017728E0,2.761015E0,0E0,0E0,0E0,1.3051033E-3,0E0,0E0,0E0,9.249568E-2,3.8503828E0,2.5444999E0,5.2700615E-1,0E0,0E0,0E0,4.8996925E-2,0E0,1.9529562E0,3.5988963E0,5.1517267E0,1.0757761E0,1.5859437E-1,3.013577E0,6.484985E-5,0E0,0E0,0E0,0E0,0E0,0E0,0E0,0E0,0E0,0E0,0E0,0E0,0E0,0E0,0E0,0E0,0E0,0E0,0E0,0E0,0E0,0E0,0E0,0E0,0E0],"parents":[2147483647,0,0,1,1,2,2,3,3,4,4,5,5,6,6,7,7,8,8,9,9,10,10,11,11,12,12,13,13,14,14,15,15,16,16,17,17,18,18,20,20,21,21,23,23,24,24,28,28,32,32,33,33,34,34,35,35,39,39,41,41,42,42,43,43,44,44,45,45,46,46,47,47],"right_children":[2,4,6,8,10,12,14,16,18,20,22,24,26,28,30,32,34,36,38,-1,40,42,-1,44,46,-1,-1,-1,48,-1,-1,-1,50,52,54,56,-1,-1,-1,58,-1,60,62,64,66,68,70,72,-1,-1,-1,-1,-1,-1,-1,-1,-1,-1,-1,-1,-1,-1,-1,-1,-1,-1,-1,-1,-1,-1,-1,-1,-1],"split_conditions":[5.2083874E-1,2.8148156E-1,5.818236E-1,9.856774E-2,4.0798643E-1,2.4472706E-2,8.791459E-1,1.7181334E-1,4.7417247E-1,9.994672E-2,8.655604E-1,4.0098974E-1,8.423021E-1,1.9397499E-1,2.9971936E-1,5.1972026E-1,4.0127426E-1,9.217649E-1,2.3127812E-1,7.586138E-2,8.2104504E-1,3.1578928E-1,-3.2169428E-1,8.1663734E-1,5.90986E-1,-3.3003044E-1,-1.3811201E-1,5.0273187E-2,8.1787586E-1,5.643412E-2,-2.7139613E-1,-2.2654554E-2,8.5829496E-1,9.0326774E-1,4.2490047E-1,9.929323E-1,-6.73392E-2,1.3979776E-1,-2.6931193E-1,6.009469E-1,1.1404907E-1,6.306436E-1,6.208824E-1,5.8132726E-1,7.511598E-1,7.35847E-1,2.769884E-1,5.896417E-1,2.3662451E-1,2.5224072E-1,1.6388068E-1,1.835018E-1,-1.1850259E-1,-4.4896242E-1,-1.3188465E-1,2.3902142E-1,6.67488E-2,2.3014005E-1,2.8045937E-1,2.3401982E-1,3.4302518E-2,-1.0073668E-1,1.6516514E-1,-6.627053E-2,2.4979995E-1,-3.302101E-1,-1.2745383E-1,2.4164414E-1,1.3894585E-1,-2.9973483E-1,2.8169252E-2,2.2990817E-1,2.2485071E-1],"split_indices":[15,53,139,38,86,113,26,99,77,87,67,61,29,46,130,112,78,119,79,0,76,72,0,95,66,0,0,0,24,0,0,0,109,0,78,105,0,0,0,103,0,46,72,134,57,81,59,4,0,0,0,0,0,0,0,0,0,0,0,0,0,0,0,0,0,0,0,0,0,0,0,0,0],"split_type":[0,0,0,0,0,0,0,0,0,0,0,0,0,0,0,0,0,0,0,0,0,0,0,0,0,0,0,0,0,0,0,0,0,0,0,0,0,0,0,0,0,0,0,0,0,0,0,0,0,0,0,0,0,0,0,0,0,0,0,0,0,0,0,0,0,0,0,0,0,0,0,0,0],"sum_hessian":[1.2127508E2,6.3252567E1,5.8022514E1,2.9171932E1,3.4080635E1,4.9815243E1,8.207269E0,1.9014763E1,1.015717E1,1.2698816E1,2.1381817E1,4.7288387E1,2.5268571E0,6.037338E0,2.1699314E0,4.237239E0,1.4777524E1,7.378521E0,2.7786496E0,1.639046E0,1.1059771E1,2.0230524E1,1.1512932E0,2.91364E1,1.8151987E1,1.1475632E0,1.379294E0,1.9732494E0,4.0640883E0,1.1537415E0,1.0161899E0,1.9728982E0,2.2643406E0,8.732122E0,6.0454016E0,6.032098E0,1.3464229E0,1.134298E0,1.6443516E0,1.0037271E1,1.0225002E0,9.650045E0,1.058048E1,2.4161728E1,4.974671E0,3.4272778E0,1.472471E1,3.047512E0,1.0165763E0,1.2603799E0,1.0039607E0,3.051282E0,5.68084E0,1.6293317E0,4.41607E0,5.0302663E0,1.0018318E0,9.017786E0,1.0194844E0,5.8551626E0,3.7948828E0,6.922032E0,3.6584475E0,2.142748E1,2.734247E0,2.2344968E0,2.7401743E0,2.4269545E0,1.0003233E0,1.4633356E0,1.3261374E1,1.0635107E0,1.9840014E0],"tree_param":{"num_deleted":"0","num_feature":"200","num_nodes":"73","size_leaf_vector":"0"}},{"base_weights":[8.92508E-2,6.4799374E-1,4.534725E-2,1.0356635E0,2.9155143E-2,8.79919E-1,2.0740047E-2,1.0613432E0,1.0238034E0,-8.361953E-1,7.061059E-1,1.1101193E0,4.5798045E-1,-9.286813E-1,4.4156447E-2,-1.3674908E0,-2.862648E-1,-7.3748046E-1,6.977384E-2,-2.356846E-1,-1.5606738E0,1.3119942E-1,-2.7503204E-1,-5.580667E-2,2.825361E-1,-9.2157796E-2,-1.1461627E0],"categories":[],"categories_nodes":[],"categories_segments":[],"categories_sizes":[],"default_left":[1,1,1,1,1,1,1,0,0,0,0,0,0,1,1,0,0,1,1,0,0,1,1,0,0,0,0],"id":17,"left_children":[1,3,5,7,9,11,13,-1,-1,-1,-1,-1,-1,15,17,-1,-1,19,21,-1,-1,23,25,-1,-1,-1,-1],"loss_changes":[2.797104E0,1.9927046E0,2.1710153E0,1.244545E-3,1.874341E0,2.9385448E-1,2.2829618E0,0E0,0E0,0E0,0E0,0E0,0E0,6.9652987E-1,2.0066986E0,0E0,0E0,1.3134263E0,2.0553133E0,0E0,0E0,2.3311348E0,2.3373647E0,0E0,0E0,0E0,0E0],"parents":[2147483647,0,0,1,1,2,2,3,3,4,4,5,5,6,6,13,13,14,14,17,17,18,18,21,21,22,22],"right_children":[2,4,6,8,10,12,14,-1,-1,-1,-1,-1,-1,16,18,-1,-1,20,22,-1,-1,24,26,-1,-1,-1,-1],"split_conditions":[4.0436033E-2,6.4559054E-1,1.9607642E-5,2.8148156E-1,6.9261014E-1,7.6766866E-1,1.9607709E-5,2.3014751E-1,2.2200716E-1,-1.813252E-1,1.531159E-1,2.407244E-1,9.931101E-2,2.9596514E-1,5.506867E-2,-2.9653424E-1,-6.207524E-2,4.1788566E-1,5.832491E-1,-5.110715E-2,-3.3842513E-1,2.395482E-1,9.840131E-1,-1.2101426E-2,6.1266683E-2,-1.9984005E-2,-2.4854025E-1],"split_indices":[103,88,0,53,20,59,0,0,0,0,0,0,0,99,26,0,0,18,122,0,0,82,105,0,0,0,0],"split_type":[0,0,0,0,0,0,0,0,0,0,0,0,0,0,0,0,0,0,0,0,0,0,0,0,0,0,0],"sum_hessian":[1.1402821E2,8.3068495E0,1.0572136E2,5.107212E0,3.199638E0,3.0277212E0,1.0269364E2,1.6094068E0,3.497805E0,1.4042991E0,1.7953387E0,1.9587262E0,1.068995E0,2.471699E0,1.0022194E2,1.4684339E0,1.0032651E0,3.1802535E0,9.704169E1,1.9759547E0,1.2042987E0,8.236853E1,1.4673154E1,3.684204E1,4.5526493E1,1.2127447E1,2.5457072E0],"tree_param":{"num_deleted":"0","num_feature":"200","num_nodes":"27","size_leaf_vector":"0"}},{"base_weights":[7.2985515E-2,2.3205921E-1,-5.2562177E-2,3.1010348E-1,-7.04594E-1,-8.113815E-1,1.03178555E-2,6.811775E-1,1.1824191E-1,-1.5565115E0,3.4774867E-1,-4.6984008E-1,-1.5966548E0,1.10740304E-1,-4.1280442E-1,8.780032E-1,-7.42232E-1,-6.9029164E-1,3.0404747E-1,-1.1438137E0,-1.9517184E0,6.022883E-1,-1.0205044E0,2.6029268E-1,-2.6288947E-1,-1.2301813E0,-1.9124532E-1,1.0283699E0,2.563246E-1,-2.0437792E-1,-1.6503285E0,5.228837E-1,-2.0477359E-1,-1.4816774E0,-5.8857864E-1,8.156584E-1,1.2708175E-1,-4.7313222E-1,3.5289067E-1,-6.5429795E-1,-1.7434537E0,1.4208324E-1,-6.996725E-1,5.5542463E-1,1.0772252E0,-7.267289E-1,1.1115321E0,-8.0596215E-1,1.0892814E0,7.840273E-1,-9.858211E-2,1.0594037E0,-4.7726807E-1,9.845978E-1,1.0109064E-1,2.3703183E-1,-5.739758E-1,-7.144623E-1,5.9104633E-1,1.0213253E0,-4.512811E-1,-2.2971378E-1,9.8585975E-1,-1.0795296E0,-6.763742E-2],"categories":[],"categories_nodes":[],"categories_segments":[],"categories_sizes":[],"default_left":[1,1,1,1,1,1,1,1,1,1,0,1,0,1,1,1,0,1,1,0,0,0,1,1,1,1,1,1,1,1,0,1,1,0,0,1,1,1,1,0,0,1,1,0,0,0,0,0,0,0,0,0,0,0,0,0,0,0,0,0,0,0,0,0,0],"id":18,"left_children":[1,3,5,7,9,11,13,15,17,19,-1,21,-1,23,25,27,-1,29,31,-1,-1,-1,33,35,37,39,41,43,45,47,-1,49,51,-1,-1,53,55,57,59,-1,-1,61,63,-1,-1,-1,-1,-1,-1,-1,-1,-1,-1,-1,-1,-1,-1,-1,-1,-1,-1,-1,-1,-1,-1],"loss_changes":[2.217642E0,3.5804548E0,2.961247E0,3.2188559E0,3.3774679E0,1.2734528E0,2.4351172E0,4.3172283E0,4.4774003E0,3.3909225E-1,0E0,1.9541504E0,0E0,2.5880964E0,1.9905086E0,1.265316E0,0E0,2.597703E0,2.6985629E0,0E0,0E0,0E0,4.3529034E-1,2.4469917E0,1.7140706E0,6.92518E-1,1.4657623E0,2.516346E-1,2.2169127E0,2.8777087E0,0E0,2.750402E0,2.5105796E0,0E0,0E0,7.723203E-1,2.0563998E0,2.5348268E0,1.8113947E0,0E0,0E0,1.6388164E0,8.2209253E-1,0E0,0E0,0E0,0E0,0E0,0E0,0E0,0E0,0E0,0E0,0E0,0E0,0E0,0E0,0E0,0E0,0E0,0E0,0E0,0E0,0E0,0E0],"parents":[2147483647,0,0,1,1,2,2,3,3,4,4,5,5,6,6,7,7,8,8,9,9,11,11,13,13,14,14,15,15,17,17,18,18,22,22,23,23,24,24,25,25,26,26,27,27,28,28,29,29,31,31,32,32,35,35,36,36,37,37,38,38,41,41,42,42],"right_children":[2,4,6,8,10,12,14,16,18,20,-1,22,-1,24,26,28,-1,30,32,-1,-1,-1,34,36,38,40,42,44,46,48,-1,50,52,-1,-1,54,56,58,60,-1,-1,62,64,-1,-1,-1,-1,-1,-1,-1,-1,-1,-1,-1,-1,-1,-1,-1,-1,-1,-1,-1,-1,-1,-1],"split_conditions":[3.5992497E-1,9.790752E-1,1.7742866E-1,8.475226E-2,3.8516194E-1,8.9406633E-1,8.401747E-1,5.784651E-1,1.067384E-1,5.266185E-1,7.5407736E-2,1.7935854E-1,-3.462274E-1,7.4747384E-1,6.01881E-1,9.5124245E-1,-1.6094968E-1,1.6587257E-1,5.974065E-1,-2.4803087E-1,-4.2322138E-1,1.3060352E-1,3.8505757E-1,4.436161E-1,7.8804386E-1,5.85E-1,8.869701E-1,4.447989E-3,1.0717818E-1,5.8652294E-1,-3.5786635E-1,7.424561E-1,9.693305E-2,-3.212951E-1,-1.2763064E-1,6.6936827E-1,5.835203E-1,5.5980045E-1,8.4262097E-1,-1.4188157E-1,-3.7806013E-1,3.711089E-1,8.924821E-1,1.2044134E-1,2.3359145E-1,-1.575879E-1,2.4103075E-1,-1.7476927E-1,2.3620579E-1,1.700128E-1,-2.1377089E-2,2.2972693E-1,-1.0349344E-1,2.1350561E-1,2.1921052E-2,5.139929E-2,-1.2446408E-1,-1.5492794E-1,1.2816575E-1,2.2146982E-1,-9.785828E-2,-4.9812403E-2,2.1377926E-1,-2.3409116E-1,-1.4666871E-2],"split_indices":[103,97,81,61,4,42,79,187,35,23,0,95,0,82,66,39,0,61,14,0,0,0,18,0,4,30,58,7,87,29,0,46,44,0,0,88,121,76,4,0,0,88,61,0,0,0,0,0,0,0,0,0,0,0,0,0,0,0,0,0,0,0,0,0,0],"split_type":[0,0,0,0,0,0,0,0,0,0,0,0,0,0,0,0,0,0,0,0,0,0,0,0,0,0,0,0,0,0,0,0,0,0,0,0,0,0,0,0,0,0,0,0,0,0,0,0,0,0,0,0,0,0,0,0,0,0,0,0,0,0,0,0,0],"sum_hessian":[1.1103994E2,4.8980686E1,6.2059254E1,4.521354E1,3.7671437E0,4.7492104E0,5.7310043E1,1.5409565E1,2.9803976E1,2.081892E0,1.6852517E0,3.3098478E0,1.4393626E0,4.631754E1,1.0992505E1,1.3537707E1,1.8718573E0,5.5691214E0,2.4234854E1,1.0186082E0,1.0632838E0,1.1230462E0,2.1868017E0,3.307788E1,1.3239658E1,2.3440666E0,8.648438E0,1.0900857E1,2.636851E0,3.6977184E0,1.871403E0,1.694664E1,7.2882137E0,1.0574206E0,1.1293811E0,6.398974E0,2.6678907E1,9.870022E0,3.369637E0,1.1048014E0,1.2392652E0,5.2235603E0,3.4248781E0,1.0209159E0,9.879941E0,1.2266555E0,1.4101956E0,2.5240748E0,1.1736436E0,1.1932685E1,5.0139556E0,1.2923033E0,5.9959106E0,5.1752315E0,1.2237425E0,2.3062172E1,3.6167345E0,8.045609E0,1.824412E0,1.840212E0,1.529425E0,3.6257627E0,1.5977979E0,2.139057E0,1.2858212E0],"tree_param":{"num_deleted":"0","num_feature":"200","num_nodes":"65","size_leaf_vector":"0"}},{"base_weights":[6.510289E-2,2.0027515E-1,-7.20992E-2,7.538542E-2,5.685571E-1,-1.7400119E-1,2.7469632E-1,-2.747281E-1,2.526974E-1,-5.693392E-1,7.2861373E-1,4.1747427E-1,-2.9581162E-1,6.266229E-1,-7.256623E-1,-8.328733E-2,-1.6083272E0,4.4869626E-1,-1.821687E-1,9.3160295E-1,-3.297971E-1,-3.2403085E-1,9.435076E-1,-1.3433573E0,-2.0909722E-1,7.921865E-1,-3.6547038E-1,2.3711373E-1,-1.2076104E0,8.8352275E-1,-3.2974693E-1,5.39669E-1,-5.997985E-1,-7.2064734E-1,3.4979004E-1,-3.329975E-1,1.0800339E0,-9.4003886E-1,6.745132E-1,1.1405308E0,3.879807E-1,-1.592832E0,-1.0648878E0,-3.8764924E-1,5.482968E-1,1.013809E0,3.8417198E-2,-1.4302019E0,-9.882663E-1,1.1326606E0,5.5518556E-1,-5.839133E-1,6.3997126E-1,6.7673016E-1,-3.678576E-3,-9.506743E-3,-1.3468359E0,1.0720056E0,-2.3658921E-1,1.1830931E0,1.0583074E0,1.1768991E0,1.0729554E0,-2.9294682E-1,-1.2033833E0,8.753899E-1,-9.3702286E-1,1.0949316E0,6.5868294E-1],"categories":[],"categories_nodes":[],"categories_segments":[],"categories_sizes":[],"default_left":[1,1,1,1,1,1,1,1,1,0,1,1,1,1,1,1,0,1,1,1,0,1,1,1,1,1,0,0,1,1,1,1,0,1,1,0,1,0,0,1,0,0,0,1,1,1,0,0,0,0,0,0,0,0,0,0,0,0,0,0,0,0,0,0,0,0,0,0,0],"id":19,"left_children":[1,3,5,7,9,11,13,15,17,-1,19,21,23,25,27,29,-1,31,33,35,-1,37,39,41,43,45,-1,-1,47,49,51,53,-1,55,57,-1,59,-1,-1,61,-1,-1,-1,63,65,67,-1,-1,-1,-1,-1,-1,-1,-1,-1,-1,-1,-1,-1,-1,-1,-1,-1,-1,-1,-1,-1,-1,-1],"loss_changes":[1.9314463E0,2.41279E0,1.8264174E0,2.4319873E0,2.4195218E0,2.8779902E0,4.1321063E0,3.362104E0,2.2165825E0,0E0,2.5022974E0,2.6608562E0,3.0086935E0,1.4262464E0,1.4174349E0,2.7441375E0,0E0,1.7098889E0,2.314352E0,1.8344536E0,0E0,1.7413244E0,4.3656015E-1,1.7551708E-1,4.1370726E0,1.2429028E0,0E0,0E0,9.902501E-2,1.9111407E-1,2.2619536E0,1.2285304E0,0E0,1.7877936E0,1.7212445E0,0E0,1.9248009E-2,0E0,0E0,6.9031715E-3,0E0,0E0,0E0,1.9122412E0,2.8353248E0,1.6539764E-1,0E0,0E0,0E0,0E0,0E0,0E0,0E0,0E0,0E0,0E0,0E0,0E0,0E0,0E0,0E0,0E0,0E0,0E0,0E0,0E0,0E0,0E0,0E0],"parents":[2147483647,0,0,1,1,2,2,3,3,4,4,5,5,6,6,7,7,8,8,10,10,11,11,12,12,13,13,14,14,15,15,17,17,18,18,19,19,21,21,22,22,23,23,24,24,25,25,28,28,29,29,30,30,31,31,33,33,34,34,36,36,39,39,43,43,44,44,45,45],"right_children":[2,4,6,8,10,12,14,16,18,-1,20,22,24,26,28,30,-1,32,34,36,-1,38,40,42,44,46,-1,-1,48,50,52,54,-1,56,58,-1,60,-1,-1,62,-1,-1,-1,64,66,68,-1,-1,-1,-1,-1,-1,-1,-1,-1,-1,-1,-1,-1,-1,-1,-1,-1,-1,-1,-1,-1,-1,-1],"split_conditions":[5.2083874E-1,3.76661E-1,9.1313744E-1,6.2357776E-2,2.4754056E-1,1.5995994E-1,8.208034E-1,2.3479588E-1,9.999999E-1,-1.2345865E-1,7.191278E-1,4.9263364E-1,2.370657E-1,5E-1,2.0111504E-1,1.7350106E-2,-3.4875852E-1,9.7144246E-1,5.306123E-1,9.9957734E-2,-7.1515016E-2,8.7037325E-2,7.635835E-1,5.716777E-1,3.2874182E-1,8.869701E-1,-7.925061E-2,5.141705E-2,8.035301E-1,1.652072E-2,2.3775536E-1,5.160408E-1,-1.3006361E-1,6.6643363E-1,8.275145E-1,-7.2209015E-2,1.2275395E-2,-2.038432E-1,1.4626516E-1,7.532201E-1,8.4131874E-2,-3.4539846E-1,-2.3091613E-1,9.030911E-1,2.3258805E-2,5.371965E-1,8.330597E-3,-3.1013286E-1,-2.1430111E-1,2.4561237E-1,1.203895E-1,-1.2661898E-1,1.387749E-1,1.4674589E-1,-7.9768273E-4,-2.0614946E-3,-2.920553E-1,2.324596E-1,-5.130331E-2,2.5654843E-1,2.294892E-1,2.5520527E-1,2.3266555E-1,-6.35242E-2,-2.6094827E-1,1.8982437E-1,-2.0318921E-1,2.37431E-1,1.4283244E-1],"split_indices":[15,141,112,1,41,9,21,56,109,0,98,199,95,114,42,38,0,0,52,39,0,6,112,49,46,58,0,0,6,8,57,34,0,19,77,0,8,0,0,45,0,0,0,78,113,42,0,0,0,0,0,0,0,0,0,0,0,0,0,0,0,0,0,0,0,0,0,0,0],"split_type":[0,0,0,0,0,0,0,0,0,0,0,0,0,0,0,0,0,0,0,0,0,0,0,0,0,0,0,0,0,0,0,0,0,0,0,0,0,0,0,0,0,0,0,0,0,0,0,0,0,0,0,0,0,0,0,0,0,0,0,0,0,0,0,0,0,0,0,0,0],"sum_hessian":[1.0414302E2,5.2460087E1,5.168293E1,3.9175507E1,1.3284578E1,3.994574E1,1.1737191E1,1.3169903E1,2.6005606E1,1.6380696E0,1.1646509E1,6.8214736E0,3.3124264E1,8.682745E0,3.0544462E0,1.15167675E1,1.6531353E0,1.792634E1,8.079266E0,9.772424E0,1.8740848E0,2.8308263E0,3.990647E0,2.5322177E0,3.0592049E1,7.441098E0,1.2416466E0,1.0188407E0,2.0356054E0,2.3393543E0,9.177414E0,1.649527E1,1.4310709E0,4.0151596E0,4.0641055E0,1.0264345E0,8.745989E0,1.7508564E0,1.07997E0,2.9456668E0,1.0449803E0,1.335345E0,1.1968728E0,2.475611E1,5.8359394E0,5.7502284E0,1.69087E0,1.0099692E0,1.0256363E0,1.3298321E0,1.0095222E0,7.2716436E0,1.90577E0,1.3172679E1,3.3225899E0,1.8801634E0,2.1349964E0,1.8212246E0,2.242881E0,1.5215145E0,7.224475E0,1.9135301E0,1.0321367E0,2.2181181E1,2.574927E0,4.782788E0,1.0531514E0,4.6805973E0,1.0696311E0],"tree_param":{"num_deleted":"0","num_feature":"200","num_nodes":"69","size_leaf_vector":"0"}},{"base_weights":[5.900473E-2,1.0303311E0,4.116032E-2,1.7670684E-2,6.6442186E-1,1.3453981E-1,-1.299844E-1,1.0881141E0,-2.8509566E-1,7.6961523E-1,4.473387E-2,-2.5452906E-1,3.6941513E-1,1.1581086E0,9.927306E-1,1.0614039E0,1.4689022E-1,-5.5127585E-1,1.5309235E-1,-1.1315039E-1,-7.1880305E-1,7.3642236E-1,-4.985316E-1,8.9899224E-1,1.1175469E0,-6.608866E-1,9.6189076E-1,-2.0197747E-2,-1.156565E0,1.2191719E0,8.921728E-2,-3.622312E-1,2.816928E-1,-1.1562098E0,-3.2084164E-1,9.840093E-1,-3.061774E-1,-1.0219505E0,1.2258239E-1],"categories":[],"categories_nodes":[],"categories_segments":[],"categories_sizes":[],"default_left":[1,0,1,1,1,1,1,1,0,1,1,1,1,0,0,1,1,1,1,1,1,1,1,0,0,0,0,0,0,0,0,0,0,0,0,0,0,0,0],"id":20,"left_children":[1,-1,3,5,7,9,11,13,-1,15,17,19,21,-1,-1,23,25,27,29,31,33,35,37,-1,-1,-1,-1,-1,-1,-1,-1,-1,-1,-1,-1,-1,-1,-1,-1],"loss_changes":[1.6892095E0,0E0,1.4010917E0,1.591596E0,1.3984659E0,2.9361963E0,2.53445E0,1.5725851E-2,0E0,1.1587658E0,2.9129987E0,2.140684E0,2.5909233E0,0E0,0E0,3.930044E-2,1.3399124E0,2.2303414E0,2.5988305E0,2.4589E0,1.3250153E0,1.47573E0,7.8591824E-1,0E0,0E0,0E0,0E0,0E0,0E0,0E0,0E0,0E0,0E0,0E0,0E0,0E0,0E0,0E0,0E0],"parents":[2147483647,0,0,2,2,3,3,4,4,5,5,6,6,7,7,9,9,10,10,11,11,12,12,15,15,16,16,17,17,18,18,19,19,20,20,21,21,22,22],"right_children":[2,-1,4,6,8,10,12,14,-1,16,18,20,22,-1,-1,24,26,28,30,32,34,36,38,-1,-1,-1,-1,-1,-1,-1,-1,-1,-1,-1,-1,-1,-1,-1,-1],"split_conditions":[1.3948342E-2,2.2342268E-1,5E-1,6.313256E-1,4.5521867E-1,4.0975608E-2,9.8930013E-1,6.031756E-1,-6.1821714E-2,9.639741E-1,7.631095E-2,8.706935E-1,8.4151834E-1,2.5113064E-1,2.1526918E-1,8.4507227E-1,1.3430032E-1,2.1202973E-1,1.1644988E-1,7.2551966E-1,5.833243E-1,9.4727516E-1,9.6667266E-1,1.9494243E-1,2.4233504E-1,-1.433103E-1,2.085817E-1,-4.3797907E-3,-2.5079593E-1,2.6437196E-1,1.9346368E-2,-7.854821E-2,6.108382E-2,-2.5071892E-1,-6.957307E-2,2.1337801E-1,-6.63932E-2,-2.2160538E-1,2.6581442E-2],"split_indices":[38,0,162,73,79,35,85,26,0,0,88,14,69,0,0,30,82,44,99,73,24,86,97,0,0,0,0,0,0,0,0,0,0,0,0,0,0,0,0],"split_type":[0,0,0,0,0,0,0,0,0,0,0,0,0,0,0,0,0,0,0,0,0,0,0,0,0,0,0,0,0,0,0,0,0,0,0,0,0,0,0],"sum_hessian":[9.746655E1,1.7581177E0,9.5708435E1,9.223259E1,3.4758437E0,5.148396E1,4.074863E1,2.4035048E0,1.0723388E0,6.3781667E0,4.5105793E1,3.2615086E1,8.133545E0,1.3853098E0,1.018195E0,4.34296E0,2.035207E0,6.9387674E0,3.8167027E1,2.500193E1,7.6131544E0,5.7165117E0,2.4170334E0,1.116339E0,3.2266212E0,1.022046E0,1.013161E0,3.6960857E0,3.2426815E0,2.1574013E0,3.6009624E1,1.5330979E1,9.670951E0,3.6266525E0,3.9865022E0,4.619624E0,1.0968876E0,1.3117948E0,1.1052387E0],"tree_param":{"num_deleted":"0","num_feature":"200","num_nodes":"39","size_leaf_vector":"0"}},{"base_weights":[5.0172664E-2,1.0244265E0,3.5157133E-2,-1.7080527E-2,3.0283043E-1,1.3903201E-2,-6.78257E-1,4.9446672E-1,-6.912928E-1,-2.961721E-2,4.510567E-1,-1.3132048E0,6.924939E-2,6.099173E-1,-7.7321655E-1,-1.2643005E-1,-1.092769E0,-1.4704117E-1,1.363054E-1,1.0052426E0,-5.956741E-2,7.947664E-1,-3.2569832E-1,-2.4038877E-2,-6.5456814E-1,3.298188E-1,-3.1055385E-1,1.0940676E0,8.1060106E-1,-5.9626704E-1,6.2491256E-1,9.5346266E-1,1.02271974E-1],"categories":[],"categories_nodes":[],"categories_segments":[],"categories_sizes":[],"default_left":[1,0,1,1,1,1,1,1,1,1,1,0,0,1,0,0,0,1,1,1,1,1,0,0,0,0,0,0,0,0,0,0,0],"id":21,"left_children":[1,-1,3,5,7,9,11,13,15,17,19,-1,-1,21,-1,-1,-1,23,25,27,29,31,-1,-1,-1,-1,-1,-1,-1,-1,-1,-1,-1],"loss_changes":[1.3711194E0,0E0,1.2908375E0,1.5824126E0,2.8717785E0,1.4037758E0,1.6413302E0,1.8496389E0,5.5228233E-1,1.3073641E0,1.8906103E0,0E0,0E0,2.0033894E0,0E0,0E0,0E0,2.4529123E0,2.4046235E0,5.5107355E-2,1.2772439E0,1.0628233E0,0E0,0E0,0E0,0E0,0E0,0E0,0E0,0E0,0E0,0E0,0E0],"parents":[2147483647,0,0,2,2,3,3,4,4,5,5,6,6,7,7,8,8,9,9,10,10,13,13,17,17,18,18,19,19,20,20,21,21],"right_children":[2,-1,4,6,8,10,12,14,16,18,20,-1,-1,22,-1,-1,-1,24,26,28,30,32,-1,-1,-1,-1,-1,-1,-1,-1,-1,-1,-1],"split_conditions":[1.3948342E-2,2.2214228E-1,9.21494E-1,8.2916784E-1,8.208034E-1,8.940294E-1,4.595734E-1,8.3565396E-1,2.7308074E-1,4.1994646E-1,6.9117105E-1,-2.8476256E-1,1.501642E-2,9.80734E-1,-1.6766854E-1,-2.741579E-2,-2.3696207E-1,8.796046E-1,6.932479E-1,9.6614975E-1,9.194486E-1,8.7591445E-1,-7.062622E-2,-5.212723E-3,-1.4194016E-1,7.1519725E-2,-6.734221E-2,2.3724364E-1,1.757752E-1,-1.2929784E-1,1.3550949E-1,2.067541E-1,2.217722E-2],"split_indices":[38,0,112,46,21,41,67,44,42,78,15,0,0,29,0,0,0,112,79,43,124,49,0,0,0,0,0,0,0,0,0,0,0],"split_type":[0,0,0,0,0,0,0,0,0,0,0,0,0,0,0,0,0,0,0,0,0,0,0,0,0,0,0,0,0,0,0,0,0],"sum_hessian":[9.373692E1,1.4226208E0,9.23143E1,7.7240036E1,1.5074269E1,7.378228E1,3.457755E0,1.263817E1,2.4360998E0,6.710171E1,6.6805663E0,1.869741E0,1.5880141E0,1.1583367E1,1.0548024E0,1.0122589E0,1.4238409E0,3.9294052E1,2.780766E1,3.2037606E0,3.476806E0,9.672525E0,1.9108417E0,3.162889E1,7.6651626E0,1.9404724E1,8.402935E0,2.1993127E0,1.0044479E0,1.948893E0,1.5279129E0,7.869005E0,1.8035208E0],"tree_param":{"num_deleted":"0","num_feature":"200","num_nodes":"33","size_leaf_vector":"0"}},{"base_weights":[4.2751733E-2,1.633573E-1,-7.375756E-2,1.0931846E-2,5.4659766E-1,-1.6761388E-3,-5.4092413E-1,-4.206479E-2,1.0643381E0,-3.1971766E-3,7.96458E-1,6.322408E-2,-4.6793386E-1,-9.137054E-1,7.848539E-2,-1.0615588E-1,8.476919E-1,-7.715858E-1,1.022168E0,1.0178722E0,1.7010775E-1,-2.44922E-2,5.10011E-1,-8.6107564E-1,8.218461E-1,-1.2459023E0,-5.5409783E-1,7.656193E-1,-4.4845575E-1,-4.5347534E-2,-9.981081E-1,5.754686E-1,1.1118009E0,-3.5113484E-1,-1.296598E0,1.0520267E0,8.31772E-1,-6.7145675E-1,1.0408317E0,9.3497224E-2,-4.7408697E-1,-2.6216775E-1,8.03159E-1,-1.16158E0,-1.4182615E-1,-1.1079621E0,-1.3825977E0,1.1028005E0,-1.0260463E-1,1.0403337E0,1.0996649E0,2.8016308E-1,-2.6243874E-1,-9.9029857E-1,3.5886216E-1,1.0685976E0,1.7214343E-2,-1.7382382E0,-7.988845E-1],"categories":[],"categories_nodes":[],"categories_segments":[],"categories_sizes":[],"default_left":[1,1,1,1,1,1,1,1,0,1,1,1,1,1,1,1,1,1,0,1,1,1,1,1,0,1,0,0,0,1,0,0,0,0,0,1,0,0,0,1,1,0,1,1,0,0,0,0,0,0,0,0,0,0,0,0,0,0,0],"id":22,"left_children":[1,3,5,7,9,11,13,15,-1,17,19,21,23,25,27,29,31,33,-1,35,37,39,41,43,-1,45,-1,-1,-1,47,-1,-1,-1,-1,-1,49,-1,-1,-1,51,53,-1,55,57,-1,-1,-1,-1,-1,-1,-1,-1,-1,-1,-1,-1,-1,-1,-1],"loss_changes":[1.2819694E0,2.6185956E0,1.5625063E0,1.7906632E0,1.7524016E0,1.2165433E0,1.4322968E0,1.7412361E0,0E0,3.1400712E0,1.2161179E0,1.3830447E0,2.4908528E0,4.6231556E-1,8.43776E-1,1.5447998E0,1.4725745E-1,5.026809E-1,0E0,4.0905476E-2,1.6786597E0,1.564803E0,1.3110371E0,8.1352854E-1,0E0,3.757572E-2,0E0,0E0,0E0,1.7529199E0,0E0,0E0,0E0,0E0,0E0,2.7298927E-3,0E0,0E0,0E0,1.5524018E0,2.6367726E0,0E0,8.7561154E-1,5.5496836E-1,0E0,0E0,0E0,0E0,0E0,0E0,0E0,0E0,0E0,0E0,0E0,0E0,0E0,0E0,0E0],"parents":[2147483647,0,0,1,1,2,2,3,3,4,4,5,5,6,6,7,7,9,9,10,10,11,11,12,12,13,13,14,14,15,15,16,16,17,17,19,19,20,20,21,21,22,22,23,23,25,25,29,29,35,35,39,39,40,40,42,42,43,43],"right_children":[2,4,6,8,10,12,14,16,-1,18,20,22,24,26,28,30,32,34,-1,36,38,40,42,44,-1,46,-1,-1,-1,48,-1,-1,-1,-1,-1,50,-1,-1,-1,52,54,-1,56,58,-1,-1,-1,-1,-1,-1,-1,-1,-1,-1,-1,-1,-1,-1,-1],"split_conditions":[6.030647E-1,7.804313E-1,8.111894E-1,5.716777E-1,6.649929E-2,5.8316267E-1,9.872811E-1,9.583061E-1,2.3079693E-1,6.30543E-1,9.872811E-1,9.9579036E-1,6.1355704E-1,6.921865E-1,8.88345E-1,9.1462076E-1,4.8812658E-1,7.71546E-1,2.2165255E-1,5.010744E-1,1.9633815E-1,9.9735206E-1,7.48338E-1,6.348292E-1,1.7821364E-1,6.188463E-1,-1.2015363E-1,1.6602111E-1,-9.724562E-2,6.923552E-1,-2.1643525E-1,1.24787785E-1,2.4108903E-1,-7.614201E-2,-2.8116146E-1,5.4914534E-1,1.8036604E-1,-1.4560239E-1,2.2569968E-1,4.180705E-1,4.530888E-1,-5.68499E-2,8.6235416E-1,7.9495096E-1,-3.0754365E-2,-2.4025662E-1,-2.998101E-1,2.3913734E-1,-2.2249352E-2,2.255917E-1,2.3845741E-1,6.0752105E-2,-5.6908663E-2,-2.147418E-1,7.781765E-2,2.3172058E-1,3.732853E-3,-3.7692916E-1,-1.7323452E-1],"split_indices":[58,45,84,49,41,133,85,13,0,20,85,68,19,20,66,62,19,199,0,35,95,85,17,72,0,87,0,0,0,106,0,0,0,0,0,103,0,0,0,84,34,0,79,30,0,0,0,0,0,0,0,0,0,0,0,0,0,0,0],"split_type":[0,0,0,0,0,0,0,0,0,0,0,0,0,0,0,0,0,0,0,0,0,0,0,0,0,0,0,0,0,0,0,0,0,0,0,0,0,0,0,0,0,0,0,0,0,0,0,0,0,0,0,0,0,0,0,0,0,0,0],"sum_hessian":[9.12316E1,4.4828365E1,4.640323E1,3.2072582E1,1.2755782E1,4.0200775E1,6.202457E0,3.0536188E1,1.5363945E0,3.9854977E0,8.770285E0,3.528853E1,4.912245E0,3.87224E0,2.330217E0,2.8484554E1,2.0516331E0,2.2783153E0,1.7071824E0,6.4795384E0,2.2907465E0,2.9497137E1,5.7913914E0,3.7647996E0,1.1474452E0,2.0126119E0,1.8596282E0,1.0114926E0,1.3187243E0,2.6666737E1,1.8178179E0,1.0105811E0,1.041052E0,1.2653017E0,1.0130135E0,5.4740753E0,1.005463E0,1.1647959E0,1.1259505E0,2.3365026E1,6.132112E0,1.5934939E0,4.1978974E0,2.655231E0,1.1095686E0,1.0023168E0,1.010295E0,1.2665493E0,2.5400188E1,4.3978662E0,1.076209E0,1.5327256E1,8.037769E0,3.7859676E0,2.3461442E0,3.1379316E0,1.0599657E0,1.025047E0,1.630184E0],"tree_param":{"num_deleted":"0","num_feature":"200","num_nodes":"59","size_leaf_vector":"0"}},{"base_weights":[3.799618E-2,6.6579685E-2,-4.0309265E-1,2.8839095E-2,5.4492384E-1,-8.721395E-2,-9.8141384E-1,4.9854167E-2,-9.5267534E-1,1.0515155E0,-4.37161E-2,-6.704729E-1,3.3309367E-1,7.168995E-2,-8.2220244E-1,1.1176848E0,9.578146E-1,5.926617E-1,-6.94871E-1,4.6423244E-1,1.9944401E-2,-6.1149348E-2,9.0279454E-1,5.5733204E-2,-9.727676E-1],"categories":[],"categories_nodes":[],"categories_segments":[],"categories_sizes":[],"default_left":[1,1,1,1,1,1,0,1,0,1,1,0,0,1,0,0,0,0,0,1,1,0,0,0,0],"id":23,"left_children":[1,3,5,7,9,11,-1,13,-1,15,17,-1,-1,19,-1,-1,-1,-1,-1,21,23,-1,-1,-1,-1],"loss_changes":[1.1017473E0,1.4815525E0,9.713496E-1,1.5689356E0,1.7897918E0,8.43269E-1,0E0,1.4180591E0,0E0,1.9690275E-2,1.1502689E0,0E0,0E0,1.4757516E0,0E0,0E0,0E0,0E0,0E0,1.94984E0,2.2805724E0,0E0,0E0,0E0,0E0],"parents":[2147483647,0,0,1,1,2,2,3,3,4,4,5,5,7,7,9,9,10,10,13,13,19,19,20,20],"right_children":[2,4,6,8,10,12,-1,14,-1,16,18,-1,-1,20,-1,-1,-1,-1,-1,22,24,-1,-1,-1,-1],"split_conditions":[9.4382733E-1,8.562649E-1,5.8316267E-1,9.683716E-1,5.9265083E-1,8.798005E-1,-2.1281518E-1,8.06569E-1,-2.0658337E-1,3.065819E-1,9.932761E-1,-1.4538905E-1,7.222987E-2,2.6416337E-1,-1.782909E-1,2.4236494E-1,2.076978E-1,1.2851602E-1,-1.5067966E-1,3.941754E-1,8.855812E-1,-1.3259961E-2,1.9576694E-1,1.20854955E-2,-2.1094029E-1],"split_indices":[66,8,133,12,23,37,0,47,0,73,150,0,0,0,0,0,0,0,0,199,95,0,0,0,0],"split_type":[0,0,0,0,0,0,0,0,0,0,0,0,0,0,0,0,0,0,0,0,0,0,0,0,0],"sum_hessian":[8.738951E1,8.207144E1,5.318071E0,7.6069954E1,6.0014863E0,3.4396157E0,1.8784555E0,7.4475525E1,1.5944289E0,3.2256672E0,2.7758188E0,1.4406989E0,1.9989167E0,7.2656425E1,1.8190995E0,1.8896152E0,1.3360521E0,1.4037278E0,1.3720912E0,8.46185E0,6.419457E1,3.849713E0,4.612137E0,6.196094E1,2.2336328E0],"tree_param":{"num_deleted":"0","num_feature":"200","num_nodes":"25",