{"learner":{"attributes":{"best_iteration":"49","best_ntree_limit":"50"},"feature_names":["0","1","2","3","4","5","6","7","8","9","10","11","12","13","14","15","16","17","18","19","20","21","22","23","24","25","26","27","28","29","30","31","32","33","34","35","36","37","38","39","40","41","42","43","44","45","46","47","48","49","50","51","52","53","54","55","56","57","58","59","60","61","62","63","64","65","66","67","68","69","70","71","72","73","74","75","76","77","78","79","80","81","82","83","84","85","86","87","88","89","90","91","92","93","94","95","96","97","98","99","100","101","102","103","104","105","106","107","108","109","110","111","112","113","114","115","116","117","118","119","120","121","122","123","124","125","126","127","128","129","130","131","132","133","134","135","136","137","138","139","140","141","142","143","144","145","146","147","148","149","150","151","152","153","154","155","156","157","158","159","160","161","162","163","164","165","166","167","168","169","170","171","172","173","174","175","176","177","178","179","180","181","182","183","184","185","186","187","188","189","190","191","192","193","194","195","196","197","198","199"],"feature_types":["float","float","float","float","float","float","float","float","float","float","float","float","float","float","float","float","float","float","float","float","float","float","float","float","float","float","float","float","float","float","float","float","float","float","float","float","float","float","float","float","float","float","float","float","float","float","float","float","float","float","float","float","float","float","float","float","float","float","float","float","float","float","float","float","float","float","float","float","float","float","float","float","float","float","float","float","float","float","float","float","float","float","float","float","float","float","float","float","float","float","float","float","float","float","float","float","float","float","float","float","float","float","float","float","float","float","float","float","float","float","float","float","float","float","float","float","float","float","float","float","float","float","float","float","float","float","float","float","float","float","float","float","float","float","float","float","float","float","float","float","float","float","float","float","float","float","float","float","float","float","float","float","float","float","float","float","float","float","float","float","float","float","float","float","float","float","float","float","float","float","float","float","float","float","float","float","float","float","float","float","float","float","float","float","float","float","float","float","float","float","float","float","float","float","float","float","float","float","float","float"],"gradient_booster":{"gbtree":{"model":{"gbtree_model_param":{"num_parallel_tree":"1","num_trees":"50","size_leaf_vector":"0"},"tree_info":[0,0,0,0,0,0,0,0,0,0,0,0,0,0,0,0,0,0,0,0,0,0,0,0,0,0,0,0,0,0,0,0,0,0,0,0,0,0,0,0,0,0,0,0,0,0,0,0,0,0],"trees":[{"base_weights":[1.0123153E0,1.4272931E0,-9.5406353E-1,1.5323855E0,-3.466665E-1,2.0224705E-1,-1.484536E0,1.5811688E0,-2.3529376E-1,-8.571426E-1,1.1578941E0,-6.6666645E-1,1.3684207E0,1.999998E0,-1.5957446E0,-3.999995E-1,1.6222038E0,-1.1999993E0,1.1428562E0,4.4444376E-1,-1.4736838E0,-3.9999756E-1,1.7142849E0,-1.1627904E0,1.9999985E0,1.7419351E0,-2.8571254E-1,-1.6521739E0,9.9999696E-1,-1.5294111E0,1.9999985E0,1.6512992E0,-8.57142E-1,9.9999696E-1,-1.7499993E0,-0E0,1.9999985E0,-1.9999975E0,1.3846145E0,6.6666466E-1,-1.8749996E0,1.9999988E0,9.9999696E-1,-0E0,-1.7241375E0,1.9999995E0,-0E0,-1.7272726E0,-0E0,-1.999999E0,-0E0,1.6686391E0,-3.9999878E-1,1.9999969E0,-1.9999988E0,-9.9999696E-1,-1.9999989E0,1.9999985E0,3.9999756E-1,-9.9999696E-1,-1.9999995E0,-9.9999845E-1,1.3333313E0,-0E0,-1.9999995E0,-0E0,-1.7674417E0,1.9999969E0,-1.9999969E0,1.767033E0,1.3406593E0,1.9999969E0,-1.999998E0,-0E0,-1.9999969E0,-1.8095237E0,-0E0],"categories":[],"categories_nodes":[],"categories_segments":[],"categories_sizes":[],"default_left":[1,1,1,1,1,1,1,1,1,1,1,1,1,0,1,1,1,1,1,1,1,0,1,1,0,1,0,1,0,1,0,1,1,0,1,0,0,0,1,0,1,0,0,1,1,0,0,1,1,0,0,1,1,0,0,0,0,0,0,0,0,1,0,0,0,0,1,0,0,0,0,0,0,0,0,0,0],"id":0,"left_children":[1,3,5,7,9,11,13,15,17,19,21,23,25,-1,27,29,31,33,35,37,39,-1,41,43,-1,45,-1,47,-1,49,-1,51,53,-1,55,-1,-1,-1,57,-1,59,-1,-1,61,63,-1,-1,65,67,-1,-1,69,71,-1,-1,-1,-1,-1,-1,-1,-1,73,-1,-1,-1,-1,75,-1,-1,-1,-1,-1,-1,-1,-1,-1,-1],"loss_changes":[3.3129742E2,6.250061E1,4.3397415E1,2.7292847E1,1.4400792E1,2.2546017E1,1.8794235E1,2.503949E1,1.1300827E1,1.1234747E1,4.1172876E0,1.6868202E1,5.8695087E0,0E0,6.8843613E0,1.6941156E1,2.1767578E1,6.049991E0,3.428566E0,1.0341862E1,8.16008E0,0E0,7.142782E-1,7.016837E0,0E0,3.4838696E0,0E0,5.707512E0,0E0,3.0588207E0,0E0,1.06085205E1,1.1428552E1,0E0,7.499924E-1,0E0,0E0,0E0,1.9692249E0,0E0,8.749943E-1,0E0,0E0,4.6666527E0,3.4482746E0,0E0,0E0,3.0528564E0,7.9999757E0,0E0,0E0,9.544189E0,9.5999775E0,0E0,0E0,0E0,0E0,0E0,0E0,0E0,0E0,1.9999939E0,0E0,0E0,0E0,0E0,3.198227E0,0E0,0E0,0E0,0E0,0E0,0E0,0E0,0E0,0E0,0E0],"parents":[2147483647,0,0,1,1,2,2,3,3,4,4,5,5,6,6,7,7,8,8,9,9,10,10,11,11,12,12,14,14,15,15,16,16,17,17,18,18,19,19,20,20,22,22,23,23,25,25,27,27,29,29,31,31,32,32,34,34,38,38,40,40,43,43,44,44,47,47,48,48,51,51,52,52,61,61,66,66],"right_children":[2,4,6,8,10,12,14,16,18,20,22,24,26,-1,28,30,32,34,36,38,40,-1,42,44,-1,46,-1,48,-1,50,-1,52,54,-1,56,-1,-1,-1,58,-1,60,-1,-1,62,64,-1,-1,66,68,-1,-1,70,72,-1,-1,-1,-1,-1,-1,-1,-1,74,-1,-1,-1,-1,76,-1,-1,-1,-1,-1,-1,-1,-1,-1,-1],"split_conditions":[8.110975E-1,5.832491E-1,7.8692013E-1,8.7591445E-1,5.8949447E-1,6.2408847E-1,6.030561E-1,1.862762E-1,4.8793843E-1,2.0699939E-1,7.19545E-1,7.249282E-1,7.1833444E-1,3.389397E-2,5E-1,8.767812E-1,9.271878E-1,3.2202378E-1,1.4975911E-1,3.8808596E-1,5.7024634E-1,-6.778759E-3,8.39488E-1,7.043437E-1,3.3893976E-2,8.0884165E-1,-4.8419707E-3,9.9973446E-1,1.6946949E-2,8.9545465E-1,3.3893976E-2,9.2459744E-1,4.1529807E-1,1.6946949E-2,7.777009E-1,-0E0,3.3893976E-2,-3.389396E-2,1.7449737E-1,1.1297966E-2,4.0951036E-2,3.3893984E-2,1.6946949E-2,6.7139006E-1,9.3211114E-2,3.3893995E-2,-0E0,1.7150594E-1,4.203957E-1,-3.3893988E-2,-0E0,6.030647E-1,6.393301E-1,3.389395E-2,-3.3893984E-2,-1.6946949E-2,-3.3893984E-2,3.3893976E-2,6.778759E-3,-1.6946949E-2,-3.3893995E-2,8.30093E-1,2.2595968E-2,-0E0,-3.3893995E-2,-0E0,5E-1,3.389395E-2,-3.389395E-2,2.994591E-2,2.2720154E-2,3.389395E-2,-3.389397E-2,-0E0,-3.389395E-2,-3.0666001E-2,-0E0],"split_indices":[103,122,67,49,19,98,15,199,92,29,39,36,130,0,196,20,95,20,29,15,30,0,0,15,0,30,0,17,0,14,0,66,0,0,0,0,0,0,44,0,1,0,0,17,4,0,0,2,88,0,0,58,22,0,0,0,0,0,0,0,0,0,0,0,0,0,162,0,0,0,0,0,0,0,0,0,0],"split_type":[0,0,0,0,0,0,0,0,0,0,0,0,0,0,0,0,0,0,0,0,0,0,0,0,0,0,0,0,0,0,0,0,0,0,0,0,0,0,0,0,0,0,0,0,0,0,0,0,0,0,0,0,0,0,0,0,0,0,0,0,0,0,0,0,0,0,0,0,0,0,0,0,0,0,0,0,0],"sum_hessian":[4.06E2,3.3525E2,7.075E1,3.165E2,1.875E1,2.225E1,4.85E1,3.08E2,8.5E0,1.4E1,4.75E0,1.275E1,9.5E0,1.5E0,4.7E1,6.25E0,3.0175E2,5E0,3.5E0,4.5E0,9.5E0,1.25E0,3.5E0,1.075E1,2E0,7.75E0,1.75E0,4.6E1,1E0,4.25E0,2E0,2.9825E2,3.5E0,1E0,4E0,1.5E0,2E0,1.25E0,3.25E0,1.5E0,8E0,2.5E0,1E0,3.5E0,7.25E0,6.75E0,1E0,4.4E1,2E0,3.25E0,1E0,2.9575E2,2.5E0,1E0,2.5E0,1E0,3E0,2E0,1.25E0,1E0,7E0,2E0,1.5E0,1E0,6.25E0,1E0,4.3E1,1E0,1E0,2.275E2,6.825E1,1E0,1.5E0,1E0,1E0,4.2E1,1E0],"tree_param":{"num_deleted":"0","num_feature":"200","num_nodes":"77","size_leaf_vector":"0"}},{"base_weights":[1.0123153E0,1.4272931E0,-9.5406353E-1,1.5323855E0,-3.466665E-1,2.0224705E-1,-1.484536E0,1.5811688E0,-2.3529376E-1,-8.571426E-1,1.1578941E0,-6.6666645E-1,1.3684207E0,1.999998E0,-1.5957446E0,-3.999995E-1,1.6222038E0,-1.1999993E0,1.1428562E0,4.4444376E-1,-1.4736838E0,-3.9999756E-1,1.7142849E0,-1.1627904E0,1.9999985E0,1.7419351E0,-2.8571254E-1,-1.6521739E0,9.9999696E-1,-1.5294111E0,1.9999985E0,1.6512992E0,-8.57142E-1,9.9999696E-1,-1.7499993E0,-0E0,1.9999985E0,-1.9999975E0,1.3846145E0,6.6666466E-1,-1.8749996E0,1.9999988E0,9.9999696E-1,-0E0,-1.7241375E0,1.9999995E0,-0E0,-1.7272726E0,-0E0,-1.999999E0,-0E0,1.6686391E0,-3.9999878E-1,1.9999969E0,-1.9999988E0,-9.9999696E-1,-1.9999989E0,1.9999985E0,3.9999756E-1,-9.9999696E-1,-1.9999995E0,-9.9999845E-1,1.3333313E0,-0E0,-1.9999995E0,-0E0,-1.7674417E0,1.9999969E0,-1.9999969E0,1.767033E0,1.3406593E0,1.9999969E0,-1.999998E0,-0E0,-1.9999969E0,-1.8095237E0,-0E0],"categories":[],"categories_nodes":[],"categories_segments":[],"categories_sizes":[],"default_left":[1,1,1,1,1,1,1,1,1,1,1,1,1,0,1,1,1,1,1,1,1,0,1,1,0,1,0,1,0,1,0,1,1,0,1,0,0,0,1,0,1,0,0,1,1,0,0,1,1,0,0,1,1,0,0,0,0,0,0,0,0,1,0,0,0,0,1,0,0,0,0,0,0,0,0,0,0],"id":1,"left_children":[1,3,5,7,9,11,13,15,17,19,21,23,25,-1,27,29,31,33,35,37,39,-1,41,43,-1,45,-1,47,-1,49,-1,51,53,-1,55,-1,-1,-1,57,-1,59,-1,-1,61,63,-1,-1,65,67,-1,-1,69,71,-1,-1,-1,-1,-1,-1,-1,-1,73,-1,-1,-1,-1,75,-1,-1,-1,-1,-1,-1,-1,-1,-1,-1],"loss_changes":[3.3129742E2,6.250061E1,4.3397415E1,2.7292847E1,1.4400792E1,2.2546017E1,1.8794235E1,2.503949E1,1.1300827E1,1.1234747E1,4.1172876E0,1.6868202E1,5.8695087E0,0E0,6.8843613E0,1.6941156E1,2.1767578E1,6.049991E0,3.428566E0,1.0341862E1,8.16008E0,0E0,7.142782E-1,7.016837E0,0E0,3.4838696E0,0E0,5.707512E0,0E0,3.0588207E0,0E0,1.06085205E1,1.1428552E1,0E0,7.499924E-1,0E0,0E0,0E0,1.9692249E0,0E0,8.749943E-1,0E0,0E0,4.6666527E0,3.4482746E0,0E0,0E0,3.0528564E0,7.9999757E0,0E0,0E0,9.544189E0,9.5999775E0,0E0,0E0,0E0,0E0,0E0,0E0,0E0,0E0,1.9999939E0,0E0,0E0,0E0,0E0,3.198227E0,0E0,0E0,0E0,0E0,0E0,0E0,0E0,0E0,0E0,0E0],"parents":[2147483647,0,0,1,1,2,2,3,3,4,4,5,5,6,6,7,7,8,8,9,9,10,10,11,11,12,12,14,14,15,15,16,16,17,17,18,18,19,19,20,20,22,22,23,23,25,25,27,27,29,29,31,31,32,32,34,34,38,38,40,40,43,43,44,44,47,47,48,48,51,51,52,52,61,61,66,66],"right_children":[2,4,6,8,10,12,14,16,18,20,22,24,26,-1,28,30,32,34,36,38,40,-1,42,44,-1,46,-1,48,-1,50,-1,52,54,-1,56,-1,-1,-1,58,-1,60,-1,-1,62,64,-1,-1,66,68,-1,-1,70,72,-1,-1,-1,-1,-1,-1,-1,-1,74,-1,-1,-1,-1,76,-1,-1,-1,-1,-1,-1,-1,-1,-1,-1],"split_conditions":[8.110975E-1,5.832491E-1,7.8692013E-1,8.7591445E-1,5.8949447E-1,6.2408847E-1,6.030561E-1,1.862762E-1,4.8793843E-1,2.0699939E-1,7.19545E-1,7.249282E-1,7.1833444E-1,3.389397E-2,5E-1,8.767812E-1,9.271878E-1,3.2202378E-1,1.4975911E-1,3.8808596E-1,5.7024634E-1,-6.778759E-3,8.39488E-1,7.043437E-1,3.3893976E-2,8.0884165E-1,-4.8419707E-3,9.9973446E-1,1.6946949E-2,8.9545465E-1,3.3893976E-2,9.2459744E-1,4.1529807E-1,1.6946949E-2,7.777009E-1,-0E0,3.3893976E-2,-3.389396E-2,1.7449737E-1,1.1297966E-2,4.0951036E-2,3.3893984E-2,1.6946949E-2,6.7139006E-1,9.3211114E-2,3.3893995E-2,-0E0,1.7150594E-1,4.203957E-1,-3.3893988E-2,-0E0,6.030647E-1,6.393301E-1,3.389395E-2,-3.3893984E-2,-1.6946949E-2,-3.3893984E-2,3.3893976E-2,6.778759E-3,-1.6946949E-2,-3.3893995E-2,8.30093E-1,2.2595968E-2,-0E0,-3.3893995E-2,-0E0,5E-1,3.389395E-2,-3.389395E-2,2.994591E-2,2.2720154E-2,3.389395E-2,-3.389397E-2,-0E0,-3.389395E-2,-3.0666001E-2,-0E0],"split_indices":[103,122,67,49,19,98,15,199,92,29,39,36,130,0,196,20,95,20,29,15,30,0,0,15,0,30,0,17,0,14,0,66,0,0,0,0,0,0,44,0,1,0,0,17,4,0,0,2,88,0,0,58,22,0,0,0,0,0,0,0,0,0,0,0,0,0,162,0,0,0,0,0,0,0,0,0,0],"split_type":[0,0,0,0,0,0,0,0,0,0,0,0,0,0,0,0,0,0,0,0,0,0,0,0,0,0,0,0,0,0,0,0,0,0,0,0,0,0,0,0,0,0,0,0,0,0,0,0,0,0,0,0,0,0,0,0,0,0,0,0,0,0,0,0,0,0,0,0,0,0,0,0,0,0,0,0,0],"sum_hessian":[4.06E2,3.3525E2,7.075E1,3.165E2,1.875E1,2.225E1,4.85E1,3.08E2,8.5E0,1.4E1,4.75E0,1.275E1,9.5E0,1.5E0,4.7E1,6.25E0,3.0175E2,5E0,3.5E0,4.5E0,9.5E0,1.25E0,3.5E0,1.075E1,2E0,7.75E0,1.75E0,4.6E1,1E0,4.25E0,2E0,2.9825E2,3.5E0,1E0,4E0,1.5E0,2E0,1.25E0,3.25E0,1.5E0,8E0,2.5E0,1E0,3.5E0,7.25E0,6.75E0,1E0,4.4E1,2E0,3.25E0,1E0,2.9575E2,2.5E0,1E0,2.5E0,1E0,3E0,2E0,1.25E0,1E0,7E0,2E0,1.5E0,1E0,6.25E0,1E0,4.3E1,1E0,1E0,2.275E2,6.825E1,1E0,1.5E0,1E0,1E0,4.2E1,1E0],"tree_param":{"num_deleted":"0","num_feature":"200","num_nodes":"77","size_leaf_vector":"0"}},{"base_weights":[1.0123153E0,1.4272931E0,-9.5406353E-1,1.5323855E0,-3.466665E-1,2.0224705E-1,-1.484536E0,1.5811688E0,-2.3529376E-1,-8.571426E-1,1.1578941E0,-6.6666645E-1,1.3684207E0,1.999998E0,-1.5957446E0,-3.999995E-1,1.6222038E0,-1.1999993E0,1.1428562E0,4.4444376E-1,-1.4736838E0,-3.9999756E-1,1.7142849E0,-1.1627904E0,1.9999985E0,1.7419351E0,-2.8571254E-1,-1.6521739E0,9.9999696E-1,-1.5294111E0,1.9999985E0,1.6512992E0,-8.57142E-1,9.9999696E-1,-1.7499993E0,-0E0,1.9999985E0,-1.9999975E0,1.3846145E0,6.6666466E-1,-1.8749996E0,1.9999988E0,9.9999696E-1,-0E0,-1.7241375E0,1.9999995E0,-0E0,-1.7272726E0,-0E0,-1.999999E0,-0E0,1.6686391E0,-3.9999878E-1,1.9999969E0,-1.9999988E0,-9.9999696E-1,-1.9999989E0,1.9999985E0,3.9999756E-1,-9.9999696E-1,-1.9999995E0,-9.9999845E-1,1.3333313E0,-0E0,-1.9999995E0,-0E0,-1.7674417E0,1.9999969E0,-1.9999969E0,1.767033E0,1.3406593E0,1.9999969E0,-1.999998E0,-0E0,-1.9999969E0,-1.8095237E0,-0E0],"categories":[],"categories_nodes":[],"categories_segments":[],"categories_sizes":[],"default_left":[1,1,1,1,1,1,1,1,1,1,1,1,1,0,1,1,1,1,1,1,1,0,1,1,0,1,0,1,0,1,0,1,1,0,1,0,0,0,1,0,1,0,0,1,1,0,0,1,1,0,0,1,1,0,0,0,0,0,0,0,0,1,0,0,0,0,1,0,0,0,0,0,0,0,0,0,0],"id":2,"left_children":[1,3,5,7,9,11,13,15,17,19,21,23,25,-1,27,29,31,33,35,37,39,-1,41,43,-1,45,-1,47,-1,49,-1,51,53,-1,55,-1,-1,-1,57,-1,59,-1,-1,61,63,-1,-1,65,67,-1,-1,69,71,-1,-1,-1,-1,-1,-1,-1,-1,73,-1,-1,-1,-1,75,-1,-1,-1,-1,-1,-1,-1,-1,-1,-1],"loss_changes":[3.3129742E2,6.250061E1,4.3397415E1,2.7292847E1,1.4400792E1,2.2546017E1,1.8794235E1,2.503949E1,1.1300827E1,1.1234747E1,4.1172876E0,1.6868202E1,5.8695087E0,0E0,6.8843613E0,1.6941156E1,2.1767578E1,6.049991E0,3.428566E0,1.0341862E1,8.16008E0,0E0,7.142782E-1,7.016837E0,0E0,3.4838696E0,0E0,5.707512E0,0E0,3.0588207E0,0E0,1.06085205E1,1.1428552E1,0E0,7.499924E-1,0E0,0E0,0E0,1.9692249E0,0E0,8.749943E-1,0E0,0E0,4.6666527E0,3.4482746E0,0E0,0E0,3.0528564E0,7.9999757E0,0E0,0E0,9.544189E0,9.5999775E0,0E0,0E0,0E0,0E0,0E0,0E0,0E0,0E0,1.9999939E0,0E0,0E0,0E0,0E0,3.198227E0,0E0,0E0,0E0,0E0,0E0,0E0,0E0,0E0,0E0,0E0],"parents":[2147483647,0,0,1,1,2,2,3,3,4,4,5,5,6,6,7,7,8,8,9,9,10,10,11,11,12,12,14,14,15,15,16,16,17,17,18,18,19,19,20,20,22,22,23,23,25,25,27,27,29,29,31,31,32,32,34,34,38,38,40,40,43,43,44,44,47,47,48,48,51,51,52,52,61,61,66,66],"right_children":[2,4,6,8,10,12,14,16,18,20,22,24,26,-1,28,30,32,34,36,38,40,-1,42,44,-1,46,-1,48,-1,50,-1,52,54,-1,56,-1,-1,-1,58,-1,60,-1,-1,62,64,-1,-1,66,68,-1,-1,70,72,-1,-1,-1,-1,-1,-1,-1,-1,74,-1,-1,-1,-1,76,-1,-1,-1,-1,-1,-1,-1,-1,-1,-1],"split_conditions":[8.110975E-1,5.832491E-1,7.8692013E-1,8.7591445E-1,5.8949447E-1,6.2408847E-1,6.030561E-1,1.862762E-1,4.8793843E-1,2.0699939E-1,7.19545E-1,7.249282E-1,7.1833444E-1,3.389397E-2,5E-1,8.767812E-1,9.271878E-1,3.2202378E-1,1.4975911E-1,3.8808596E-1,5.7024634E-1,-6.778759E-3,8.39488E-1,7.043437E-1,3.3893976E-2,8.0884165E-1,-4.8419707E-3,9.9973446E-1,1.6946949E-2,8.9545465E-1,3.3893976E-2,9.2459744E-1,4.1529807E-1,1.6946949E-2,7.777009E-1,-0E0,3.3893976E-2,-3.389396E-2,1.7449737E-1,1.1297966E-2,4.0951036E-2,3.3893984E-2,1.6946949E-2,6.7139006E-1,9.3211114E-2,3.3893995E-2,-0E0,1.7150594E-1,4.203957E-1,-3.3893988E-2,-0E0,6.030647E-1,6.393301E-1,3.389395E-2,-3.3893984E-2,-1.6946949E-2,-3.3893984E-2,3.3893976E-2,6.778759E-3,-1.6946949E-2,-3.3893995E-2,8.30093E-1,2.2595968E-2,-0E0,-3.3893995E-2,-0E0,5E-1,3.389395E-2,-3.389395E-2,2.994591E-2,2.2720154E-2,3.389395E-2,-3.389397E-2,-0E0,-3.389395E-2,-3.0666001E-2,-0E0],"split_indices":[103,122,67,49,19,98,15,199,92,29,39,36,130,0,196,20,95,20,29,15,30,0,0,15,0,30,0,17,0,14,0,66,0,0,0,0,0,0,44,0,1,0,0,17,4,0,0,2,88,0,0,58,22,0,0,0,0,0,0,0,0,0,0,0,0,0,162,0,0,0,0,0,0,0,0,0,0],"split_type":[0,0,0,0,0,0,0,0,0,0,0,0,0,0,0,0,0,0,0,0,0,0,0,0,0,0,0,0,0,0,0,0,0,0,0,0,0,0,0,0,0,0,0,0,0,0,0,0,0,0,0,0,0,0,0,0,0,0,0,0,0,0,0,0,0,0,0,0,0,0,0,0,0,0,0,0,0],"sum_hessian":[4.06E2,3.3525E2,7.075E1,3.165E2,1.875E1,2.225E1,4.85E1,3.08E2,8.5E0,1.4E1,4.75E0,1.275E1,9.5E0,1.5E0,4.7E1,6.25E0,3.0175E2,5E0,3.5E0,4.5E0,9.5E0,1.25E0,3.5E0,1.075E1,2E0,7.75E0,1.75E0,4.6E1,1E0,4.25E0,2E0,2.9825E2,3.5E0,1E0,4E0,1.5E0,2E0,1.25E0,3.25E0,1.5E0,8E0,2.5E0,1E0,3.5E0,7.25E0,6.75E0,1E0,4.4E1,2E0,3.25E0,1E0,2.9575E2,2.5E0,1E0,2.5E0,1E0,3E0,2E0,1.25E0,1E0,7E0,2E0,1.5E0,1E0,6.25E0,1E0,4.3E1,1E0,1E0,2.275E2,6.825E1,1E0,1.5E0,1E0,1E0,4.2E1,1E0],"tree_param":{"num_deleted":"0","num_feature":"200","num_nodes":"77","size_leaf_vector":"0"}},{"base_weights":[9.959207E-1,1.4041737E0,-9.386259E-1,1.5075637E0,-3.4105235E-1,1.9897318E-1,-1.4605192E0,1.5555576E0,-2.3147862E-1,1.1433798E0,-8.4474325E-1,-6.5588E-1,1.3462569E0,1.9677553E0,-1.5699258E0,-3.9353415E-1,1.5959268E0,-1.1805588E0,1.1243025E0,1.69848E0,-4.1099262E-1,5.915944E-1,-1.6427344E0,-1.143964E0,1.9677559E0,1.7137934E0,-2.8103203E-1,-1.639696E0,-0E0,-1.50466E0,1.9677559E0,1.6245494E0,-8.433238E-1,4.098891E-1,-1.7107375E0,-0E0,1.9677559E0,1.177908E0,1.9876614E0,-9.887126E-1,1.6451496E0,-2.1832841E-3,-1.9708618E0,-0E0,-1.6962795E0,1.967757E0,-0E0,-1.7658206E0,-8.5774565E-1,-1.9677566E0,-0E0,1.6416073E0,-3.9355034E-1,-1.9677563E0,1.180652E0,-1.180557E0,-1.9758317E0,1.9723246E0,1.1871127E0,-1.9683968E0,-1.9831823E0,-1.3190554E0,9.891334E-1,-0E0,-1.9677571E0,-1.8360049E0,-4.7619838E-1,-1.5018156E0,5.107917E-1,1.6563627E0,-5.2554655E-1,-1.9677552E0,1.180652E0,-1.9677552E0,-1.983905E0,-0E0,-1.8873727E0,-1.9707819E0,-3.7634352E-1],"categories":[],"categories_nodes":[],"categories_segments":[],"categories_sizes":[],"default_left":[1,1,1,1,1,1,1,1,1,1,1,1,1,0,1,1,1,1,1,1,0,1,1,1,0,1,0,1,0,1,0,1,1,0,1,0,0,0,0,0,1,0,1,1,1,0,0,1,1,0,0,1,1,0,0,0,1,0,0,0,0,0,0,0,0,1,0,1,0,0,0,0,0,0,0,0,0,0,0],"id":3,"left_children":[1,3,5,7,9,11,13,15,17,19,21,23,25,-1,27,29,31,33,35,37,-1,39,41,43,-1,45,-1,47,-1,49,-1,51,53,-1,55,-1,-1,-1,-1,-1,57,-1,59,61,63,-1,-1,65,67,-1,-1,69,71,-1,-1,-1,73,-1,-1,-1,-1,-1,-1,-1,-1,75,-1,77,-1,-1,-1,-1,-1,-1,-1,-1,-1,-1,-1],"loss_changes":[3.2059033E2,6.048053E1,4.199592E1,2.6411194E1,1.4016566E1,2.1817493E1,1.818734E1,2.4229797E1,1.0935433E1,4.0979323E0,1.6043129E1,1.6323662E1,5.680752E0,0E0,5.1470184E0,1.6394365E1,2.1063538E1,4.2153187E0,3.3185291E0,5.268202E-1,0E0,8.32308E0,4.8436813E0,6.7908173E0,0E0,3.3723297E0,0E0,4.4371185E0,0E0,2.960804E0,0E0,1.0265076E1,7.9632473E0,0E0,5.2693844E-1,0E0,0E0,0E0,0E0,0E0,4.494753E-1,0E0,2.155304E-4,4.565943E0,3.3378658E0,0E0,0E0,3.5065613E0,5.5079656E0,0E0,0E0,9.455505E0,6.1936316E0,0E0,0E0,0E0,1.5163422E-4,0E0,0E0,0E0,0E0,0E0,0E0,0E0,0E0,3.4652252E0,0E0,2.242715E0,0E0,0E0,0E0,0E0,0E0,0E0,0E0,0E0,0E0,0E0,0E0],"parents":[2147483647,0,0,1,1,2,2,3,3,4,4,5,5,6,6,7,7,8,8,9,9,10,10,11,11,12,12,14,14,15,15,16,16,17,17,18,18,19,19,21,21,22,22,23,23,25,25,27,27,29,29,31,31,32,32,34,34,40,40,42,42,43,43,44,44,47,47,48,48,51,51,52,52,56,56,65,65,67,67],"right_children":[2,4,6,8,10,12,14,16,18,20,22,24,26,-1,28,30,32,34,36,38,-1,40,42,44,-1,46,-1,48,-1,50,-1,52,54,-1,56,-1,-1,-1,-1,-1,58,-1,60,62,64,-1,-1,66,68,-1,-1,70,72,-1,-1,-1,74,-1,-1,-1,-1,-1,-1,-1,-1,76,-1,78,-1,-1,-1,-1,-1,-1,-1,-1,-1,-1,-1],"split_conditions":[8.110975E-1,5.832491E-1,7.8692013E-1,8.7591445E-1,5.7024634E-1,6.2408847E-1,6.030561E-1,1.862762E-1,4.8793843E-1,6.50424E-1,8.224334E-1,7.249282E-1,7.1833444E-1,3.334755E-2,9.9973446E-1,8.767812E-1,9.271878E-1,3.116328E-1,1.4975911E-1,3.9158738E-1,-6.9650924E-3,6.363162E-1,2.4138507E-2,7.043437E-1,3.3347562E-2,8.0884165E-1,-4.76265E-3,9.616515E-1,-0E0,8.9545465E-1,3.3347562E-2,9.2459744E-1,3.2216418E-1,6.946391E-3,3.8795522E-1,-0E0,3.3347562E-2,1.9962007E-2,3.36849E-2,-1.6755713E-2,6.919397E-1,-3.7000118E-5,4.5278853E-1,2.7719223E-1,9.3211114E-2,3.334758E-2,-0E0,7.4023104E-1,1.0731666E-1,-3.3347573E-2,-0E0,9.478993E-1,2.3775536E-1,-3.334757E-2,2.0008512E-2,-2.00069E-2,1.780529E-2,3.342499E-2,2.0118E-2,-3.335842E-2,-3.360899E-2,-2.2354035E-2,1.6762845E-2,-0E0,-3.334758E-2,1.7150594E-1,-8.070135E-3,9.474163E-1,8.656388E-3,2.8070379E-2,-8.906438E-3,-3.334755E-2,2.0008512E-2,-3.334755E-2,-3.362124E-2,-0E0,-3.198531E-2,-3.3398844E-2,-6.377894E-3],"split_indices":[103,122,67,49,30,98,15,199,92,88,41,36,130,0,17,20,95,199,29,8,0,20,2,15,0,30,0,71,0,14,0,66,1,0,24,0,0,0,0,0,14,0,19,34,4,0,0,18,199,0,0,21,57,0,0,0,8,0,0,0,0,0,0,0,0,2,0,20,0,0,0,0,0,0,0,0,0,0,0],"split_type":[0,0,0,0,0,0,0,0,0,0,0,0,0,0,0,0,0,0,0,0,0,0,0,0,0,0,0,0,0,0,0,0,0,0,0,0,0,0,0,0,0,0,0,0,0,0,0,0,0,0,0,0,0,0,0,0,0,0,0,0,0,0,0,0,0,0,0,0,0,0,0,0,0,0,0,0,0,0,0],"sum_hessian":[4.0592123E2,3.3518597E2,7.0735275E1,3.164396E2,1.874637E1,2.2245516E1,4.848976E1,3.0794107E2,8.498524E0,4.7493906E0,1.399698E1,1.2747337E1,9.4981785E0,1.4995973E0,4.699016E1,6.2485905E0,3.0169247E2,4.99906E0,3.499463E0,3.499607E0,1.2497838E0,4.999024E0,8.997956E0,1.0747874E1,1.9994631E0,7.748188E0,1.7499905E0,4.49907E1,1.9994631E0,4.2491274E0,1.9994631E0,2.9819342E2,3.4990602E0,1.2498155E0,3.7492447E0,1.5E0,1.9994631E0,1.2497933E0,2.2498138E0,1.9996281E0,2.9993958E0,1.4997262E0,7.49823E0,3.4995525E0,7.2483215E0,6.748188E0,1E0,3.8741833E1,6.2488675E0,3.2491274E0,1E0,2.956941E2,2.4993289E0,2.2493958E0,1.2496644E0,1.249765E0,2.4994798E0,1.7496309E0,1.2497652E0,6.248372E0,1.2498577E0,1.4996718E0,1.9998807E0,1E0,6.2483215E0,3.6742233E1,1.9995985E0,4.2491207E0,1.9997466E0,2.9369443E2,1.9996698E0,1.2496643E0,1.2496644E0,1.2496643E0,1.2498155E0,1E0,3.5742233E1,2.9993405E0,1.2497802E0],"tree_param":{"num_deleted":"0","num_feature":"200","num_nodes":"79","size_leaf_vector":"0"}},{"base_weights":[9.961909E-1,1.4045548E0,-9.3887985E-1,1.5079727E0,-3.4114474E-1,1.9902709E-1,-1.4609143E0,1.5559796E0,-2.3154145E-1,1.1436193E0,-8.4494686E-1,-6.560574E-1,1.3466219E0,1.9682842E0,-1.5703505E0,-3.9364037E-1,1.5963598E0,-1.1808791E0,1.124609E0,1.6987402E0,-4.1080818E-1,5.917327E-1,-1.6431272E0,-1.144274E0,1.9682847E0,1.7142559E0,-2.8111023E-1,-1.6401397E0,-0E0,-1.5050675E0,1.9682847E0,1.6249903E0,-8.435504E-1,4.097234E-1,-1.7111083E0,-0E0,1.9682847E0,1.178273E0,1.9878643E0,-9.888976E-1,1.6455029E0,-2.1467865E-3,-1.9713398E0,-0E0,-1.6967374E0,1.9682857E0,-0E0,-1.7662765E0,-8.5811377E-1,-1.9682854E0,-0E0,1.6420528E0,-3.93656E-1,-1.968285E0,1.1809694E0,-1.1808773E0,-1.9762278E0,1.9727792E0,1.1873239E0,-1.9689152E0,-1.9834588E0,-1.3192886E0,9.893135E-1,-0E0,-1.9682859E0,-1.8364639E0,-4.7659326E-1,-1.5022702E0,5.1061094E-1,1.6568084E0,-5.2511925E-1,-1.9682839E0,1.1809694E0,-1.9682839E0,-1.9841683E0,-0E0,-1.8878443E0,-1.9712615E0,-3.7673646E-1],"categories":[],"categories_nodes":[],"categories_segments":[],"categories_sizes":[],"default_left":[1,1,1,1,1,1,1,1,1,1,1,1,1,0,1,1,1,1,1,1,0,1,1,1,0,1,0,1,0,1,0,1,1,0,1,0,0,0,0,0,1,0,1,1,1,0,0,1,1,0,0,1,1,0,0,0,1,0,0,0,0,0,0,0,0,1,0,1,0,0,0,0,0,0,0,0,0,0,0],"id":4,"left_children":[1,3,5,7,9,11,13,15,17,19,21,23,25,-1,27,29,31,33,35,37,-1,39,41,43,-1,45,-1,47,-1,49,-1,51,53,-1,55,-1,-1,-1,-1,-1,57,-1,59,61,63,-1,-1,65,67,-1,-1,69,71,-1,-1,-1,73,-1,-1,-1,-1,-1,-1,-1,-1,75,-1,77,-1,-1,-1,-1,-1,-1,-1,-1,-1,-1,-1],"loss_changes":[3.2076633E2,6.0513733E1,4.201892E1,2.642566E1,1.4022884E1,2.182946E1,1.8197311E1,2.4243164E1,1.0941442E1,4.0982485E0,1.6050865E1,1.6332603E1,5.6838417E0,0E0,5.149849E0,1.6403343E1,2.1075073E1,4.216156E0,3.3203259E0,5.266113E-1,0E0,8.326536E0,4.846245E0,6.7945194E0,0E0,3.3741455E0,0E0,4.4380035E0,0E0,2.9624023E0,0E0,1.0270813E1,7.967599E0,0E0,5.270424E-1,0E0,0E0,0E0,0E0,0E0,4.4975662E-1,0E0,2.0599365E-4,4.5676007E0,3.3396645E0,0E0,0E0,3.5069122E0,5.5094924E0,0E0,0E0,9.455688E0,6.197016E0,0E0,0E0,0E0,1.4591217E-4,0E0,0E0,0E0,0E0,0E0,0E0,0E0,0E0,3.466957E0,0E0,2.2429724E0,0E0,0E0,0E0,0E0,0E0,0E0,0E0,0E0,0E0,0E0,0E0],"parents":[2147483647,0,0,1,1,2,2,3,3,4,4,5,5,6,6,7,7,8,8,9,9,10,10,11,11,12,12,14,14,15,15,16,16,17,17,18,18,19,19,21,21,22,22,23,23,25,25,27,27,29,29,31,31,32,32,34,34,40,40,42,42,43,43,44,44,47,47,48,48,51,51,52,52,56,56,65,65,67,67],"right_children":[2,4,6,8,10,12,14,16,18,20,22,24,26,-1,28,30,32,34,36,38,-1,40,42,44,-1,46,-1,48,-1,50,-1,52,54,-1,56,-1,-1,-1,-1,-1,58,-1,60,62,64,-1,-1,66,68,-1,-1,70,72,-1,-1,-1,74,-1,-1,-1,-1,-1,-1,-1,-1,76,-1,78,-1,-1,-1,-1,-1,-1,-1,-1,-1,-1,-1],"split_conditions":[8.110975E-1,5.832491E-1,7.8692013E-1,8.7591445E-1,5.7024634E-1,6.2408847E-1,6.030561E-1,1.862762E-1,4.8793843E-1,6.50424E-1,8.224334E-1,7.249282E-1,7.1833444E-1,3.3356514E-2,9.9973446E-1,8.767812E-1,9.271878E-1,3.116328E-1,1.4975911E-1,3.9158738E-1,-6.961967E-3,6.363162E-1,2.4138507E-2,7.043437E-1,3.3356525E-2,8.0884165E-1,-4.7639753E-3,9.616515E-1,-0E0,8.9545465E-1,3.3356525E-2,9.2459744E-1,3.2216418E-1,6.943583E-3,3.8795522E-1,-0E0,3.3356525E-2,1.9968193E-2,3.3688337E-2,-1.675885E-2,6.919397E-1,-3.6381593E-5,4.5278853E-1,2.7719223E-1,9.3211114E-2,3.335654E-2,-0E0,7.4023104E-1,1.0731666E-1,-3.3356536E-2,-0E0,9.478993E-1,2.3775536E-1,-3.335653E-2,2.001389E-2,-2.001233E-2,1.780529E-2,3.3432692E-2,2.012158E-2,-3.336721E-2,-3.3613678E-2,-2.2357985E-2,1.6765896E-2,-0E0,-3.3356544E-2,1.7150594E-1,-8.076826E-3,9.474163E-1,8.653324E-3,2.8077934E-2,-8.899196E-3,-3.335651E-2,2.001389E-2,-3.335651E-2,-3.3625703E-2,-0E0,-3.19933E-2,-3.3406973E-2,-6.3845534E-3],"split_indices":[103,122,67,49,30,98,15,199,92,88,41,36,130,0,17,20,95,199,29,8,0,20,2,15,0,30,0,71,0,14,0,66,1,0,24,0,0,0,0,0,14,0,19,34,4,0,0,18,199,0,0,21,57,0,0,0,8,0,0,0,0,0,0,0,0,2,0,20,0,0,0,0,0,0,0,0,0,0,0],"split_type":[0,0,0,0,0,0,0,0,0,0,0,0,0,0,0,0,0,0,0,0,0,0,0,0,0,0,0,0,0,0,0,0,0,0,0,0,0,0,0,0,0,0,0,0,0,0,0,0,0,0,0,0,0,0,0,0,0,0,0,0,0,0,0,0,0,0,0,0,0,0,0,0,0,0,0,0,0,0,0],"sum_hessian":[4.0592383E2,3.3518808E2,7.073576E1,3.164416E2,1.874649E1,2.2245663E1,4.84901E1,3.0794302E2,8.498572E0,4.749411E0,1.399708E1,1.2747425E1,9.498239E0,1.4996107E0,4.699049E1,6.2486367E0,3.0169437E2,4.999091E0,3.4994807E0,3.49962E0,1.2497909E0,4.9990563E0,8.998023E0,1.0747944E1,1.9994808E0,7.7482476E0,1.7499908E0,4.499101E1,1.9994807E0,4.249156E0,1.9994808E0,2.9819528E2,3.4990911E0,1.2498214E0,3.7492697E0,1.5E0,1.9994808E0,1.2498001E0,2.24982E0,1.9996403E0,2.9994159E0,1.4997351E0,7.498288E0,3.4995673E0,7.248377E0,6.7482476E0,1E0,3.8742104E1,6.2489047E0,3.249156E0,1E0,2.9569592E2,2.4993508E0,2.2494156E0,1.2496755E0,1.2497728E0,2.499497E0,1.7496431E0,1.2497729E0,6.2484255E0,1.2498623E0,1.4996827E0,1.9998846E0,1E0,6.248377E0,3.6742493E1,1.9996119E0,4.24915E0,1.999755E0,2.9369626E2,1.9996808E0,1.2496754E0,1.2496755E0,1.2496754E0,1.2498214E0,1E0,3.5742493E1,2.9993625E0,1.2497874E0],"tree_param":{"num_deleted":"0","num_feature":"200","num_nodes":"79","size_leaf_vector":"0"}},{"base_weights":[9.496619E-1,1.3389084E0,-8.951853E-1,1.4375114E0,-3.2514867E-1,1.8975183E-1,-1.392972E0,1.4832945E0,-2.2061592E-1,1.0975009E0,-8.085003E-1,-6.25531E-1,1.2837876E0,1.8785471E0,-1.4972746E0,-3.7545714E-1,1.5217721E0,-1.1252248E0,1.0715283E0,1.6418183E0,-4.2597154E-1,5.6647635E-1,-1.5730388E0,-1.0908253E0,1.8785477E0,3.648173E-1,1.8846647E0,-1.5499283E0,4.2914277E-1,-1.4351195E0,1.8785477E0,1.5490519E0,-8.0475444E-1,-1.6425608E0,4.234805E-1,-0E0,1.8785477E0,1.1146207E0,1.9344606E0,-9.5160365E-1,1.5794815E0,-6.4177653E-3,-1.8870422E0,-2.386387E-5,-1.6185014E0,1.9133514E0,-9.861899E-1,1.9066626E0,1.8785484E0,-1.689851E0,-7.422146E-1,-1.8785481E0,-0E0,1.5653095E0,-3.7549135E-1,1.1368948E0,-1.8838202E0,-1.1113737E0,-1.9079674E0,1.1391708E0,1.8942393E0,-1.8802841E0,-1.920763E0,9.630165E-1,-1.2846096E0,-0E0,-1.8785485E0,-0E0,-1.7344718E0,4.7759105E-2,-1.8929067E0,1.5798537E0,-5.6697536E-1,-1.8785467E0,1.1257802E0,-1.8831905E0,-1.9326895E0,-1.8785391E0,-1.8872577E0,-1.8061483E0,-5.963544E-1,-1.0437409E0,1.4503396E0,-1.9004298E0,-1.88663E0],"categories":[],"categories_nodes":[],"categories_segments":[],"categories_sizes":[],"default_left":[1,1,1,1,1,1,1,1,1,1,1,1,1,0,1,1,1,1,1,1,0,1,1,1,0,1,1,1,0,1,0,1,1,1,0,0,0,0,0,0,1,0,1,1,1,0,0,0,0,1,1,0,0,1,1,0,0,0,1,0,0,1,0,0,0,0,0,0,1,1,1,0,0,0,0,0,0,0,0,0,0,0,0,0,0],"id":5,"left_children":[1,3,5,7,9,11,13,15,17,19,21,23,25,-1,27,29,31,33,35,37,-1,39,41,43,-1,45,47,49,-1,51,-1,53,55,57,-1,-1,-1,-1,-1,-1,59,-1,61,63,65,-1,-1,-1,-1,67,69,-1,-1,71,73,-1,-1,-1,75,-1,-1,77,-1,-1,-1,-1,-1,-1,79,81,83,-1,-1,-1,-1,-1,-1,-1,-1,-1,-1,-1,-1,-1,-1],"loss_changes":[2.906824E2,5.484674E1,3.808946E1,2.3956055E1,1.2858051E1,1.9784948E1,1.6496864E1,2.1963074E1,9.911101E0,3.93225E0,1.4671808E1,1.4808935E1,5.230117E0,0E0,4.7523193E0,1.487561E1,1.9094666E1,3.995966E0,3.0193753E0,5.3899574E-1,0E0,7.669714E0,4.4123173E0,6.1694174E0,0E0,7.834107E0,7.5912476E-4,5.15419E0,0E0,2.695941E0,0E0,9.304382E0,7.3055315E0,5.2706146E-1,0E0,0E0,0E0,0E0,0E0,0E0,4.1455984E-1,0E0,1.6918182E-3,4.3231463E0,3.040434E0,0E0,0E0,0E0,0E0,2.9309998E0,6.121172E0,0E0,0E0,9.1449585E0,5.6209917E0,0E0,0E0,0E0,1.5153885E-3,0E0,0E0,6.484985E-5,0E0,0E0,0E0,0E0,0E0,0E0,3.0894089E0,6.1125474E0,1.1730194E-4,0E0,0E0,0E0,0E0,0E0,0E0,0E0,0E0,0E0,0E0,0E0,0E0,0E0,0E0],"parents":[2147483647,0,0,1,1,2,2,3,3,4,4,5,5,6,6,7,7,8,8,9,9,10,10,11,11,12,12,14,14,15,15,16,16,17,17,18,18,19,19,21,21,22,22,23,23,25,25,26,26,27,27,29,29,31,31,32,32,33,33,40,40,42,42,43,43,44,44,49,49,50,50,53,53,54,54,58,58,61,61,68,68,69,69,70,70],"right_children":[2,4,6,8,10,12,14,16,18,20,22,24,26,-1,28,30,32,34,36,38,-1,40,42,44,-1,46,48,50,-1,52,-1,54,56,58,-1,-1,-1,-1,-1,-1,60,-1,62,64,66,-1,-1,-1,-1,68,70,-1,-1,72,74,-1,-1,-1,76,-1,-1,78,-1,-1,-1,-1,-1,-1,80,82,84,-1,-1,-1,-1,-1,-1,-1,-1,-1,-1,-1,-1,-1,-1],"split_conditions":[8.110975E-1,5.832491E-1,7.8692013E-1,8.7591445E-1,5.7024634E-1,6.2408847E-1,6.030561E-1,1.862762E-1,4.8793843E-1,6.50424E-1,8.224334E-1,7.249282E-1,6.072569E-1,3.183574E-2,9.989054E-1,8.767812E-1,9.271878E-1,7.023952E-1,1.4975911E-1,4.0258422E-1,-7.21894E-3,6.363162E-1,2.4138507E-2,7.043437E-1,3.183575E-2,4.4028085E-1,5.983162E-1,9.616515E-1,7.272683E-3,8.9545465E-1,3.183575E-2,9.2459744E-1,7.961711E-1,4.8369282E-1,7.1767247E-3,-0E0,3.183575E-2,1.8889477E-2,3.2783307E-2,-1.6126828E-2,1.3438617E-1,-1.0876187E-4,4.5278853E-1,5.6419516E-1,9.3211114E-2,3.2425568E-2,-1.6712962E-2,3.2312214E-2,3.183576E-2,1.7150594E-1,9.4461536E-1,-3.1835757E-2,-0E0,9.478993E-1,2.3775536E-1,1.9266957E-2,-3.1925105E-2,-1.8834451E-2,1.5287489E-1,1.930553E-2,3.2101676E-2,9.432026E-1,-3.2551173E-2,1.6320242E-2,-2.177028E-2,-0E0,-3.1835765E-2,-0E0,9.991269E-1,4.8112565E-1,9.895394E-1,2.6773782E-2,-9.608532E-3,-3.1835735E-2,1.90786E-2,-3.191443E-2,-3.2753292E-2,-3.1835604E-2,-3.1983357E-2,-3.0608797E-2,-1.0106419E-2,-1.7688278E-2,2.4578907E-2,-3.2206587E-2,-3.197272E-2],"split_indices":[103,122,67,49,30,98,15,199,92,88,41,36,24,0,139,20,95,81,29,50,0,20,2,15,0,18,17,71,0,14,0,66,18,103,0,0,0,0,0,0,18,0,19,109,4,0,0,0,0,2,66,0,0,21,57,0,0,0,59,0,0,0,0,0,0,0,0,0,68,78,2,0,0,0,0,0,0,0,0,0,0,0,0,0,0],"split_type":[0,0,0,0,0,0,0,0,0,0,0,0,0,0,0,0,0,0,0,0,0,0,0,0,0,0,0,0,0,0,0,0,0,0,0,0,0,0,0,0,0,0,0,0,0,0,0,0,0,0,0,0,0,0,0,0,0,0,0,0,0,0,0,0,0,0,0,0,0,0,0,0,0,0,0,0,0,0,0,0,0,0,0,0,0],"sum_hessian":[4.0479355E2,3.342663E2,7.052725E1,3.155675E2,1.8698814E1,2.2181711E1,4.834554E1,3.0708838E2,8.479106E0,4.7419167E0,1.3956898E1,1.2710075E1,9.471637E0,1.4937303E0,4.685181E1,6.228056E0,3.0086032E2,4.987466E0,3.4916406E0,3.4936733E0,1.2482433E0,4.9873834E0,8.969514E0,1.0718434E1,1.9916404E0,3.744647E0,5.7269897E0,4.560531E1,1.2465012E0,4.236416E0,1.9916404E0,2.9737347E2,3.4868479E0,3.7386076E0,1.248858E0,1.5E0,1.9916404E0,1.2470726E0,2.2466009E0,1.9960775E0,2.991306E0,1.4976202E0,7.471894E0,3.4945583E0,7.2238765E0,1.7447752E0,1.9998717E0,1.2457988E0,4.4811907E0,3.8871475E1,6.7338343E0,3.2364156E0,1E0,2.9488245E2,2.4910276E0,1.2455776E0,2.2412703E0,1.2456216E0,2.4929862E0,1.2469599E0,1.7443461E0,6.2245064E0,1.2473875E0,1.9972434E0,1.4973148E0,1E0,6.2238765E0,1E0,3.7871475E1,3.9927363E0,2.741098E0,2.928847E2,1.9977467E0,1.2447753E0,1.2462523E0,1.2451764E0,1.2478096E0,4.979098E0,1.2454084E0,3.5627705E1,2.2437682E0,2.245369E0,1.7473673E0,1.2465142E0,1.4945838E0],"tree_param":{"num_deleted":"0","num_feature":"200","num_nodes":"85","size_leaf_vector":"0"}},{"base_weights":[9.961909E-1,1.4045548E0,-9.3887985E-1,1.5079727E0,-3.4114474E-1,1.9902709E-1,-1.4609143E0,1.5559796E0,-2.3154145E-1,1.1436193E0,-8.4494686E-1,-6.560574E-1,1.3466219E0,1.9682842E0,-1.5703505E0,-3.9364037E-1,1.5963598E0,-1.1808791E0,1.124609E0,1.6987402E0,-4.1080818E-1,5.917327E-1,-1.6431272E0,-1.144274E0,1.9682847E0,1.7142559E0,-2.8111023E-1,-1.6401397E0,-0E0,-1.5050675E0,1.9682847E0,1.6249903E0,-8.435504E-1,4.097234E-1,-1.7111083E0,-0E0,1.9682847E0,1.178273E0,1.9878643E0,-9.888976E-1,1.6455029E0,-2.1467865E-3,-1.9713398E0,-0E0,-1.6967374E0,1.9682857E0,-0E0,-1.7662765E0,-8.5811377E-1,-1.9682854E0,-0E0,1.6420528E0,-3.93656E-1,-1.968285E0,1.1809694E0,-1.1808773E0,-1.9762278E0,1.9727792E0,1.1873239E0,-1.9689152E0,-1.9834588E0,-1.3192886E0,9.893135E-1,-0E0,-1.9682859E0,-1.8364639E0,-4.7659326E-1,-1.5022702E0,5.1061094E-1,1.6568084E0,-5.2511925E-1,-1.9682839E0,1.1809694E0,-1.9682839E0,-1.9841683E0,-0E0,-1.8878443E0,-1.9712615E0,-3.7673646E-1],"categories":[],"categories_nodes":[],"categories_segments":[],"categories_sizes":[],"default_left":[1,1,1,1,1,1,1,1,1,1,1,1,1,0,1,1,1,1,1,1,0,1,1,1,0,1,0,1,0,1,0,1,1,0,1,0,0,0,0,0,1,0,1,1,1,0,0,1,1,0,0,1,1,0,0,0,1,0,0,0,0,0,0,0,0,1,0,1,0,0,0,0,0,0,0,0,0,0,0],"id":6,"left_children":[1,3,5,7,9,11,13,15,17,19,21,23,25,-1,27,29,31,33,35,37,-1,39,41,43,-1,45,-1,47,-1,49,-1,51,53,-1,55,-1,-1,-1,-1,-1,57,-1,59,61,63,-1,-1,65,67,-1,-1,69,71,-1,-1,-1,73,-1,-1,-1,-1,-1,-1,-1,-1,75,-1,77,-1,-1,-1,-1,-1,-1,-1,-1,-1,-1,-1],"loss_changes":[3.2076633E2,6.0513733E1,4.201892E1,2.642566E1,1.4022884E1,2.182946E1,1.8197311E1,2.4243164E1,1.0941442E1,4.0982485E0,1.6050865E1,1.6332603E1,5.6838417E0,0E0,5.149849E0,1.6403343E1,2.1075073E1,4.216156E0,3.3203259E0,5.266113E-1,0E0,8.326536E0,4.846245E0,6.7945194E0,0E0,3.3741455E0,0E0,4.4380035E0,0E0,2.9624023E0,0E0,1.0270813E1,7.967599E0,0E0,5.270424E-1,0E0,0E0,0E0,0E0,0E0,4.4975662E-1,0E0,2.0599365E-4,4.5676007E0,3.3396645E0,0E0,0E0,3.5069122E0,5.5094924E0,0E0,0E0,9.455688E0,6.197016E0,0E0,0E0,0E0,1.4591217E-4,0E0,0E0,0E0,0E0,0E0,0E0,0E0,0E0,3.466957E0,0E0,2.2429724E0,0E0,0E0,0E0,0E0,0E0,0E0,0E0,0E0,0E0,0E0,0E0],"parents":[2147483647,0,0,1,1,2,2,3,3,4,4,5,5,6,6,7,7,8,8,9,9,10,10,11,11,12,12,14,14,15,15,16,16,17,17,18,18,19,19,21,21,22,22,23,23,25,25,27,27,29,29,31,31,32,32,34,34,40,40,42,42,43,43,44,44,47,47,48,48,51,51,52,52,56,56,65,65,67,67],"right_children":[2,4,6,8,10,12,14,16,18,20,22,24,26,-1,28,30,32,34,36,38,-1,40,42,44,-1,46,-1,48,-1,50,-1,52,54,-1,56,-1,-1,-1,-1,-1,58,-1,60,62,64,-1,-1,66,68,-1,-1,70,72,-1,-1,-1,74,-1,-1,-1,-1,-1,-1,-1,-1,76,-1,78,-1,-1,-1,-1,-1,-1,-1,-1,-1,-1,-1],"split_conditions":[8.110975E-1,5.832491E-1,7.8692013E-1,8.7591445E-1,5.7024634E-1,6.2408847E-1,6.030561E-1,1.862762E-1,4.8793843E-1,6.50424E-1,8.224334E-1,7.249282E-1,7.1833444E-1,3.3356514E-2,9.9973446E-1,8.767812E-1,9.271878E-1,3.116328E-1,1.4975911E-1,3.9158738E-1,-6.961967E-3,6.363162E-1,2.4138507E-2,7.043437E-1,3.3356525E-2,8.0884165E-1,-4.7639753E-3,9.616515E-1,-0E0,8.9545465E-1,3.3356525E-2,9.2459744E-1,3.2216418E-1,6.943583E-3,3.8795522E-1,-0E0,3.3356525E-2,1.9968193E-2,3.3688337E-2,-1.675885E-2,6.919397E-1,-3.6381593E-5,4.5278853E-1,2.7719223E-1,9.3211114E-2,3.335654E-2,-0E0,7.4023104E-1,1.0731666E-1,-3.3356536E-2,-0E0,9.478993E-1,2.3775536E-1,-3.335653E-2,2.001389E-2,-2.001233E-2,1.780529E-2,3.3432692E-2,2.012158E-2,-3.336721E-2,-3.3613678E-2,-2.2357985E-2,1.6765896E-2,-0E0,-3.3356544E-2,1.7150594E-1,-8.076826E-3,9.474163E-1,8.653324E-3,2.8077934E-2,-8.899196E-3,-3.335651E-2,2.001389E-2,-3.335651E-2,-3.3625703E-2,-0E0,-3.19933E-2,-3.3406973E-2,-6.3845534E-3],"split_indices":[103,122,67,49,30,98,15,199,92,88,41,36,130,0,17,20,95,199,29,8,0,20,2,15,0,30,0,71,0,14,0,66,1,0,24,0,0,0,0,0,14,0,19,34,4,0,0,18,199,0,0,21,57,0,0,0,8,0,0,0,0,0,0,0,0,2,0,20,0,0,0,0,0,0,0,0,0,0,0],"split_type":[0,0,0,0,0,0,0,0,0,0,0,0,0,0,0,0,0,0,0,0,0,0,0,0,0,0,0,0,0,0,0,0,0,0,0,0,0,0,0,0,0,0,0,0,0,0,0,0,0,0,0,0,0,0,0,0,0,0,0,0,0,0,0,0,0,0,0,0,0,0,0,0,0,0,0,0,0,0,0],"sum_hessian":[4.0592383E2,3.3518808E2,7.073576E1,3.164416E2,1.874649E1,2.2245663E1,4.84901E1,3.0794302E2,8.498572E0,4.749411E0,1.399708E1,1.2747425E1,9.498239E0,1.4996107E0,4.699049E1,6.2486367E0,3.0169437E2,4.999091E0,3.4994807E0,3.49962E0,1.2497909E0,4.9990563E0,8.998023E0,1.0747944E1,1.9994808E0,7.7482476E0,1.7499908E0,4.499101E1,1.9994807E0,4.249156E0,1.9994808E0,2.9819528E2,3.4990911E0,1.2498214E0,3.7492697E0,1.5E0,1.9994808E0,1.2498001E0,2.24982E0,1.9996403E0,2.9994159E0,1.4997351E0,7.498288E0,3.4995673E0,7.248377E0,6.7482476E0,1E0,3.8742104E1,6.2489047E0,3.249156E0,1E0,2.9569592E2,2.4993508E0,2.2494156E0,1.2496755E0,1.2497728E0,2.499497E0,1.7496431E0,1.2497729E0,6.2484255E0,1.2498623E0,1.4996827E0,1.9998846E0,1E0,6.248377E0,3.6742493E1,1.9996119E0,4.24915E0,1.999755E0,2.9369626E2,1.9996808E0,1.2496754E0,1.2496755E0,1.2496754E0,1.2498214E0,1E0,3.5742493E1,2.9993625E0,1.2497874E0],"tree_param":{"num_deleted":"0","num_feature":"200","num_nodes":"79","size_leaf_vector":"0"}},{"base_weights":[9.9692667E-1,1.4055889E0,-9.3957216E-1,1.5090823E0,-3.4138098E-1,1.9917093E-1,-1.4619877E0,1.5571251E0,-2.3171669E-1,-8.4521323E-1,1.1436659E0,-6.565204E-1,1.3476305E0,1.9696835E0,-1.5715041E0,-3.9392155E-1,1.5975349E0,-1.1817226E0,1.1254195E0,4.431388E-1,-1.4555637E0,1.6939156E0,-3.970527E-1,-1.1450816E0,1.969684E0,1.7143865E0,-2.763491E-1,-1.6418632E0,1.1483328E-2,-1.5061452E0,1.969684E0,1.6261873E0,-8.441074E-1,-1.7109617E0,4.0583965E-1,-0E0,1.969684E0,-1.9864401E0,1.377556E0,-1.8514503E0,6.5595526E-1,1.9786451E0,1.1813596E0,3.1527304E-6,-1.6979487E0,1.9695272E0,3.8774008E-1,-1.7668012E0,-8.672801E-1,-1.9696844E0,-0E0,1.6432633E0,-3.9389524E-1,-1.975068E0,1.1914068E0,-1.1767676E0,-1.9780474E0,1.9911197E0,3.9587054E-1,-1.9741242E0,-1.1890143E0,-1.3308116E0,9.981097E-1,-0E0,-1.9696848E0,-1.8367023E0,-4.8247334E-1,-1.5116205E0,5.018254E-1,1.741591E0,1.315505E0,-1.9696828E0,1.1816506E0,-1.9844853E0,-1.9716063E0,-1.9814566E0,-1.9704568E0,-0E0,-1.8880894E0,-1.9774326E0,-3.9369354E-1],"categories":[],"categories_nodes":[],"categories_segments":[],"categories_sizes":[],"default_left":[1,1,1,1,1,1,1,1,1,1,1,1,1,0,1,1,1,1,1,1,1,1,0,1,0,1,0,1,0,1,0,1,1,1,0,0,0,0,1,1,0,0,0,1,1,0,0,1,1,0,0,1,1,0,0,0,1,0,0,1,0,0,0,0,0,1,0,1,0,0,0,0,0,0,0,0,0,0,0,0,0],"id":7,"left_children":[1,3,5,7,9,11,13,15,17,19,21,23,25,-1,27,29,31,33,35,37,39,41,-1,43,-1,45,-1,47,-1,49,-1,51,53,55,-1,-1,-1,-1,57,59,-1,-1,-1,61,63,-1,-1,65,67,-1,-1,69,71,-1,-1,-1,73,-1,-1,75,-1,-1,-1,-1,-1,77,-1,79,-1,-1,-1,-1,-1,-1,-1,-1,-1,-1,-1,-1,-1],"loss_changes":[3.2124286E2,6.0603027E1,4.2080936E1,2.6465393E1,1.4026682E1,2.1861572E1,1.8223976E1,2.4279114E1,1.0957392E1,1.1007141E1,4.0261483E0,1.6356153E1,5.657093E0,0E0,5.233757E0,1.6427092E1,2.1106628E1,4.200391E0,3.3250809E0,1.021538E1,7.939703E0,5.1067924E-1,0E0,6.80449E0,0E0,2.6226254E0,0E0,4.354019E0,0E0,2.966631E0,0E0,1.0286377E1,8.05582E0,5.349331E-1,0E0,0E0,0E0,0E0,1.9574423E0,6.4997864E-1,0E0,0E0,0E0,4.6486454E0,3.3444233E0,0E0,0E0,3.478119E0,5.5127034E0,0E0,0E0,9.529785E0,6.2058177E0,0E0,0E0,0E0,9.059906E-5,0E0,0E0,1.6975403E-4,0E0,0E0,0E0,0E0,0E0,3.4678574E0,0E0,2.2127476E0,0E0,0E0,0E0,0E0,0E0,0E0,0E0,0E0,0E0,0E0,0E0,0E0,0E0],"parents":[2147483647,0,0,1,1,2,2,3,3,4,4,5,5,6,6,7,7,8,8,9,9,10,10,11,11,12,12,14,14,15,15,16,16,17,17,18,18,19,19,20,20,21,21,23,23,25,25,27,27,29,29,31,31,32,32,33,33,38,38,39,39,43,43,44,44,47,47,48,48,51,51,52,52,56,56,59,59,65,65,67,67],"right_children":[2,4,6,8,10,12,14,16,18,20,22,24,26,-1,28,30,32,34,36,38,40,42,-1,44,-1,46,-1,48,-1,50,-1,52,54,56,-1,-1,-1,-1,58,60,-1,-1,-1,62,64,-1,-1,66,68,-1,-1,70,72,-1,-1,-1,74,-1,-1,76,-1,-1,-1,-1,-1,78,-1,80,-1,-1,-1,-1,-1,-1,-1,-1,-1,-1,-1,-1,-1],"split_conditions":[8.110975E-1,5.832491E-1,7.8692013E-1,8.7591445E-1,5.8949447E-1,6.2408847E-1,6.030561E-1,1.862762E-1,4.8793843E-1,2.0699939E-1,7.7475905E-1,7.249282E-1,7.1833444E-1,3.338023E-2,9.9973446E-1,8.767812E-1,9.271878E-1,9.0474117E-1,1.4975911E-1,3.8808596E-1,2.219823E-2,4.0258422E-1,-6.7288526E-3,7.043437E-1,3.3380236E-2,7.5714624E-1,-4.6832883E-3,9.616515E-1,1.9460799E-4,8.9545465E-1,3.3380236E-2,9.2459744E-1,3.2216418E-1,4.8148952E-2,6.877765E-3,-0E0,3.3380236E-2,-3.36642E-2,1.7449737E-1,9.909835E-1,1.1116475E-2,3.35321E-2,2.0020504E-2,2.7719223E-1,9.3211114E-2,3.337758E-2,6.5710316E-3,7.4023104E-1,1.0731666E-1,-3.3380244E-2,-0E0,6.030647E-1,2.3775536E-1,-3.347148E-2,2.0190774E-2,-1.9942682E-2,2.2995995E-1,3.374351E-2,6.7088185E-3,7.5167495E-1,-2.0150227E-2,-2.2553267E-2,1.6914966E-2,-0E0,-3.338025E-2,1.7150594E-1,-8.176477E-3,9.474163E-1,8.504435E-3,2.9514745E-2,2.2293866E-2,-3.3380218E-2,2.0025434E-2,-3.3631075E-2,-3.3412814E-2,-3.3579748E-2,-3.3393335E-2,-0E0,-3.1997453E-2,-3.3511553E-2,-6.671925E-3],"split_indices":[103,122,67,49,19,98,15,199,92,29,87,36,130,0,17,20,95,109,29,15,113,50,0,15,0,30,0,71,0,14,0,66,1,46,0,0,0,0,44,68,0,0,0,34,4,0,0,18,199,0,0,58,57,0,0,0,79,0,0,26,0,0,0,0,0,2,0,20,0,0,0,0,0,0,0,0,0,0,0,0,0],"split_type":[0,0,0,0,0,0,0,0,0,0,0,0,0,0,0,0,0,0,0,0,0,0,0,0,0,0,0,0,0,0,0,0,0,0,0,0,0,0,0,0,0,0,0,0,0,0,0,0,0,0,0,0,0,0,0,0,0,0,0,0,0,0,0,0,0,0,0,0,0,0,0,0,0,0,0,0,0,0,0,0,0],"sum_hessian":[4.059306E2,3.3519412E2,7.0736496E1,3.1644724E2,1.874687E1,2.2245823E1,4.8490677E1,3.0794846E2,8.498796E0,1.3997827E1,4.7490444E0,1.2747755E1,9.498069E0,1.4996448E0,4.699103E1,6.2487564E0,3.016997E2,4.9992704E0,3.4995263E0,4.499692E0,9.498135E0,3.4993088E0,1.2497354E0,1.0748229E1,1.9995263E0,7.7482276E0,1.7498411E0,4.4991302E1,1.9997277E0,4.2492304E0,1.9995263E0,2.9820035E2,3.4993558E0,3.7493627E0,1.2499076E0,1.5E0,1.9995263E0,1.2498785E0,3.2498133E0,7.998504E0,1.4996305E0,2.2496192E0,1.2496895E0,3.4997094E0,7.2485194E0,6.498444E0,1.2497835E0,3.874228E1,6.249023E0,3.2492301E0,1E0,2.9570074E2,2.4995975E0,2.2495022E0,1.2498537E0,1.2497557E0,2.499607E0,1.9998703E0,1.2499431E0,6.748729E0,1.2497749E0,1.4998702E0,1.9998391E0,1E0,6.2485194E0,3.674252E1,1.99976E0,4.24922E0,1.9998027E0,2.2746204E2,6.823871E1,1.2497039E0,1.2498937E0,1.2498753E0,1.2497318E0,2.249755E0,4.4989743E0,1E0,3.574252E1,2.9994302E0,1.2497898E0],"tree_param":{"num_deleted":"0","num_feature":"200","num_nodes":"81","size_leaf_vector":"0"}},{"base_weights":[9.657463E-1,1.3616087E0,-9.102617E-1,1.461877E0,-3.306738E-1,1.9295436E-1,-1.4164066E0,1.5084277E0,-2.244009E-1,1.112055E0,-8.20529E-1,-6.360563E-1,1.3055037E0,1.9092736E0,-1.5224853E0,-3.8171643E-1,1.5475653E0,-1.144464E0,1.0899566E0,1.6574768E0,-4.1445538E-1,5.747239E-1,-1.5960728E0,-1.1092792E0,1.9092742E0,3.7404326E-1,1.9138241E0,-1.5756711E0,4.234759E-1,-1.4592566E0,1.9092742E0,1.5753152E0,-8.1802464E-1,-1.6653966E0,4.164409E-1,-0E0,1.9092742E0,1.1367289E0,1.9466823E0,-9.6270806E-1,1.6003093E0,-4.155727E-3,-1.9148934E0,-7.1771487E-6,-1.6454133E0,1.935237E0,-9.898439E-1,1.9301908E0,1.909275E0,-1.7164118E0,-7.629593E-1,-1.9092748E0,-0E0,1.5918536E0,-3.81702E-1,1.1553589E0,-1.9146335E0,-1.1336284E0,-1.9311683E0,1.1517373E0,1.9208719E0,-1.9104284E0,-1.9371938E0,9.7506714E-1,-1.3004273E0,-0E0,-1.9092752E0,-0E0,-1.7616634E0,3.274515E-2,-1.921314E0,1.6063884E0,-5.404441E-1,-1.9092733E0,1.1446226E0,-1.9139982E0,-1.9483166E0,-1.9092658E0,-1.9150754E0,-1.833923E0,-6.140311E-1,-1.0646707E0,1.4432822E0,-1.9292579E0,-1.9146881E0],"categories":[],"categories_nodes":[],"categories_segments":[],"categories_sizes":[],"default_left":[1,1,1,1,1,1,1,1,1,1,1,1,1,0,1,1,1,1,1,1,0,1,1,1,0,1,1,1,0,1,0,1,1,1,0,0,0,0,0,0,1,0,1,1,1,0,0,0,0,1,1,0,0,1,1,0,0,0,1,0,0,1,0,0,0,0,0,0,1,1,1,0,0,0,0,0,0,0,0,0,0,0,0,0,0],"id":8,"left_children":[1,3,5,7,9,11,13,15,17,19,21,23,25,-1,27,29,31,33,35,37,-1,39,41,43,-1,45,47,49,-1,51,-1,53,55,57,-1,-1,-1,-1,-1,-1,59,-1,61,63,65,-1,-1,-1,-1,67,69,-1,-1,71,73,-1,-1,-1,75,-1,-1,77,-1,-1,-1,-1,-1,-1,79,81,83,-1,-1,-1,-1,-1,-1,-1,-1,-1,-1,-1,-1,-1,-1],"loss_changes":[3.010302E2,5.679602E1,3.9439133E1,2.4805054E1,1.3232019E1,2.0487675E1,1.7080757E1,2.2748169E1,1.0265639E1,3.95126E0,1.5124447E1,1.5331741E1,5.374262E0,0E0,4.8561554E0,1.5399701E1,1.9776794E1,4.060335E0,3.1215396E0,5.265665E-1,0E0,7.8736315E0,4.559532E0,6.383196E0,0E0,7.978691E0,4.15802E-4,5.2240524E0,0E0,2.7861223E0,0E0,9.637878E0,7.559205E0,5.2912235E-1,0E0,0E0,0E0,0E0,0E0,0E0,4.3071222E-1,0E0,7.343292E-4,4.4345455E0,3.1415462E0,0E0,0E0,0E0,0E0,3.0237427E0,6.213941E0,0E0,0E0,9.151611E0,5.818135E0,0E0,0E0,0E0,7.238388E-4,0E0,0E0,2.2888184E-5,0E0,0E0,0E0,0E0,0E0,0E0,3.145462E0,6.1863275E0,1.3256073E-4,0E0,0E0,0E0,0E0,0E0,0E0,0E0,0E0,0E0,0E0,0E0,0E0,0E0,0E0],"parents":[2147483647,0,0,1,1,2,2,3,3,4,4,5,5,6,6,7,7,8,8,9,9,10,10,11,11,12,12,14,14,15,15,16,16,17,17,18,18,19,19,21,21,22,22,23,23,25,25,26,26,27,27,29,29,31,31,32,32,33,33,40,40,42,42,43,43,44,44,49,49,50,50,53,53,54,54,58,58,61,61,68,68,69,69,70,70],"right_children":[2,4,6,8,10,12,14,16,18,20,22,24,26,-1,28,30,32,34,36,38,-1,40,42,44,-1,46,48,50,-1,52,-1,54,56,58,-1,-1,-1,-1,-1,-1,60,-1,62,64,66,-1,-1,-1,-1,68,70,-1,-1,72,74,-1,-1,-1,76,-1,-1,78,-1,-1,-1,-1,-1,-1,80,82,84,-1,-1,-1,-1,-1,-1,-1,-1,-1,-1,-1,-1,-1,-1],"split_conditions":[8.110975E-1,5.832491E-1,7.8692013E-1,8.7591445E-1,5.7024634E-1,6.2408847E-1,6.030561E-1,1.862762E-1,4.8793843E-1,6.50424E-1,8.224334E-1,7.249282E-1,6.072569E-1,3.2356463E-2,9.989054E-1,8.767812E-1,9.271878E-1,7.023952E-1,1.4975911E-1,4.0258422E-1,-7.023776E-3,6.363162E-1,2.4138507E-2,7.043437E-1,3.235647E-2,4.4028085E-1,5.983162E-1,9.616515E-1,7.1766465E-3,8.9545465E-1,3.235647E-2,9.2459744E-1,7.961711E-1,4.8369282E-1,7.0574246E-3,-0E0,3.235647E-2,1.9264147E-2,3.299043E-2,-1.6315015E-2,1.3438617E-1,-7.0427115E-5,4.5278853E-1,5.6419516E-1,9.3211114E-2,3.2796465E-2,-1.6774885E-2,3.2710947E-2,3.2356486E-2,1.7150594E-1,9.4461536E-1,-3.2356482E-2,-0E0,9.478993E-1,2.3775536E-1,1.9579869E-2,-3.2447297E-2,-1.9211601E-2,1.5287489E-1,1.9518495E-2,3.2553017E-2,9.432026E-1,-3.2829624E-2,1.6524464E-2,-2.2038342E-2,-0E0,-3.235649E-2,-0E0,9.991269E-1,4.8112565E-1,9.895394E-1,2.7223468E-2,-9.1589065E-3,-3.2356456E-2,1.939792E-2,-3.243653E-2,-3.3018123E-2,-3.235633E-2,-3.2454785E-2,-3.1079495E-2,-1.0405986E-2,-1.8042976E-2,2.4459306E-2,-3.2695137E-2,-3.244822E-2],"split_indices":[103,122,67,49,30,98,15,199,92,88,41,36,24,0,139,20,95,81,29,50,0,20,2,15,0,18,17,71,0,14,0,66,18,103,0,0,0,0,0,0,18,0,19,109,4,0,0,0,0,2,66,0,0,21,57,0,0,0,59,0,0,0,0,0,0,0,0,0,68,78,2,0,0,0,0,0,0,0,0,0,0,0,0,0,0],"split_type":[0,0,0,0,0,0,0,0,0,0,0,0,0,0,0,0,0,0,0,0,0,0,0,0,0,0,0,0,0,0,0,0,0,0,0,0,0,0,0,0,0,0,0,0,0,0,0,0,0,0,0,0,0,0,0,0,0,0,0,0,0,0,0,0,0,0,0,0,0,0,0,0,0,0,0,0,0,0,0,0,0,0,0,0,0],"sum_hessian":[4.0535083E2,3.347204E2,7.0630424E1,3.1599747E2,1.8722927E1,2.2213306E1,4.8417118E1,3.0750848E2,8.488966E0,4.7457294E0,1.3977199E1,1.2728629E1,9.484678E0,1.496613E0,4.6920506E1,6.238146E0,3.0127036E2,4.993482E0,3.495484E0,3.4964504E0,1.2492789E0,4.993525E0,8.983674E0,1.0733145E1,1.9954841E0,3.7471082E0,5.73757E0,4.5672222E1,1.2482828E0,4.2426615E0,1.9954841E0,2.9777722E2,3.493114E0,3.7439783E0,1.2495039E0,1.5E0,1.9954841E0,1.2484618E0,2.2479885E0,1.9981462E0,2.9953787E0,1.4989934E0,7.4846807E0,3.4972572E0,7.235888E0,1.7471776E0,1.9999307E0,1.2477305E0,4.489839E0,3.893046E1,6.741761E0,3.2426617E0,1E0,2.9528186E2,2.4953718E0,1.247748E0,2.2453659E0,1.2476449E0,2.4963334E0,1.2484283E0,1.7469504E0,6.236196E0,1.2484844E0,1.9986429E0,1.4986144E0,1E0,6.235888E0,1E0,3.793046E1,3.9964747E0,2.7452865E0,2.9328268E2,1.9991686E0,1.2471776E0,1.2481942E0,1.2474627E0,1.2488705E0,4.988708E0,1.2474883E0,3.568367E1,2.24679E0,2.2477188E0,1.748756E0,1.2482642E0,1.4970223E0],"tree_param":{"num_deleted":"0","num_feature":"200","num_nodes":"85","size_leaf_vector":"0"}},{"base_weights":[9.96975E-1,1.4056607E0,-9.396177E-1,1.5091602E0,-3.4141326E-1,1.9918366E-1,-1.462062E0,1.5572048E0,-2.3172414E-1,1.1443145E0,-8.4553826E-1,-6.565728E-1,1.3476821E0,1.9698197E0,-1.5715845E0,-3.9394903E-1,1.5976169E0,-1.1818092E0,1.1254983E0,1.6994959E0,-4.1027346E-1,5.921339E-1,-1.6442676E0,-1.1451741E0,1.9698203E0,1.7155988E0,-2.813365E-1,-1.641429E0,-0E0,-1.5062504E0,1.9698203E0,1.62627E0,-8.442084E-1,4.0924245E-1,-1.7121855E0,-0E0,1.9698203E0,1.1793323E0,1.9884534E0,-9.8943514E-1,1.6465285E0,-2.0411138E-3,-1.9727279E0,-0E0,-1.6980668E0,1.9698213E0,-0E0,-1.7676008E0,-8.59183E-1,-1.9698209E0,-0E0,1.6433461E0,-3.9396307E-1,-1.9698204E0,1.1818906E0,-1.1818074E0,-1.9773779E0,1.9740987E0,1.1879369E0,-1.9704204E0,-1.9842616E0,-1.319966E0,9.8983616E-1,-0E0,-1.9698212E0,-1.8377979E0,-4.7773993E-1,-1.503591E0,5.100861E-1,1.6581019E0,-5.238802E-1,-1.9698193E0,1.1818906E0,-1.9698193E0,-1.9849334E0,-0E0,-1.8892146E0,-1.9726552E0,-3.7787732E-1],"categories":[],"categories_nodes":[],"categories_segments":[],"categories_sizes":[],"default_left":[1,1,1,1,1,1,1,1,1,1,1,1,1,0,1,1,1,1,1,1,0,1,1,1,0,1,0,1,0,1,0,1,1,0,1,0,0,0,0,0,1,0,1,1,1,0,0,1,1,0,0,1,1,0,0,0,1,0,0,0,0,0,0,0,0,1,0,1,0,0,0,0,0,0,0,0,0,0,0],"id":9,"left_children":[1,3,5,7,9,11,13,15,17,19,21,23,25,-1,27,29,31,33,35,37,-1,39,41,43,-1,45,-1,47,-1,49,-1,51,53,-1,55,-1,-1,-1,-1,-1,57,-1,59,61,63,-1,-1,65,67,-1,-1,69,71,-1,-1,-1,73,-1,-1,-1,-1,-1,-1,-1,-1,75,-1,77,-1,-1,-1,-1,-1,-1,-1,-1,-1,-1,-1],"loss_changes":[3.2127737E2,6.061017E1,4.208578E1,2.6467712E1,1.4041231E1,2.1864227E1,1.822625E1,2.42818E1,1.0958888E1,4.0991664E0,1.6073322E1,1.6358564E1,5.69281E0,0E0,5.1580734E0,1.6429407E1,2.1108765E1,4.2185903E0,3.3255444E0,5.260067E-1,0E0,8.336568E0,4.8536854E0,6.805274E0,0E0,3.3794231E0,0E0,4.4405746E0,0E0,2.967043E0,0E0,1.028717E1,7.980233E0,0E0,5.2734375E-1,0E0,0E0,0E0,0E0,0E0,4.5057392E-1,0E0,1.8882751E-4,4.5724144E0,3.3448887E0,0E0,0E0,3.5079498E0,5.5139284E0,0E0,0E0,9.45636E0,6.2068424E0,0E0,0E0,0E0,1.3065338E-4,0E0,0E0,0E0,0E0,0E0,0E0,0E0,0E0,3.4719925E0,0E0,2.243723E0,0E0,0E0,0E0,0E0,0E0,0E0,0E0,0E0,0E0,0E0,0E0],"parents":[2147483647,0,0,1,1,2,2,3,3,4,4,5,5,6,6,7,7,8,8,9,9,10,10,11,11,12,12,14,14,15,15,16,16,17,17,18,18,19,19,21,21,22,22,23,23,25,25,27,27,29,29,31,31,32,32,34,34,40,40,42,42,43,43,44,44,47,47,48,48,51,51,52,52,56,56,65,65,67,67],"right_children":[2,4,6,8,10,12,14,16,18,20,22,24,26,-1,28,30,32,34,36,38,-1,40,42,44,-1,46,-1,48,-1,50,-1,52,54,-1,56,-1,-1,-1,-1,-1,58,-1,60,62,64,-1,-1,66,68,-1,-1,70,72,-1,-1,-1,74,-1,-1,-1,-1,-1,-1,-1,-1,76,-1,78,-1,-1,-1,-1,-1,-1,-1,-1,-1,-1,-1],"split_conditions":[8.110975E-1,5.832491E-1,7.8692013E-1,8.7591445E-1,5.7024634E-1,6.2408847E-1,6.030561E-1,1.862762E-1,4.8793843E-1,6.50424E-1,8.224334E-1,7.249282E-1,7.1833444E-1,3.3382535E-2,9.9973446E-1,8.767812E-1,9.271878E-1,3.116328E-1,1.4975911E-1,3.9158738E-1,-6.952905E-3,6.363162E-1,2.4138507E-2,7.043437E-1,3.3382546E-2,8.0884165E-1,-4.76781E-3,9.616515E-1,-0E0,8.9545465E-1,3.3382546E-2,9.2459744E-1,3.2216418E-1,6.935432E-3,3.8795522E-1,-0E0,3.3382546E-2,1.9986145E-2,3.369832E-2,-1.6767958E-2,6.919397E-1,-3.4590757E-5,4.5278853E-1,2.7719223E-1,9.3211114E-2,3.3382565E-2,-0E0,7.4023104E-1,1.0731666E-1,-3.3382557E-2,-0E0,9.478993E-1,2.3775536E-1,-3.338255E-2,2.0029502E-2,-2.0028092E-2,1.780529E-2,3.345505E-2,2.0131968E-2,-3.3392716E-2,-3.3627283E-2,-2.2369465E-2,1.6774755E-2,-0E0,-3.338256E-2,1.7150594E-1,-8.096259E-3,9.474163E-1,8.64443E-3,2.8099855E-2,-8.878198E-3,-3.338253E-2,2.0029502E-2,-3.338253E-2,-3.3638667E-2,-0E0,-3.2016523E-2,-3.343059E-2,-6.4038876E-3],"split_indices":[103,122,67,49,30,98,15,199,92,88,41,36,130,0,17,20,95,199,29,8,0,20,2,15,0,30,0,71,0,14,0,66,1,0,24,0,0,0,0,0,14,0,19,34,4,0,0,18,199,0,0,21,57,0,0,0,8,0,0,0,0,0,0,0,0,2,0,20,0,0,0,0,0,0,0,0,0,0,0],"split_type":[0,0,0,0,0,0,0,0,0,0,0,0,0,0,0,0,0,0,0,0,0,0,0,0,0,0,0,0,0,0,0,0,0,0,0,0,0,0,0,0,0,0,0,0,0,0,0,0,0,0,0,0,0,0,0,0,0,0,0,0,0,0,0,0,0,0,0,0,0,0,0,0,0,0,0,0,0,0,0],"sum_hessian":[4.0593112E2,3.35194E2,7.073712E1,3.1644717E2,1.8746826E1,2.2246078E1,4.8491047E1,3.079485E2,8.498709E0,4.7494674E0,1.3997359E1,1.2747672E1,9.498407E0,1.4996479E0,4.6991398E1,6.2487674E0,3.016997E2,4.9991784E0,3.4995306E0,3.4996564E0,1.2498109E0,4.9991465E0,8.998213E0,1.0748141E1,1.9995306E0,7.7484155E0,1.7499915E0,4.4991867E1,1.9995306E0,4.249237E0,1.9995306E0,2.9820053E2,3.4991784E0,1.2498386E0,3.7493396E0,1.5E0,1.9995306E0,1.2498193E0,2.2498372E0,1.9996748E0,2.999472E0,1.4997605E0,7.498452E0,3.4996088E0,7.248533E0,6.7484155E0,1E0,3.874286E1,6.2490096E0,3.249237E0,1E0,2.957011E2,2.499413E0,2.2494717E0,1.2497066E0,1.2497946E0,2.499545E0,1.7496772E0,1.2497946E0,6.2485766E0,1.2498755E0,1.4997131E0,1.9998957E0,1E0,6.248533E0,3.674321E1,1.9996489E0,4.2492313E0,1.9997784E0,2.9370142E2,1.9997113E0,1.2497065E0,1.2497066E0,1.2497065E0,1.2498386E0,1E0,3.574321E1,2.9994233E0,1.2498078E0],"tree_param":{"num_deleted":"0","num_feature":"200","num_nodes":"79","size_leaf_vector":"0"}},{"base_weights":[9.517643E-1,1.3418832E0,-8.9712805E-1,1.440706E0,-3.2585356E-1,1.901622E-1,-1.3960003E0,1.4865955E0,-2.210802E-1,-8.092388E-1,1.0991048E0,-6.268157E-1,1.2866942E0,1.8825634E0,-1.5005301E0,-3.7627742E-1,1.5251595E0,-1.1274499E0,1.0739528E0,4.336064E-1,-1.3990476E0,1.633758E0,-3.9717665E-1,-1.0930539E0,1.882564E0,3.6857206E-1,1.8868475E0,-1.5679003E0,1.1787583E-2,-1.4382861E0,1.882564E0,1.5525118E0,-8.0600905E-1,-1.6439259E0,4.1842932E-1,-0E0,1.882564E0,-1.9308195E0,1.342256E0,-1.7813396E0,6.4008844E-1,1.9127668E0,1.131179E0,-1.9962565E-6,-1.6220268E0,1.9069946E0,-9.73925E-1,1.8824975E0,1.9024926E0,-1.6887282E0,-8.197983E-1,-1.8825645E0,-0E0,1.5688145E0,-3.7608987E-1,-1.8978939E0,1.1576246E0,-1.1134526E0,-1.9090085E0,1.9435012E0,3.8102806E-1,-1.8994032E0,-1.1441776E0,9.6915466E-1,-1.2926916E0,-0E0,-1.882565E0,-1.7565979E0,-4.4462606E-1,2.0744103E-1,-1.62814E0,1.6658379E0,1.245522E0,-1.882563E0,1.1268593E0,-1.8957698E0,-1.9222289E0,-1.8885304E0,-1.9373806E0,-0E0,-1.8059008E0,1.9883904E0,-1.2784781E0,-1.916872E0,-1.1080011E0],"categories":[],"categories_nodes":[],"categories_segments":[],"categories_sizes":[],"default_left":[1,1,1,1,1,1,1,1,1,1,1,1,1,0,1,1,1,1,1,1,1,1,0,1,0,1,1,1,0,1,0,1,1,1,0,0,0,0,1,1,0,0,0,1,1,0,0,0,0,1,1,0,0,1,1,0,0,0,1,0,0,1,0,0,0,0,0,1,0,1,1,0,0,0,0,0,0,0,0,0,0,0,0,0,0],"id":10,"left_children":[1,3,5,7,9,11,13,15,17,19,21,23,25,-1,27,29,31,33,35,37,39,41,-1,43,-1,45,47,49,-1,51,-1,53,55,57,-1,-1,-1,-1,59,61,-1,-1,-1,63,65,-1,-1,-1,-1,67,69,-1,-1,71,73,-1,-1,-1,75,-1,-1,77,-1,-1,-1,-1,-1,79,-1,81,83,-1,-1,-1,-1,-1,-1,-1,-1,-1,-1,-1,-1,-1,-1],"loss_changes":[2.920398E2,5.5102783E1,3.8265636E1,2.4070007E1,1.2882894E1,1.987684E1,1.65728E1,2.2065979E1,9.955929E0,1.02374525E1,3.7900105E0,1.4875803E1,5.219843E0,0E0,4.7747726E0,1.4944174E1,1.9187866E1,3.983851E0,3.0326772E0,9.656421E0,7.383152E0,4.894247E-1,0E0,6.199682E0,0E0,7.733861E0,3.7956238E-4,4.0554657E0,0E0,2.7076664E0,0E0,9.351868E0,7.482572E0,5.259285E-1,0E0,0E0,0E0,0E0,1.8764644E0,5.999756E-1,0E0,0E0,0E0,4.380867E0,3.0535717E0,0E0,0E0,0E0,0E0,3.2615128E0,5.1803975E0,0E0,0E0,9.251404E0,5.6449633E0,0E0,0E0,0E0,4.2533875E-4,0E0,0E0,2.7675629E-3,0E0,0E0,0E0,0E0,0E0,3.1722412E0,0E0,7.2704983E0,5.243254E-1,0E0,0E0,0E0,0E0,0E0,0E0,0E0,0E0,0E0,0E0,0E0,0E0,0E0,0E0],"parents":[2147483647,0,0,1,1,2,2,3,3,4,4,5,5,6,6,7,7,8,8,9,9,10,10,11,11,12,12,14,14,15,15,16,16,17,17,18,18,19,19,20,20,21,21,23,23,25,25,26,26,27,27,29,29,31,31,32,32,33,33,38,38,39,39,43,43,44,44,49,49,50,50,53,53,54,54,58,58,61,61,67,67,69,69,70,70],"right_children":[2,4,6,8,10,12,14,16,18,20,22,24,26,-1,28,30,32,34,36,38,40,42,-1,44,-1,46,48,50,-1,52,-1,54,56,58,-1,-1,-1,-1,60,62,-1,-1,-1,64,66,-1,-1,-1,-1,68,70,-1,-1,72,74,-1,-1,-1,76,-1,-1,78,-1,-1,-1,-1,-1,80,-1,82,84,-1,-1,-1,-1,-1,-1,-1,-1,-1,-1,-1,-1,-1,-1],"split_conditions":[8.110975E-1,5.832491E-1,7.8692013E-1,8.7591445E-1,5.8949447E-1,6.2408847E-1,6.030561E-1,1.862762E-1,4.8793843E-1,2.0699939E-1,7.7475905E-1,7.249282E-1,6.072569E-1,3.1903803E-2,9.9973446E-1,8.767812E-1,9.271878E-1,9.0474117E-1,1.4975911E-1,3.8808596E-1,2.219823E-2,6.557982E-1,-6.730953E-3,7.043437E-1,3.1903815E-2,4.4028085E-1,7.7382195E-1,9.616515E-1,1.9976418E-4,8.9545465E-1,3.1903815E-2,9.2459744E-1,2.1810528E-2,4.8148952E-2,7.091122E-3,-0E0,3.1903815E-2,-3.27216E-2,1.7449737E-1,9.909835E-1,1.084758E-2,3.2415662E-2,1.917009E-2,5.6419516E-1,9.3211114E-2,3.231784E-2,-1.6505107E-2,3.190269E-2,3.2241546E-2,7.4023104E-1,6.31428E-1,-3.1903822E-2,-0E0,6.030647E-1,2.3775536E-1,-3.216361E-2,1.9618265E-2,-1.8869681E-2,8.028577E-2,3.2936517E-2,6.457283E-3,2.5689864E-1,-1.9390378E-2,1.6424265E-2,-2.1907246E-2,-0E0,-3.1903833E-2,1.7150594E-1,-7.5350786E-3,2.3661421E-1,5.1172173E-1,2.8230956E-2,2.1107864E-2,-3.1903796E-2,1.9096887E-2,-3.2127615E-2,-3.2576017E-2,-3.2004926E-2,-3.283279E-2,-0E0,-3.0604603E-2,3.3697255E-2,-2.166637E-2,-3.248523E-2,-1.8777296E-2],"split_indices":[103,122,67,49,19,98,15,199,92,29,87,36,24,0,17,20,95,109,29,15,113,23,0,15,0,18,19,71,0,14,0,66,113,46,0,0,0,0,44,68,0,0,0,109,4,0,0,0,0,18,24,0,0,58,57,0,0,0,46,0,0,46,0,0,0,0,0,2,0,79,22,0,0,0,0,0,0,0,0,0,0,0,0,0,0],"split_type":[0,0,0,0,0,0,0,0,0,0,0,0,0,0,0,0,0,0,0,0,0,0,0,0,0,0,0,0,0,0,0,0,0,0,0,0,0,0,0,0,0,0,0,0,0,0,0,0,0,0,0,0,0,0,0,0,0,0,0,0,0,0,0,0,0,0,0,0,0,0,0,0,0,0,0,0,0,0,0,0,0,0,0,0,0],"sum_hessian":[4.0488666E2,3.3434036E2,7.054628E1,3.156371E2,1.8703283E1,2.2187876E1,4.8358406E1,3.0715512E2,8.481948E0,1.3965726E1,4.737558E0,1.27147045E1,9.473171E0,1.494163E0,4.6864246E1,6.229571E0,3.0092557E2,4.98973E0,3.4922175E0,4.494632E0,9.471094E0,3.4903748E0,1.2471831E0,1.07224865E1,1.9922174E0,3.7446158E0,5.7285557E0,4.486559E1,1.9986547E0,4.2373533E0,1.9922174E0,2.9743567E2,3.489904E0,3.7401524E0,1.2495776E0,1.5E0,1.9922174E0,1.247769E0,3.2468626E0,7.975811E0,1.4952831E0,2.2443874E0,1.2459874E0,3.4968073E0,7.2256794E0,1.7449771E0,1.9996388E0,4.4824677E0,1.2460879E0,3.862686E1,6.238729E0,3.2373533E0,1E0,2.9494247E2,2.493189E0,2.242793E0,1.2471108E0,1.2462385E0,2.493914E0,1.9974563E0,1.2494065E0,6.728957E0,1.2468536E0,1.9984928E0,1.4983145E0,1E0,6.2256794E0,3.662865E1,1.9982103E0,2.7473707E0,3.491358E0,2.2685965E2,6.808282E1,1.2451359E0,1.2480533E0,1.2462137E0,1.2477002E0,5.231318E0,1.4976395E0,1E0,3.562865E1,1.2496291E0,1.4977417E0,2.24509E0,1.2462678E0],"tree_param":{"num_deleted":"0","num_feature":"200","num_nodes":"85","size_leaf_vector":"0"}},{"base_weights":[9.972277E-1,1.4060172E0,-9.3985564E-1,1.509543E0,-3.414999E-1,1.992341E-1,-1.462432E0,1.5575997E0,-2.3178309E-1,1.1445386E0,-8.4572905E-1,-6.567391E-1,1.348024E0,1.970315E0,-1.5719823E0,-3.940486E-1,1.5980221E0,-1.1821091E0,1.1257851E0,1.6997395E0,-4.1010123E-1,5.922632E-1,-1.6446356E0,-1.1454645E0,1.9703156E0,1.7160319E0,-2.814092E-1,-1.6418445E0,-0E0,-1.5066319E0,1.9703156E0,1.6266825E0,-8.4442073E-1,4.0908748E-1,-1.7125329E0,-0E0,1.9703156E0,1.1796738E0,1.9886433E0,-9.896085E-1,1.6468592E0,-2.007123E-3,-1.9731756E0,-0E0,-1.6984956E0,1.9703166E0,-0E0,-1.7680278E0,-8.5952765E-1,-1.9703162E0,-0E0,1.643763E0,-3.940622E-1,-1.9703157E0,1.1821878E0,-1.1821073E0,-1.977749E0,1.9745243E0,1.1881346E0,-1.9709059E0,-1.9845207E0,-1.3201846E0,9.9000454E-1,-0E0,-1.9703165E0,-1.838228E0,-4.7810945E-1,-1.5040166E0,5.0991714E-1,1.6585189E0,-5.23481E-1,-1.9703146E0,1.1821878E0,-1.9703146E0,-1.9851803E0,-0E0,-1.8896563E0,-1.9731046E0,-3.7824497E-1],"categories":[],"categories_nodes":[],"categories_segments":[],"categories_sizes":[],"default_left":[1,1,1,1,1,1,1,1,1,1,1,1,1,0,1,1,1,1,1,1,0,1,1,1,0,1,0,1,0,1,0,1,1,0,1,0,0,0,0,0,1,0,1,1,1,0,0,1,1,0,0,1,1,0,0,0,1,0,0,0,0,0,0,0,0,1,0,1,0,0,0,0,0,0,0,0,0,0,0],"id":11,"left_children":[1,3,5,7,9,11,13,15,17,19,21,23,25,-1,27,29,31,33,35,37,-1,39,41,43,-1,45,-1,47,-1,49,-1,51,53,-1,55,-1,-1,-1,-1,-1,57,-1,59,61,63,-1,-1,65,67,-1,-1,69,71,-1,-1,-1,73,-1,-1,-1,-1,-1,-1,-1,-1,75,-1,77,-1,-1,-1,-1,-1,-1,-1,-1,-1,-1,-1],"loss_changes":[3.2144214E2,6.0641235E1,4.2107338E1,2.6481262E1,1.404715E1,2.1875443E1,1.8235588E1,2.429425E1,1.0964515E1,4.099463E0,1.608057E1,1.6366938E1,5.6957035E0,0E0,5.1607285E0,1.6437813E1,2.1119629E1,4.219376E0,3.3272276E0,5.2581215E-1,0E0,8.339804E0,4.856085E0,6.8087425E0,0E0,3.3811245E0,0E0,4.4414062E0,0E0,2.9685411E0,0E0,1.029248E1,7.9843087E0,0E0,5.27441E-1,0E0,0E0,0E0,0E0,0E0,4.5083714E-1,0E0,1.8310547E-4,4.5739665E0,3.3465729E0,0E0,0E0,3.508278E0,5.5153594E0,0E0,0E0,9.456482E0,6.210012E0,0E0,0E0,0E0,1.2588501E-4,0E0,0E0,0E0,0E0,0E0,0E0,0E0,0E0,3.4736176E0,0E0,2.2439651E0,0E0,0E0,0E0,0E0,0E0,0E0,0E0,0E0,0E0,0E0,0E0],"parents":[2147483647,0,0,1,1,2,2,3,3,4,4,5,5,6,6,7,7,8,8,9,9,10,10,11,11,12,12,14,14,15,15,16,16,17,17,18,18,19,19,21,21,22,22,23,23,25,25,27,27,29,29,31,31,32,32,34,34,40,40,42,42,43,43,44,44,47,47,48,48,51,51,52,52,56,56,65,65,67,67],"right_children":[2,4,6,8,10,12,14,16,18,20,22,24,26,-1,28,30,32,34,36,38,-1,40,42,44,-1,46,-1,48,-1,50,-1,52,54,-1,56,-1,-1,-1,-1,-1,58,-1,60,62,64,-1,-1,66,68,-1,-1,70,72,-1,-1,-1,74,-1,-1,-1,-1,-1,-1,-1,-1,76,-1,78,-1,-1,-1,-1,-1,-1,-1,-1,-1,-1,-1],"split_conditions":[8.110975E-1,5.832491E-1,7.8692013E-1,8.7591445E-1,5.7024634E-1,6.2408847E-1,6.030561E-1,1.862762E-1,4.8793843E-1,6.50424E-1,8.224334E-1,7.249282E-1,7.1833444E-1,3.339093E-2,9.9973446E-1,8.767812E-1,9.271878E-1,3.116328E-1,1.4975911E-1,3.9158738E-1,-6.9499863E-3,6.363162E-1,2.4138507E-2,7.043437E-1,3.339094E-2,8.0884165E-1,-4.769042E-3,9.616515E-1,-0E0,8.9545465E-1,3.339094E-2,9.2459744E-1,3.2216418E-1,6.932806E-3,3.8795522E-1,-0E0,3.339094E-2,1.9991932E-2,3.370154E-2,-1.6770897E-2,6.919397E-1,-3.4014716E-5,4.5278853E-1,2.7719223E-1,9.3211114E-2,3.3390958E-2,-0E0,7.4023104E-1,1.0731666E-1,-3.339095E-2,-0E0,9.478993E-1,2.3775536E-1,-3.3390943E-2,2.0034539E-2,-2.0033175E-2,1.780529E-2,3.3462264E-2,2.0135317E-2,-3.3400945E-2,-3.3631675E-2,-2.237317E-2,1.6777609E-2,-0E0,-3.3390958E-2,1.7150594E-1,-8.102521E-3,9.474163E-1,8.641566E-3,2.8106922E-2,-8.871433E-3,-3.3390924E-2,2.0034539E-2,-3.3390924E-2,-3.364285E-2,-0E0,-3.2024007E-2,-3.3438206E-2,-6.4101177E-3],"split_indices":[103,122,67,49,30,98,15,199,92,88,41,36,130,0,17,20,95,199,29,8,0,20,2,15,0,30,0,71,0,14,0,66,1,0,24,0,0,0,0,0,14,0,19,34,4,0,0,18,199,0,0,21,57,0,0,0,8,0,0,0,0,0,0,0,0,2,0,20,0,0,0,0,0,0,0,0,0,0,0],"split_type":[0,0,0,0,0,0,0,0,0,0,0,0,0,0,0,0,0,0,0,0,0,0,0,0,0,0,0,0,0,0,0,0,0,0,0,0,0,0,0,0,0,0,0,0,0,0,0,0,0,0,0,0,0,0,0,0,0,0,0,0,0,0,0,0,0,0,0,0,0,0,0,0,0,0,0,0,0,0,0],"sum_hessian":[4.059334E2,3.3519586E2,7.073756E1,3.1644894E2,1.8746931E1,2.2246208E1,4.8491344E1,3.079502E2,8.498752E0,4.749485E0,1.3997447E1,1.2747749E1,9.49846E0,1.4996595E0,4.6991688E1,6.2488084E0,3.017014E2,4.9992056E0,3.499546E0,3.499668E0,1.2498171E0,4.999175E0,8.998272E0,1.0748203E1,1.999546E0,7.748468E0,1.7499919E0,4.499214E1,1.999546E0,4.2492623E0,1.999546E0,2.9820218E2,3.4992056E0,1.249844E0,3.7493615E0,1.5E0,1.999546E0,1.2498252E0,2.2498426E0,1.9996856E0,2.9994893E0,1.4997685E0,7.4985037E0,3.4996219E0,7.2485814E0,6.748468E0,1E0,3.87431E1,6.2490425E0,3.2492623E0,1E0,2.9570273E2,2.4994326E0,2.2494893E0,1.2497163E0,1.2498014E0,2.49956E0,1.7496879E0,1.2498014E0,6.248624E0,1.2498797E0,1.4997226E0,1.9998991E0,1E0,6.2485814E0,3.6743435E1,1.9996607E0,4.249257E0,1.9997859E0,2.9370303E2,1.9997208E0,1.2497163E0,1.2497163E0,1.2497163E0,1.249844E0,1E0,3.5743435E1,2.9994426E0,1.2498143E0],"tree_param":{"num_deleted":"0","num_feature":"200","num_nodes":"79","size_leaf_vector":"0"}},{"base_weights":[9.530254E-1,1.343659E0,-8.983201E-1,1.4426162E0,-3.262743E-1,1.9041853E-1,-1.3978415E0,1.4885641E0,-2.213868E-1,1.0966544E0,-8.0959415E-1,-6.276791E-1,1.2883925E0,1.8849611E0,-1.5025115E0,-3.7676665E-1,1.52718E0,-1.1290396E0,1.075398E0,1.6398915E0,-4.230696E-1,5.668745E-1,-1.5750588E0,-1.0945796E0,1.8849616E0,3.6925533E-1,1.8891495E0,-1.5698866E0,1.1591578E-2,-1.4401747E0,1.8849616E0,1.5545642E0,-8.0726135E-1,4.179955E-1,-1.6456933E0,-0E0,1.8849616E0,1.1188769E0,1.9291607E0,-9.489845E-1,1.5787572E0,-3.9517283E-3,-1.8901666E0,-6.6592183E-6,-1.6241301E0,1.908853E0,-9.744226E-1,1.8848959E0,1.904449E0,-1.6919904E0,-8.136805E-1,-1.884962E0,-0E0,1.5708854E0,-3.7665963E-1,-1.8948346E0,1.1493057E0,-1.907775E0,-1.1217079E0,1.8988446E0,1.1310424E0,-1.886031E0,-1.9108149E0,-1.2852342E0,9.630283E-1,-0E0,-1.8849624E0,-1.7607071E0,-4.3130597E-1,-1.4397777E0,5.142277E-1,1.6666371E0,1.2519234E0,-1.8849607E0,1.1289294E0,-1.8893193E0,-1.9261974E0,-1.8903698E0,-1.8849454E0,-0E0,-1.8101128E0,-1.9027548E0,-3.2943562E-1],"categories":[],"categories_nodes":[],"categories_segments":[],"categories_sizes":[],"default_left":[1,1,1,1,1,1,1,1,1,1,1,1,1,0,1,1,1,1,1,1,0,1,1,1,0,1,1,1,0,1,0,1,1,0,1,0,0,0,0,0,1,0,1,1,1,0,0,0,0,1,1,0,0,1,1,0,0,1,0,0,0,1,0,0,0,0,0,1,0,1,0,0,0,0,0,0,0,0,0,0,0,0,0],"id":12,"left_children":[1,3,5,7,9,11,13,15,17,19,21,23,25,-1,27,29,31,33,35,37,-1,39,41,43,-1,45,47,49,-1,51,-1,53,55,-1,57,-1,-1,-1,-1,-1,59,-1,61,63,65,-1,-1,-1,-1,67,69,-1,-1,71,73,-1,-1,75,-1,-1,-1,77,-1,-1,-1,-1,-1,79,-1,81,-1,-1,-1,-1,-1,-1,-1,-1,-1,-1,-1,-1,-1],"loss_changes":[2.9284726E2,5.5256897E1,3.8370705E1,2.4135681E1,1.2864824E1,1.993204E1,1.6618492E1,2.212738E1,9.984093E0,3.915576E0,1.4712323E1,1.4917271E1,5.2315035E0,0E0,4.7813187E0,1.4985095E1,1.923944E1,3.9883323E0,3.0406256E0,5.2657413E-1,0E0,7.6541657E0,4.4423695E0,6.2153788E0,0E0,7.7470484E0,3.6239624E-4,4.143364E0,0E0,2.714674E0,0E0,9.376282E0,7.4253187E0,0E0,5.1368237E-1,0E0,0E0,0E0,0E0,0E0,4.2884064E-1,0E0,6.2561035E-4,4.3273954E0,3.0614243E0,0E0,0E0,0E0,0E0,3.3469315E0,5.1865325E0,0E0,0E0,9.009033E0,5.661151E0,0E0,0E0,8.363724E-4,0E0,0E0,0E0,1.9073486E-5,0E0,0E0,0E0,0E0,0E0,3.1870804E0,0E0,2.1793365E0,0E0,0E0,0E0,0E0,0E0,0E0,0E0,0E0,0E0,0E0,0E0,0E0,0E0],"parents":[2147483647,0,0,1,1,2,2,3,3,4,4,5,5,6,6,7,7,8,8,9,9,10,10,11,11,12,12,14,14,15,15,16,16,17,17,18,18,19,19,21,21,22,22,23,23,25,25,26,26,27,27,29,29,31,31,32,32,34,34,40,40,42,42,43,43,44,44,49,49,50,50,53,53,54,54,57,57,61,61,67,67,69,69],"right_children":[2,4,6,8,10,12,14,16,18,20,22,24,26,-1,28,30,32,34,36,38,-1,40,42,44,-1,46,48,50,-1,52,-1,54,56,-1,58,-1,-1,-1,-1,-1,60,-1,62,64,66,-1,-1,-1,-1,68,70,-1,-1,72,74,-1,-1,76,-1,-1,-1,78,-1,-1,-1,-1,-1,80,-1,82,-1,-1,-1,-1,-1,-1,-1,-1,-1,-1,-1,-1,-1],"split_conditions":[8.110975E-1,5.832491E-1,7.8692013E-1,8.7591445E-1,5.7024634E-1,6.2408847E-1,6.030561E-1,1.862762E-1,4.8793843E-1,1.7850567E-1,8.224334E-1,7.249282E-1,6.072569E-1,3.194444E-2,9.9973446E-1,8.767812E-1,9.271878E-1,3.116328E-1,1.4975911E-1,3.132452E-1,-7.1697608E-3,6.363162E-1,2.4138507E-2,7.043437E-1,3.1944446E-2,4.4028085E-1,7.7382195E-1,9.616515E-1,1.9644249E-4,8.9545465E-1,3.1944446E-2,9.2459744E-1,2.1810528E-2,7.0837704E-3,7.603816E-1,-0E0,3.1944446E-2,1.8961608E-2,3.269349E-2,-1.6082441E-2,4.377656E-1,-6.6969944E-5,4.5278853E-1,2.7719223E-1,9.3211114E-2,3.2349337E-2,-1.6513541E-2,3.1943332E-2,3.22747E-2,7.4023104E-1,1.0731666E-1,-3.1944454E-2,-0E0,6.030647E-1,2.3775536E-1,-3.2111764E-2,1.9477285E-2,2.3320045E-1,-1.9009585E-2,3.217972E-2,1.9167777E-2,1.14841074E-1,-3.238258E-2,-2.1780865E-2,1.6320443E-2,-0E0,-3.194446E-2,1.7150594E-1,-7.3093427E-3,5.9440124E-1,8.714617E-3,2.8244501E-2,2.1216348E-2,-3.194443E-2,1.9131968E-2,-3.2018296E-2,-3.264327E-2,-3.20361E-2,-3.194417E-2,-0E0,-3.0675985E-2,-3.2245986E-2,-5.582946E-3],"split_indices":[103,122,67,49,30,98,15,199,92,44,41,36,24,0,17,20,95,199,29,27,0,20,2,15,0,18,19,71,0,14,0,66,113,0,29,0,0,0,0,0,17,0,19,34,4,0,0,0,0,18,199,0,0,58,57,0,0,67,0,0,0,2,0,0,0,0,0,2,0,23,0,0,0,0,0,0,0,0,0,0,0,0,0],"split_type":[0,0,0,0,0,0,0,0,0,0,0,0,0,0,0,0,0,0,0,0,0,0,0,0,0,0,0,0,0,0,0,0,0,0,0,0,0,0,0,0,0,0,0,0,0,0,0,0,0,0,0,0,0,0,0,0,0,0,0,0,0,0,0,0,0,0,0,0,0,0,0,0,0,0,0,0,0,0,0,0,0,0,0],"sum_hessian":[4.049338E2,3.3437973E2,7.055407E1,3.1567352E2,1.8706223E1,2.2189856E1,4.8364216E1,3.0719107E2,8.482444E0,4.7428684E0,1.3963354E1,1.2715538E1,9.474318E0,1.4944133E0,4.68698E1,6.2304463E0,3.0096063E2,4.9898925E0,3.4925508E0,3.4939358E0,1.2489324E0,4.9900947E0,8.973259E0,1.0722987E1,1.992551E0,3.7448435E0,5.7294745E0,4.4873028E1,1.9967723E0,4.2378955E0,1.992551E0,2.9747113E2,3.4894874E0,1.2492404E0,3.740652E0,1.5E0,1.992551E0,1.24733E0,2.2466059E0,1.9975884E0,2.9925065E0,1.499059E0,7.4742E0,3.4962654E0,7.226722E0,1.745191E0,1.9996526E0,4.483219E0,1.2462552E0,3.8634716E1,6.2383113E0,3.2378953E0,1E0,2.949782E2,2.49293E0,2.242807E0,1.2466805E0,2.4934819E0,1.2471702E0,1.7449629E0,1.2475437E0,6.2271166E0,1.2470834E0,1.4976137E0,1.9986516E0,1E0,6.226722E0,3.6637688E1,1.9970319E0,4.2394495E0,1.9988614E0,2.2687181E2,6.81064E1,1.2453444E0,1.2475855E0,1.2456974E0,1.2477845E0,1.2457447E0,4.981372E0,1E0,3.5637688E1,2.9919147E0,1.247535E0],"tree_param":{"num_deleted":"0","num_feature":"200","num_nodes":"83","size_leaf_vector":"0"}},{"base_weights":[9.5428175E-1,1.3454158E0,-8.99536E-1,1.4445019E0,-3.266789E-1,1.9066592E-1,-1.399756E0,1.4905082E0,-2.2170067E-1,-8.1152105E-1,1.1025581E0,-6.28444E-1,1.2901741E0,1.8872958E0,-1.5045735E0,-3.7724295E-1,1.5291747E0,-1.1305913E0,1.0768036E0,4.3159705E-1,-1.4012498E0,-3.8900018E-1,1.6352941E0,-1.0959136E0,1.8872964E0,3.7249097E-1,1.8898152E0,-1.5581064E0,4.519672E-1,-1.4420127E0,1.8872964E0,1.5566025E0,-8.0795246E-1,-1.6479056E0,4.186232E-1,-0E0,1.8872964E0,-1.9325761E0,1.3402417E0,-1.7830895E0,6.335312E-1,1.9215567E0,1.1195767E0,9.469794E-6,-1.6261777E0,1.9017024E0,-9.6222967E-1,1.8993255E0,1.8871713E0,-1.6950715E0,-7.67903E-1,-1.8872968E0,-0E0,1.5729487E0,-3.7701502E-1,1.1680552E0,-1.9068986E0,-1.1145905E0,-1.9144124E0,1.9336662E0,3.9193246E-1,-1.147027E0,-1.9009671E0,-9.81594E-1,1.3087281E0,-0E0,-1.8872972E0,-0E0,-1.7398152E0,1.8309558E-2,-1.9130934E0,1.5927255E0,3.2944985E-2,-1.8872952E0,1.1298103E0,-1.9000219E0,-1.9287834E0,-1.9260226E0,-1.8921834E0,-1.8119739E0,-5.9471446E-1,-1.0766807E0,1.4256605E0,-1.9357016E0,-1.8942192E0],"categories":[],"categories_nodes":[],"categories_segments":[],"categories_sizes":[],"default_left":[1,1,1,1,1,1,1,1,1,1,1,1,1,0,1,1,1,1,1,1,1,0,1,1,0,1,1,1,0,1,0,1,1,1,0,0,0,0,1,1,0,0,0,1,1,0,0,0,0,1,1,0,0,1,1,0,0,0,1,0,0,0,1,0,0,0,0,0,1,1,1,0,0,0,0,0,0,0,0,0,0,0,0,0,0],"id":13,"left_children":[1,3,5,7,9,11,13,15,17,19,21,23,25,-1,27,29,31,33,35,37,39,-1,41,43,-1,45,47,49,-1,51,-1,53,55,57,-1,-1,-1,-1,59,61,-1,-1,-1,63,65,-1,-1,-1,-1,67,69,-1,-1,71,73,-1,-1,-1,75,-1,-1,-1,77,-1,-1,-1,-1,-1,79,81,83,-1,-1,-1,-1,-1,-1,-1,-1,-1,-1,-1,-1,-1,-1],"loss_changes":[2.936464E2,5.5407166E1,3.8478542E1,2.420111E1,1.2964221E1,1.9986647E1,1.6664246E1,2.2187805E1,1.0011651E1,1.0241202E1,3.765606E0,1.4956444E1,5.213585E0,0E0,4.9093475E0,1.5024937E1,1.9294617E1,3.999269E0,3.0483713E0,9.655736E0,7.3615913E0,0E0,5.154867E-1,6.23252E0,0E0,7.642303E0,1.335144E-4,4.9378433E0,0E0,2.721506E0,0E0,9.40332E0,7.581741E0,5.31703E-1,0E0,0E0,0E0,0E0,1.8271894E0,5.9814453E-1,0E0,0E0,0E0,4.492572E0,3.0690804E0,0E0,0E0,0E0,0E0,2.949112E0,6.068186E0,0E0,0E0,8.984985E0,5.67553E0,0E0,0E0,0E0,5.044937E-4,0E0,0E0,0E0,1.4686584E-3,0E0,0E0,0E0,0E0,0E0,3.1303024E0,6.1582603E0,1.1587143E-3,0E0,0E0,0E0,0E0,0E0,0E0,0E0,0E0,0E0,0E0,0E0,0E0,0E0,0E0],"parents":[2147483647,0,0,1,1,2,2,3,3,4,4,5,5,6,6,7,7,8,8,9,9,10,10,11,11,12,12,14,14,15,15,16,16,17,17,18,18,19,19,20,20,22,22,23,23,25,25,26,26,27,27,29,29,31,31,32,32,33,33,38,38,39,39,43,43,44,44,49,49,50,50,53,53,54,54,58,58,62,62,68,68,69,69,70,70],"right_children":[2,4,6,8,10,12,14,16,18,20,22,24,26,-1,28,30,32,34,36,38,40,-1,42,44,-1,46,48,50,-1,52,-1,54,56,58,-1,-1,-1,-1,60,62,-1,-1,-1,64,66,-1,-1,-1,-1,68,70,-1,-1,72,74,-1,-1,-1,76,-1,-1,-1,78,-1,-1,-1,-1,-1,80,82,84,-1,-1,-1,-1,-1,-1,-1,-1,-1,-1,-1,-1,-1,-1],"split_conditions":[8.110975E-1,5.832491E-1,7.8692013E-1,8.7591445E-1,5.8949447E-1,6.2408847E-1,6.030561E-1,1.862762E-1,4.8793843E-1,2.0699939E-1,7.19545E-1,7.249282E-1,6.072569E-1,3.1984005E-2,9.989054E-1,8.767812E-1,9.271878E-1,7.023952E-1,1.4975911E-1,3.8808596E-1,2.219823E-2,-6.5923864E-3,7.1618605E-1,7.043437E-1,3.1984016E-2,4.4028085E-1,5.983162E-1,9.616515E-1,7.659489E-3,8.9545465E-1,3.1984016E-2,9.2459744E-1,7.961711E-1,4.8369282E-1,7.094408E-3,-0E0,3.1984016E-2,-3.275137E-2,1.7449737E-1,3.788183E-2,1.0736454E-2,3.2564625E-2,1.8973468E-2,6.7139006E-1,9.3211114E-2,3.2228153E-2,-1.6306907E-2,3.218787E-2,3.1981893E-2,1.7150594E-1,9.4461536E-1,-3.198402E-2,-0E0,7.51317E-1,2.3775536E-1,1.9795032E-2,-3.231621E-2,-1.8888967E-2,3.5125592E-1,3.2769844E-2,6.64208E-3,-1.943867E-2,2.9350507E-1,-1.6635075E-2,2.2179017E-2,-0E0,-3.1984027E-2,-0E0,9.991269E-1,4.8112565E-1,9.753134E-1,2.699192E-2,5.583187E-4,-3.1983994E-2,1.9146897E-2,-3.2199673E-2,-3.2687094E-2,-3.264031E-2,-3.2066833E-2,-3.0707525E-2,-1.0078627E-2,-1.824651E-2,2.416067E-2,-3.2804336E-2,-3.2101333E-2],"split_indices":[103,122,67,49,19,98,15,199,92,29,39,36,24,0,139,20,95,81,29,15,113,0,0,15,0,18,17,71,0,14,0,66,18,103,0,0,0,0,44,7,0,0,0,17,4,0,0,0,0,2,66,0,0,90,57,0,0,0,18,0,0,0,17,0,0,0,0,0,68,78,12,0,0,0,0,0,0,0,0,0,0,0,0,0,0],"split_type":[0,0,0,0,0,0,0,0,0,0,0,0,0,0,0,0,0,0,0,0,0,0,0,0,0,0,0,0,0,0,0,0,0,0,0,0,0,0,0,0,0,0,0,0,0,0,0,0,0,0,0,0,0,0,0,0,0,0,0,0,0,0,0,0,0,0,0,0,0,0,0,0,0,0,0,0,0,0,0,0,0,0,0,0,0],"sum_hessian":[4.0497855E2,3.3441983E2,7.055871E1,3.157112E2,1.8708624E1,2.2192144E1,4.8366566E1,3.0722818E2,8.483025E0,1.3969673E1,4.7389507E0,1.2717716E1,9.474427E0,1.494651E0,4.6871914E1,6.2312784E0,3.0099692E2,4.9901567E0,3.492868E0,4.494818E0,9.474854E0,1.2471539E0,3.4917967E0,1.0724849E1,1.992868E0,3.7442617E0,5.730166E0,4.5623608E1,1.248308E0,4.2384105E0,1.992868E0,2.975055E2,3.4914336E0,3.740972E0,1.2491846E0,1.5E0,1.992868E0,1.2479122E0,3.246906E0,7.9777746E0,1.4970797E0,2.2454138E0,1.246383E0,3.497136E0,7.227712E0,1.7449948E0,1.9992671E0,1.246251E0,4.483915E0,3.8883904E1,6.739702E0,3.2384105E0,1E0,2.9501154E2,2.493939E0,1.2477893E0,2.2436442E0,1.2465245E0,2.4944475E0,1.9971462E0,1.2497598E0,1.2473187E0,6.730456E0,1.9983058E0,1.4988303E0,1E0,6.227712E0,1E0,3.7883904E1,3.996183E0,2.7435193E0,2.9127103E2,3.7405086E0,1.2455425E0,1.2483964E0,1.246489E0,1.2479585E0,1.746936E0,4.98352E0,3.563816E1,2.245745E0,2.2475069E0,1.7486761E0,1.2482126E0,1.4953067E0],"tree_param":{"num_deleted":"0","num_feature":"200","num_nodes":"85","size_leaf_vector":"0"}},{"base_weights":[9.8430645E-1,1.3877895E0,-9.276992E-1,1.4899772E0,-3.3704245E-1,1.9665296E-1,-1.4435189E0,1.5374151E0,-2.2876357E-1,1.1291867E0,-8.346319E-1,-6.4822525E-1,1.3305815E0,1.9450817E0,-1.5516449E0,-3.8896662E-1,1.577311E0,-1.1666611E0,1.1110957E0,1.6790974E0,-4.1026735E-1,5.844027E-1,-1.6231493E0,-1.1305823E0,1.9450822E0,3.867863E-1,1.9463654E0,-1.6210719E0,1.0382168E-2,-1.4871371E0,1.9450822E0,1.6055992E0,-8.334978E-1,4.139334E-1,-1.6936934E0,-0E0,1.9450822E0,1.1617681E0,1.9664625E0,-9.7613215E-1,1.6250486E0,-1.8131525E-3,-1.9476098E0,2.1227281E-6,-1.6766112E0,1.9524423E0,-9.823962E-1,1.9449953E0,1.9512945E0,-1.7455983E0,-8.491616E-1,-1.9450828E0,-0E0,1.6224582E0,-3.8893312E-1,-1.9498172E0,1.1755918E0,-1.9583492E0,-1.164372E0,1.9533134E0,1.1655202E0,-1.9456043E0,-1.9576321E0,-1.3187271E0,9.8884684E-1,-0E0,-1.945083E0,-1.8153913E0,-4.6341828E-1,-1.4894847E0,5.1109755E-1,1.7194791E0,1.2991017E0,-1.9450812E0,1.1666223E0,-1.9471902E0,-1.969501E0,-0E0,-1.8662052E0,-1.9545004E0,-3.7365636E-1],"categories":[],"categories_nodes":[],"categories_segments":[],"categories_sizes":[],"default_left":[1,1,1,1,1,1,1,1,1,1,1,1,1,0,1,1,1,1,1,1,0,1,1,1,0,1,1,1,0,1,0,1,1,0,1,0,0,0,0,0,1,0,1,1,1,0,0,0,0,1,1,0,0,1,1,0,0,1,0,0,0,0,0,0,0,0,0,1,0,1,0,0,0,0,0,0,0,0,0,0,0],"id":14,"left_children":[1,3,5,7,9,11,13,15,17,19,21,23,25,-1,27,29,31,33,35,37,-1,39,41,43,-1,45,47,49,-1,51,-1,53,55,-1,57,-1,-1,-1,-1,-1,59,-1,61,63,65,-1,-1,-1,-1,67,69,-1,-1,71,73,-1,-1,75,-1,-1,-1,-1,-1,-1,-1,-1,-1,77,-1,79,-1,-1,-1,-1,-1,-1,-1,-1,-1,-1,-1],"loss_changes":[3.1303668E2,5.9057312E1,4.1007538E1,2.5790955E1,1.3672757E1,2.130354E1,1.7759361E1,2.3657898E1,1.0676696E1,4.01987E0,1.5656256E1,1.5939575E1,5.51783E0,0E0,5.0939255E0,1.6009167E1,2.0567017E1,4.163248E0,3.2417583E0,5.2011395E-1,0E0,8.116343E0,4.731514E0,6.6326675E0,0E0,8.036033E0,2.670288E-5,4.3229065E0,0E0,2.8926039E0,0E0,1.0023315E1,7.8445396E0,0E0,5.2504253E-1,0E0,0E0,0E0,0E0,0E0,4.522872E-1,0E0,1.411438E-4,4.5628414E0,3.2611485E0,0E0,0E0,0E0,0E0,3.4654236E0,5.441413E0,0E0,0E0,9.273193E0,6.0480123E0,0E0,0E0,2.9945374E-4,0E0,0E0,0E0,0E0,0E0,0E0,0E0,0E0,0E0,3.3878937E0,0E0,2.2040415E0,0E0,0E0,0E0,0E0,0E0,0E0,0E0,0E0,0E0,0E0,0E0],"parents":[2147483647,0,0,1,1,2,2,3,3,4,4,5,5,6,6,7,7,8,8,9,9,10,10,11,11,12,12,14,14,15,15,16,16,17,17,18,18,19,19,21,21,22,22,23,23,25,25,26,26,27,27,29,29,31,31,32,32,34,34,40,40,42,42,43,43,44,44,49,49,50,50,53,53,54,54,57,57,67,67,69,69],"right_children":[2,4,6,8,10,12,14,16,18,20,22,24,26,-1,28,30,32,34,36,38,-1,40,42,44,-1,46,48,50,-1,52,-1,54,56,-1,58,-1,-1,-1,-1,-1,60,-1,62,64,66,-1,-1,-1,-1,68,70,-1,-1,72,74,-1,-1,76,-1,-1,-1,-1,-1,-1,-1,-1,-1,78,-1,80,-1,-1,-1,-1,-1,-1,-1,-1,-1,-1,-1],"split_conditions":[8.110975E-1,5.832491E-1,7.8692013E-1,8.7591445E-1,5.7024634E-1,6.2408847E-1,6.030561E-1,1.862762E-1,4.8793843E-1,1.7850567E-1,8.224334E-1,7.249282E-1,6.072569E-1,3.2963302E-2,9.9973446E-1,8.767812E-1,9.271878E-1,3.116328E-1,1.4975911E-1,3.132452E-1,-6.9528013E-3,6.363162E-1,2.4138507E-2,7.043437E-1,3.296331E-2,4.4028085E-1,7.7382195E-1,9.616515E-1,1.7594661E-4,8.9545465E-1,3.296331E-2,9.2459744E-1,3.2216418E-1,7.01493E-3,7.603816E-1,-0E0,3.296331E-2,1.9688485E-2,3.3325642E-2,-1.6542513E-2,4.377656E-1,-3.0727497E-5,4.5278853E-1,2.7719223E-1,9.3211114E-2,3.3088043E-2,-1.6648669E-2,3.2961838E-2,3.306859E-2,7.4023104E-1,1.0731666E-1,-3.296332E-2,-0E0,6.030647E-1,2.3775536E-1,-3.3043556E-2,1.9922756E-2,2.3320045E-1,-1.9732613E-2,3.3102803E-2,1.9752072E-2,-3.2972157E-2,-3.3175994E-2,-2.2348471E-2,1.675799E-2,-0E0,-3.2963324E-2,1.7150594E-1,-7.85355E-3,9.474163E-1,8.661571E-3,2.9140014E-2,2.2015879E-2,-3.2963295E-2,1.9770749E-2,-3.2999035E-2,-3.3377137E-2,-0E0,-3.1626582E-2,-3.312292E-2,-6.3323546E-3],"split_indices":[103,122,67,49,30,98,15,199,92,44,41,36,24,0,17,20,95,199,29,27,0,20,2,15,0,18,19,71,0,14,0,66,1,0,29,0,0,0,0,0,17,0,19,34,4,0,0,0,0,18,199,0,0,58,57,0,0,67,0,0,0,0,0,0,0,0,0,2,0,20,0,0,0,0,0,0,0,0,0,0,0],"split_type":[0,0,0,0,0,0,0,0,0,0,0,0,0,0,0,0,0,0,0,0,0,0,0,0,0,0,0,0,0,0,0,0,0,0,0,0,0,0,0,0,0,0,0,0,0,0,0,0,0,0,0,0,0,0,0,0,0,0,0,0,0,0,0,0,0,0,0,0,0,0,0,0,0,0,0,0,0,0,0,0,0],"sum_hessian":[4.057709E2,3.3506372E2,7.070717E1,3.1632315E2,1.8740582E1,2.223678E1,4.8470387E1,3.07827E2,8.496152E0,4.7484593E0,1.3992123E1,1.2742486E1,9.494294E0,1.4988043E0,4.697158E1,6.245815E0,3.0158118E2,4.9977465E0,3.4984057E0,3.4986894E0,1.2497699E0,4.9978566E0,8.994266E0,1.0744081E1,1.9984057E0,3.748727E0,5.7455673E0,4.4972694E1,1.9988883E0,4.2474093E0,1.9984057E0,2.980835E2,3.4976757E0,1.2497329E0,3.7480135E0,1.5E0,1.9984057E0,1.2494239E0,2.2492657E0,1.9994752E0,2.9983816E0,1.4997909E0,7.4944754E0,3.4990628E0,7.245018E0,1.7488849E0,1.9998423E0,4.496401E0,1.2491664E0,3.8725418E1,6.247276E0,3.2474093E0,1E0,2.9558502E2,2.498481E0,2.2483926E0,1.249283E0,2.4986873E0,1.2493262E0,1.748985E0,1.2493964E0,6.245102E0,1.2493734E0,1.4994218E0,1.9996411E0,1E0,6.245018E0,3.6726288E1,1.9991298E0,4.247722E0,1.9995537E0,2.2736557E2,6.821945E1,1.2490035E0,1.2494776E0,1.2490737E0,1.2496135E0,1E0,3.5726288E1,2.9982245E0,1.2494975E0],"tree_param":{"num_deleted":"0","num_feature":"200","num_nodes":"81","size_leaf_vector":"0"}},{"base_weights":[9.8082405E-1,1.3828762E0,-9.244379E-1,1.4847006E0,-3.358671E-1,1.9596206E-1,-1.4384528E0,1.5319707E0,-2.279477E-1,-8.3333194E-1,1.1305724E0,-6.4594567E-1,1.3259026E0,1.9383463E0,-1.546198E0,-3.8760635E-1,1.5717244E0,-1.1625391E0,1.1071461E0,4.3931276E-1,-1.4364786E0,1.6741067E0,-3.9132562E-1,-1.1265948E0,1.9383467E0,3.8509488E-1,1.9398105E0,-1.6001478E0,4.275613E-1,-1.4819125E0,1.9383467E0,1.5999131E0,-8.305328E-1,-1.6877866E0,4.125728E-1,-0E0,1.9383467E0,-1.9726697E0,1.3668345E0,-1.8280741E0,6.5220666E-1,1.1654781E0,1.9566107E0,9.729772E-7,-1.6707561E0,1.946737E0,-9.8038006E-1,1.945148E0,1.938327E0,-1.7405037E0,-7.894988E-1,-1.9383473E0,-0E0,1.6167136E0,-3.8754338E-1,1.1826686E0,-1.9494784E0,-1.152511E0,-1.9553746E0,1.9702129E0,4.016954E-1,-1.9484771E0,-1.1779245E0,9.9631256E-1,-1.3284459E0,-0E0,-1.9383478E0,-0E0,-1.7863461E0,9.937815E-3,-1.952842E0,1.7135519E0,1.293979E0,-1.9383458E0,1.1622522E0,-1.9429072E0,-1.9678339E0,-1.9654429E0,-1.9399892E0,-1.8592732E0,-6.2802064E-1,-1.0981202E0,1.4343061E0,-1.9704504E0,-1.9381574E0],"categories":[],"categories_nodes":[],"categories_segments":[],"categories_sizes":[],"default_left":[1,1,1,1,1,1,1,1,1,1,1,1,1,0,1,1,1,1,1,1,1,1,0,1,0,1,1,1,0,1,0,1,1,1,0,0,0,0,1,1,0,0,0,1,1,0,0,0,0,1,1,0,0,1,1,0,0,0,1,0,0,1,0,0,0,0,0,0,1,1,1,0,0,0,0,0,0,0,0,0,0,0,0,0,0],"id":15,"left_children":[1,3,5,7,9,11,13,15,17,19,21,23,25,-1,27,29,31,33,35,37,39,41,-1,43,-1,45,47,49,-1,51,-1,53,55,57,-1,-1,-1,-1,59,61,-1,-1,-1,63,65,-1,-1,-1,-1,67,69,-1,-1,71,73,-1,-1,-1,75,-1,-1,77,-1,-1,-1,-1,-1,-1,79,81,83,-1,-1,-1,-1,-1,-1,-1,-1,-1,-1,-1,-1,-1,-1],"loss_changes":[3.1077823E2,5.8630554E1,4.0713463E1,2.5604858E1,1.3668877E1,2.1150604E1,1.7632065E1,2.3486816E1,1.0599724E1,1.0739411E1,3.9260979E0,1.582539E1,5.4827347E0,0E0,5.0008545E0,1.5894634E1,2.0418945E1,4.13412E0,3.2190495E0,1.0064371E1,7.7639675E0,5.025053E-1,0E0,6.5856743E0,0E0,7.9930325E0,3.4332275E-5,5.2012787E0,0E0,2.8724604E0,0E0,9.951599E0,7.8781476E0,5.3673744E-1,0E0,0E0,0E0,0E0,1.8921642E0,6.257324E-1,0E0,0E0,0E0,4.630816E0,3.2385063E0,0E0,0E0,0E0,0E0,3.109146E0,6.274623E0,0E0,0E0,9.236572E0,6.0044355E0,0E0,0E0,0E0,3.7574768E-4,0E0,0E0,9.5939636E-4,0E0,0E0,0E0,0E0,0E0,0E0,3.207199E0,6.311264E0,6.990433E-4,0E0,0E0,0E0,0E0,0E0,0E0,0E0,0E0,0E0,0E0,0E0,0E0,0E0,0E0],"parents":[2147483647,0,0,1,1,2,2,3,3,4,4,5,5,6,6,7,7,8,8,9,9,10,10,11,11,12,12,14,14,15,15,16,16,17,17,18,18,19,19,20,20,21,21,23,23,25,25,26,26,27,27,29,29,31,31,32,32,33,33,38,38,39,39,43,43,44,44,49,49,50,50,53,53,54,54,58,58,61,61,68,68,69,69,70,70],"right_children":[2,4,6,8,10,12,14,16,18,20,22,24,26,-1,28,30,32,34,36,38,40,42,-1,44,-1,46,48,50,-1,52,-1,54,56,58,-1,-1,-1,-1,60,62,-1,-1,-1,64,66,-1,-1,-1,-1,68,70,-1,-1,72,74,-1,-1,-1,76,-1,-1,78,-1,-1,-1,-1,-1,-1,80,82,84,-1,-1,-1,-1,-1,-1,-1,-1,-1,-1,-1,-1,-1,-1],"split_conditions":[8.110975E-1,5.832491E-1,7.8692013E-1,8.7591445E-1,5.8949447E-1,6.2408847E-1,6.030561E-1,1.862762E-1,4.8793843E-1,2.0699939E-1,7.7475905E-1,7.249282E-1,6.072569E-1,3.2849155E-2,9.989054E-1,8.767812E-1,9.271878E-1,4.5933896E-1,1.4975911E-1,3.8808596E-1,2.219823E-2,2.4449132E-1,-6.631796E-3,7.043437E-1,3.2849163E-2,4.4028085E-1,5.983162E-1,9.616515E-1,7.245882E-3,8.9545465E-1,3.2849163E-2,9.2459744E-1,7.961711E-1,1.0177978E-2,6.9918716E-3,-0E0,3.2849163E-2,-3.3430837E-2,1.7449737E-1,9.909835E-1,1.10529475E-2,1.9751359E-2,3.3158682E-2,5.6419516E-1,9.3211114E-2,3.2991353E-2,-1.6614502E-2,3.2964427E-2,3.2848828E-2,1.7150594E-1,9.4461536E-1,-3.2849174E-2,-0E0,6.030647E-1,2.3775536E-1,2.0042686E-2,-3.303781E-2,-1.9531606E-2,3.3460915E-1,3.33892E-2,6.8075326E-3,7.5167495E-1,-1.9962288E-2,1.688451E-2,-2.2513175E-2,-0E0,-3.284918E-2,-0E0,9.991269E-1,4.8112565E-1,9.895394E-1,2.9039565E-2,2.1929065E-2,-3.2849148E-2,1.969669E-2,-3.292645E-2,-3.3348884E-2,-3.3308364E-2,-3.2877E-2,-3.1509105E-2,-1.0643067E-2,-1.8609844E-2,2.4307188E-2,-3.3393227E-2,-3.2845955E-2],"split_indices":[103,122,67,49,19,98,15,199,92,29,87,36,24,0,139,20,95,96,29,15,113,82,0,15,0,18,17,71,0,14,0,66,18,11,0,0,0,0,44,68,0,0,0,109,4,0,0,0,0,2,66,0,0,58,57,0,0,0,18,0,0,26,0,0,0,0,0,0,68,78,2,0,0,0,0,0,0,0,0,0,0,0,0,0,0],"split_type":[0,0,0,0,0,0,0,0,0,0,0,0,0,0,0,0,0,0,0,0,0,0,0,0,0,0,0,0,0,0,0,0,0,0,0,0,0,0,0,0,0,0,0,0,0,0,0,0,0,0,0,0,0,0,0,0,0,0,0,0,0,0,0,0,0,0,0,0,0,0,0,0,0,0,0,0,0,0,0,0,0,0,0,0,0],"sum_hessian":[4.0570798E2,3.350129E2,7.0695076E1,3.1627563E2,1.873727E1,2.2233232E1,4.8461845E1,3.0778067E2,8.494952E0,1.3991046E1,4.7462244E0,1.2740447E1,9.492785E0,1.4984825E0,4.6963364E1,6.2446885E0,3.0153598E2,4.9969754E0,3.4979768E0,4.498715E0,9.4923315E0,3.4972205E0,1.2490038E0,1.074247E1,1.9979767E0,3.7484019E0,5.744384E0,4.5713844E1,1.24952E0,4.246712E0,1.9979767E0,2.9803873E2,3.4972594E0,3.747358E0,1.2496175E0,1.5E0,1.9979767E0,1.2494828E0,3.249232E0,7.99365E0,1.4986817E0,1.2488194E0,2.2484012E0,3.498793E0,7.243677E0,1.7485983E0,1.9998037E0,1.2489392E0,4.4954443E0,3.8967083E1,6.7467613E0,3.246712E0,1E0,2.9554047E2,2.4982803E0,1.2493794E0,2.24788E0,1.2489682E0,2.4983897E0,1.9993134E0,1.2499187E0,6.7445955E0,1.2490547E0,1.9993318E0,1.4994612E0,1E0,6.243677E0,1E0,3.7967083E1,3.9988163E0,2.747945E0,2.273291E2,6.821135E1,1.2487354E0,1.2495447E0,1.2489079E0,1.2494818E0,2.2489643E0,4.495631E0,3.571829E1,2.2487924E0,2.249141E0,1.7496752E0,1.2494723E0,1.4984728E0],"tree_param":{"num_deleted":"0","num_feature":"200","num_nodes":"85","size_leaf_vector":"0"}},{"base_weights":[9.413934E-1,1.3272253E0,-8.874672E-1,1.4249803E0,-3.2223687E-1,1.881053E-1,-1.3809934E0,1.4703776E0,-2.1862715E-1,-8.016062E-1,1.0911732E0,-6.199498E-1,1.2729865E0,1.862868E0,-1.4843844E0,-3.72249E-1,1.508514E0,-1.1148932E0,1.0620165E0,4.306541E-1,-1.3867472E0,-3.8355637E-1,1.6177394E0,-1.0809833E0,1.8628685E0,3.6730248E-1,1.8653121E0,-1.5372832E0,4.4595224E-1,-1.422723E0,1.8628685E0,1.5355729E0,-7.9698557E-1,-1.6269535E0,4.1706398E-1,-0E0,1.8628685E0,-1.9223145E0,1.3346442E0,-1.7642473E0,6.249579E-1,1.9029348E0,1.1038523E0,4.562421E-6,-1.6047161E0,1.8768393E0,-9.48492E-1,1.8746588E0,1.8627131E0,-1.672564E0,-7.5735784E-1,-1.8628691E0,-0E0,1.551699E0,-3.719417E-1,1.1518801E0,-1.882287E0,-1.8920538E0,-1.0966034E0,1.9269171E0,3.884431E-1,-1.1388938E0,-1.8801668E0,-9.7163904E-1,1.2953674E0,-0E0,-1.8628695E0,-0E0,-1.7167833E0,1.7943319E-2,-1.8881338E0,1.5715041E0,9.474355E-3,-1.8628676E0,1.1138033E0,-1.8749043E0,-1.9091675E0,-1.9071718E0,-1.8666316E0,-1.7881441E0,-5.858076E-1,-1.0633383E0,1.4079183E0,-1.9127885E0,-1.867536E0],"categories":[],"categories_nodes":[],"categories_segments":[],"categories_sizes":[],"default_left":[1,1,1,1,1,1,1,1,1,1,1,1,1,0,1,1,1,1,1,1,1,0,1,1,0,1,1,1,0,1,0,1,1,1,0,0,0,0,1,1,0,0,0,1,1,0,0,0,0,1,1,0,0,1,1,0,0,1,0,0,0,0,1,0,0,0,0,0,1,1,1,0,0,0,0,0,0,0,0,0,0,0,0,0,0],"id":16,"left_children":[1,3,5,7,9,11,13,15,17,19,21,23,25,-1,27,29,31,33,35,37,39,-1,41,43,-1,45,47,49,-1,51,-1,53,55,57,-1,-1,-1,-1,59,61,-1,-1,-1,63,65,-1,-1,-1,-1,67,69,-1,-1,71,73,-1,-1,75,-1,-1,-1,-1,77,-1,-1,-1,-1,-1,79,81,83,-1,-1,-1,-1,-1,-1,-1,-1,-1,-1,-1,-1,-1,-1],"loss_changes":[2.853922E2,5.385321E1,3.7402264E1,2.3526306E1,1.26607895E1,1.9428133E1,1.6198792E1,2.1561096E1,9.727249E0,1.0061293E1,3.6750083E0,1.4538891E1,5.075157E0,0E0,4.779587E0,1.4607784E1,1.8753052E1,3.9109387E0,2.9675956E0,9.556084E0,7.1849537E0,0E0,5.110893E-1,6.064766E0,0E0,7.430037E0,1.2779236E-4,4.8068314E0,0E0,2.6503477E0,0E0,9.139648E0,7.375757E0,5.253391E-1,0E0,0E0,0E0,0E0,1.8188958E0,5.774689E-1,0E0,0E0,0E0,4.400396E0,2.989376E0,0E0,0E0,0E0,0E0,2.8714294E0,5.9038506E0,0E0,0E0,8.999023E0,5.5174317E0,0E0,0E0,7.1907043E-4,0E0,0E0,0E0,0E0,2.4433136E-3,0E0,0E0,0E0,0E0,0E0,3.0526962E0,6.0044007E0,1.3790131E-3,0E0,0E0,0E0,0E0,0E0,0E0,0E0,0E0,0E0,0E0,0E0,0E0,0E0,0E0],"parents":[2147483647,0,0,1,1,2,2,3,3,4,4,5,5,6,6,7,7,8,8,9,9,10,10,11,11,12,12,14,14,15,15,16,16,17,17,18,18,19,19,20,20,22,22,23,23,25,25,26,26,27,27,29,29,31,31,32,32,33,33,38,38,39,39,43,43,44,44,49,49,50,50,53,53,54,54,57,57,62,62,68,68,69,69,70,70],"right_children":[2,4,6,8,10,12,14,16,18,20,22,24,26,-1,28,30,32,34,36,38,40,-1,42,44,-1,46,48,50,-1,52,-1,54,56,58,-1,-1,-1,-1,60,62,-1,-1,-1,64,66,-1,-1,-1,-1,68,70,-1,-1,72,74,-1,-1,76,-1,-1,-1,-1,78,-1,-1,-1,-1,-1,80,82,84,-1,-1,-1,-1,-1,-1,-1,-1,-1,-1,-1,-1,-1,-1],"split_conditions":[8.110975E-1,5.832491E-1,7.8692013E-1,8.7591445E-1,5.8949447E-1,6.2408847E-1,6.030561E-1,1.862762E-1,4.8793843E-1,2.0699939E-1,7.19545E-1,7.249282E-1,6.072569E-1,3.1570025E-2,9.989054E-1,8.767812E-1,9.271878E-1,4.5933896E-1,1.4975911E-1,3.8808596E-1,2.219823E-2,-6.50013E-3,7.1618605E-1,7.043437E-1,3.1570036E-2,4.4028085E-1,5.9648585E-1,9.616515E-1,7.5575532E-3,8.9545465E-1,3.1570036E-2,9.2459744E-1,7.961711E-1,5.676484E-1,7.067984E-3,-0E0,3.1570036E-2,-3.2577466E-2,1.7449737E-1,3.788183E-2,1.0591162E-2,3.2249037E-2,1.8706987E-2,6.7139006E-1,9.3211114E-2,3.1806797E-2,-1.6074095E-2,3.1769846E-2,3.1567402E-2,1.7150594E-1,9.4461536E-1,-3.1570047E-2,-0E0,7.51317E-1,2.3775536E-1,1.9520914E-2,-3.189912E-2,1.9227203E-2,-1.858414E-2,3.2655466E-2,6.582946E-3,-1.9300835E-2,7.5167495E-1,-1.6466368E-2,2.1952592E-2,-0E0,-3.157005E-2,-0E0,9.991269E-1,6.169895E-1,9.883343E-1,2.6632283E-2,1.605619E-4,-3.157002E-2,1.8875625E-2,-3.1774007E-2,-3.2354664E-2,-3.2320842E-2,-3.163381E-2,-3.0303681E-2,-9.927683E-3,-1.8020395E-2,2.3859994E-2,-3.241603E-2,-3.1649135E-2],"split_indices":[103,122,67,49,19,98,15,199,92,29,39,36,24,0,139,20,95,96,29,15,113,0,0,15,0,18,29,71,0,14,0,66,18,28,0,0,0,0,44,7,0,0,0,17,4,0,0,0,0,2,66,0,0,90,57,0,0,13,0,0,0,0,26,0,0,0,0,0,68,87,8,0,0,0,0,0,0,0,0,0,0,0,0,0,0],"split_type":[0,0,0,0,0,0,0,0,0,0,0,0,0,0,0,0,0,0,0,0,0,0,0,0,0,0,0,0,0,0,0,0,0,0,0,0,0,0,0,0,0,0,0,0,0,0,0,0,0,0,0,0,0,0,0,0,0,0,0,0,0,0,0,0,0,0,0,0,0,0,0,0,0,0,0,0,0,0,0,0,0,0,0,0,0],"sum_hessian":[4.0444852E2,3.3398767E2,7.046087E1,3.153014E2,1.868626E1,2.2161945E1,4.8298927E1,3.068267E2,8.47471E0,1.395374E1,4.732521E0,1.270147E1,9.460475E0,1.4918718E0,4.6807053E1,6.2215514E0,3.0060513E2,4.9855475E0,3.4891624E0,4.492625E0,9.461115E0,1.2451847E0,3.4873362E0,1.0712308E1,1.9891624E0,3.7407534E0,5.7197213E0,4.555857E1,1.2484813E0,4.232389E0,1.9891624E0,2.9711795E2,3.4871783E0,3.7365866E0,1.248961E0,1.5E0,1.9891624E0,1.2469565E0,3.245669E0,7.966238E0,1.4948771E0,2.2426898E0,1.2446464E0,3.4961753E0,7.2161326E0,1.7421198E0,1.9986335E0,1.2441657E0,4.475556E0,3.8824345E1,6.7342296E0,3.232389E0,1E0,2.9462717E2,2.4907863E0,1.2473395E0,2.2398388E0,2.4912875E0,1.2452991E0,1.9961679E0,1.249501E0,1.2457565E0,6.7204814E0,1.997706E0,1.4984694E0,1E0,6.2161326E0,1E0,3.7824345E1,3.9950647E0,2.7391648E0,2.908916E2,3.735582E0,1.2432265E0,1.2475597E0,1.2444288E0,1.2468588E0,2.2436929E0,4.4767885E0,3.5579395E1,2.2449462E0,2.24705E0,1.7480147E0,1.246728E0,1.4924369E0],"tree_param":{"num_deleted":"0","num_feature":"200","num_nodes":"85","size_leaf_vector":"0"}},{"base_weights":[9.289029E-1,1.3096114E0,-8.75728E-1,1.4060866E0,-3.1793606E-1,1.8562376E-1,-1.3627173E0,1.4508946E0,-2.1564269E-1,-7.901027E-1,1.0730093E0,-6.118696E-1,1.2560054E0,1.8394469E0,-1.4647124E0,-3.67438E-1,1.4885174E0,4.6617916E-1,-1.8565627E0,4.2054552E-1,-1.3651354E0,1.6019133E0,-4.04673E-1,-1.0667927E0,1.8394474E0,3.5757333E-1,1.8445255E0,-1.5167434E0,4.3420115E-1,-1.6034534E0,1.488006E0,1.5152017E0,-7.871816E-1,-1.2828168E-1,1.9118658E0,-1.8430957E0,-1.8699977E0,-1.8836446E0,1.3052293E0,-1.7443371E0,6.544797E-1,1.8827738E0,1.0954547E0,-2.9886533E-5,-1.5840541E0,1.8683344E0,-9.5737845E-1,1.8631154E0,1.8393534E0,-1.6536026E0,-7.2786325E-1,-1.8717548E0,-1.066848E0,1.1036669E0,1.8717536E0,1.5295429E0,-6.0976416E-1,-1.8535061E0,1.1299223E0,1.3496876E0,-1.1618887E0,1.8848753E0,3.812562E-1,-1.8629276E0,-1.1049938E0,9.5204765E-1,-1.2705516E0,-0E0,-1.8394485E0,-0E0,-1.6973916E0,4.6430837E-2,-1.8583806E0,-1.8394464E0,-1.9039618E0,1.5493261E0,-1.3660404E-2,-3.5218078E-1,-1.9685065E0,-1.8449117E0,-1.9257243E0,-1.7681514E0,-5.7617944E-1,-1.0385085E0,1.4406167E0,-1.8459061E0,-1.873314E0],"categories":[],"categories_nodes":[],"categories_segments":[],"categories_sizes":[],"default_left":[1,1,1,1,1,1,1,1,1,1,1,1,1,0,1,1,1,1,1,1,1,1,0,1,0,1,1,1,0,1,1,1,1,1,0,0,0,0,1,1,0,0,0,1,1,0,0,0,0,1,1,1,0,0,0,1,0,0,0,0,1,0,0,1,0,0,0,0,0,0,1,1,1,0,0,0,0,0,0,0,0,0,0,0,0,0,0],"id":17,"left_children":[1,3,5,7,9,11,13,15,17,19,21,23,25,-1,27,29,31,33,35,37,39,41,-1,43,-1,45,47,49,-1,51,53,55,57,59,-1,-1,-1,-1,61,63,-1,-1,-1,65,67,-1,-1,-1,-1,69,71,73,-1,-1,-1,75,-1,-1,-1,-1,77,-1,-1,79,-1,-1,-1,-1,-1,-1,81,83,85,-1,-1,-1,-1,-1,-1,-1,-1,-1,-1,-1,-1,-1,-1],"loss_changes":[2.774382E2,5.2360474E1,3.6361156E1,2.2876038E1,1.2255533E1,1.8887629E1,1.5749794E1,2.0957214E1,9.469898E0,9.698591E0,3.6960802E0,1.413969E1,4.995016E0,0E0,4.6174393E0,1.424176E1,1.8225708E1,5.1389103E0,4.386902E-4,9.145192E0,7.233549E0,4.9537373E-1,0E0,5.901305E0,0E0,7.427818E0,5.378723E-4,4.9111023E0,0E0,5.3659534E-1,3.6618567E-1,9.040466E0,7.110945E0,6.473012E0,0E0,0E0,0E0,0E0,1.7361531E0,6.0292244E-1,0E0,0E0,0E0,4.224482E0,2.913786E0,0E0,0E0,0E0,0E0,2.806816E0,5.886589E0,2.573967E-3,0E0,0E0,0E0,8.995972E0,0E0,0E0,0E0,0E0,1.6285422E0,0E0,0E0,7.575989E-3,0E0,0E0,0E0,0E0,0E0,0E0,2.9959793E0,6.0371423E0,4.97818E-4,0E0,0E0,0E0,0E0,0E0,0E0,0E0,0E0,0E0,0E0,0E0,0E0,0E0,0E0],"parents":[2147483647,0,0,1,1,2,2,3,3,4,4,5,5,6,6,7,7,8,8,9,9,10,10,11,11,12,12,14,14,15,15,16,16,17,17,18,18,19,19,20,20,21,21,23,23,25,25,26,26,27,27,29,29,30,30,31,31,32,32,33,33,38,38,39,39,43,43,44,44,49,49,50,50,51,51,55,55,60,60,63,63,70,70,71,71,72,72],"right_children":[2,4,6,8,10,12,14,16,18,20,22,24,26,-1,28,30,32,34,36,38,40,42,-1,44,-1,46,48,50,-1,52,54,56,58,60,-1,-1,-1,-1,62,64,-1,-1,-1,66,68,-1,-1,-1,-1,70,72,74,-1,-1,-1,76,-1,-1,-1,-1,78,-1,-1,80,-1,-1,-1,-1,-1,-1,82,84,86,-1,-1,-1,-1,-1,-1,-1,-1,-1,-1,-1,-1,-1,-1],"split_conditions":[8.110975E-1,5.832491E-1,7.8692013E-1,8.7591445E-1,5.8949447E-1,6.2408847E-1,6.030561E-1,1.862762E-1,4.828093E-1,2.0699939E-1,7.7475905E-1,7.249282E-1,6.072569E-1,3.1173108E-2,9.989054E-1,8.6639595E-1,9.271878E-1,1.4990382E-1,1.780529E-2,3.8808596E-1,2.219823E-2,6.557982E-1,-6.857994E-3,7.043437E-1,3.1173117E-2,4.4028085E-1,5.9648585E-1,9.616515E-1,7.3584076E-3,6.0791373E-1,4.013005E-2,9.2701286E-1,2.1810528E-2,3.2202378E-1,3.2400392E-2,-3.1234944E-2,-3.1690855E-2,-3.1922128E-2,1.7449737E-1,9.909835E-1,1.1091468E-2,3.190737E-2,1.8564671E-2,5.6419516E-1,9.3211114E-2,3.1662665E-2,-1.6224694E-2,3.157422E-2,3.1171525E-2,1.7150594E-1,9.4461536E-1,2.2340533E-1,-1.8079875E-2,1.8703844E-2,3.172061E-2,7.51317E-1,-1.0333674E-2,-3.141137E-2,1.9148795E-2,2.2873158E-2,8.3213925E-1,3.1942982E-2,6.461149E-3,2.5689864E-1,-1.8726332E-2,1.6134353E-2,-2.1532038E-2,-0E0,-3.1173136E-2,-0E0,9.991269E-1,6.169895E-1,1.5932752E-1,-3.11731E-2,-3.226644E-2,2.625643E-2,-2.3150288E-4,-5.968408E-3,-3.336028E-2,-3.126572E-2,-3.2635253E-2,-2.9964864E-2,-9.764514E-3,-1.7599605E-2,2.4414133E-2,-3.1282574E-2,-3.1747054E-2],"split_indices":[103,122,67,49,19,98,15,199,179,29,87,36,24,0,139,10,95,46,8,15,113,23,0,15,0,18,29,71,0,0,0,67,113,20,0,0,0,0,44,68,0,0,0,109,4,0,0,0,0,2,66,0,0,0,0,90,0,0,0,0,69,0,0,46,0,0,0,0,0,0,68,87,88,0,0,0,0,0,0,0,0,0,0,0,0,0,0],"split_type":[0,0,0,0,0,0,0,0,0,0,0,0,0,0,0,0,0,0,0,0,0,0,0,0,0,0,0,0,0,0,0,0,0,0,0,0,0,0,0,0,0,0,0,0,0,0,0,0,0,0,0,0,0,0,0,0,0,0,0,0,0,0,0,0,0,0,0,0,0,0,0,0,0,0,0,0,0,0,0,0,0,0,0,0,0,0,0],"sum_hessian":[4.038176E2,3.3346844E2,7.034917E1,3.1480777E2,1.8660654E1,2.2126446E1,4.822272E1,3.0634357E2,8.464216E0,1.3931504E1,4.7291493E0,1.2679509E1,9.446936E0,1.4885727E0,4.673415E1,6.2100043E0,3.0013358E2,5.979614E0,2.4846027E0,4.486282E0,9.445223E0,3.4826226E0,1.2465266E0,1.0694746E1,1.9847636E0,3.7389998E0,5.707936E0,4.548777E1,1.2463807E0,3.7271454E0,2.4828591E0,2.9665506E2,3.4785013E0,4.2372646E0,1.7423493E0,1.2409306E0,1.2436721E0,1.2446206E0,3.241661E0,7.952136E0,1.4930868E0,2.2402625E0,1.2423601E0,3.4923596E0,7.2023864E0,1.739953E0,1.9990468E0,1.2422619E0,4.465674E0,3.8762955E1,6.724812E0,2.4847636E0,1.2423818E0,1.2404773E0,1.2423818E0,2.9466638E2,1.9886768E0,2.235231E0,1.2432703E0,1.7437909E0,2.493474E0,1.991997E0,1.2496641E0,6.707897E0,1.2442386E0,1.9963633E0,1.4959962E0,1E0,6.2023864E0,1E0,3.7762955E1,3.9912157E0,2.7335963E0,1.2404773E0,1.2442863E0,2.909367E2,3.7296705E0,1.2443552E0,1.2491188E0,5.2125196E0,1.4953775E0,3.5521206E1,2.2417502E0,2.244539E0,1.7466767E0,1.4895473E0,1.2440492E0],"tree_param":{"num_deleted":"0","num_feature":"200","num_nodes":"87","size_leaf_vector":"0"}},{"base_weights":[9.176304E-1,1.2936995E0,-8.6520183E-1,1.3890271E0,-3.139921E-1,1.8337749E-1,-1.3463973E0,1.4333088E0,-2.1291693E-1,1.0619711E0,-7.8220916E-1,-6.044659E-1,1.2408053E0,1.818503E0,-1.4471447E0,-3.6311597E-1,1.4704659E0,4.617862E-1,-1.8379984E0,-4.210879E-1,1.5934094E0,5.473659E-1,-1.5226266E0,-1.0537429E0,1.8185036E0,3.4945127E-1,1.8254672E0,-1.4992964E0,4.531588E-1,-1.5862862E0,1.4734821E0,1.4968303E0,-7.775601E-1,-1.278385E-1,1.8964431E0,-1.8275055E0,-1.8484676E0,1.8779702E0,1.0805753E0,-9.1087204E-1,1.5231773E0,-5.489185E-3,-1.8284254E0,-3.1162457E-5,-1.565504E0,1.8519952E0,-9.5613545E-1,1.8184372E0,1.8507138E0,-1.6338689E0,-7.2454804E-1,-1.8550946E0,-1.0486671E0,1.0911007E0,1.8550932E0,1.5111449E0,-6.2406355E-1,-1.8411772E0,1.1324062E0,1.3525273E0,-1.1626707E0,1.0835927E0,1.8379555E0,-1.8225689E0,-1.8576089E0,9.5947474E-1,-1.2805974E0,-0E0,-1.8185047E0,-1.6999174E0,-5.590858E-1,4.258455E-2,-1.8461466E0,-1.8185028E0,-1.8915372E0,1.530965E0,-3.497066E-2,-3.4397018E-1,-1.9768339E0,-1.8199735E0,-1.8329333E0,-0E0,-1.7478749E0,-1.0456342E0,1.4404296E0,-1.8225042E0,-1.874392E0],"categories":[],"categories_nodes":[],"categories_segments":[],"categories_sizes":[],"default_left":[1,1,1,1,1,1,1,1,1,1,1,1,1,0,1,1,1,1,1,0,1,1,1,1,0,1,1,1,0,1,1,1,1,1,0,0,0,0,0,0,1,0,1,1,1,0,0,0,0,1,1,1,0,0,0,1,0,0,0,0,1,0,0,1,0,0,0,0,0,1,0,1,1,0,0,0,0,0,0,0,0,0,0,0,0,0,0],"id":18,"left_children":[1,3,5,7,9,11,13,15,17,19,21,23,25,-1,27,29,31,33,35,-1,37,39,41,43,-1,45,47,49,-1,51,53,55,57,59,-1,-1,-1,-1,-1,-1,61,-1,63,65,67,-1,-1,-1,-1,69,71,73,-1,-1,-1,75,-1,-1,-1,-1,77,-1,-1,79,-1,-1,-1,-1,-1,81,-1,83,85,-1,-1,-1,-1,-1,-1,-1,-1,-1,-1,-1,-1,-1,-1],"loss_changes":[2.7030182E2,5.102356E1,3.5434685E1,2.2294739E1,1.2006099E1,1.8403072E1,1.5348755E1,2.041455E1,9.26945E0,3.7290945E0,1.3688031E1,1.3780094E1,4.9151173E0,0E0,4.623413E0,1.3922971E1,1.7759033E1,5.053335E0,2.6130676E-4,0E0,5.0830936E-1,7.077071E0,4.1433907E0,5.758444E0,0E0,7.3286934E0,9.994507E-4,4.7339935E0,0E0,5.3761005E-1,3.6152363E-1,8.991455E0,7.056074E0,6.4858923E0,0E0,0E0,0E0,0E0,0E0,0E0,4.122839E-1,0E0,1.2588501E-3,4.289317E0,2.8468761E0,0E0,0E0,0E0,0E0,2.7462387E0,5.7817535E0,3.2949448E-3,0E0,0E0,0E0,9.014893E0,0E0,0E0,0E0,0E0,1.6609733E0,0E0,0E0,1.5449524E-4,0E0,0E0,0E0,0E0,0E0,2.9712448E0,0E0,6.0700703E0,1.8110275E-3,0E0,0E0,0E0,0E0,0E0,0E0,0E0,0E0,0E0,0E0,0E0,0E0,0E0,0E0],"parents":[2147483647,0,0,1,1,2,2,3,3,4,4,5,5,6,6,7,7,8,8,9,9,10,10,11,11,12,12,14,14,15,15,16,16,17,17,18,18,20,20,21,21,22,22,23,23,25,25,26,26,27,27,29,29,30,30,31,31,32,32,33,33,40,40,42,42,43,43,44,44,49,49,50,50,51,51,55,55,60,60,63,63,69,69,71,71,72,72],"right_children":[2,4,6,8,10,12,14,16,18,20,22,24,26,-1,28,30,32,34,36,-1,38,40,42,44,-1,46,48,50,-1,52,54,56,58,60,-1,-1,-1,-1,-1,-1,62,-1,64,66,68,-1,-1,-1,-1,70,72,74,-1,-1,-1,76,-1,-1,-1,-1,78,-1,-1,80,-1,-1,-1,-1,-1,82,-1,84,86,-1,-1,-1,-1,-1,-1,-1,-1,-1,-1,-1,-1,-1,-1],"split_conditions":[8.110975E-1,5.832491E-1,7.8692013E-1,8.7591445E-1,5.7024634E-1,6.2408847E-1,6.030561E-1,1.862762E-1,4.828093E-1,5.041615E-1,8.224334E-1,7.249282E-1,6.072569E-1,3.0818174E-2,9.989054E-1,8.6639595E-1,9.271878E-1,1.4990382E-1,1.780529E-2,-7.136177E-3,4.832561E-1,6.363162E-1,2.4138507E-2,7.043437E-1,3.0818183E-2,4.4028085E-1,9.1416454E-1,9.616515E-1,7.6796827E-3,6.0791373E-1,4.013005E-2,9.2701286E-1,2.1810528E-2,3.2202378E-1,3.2139026E-2,-3.0970737E-2,-3.132598E-2,3.1825963E-2,1.8312512E-2,-1.543655E-2,1.623897E-1,-9.302523E-5,4.5278853E-1,5.6419516E-1,9.3211114E-2,3.1385764E-2,-1.6203629E-2,3.0817058E-2,3.136405E-2,9.991269E-1,9.4461536E-1,2.2340533E-1,-1.7771762E-2,1.8490884E-2,3.143827E-2,7.51317E-1,-1.0576006E-2,-3.1202432E-2,1.919089E-2,2.2921281E-2,8.3213925E-1,1.8363645E-2,3.1147834E-2,6.992781E-1,-3.14809E-2,1.626022E-2,-2.1702286E-2,-0E0,-3.0818202E-2,1.7150594E-1,-9.474828E-3,6.169895E-1,1.5932752E-1,-3.0818168E-2,-3.2055885E-2,2.5945265E-2,-5.926478E-4,-5.829263E-3,-3.350141E-2,-3.0843092E-2,-3.1062722E-2,-0E0,-2.9621238E-2,-1.7720364E-2,2.4410961E-2,-3.088598E-2,-3.1765323E-2],"split_indices":[103,122,67,49,30,98,15,199,179,103,41,36,24,0,139,10,95,46,8,0,7,20,2,15,0,18,105,71,0,0,0,67,113,20,0,0,0,0,0,0,23,0,19,109,4,0,0,0,0,68,66,0,0,0,0,90,0,0,0,0,69,0,0,90,0,0,0,0,0,2,0,87,88,0,0,0,0,0,0,0,0,0,0,0,0,0,0],"split_type":[0,0,0,0,0,0,0,0,0,0,0,0,0,0,0,0,0,0,0,0,0,0,0,0,0,0,0,0,0,0,0,0,0,0,0,0,0,0,0,0,0,0,0,0,0,0,0,0,0,0,0,0,0,0,0,0,0,0,0,0,0,0,0,0,0,0,0,0,0,0,0,0,0,0,0,0,0,0,0,0,0,0,0,0,0,0,0],"sum_hessian":[4.0315387E2,3.329266E2,7.022725E1,3.142908E2,1.8635796E1,2.20902E1,4.813705E1,3.0583673E2,8.454073E0,4.7314215E0,1.3904373E1,1.265873E1,9.431471E0,1.4850587E0,4.6651993E1,6.197705E0,2.9963904E2,5.9738436E0,2.480229E0,1.2481803E0,3.483241E0,4.9734664E0,8.930907E0,1.0678652E1,1.9800782E0,3.7358847E0,5.695586E0,4.540588E1,1.246114E0,3.720117E0,2.477588E0,2.9616565E2,3.4733775E0,4.2338047E0,1.7400389E0,1.238864E0,1.241365E0,2.240197E0,1.2430441E0,1.9938635E0,2.9796028E0,1.4981676E0,7.4327397E0,3.4909077E0,7.1877437E0,1.7369292E0,1.9989554E0,4.455139E0,1.2404469E0,3.8686157E1,6.7197223E0,2.480078E0,1.240039E0,1.2375488E0,1.2400391E0,2.9418015E2,1.9855098E0,2.230991E0,1.2423868E0,1.7419204E0,2.4918845E0,1.243324E0,1.7362789E0,6.1905293E0,1.2422101E0,1.9956212E0,1.4952865E0,1E0,6.1877437E0,3.644642E1,2.239739E0,3.9904184E0,2.7293038E0,1.2375487E0,1.2425293E0,2.9045673E2,3.7234287E0,1.242482E0,1.2494025E0,4.9509797E0,1.2395499E0,1E0,3.544642E1,