{"learner":{"attributes":{"best_iteration":"49","best_ntree_limit":"0"},"feature_names":["0","1","2","3","4","5","6","7","8","9","10","11","12","13","14","15","16","17","18","19","20","21","22","23","24","25","26","27","28","29","30","31","32","33","34","35","36","37","38","39","40","41","42","43","44","45","46","47","48","49","50","51","52","53","54","55","56","57","58","59","60","61","62","63","64","65","66","67","68","69","70","71","72","73","74","75","76","77","78","79","80","81","82","83","84","85","86","87","88","89","90","91","92","93","94","95","96","97","98","99","100","101","102","103","104","105","106","107","108","109","110","111","112","113","114","115","116","117","118","119","120","121","122","123","124","125","126","127","128","129","130","131","132","133","134","135","136","137","138","139","140","141","142","143","144","145","146","147","148","149","150","151","152","153","154","155","156","157","158","159","160","161","162","163","164","165","166","167","168","169","170","171","172","173","174","175","176","177","178","179","180","181","182","183","184","185","186","187","188","189","190","191","192","193","194","195","196","197","198","199","200","201","202","203","204","205","206","207","208","209","210","211","212","213","214","215","216","217","218","219","220","221","222","223","224","225","226","227","228","229","230","231","232","233","234","235","236","237","238","239","240","241","242","243","244","245","246","247","248","249","250","251","252","253","254","255","256","257","258","259","260","261","262","263","264","265","266","267","268","269","270","271","272","273","274","275","276","277","278","279","280","281","282","283","284","285","286","287","288","289","290","291","292","293","294","295","296","297","298","299","300","301","302","303","304","305","306","307","308","309","310","311","312","313","314","315","316","317","318","319","320","321","322","323","324","325","326","327","328","329","330","331","332","333","334","335","336","337","338","339","340","341","342","343","344","345","346","347","348","349","350","351","352","353","354","355","356","357","358","359","360","361","362","363","364","365","366","367","368","369","370","371","372","373","374","375","376","377","378","379","380","381","382","383","384","385","386","387","388","389","390","391","392","393","394","395","396","397","398","399","400","401","402","403","404","405","406","407","408","409","410","411","412","413","414","415","416","417","418","419","420","421","422","423","424","425","426","427","428","429","430","431","432","433","434","435","436","437","438","439","440","441","442","443","444","445","446","447","448","449","450","451","452","453","454","455","456","457","458","459","460","461","462","463","464","465","466","467","468","469","470","471","472","473","474","475","476","477","478","479","480","481","482","483","484","485","486","487","488","489","490","491","492","493","494","495","496","497","498","499","500","501","502","503","504","505","506","507","508","509","510","511","512","513","514","515","516","517","518","519","520","521","522","523","524","525","526","527","528","529","530","531","532","533","534","535","536","537","538","539","540","541","542","543","544","545","546","547","548","549","550","551","552","553","554","555","556","557","558","559","560","561","562","563","564","565","566","567","568","569","570","571","572","573","574","575","576","577","578","579","580","581","582","583","584","585","586","587","588","589","590","591","592","593","594","595","596","597","598","599","600","601","602","603","604","605","606","607","608","609","610","611","612","613","614","615","616","617","618","619","620","621","622","623","624","625","626","627","628","629","630","631","632","633","634","635","636","637","638","639","640","641","642","643","644","645","646","647","648","649","650","651","652","653","654","655","656","657","658","659","660","661","662","663","664","665","666","667","668","669","670","671","672","673","674","675","676","677","678","679","680","681","682","683","684","685","686","687","688","689","690","691","692","693","694","695","696","697","698","699","700","701","702","703","704","705","706","707","708","709","710","711","712","713","714","715","716","717","718","719","720","721","722","723","724","725","726","727","728","729","730","731","732","733","734","735","736","737","738","739","740","741","742","743","744","745","746","747","748","749","750","751","752","753","754","755","756","757","758","759","760","761","762","763","764","765","766","767","768","769","770","771","772","773","774","775","776","777","778","779","780","781","782","783","784","785","786","787","788","789","790","791","792","793","794","795","796","797","798","799","800","801","802","803","804","805","806","807","808","809","810","811","812","813","814","815","816","817","818","819","820","821","822","823","824","825","826","827","828","829","830","831","832","833","834","835","836","837","838","839","840","841","842","843","844","845","846","847","848","849","850","851","852","853","854","855","856","857","858","859","860","861","862","863","864","865","866","867","868","869","870","871","872","873","874","875","876","877","878","879","880","881","882","883","884","885","886","887","888","889","890","891","892","893","894","895","896","897","898","899","900","901","902","903","904","905","906","907","908","909","910","911","912","913","914","915","916","917","918","919","920","921","922","923","924","925","926","927","928","929","930","931","932","933","934","935","936","937","938","939","940","941","942","943","944","945","946","947","948","949","950","951","952","953","954","955","956","957","958","959","960","961","962","963","964","965","966","967","968","969","970","971","972","973","974","975","976","977","978","979","980","981","982","983","984","985","986","987","988","989","990","991","992","993","994","995","996","997","998","999","1000","1001","1002","1003","1004","1005","1006","1007","1008","1009","1010","1011","1012","1013","1014","1015","1016","1017","1018","1019","1020","1021","1022","1023"],"feature_types":["float","float","float","float","float","float","float","float","float","float","float","float","float","float","float","float","float","float","float","float","float","float","float","float","float","float","float","float","float","float","float","float","float","float","float","float","float","float","float","float","float","float","float","float","float","float","float","float","float","float","float","float","float","float","float","float","float","float","float","float","float","float","float","float","float","float","float","float","float","float","float","float","float","float","float","float","float","float","float","float","float","float","float","float","float","float","float","float","float","float","float","float","float","float","float","float","float","float","float","float","float","float","float","float","float","float","float","float","float","float","float","float","float","float","float","float","float","float","float","float","float","float","float","float","float","float","float","float","float","float","float","float","float","float","float","float","float","float","float","float","float","float","float","float","float","float","float","float","float","float","float","float","float","float","float","float","float","float","float","float","float","float","float","float","float","float","float","float","float","float","float","float","float","float","float","float","float","float","float","float","float","float","float","float","float","float","float","float","float","float","float","float","float","float","float","float","float","float","float","float","float","float","float","float","float","float","float","float","float","float","float","float","float","float","float","float","float","float","float","float","float","float","float","float","float","float","float","float","float","float","float","float","float","float","float","float","float","float","float","float","float","float","float","float","float","float","float","float","float","float","float","float","float","float","float","float","float","float","float","float","float","float","float","float","float","float","float","float","float","float","float","float","float","float","float","float","float","float","float","float","float","float","float","float","float","float","float","float","float","float","float","float","float","float","float","float","float","float","float","float","float","float","float","float","float","float","float","float","float","float","float","float","float","float","float","float","float","float","float","float","float","float","float","float","float","float","float","float","float","float","float","float","float","float","float","float","float","float","float","float","float","float","float","float","float","float","float","float","float","float","float","float","float","float","float","float","float","float","float","float","float","float","float","float","float","float","float","float","float","float","float","float","float","float","float","float","float","float","float","float","float","float","float","float","float","float","float","float","float","float","float","float","float","float","float","float","float","float","float","float","float","float","float","float","float","float","float","float","float","float","float","float","float","float","float","float","float","float","float","float","float","float","float","float","float","float","float","float","float","float","float","float","float","float","float","float","float","float","float","float","float","float","float","float","float","float","float","float","float","float","float","float","float","float","float","float","float","float","float","float","float","float","float","float","float","float","float","float","float","float","float","float","float","float","float","float","float","float","float","float","float","float","float","float","float","float","float","float","float","float","float","float","float","float","float","float","float","float","float","float","float","float","float","float","float","float","float","float","float","float","float","float","float","float","float","float","float","float","float","float","float","float","float","float","float","float","float","float","float","float","float","float","float","float","float","float","float","float","float","float","float","float","float","float","float","float","float","float","float","float","float","float","float","float","float","float","float","float","float","float","float","float","float","float","float","float","float","float","float","float","float","float","float","float","float","float","float","float","float","float","float","float","float","float","float","float","float","float","float","float","float","float","float","float","float","float","float","float","float","float","float","float","float","float","float","float","float","float","float","float","float","float","float","float","float","float","float","float","float","float","float","float","float","float","float","float","float","float","float","float","float","float","float","float","float","float","float","float","float","float","float","float","float","float","float","float","float","float","float","float","float","float","float","float","float","float","float","float","float","float","float","float","float","float","float","float","float","float","float","float","float","float","float","float","float","float","float","float","float","float","float","float","float","float","float","float","float","float","float","float","float","float","float","float","float","float","float","float","float","float","float","float","float","float","float","float","float","float","float","float","float","float","float","float","float","float","float","float","float","float","float","float","float","float","float","float","float","float","float","float","float","float","float","float","float","float","float","float","float","float","float","float","float","float","float","float","float","float","float","float","float","float","float","float","float","float","float","float","float","float","float","float","float","float","float","float","float","float","float","float","float","float","float","float","float","float","float","float","float","float","float","float","float","float","float","float","float","float","float","float","float","float","float","float","float","float","float","float","float","float","float","float","float","float","float","float","float","float","float","float","float","float","float","float","float","float","float","float","float","float","float","float","float","float","float","float","float","float","float","float","float","float","float","float","float","float","float","float","float","float","float","float","float","float","float","float","float","float","float","float","float","float","float","float","float","float","float","float","float","float","float","float","float","float","float","float","float","float","float","float","float","float","float","float","float","float","float","float","float","float","float","float","float","float","float","float","float","float","float","float","float","float","float","float","float","float","float","float","float","float","float","float","float","float","float","float","float","float","float","float","float","float","float","float","float","float","float","float","float","float","float","float","float","float","float","float","float","float","float","float","float","float","float","float","float","float","float","float","float","float","float","float","float","float","float","float","float","float","float","float","float","float","float","float","float","float","float","float","float","float","float","float","float","float","float","float","float","float","float","float","float","float","float","float","float","float","float","float","float","float","float","float","float","float","float","float","float","float","float","float","float","float","float","float","float","float","float","float","float","float","float","float","float","float","float","float","float","float","float","float","float","float","float","float","float","float","float","float","float","float","float","float","float","float"],"gradient_booster":{"model":{"boosted_rounds":50,"weights":[-8.9430725E-3,-1.9213042E-1,4.8754334E-2,-1.0666866E-1,1.0697171E-1,-2.6432094E-1,1.5594495E-3,3.5256863E-2,1.584135E-2,2.2449335E-3,-7.240032E-3,3.4326605E-2,9.219928E-3,3.4781825E-2,1.1480763E-1,-1.0243015E-2,-2.2002056E-2,-4.3623528E-4,-3.0223245E-3,-1.0156083E-1,-2.3095595E-2,-7.645815E-2,3.879882E-2,-1.6374259E-1,-1.9666774E-3,6.9959775E-2,3.7184045E-2,-4.9514435E-2,-2.3941785E-2,4.258262E-2,1.5614261E-2,5.5656996E-2,8.013541E-2,-1.10456675E-1,-3.7263747E-2,-2.2111814E-2,6.139739E-3,-4.360532E-2,-8.688984E-3,-1.4729023E-2,-2.61883E-2,-2.0418346E-2,-1.3746604E-2,-7.5166975E-3,3.9267853E-2,-1.02089E-1,-4.5725383E-2,8.592477E-3,-2.990566E-3,-2.9383563E-2,3.739624E-4,6.4839296E-2,5.623384E-4,-9.429643E-2,-4.0646805E-3,2.0011459E-2,7.2448236E-15,1.5017676E-17,-5.0873738E-2,1.5258861E-2,2.5973558E-2,-1.3357247E-1,1.5699195E-2,2.4179742E-3,1.8780684E-1,1.3062254E-2,2.138846E-2,-1.668115E-2,-1.1853413E-2,-2.732446E-2,-6.4949915E-2,-6.643116E-2,-9.146944E-2,-7.363771E-2,1.1528435E-1,-1.0344685E-1,-7.026806E-2,-1.1441176E-1,5.2943584E-2,2.1708751E-2,1.3544826E-1,3.950694E-2,-3.501795E-2,-6.0881473E-2,3.0514011E-2,2.1188399E-2,-4.1156765E-2,-9.9735215E-2,-1.3339597E-3,-6.3090734E-2,-7.709567E-2,1.3929963E-4,8.9710966E-2,-1.0264672E-2,-2.509063E-2,2.7944965E-2,3.1019868E-2,6.556145E-5,1.0496411E-2,-2.4414686E-3,-2.5748048E-2,4.430971E-2,-5.6629863E-2,2.3817246E-13,-5.022043E-2,-4.860212E-2,5.0957887E-3,-1.2389565E-17,-3.110747E-17,-1.2181457E-2,2.814501E-2,-1.9028064E-2,2.417863E-2,5.2372273E-2,3.705281E-2,-6.459279E-2,-4.293246E-2,-9.9007515E-3,-1.811161E-2,-3.452784E-2,-1.0506878E-2,1.6423742E-1,5.2016493E-2,-1.752079E-2,4.804933E-2,-8.196629E-2,-1.0660212E-1,-1.8751377E-2,-2.3606326E-1,5.2783776E-2,-2.5853038E-1,-4.2531952E-2,1.709571E-2,4.7325306E-2,-3.0522771E-2,2.196172E-2,-1.6654123E-2,-2.7062483E-2,1.2445198E-1,-7.9664074E-2,-7.490961E-2,-2.4738694E-3,3.755112E-2,-6.652969E-2,-3.593627E-2,3.395442E-2,-4.279281E-2,-1.8452802E-1,1.6474511E-3,-2.736277E-2,2.1936927E-2,-3.5109732E-15,5.522943E-3,-3.8883951E-3,-1.3637289E-3,5.2586872E-2,1.7333074E-2,-1.9749451E-2,2.2170343E-4,-1.2585193E-1,4.593276E-4,3.0569212E-18,4.2620774E-2,-1.48616955E-2,-6.463899E-2,1.445508E-1,-2.450088E-2,-4.7647495E-2,3.4000386E-2,1.0792893E-2,1.197679E-1,-2.2024853E-2,-1.2990442E-3,2.7155932E-2,-5.595499E-2,2.0442776E-1,-8.734678E-2,3.762576E-3,2.0429233E-2,8.9575775E-2,-7.848971E-2,-2.2201622E-16,3.608728E-15,-9.170158E-3,1.50818825E-2,4.963946E-3,-5.505127E-2,-1.254307E-3,-4.8067127E-3,5.8104582E-5,4.3819923E-2,1.0259674E-2,3.34092E-2,-8.764443E-2,1.2435595E-2,1.5032031E-3,-2.4971053E-2,5.6369413E-2,4.0757493E-15,9.539176E-2,-8.000684E-2,-1.2268991E-2,-7.5466104E-2,-6.923291E-2,3.6606845E-2,-7.686481E-3,-9.485868E-2,-7.412399E-2,-3.4172457E-2,-3.931568E-4,3.1294268E-2,3.982395E-2,1.4710772E-1,-2.4810877E-2,2.7629707E-2,-4.614265E-2,4.5700785E-2,6.4157334E-4,4.969479E-2,-5.467933E-2,-3.2867283E-2,-9.175857E-2,-1.282131E-1,8.768313E-3,2.5567878E-2,-6.705557E-2,-7.866341E-2,-8.239614E-2,-2.1949988E-2,-5.9391214E-3,2.6394876E-2,9.8148175E-2,-5.1702466E-3,-3.54227E-1,3.3817455E-2,-3.975093E-2,-1.117348E-2,-1.360085E-1,-1.68595E-2,-5.8331914E-2,-5.2324563E-2,-8.047592E-2,-1.4684325E-1,9.874957E-3,7.142605E-17,1.817959E-2,2.8683936E-2,1.3870148E-2,-1.2586739E-16,3.7864774E-2,-1.3109311E-1,-2.1779357E-2,-9.39639E-2,-6.0659196E-2,6.7501944E-3,-1.24758504E-1,3.8729254E-2,-1.6358148E-2,-4.4956546E-2,7.800301E-3,4.6289233E-3,5.1275503E-2,-2.46938E-2,1.3508647E-2,7.786125E-2,2.5460346E-2,-7.4404366E-3,6.698102E-3,4.074402E-2,-2.4420284E-2,1.0099192E-1,1.302082E-1,-2.5306584E-2,1.0817125E-2,-8.150837E-2,-8.307158E-4,-1.340689E-1,-2.3492638E-3,-6.3333444E-2,-1.3744377E-2,-4.768542E-2,1.5447281E-2,-8.97692E-3,-5.9702665E-2,-2.6119368E-2,-5.363256E-2,-1.6258858E-2,3.0502642E-2,3.9730147E-2,-9.7657904E-2,-3.54933E-2,-7.887499E-2,-2.5125882E-2,3.0920494E-2,1.2933809E-1,6.2818214E-2,1.2044652E-16,-3.9902844E-2,8.0297184E-5,-9.525994E-2,5.234626E-2,-2.4639258E-2,3.449613E-2,2.9272512E-2,-3.0685544E-2,3.084422E-2,-2.3758495E-2,-2.2410804E-3,-6.1051268E-2,5.0708093E-2,-1.2516162E-1,8.327652E-2,7.443999E-3,-4.204843E-2,-2.2770296E-1,-4.0178217E-2,4.802551E-3,-1.23052E-1,4.0761266E-2,3.1634048E-2,1.9104557E-2,-7.55233E-2,-2.8195703E-2,-5.032637E-2,1.3312764E-2,-1.3235178E-2,2.989968E-2,9.640747E-2,-1.2033023E-2,-5.564517E-2,-9.814389E-3,-5.356818E-2,4.7824096E-2,-3.5169183E-3,8.024833E-3,-7.006799E-2,1.0661623E-2,-1.9853238E-2,-9.1187134E-2,-2.728842E-2,9.1711795E-3,-1.5716521E-1,-2.9419273E-2,-4.1764703E-2,-3.1380586E-2,5.9696315E-3,-3.8627677E-2,5.5476776E-3,-2.493794E-2,-1.0324399E-1,-5.3877164E-2,3.4982514E-2,4.7124386E-2,3.397459E-2,-1.5521133E-3,-5.5776194E-2,1.13365136E-1,-2.4674036E-1,4.0815625E-2,-5.1731303E-2,-1.0976371E-2,3.2726124E-2,4.4210516E-2,-3.1746395E-2,-1.6114332E-2,-4.2627E-2,-8.009299E-2,6.223905E-2,-9.078192E-2,2.6078302E-2,4.844048E-4,3.5350792E-2,6.788609E-18,-1.1591091E-2,-9.677126E-3,7.254469E-2,1.607738E-2,-2.1836149E-2,-1.6914094E-2,3.6502566E-2,-2.3234162E-17,-2.0669835E-2,-8.196446E-4,5.9129268E-2,-1.5120444E-1,1.7102268E-2,9.44058E-2,-1.2787822E-1,-1.0489705E-2,-2.1203619E-1,-3.3657845E-2,9.292106E-3,-1.23181425E-1,3.3327636E-11,1.5610017E-4,-5.850057E-2,-1.9367848E-2,8.78785E-2,5.916816E-2,-4.86996E-3,1.0467986E-2,3.1407744E-2,2.8445935E-3,-3.6544823E-3,-2.557018E-2,3.196211E-2,-1.18478E-1,-1.03586644E-1,-1.0494515E-1,2.6389195E-2,-1.2605296E-1,-3.1947374E-2,1.0953559E-1,5.57907E-2,4.2942087E-3,5.6066908E-2,1.2140669E-2,-3.200104E-2,4.457158E-2,-8.406333E-2,6.2077127E-2,1.8249981E-2,4.0180545E-2,-7.570054E-2,6.3852705E-2,-1.758807E-2,-3.554111E-2,2.2392493E-2,-1.1362484E-1,-7.189357E-2,-7.791084E-2,-1.5582319E-2,-1.7701876E-1,2.6580652E-3,-2.4701849E-2,-2.0189758E-2,-2.092413E-2,-9.345568E-3,-2.5796074E-2,-7.688113E-2,-7.4960984E-2,8.666579E-3,-3.8275804E-2,-3.611092E-3,-5.3210933E-2,-1.1514437E-3,4.875661E-2,-4.4825803E-2,-3.644813E-2,2.2376636E-2,2.5052795E-2,-6.0901653E-2,-1.8104014E-1,-1.00878306E-1,-1.4717505E-2,-7.603293E-2,3.4211677E-2,7.368796E-3,3.9229095E-2,5.456324E-3,1.8032255E-2,3.934729E-2,-1.3311564E-2,-1.1579272E-1,-1.0539449E-1,9.2943594E-2,6.025701E-14,-3.1933496E-3,4.0693033E-2,-1.1539499E-1,-3.2809615E-2,-9.055418E-2,-1.8116218E-3,2.8753398E-2,-2.1489453E-2,-3.0901314E-14,1.1575541E-2,6.524787E-2,-1.00735575E-2,5.34411E-2,1.5426997E-2,3.1086942E-2,-2.5134806E-2,2.0882696E-2,-9.626138E-2,-8.7476395E-2,7.2597474E-2,3.9367154E-2,-3.047701E-2,-4.914109E-2,1.1109154E-2,-8.0798855E-3,-7.685683E-2,2.3975186E-2,1.0885037E-2,-9.122389E-2,4.908013E-3,5.52941E-2,5.2111886E-2,9.163367E-3,-3.6389236E-3,-3.6426995E-2,8.799739E-3,-4.129915E-2,1.14696585E-1,-3.6405664E-2,-4.2437617E-2,-6.8312906E-2,1.312442E-2,1.8071778E-2,-8.118606E-2,-1.2786933E-2,-3.829731E-4,-1.2215799E-2,-2.6517741E-2,5.2461283E-18,-4.5642246E-2,9.3741715E-3,-1.9285664E-2,3.9803863E-2,4.1373536E-2,-3.252769E-2,-7.7002454E-3,5.292201E-17,4.1459613E-2,-6.860594E-2,-1.3626504E-3,4.7002666E-2,-2.7616046E-2,-1.09519474E-1,1.366292E-2,-4.36282E-2,1.1068528E-1,-2.7379757E-2,-3.218113E-2,1.5772702E-2,-3.0296443E-2,-4.518573E-3,2.2229023E-2,-1.3817889E-2,1.288617E-1,-1.907175E-2,-2.062216E-3,-9.922852E-5,-1.9194098E-2,-3.5571106E-2,-1.8160526E-2,1.4395905E-1,-1.1566217E-2,9.745349E-6,-1.119837E-2,-2.269753E-3,-4.8558936E-2,-9.142719E-3,3.548464E-12,-4.5834716E-2,1.21264845E-1,-7.212116E-2,-7.44353E-2,3.7575024E-3,-7.269907E-5,1.995234E-2,2.8403645E-2,3.4334256E-17,-5.7697516E-2,-3.9572828E-2,-3.7407544E-2,-8.991294E-3,-7.711388E-2,-9.098294E-4,1.3318758E-2,-7.9242095E-2,-2.526792E-3,-1.9974042E-1,-1.9593004E-2,-4.227716E-2,1.2278413E-13,3.355765E-2,-2.4496312E-1,-7.562463E-3,3.1290602E-2,4.3588553E-2,-4.1358553E-2,-1.4792131E-1,-1.929228E-2,2.4882652E-2,-5.180658E-2,-2.174694E-2,6.726802E-2,-9.381428E-2,-7.165704E-2,-4.789291E-2,2.8462344E-11,6.625332E-2,-4.009438E-2,-2.5038308E-2,9.993893E-17,-1.412287E-2,-5.3096235E-2,8.155562E-3,1.5341727E-2,-9.932042E-3,-8.199328E-2,-1.4236384E-2,-2.6526773E-2,-4.6133686E-2,-1.326204E-1,-2.3623575E-2,2.5902823E-2,-3.5064954E-2,-4.260101E-2,-1.3466012E-1,5.8363024E-2,2.7418663E-18,2.2630027E-2,3.2677427E-2,5.701172E-3,2.1263795E-2,2.0142684E-3,-1.5689841E-15,2.0553876E-2,-4.8225313E-2,1.0768182E-3,1.2373025E-1,4.8118763E-2,1.6967416E-2,-1.9194711E-2,-2.9610157E-2,-1.273376E-2,-4.5168698E-2,-6.930007E-3,6.1172985E-2,-6.8709664E-2,-1.6824874E-17,-5.2872803E-2,2.3758985E-2,-4.2075958E-2,4.0757466E-2,2.1917926E-2,1.4588831E-1,-7.370424E-2,4.1050665E-2,-5.202387E-3,-4.932636E-3,-5.0222117E-2,6.3608363E-3,1.1302268E-1,2.499747E-2,-2.2821965E-2,1.1050434E-2,-1.341498E-1,-1.3530483E-2,6.5090515E-2,4.635329E-2,3.514847E-2,4.3120056E-2,-6.2345773E-2,-5.7034288E-2,-1.4517605E-2,6.749165E-2,-1.3515484E-4,5.812791E-2,4.0150754E-2,-6.563096E-2,2.2011467E-5,-1.7650833E-2,-2.4723696E-2,2.6346545E-3,-1.2908403E-2,-1.0512232E-1,-3.5486617E-3,5.671149E-3,-6.0268217E-3,-9.6232906E-2,-6.6547856E-2,-7.820287E-2,5.668868E-2,-2.975145E-2,2.1445E-2,1.2816839E-1,2.253335E-2,-1.836054E-3,7.717666E-3,-8.987572E-3,-3.987041E-2,1.7016353E-2,4.0158212E-2,-9.13246E-2,1.5457196E-2,-5.862079E-2,3.4709986E-2,-4.354377E-2,4.3302048E-2,8.966156E-2,2.9149355E-2,-2.636121E-2,-4.9448526E-4,-1.8957639E-1,-3.681287E-2,5.6073792E-2,-3.9114E-2,-6.303839E-2,9.983042E-3,3.6383115E-2,-3.656046E-2,-3.441851E-2,-1.3819238E-3,-1.3800121E-2,8.2938614E-17,-5.4317914E-2,3.1435903E-2,1.2402409E-2,-1.3600117E-2,-1.6130295E-1,1.5842861E-1,1.2192469E-2,9.9031385E-3,-3.8277067E-2,7.0566714E-2,1.3973173E-2,-4.479588E-2,-5.1942497E-2,-1.4221443E-1,-1.3602395E-1,5.8177482E-2,-1.198934E-1,1.07996024E-1,-6.188029E-4,5.065384E-3,1.0619434E-7,-1.3597402E-1,2.1712502E-2,3.252429E-2,-4.372854E-2,7.998082E-2,-3.5254322E-2,-3.494686E-3,7.448662E-3,1.477509E-1,-6.59318E-2,-2.3889862E-2,2.6266731E-2,1.9192733E-3,1.873653E-2,-3.9098714E-2,-6.579895E-2,2.6660541E-2,2.2240583E-2,5.0528314E-2,-3.3018183E-2,6.0624648E-2,-9.7694155E-3,-4.9477547E-2,-1.0040036E-1,-7.4375495E-2,-4.0188152E-2,-9.309218E-3,9.84666E-3,-1.6583905E-3,-9.148391E-2,1.9686848E-2,-4.0183686E-2,-2.6145402E-2,-9.236548E-3,-4.4025373E-2,-1.1949641E-2,-3.0868776E-2,1.8127999E-1,-3.4188526E-4,-2.0259667E-2,1.688727E-2,-2.1351194E-3,6.918612E-2,2.8225807E-3,-1.0215587E-2,4.5861155E-2,-6.139323E-2,-3.228362E-2,-7.2812787E-3,1.633412E-2,-3.316972E-2,6.1548976E-3,-2.860036E-2,4.741619E-3,5.723308E-2,-3.556719E-2,-6.7683466E-2,9.0243846E-2,2.1483932E-2,2.7080351E-2,2.9795745E-2,-6.2506445E-2,-2.2891916E-2,-7.085821E-3,3.6185556E-3,2.120178E-2,2.476702E-2,-3.3615176E-2,1.4263725E-1,-4.3692123E-2,-7.991451E-2,-9.603E-3,-5.9539627E-2,-7.14922E-2,9.023729E-2,-4.8744686E-2,-8.494976E-2,-3.1916353E-1,-9.48485E-2,3.9332975E-2,-3.5050392E-2,-1.7778143E-2,-3.0706907E-2,-3.7513494E-2,-4.0439315E-2,-1.088882E-1,-8.015294E-2,4.731647E-3,4.4831033E-3,-1.4435301E-2,-5.2235138E-2,-6.610361E-3,-1.0839479E-2,-2.3218507E-2,-2.230277E-2,-3.788674E-2,7.970366E-3,-1.6909612E-2,4.0969983E-2,-6.336378E-2,2.4963047E-3,-1.5414129E-1,-1.0543715E-3,-9.027853E-2,-1.6909521E-2,1.0009943E-1,-6.9414034E-2,-5.993168E-2,-1.027946E-2,-2.8857538E-2,-6.7639485E-2,-9.238423E-2,-6.443674E-2,7.905962E-2,-6.088106E-2,-2.5185985E-2,4.1345116E-2,-3.356924E-2,2.7698908E-2,1.4675932E-1,-2.4676248E-2,9.172819E-18,-6.2351106E-3,-1.7951766E-2,1.0635029E-2,-4.143197E-2,7.7950796E-3,-8.958924E-3,-1.10162115E-2,-5.9037022E-2,2.0469882E-2,-1.0065738E-1,-5.0380126E-2,4.0512197E-2,2.2772754E-2,-2.1593E-2,1.669885E-2,1.1924807E-2,2.064972E-2,-7.649887E-2,1.3764593E-2,-5.4964043E-2,-6.470793E-2,-9.2718236E-2,-2.7425673E-3,5.960271E-2,1.3090078E-2,-4.9870983E-2,-6.86269E-2,3.5423186E-2,-3.9481267E-2,1.2383968E-1,-3.1766504E-2,-3.7526146E-2,-6.780722E-2,-1.1764041E-2,-4.9633797E-2,9.772547E-2,1.4448077E-2,3.2563813E-2,8.840457E-2,7.1650214E-2,-3.5160582E-3,-1.01588E-1,-7.5595226E-4,-7.148454E-2,1.2928439E-2,-1.9767441E-1,-6.578697E-2,4.062554E-2,3.527068E-2,3.6782373E-2,1.4089953E-2,-1.127631E-2,1.806872E-1,6.8919435E-2,-4.654878E-2,1.2990855E-2,1.4731955E-2,-3.747036E-2,2.142288E-2,-4.7822896E-2,-1.0297522E-2,-1.4718954E-1,6.074522E-2,1.0933256E-2,1.8562244E-2,4.1978262E-2,1.0397706E-2,-1.1037477E-1,-2.2439364E-2,2.291968E-17,-2.3533866E-2,-7.79055E-3,-8.185991E-2,-6.58294E-2,2.051496E-1,1.2050722E-2,1.3356306E-2,4.374844E-3,-2.833621E-2,6.4060097E-3,-2.7880803E-2,-2.3585178E-2,-2.7302137E-2,1.1398454E-1,-1.106524E-1,-1.6899718E-2,4.3538425E-2,-5.3120907E-3,1.0093325E-3,-4.9823914E-2,3.4394548E-3,2.3715915E-4,-2.1930419E-2,7.7696755E-3,9.106102E-2,-2.9800378E-2,-2.9010126E-2,1.0127521E-1,8.359294E-2,1.0166236E-1,4.247653E-2,-1.4393733E-1,4.098997E-2,-1.6586017E-2,9.237203E-2,-9.848065E-3,-3.0895554E-2,-5.642072E-3,-5.148855E-2,5.908945E-2,3.2910697E-2,-1.9148491E-2,-3.3070564E-2,-9.539173E-2,-3.1512205E-2,6.727048E-2,7.632793E-3,1.8484836E-2,-5.52109E-2,6.890586E-2,2.6580489E-3,8.710625E-2,-9.304813E-2,-2.4030687E-2,1.6106103E-2,2.3803588E-2,1.0130046E-15,-2.9918162E-2,1.3304632E-2,-1.3942353E-1,-3.332228E-2,3.607813E-2,-5.4008834E-2,-3.9056774E-2,1.960078E-3,3.378162E-2,-3.7857614E-2,-3.609076E-2,-2.8800681E-2,6.8424316E-3,1.6589817E-3,7.342659E-3,7.69678E-2,-4.265697E-2,-1.7468896E-2,8.211113E-2,3.4552157E-2,1.7658865E-2,1.5807124E-2,1.661457E-2,6.9094345E-2,1.28146655E-17,-3.5423964E-2,-5.4277208E-2,-2.4579499E-2,1.0464233E-2,-4.4575956E-2,6.089191E-2,1.4644594E-2,-3.035491E-3,1.5688481E-4,2.2152465E-2,3.0097803E-2,-1.5870538E-3,2.0139845E-2,-2.0408403E-2,2.2331845E-2,-6.950983E-2,1.6198047E-2,1.6102092E-2,-2.6388898E-2,-5.8079967E-3,1.6429703E0]},"name":"gblinear"},"learner_model_param":{"base_score":"5E-1","num_class":"0","num_feature":"1024","num_target":"1"},"objective":{"name":"binary:logistic","reg_loss_param":{"scale_pos_weight":"1"}}},"version":[1,6,0]}