{"learner":{"attributes":{"best_iteration":"49","best_ntree_limit":"50"},"feature_names":["0","1","2","3","4","5","6","7","8","9","10","11","12","13","14","15","16","17","18","19","20","21","22","23","24","25","26","27","28","29","30","31","32","33","34","35","36","37","38","39","40","41","42","43","44","45","46","47","48","49","50","51","52","53","54","55","56","57","58","59","60","61","62","63","64","65","66","67","68","69","70","71","72","73","74","75","76","77","78","79","80","81","82","83","84","85","86","87","88","89","90","91","92","93","94","95","96","97","98","99","100","101","102","103","104","105","106","107","108","109","110","111","112","113","114","115","116","117","118","119","120","121","122","123","124","125","126","127","128","129","130","131","132","133","134","135","136","137","138","139","140","141","142","143","144","145","146","147","148","149","150","151","152","153","154","155","156","157","158","159","160","161","162","163","164","165","166","167","168","169","170","171","172","173","174","175","176","177","178","179","180","181","182","183","184","185","186","187","188","189","190","191","192","193","194","195","196","197","198","199"],"feature_types":["float","float","float","float","float","float","float","float","float","float","float","float","float","float","float","float","float","float","float","float","float","float","float","float","float","float","float","float","float","float","float","float","float","float","float","float","float","float","float","float","float","float","float","float","float","float","float","float","float","float","float","float","float","float","float","float","float","float","float","float","float","float","float","float","float","float","float","float","float","float","float","float","float","float","float","float","float","float","float","float","float","float","float","float","float","float","float","float","float","float","float","float","float","float","float","float","float","float","float","float","float","float","float","float","float","float","float","float","float","float","float","float","float","float","float","float","float","float","float","float","float","float","float","float","float","float","float","float","float","float","float","float","float","float","float","float","float","float","float","float","float","float","float","float","float","float","float","float","float","float","float","float","float","float","float","float","float","float","float","float","float","float","float","float","float","float","float","float","float","float","float","float","float","float","float","float","float","float","float","float","float","float","float","float","float","float","float","float","float","float","float","float","float","float","float","float","float","float","float","float"],"gradient_booster":{"model":{"gbtree_model_param":{"num_parallel_tree":"1","num_trees":"50","size_leaf_vector":"0"},"tree_info":[0,0,0,0,0,0,0,0,0,0,0,0,0,0,0,0,0,0,0,0,0,0,0,0,0,0,0,0,0,0,0,0,0,0,0,0,0,0,0,0,0,0,0,0,0,0,0,0,0,0],"trees":[{"base_weights":[1.0122421E0,1.4272041E0,-9.536437E-1,1.5322913E0,-3.4508848E-1,2.0091851E-1,-1.4839214E0,1.581072E0,-2.3181538E-1,-8.5502225E-1,1.1516324E0,-6.64341E-1,1.3652856E0,1.9800634E0,-1.5951099E0],"categories":[],"categories_nodes":[],"categories_segments":[],"categories_sizes":[],"default_left":[1,1,1,1,1,1,1,0,0,0,0,0,0,0,0],"id":0,"left_children":[1,3,5,7,9,11,13,-1,-1,-1,-1,-1,-1,-1,-1],"loss_changes":[3.3121622E2,6.2473877E1,4.3353935E1,2.7276123E1,1.4302114E1,2.2437485E1,1.866935E1,0E0,0E0,0E0,0E0,0E0,0E0,0E0,0E0],"parents":[2147483647,0,0,1,1,2,2,3,3,4,4,5,5,6,6],"right_children":[2,4,6,8,10,12,14,-1,-1,-1,-1,-1,-1,-1,-1],"split_conditions":[8.110975E-1,5.832491E-1,7.8692013E-1,8.7591445E-1,5.8949447E-1,6.2408847E-1,6.030561E-1,1.3686631E0,-2.0067218E-1,-7.401544E-1,9.9691653E-1,-5.7509017E-1,1.1818665E0,1.7140521E0,-1.3808151E0],"split_indices":[103,122,67,49,19,98,15,0,0,0,0,0,0,0,0],"split_type":[0,0,0,0,0,0,0,0,0,0,0,0,0,0,0],"sum_hessian":[4.06E2,3.3525E2,7.075E1,3.165E2,1.875E1,2.225E1,4.85E1,3.08E2,8.5E0,1.4E1,4.75E0,1.275E1,9.5E0,1.5E0,4.7E1],"tree_param":{"num_deleted":"0","num_feature":"200","num_nodes":"15","size_leaf_vector":"0"}},{"base_weights":[3.7821782E-1,7.2618985E-1,-1.5834312E-1,7.763859E-1,-2.8493829E0,-1.0120312E-1,-3.6913042E0,8.3431E-1,-2.330232E0,-1.3244052E0,-4.3809605E0,-4.106819E-1,5.035317E-1],"categories":[],"categories_nodes":[],"categories_segments":[],"categories_sizes":[],"default_left":[1,1,1,1,1,1,0,0,0,0,0,0,0],"id":1,"left_children":[1,3,5,7,9,11,-1,-1,-1,-1,-1,-1,-1],"loss_changes":[5.1014187E1,2.9682747E1,2.157297E1,2.9365997E1,5.1700897E0,1.9782627E1,0E0,0E0,0E0,0E0,0E0,0E0,0E0],"parents":[2147483647,0,0,1,1,2,2,3,3,4,4,5,5],"right_children":[2,4,6,8,10,12,-1,-1,-1,-1,-1,-1,-1],"split_conditions":[6.030647E-1,9.2701286E-1,7.677049E-1,9.271878E-1,5.9723246E-1,2.2782746E-1,-3.1953964E0,7.222247E-1,-2.017177E0,-1.1464782E0,-3.7924008E0,-3.555089E-1,4.358848E-1],"split_indices":[58,67,56,95,8,46,0,0,0,0,0,0,0],"split_type":[0,0,0,0,0,0,0,0,0,0,0,0,0],"sum_hessian":[2.7313937E2,1.6572069E2,1.0741869E2,1.634347E2,2.2859883E0,1.0571744E2,1.7012559E0,1.6045264E2,2.982058E0,1.1553011E0,1.1306874E0,6.99624E1,3.5755035E1],"tree_param":{"num_deleted":"0","num_feature":"200","num_nodes":"13","size_leaf_vector":"0"}},{"base_weights":[1.8585955E-1,-1.4279813E-1,6.2490886E-1,3.246051E-1,-7.042547E-1,8.408452E-1,1.0628444E-2,3.8781962E-1,-3.0806615E0,1.3313679E0,-8.679759E-1,9.1893095E-1,-6.9424045E-1,-1.8001859E0,2.8886092E-1],"categories":[],"categories_nodes":[],"categories_segments":[],"categories_sizes":[],"default_left":[1,1,1,1,1,1,1,0,0,0,0,0,0,0,0],"id":2,"left_children":[1,3,5,7,9,11,13,-1,-1,-1,-1,-1,-1,-1,-1],"loss_changes":[2.9802912E1,3.0983921E1,1.170285E1,1.37789E1,1.7865458E1,7.8441963E0,1.155986E1,0E0,0E0,0E0,0E0,0E0,0E0,0E0,0E0],"parents":[2147483647,0,0,1,1,2,2,3,3,4,4,5,5,6,6],"right_children":[2,4,6,8,10,12,14,-1,-1,-1,-1,-1,-1,-1,-1],"split_conditions":[4.8793843E-1,5.1829886E-1,9.7540855E-1,9.794599E-1,9.231149E-2,5E-1,4.070765E-2,3.3571804E-1,-2.6667905E0,1.1525054E0,-7.5136775E-1,7.954773E-1,-6.0097283E-1,-1.5583402E0,2.5005394E-1],"split_indices":[92,15,70,97,34,118,44,0,0,0,0,0,0,0,0],"split_type":[0,0,0,0,0,0,0,0,0,0,0,0,0,0,0],"sum_hessian":[2.064398E2,1.18023926E2,8.8415886E1,6.43779E1,5.364603E1,6.538362E1,2.3032265E1,6.321326E1,1.1646348E0,3.979934E0,4.9666096E1,6.22371E1,3.146524E0,3.0533097E0,1.9978954E1],"tree_param":{"num_deleted":"0","num_feature":"200","num_nodes":"15","size_leaf_vector":"0"}},{"base_weights":[1.1149107E-1,4.1687303E0,8.56817E-2,1.9146454E-1,-9.3325514E-1,3.4634358E-1,-5.445146E-1,-3.5758042E0,-5.635116E-1],"categories":[],"categories_nodes":[],"categories_segments":[],"categories_sizes":[],"default_left":[1,0,1,1,1,0,0,0,0],"id":3,"left_children":[1,-1,3,5,7,-1,-1,-1,-1],"loss_changes":[1.763413E1,0E0,1.814408E1,1.7401497E1,1.5339596E1,0E0,0E0,0E0,0E0],"parents":[2147483647,0,0,2,2,3,3,4,4],"right_children":[2,-1,4,6,8,-1,-1,-1,-1],"split_conditions":[2.7171546E-1,3.6086826E0,8.545904E-1,9.238649E-1,4.8258373E-1,2.998141E-1,-4.7136185E-1,-3.0954132E0,-4.878067E-1],"split_indices":[112,0,79,0,95,0,0,0,0],"split_type":[0,0,0,0,0,0,0,0,0],"sum_hessian":[1.6960153E2,1.064643E0,1.685369E2,1.5271194E2,1.5824946E1,1.26195625E2,2.651632E1,1.9324255E0,1.3892521E1],"tree_param":{"num_deleted":"0","num_feature":"200","num_nodes":"9","size_leaf_vector":"0"}},{"base_weights":[4.3009754E-2,1.544623E-1,-7.196435E-1,2.1161686E-1,-1.4388392E0,1.2803748E0,-9.315805E-1,2.9421556E-1,-6.9924784E-1,-2.7128434E0,-7.5363237E-1,-1.0889289E0,1.8073031E0],"categories":[],"categories_nodes":[],"categories_segments":[],"categories_sizes":[],"default_left":[1,1,1,1,1,0,1,0,0,0,0,0,0],"id":4,"left_children":[1,3,5,7,9,-1,11,-1,-1,-1,-1,-1,-1],"loss_changes":[1.37443495E1,1.2830006E1,8.725466E0,1.02512E1,4.152773E0,0E0,8.015467E0,0E0,0E0,0E0,0E0,0E0,0E0],"parents":[2147483647,0,0,1,1,2,2,3,3,4,4,6,6],"right_children":[2,4,6,8,10,-1,12,-1,-1,-1,-1,-1,-1],"split_conditions":[9.882643E-1,9.729548E-1,3.188138E-1,7.8431463E-1,4.934624E-1,1.108363E0,9.9932456E-1,2.5468922E-1,-6.0530746E-1,-2.3483868E0,-6.523857E-1,-9.426369E-1,1.5645012E0],"split_indices":[63,179,81,84,85,0,17,0,0,0,0,0,0],"split_type":[0,0,0,0,0,0,0,0,0,0,0,0,0],"sum_hessian":[1.6189478E2,1.4128635E2,2.0608423E1,1.3641171E2,4.8746343E0,1.9611417E0,1.8647282E1,1.2509999E2,1.13117285E1,1.689567E0,3.1850672E0,1.7644505E1,1.0027786E0],"tree_param":{"num_deleted":"0","num_feature":"200","num_nodes":"13","size_leaf_vector":"0"}},{"base_weights":[7.3953313E-3,-1.00101724E-1,6.5798247E-1,-5.0531972E-2,-2.3801758E0,9.738691E-1,-8.2228756E-1,-2.419836E-1,5.0845784E-1,-4.1908593E0,1.3956517E-1,1.1071867E0,-8.6185205E-1,-1.3820165E0,5.6873816E-1],"categories":[],"categories_nodes":[],"categories_segments":[],"categories_sizes":[],"default_left":[1,1,1,1,1,1,1,0,0,0,0,0,0,0,0],"id":5,"left_children":[1,3,5,7,9,11,13,-1,-1,-1,-1,-1,-1,-1,-1],"loss_changes":[1.019606E1,1.4042093E1,9.674E0,1.3073398E1,1.2184782E1,4.182247E0,2.8430066E0,0E0,0E0,0E0,0E0,0E0,0E0,0E0,0E0],"parents":[2147483647,0,0,1,1,2,2,3,3,4,4,5,5,6,6],"right_children":[2,4,6,8,10,12,14,-1,-1,-1,-1,-1,-1,-1,-1],"split_conditions":[8.368938E-1,9.7467476E-1,8.615898E-1,8.030824E-1,1.9787978E-1,9.8869586E-1,1.1368223E-1,-2.0947435E-1,4.4014913E-1,-3.6278389E0,1.2081531E-1,9.584418E-1,-7.4606663E-1,-1.1963497E0,4.9233112E-1],"split_indices":[9,77,21,45,38,77,199,0,0,0,0,0,0,0,0],"split_type":[0,0,0,0,0,0,0,0,0,0,0,0,0,0,0],"sum_hessian":[1.4555498E2,1.2487634E2,2.067864E1,1.2223211E2,2.644231E0,1.705842E1,3.620221E0,9.108784E1,3.1144272E1,1.5453408E0,1.0988903E0,1.5918512E1,1.1399077E0,2.5966089E0,1.023612E0],"tree_param":{"num_deleted":"0","num_feature":"200","num_nodes":"15","size_leaf_vector":"0"}},{"base_weights":[3.48197E-2,1.2681842E-1,-9.259716E-1,-2.2917163E-1,3.4483328E-1,-2.7359817E0,4.125476E-3,-5.628011E-2,-1.5508206E0,7.480106E-1,3.783813E-2,-4.5957856E0,-3.917041E-1,-7.092021E-1,8.931128E-1],"categories":[],"categories_nodes":[],"categories_segments":[],"categories_sizes":[],"default_left":[1,1,1,1,1,1,1,0,0,0,0,0,0,0,0],"id":6,"left_children":[1,3,5,7,9,11,13,-1,-1,-1,-1,-1,-1,-1,-1],"loss_changes":[1.2112058E1,9.730019E0,2.0231133E1,1.08175E1,9.603419E0,1.7613228E1,5.012721E0,0E0,0E0,0E0,0E0,0E0,0E0,0E0,0E0],"parents":[2147483647,0,0,1,1,2,2,3,3,4,4,5,5,6,6],"right_children":[2,4,6,8,10,12,14,-1,-1,-1,-1,-1,-1,-1,-1],"split_conditions":[5.784651E-1,4.9011624E-1,2.7359277E-1,6.7404777E-1,5.823009E-1,9.711833E-1,7.56091E-1,-4.8719164E-2,-1.3424758E0,6.475192E-1,3.275477E-2,-3.9783654E0,-3.3908066E-1,-6.1392444E-1,7.731277E-1],"split_indices":[187,199,15,22,14,101,81,0,0,0,0,0,0,0,0],"split_type":[0,0,0,0,0,0,0,0,0,0,0,0,0,0,0],"sum_hessian":[1.372938E2,1.25324486E2,1.1969308E1,4.75485E1,7.777598E1,4.073489E0,7.8958187E0,4.2067924E1,5.4805765E0,3.3579506E1,4.4196476E1,2.2643309E0,1.8091581E0,4.3623085E0,3.53351E0],"tree_param":{"num_deleted":"0","num_feature":"200","num_nodes":"15","size_leaf_vector":"0"}},{"base_weights":[1.7096907E-1,1.7513903E0,9.67925E-2,1.0306728E0,2.3190532E0,1.6023401E0,4.830343E-2,1.4084431E0,4.0234447E-1,1.5982811E0,2.697353E0,2.2255154E0,1.3278195E0,1.2936686E-1,-6.900432E-1],"categories":[],"categories_nodes":[],"categories_segments":[],"categories_sizes":[],"default_left":[1,1,1,1,1,1,1,0,0,0,0,0,0,0,0],"id":7,"left_children":[1,3,5,7,9,11,13,-1,-1,-1,-1,-1,-1,-1,-1],"loss_changes":[1.5454805E1,2.3198643E0,9.177737E0,5.703666E-1,7.679901E-1,5.659008E-1,7.3131375E0,0E0,0E0,0E0,0E0,0E0,0E0,0E0,0E0],"parents":[2147483647,0,0,1,1,2,2,3,3,4,4,5,5,6,6],"right_children":[2,4,6,8,10,12,14,-1,-1,-1,-1,-1,-1,-1,-1],"split_conditions":[1.5625197E-2,5.3991354E-1,1.9607625E-5,3.2173204E-1,8.8733184E-1,7.3184475E-2,5E-1,1.219226E0,3.4829155E-1,1.3835603E0,2.3349774E0,1.9265288E0,1.1494337E0,1.11987084E-1,-5.9733945E-1],"split_indices":[38,78,0,98,0,80,167,0,0,0,0,0,0,0,0],"split_type":[0,0,0,0,0,0,0,0,0,0,0,0,0,0,0],"sum_hessian":[1.3229851E2,5.912979E0,1.2638554E2,2.6284242E0,3.284555E0,3.9242923E0,1.2246124E2,1.6120079E0,1.0164162E0,1.1577499E0,2.126805E0,1.1667649E0,2.7575274E0,1.1038245E2,1.2078796E1],"tree_param":{"num_deleted":"0","num_feature":"200","num_nodes":"15","size_leaf_vector":"0"}},{"base_weights":[4.1064087E-2,3.7872052E-1,-1.4367242E-1,1.0867536E0,1.113878E-1,-6.263439E-1,1.0663133E-1,-1.255936E0,1.3169022E0,-4.793296E-1,7.646137E-1,-7.617496E-1,1.5254091E0,2.706405E-1,-9.7726643E-1],"categories":[],"categories_nodes":[],"categories_segments":[],"categories_sizes":[],"default_left":[1,1,1,1,1,1,1,0,0,0,0,0,0,0,0],"id":8,"left_children":[1,3,5,7,9,11,13,-1,-1,-1,-1,-1,-1,-1,-1],"loss_changes":[7.521144E0,8.038662E0,9.415551E0,6.289465E0,1.1968817E1,7.73092E0,9.080339E0,0E0,0E0,0E0,0E0,0E0,0E0,0E0,0E0],"parents":[2147483647,0,0,1,1,2,2,3,3,4,4,5,5,6,6],"right_children":[2,4,6,8,10,12,14,-1,-1,-1,-1,-1,-1,-1,-1],"split_conditions":[3.891557E-1,1.1887094E-1,2.714559E-1,4.053659E-2,3.3390802E-1,7.497971E-1,6.533485E-1,-1.0872074E0,1.139983E0,-4.149341E-1,6.6189176E-1,-6.5941244E-1,1.3204782E0,2.3428133E-1,-8.459757E-1],"split_indices":[86,18,78,44,18,80,99,0,0,0,0,0,0,0,0],"split_type":[0,0,0,0,0,0,0,0,0,0,0,0,0,0,0],"sum_hessian":[1.2046307E2,4.2656425E1,7.780665E1,1.16610365E1,3.0995388E1,2.6610378E1,5.1196274E1,1.0315652E0,1.0629472E1,1.6252748E1,1.4742638E1,2.5048E1,1.5623772E0,4.4491463E1,6.7048078E0],"tree_param":{"num_deleted":"0","num_feature":"200","num_nodes":"15","size_leaf_vector":"0"}},{"base_weights":[5.1388633E-2,1.1669052E-1,-6.758554E-1,6.992909E-1,7.4906303E-3,-1.1318284E0,9.2934805E-1,5.1906395E-1,2.6613698E0,8.4613904E-2,-1.0972637E0,3.4042138E-1,-1.3600885E0,1.6838344E0,1.3257073E-1],"categories":[],"categories_nodes":[],"categories_segments":[],"categories_sizes":[],"default_left":[1,1,1,1,1,1,1,0,0,0,0,0,0,0,0],"id":9,"left_children":[1,3,5,7,9,11,13,-1,-1,-1,-1,-1,-1,-1,-1],"loss_changes":[5.637574E0,6.931816E0,7.158953E0,5.9908447E0,7.815302E0,2.5926323E0,1.2374041E0,0E0,0E0,0E0,0E0,0E0,0E0,0E0,0E0],"parents":[2147483647,0,0,1,1,2,2,3,3,4,4,5,5,6,6],"right_children":[2,4,6,8,10,12,14,-1,-1,-1,-1,-1,-1,-1,-1],"split_conditions":[9.4382733E-1,2.6416337E-1,6.5469587E-1,9.339608E-1,8.5253614E-1,3.0060333E-1,7.9431824E-2,4.4933036E-1,2.3038285E0,7.324646E-2,-9.4985193E-1,2.946875E-1,-1.1773676E0,1.4576199E0,1.1476053E-1],"split_indices":[66,0,18,15,78,91,0,0,0,0,0,0,0,0,0],"split_type":[0,0,0,0,0,0,0,0,0,0,0,0,0,0,0],"sum_hessian":[1.1905687E2,1.0928457E2,9.772299E0,1.7207603E1,9.2076965E1,7.6248417E0,2.1474576E0,1.5773974E1,1.4336296E0,8.609364E1,5.983324E0,1.0061104E0,6.618731E0,1.0838585E0,1.063599E0],"tree_param":{"num_deleted":"0","num_feature":"200","num_nodes":"15","size_leaf_vector":"0"}},{"base_weights":[-6.08412E-3,6.927448E-2,-6.8396616E-1,-1.5626917E0,1.05884194E-1,-1.2347776E0,-0E0,-1.9100577E-1,-2.8728917E0,-3.5281043E-2,5.4975754E-1,-6.7660606E-1,-1.895797E0,1.2434765E0,-6.939364E-1],"categories":[],"categories_nodes":[],"categories_segments":[],"categories_sizes":[],"default_left":[1,1,1,1,1,1,1,0,0,0,0,0,0,0,0],"id":10,"left_children":[1,3,5,7,9,11,13,-1,-1,-1,-1,-1,-1,-1,-1],"loss_changes":[5.8598375E0,6.1033235E0,4.2908883E0,3.9341335E0,6.320927E0,2.261773E0,4.4232717E0,0E0,0E0,0E0,0E0,0E0,0E0,0E0,0E0],"parents":[2147483647,0,0,1,1,2,2,3,3,4,4,5,5,6,6],"right_children":[2,4,6,8,10,12,14,-1,-1,-1,-1,-1,-1,-1,-1],"split_conditions":[9.0103656E-1,5.506867E-2,8.3542466E-1,2.6277902E-2,9.8623234E-1,8.9387465E-1,8.435105E-1,-1.6534512E-1,-2.4869335E0,-3.0541217E-2,4.7590044E-1,-5.857075E-1,-1.6411064E0,1.0764219E0,-6.007096E-1],"split_indices":[15,26,9,27,68,30,7,0,0,0,0,0,0,0,0],"split_type":[0,0,0,0,0,0,0,0,0,0,0,0,0,0,0],"sum_hessian":[1.1435367E2,1.02874016E2,1.1479651E1,2.2392573E0,1.0063476E2,6.3364143E0,5.143237E0,1.105076E0,1.1341814E0,7.630205E1,2.4332714E1,3.4598963E0,2.8765182E0,1.827927E0,3.3153098E0],"tree_param":{"num_deleted":"0","num_feature":"200","num_nodes":"15","size_leaf_vector":"0"}},{"base_weights":[1.6708666E-2,2.636708E-1,-2.8920972E-1,3.732799E-1,-8.8490766E-1,-4.8077282E-1,6.5041107E-1,7.013794E-1,2.0839078E-2,-2.0069624E-1,-2.9633186E0,-9.2694366E-1,-7.335112E-2,-8.49206E-1,1.2541629E0],"categories":[],"categories_nodes":[],"categories_segments":[],"categories_sizes":[],"default_left":[1,1,1,1,1,1,1,0,0,0,0,0,0,0,0],"id":11,"left_children":[1,3,5,7,9,11,13,-1,-1,-1,-1,-1,-1,-1,-1],"loss_changes":[8.462725E0,7.7952704E0,8.992365E0,6.530301E0,7.558892E0,7.522891E0,7.6527843E0,0E0,0E0,0E0,0E0,0E0,0E0,0E0,0E0],"parents":[2147483647,0,0,1,1,2,2,3,3,4,4,5,5,6,6],"right_children":[2,4,6,8,10,12,14,-1,-1,-1,-1,-1,-1,-1,-1],"split_conditions":[5.68373E-1,7.3085105E-1,5.8132726E-1,6.030647E-1,5.1829886E-1,7.606457E-1,5.601428E-1,6.071527E-1,1.8039456E-2,-1.7373373E-1,-2.565212E0,-8.024135E-1,-6.3496776E-2,-7.351195E-1,1.0856725E0],"split_indices":[39,90,134,58,15,81,28,0,0,0,0,0,0,0,0],"split_type":[0,0,0,0,0,0,0,0,0,0,0,0,0,0,0],"sum_hessian":[1.1202409E2,6.2038292E1,4.99858E1,5.665731E1,5.3809843E0,4.1547012E1,8.438788E0,2.929842E1,2.735889E1,4.0591354E0,1.3218486E0,1.979578E1,2.1751232E1,2.4082139E0,6.030575E0],"tree_param":{"num_deleted":"0","num_feature":"200","num_nodes":"15","size_leaf_vector":"0"}},{"base_weights":[5.6665666E-2,-2.2916494E-2,6.9406337E-1,-1.7335968E0,1.8053045E-2,1.0604985E0,-6.157619E-1,-1.3380666E-1,-3.49818E0,1.645348E0,-3.128165E-2,1.28351E0,9.716495E-2,1.5670888E-1,-1.2667726E0],"categories":[],"categories_nodes":[],"categories_segments":[],"categories_sizes":[],"default_left":[1,1,1,1,1,1,1,0,0,0,0,0,0,0,0],"id":12,"left_children":[1,3,5,7,9,11,13,-1,-1,-1,-1,-1,-1,-1,-1],"loss_changes":[5.34645E0,6.5905275E0,5.6273217E0,6.1013618E0,7.362424E0,1.9265652E0,1.3098736E0,0E0,0E0,0E0,0E0,0E0,0E0,0E0,0E0],"parents":[2147483647,0,0,1,1,2,2,3,3,4,4,5,5,6,6],"right_children":[2,4,6,8,10,12,14,-1,-1,-1,-1,-1,-1,-1,-1],"split_conditions":[8.940294E-1,1.329264E-1,8.5018444E-1,8.5089594E-1,8.501941E-3,9.390857E-1,7.9078054E-1,-1.1583042E-1,-3.0282173E0,1.4243039E0,-2.707912E-2,1.111077E0,8.411134E-2,1.3565585E-1,-1.0965883E0],"split_indices":[41,36,69,42,12,97,96,0,0,0,0,0,0,0,0],"split_type":[0,0,0,0,0,0,0,0,0,0,0,0,0,0,0],"sum_hessian":[1.0500878E2,9.331217E1,1.1696608E1,2.199159E0,9.1113014E1,9.157339E0,2.5392687E0,1.1623228E0,1.0368361E0,2.69842E0,8.84146E1,7.4109855E0,1.7463537E0,1.140627E0,1.3986416E0],"tree_param":{"num_deleted":"0","num_feature":"200","num_nodes":"15","size_leaf_vector":"0"}},{"base_weights":[5.5786468E-2,1.2043525E-1,-6.6789544E-1,7.3959583E-1,4.91087E-2,-1.0919203E0,1.9319898E-1,1.0056875E0,-1.0902425E0,-3.4333587E-2,6.4889187E-1,-5.483955E-1,-1.3542255E0,1.0816014E0,-1.249362E0],"categories":[],"categories_nodes":[],"categories_segments":[],"categories_sizes":[],"default_left":[1,1,1,1,1,1,1,0,0,0,0,0,0,0,0],"id":13,"left_children":[1,3,5,7,9,11,13,-1,-1,-1,-1,-1,-1,-1,-1],"loss_changes":[4.8030744E0,4.1543894E0,3.097255E0,4.7348456E0,4.265607E0,7.5035286E-1,3.5222569E0,0E0,0E0,0E0,0E0,0E0,0E0,0E0,0E0],"parents":[2147483647,0,0,1,1,2,2,3,3,4,4,5,5,6,6],"right_children":[2,4,6,8,10,12,14,-1,-1,-1,-1,-1,-1,-1,-1],"split_conditions":[5E-1,1.3296843E-1,4.3186954E-1,3.9987978E-1,9.294284E-1,4.4410366E-1,1.5087587E-1,8.705785E-1,-9.43774E-1,-2.9721046E-2,5.6171656E-1,-4.747214E-1,-1.1722922E0,9.362938E-1,-1.0815166E0],"split_indices":[167,78,78,129,112,7,44,0,0,0,0,0,0,0,0],"split_type":[0,0,0,0,0,0,0,0,0,0,0,0,0,0,0],"sum_hessian":[1.03007324E2,9.459758E1,8.409742E0,9.72888E0,8.4868706E1,5.6578894E0,2.7518528E0,8.507898E0,1.2209812E0,7.446064E1,1.0408065E1,1.8785284E0,3.779361E0,1.7157323E0,1.0361203E0],"tree_param":{"num_deleted":"0","num_feature":"200","num_nodes":"15","size_leaf_vector":"0"}},{"base_weights":[7.299635E-3,3.70203E-1,-1.0516451E-1,-1.3967625E-2,1.1165748E0,-1.4834891E-1,1.1061813E0,-9.8780465E-1,2.9513434E-1,1.3698903E0,-5.5239785E-1,-1.1245396E0,-9.17203E-2,7.8291124E-1,1.5519902E0],"categories":[],"categories_nodes":[],"categories_segments":[],"categories_sizes":[],"default_left":[1,1,1,1,1,1,1,0,0,0,0,0,0,0,0],"id":14,"left_children":[1,3,5,7,9,11,13,-1,-1,-1,-1,-1,-1,-1,-1],"loss_changes":[3.9906092E0,6.670177E0,3.8655727E0,4.6130376E0,3.3610106E0,3.9385636E0,2.9670835E-1,0E0,0E0,0E0,0E0,0E0,0E0,0E0,0E0],"parents":[2147483647,0,0,1,1,2,2,3,3,4,4,5,5,6,6],"right_children":[2,4,6,8,10,12,14,-1,-1,-1,-1,-1,-1,-1,-1],"split_conditions":[1.8934095E-1,9.943631E-2,9.324504E-1,2.7149764E-1,5.846757E-1,1.3909953E-2,5.8593464E-1,-8.550981E-1,2.5548455E-1,1.1858525E0,-4.7818604E-1,-9.734635E-1,-7.939815E-2,6.7773116E-1,1.3434882E0],"split_indices":[81,38,42,28,25,32,57,0,0,0,0,0,0,0,0],"split_type":[0,0,0,0,0,0,0,0,0,0,0,0,0,0,0],"sum_hessian":[9.758431E1,2.3148851E1,7.4435455E1,1.5256628E1,7.892223E0,7.189688E1,2.538577E0,3.6987324E0,1.1557896E1,6.8675895E0,1.0246334E0,3.91326E0,6.798362E1,1.5102229E0,1.028354E0],"tree_param":{"num_deleted":"0","num_feature":"200","num_nodes":"15","size_leaf_vector":"0"}},{"base_weights":[4.1098893E-2,6.693716E-1,-1.9352386E-2,9.522523E-1,-3.3372292E-1,3.294652E-1,-1.295866E-1,1.3481349E0,4.2086107E-1,-1.8389402E-2,8.382244E-1,-3.527056E-2,-9.1270095E-1],"categories":[],"categories_nodes":[],"categories_segments":[],"categories_sizes":[],"default_left":[1,1,1,1,0,1,1,0,0,0,0,0,0],"id":15,"left_children":[1,3,5,7,-1,9,11,-1,-1,-1,-1,-1,-1],"loss_changes":[3.679077E0,2.4305313E0,3.372579E0,1.3474555E0,0E0,3.7468014E0,4.90797E0,0E0,0E0,0E0,0E0,0E0,0E0],"parents":[2147483647,0,0,1,1,2,2,3,3,5,5,6,6],"right_children":[2,4,6,8,-1,10,12,-1,-1,-1,-1,-1,-1],"split_conditions":[5.853364E-2,6.9936836E-1,1.3172457E-1,3.6079246E-1,-2.8888896E-1,3.76661E-1,8.621308E-1,1.1670198E0,3.6432055E-1,-1.591888E-2,7.2561324E-1,-3.0532142E-2,-7.9008424E-1],"split_indices":[28,22,19,66,0,141,67,0,0,0,0,0,0],"split_type":[0,0,0,0,0,0,0,0,0,0,0,0,0],"sum_hessian":[9.636351E1,8.5008E0,8.786271E1,6.6538143E0,1.8469858E0,2.1034468E1,6.682825E1,3.7810812E0,2.8727334E0,1.2458412E1,8.576055E0,5.9678627E1,7.1496196E0],"tree_param":{"num_deleted":"0","num_feature":"200","num_nodes":"13","size_leaf_vector":"0"}},{"base_weights":[1.8904643E-2,8.927081E-2,-3.557058E-1,-2.984349E-2,5.021158E-1,-1.2611551E0,-5.9857767E-2,6.751387E-2,-1.6264135E0,6.715131E-1,-1.0120308E0,-2.5192847E0,-6.369803E-1,1.0359892E0,-2.3550464E-1],"categories":[],"categories_nodes":[],"categories_segments":[],"categories_sizes":[],"default_left":[1,1,1,1,1,1,1,0,0,0,0,0,0,0,0],"id":16,"left_children":[1,3,5,7,9,11,13,-1,-1,-1,-1,-1,-1,-1,-1],"loss_changes":[2.4800327E0,3.9245603E0,3.9412627E0,9.630556E0,4.5715566E0,2.7608242E0,2.1368642E0,0E0,0E0,0E0,0E0,0E0,0E0,0E0,0E0],"parents":[2147483647,0,0,1,1,2,2,3,3,4,4,5,5,6,6],"right_children":[2,4,6,8,10,12,14,-1,-1,-1,-1,-1,-1,-1,-1],"split_conditions":[8.21715E-1,4.4888103E-1,2.424942E-1,5.625955E-1,8.5843813E-1,3.030695E-1,2.948206E-1,5.8443725E-2,-1.4079132E0,5.8129877E-1,-8.7606966E-1,-2.1808317E0,-5.5140525E-1,8.9680934E-1,-2.038658E-1],"split_indices":[95,2,39,6,46,20,17,0,0,0,0,0,0,0,0],"split_type":[0,0,0,0,0,0,0,0,0,0,0,0,0,0,0],"sum_hessian":[9.438154E1,7.952303E1,1.4858505E1,6.1661175E1,1.7861858E1,3.6345284E0,1.1223977E1,5.8099983E1,3.5611918E0,1.6082241E1,1.7796174E0,1.1893363E0,2.445192E0,1.5271538E0,9.696823E0],"tree_param":{"num_deleted":"0","num_feature":"200","num_nodes":"15","size_leaf_vector":"0"}},{"base_weights":[2.5753532E-2,1.9398934E-1,-1.7876738E-1,9.6533513E-1,7.055413E-2,-1.6687629E0,-8.157755E-2,1.2514793E0,1.1946348E-1,-9.531487E-1,1.5601419E-1,-2.8274436E0,-7.1453315E-1,1.7569986E-1,-3.813066E-1],"categories":[],"categories_nodes":[],"categories_segments":[],"categories_sizes":[],"default_left":[1,1,1,1,1,1,1,0,0,0,0,0,0,0,0],"id":17,"left_children":[1,3,5,7,9,11,13,-1,-1,-1,-1,-1,-1,-1,-1],"loss_changes":[3.1962223E0,4.8289356E0,6.007244E0,1.6556935E0,3.8286455E0,2.7071633E0,3.0363934E0,0E0,0E0,0E0,0E0,0E0,0E0,0E0,0E0],"parents":[2147483647,0,0,1,1,2,2,3,3,4,4,5,5,6,6],"right_children":[2,4,6,8,10,12,14,-1,-1,-1,-1,-1,-1,-1,-1],"split_conditions":[6.1780477E-1,4.0975608E-2,6.5847486E-2,9.639741E-1,2.9170297E-2,2.2950244E-1,7.824961E-1,1.0833495E0,1.0341418E-1,-8.250981E-1,1.3505448E-1,-2.447591E0,-6.185393E-1,1.5209548E-1,-3.3008E-1],"split_indices":[73,35,59,0,1,29,14,0,0,0,0,0,0,0,0],"split_type":[0,0,0,0,0,0,0,0,0,0,0,0,0,0,0],"sum_hessian":[9.287909E1,5.1039303E1,4.1839787E1,7.0077043E0,4.4031597E1,2.543229E0,3.9296555E1,5.210189E0,1.7975155E0,3.365828E0,4.0665768E1,1.134426E0,1.408803E0,2.1092787E1,1.820377E1],"tree_param":{"num_deleted":"0","num_feature":"200","num_nodes":"15","size_leaf_vector":"0"}},{"base_weights":[2.0583438E-2,5.8603395E-2,-7.070153E-1,2.5456753E-2,1.1848003E0,4.8379228E-1,-1.0804352E0,9.013526E-2,-4.739804E-1,1.5779303E0,8.147715E-1,-1.7584914E0,-6.5018535E-1],"categories":[],"categories_nodes":[],"categories_segments":[],"categories_sizes":[],"default_left":[1,1,1,1,1,0,1,0,0,0,0,0,0],"id":18,"left_children":[1,3,5,7,9,-1,11,-1,-1,-1,-1,-1,-1],"loss_changes":[2.4081042E0,3.0784452E0,1.9380996E0,2.6072857E0,2.7237225E-1,0E0,8.933182E-1,0E0,0E0,0E0,0E0,0E0,0E0],"parents":[2147483647,0,0,1,1,2,2,3,3,4,4,6,6],"right_children":[2,4,6,8,10,-1,12,-1,-1,-1,-1,-1,-1],"split_conditions":[8.885803E-1,8.4119517E-1,2.263904E-1,5E-1,8.390013E-1,4.1879725E-1,1.765296E-1,7.802605E-2,-4.1030356E-1,1.3659434E0,7.053111E-1,-1.5222471E0,-5.628363E-1],"split_indices":[21,21,77,114,69,0,88,0,0,0,0,0,0],"split_type":[0,0,0,0,0,0,0,0,0,0,0,0,0],"sum_hessian":[8.774215E1,8.342368E1,4.318468E0,8.1064186E1,2.3594985E0,1.012037E0,3.3064313E0,7.182227E1,9.241912E0,1.105046E0,1.2544525E0,1.2567031E0,2.0497282E0],"tree_param":{"num_deleted":"0","num_feature":"200","num_nodes":"13","size_leaf_vector":"0"}},{"base_weights":[3.1199292E-3,-8.637217E-2,3.0682012E-1,-1.3587832E-1,7.691562E-1,-5.6182414E-1,5.0862193E-1,-8.619514E-2,-1.082039E0,1.4163982E0,-6.684938E-1,1.6438715E-1,-1.4679866E0,-3.1064457E-1,7.3150027E-1],"categories":[],"categories_nodes":[],"categories_segments":[],"categories_sizes":[],"default_left":[1,1,1,1,1,1,1,0,0,0,0,0,0,0,0],"id":19,"left_children":[1,3,5,7,9,11,13,-1,-1,-1,-1,-1,-1,-1,-1],"loss_changes":[2.295306E0,2.7330768E0,3.37153E0,2.8541164E0,3.2989013E0,2.407621E0,2.86871E0,0E0,0E0,0E0,0E0,0E0,0E0,0E0,0E0],"parents":[2147483647,0,0,1,1,2,2,3,3,4,4,5,5,6,6],"right_children":[2,4,6,8,10,12,14,-1,-1,-1,-1,-1,-1,-1,-1],"split_conditions":[8.641405E-1,9.5799834E-1,1.3802063E-1,8.533603E-1,7.163654E-1,1.5656933E-1,8.475226E-2,-7.461526E-2,-9.366726E-1,1.2261124E0,-5.786851E-1,1.4230257E-1,-1.2707701E0,-2.6891106E-1,6.3322693E-1],"split_indices":[20,30,1,44,103,38,61,0,0,0,0,0,0,0,0],"split_type":[0,0,0,0,0,0,0,0,0,0,0,0,0,0,0],"sum_hessian":[8.421231E1,6.4970276E1,1.9242033E1,6.1449123E1,3.5211535E0,3.5998852E0,1.5642148E1,5.8413242E1,3.0358825E0,2.4421961E0,1.0789572E0,1.9803666E0,1.6195186E0,3.3169618E0,1.2325187E1],"tree_param":{"num_deleted":"0","num_feature":"200","num_nodes":"15","size_leaf_vector":"0"}},{"base_weights":[1.6406238E-2,6.626795E-2,-5.190437E-1,1.9312358E-2,8.310761E-1,-9.527061E-1,9.602135E-1,6.0407232E-2,-1.3152412E0,1.3238531E0,-2.6752466E-2,-4.9944183E-1,-2.0185971E0],"categories":[],"categories_nodes":[],"categories_segments":[],"categories_sizes":[],"default_left":[1,1,1,1,1,1,0,0,0,0,0,0,0],"id":20,"left_children":[1,3,5,7,9,11,-1,-1,-1,-1,-1,-1,-1],"loss_changes":[2.182836E0,2.679152E0,4.462931E0,3.8559208E0,1.8641977E0,2.5321698E0,0E0,0E0,0E0,0E0,0E0,0E0,0E0],"parents":[2147483647,0,0,1,1,2,2,3,3,4,4,5,5],"right_children":[2,4,6,8,10,12,-1,-1,-1,-1,-1,-1,-1],"split_conditions":[5.825328E-1,9.5953697E-1,9.857826E-1,9.390322E-1,2.1941456E-1,9.5262444E-1,8.312137E-1,5.229183E-2,-1.1385453E0,1.1460003E0,-2.3158409E-2,-4.3234438E-1,-1.747409E0],"split_indices":[120,28,68,28,99,119,0,0,0,0,0,0,0],"split_type":[0,0,0,0,0,0,0,0,0,0,0,0,0],"sum_hessian":[8.225916E1,7.530224E1,6.9569235E0,7.098302E1,4.3192205E0,5.395263E0,1.5616603E0,6.888418E1,2.0988421E0,2.7651193E0,1.554101E0,3.8051326E0,1.5901303E0],"tree_param":{"num_deleted":"0","num_feature":"200","num_nodes":"13","size_leaf_vector":"0"}},{"base_weights":[1.2565597E-2,-8.016308E-2,3.880793E-1,-3.1006163E-2,-9.3729514E-1,6.163936E-1,-9.3302625E-1,-8.103456E-2,7.580328E-1,-0E0,-1.8444893E0,9.3676436E-1,-1.9490105E-1,8.619238E-1,-2.3459096E0],"categories":[],"categories_nodes":[],"categories_segments":[],"categories_sizes":[],"default_left":[1,1,1,1,1,1,1,0,0,0,0,0,0,0,0],"id":21,"left_children":[1,3,5,7,9,11,13,-1,-1,-1,-1,-1,-1,-1,-1],"loss_changes":[2.78794E0,2.6653247E0,4.7767143E0,2.368295E0,2.9637487E0,3.543315E0,5.925603E0,0E0,0E0,0E0,0E0,0E0,0E0,0E0,0E0],"parents":[2147483647,0,0,1,1,2,2,3,3,4,4,5,5,6,6],"right_children":[2,4,6,8,10,12,14,-1,-1,-1,-1,-1,-1,-1,-1],"split_conditions":[7.0336545E-1,2.4469748E-2,5.900939E-1,9.571574E-1,3.3898002E-1,9.1637874E-1,5.7680756E-1,-7.0147984E-2,6.56195E-1,-0E0,-1.5966916E0,8.109149E-1,-1.6871709E-1,7.4612874E-1,-2.0307486E0],"split_indices":[44,113,36,77,88,26,78,0,0,0,0,0,0,0,0],"split_type":[0,0,0,0,0,0,0,0,0,0,0,0,0,0,0],"sum_hessian":[7.980372E1,6.3936806E1,1.5866913E1,6.050165E1,3.4351523E0,1.3547991E1,2.3189218E0,5.6929665E1,3.57199E0,1.677106E0,1.7580464E0,9.7386675E0,3.809323E0,1.0121931E0,1.3067286E0],"tree_param":{"num_deleted":"0","num_feature":"200","num_nodes":"15","size_leaf_vector":"0"}},{"base_weights":[2.9595558E-2,-4.0712645E-3,8.5396457E-1,-3.3750597E-2,7.3169076E-1,1.3369527E0,-8.603962E-2,-1.6970217E-1,1.4275436E-1,-1.0930482E-1,1.218201E0,1.0282047E0,1.6264113E0],"categories":[],"categories_nodes":[],"categories_segments":[],"categories_sizes":[],"default_left":[1,1,1,1,1,1,0,0,0,0,0,0,0],"id":22,"left_children":[1,3,5,7,9,11,-1,-1,-1,-1,-1,-1,-1],"loss_changes":[2.1751633E0,1.6039624E0,1.4326179E0,1.7177091E0,1.1972351E0,1.0463905E-1,0E0,0E0,0E0,0E0,0E0,0E0,0E0],"parents":[2147483647,0,0,1,1,2,2,3,3,4,4,5,5],"right_children":[2,4,6,8,10,12,-1,-1,-1,-1,-1,-1,-1],"split_conditions":[9.086596E-1,9.7995293E-1,5.120845E-1,8.028655E-1,2.1280244E-1,2.4709985E-1,-7.448064E-2,-1.4690356E-1,1.23576045E-1,-9.462028E-2,1.054542E0,8.900707E-1,1.4079113E0],"split_indices":[19,197,79,26,17,103,0,0,0,0,0,0,0],"split_type":[0,0,0,0,0,0,0,0,0,0,0,0,0],"sum_hessian":[7.746896E1,7.439508E1,3.0738823E0,7.1549225E1,2.8458571E0,2.0512483E0,1.0226339E0,4.0512257E1,3.103697E1,1.0207763E0,1.8250809E0,1.042331E0,1.0089175E0],"tree_param":{"num_deleted":"0","num_feature":"200","num_nodes":"13","size_leaf_vector":"0"}},{"base_weights":[2.0538075E-2,-1.2128244E-1,1.9837558E-1,-4.463111E-2,-2.0126941E0,1.1384917E0,1.19544566E-1,1.1267045E-2,-1.2341075E0,6.635021E-1,1.8586596E0,7.035608E-1,2.2225458E-2],"categories":[],"categories_nodes":[],"categories_segments":[],"categories_sizes":[],"default_left":[1,1,1,1,0,1,1,0,0,0,0,0,0],"id":23,"left_children":[1,3,5,7,-1,9,11,-1,-1,-1,-1,-1,-1],"loss_changes":[1.918398E0,6.053648E0,2.4676774E0,2.7320564E0,0E0,8.0984807E-1,1.7526016E0,0E0,0E0,0E0,0E0,0E0,0E0],"parents":[2147483647,0,0,1,1,2,2,3,3,5,5,6,6],"right_children":[2,4,6,8,-1,10,12,-1,-1,-1,-1,-1,-1],"split_conditions":[4.197629E-1,4.1242003E-1,1.024072E-1,8.514545E-1,-1.742299E0,3.468307E-1,1.7946453E-1,9.753375E-3,-1.0683115E0,5.74364E-1,1.6089582E0,6.0904104E-1,1.9239582E-2],"split_indices":[78,78,82,19,0,18,25,0,0,0,0,0,0],"split_type":[0,0,0,0,0,0,0,0,0,0,0,0,0],"sum_hessian":[7.597288E1,4.2174175E1,3.3798702E1,4.0546783E1,1.6273922E0,2.5856671E0,3.1213036E1,3.870333E1,1.8434526E0,1.5829754E0,1.0026917E0,4.4148355E0,2.6798199E1],"tree_param":{"num_deleted":"0","num_feature":"200","num_nodes":"13","size_leaf_vector":"0"}},{"base_weights":[1.6329896E-2,7.3033035E-2,-4.442058E-1,-1.08435765E-1,1.934533E-1,-6.8010443E-1,6.5657115E-1,-1.7664677E-2,-1.9088377E0,5.5566393E-2,6.546441E-1,-1.2778753E0,-7.677724E-2],"categories":[],"categories_nodes":[],"categories_segments":[],"categories_sizes":[],"default_left":[1,1,1,1,1,1,0,0,0,0,0,0,0],"id":24,"left_children":[1,3,5,7,9,11,-1,-1,-1,-1,-1,-1,-1],"loss_changes":[1.9231614E0,1.4448361E0,2.0943623E0,4.229741E0,2.5082579E0,2.362548E0,0E0,0E0,0E0,0E0,0E0,0E0,0E0],"parents":[2147483647,0,0,1,1,2,2,3,3,4,4,5,5],"right_children":[2,4,6,8,10,12,-1,-1,-1,-1,-1,-1,-1],"split_conditions":[9.999936E-1,3.90935E-1,3.8343E-1,3.752684E-1,6.485677E-1,8.546846E-1,5.683642E-1,-1.5291518E-2,-1.6523951E0,4.8101332E-2,5.66696E-1,-1.1061993E0,-6.646261E-2],"split_indices":[75,42,77,42,124,27,0,0,0,0,0,0,0],"split_type":[0,0,0,0,0,0,0,0,0,0,0,0,0],"sum_hessian":[7.4064575E1,6.600236E1,8.062223E0,2.622983E1,3.9772526E1,6.6615376E0,1.4006854E0,2.4986668E1,1.2431631E0,3.0667719E1,9.104807E0,3.321488E0,3.3400497E0],"tree_param":{"num_deleted":"0","num_feature":"200","num_nodes":"13","size_leaf_vector":"0"}},{"base_weights":[1.049813E-3,8.551212E-2,-2.8359005E-1,2.864644E-1,-5.8257494E-2,-7.7147144E-1,7.347631E-2,-3.4086946E-1,4.258685E-1,3.9723817E-1,-2.1055008E-1,-1.3374493E0,-4.4394784E-2,4.316047E-1,-2.792091E-1],"categories":[],"categories_nodes":[],"categories_segments":[],"categories_sizes":[],"default_left":[1,1,1,1,1,1,1,0,0,0,0,0,0,0,0],"id":25,"left_children":[1,3,5,7,9,11,13,-1,-1,-1,-1,-1,-1,-1,-1],"loss_changes":[1.7053754E0,1.5948843E0,2.8441308E0,2.014974E0,2.2114577E0,2.7921224E0,1.1821846E0,0E0,0E0,0E0,0E0,0E0,0E0,0E0,0E0],"parents":[2147483647,0,0,1,1,2,2,3,3,4,4,5,5,6,6],"right_children":[2,4,6,8,10,12,14,-1,-1,-1,-1,-1,-1,-1,-1],"split_conditions":[7.926892E-1,3.0603343E-1,4.0098974E-1,4.8566088E-2,1.5832405E-1,7.360622E-1,1.3809621E-1,-2.950754E-1,3.6865526E-1,3.4387127E-1,-1.8226376E-1,-1.1577698E0,-3.843057E-2,3.7362084E-1,-2.416988E-1],"split_indices":[103,18,61,41,44,67,44,0,0,0,0,0,0,0,0],"split_type":[0,0,0,0,0,0,0,0,0,0,0,0,0,0,0],"sum_hessian":[7.1178E1,5.4970306E1,1.6207695E1,2.3011467E1,3.1958838E1,6.8840556E0,9.323639E0,4.145262E0,1.8866205E1,7.9592237E0,2.3999615E1,3.8479383E0,3.0361173E0,4.6676373E0,4.6560016E0],"tree_param":{"num_deleted":"0","num_feature":"200","num_nodes":"15","size_leaf_vector":"0"}},{"base_weights":[-1.1722896E-3,-6.445908E-2,4.370505E-1,-1.3061527E-2,-8.169698E-1,9.6285063E-1,-1.4499183E-1,9.364891E-1,-4.853716E-2,4.3598098E-1,-1.6044087E0,3.215278E-1,1.1746659E0,-1.2222557E0,3.2737935E-1],"categories":[],"categories_nodes":[],"categories_segments":[],"categories_sizes":[],"default_left":[1,1,1,1,1,1,1,0,0,0,0,0,0,0,0],"id":26,"left_children":[1,3,5,7,9,11,13,-1,-1,-1,-1,-1,-1,-1,-1],"loss_changes":[1.8912578E0,2.2958696E0,2.6550877E0,1.8667611E0,3.7827358E0,5.729151E-1,2.0892704E0,0E0,0E0,0E0,0E0,0E0,0E0,0E0,0E0],"parents":[2147483647,0,0,1,1,2,2,3,3,4,4,5,5,6,6],"right_children":[2,4,6,8,10,12,14,-1,-1,-1,-1,-1,-1,-1,-1],"split_conditions":[7.1708965E-1,7.7261186E-1,5.8432734E-1,4.3017887E-2,4.5933896E-1,1.2927216E-1,7.114284E-1,8.106766E-1,-4.2016443E-2,3.7740916E-1,-1.3888646E0,2.783322E-1,1.0168556E0,-1.058052E0,2.8339761E-1],"split_indices":[88,76,66,103,96,95,76,0,0,0,0,0,0,0,0],"split_type":[0,0,0,0,0,0,0,0,0,0,0,0,0,0,0],"sum_hessian":[6.858972E1,5.999322E1,8.596499E0,5.619449E1,3.7987332E0,4.543045E0,4.0534544E0,1.9936904E0,5.4200798E1,1.451592E0,2.3471413E0,1.1626644E0,3.3803804E0,1.2545637E0,2.7988908E0],"tree_param":{"num_deleted":"0","num_feature":"200","num_nodes":"15","size_leaf_vector":"0"}},{"base_weights":[1.8689768E-2,-2.9960883E-1,8.285342E-2,-1.176888E-3,-9.926116E-1,8.181726E-1,3.795545E-2,4.538544E-1,-6.312671E-1,-4.9573076E-1,-2.0364618E0,1.64795E-1,1.1348563E0,2.5693622E-1,-1.5433808E-1],"categories":[],"categories_nodes":[],"categories_segments":[],"categories_sizes":[],"default_left":[1,1,1,1,1,1,1,0,0,0,0,0,0,0,0],"id":27,"left_children":[1,3,5,7,9,11,13,-1,-1,-1,-1,-1,-1,-1,-1],"loss_changes":[1.3366904E0,2.2364125E0,1.7841471E0,2.2094564E0,1.6200233E0,6.0635066E-1,2.1796937E0,0E0,0E0,0E0,0E0,0E0,0E0,0E0,0E0],"parents":[2147483647,0,0,1,1,2,2,3,3,4,4,5,5,6,6],"right_children":[2,4,6,8,10,12,14,-1,-1,-1,-1,-1,-1,-1,-1],"split_conditions":[2.7195874E-1,9.6552944E-1,2.9191172E-1,6.388259E-1,2.383872E-1,2.8071952E-1,5.2083874E-1,3.928814E-1,-5.4645956E-1,-4.2913187E-1,-1.7628736E0,1.4265563E-1,9.823942E-1,2.2241816E-1,-1.3360354E-1],"split_indices":[36,97,36,73,82,36,15,0,0,0,0,0,0,0,0],"split_type":[0,0,0,0,0,0,0,0,0,0,0,0,0,0,0],"sum_hessian":[6.576253E1,1.0955315E1,5.4807217E1,7.6875677E0,3.2677472E0,3.1158757E0,5.169134E1,4.436711E0,3.250857E0,2.233264E0,1.0344833E0,1.0477322E0,2.0681434E0,2.4240324E1,2.7451015E1],"tree_param":{"num_deleted":"0","num_feature":"200","num_nodes":"15","size_leaf_vector":"0"}},{"base_weights":[1.09648295E-2,-1.2409088E-1,2.3035337E-1,-3.4782284E-1,7.265868E-2,7.9211426E-1,5.2410413E-2,-5.1631853E-2,-7.7259684E-1,1.2309961E0,-3.952915E-3,-3.328695E-2,1.0299549E0,3.1775662E-1,-2.4068294E-1],"categories":[],"categories_nodes":[],"categories_segments":[],"categories_sizes":[],"default_left":[1,1,1,1,1,1,1,0,0,0,0,0,0,0,0],"id":28,"left_children":[1,3,5,7,9,11,13,-1,-1,-1,-1,-1,-1,-1,-1],"loss_changes":[1.8560674E0,1.7083461E0,2.3653164E0,2.2583323E0,1.8537958E0,1.1508353E0,1.4177042E0,0E0,0E0,0E0,0E0,0E0,0E0,0E0,0E0],"parents":[2147483647,0,0,1,1,2,2,3,3,4,4,5,5,6,6],"right_children":[2,4,6,8,10,12,14,-1,-1,-1,-1,-1,-1,-1,-1],"split_conditions":[5.317906E-1,1.4685547E-1,3.618244E-1,4.3282896E-2,1.5439028E-1,4.188352E-1,8.394593E-1,-4.4695377E-2,-6.688024E-1,1.0656182E0,-3.421861E-3,-2.881502E-2,8.9158577E-1,2.7506766E-1,-2.0834842E-1],"split_indices":[96,4,11,7,7,199,69,0,0,0,0,0,0,0,0],"split_type":[0,0,0,0,0,0,0,0,0,0,0,0,0,0,0],"sum_hessian":[6.253591E1,3.8624287E1,2.3911627E1,1.8143026E1,2.0481262E1,5.712101E0,1.8199526E1,1.0730481E1,7.4125443E0,1.2943087E0,1.9186953E1,1.2500299E0,4.462071E0,9.604763E0,8.594762E0],"tree_param":{"num_deleted":"0","num_feature":"200","num_nodes":"15","size_leaf_vector":"0"}},{"base_weights":[2.3931202E-2,-2.0771692E-2,4.809219E-1,-4.4142476E-1,3.972655E-2,7.528904E-1,-5.7989645E-1,-9.8450154E-1,-3.7257288E-2,9.301708E-1,-6.1265673E-3,1.0574996E0,2.4108697E-1],"categories":[],"categories_nodes":[],"categories_segments":[],"categories_sizes":[],"default_left":[1,1,1,1,1,1,0,0,0,0,0,0,0],"id":29,"left_children":[1,3,5,7,9,11,-1,-1,-1,-1,-1,-1,-1],"loss_changes":[1.2357792E0,1.3972282E0,1.5601605E0,1.4856821E0,1.9679751E0,6.338656E-1,0E0,0E0,0E0,0E0,0E0,0E0,0E0],"parents":[2147483647,0,0,1,1,2,2,3,3,4,4,5,5],"right_children":[2,4,6,8,10,12,-1,-1,-1,-1,-1,-1,-1],"split_conditions":[8.940294E-1,1.6607855E-2,9.4781744E-1,1.7853738E-1,3.683308E-2,9.3087685E-1,-5.019903E-1,-8.522388E-1,-3.225196E-2,8.052071E-1,-5.303494E-3,9.1543E-1,2.0869817E-1],"split_indices":[41,7,81,72,3,105,0,0,0,0,0,0,0],"split_type":[0,0,0,0,0,0,0,0,0,0,0,0,0],"sum_hessian":[5.9826675E1,5.44372E1,5.3894777E0,6.905949E0,4.753125E1,4.3118978E0,1.0775799E0,2.915324E0,3.9906251E0,2.3590913E0,4.5172157E1,2.6668067E0,1.6450913E0],"tree_param":{"num_deleted":"0","num_feature":"200","num_nodes":"13","size_leaf_vector":"0"}},{"base_weights":[1.1507123E-2,-1.474939E-1,1.296153E-1,-0E0,-6.7037266E-1,-1.7778814E-1,2.5484416E-1,-1.03596486E-1,6.292508E-1,2.8818768E-1,-1.1119373E0,-3.8101676E-1,3.1721598E-1,1.0407928E0,1.8650657E-1],"categories":[],"categories_nodes":[],"categories_segments":[],"categories_sizes":[],"default_left":[1,1,1,1,1,1,1,0,0,0,0,0,0,0,0],"id":30,"left_children":[1,3,5,7,9,11,13,-1,-1,-1,-1,-1,-1,-1,-1],"loss_changes":[1.0692592E0,1.8760791E0,1.2646713E0,1.2366722E0,2.2866619E0,9.4995487E-1,1.2188746E0,0E0,0E0,0E0,0E0,0E0,0E0,0E0,0E0],"parents":[2147483647,0,0,1,1,2,2,3,3,4,4,5,5,6,6],"right_children":[2,4,6,8,10,12,14,-1,-1,-1,-1,-1,-1,-1,-1],"split_conditions":[2.168786E-1,4.895232E-1,2.7751145E-1,7.2656465E-1,3.891557E-1,7.29308E-1,2.5557107E-1,-8.967883E-2,5.447142E-1,2.4947114E-1,-9.625542E-1,-3.298291E-1,2.7459964E-1,9.0096766E-1,1.6145037E-1],"split_indices":[77,38,28,21,86,98,86,0,0,0,0,0,0,0,0],"split_type":[0,0,0,0,0,0,0,0,0,0,0,0,0,0,0],"sum_hessian":[5.696583E1,2.4173143E1,3.279269E1,1.8828522E1,5.3446217E0,9.423837E0,2.3368853E1,1.6143017E1,2.6855054E0,1.6644946E0,3.6801271E0,6.7232375E0,2.7005992E0,1.8345839E0,2.153427E1],"tree_param":{"num_deleted":"0","num_feature":"200","num_nodes":"15","size_leaf_vector":"0"}},{"base_weights":[-0E0,5.475377E-1,-3.567482E-2,-2.1684857E-1,9.975407E-1,5.5014505E-3,-4.9553338E-1,7.071647E-1,1.2749043E0,2.7037305E-1,-8.570352E-2,2.0249416E-1,-9.067227E-1],"categories":[],"categories_nodes":[],"categories_segments":[],"categories_sizes":[],"default_left":[1,1,1,0,1,1,1,0,0,0,0,0,0],"id":31,"left_children":[1,3,5,-1,7,9,11,-1,-1,-1,-1,-1,-1],"loss_changes":[1.0436808E0,1.1466458E0,9.730639E-1,0E0,1.0885644E-1,1.1265066E0,1.2318877E0,0E0,0E0,0E0,0E0,0E0,0E0],"parents":[2147483647,0,0,1,1,2,2,4,4,5,5,6,6],"right_children":[2,4,6,-1,8,10,12,-1,-1,-1,-1,-1,-1],"split_conditions":[3.872188E-2,1.9311637E-1,8.9214146E-1,-1.8771607E-1,2.1769752E-1,6.334466E-1,2.8900702E-2,6.1216074E-1,1.1036274E0,2.3404981E-1,-7.418969E-2,1.7529011E-1,-7.849092E-1],"split_indices":[77,87,67,0,7,30,46,0,0,0,0,0,0],"split_type":[0,0,0,0,0,0,0,0,0,0,0,0,0],"sum_hessian":[5.389087E1,3.266182E0,5.0624687E1,1.1860379E0,2.080144E0,4.640547E1,4.2192144E0,1.0685706E0,1.0115734E0,1.1969055E1,3.4436417E1,1.5374914E0,2.681723E0],"tree_param":{"num_deleted":"0","num_feature":"200","num_nodes":"13","size_leaf_vector":"0"}},{"base_weights":[-0E0,-1.3668537E-1,1.20512724E-1,-2.8714922E-1,2.756497E-1,-7.11343E-1,1.6872023E-1,-3.6510554E-1,5.8702946E-1,5.0181305E-1,-6.0190666E-1,3.2113767E-1,-1.5882328E-1],"categories":[],"categories_nodes":[],"categories_segments":[],"categories_sizes":[],"default_left":[1,1,1,1,1,0,1,0,0,0,0,0,0],"id":32,"left_children":[1,3,5,7,9,-1,11,-1,-1,-1,-1,-1,-1],"loss_changes":[8.61233E-1,1.516374E0,1.1014744E0,1.2171012E0,1.2832875E0,0E0,1.3214424E0,0E0,0E0,0E0,0E0,0E0,0E0],"parents":[2147483647,0,0,1,1,2,2,3,3,4,4,6,6],"right_children":[2,4,6,8,10,-1,12,-1,-1,-1,-1,-1,-1],"split_conditions":[4.1360152E-1,7.752057E-1,4.1240074E-2,8.7416506E-1,6.287714E-1,-6.1577773E-1,7.0472515E-1,-3.1605548E-1,5.0816506E-1,4.3439704E-1,-5.210436E-1,2.7799445E-1,-1.3748619E-1],"split_indices":[45,17,44,29,22,0,77,0,0,0,0,0,0],"split_type":[0,0,0,0,0,0,0,0,0,0,0,0,0],"sum_hessian":[5.2301132E1,2.4435366E1,2.7865767E1,1.7955093E1,6.480273E0,1.492719E0,2.6373047E1,1.6516127E1,1.4389668E0,5.1792145E0,1.301058E0,1.8059483E1,8.313564E0],"tree_param":{"num_deleted":"0","num_feature":"200","num_nodes":"13","size_leaf_vector":"0"}},{"base_weights":[4.597064E-3,-6.687986E-1,3.6216907E-2,-3.1963837E-1,-9.616761E-1,-9.24814E-2,1.4864346E-1,-7.806597E-3,-5.2002364E-1,2.1216202E-1,-1.1904207E0],"categories":[],"categories_nodes":[],"categories_segments":[],"categories_sizes":[],"default_left":[1,1,1,0,0,1,1,0,0,0,0],"id":33,"left_children":[1,3,5,-1,-1,7,9,-1,-1,-1,-1],"loss_changes":[1.0504035E0,1.8810594E-1,6.961612E-1,0E0,0E0,7.901842E-1,2.1606183E0,0E0,0E0,0E0,0E0],"parents":[2147483647,0,0,1,1,2,2,5,5,6,6],"right_children":[2,4,6,-1,-1,8,10,-1,-1,-1,-1],"split_conditions":[9.640498E-3,6.9555175E-1,5.5152416E-1,-2.766966E-1,-8.3247983E-1,8.742014E-1,5.8399147E-1,-6.7578205E-3,-4.5016113E-1,1.8365914E-1,-1.0304939E0],"split_indices":[46,79,29,0,0,112,128,0,0,0,0],"split_type":[0,0,0,0,0,0,0,0,0,0,0],"sum_hessian":[5.020844E1,2.2097895E0,4.799865E1,1.0542058E0,1.1555837E0,2.2257359E1,2.5741293E1,1.863579E1,3.6215682E0,2.4596756E1,1.1445374E0],"tree_param":{"num_deleted":"0","num_feature":"200","num_nodes":"11","size_leaf_vector":"0"}},{"base_weights":[-8.319567E-3,1.2603523E-1,-1.345984E-1,2.2401638E-1,-4.492557E-1,-2.8386128E-1,2.2562723E-1,-3.1229102E-3,4.9647415E-1,-1.247652E0,2.6709782E-2,3.7581578E-1,-3.8056102E-1,-8.949694E-1,4.268789E-1],"categories":[],"categories_nodes":[],"categories_segments":[],"categories_sizes":[],"default_left":[1,1,1,1,1,1,1,0,0,0,0,0,0,0,0],"id":34,"left_children":[1,3,5,7,9,11,13,-1,-1,-1,-1,-1,-1,-1,-1],"loss_changes":[8.163194E-1,1.3006109E0,1.3410089E0,1.2436378E0,1.3019568E0,1.1272867E0,1.618907E0,0E0,0E0,0E0,0E0,0E0,0E0,0E0,0E0],"parents":[2147483647,0,0,1,1,2,2,3,3,4,4,5,5,6,6],"right_children":[2,4,6,8,10,12,14,-1,-1,-1,-1,-1,-1,-1,-1],"split_conditions":[5.2083874E-1,7.424561E-1,3.318116E-1,1.3465622E-1,8.20816E-1,1.8429706E-1,2.7787352E-1,-2.703363E-3,4.297754E-1,-1.0800364E0,2.312146E-2,3.2532686E-1,-3.294346E-1,-7.7473485E-1,3.695299E-1],"split_indices":[15,46,46,10,46,28,65,0,0,0,0,0,0,0,0],"split_type":[0,0,0,0,0,0,0,0,0,0,0,0,0,0,0],"sum_hessian":[4.809926E1,2.3191149E1,2.4908108E1,1.9860098E1,3.3310502E0,1.7668854E1,7.239254E0,1.07718115E1,9.088287E0,1.2671766E0,2.0638738E0,2.2197866E0,1.5449067E1,1.0797412E0,6.1595125E0],"tree_param":{"num_deleted":"0","num_feature":"200","num_nodes":"15","size_leaf_vector":"0"}},{"base_weights":[4.1828025E-3,4.631284E-2,-4.8586965E-1,7.541108E-2,-6.008523E-1,8.4630996E-2,-8.096825E-1,4.2413667E-2,7.975478E-1,-5.91747E-1,-1.0395491E0],"categories":[],"categories_nodes":[],"categories_segments":[],"categories_sizes":[],"default_left":[1,1,1,1,0,0,1,0,0,0,0],"id":35,"left_children":[1,3,5,7,-1,-1,9,-1,-1,-1,-1],"loss_changes":[9.2400604E-1,7.725159E-1,6.7488265E-1,9.3047094E-1,0E0,0E0,6.641531E-2,0E0,0E0,0E0,0E0],"parents":[2147483647,0,0,1,1,2,2,3,3,6,6],"right_children":[2,4,6,8,-1,-1,10,-1,-1,-1,-1],"split_conditions":[8.097888E-1,9.6469915E-1,3.3726507E-1,7.76705E-1,-5.201309E-1,7.326125E-2,5.672152E-1,3.6715608E-2,6.904014E-1,-5.122488E-1,-8.99891E-1],"split_indices":[84,52,24,36,0,0,78,0,0,0,0],"split_type":[0,0,0,0,0,0,0,0,0,0,0],"sum_hessian":[4.538307E1,4.1845974E1,3.537096E0,4.008925E1,1.7567267E0,1.2477486E0,2.2893474E0,3.8376743E1,1.7125039E0,1.2414566E0,1.0478908E0],"tree_param":{"num_deleted":"0","num_feature":"200","num_nodes":"11","size_leaf_vector":"0"}},{"base_weights":[-5.58924E-4,4.9851973E-2,-3.7211287E-1,8.726498E-3,5.5004245E-1,-6.542682E-3,-8.0250686E-1,-8.5252327E-1,3.5116076E-2,8.1309485E-1,1.420672E-1,-4.8080435E-1,5.8034456E-1,-1.3220992E0,-2.7861744E-1],"categories":[],"categories_nodes":[],"categories_segments":[],"categories_sizes":[],"default_left":[1,1,1,1,1,1,1,0,0,0,0,0,0,0,0],"id":36,"left_children":[1,3,5,7,9,11,13,-1,-1,-1,-1,-1,-1,-1,-1],"loss_changes":[8.338053E-1,7.791867E-1,8.143377E-1,7.8946203E-1,2.8130084E-1,8.0929893E-1,6.0861623E-1,0E0,0E0,0E0,0E0,0E0,0E0,0E0,0E0],"parents":[2147483647,0,0,1,1,2,2,3,3,4,4,5,5,6,6],"right_children":[2,4,6,8,10,12,14,-1,-1,-1,-1,-1,-1,-1,-1],"split_conditions":[6.6851175E-1,7.9860675E-1,6.2007934E-1,5.506867E-2,8.40935E-1,3.648275E-1,6.6668695E-1,-7.3799115E-1,3.0398412E-2,7.0385975E-1,1.229812E-1,-4.1621074E-1,5.023782E-1,-1.1444819E0,-2.4118662E-1],"split_indices":[36,96,22,26,69,18,22,0,0,0,0,0,0,0,0],"split_type":[0,0,0,0,0,0,0,0,0,0,0,0,0,0,0],"sum_hessian":[4.400787E1,3.8680557E1,5.327314E0,3.5796597E1,2.8839602E0,2.9177852E0,2.4095285E0,1.0307945E0,3.47658E1,1.7092917E0,1.1746686E0,1.6415755E0,1.2762098E0,1.1812843E0,1.2282443E0],"tree_param":{"num_deleted":"0","num_feature":"200","num_nodes":"15","size_leaf_vector":"0"}},{"base_weights":[-2.816534E-3,1.7399246E-1,-7.741858E-2,-1.7290029E-1,3.7964657E-1,-2.4932049E-1,6.829298E-2,2.86687E-1,-6.0098666E-1,5.29585E-1,-3.990001E-1,6.370722E-1,-3.2751626E-1,1.4797753E-1,-6.786352E-1],"categories":[],"categories_nodes":[],"categories_segments":[],"categories_sizes":[],"default_left":[1,1,1,1,1,1,1,0,0,0,0,0,0,0,0],"id":37,"left_children":[1,3,5,7,9,11,13,-1,-1,-1,-1,-1,-1,-1,-1],"loss_changes":[5.5505484E-1,8.931142E-1,7.533658E-1,9.0927863E-1,9.21458E-1,9.469488E-1,9.4082105E-1,0E0,0E0,0E0,0E0,0E0,0E0,0E0,0E0],"parents":[2147483647,0,0,1,1,2,2,3,3,4,4,5,5,6,6],"right_children":[2,4,6,8,10,12,14,-1,-1,-1,-1,-1,-1,-1,-1],"split_conditions":[3.1760496E-1,1.09619185E-1,6.0448456E-1,1.2945484E-1,5.8346236E-1,1.15154974E-1,5.832491E-1,2.4817206E-1,-5.2024716E-1,4.5843798E-1,-3.453965E-1,5.514848E-1,-2.8351614E-1,1.280975E-1,-5.8746403E-1],"split_indices":[96,77,29,18,165,66,122,0,0,0,0,0,0,0,0],"split_type":[0,0,0,0,0,0,0,0,0,0,0,0,0,0,0],"sum_hessian":[4.2296272E1,1.2433204E1,2.9863068E1,4.57413E0,7.8590736E0,1.3793178E1,1.606989E1,2.1726737E0,2.4014564E0,6.6219172E0,1.2371562E0,1.0874443E0,1.2705733E1,1.4556627E1,1.5132627E0],"tree_param":{"num_deleted":"0","num_feature":"200","num_nodes":"15","size_leaf_vector":"0"}},{"base_weights":[5.103002E-3,-7.615976E-2,1.9773553E-1,-1.0804715E-1,5.8809704E-1,5.943779E-2,5.617518E-1,-3.1701186E-1,4.7441777E-3,-2.6376945E-1,2.6635587E-1,-6.1218433E-2,8.6483234E-1],"categories":[],"categories_nodes":[],"categories_segments":[],"categories_sizes":[],"default_left":[1,1,1,1,0,1,1,0,0,0,0,0,0],"id":38,"left_children":[1,3,5,7,-1,9,11,-1,-1,-1,-1,-1,-1],"loss_changes":[6.2489194E-1,5.748205E-1,5.799024E-1,6.3558626E-1,0E0,5.7996726E-1,6.3038254E-1,0E0,0E0,0E0,0E0,0E0,0E0],"parents":[2147483647,0,0,1,1,2,2,3,3,5,5,6,6],"right_children":[2,4,6,8,-1,10,12,-1,-1,-1,-1,-1,-1],"split_conditions":[4.0098974E-1,9.584126E-1,7.779342E-1,4.230559E-1,5.0908923E-1,3.2460886E-1,1.3717747E-1,-2.7442294E-1,4.1068215E-3,-2.2833337E-1,2.3057233E-1,-5.299405E-2,7.4864656E-1],"split_indices":[61,74,0,28,0,41,11,0,0,0,0,0,0],"split_type":[0,0,0,0,0,0,0,0,0,0,0,0,0],"sum_hessian":[3.9689693E1,2.7806332E1,1.188336E1,2.6575209E1,1.2311243E0,8.670557E0,3.2128026E0,9.407558E0,1.716765E1,3.3285706E0,5.3419867E0,1.019663E0,2.1931398E0],"tree_param":{"num_deleted":"0","num_feature":"200","num_nodes":"13","size_leaf_vector":"0"}},{"base_weights":[1.0999822E-2,8.391629E-2,-2.3728397E-1,2.4805401E-1,-1.0519747E-1,-5.0775784E-1,9.8589614E-2,4.0437537E-1,-6.439647E-2,-2.5023416E-1,2.767224E-1,-8.927744E-1,-6.5506876E-2,4.5329842E-1,-2.9432958E-1],"categories":[],"categories_nodes":[],"categories_segments":[],"categories_sizes":[],"default_left":[1,1,1,1,1,1,1,0,0,0,0,0,0,0,0],"id":39,"left_children":[1,3,5,7,9,11,13,-1,-1,-1,-1,-1,-1,-1,-1],"loss_changes":[6.9399846E-1,9.3286645E-1,7.9945916E-1,7.9639703E-1,7.646115E-1,7.9747677E-1,5.367905E-1,0E0,0E0,0E0,0E0,0E0,0E0,0E0,0E0],"parents":[2147483647,0,0,1,1,2,2,3,3,4,4,5,5,6,6],"right_children":[2,4,6,8,10,12,14,-1,-1,-1,-1,-1,-1,-1,-1],"split_conditions":[9.96876E-1,6.1780477E-1,3.065819E-1,4.9893105E-1,7.135284E-1,8.344083E-1,7.912953E-1,3.5004961E-1,-5.5745136E-2,-2.1661648E-1,2.3954616E-1,-7.728347E-1,-5.670636E-2,3.924001E-1,-2.5478792E-1],"split_indices":[85,73,73,116,21,8,103,0,0,0,0,0,0,0,0],"split_type":[0,0,0,0,0,0,0,0,0,0,0,0,0,0,0],"sum_hessian":[3.8583748E1,2.9916775E1,8.666974E0,1.6099543E1,1.3817233E1,4.849529E0,3.8174453E0,1.0793773E1,5.3057694E0,1.0070329E1,3.7469041E0,2.5567274E0,2.2928011E0,2.0457509E0,1.7716944E0],"tree_param":{"num_deleted":"0","num_feature":"200","num_nodes":"15","size_leaf_vector":"0"}},{"base_weights":[-0E0,8.4098764E-2,-1.7595749E-1,2.566558E-1,-7.729889E-2,1.3996643E-1,-3.7336084E-1,9.0517235E-1,1.9427554E-1,2.014782E-2,-6.86628E-1,9.7013456E-1,-1.01110205E-1,-5.8241814E-1,5.962956E-2],"categories":[],"categories_nodes":[],"categories_segments":[],"categories_sizes":[],"default_left":[1,1,1,1,1,1,1,0,0,0,0,0,0,0,0],"id":40,"left_children":[1,3,5,7,9,11,13,-1,-1,-1,-1,-1,-1,-1,-1],"loss_changes":[5.366459E-1,6.900229E-1,7.376038E-1,4.5177174E-1,7.687492E-1,9.1594124E-1,6.7338574E-1,0E0,0E0,0E0,0E0,0E0,0E0,0E0,0E0],"parents":[2147483647,0,0,1,1,2,2,3,3,4,4,5,5,6,6],"right_children":[2,4,6,8,10,12,14,-1,-1,-1,-1,-1,-1,-1,-1],"split_conditions":[2.1477846E-2,8.633177E-1,1.9199748E-1,3.723543E-2,8.474062E-1,5.7880443E-1,9.952542E-1,7.835671E-1,1.6817562E-1,1.7441062E-2,-5.9438306E-1,8.3980197E-1,-8.752657E-2,-5.041733E-1,5.1618632E-2],"split_indices":[113,30,84,0,45,14,68,0,0,0,0,0,0,0,0],"split_type":[0,0,0,0,0,0,0,0,0,0,0,0,0,0,0],"sum_hessian":[3.6302135E1,2.4585669E1,1.1716465E1,1.1970413E1,1.2615256E1,4.4481483E0,7.2683167E0,1.0086287E0,1.0961784E1,1.0834314E1,1.7809421E0,1.0284572E0,3.419691E0,4.947619E0,2.3206975E0],"tree_param":{"num_deleted":"0","num_feature":"200","num_nodes":"15","size_leaf_vector":"0"}},{"base_weights":[1.0198771E-2,5.5767763E-2,-3.1013432E-1,1.1998929E-2,3.8976648E-1,-2.0494925E-2,-7.8491163E-1,-2.3215111E-2,4.3178567E-1,1.0294783E-1,9.385892E-1,-3.1324905E-1,3.6852336E-1],"categories":[],"categories_nodes":[],"categories_segments":[],"categories_sizes":[],"default_left":[1,1,1,1,1,1,0,0,0,0,0,0,0],"id":41,"left_children":[1,3,5,7,9,11,-1,-1,-1,-1,-1,-1,-1],"loss_changes":[5.02284E-1,4.362778E-1,5.632242E-1,4.1387698E-1,5.160201E-1,3.047567E-1,0E0,0E0,0E0,0E0,0E0,0E0,0E0],"parents":[2147483647,0,0,1,1,2,2,3,3,4,4,5,5],"right_children":[2,4,6,8,10,12,-1,-1,-1,-1,-1,-1,-1],"split_conditions":[6.544407E-1,5.8132726E-1,4.20344E-1,5.802563E-1,3.4950417E-1,2.3479588E-1,-6.794628E-1,-2.009628E-2,3.7377748E-1,8.911732E-2,8.124946E-1,-2.7116564E-1,3.1901413E-1],"split_indices":[36,134,46,36,90,56,0,0,0,0,0,0,0],"split_type":[0,0,0,0,0,0,0,0,0,0,0,0,0],"sum_hessian":[3.492355E1,3.0655043E1,4.2685065E0,2.7181625E1,3.4734173E0,2.6899068E0,1.5785996E0,2.5013227E1,2.1683996E0,2.3167117E0,1.1567056E0,1.5781839E0,1.111723E0],"tree_param":{"num_deleted":"0","num_feature":"200","num_nodes":"13","size_leaf_vector":"0"}},{"base_weights":[4.2945673E-3,1.2166518E-1,-1.169444E-1,-1.39125995E-2,4.1508228E-1,-5.7392234E-1,-3.181871E-2,-1.4961286E-1,4.7130325E-1,8.121801E-1,-5.728202E-2,-4.74751E-2,-9.10377E-1,7.018333E-2,-3.0751228E-1],"categories":[],"categories_nodes":[],"categories_segments":[],"categories_sizes":[],"default_left":[1,1,1,1,1,1,1,0,0,0,0,0,0,0,0],"id":42,"left_children":[1,3,5,7,9,11,13,-1,-1,-1,-1,-1,-1,-1,-1],"loss_changes":[4.8069572E-1,6.9937503E-1,6.235035E-1,7.6433116E-1,1.0597467E0,4.206552E-1,3.994035E-1,0E0,0E0,0E0,0E0,0E0,0E0,0E0,0E0],"parents":[2147483647,0,0,1,1,2,2,3,3,4,4,5,5,6,6],"right_children":[2,4,6,8,10,12,14,-1,-1,-1,-1,-1,-1,-1,-1],"split_conditions":[3.8811752E-1,1.7155159E-1,1.0608095E-1,7.766879E-1,7.881181E-1,5.867153E-2,5.660652E-1,-1.2951314E-1,4.0798607E-1,7.0306784E-1,-4.9586475E-2,-4.1097064E-2,-7.880725E-1,6.075456E-2,-2.661996E-1],"split_indices":[36,109,5,17,28,6,84,0,0,0,0,0,0,0,0],"split_type":[0,0,0,0,0,0,0,0,0,0,0,0,0,0,0],"sum_hessian":[3.3770523E1,1.7282742E1,1.648778E1,1.1752077E1,5.530665E0,2.5344143E0,1.3953365E1,9.231333E0,2.5207443E0,3.0386004E0,2.4920645E0,1.0224963E0,1.5119178E0,1.0106996E1,3.8463697E0],"tree_param":{"num_deleted":"0","num_feature":"200","num_nodes":"15","size_leaf_vector":"0"}},{"base_weights":[5.753769E-3,5.340197E-2,-4.4379693E-1,-2.847733E-2,2.1208239E-1,1.0408382E-1,-7.99827E-1,3.7609258E-1,-1.0518526E-1,9.8505266E-2,8.409491E-1],"categories":[],"categories_nodes":[],"categories_segments":[],"categories_sizes":[],"default_left":[1,1,1,1,1,0,0,0,0,0,0],"id":43,"left_children":[1,3,5,7,9,-1,-1,-1,-1,-1,-1],"loss_changes":[6.767932E-1,3.8368803E-1,6.096693E-1,5.841889E-1,6.887985E-1,0E0,0E0,0E0,0E0,0E0,0E0],"parents":[2147483647,0,0,1,1,2,2,3,3,4,4],"right_children":[2,4,6,8,10,-1,-1,-1,-1,-1,-1],"split_conditions":[9.9936146E-1,4.8793843E-1,7.3157454E-1,1.6498494E-1,8.403106E-1,9.010069E-2,-6.9237435E-1,3.2556647E-1,-9.1054164E-2,8.527159E-2,7.279719E-1],"split_indices":[85,92,67,24,29,0,0,0,0,0,0],"split_type":[0,0,0,0,0,0,0,0,0,0,0],"sum_hessian":[3.2133606E1,2.9113672E1,3.0199337E0,1.9081623E1,1.0032048E1,1.156874E0,1.8630598E0,2.9798374E0,1.6101786E1,8.537327E0,1.4947217E0],"tree_param":{"num_deleted":"0","num_feature":"200","num_nodes":"11","size_leaf_vector":"0"}},{"base_weights":[8.823002E-3,4.8587567E-1,-1.3602333E-2,1.15728766E-1,-1.1875904E-1,-7.8879885E-2,3.4793484E-1,-6.320239E-1,-4.0358156E-2],"categories":[],"categories_nodes":[],"categories_segments":[],"categories_sizes":[],"default_left":[1,0,1,1,1,0,0,0,0],"id":44,"left_children":[1,-1,3,5,7,-1,-1,-1,-1],"loss_changes":[3.474446E-1,0E0,4.042208E-1,6.044516E-1,6.447291E-1,0E0,0E0,0E0,0E0],"parents":[2147483647,0,0,2,2,3,3,4,4],"right_children":[2,-1,4,6,8,-1,-1,-1,-1],"split_conditions":[3.527097E-1,4.2060077E-1,2.4286224E-1,2.3563659E-1,2.5447476E-1,-6.8282776E-2,3.0119157E-1,-5.4711473E-1,-3.4936246E-2],"split_indices":[112,0,7,82,78,0,0,0,0],"split_type":[0,0,0,0,0,0,0,0,0],"sum_hessian":[3.1173632E1,1.4585525E0,2.9715078E1,1.3199889E1,1.651519E1,7.1122174E0,6.087672E0,2.1383266E0,1.4376863E1],"tree_param":{"num_deleted":"0","num_feature":"200","num_nodes":"9","size_leaf_vector":"0"}},{"base_weights":[-0E0,-8.4113136E-2,1.5536135E-1,-1.857181E-1,2.1417671E-1,4.1199213E-1,-6.0875047E-2,3.9005214E-1,-2.4286467E-1,7.7579415E-1,2.8808782E-2,6.548121E-1,-4.042796E-1,-2.731364E-1,3.641526E-1],"categories":[],"categories_nodes":[],"categories_segments":[],"categories_sizes":[],"default_left":[1,1,1,1,1,1,1,0,0,0,0,0,0,0,0],"id":45,"left_children":[1,3,5,7,9,11,13,-1,-1,-1,-1,-1,-1,-1,-1],"loss_changes":[3.9758223E-1,5.947382E-1,6.0480094E-1,4.803992E-1,4.8834872E-1,9.907216E-1,5.1618385E-1,0E0,0E0,0E0,0E0,0E0,0E0,0E0,0E0],"parents":[2147483647,0,0,1,1,2,2,3,3,4,4,5,5,6,6],"right_children":[2,4,6,8,10,12,14,-1,-1,-1,-1,-1,-1,-1,-1],"split_conditions":[7.086686E-1,5.613505E-1,6.7645204E-1,1.0228716E-2,2.022169E-1,7.588682E-1,8.550771E-1,3.3765063E-1,-2.1023704E-1,6.715702E-1,2.493847E-2,5.668414E-1,-3.499667E-1,-2.3644193E-1,3.1523058E-1],"split_indices":[67,76,103,12,35,42,20,0,0,0,0,0,0,0,0],"split_type":[0,0,0,0,0,0,0,0,0,0,0,0,0,0,0],"sum_hessian":[3.036221E1,1.9650593E1,1.07116165E1,1.473167E1,4.9189224E0,4.96065E0,5.7509665E0,1.2833844E0,1.3448286E1,1.1809769E0,3.7379458E0,3.8512192E0,1.1094309E0,3.8818707E0,1.8690957E0],"tree_param":{"num_deleted":"0","num_feature":"200","num_nodes":"15","size_leaf_vector":"0"}},{"base_weights":[1.477745E-2,-1.0855846E-1,1.0728373E-1,-1.797862E-1,5.4230917E-1,1.9151527E-1,-2.7863154E-1,-3.877465E-1,4.082718E-2,-1.8967116E-2,3.259368E-1,-6.5981734E-1,2.4737567E-1],"categories":[],"categories_nodes":[],"categories_segments":[],"categories_sizes":[],"default_left":[1,1,1,1,0,1,1,0,0,0,0,0,0],"id":46,"left_children":[1,3,5,7,-1,9,11,-1,-1,-1,-1,-1,-1],"loss_changes":[3.2677764E-1,5.521134E-1,5.339452E-1,5.1414835E-1,0E0,3.941559E-1,5.9252846E-1,0E0,0E0,0E0,0E0,0E0,0E0],"parents":[2147483647,0,0,1,1,2,2,3,3,5,5,6,6],"right_children":[2,4,6,8,-1,10,12,-1,-1,-1,-1,-1,-1],"split_conditions":[3.9883485E-1,7.113979E-1,9.612943E-1,7.7213943E-1,4.694527E-1,3.255288E-1,9.736632E-1,-3.3565477E-1,3.5342257E-2,-1.6418982E-2,2.8214887E-1,-5.7117426E-1,2.1414201E-1],"split_indices":[42,44,0,17,0,28,0,0,0,0,0,0,0],"split_type":[0,0,0,0,0,0,0,0,0,0,0,0,0],"sum_hessian":[2.8644136E1,1.2139585E1,1.650455E1,1.0983145E1,1.1564403E0,1.3610473E1,2.894078E0,5.7225194E0,5.260625E0,5.218955E0,8.391518E0,1.7105566E0,1.1835215E0],"tree_param":{"num_deleted":"0","num_feature":"200","num_nodes":"13","size_leaf_vector":"0"}},{"base_weights":[2.3730518E-3,2.9119538E-2,-3.4596094E-1,2.8080503E-3,5.534868E-1,-3.550679E-1,3.7523806E-2],"categories":[],"categories_nodes":[],"categories_segments":[],"categories_sizes":[],"default_left":[1,1,0,1,0,0,0],"id":47,"left_children":[1,3,-1,5,-1,-1,-1],"loss_changes":[2.4878734E-1,3.3967748E-1,0E0,2.9664016E-1,0E0,0E0,0E0],"parents":[2147483647,0,0,1,1,3,3],"right_children":[2,4,-1,6,-1,-1,-1],"split_conditions":[9.245261E-1,8.6609983E-1,-2.9948285E-1,3.1755757E-2,4.7912872E-1,-3.0736634E-1,3.2482676E-2],"split_indices":[67,67,0,46,0,0,0],"split_type":[0,0,0,0,0,0,0],"sum_hessian":[2.7707016E1,2.5810144E1,1.8968712E0,2.4630733E1,1.1794126E0,2.1026635E0,2.2528069E1],"tree_param":{"num_deleted":"0","num_feature":"200","num_nodes":"7","size_leaf_vector":"0"}},{"base_weights":[-0E0,1.7676501E-1,-5.742586E-2,7.5597215E-1,7.0318945E-2,-1.9746278E-1,4.429785E-2,-2.6973128E-2,4.9271747E-1,-5.818714E-1,-5.154325E-2,-4.845748E-1,1.2459555E-1],"categories":[],"categories_nodes":[],"categories_segments":[],"categories_sizes":[],"default_left":[1,1,1,0,1,1,1,0,0,0,0,0,0],"id":48,"left_children":[1,3,5,-1,7,9,11,-1,-1,-1,-1,-1,-1],"loss_changes":[2.798046E-1,3.9416587E-1,2.968609E-1,0E0,2.51219E-1,4.7249842E-1,4.8901653E-1,0E0,0E0,0E0,0E0,0E0,0E0],"parents":[2147483647,0,0,1,1,2,2,4,4,5,5,6,6],"right_children":[2,4,6,-1,8,10,12,-1,-1,-1,-1,-1,-1],"split_conditions":[1.3697276E-1,9.391929E-2,3.9530432E-1,6.5441114E-1,4.83436E-1,7.3308176E-1,1.7742866E-1,-2.3349427E-2,4.2652342E-1,-5.0369996E-1,-4.4618677E-2,-4.1947466E-1,1.0785678E-1],"split_indices":[18,86,45,0,35,39,81,0,0,0,0,0,0],"split_type":[0,0,0,0,0,0,0,0,0,0,0,0,0],"sum_hessian":[2.7310604E1,6.788822E0,2.0521782E1,1.0107063E0,5.7781157E0,8.756836E0,1.1764947E1,4.63972E0,1.1383959E0,2.3536088E0,6.403227E0,1.5022002E0,1.0262747E1],"tree_param":{"num_deleted":"0","num_feature":"200","num_nodes":"13","size_leaf_vector":"0"}},{"base_weights":[-0E0,1.6734813E-1,-5.915761E-2,-4.2264234E-2,5.126945E-1,3.4478238E-1,-9.3058445E-2,-2.6696405E-1,3.375625E-1,9.463143E-1,-0E0,3.0179782E-2,-1.8725899E-1],"categories":[],"categories_nodes":[],"categories_segments":[],"categories_sizes":[],"default_left":[1,1,1,1,1,0,1,0,0,0,0,0,0],"id":49,"left_children":[1,3,5,7,9,-1,11,-1,-1,-1,-1,-1,-1],"loss_changes":[2.5951666E-1,5.07964E-1,2.6011693E-1,3.559005E-1,5.573306E-1,0E0,2.1467344E-1,0E0,0E0,0E0,0E0,0E0,0E0],"parents":[2147483647,0,0,1,1,2,2,3,3,4,4,6,6],"right_children":[2,4,6,8,10,-1,12,-1,-1,-1,-1,-1,-1],"split_conditions":[1.5846792E-1,2.6116765E-1,2.9291753E-2,9.84412E-1,5.8346236E-1,2.9846263E-1,3.956772E-1,-2.310988E-1,2.922127E-1,8.191818E-1,-0E0,2.6125282E-2,-1.621017E-1],"split_indices":[23,76,10,68,165,0,28,0,0,0,0,0,0],"split_type":[0,0,0,0,0,0,0,0,0,0,0,0,0],"sum_hessian":[2.6362217E1,6.825037E0,1.953718E1,4.194069E0,2.6309683E0,1.4451424E0,1.8092037E1,2.6840274E0,1.5100414E0,1.3944824E0,1.2364858E0,7.7022476E0,1.038979E1],"tree_param":{"num_deleted":"0","num_feature":"200","num_nodes":"13","size_leaf_vector":"0"}}]},"name":"gbtree"},"learner_model_param":{"base_score":"5E-1","num_class":"0","num_feature":"200","num_target":"1"},"objective":{"name":"binary:logistic","reg_loss_param":{"scale_pos_weight":"1"}}},"version":[1,6,0]}