{"learner":{"attributes":{"best_iteration":"49","best_ntree_limit":"0"},"feature_names":["0","1","2","3","4","5","6","7","8","9","10","11","12","13","14","15","16","17","18","19","20","21","22","23","24","25","26","27","28","29","30","31","32","33","34","35","36","37","38","39","40","41","42","43","44","45","46","47","48","49","50","51","52","53","54","55","56","57","58","59","60","61","62","63","64","65","66","67","68","69","70","71","72","73","74","75","76","77","78","79","80","81","82","83","84","85","86","87","88","89","90","91","92","93","94","95","96","97","98","99","100","101","102","103","104","105","106","107","108","109","110","111","112","113","114","115","116","117","118","119","120","121","122","123","124","125","126","127","128","129","130","131","132","133","134","135","136","137","138","139","140","141","142","143","144","145","146","147","148","149","150","151","152","153","154","155","156","157","158","159","160","161","162","163","164","165","166","167","168","169","170","171","172","173","174","175","176","177","178","179","180","181","182","183","184","185","186","187","188","189","190","191","192","193","194","195","196","197","198","199"],"feature_types":["float","float","float","float","float","float","float","float","float","float","float","float","float","float","float","float","float","float","float","float","float","float","float","float","float","float","float","float","float","float","float","float","float","float","float","float","float","float","float","float","float","float","float","float","float","float","float","float","float","float","float","float","float","float","float","float","float","float","float","float","float","float","float","float","float","float","float","float","float","float","float","float","float","float","float","float","float","float","float","float","float","float","float","float","float","float","float","float","float","float","float","float","float","float","float","float","float","float","float","float","float","float","float","float","float","float","float","float","float","float","float","float","float","float","float","float","float","float","float","float","float","float","float","float","float","float","float","float","float","float","float","float","float","float","float","float","float","float","float","float","float","float","float","float","float","float","float","float","float","float","float","float","float","float","float","float","float","float","float","float","float","float","float","float","float","float","float","float","float","float","float","float","float","float","float","float","float","float","float","float","float","float","float","float","float","float","float","float","float","float","float","float","float","float","float","float","float","float","float","float"],"gradient_booster":{"model":{"boosted_rounds":50,"weights":[-4.889596E-1,2.2879572E-1,2.5658703E-1,2.2012427E-1,8.556869E-2,-2.5870878E-2,-2.4429667E-1,-9.846038E-2,-4.7166696E-1,-1.8787542E-1,-4.5944846E-1,-5.146061E-1,-1.6222823E-1,-3.6303678E-1,1.9164075E-1,-6.8778425E-2,4.0506786E-1,2.7529046E-1,-2.8377533E-1,-2.0101395E-1,3.6454657E-1,7.872108E-2,-1.973165E-3,5.520607E-1,-3.3867735E-1,-1.4319788E-1,4.9113426E-1,3.9163157E-2,3.7431762E-1,4.4202304E-1,3.5317424E-1,-4.660218E-2,-3.2022056E-1,1.9965787E-1,2.640052E-1,-1.8784349E-1,-1.5793864E-1,1.8434109E-1,3.793017E-2,-2.9540786E-1,7.980002E-2,1.5945761E-1,-7.436913E-2,1.7271867E-1,2.9434964E-1,4.9332023E-1,-3.0989699E-2,2.5898263E-1,-2.417762E-1,-2.2692361E-1,-3.6155558E-1,8.593245E-1,3.5559744E-1,-2.0150095E-1,-3.347696E-2,4.7477126E-1,1.9728512E-2,4.4055468E-1,-6.865037E-1,-1.8522094E-1,-1.6216691E-1,7.9310215E-1,3.461171E-1,3.185562E-2,-2.127629E-1,2.7425078E-1,-5.267591E-1,-6.1138004E-1,3.379229E-1,1.9952387E-1,-1.6896057E-1,-8.968018E-2,6.039988E-1,-4.7644743E-1,-2.269919E-1,-5.3944856E-1,7.4214137E-1,7.0853573E-1,4.2325285E-1,-5.918372E-1,2.8018603E-1,-7.9505265E-2,2.0789008E-1,5.022055E-2,-7.7332413E-1,-3.8174137E-2,-6.2604886E-1,2.1870683E-1,1.1347038E-2,0E0,-8.862918E-2,-8.076579E-2,1.0337633E0,1.402467E-1,2.1460265E-1,3.775511E-1,-3.198874E-1,3.2132901E-3,-1.040914E-1,6.7798726E-2,-3.5817462E-1,-3.000128E-1,0E0,-1.7978866E-1,0E0,2.1181667E-1,-1.0230992E-1,0E0,0E0,1.3259293E-1,0E0,1.7836234E-1,-3.6619887E-2,2.9180758E-3,-1.0635653E-3,-4.450425E-1,-3.8009402E-1,3.8546857E-1,-6.087107E-1,1.4085719E-1,-2.4474198E-1,-2.260349E-1,-4.297432E-1,-4.0292528E-1,-1.3248093E-1,-3.2093623E-1,1.299264E-1,-4.2416736E-1,2.2460353E-1,-3.7281913E-1,-1.0377964E0,-2.0272647E-1,3.3815902E-1,-2.748514E-1,-4.0057157E-3,-1.9410583E-1,1.0372058E-1,-3.008518E-1,-3.9668016E-2,6.1858666E-1,-2.1302177E-1,4.478549E-1,1.7919824E-1,-5.8709276E-1,4.3092323E-3,2.156246E-1,1.618512E-3,2.4278207E-1,-1.1864729E-1,6.1310863E-1,1.5901479E-1,0E0,-5.387946E-1,3.2476723E-2,-1.7309602E-1,6.1749995E-1,-5.084693E-1,-8.3483416E-1,1.9896276E-1,-1.9374063E-2,1.9445978E-1,-3.5139766E-1,9.6135974E-1,0E0,5.861454E-2,-8.9491653E-1,5.538041E-1,-1.3528682E0,-3.0400202E-1,-1.0683236E-1,1.0202721E-1,-1.5950088E-1,-2.615842E-1,-6.01448E-1,-2.5736165E-1,1.5079807E-2,-1.2016381E-1,2.1166901E-1,5.782336E-1,-1.9648229E-1,8.758756E-2,8.988659E-2,9.043051E-2,7.079974E-1,-1.4698297E-1,2.2469123E-1,0E0,-7.4758506E-1,-6.7877495E-1,-2.274818E-1,-3.343472E-1,2.584308E-2,-3.763059E-1,3.3848017E-1,-1.9525218E-1,0E0,9.4665927E-1,3.0006388E-1,3.319348E-1,1.2376512E0,8.1646717E-1]},"name":"gblinear"},"learner_model_param":{"base_score":"5E-1","num_class":"0","num_feature":"200","num_target":"1"},"objective":{"name":"binary:logistic","reg_loss_param":{"scale_pos_weight":"1"}}},"version":[1,6,0]}