{"learner":{"attributes":{"best_iteration":"49","best_ntree_limit":"0"},"feature_names":["0","1","2","3","4","5","6","7","8","9","10","11","12","13","14","15","16","17","18","19","20","21","22","23","24","25","26","27","28","29","30","31","32","33","34","35","36","37","38","39","40","41","42","43","44","45","46","47","48","49","50","51","52","53","54","55","56","57","58","59","60","61","62","63","64","65","66","67","68","69","70","71","72","73","74","75","76","77","78","79","80","81","82","83","84","85","86","87","88","89","90","91","92","93","94","95","96","97","98","99","100","101","102","103","104","105","106","107","108","109","110","111","112","113","114","115","116","117","118","119","120","121","122","123","124","125","126","127","128","129","130","131","132","133","134","135","136","137","138","139","140","141","142","143","144","145","146","147","148","149","150","151","152","153","154","155","156","157","158","159","160","161","162","163","164","165","166","167","168","169","170","171","172","173","174","175","176","177","178","179","180","181","182","183","184","185","186","187","188","189","190","191","192","193","194","195","196","197","198","199","200","201","202","203","204","205","206","207","208","209","210","211","212","213","214","215","216","217","218","219","220","221","222","223","224","225","226","227","228","229","230","231","232","233","234","235","236","237","238","239","240","241","242","243","244","245","246","247","248","249","250","251","252","253","254","255","256","257","258","259","260","261","262","263","264","265","266","267","268","269","270","271","272","273","274","275","276","277","278","279","280","281","282","283","284","285","286","287","288","289","290","291","292","293","294","295","296","297","298","299","300","301","302","303","304","305","306","307","308","309","310","311","312","313","314","315","316","317","318","319","320","321","322","323","324","325","326","327","328","329","330","331","332","333","334","335","336","337","338","339","340","341","342","343","344","345","346","347","348","349","350","351","352","353","354","355","356","357","358","359","360","361","362","363","364","365","366","367","368","369","370","371","372","373","374","375","376","377","378","379","380","381","382","383","384","385","386","387","388","389","390","391","392","393","394","395","396","397","398","399","400","401","402","403","404","405","406","407","408","409","410","411","412","413","414","415","416","417","418","419","420","421","422","423","424","425","426","427","428","429","430","431","432","433","434","435","436","437","438","439","440","441","442","443","444","445","446","447","448","449","450","451","452","453","454","455","456","457","458","459","460","461","462","463","464","465","466","467","468","469","470","471","472","473","474","475","476","477","478","479","480","481","482","483","484","485","486","487","488","489","490","491","492","493","494","495","496","497","498","499","500","501","502","503","504","505","506","507","508","509","510","511","512","513","514","515","516","517","518","519","520","521","522","523","524","525","526","527","528","529","530","531","532","533","534","535","536","537","538","539","540","541","542","543","544","545","546","547","548","549","550","551","552","553","554","555","556","557","558","559","560","561","562","563","564","565","566","567","568","569","570","571","572","573","574","575","576","577","578","579","580","581","582","583","584","585","586","587","588","589","590","591","592","593","594","595","596","597","598","599","600","601","602","603","604","605","606","607","608","609","610","611","612","613","614","615","616","617","618","619","620","621","622","623","624","625","626","627","628","629","630","631","632","633","634","635","636","637","638","639","640","641","642","643","644","645","646","647","648","649","650","651","652","653","654","655","656","657","658","659","660","661","662","663","664","665","666","667","668","669","670","671","672","673","674","675","676","677","678","679","680","681","682","683","684","685","686","687","688","689","690","691","692","693","694","695","696","697","698","699","700","701","702","703","704","705","706","707","708","709","710","711","712","713","714","715","716","717","718","719","720","721","722","723","724","725","726","727","728","729","730","731","732","733","734","735","736","737","738","739","740","741","742","743","744","745","746","747","748","749","750","751","752","753","754","755","756","757","758","759","760","761","762","763","764","765","766","767","768","769","770","771","772","773","774","775","776","777","778","779","780","781","782","783","784","785","786","787","788","789","790","791","792","793","794","795","796","797","798","799","800","801","802","803","804","805","806","807","808","809","810","811","812","813","814","815","816","817","818","819","820","821","822","823","824","825","826","827","828","829","830","831","832","833","834","835","836","837","838","839","840","841","842","843","844","845","846","847","848","849","850","851","852","853","854","855","856","857","858","859","860","861","862","863","864","865","866","867","868","869","870","871","872","873","874","875","876","877","878","879","880","881","882","883","884","885","886","887","888","889","890","891","892","893","894","895","896","897","898","899","900","901","902","903","904","905","906","907","908","909","910","911","912","913","914","915","916","917","918","919","920","921","922","923","924","925","926","927","928","929","930","931","932","933","934","935","936","937","938","939","940","941","942","943","944","945","946","947","948","949","950","951","952","953","954","955","956","957","958","959","960","961","962","963","964","965","966","967","968","969","970","971","972","973","974","975","976","977","978","979","980","981","982","983","984","985","986","987","988","989","990","991","992","993","994","995","996","997","998","999","1000","1001","1002","1003","1004","1005","1006","1007","1008","1009","1010","1011","1012","1013","1014","1015","1016","1017","1018","1019","1020","1021","1022","1023"],"feature_types":["float","float","float","float","float","float","float","float","float","float","float","float","float","float","float","float","float","float","float","float","float","float","float","float","float","float","float","float","float","float","float","float","float","float","float","float","float","float","float","float","float","float","float","float","float","float","float","float","float","float","float","float","float","float","float","float","float","float","float","float","float","float","float","float","float","float","float","float","float","float","float","float","float","float","float","float","float","float","float","float","float","float","float","float","float","float","float","float","float","float","float","float","float","float","float","float","float","float","float","float","float","float","float","float","float","float","float","float","float","float","float","float","float","float","float","float","float","float","float","float","float","float","float","float","float","float","float","float","float","float","float","float","float","float","float","float","float","float","float","float","float","float","float","float","float","float","float","float","float","float","float","float","float","float","float","float","float","float","float","float","float","float","float","float","float","float","float","float","float","float","float","float","float","float","float","float","float","float","float","float","float","float","float","float","float","float","float","float","float","float","float","float","float","float","float","float","float","float","float","float","float","float","float","float","float","float","float","float","float","float","float","float","float","float","float","float","float","float","float","float","float","float","float","float","float","float","float","float","float","float","float","float","float","float","float","float","float","float","float","float","float","float","float","float","float","float","float","float","float","float","float","float","float","float","float","float","float","float","float","float","float","float","float","float","float","float","float","float","float","float","float","float","float","float","float","float","float","float","float","float","float","float","float","float","float","float","float","float","float","float","float","float","float","float","float","float","float","float","float","float","float","float","float","float","float","float","float","float","float","float","float","float","float","float","float","float","float","float","float","float","float","float","float","float","float","float","float","float","float","float","float","float","float","float","float","float","float","float","float","float","float","float","float","float","float","float","float","float","float","float","float","float","float","float","float","float","float","float","float","float","float","float","float","float","float","float","float","float","float","float","float","float","float","float","float","float","float","float","float","float","float","float","float","float","float","float","float","float","float","float","float","float","float","float","float","float","float","float","float","float","float","float","float","float","float","float","float","float","float","float","float","float","float","float","float","float","float","float","float","float","float","float","float","float","float","float","float","float","float","float","float","float","float","float","float","float","float","float","float","float","float","float","float","float","float","float","float","float","float","float","float","float","float","float","float","float","float","float","float","float","float","float","float","float","float","float","float","float","float","float","float","float","float","float","float","float","float","float","float","float","float","float","float","float","float","float","float","float","float","float","float","float","float","float","float","float","float","float","float","float","float","float","float","float","float","float","float","float","float","float","float","float","float","float","float","float","float","float","float","float","float","float","float","float","float","float","float","float","float","float","float","float","float","float","float","float","float","float","float","float","float","float","float","float","float","float","float","float","float","float","float","float","float","float","float","float","float","float","float","float","float","float","float","float","float","float","float","float","float","float","float","float","float","float","float","float","float","float","float","float","float","float","float","float","float","float","float","float","float","float","float","float","float","float","float","float","float","float","float","float","float","float","float","float","float","float","float","float","float","float","float","float","float","float","float","float","float","float","float","float","float","float","float","float","float","float","float","float","float","float","float","float","float","float","float","float","float","float","float","float","float","float","float","float","float","float","float","float","float","float","float","float","float","float","float","float","float","float","float","float","float","float","float","float","float","float","float","float","float","float","float","float","float","float","float","float","float","float","float","float","float","float","float","float","float","float","float","float","float","float","float","float","float","float","float","float","float","float","float","float","float","float","float","float","float","float","float","float","float","float","float","float","float","float","float","float","float","float","float","float","float","float","float","float","float","float","float","float","float","float","float","float","float","float","float","float","float","float","float","float","float","float","float","float","float","float","float","float","float","float","float","float","float","float","float","float","float","float","float","float","float","float","float","float","float","float","float","float","float","float","float","float","float","float","float","float","float","float","float","float","float","float","float","float","float","float","float","float","float","float","float","float","float","float","float","float","float","float","float","float","float","float","float","float","float","float","float","float","float","float","float","float","float","float","float","float","float","float","float","float","float","float","float","float","float","float","float","float","float","float","float","float","float","float","float","float","float","float","float","float","float","float","float","float","float","float","float","float","float","float","float","float","float","float","float","float","float","float","float","float","float","float","float","float","float","float","float","float","float","float","float","float","float","float","float","float","float","float","float","float","float","float","float","float","float","float","float","float","float","float","float","float","float","float","float","float","float","float","float","float","float","float","float","float","float","float","float","float","float","float","float","float","float","float","float","float","float","float","float","float","float","float","float","float","float","float","float","float","float","float","float","float","float","float","float","float","float","float","float","float","float","float","float","float","float","float","float","float","float","float","float","float","float","float","float","float","float","float","float","float","float","float","float","float","float","float","float","float","float","float","float","float","float","float","float","float","float","float","float","float","float","float","float","float","float","float","float","float","float","float","float","float","float","float","float","float","float","float","float","float","float","float","float","float","float","float","float","float","float","float","float","float","float","float","float","float","float","float","float","float","float","float","float","float"],"gradient_booster":{"model":{"boosted_rounds":50,"weights":[-3.278176E-1,-4.559534E-4,2.9413185E-8,-1.6442891E0,1.1977099E0,-3.183016E0,8.5097885E-16,9.70352E-1,9.478178E-8,-3.0742656E-10,-1.3318872E-7,6.729864E-1,1.3012789E-6,1.0124456E0,2.307545E0,1.9748855E-2,5.590902E-1,-3.191759E0,-2.699322E-5,-1.4450338E0,-8.483264E-1,-9.185712E-1,-9.002673E-2,-4.612749E0,6.810991E-2,8.393443E-1,4.8882392E-1,-3.9012343E-1,-9.534857E-11,1.8971562E-1,3.156019E0,7.5619566E-1,7.0921844E-1,2.8334996E-1,5.3937596E-1,1.1088288E0,2.3898829E-2,8.089666E-3,7.6236415E-1,4.4302144E-8,-1.4351843E-12,1.4482923E-1,5.4958653E-1,-1.4508377E-14,1.851965E0,-7.898832E-1,-3.451887E-3,1.1411248E0,-3.6984964E-4,-8.530735E-12,-4.6527626E-9,2.916863E-1,-4.6117365E-4,1.1633176E0,5.374604E-16,1.1615833E0,4.463719E-2,2.2812608E-13,-1.2214914E-13,7.2927676E-2,1.118853E0,-3.4148026E0,-9.291637E-2,1.2917969E0,1.0672354E0,-6.731343E-1,1.3462841E-15,-7.665964E-1,1.0931108E-6,-3.5232491E0,-9.05758E-1,-1.8474655E0,-6.448341E-1,-2.630437E-1,2.019313E-6,-2.324095E0,-6.272803E-1,1.3363492E-6,1.3168123E-13,9.447183E-11,5.08107E-1,1.6127388E0,1.6267546E-9,-5.5399144E-1,1.9388577E-3,1.5732782E0,-2.2292292E0,-1.3573245E0,-6.7850226E-1,-3.2302344E-1,-8.800434E-8,-8.458237E-2,3.41621E0,-1.0943909E0,-9.072239E-2,1.9736222E0,-2.6709232E-12,4.9550617E-11,1.5576702E-10,-2.2778387E0,-2.5677855E-7,2.765641E0,-1.3315467E0,-1.509187E-11,-1.0243105E0,-1.5625402E-1,8.713576E-13,2.352876E-13,-1.1886699E-15,-2.5596585E0,9.074296E-15,-8.244199E-1,8.5819453E-1,2.3365614E0,5.0512475E-1,-2.9947178E-15,-2.0658101E-3,7.617681E-1,2.1016419E-1,6.9711006E-1,-4.7242368E-14,3.7377393E-1,9.656824E-2,-5.826723E-1,2.9492527E-1,-1.2467046E0,-5.634043E-1,-1.3156037E0,-8.213476E-1,1.2339077E0,-1.9919746E0,-5.8112365E-1,-2.4074305E-11,2.7056914E-5,8.026543E-13,1.4025579E-14,2.6759872E-1,-1.5131006E0,5.155406E-1,1.0009798E0,4.0833965E-2,-1.2680484E0,5.4638E-11,-3.3465998E0,-4.1235566E-1,1.2778997E0,-6.8928236E-1,-2.0112683E-1,2.8196722E-3,2.9524048E-13,4.5812502E-8,7.008739E-1,5.3223425E-15,2.047634E-13,-2.2612814E-9,5.135195E-1,1.1850767E0,1.3451062E-13,-6.723383E-2,-2.0280156E0,6.833064E-13,2.4627394E-12,1.2582301E0,-5.0227225E-1,-4.5049608E-1,2.2746675E0,-6.4259964E-8,-2.1704597E0,1.4686455E0,-2.8427827E-1,1.6323048E0,-1.8922282E0,-7.396199E-1,2.1866403E0,-2.1819847E0,5.1572615E-1,-2.308892E0,5.274415E-1,1.3420964E0,8.79501E-1,-2.9994344E-2,2.3132596E0,-4.2371497E-1,-9.396423E-1,-8.8965416E-1,1.0901295E-7,-2.7894568E-1,6.4673614E-8,-2.2045155E0,2.3284966E-1,3.3631885E-1,-2.2452756E-13,9.260865E-1,-2.3011875E0,1.5719668E0,9.705408E-10,-2.8364333E-14,1.9100616E0,1.5380131E-3,1.16075E-9,-1.6871842E0,-1.9855676E0,-1.3213234E0,-2.2799296E0,2.8492265E0,-1.01450485E-13,-2.6562107E0,1.7245388E-1,-1.1615814E0,-9.414173E-1,3.1570578E0,8.063862E-12,3.1574163E-1,9.4745E-16,-5.593346E-5,9.017628E-1,4.9466114E-5,1.648633E-15,7.147672E-11,3.9537543E-8,-2.1497328E0,-2.3118093E0,-4.2638695E-1,7.709111E-12,1.8276058E-1,-9.181328E-8,-2.0473454E0,3.1158698E-1,-9.54977E-1,3.187168E-1,5.780197E-1,1.82262E0,1.0083151E0,-2.100013E0,1.9007597E0,8.768863E-8,-3.961054E-15,-2.9469671E0,-3.9400726E-13,-2.4338346E0,-2.2726138E-3,-2.3185282E0,-6.2113756E-1,1.0392281E0,2.1067107E-1,9.666837E-1,8.658271E-1,6.639235E-5,1.8818296E-1,1.4373659E-10,3.5275266E-1,-1.0259038E0,-6.421323E-1,-8.709814E-9,5.83135E-11,-3.8091362E-1,1.1474512E-1,2.0540138E-1,-9.3112355E-1,-4.363767E-9,1.3471561E-14,9.7890085E-1,-7.505283E-10,8.5665756E-1,7.198979E-1,1.941154E-1,7.840247E-9,1.916433E-11,6.864848E-1,1.298213E0,8.6408377E-1,1.6806291E0,3.8427505E-1,4.5975722E-14,-1.739708E-2,-2.074564E-9,-6.75899E-1,1.8465553E-8,-1.4666672E0,-1.9965359E-15,-2.250069E0,8.3501975E-5,-1.23313E-9,-9.2107624E-1,-8.2098944E-13,-6.7431366E-1,-9.337169E-1,7.3688376E-1,1.1896633E0,-9.807768E-1,3.905769E-15,-1.7874871E0,-8.6422753E-1,1.6870411E-4,9.220539E-1,4.4382243E0,3.4863825E-13,-1.9094346E-1,3.4767147E-2,1.2241755E-7,7.772272E-1,-6.012267E-1,8.0439967E-1,2.1908348E0,-1.9792348E0,1.7441744E-1,-5.958293E-11,-3.40341E-5,-1.0074912E0,1.2384368E0,1.0968003E-1,2.2109401E0,-2.8350182E-13,-1.4192257E0,-1.0277528E-1,8.6666845E-2,-1.3552514E-7,-2.1699739E0,2.6539915E0,2.5340833E-4,3.6474925E-13,2.8181335E-1,-6.541142E-1,-9.084068E-11,1.3326898E0,-1.1790349E-4,2.0991132E-14,8.534533E-1,1.3886904E0,-1.116783E0,9.034453E-8,-2.692942E-1,1.8258617E0,2.8318766E-1,2.6220663E0,-1.1101098E0,5.6700623E-1,5.6691728E-11,-6.683819E-1,6.571192E-14,1.00657384E-13,-8.328301E-1,-1.1073657E-12,-1.2951347E0,-7.035727E-1,3.1490308E-1,-1.0417843E0,3.0420132E-8,-1.7333143E-8,-1.6387392E0,2.0230124E-9,7.7780396E-2,1.3078392E-6,1.3917566E-11,5.8916854E-8,-1.6197891E0,8.0122596E-1,-4.8814726E0,1.0973701E0,-3.11454E-1,1.0262651E-1,2.4632977E-2,1.7226574E0,1.1949122E-13,1.8126738E-1,5.802571E-1,-6.277069E-1,5.9834287E-2,-1.041238E0,3.1545413E-1,2.8284106E-11,1.4411528E0,2.3713658E-14,-4.3083534E-2,6.752705E-1,1.3125706E0,-5.6980765E-1,-1.3448668E0,4.7555652E-1,2.4712694E0,1.3923367E0,-1.703831E-3,-2.6767025E-2,1.4722851E-1,-5.200378E0,3.1577263E0,1.5384474E0,-1.5665293E-1,4.7289473E-1,-1.0898197E-1,-6.954211E-1,3.8001385E-1,-1.2799044E0,-3.472188E-1,-3.5281387E-1,-3.3413403E0,-4.121792E-1,3.5506873E0,1.4451463E0,-8.239195E-15,1.5347066E-13,8.246982E-1,1.0310757E-15,7.77619E-2,-1.521426E0,3.946629E0,-1.0236591E0,-1.0532892E0,-1.9662824E0,1.1129342E0,-3.937667E0,-1.5568826E-1,3.14006E0,1.9783447E0,-1.150864E-1,5.1411257E0,1.5685089E0,5.2873623E-1,8.9910185E-1,-4.6791115E0,1.7982516E0,8.517089E-1,2.661117E-1,-2.6060495E-1,-6.299313E-1,3.1538305E-10,-1.2503594E0,1.4699363E-10,-1.0954686E0,-2.1027482E-1,-1.3094422E0,1.3275213E0,-3.333687E0,7.122033E-1,-1.437469E-13,-1.2635708E-13,-2.2573253E-8,-1.5815059E0,-1.0268314E-13,-1.1569681E0,-8.0131304E-1,5.1329735E-12,-5.800746E-5,-5.9857692E-15,-5.853531E-1,-3.789362E-1,8.0001783E-1,-3.0297738E-1,3.7629834E-6,-2.9825374E-12,2.0293918E-2,-1.4881902E0,-2.0169978E0,-1.7580845E0,-1.09992325E-1,-1.0061638E0,-3.7319877E-3,1.764399E-8,-8.806021E-1,2.2043722E-14,-3.7477113E-4,-9.124129E-2,-1.9439052E-10,1.5399383E-1,-4.3837762E-1,-2.9661067E-12,-2.0315547E-7,6.203517E-15,1.4029442E-14,-1.4394351E0,-5.2598273E-12,-2.9154642E0,-8.269458E-1,5.040415E-1,-1.036458E0,1.4226145E-14,-4.080289E-9,3.6243682E0,-7.233716E-1,1.9233163E-1,-6.460242E-12,5.0310504E-13,4.4867548E-1,1.3837953E0,-2.0464332E-1,-4.2123532E-10,9.040591E-1,2.1298509E0,4.983918E-12,4.847571E-6,1.3956282E-14,-2.6708554E-7,1.7357117E-1,-9.111361E-15,-4.132515E-12,-1.1104099E0,-5.6054255E-14,9.529549E-15,2.3334646E0,3.3428725E-7,-3.4649304E-8,-1.3962325E0,-8.5044765E-1,-1.8669857E0,7.2864896E-1,-9.881049E-15,-7.571216E-3,-3.5843438E-1,-1.3596544E-15,5.2347034E-15,-2.9060113E0,-4.639309E-1,-5.695731E-2,-2.4379943E-12,-9.86457E-10,1.5869665E0,-6.811896E-1,1.1510171E0,-5.001586E-13,3.500391E-1,2.3578992E0,-3.7179757E-15,1.4031617E-13,1.8417094E0,-3.5046104E-1,-1.1362971E0,-8.983641E-2,2.0055194E0,7.1152085E-13,-1.3852025E0,7.4102506E-2,-7.304401E-11,1.6059909E0,-1.1575555E0,-2.1353881E0,3.8731987E-9,-3.4525723E0,-2.973612E-11,-2.9077565E-12,-2.275992E0,1.17779255E-1,-8.760696E-16,-1.8268323E-13,3.219627E-1,-1.2743804E-3,3.2314695E-2,-1.9331028E0,-7.804565E-6,2.106485E-13,2.7038902E-7,2.1326704E-10,3.4576922E-12,2.0782039E-7,-3.822988E-14,2.0527583E-14,2.9626372E0,8.266648E-1,-2.2938076E-1,-5.9674914E-14,4.3089294E-1,8.483805E-1,1.07587785E-1,2.343028E-13,-6.5011483E-1,-5.187961E-13,-1.736578E-14,-2.176893E-9,3.0530544E-14,-2.032919E0,-7.755535E-7,3.6319307E-12,-2.0503917E0,1.4895742E-14,-7.034269E-1,-2.2343454E0,1.6359916E-4,-2.9294727E-6,2.3923899E-1,-2.3674372E-1,-6.997513E-1,-1.2857089E-2,5.972095E-1,-1.5683342E0,7.977202E-14,-4.6556874E-5,5.486318E-1,-1.0709752E0,3.1770353E-6,-3.088841E-1,-2.704744E-2,2.1381822E-1,-1.5824656E0,1.2056085E0,6.1810017E-1,-1.8261184E0,-7.968688E-1,3.118333E-11,-2.7747747E-1,-3.4978575E-1,1.7178621E-10,-5.414901E-8,-6.215096E-1,-3.5084548E0,9.387813E-1,-1.1660982E-14,-8.2972866E-1,-1.0830172E0,-3.7064096E-1,2.8556505E-1,-8.342603E-1,-4.7722703E-1,-1.4309714E0,1.8608198E0,-1.6701245E-11,7.141061E-1,7.8088206E-1,1.4772988E-16,2.0873406E0,1.9993385E-8,1.244514E-3,1.5568833E-1,-4.50514E-1,4.8437393E-1,2.9103768E0,2.39133E0,9.4944483E-1,-8.5453415E-11,-3.3623755E-2,1.6639328E-1,-1.0798789E-10,8.2830726E-13,3.3480935E0,-2.0316334E-1,4.6112128E-3,-1.3308185E0,-1.4389746E-15,-3.374059E-1,1.0848724E0,3.9572397E-4,3.714487E0,-1.9870789E0,2.9003847E-13,-3.8989825E-9,2.579667E-1,-1.4836825E-1,3.4450708E-4,5.545749E-1,1.4147806E0,-5.6391166E-8,1.4603551E-12,1.0556029E-2,-2.0858005E-1,-8.9941776E-1,9.742274E-1,3.4552008E-1,9.794021E-1,1.7409496E-1,-8.462843E-2,-3.3688557E-1,2.901021E-1,1.4314478E-2,2.9940274E-1,1.6008729E0,-2.7010345E0,3.436038E-2,-8.6517E-1,3.1058694E-11,-2.8728253E-1,-5.102499E-12,-3.8563368E-1,2.9627633E-1,-2.0987717E-11,2.0278978E-9,9.86168E-11,-1.4753281E0,7.964034E-9,2.3214137E-14,-1.9119982E0,5.241787E-1,7.8112173E-1,1.3108595E-1,-4.4008737E-13,1.0100055E-2,1.218509E0,-7.43872E-6,3.489384E-14,2.570295E-7,2.4070914E0,-1.5628293E0,-5.084086E-11,3.3311025E-12,9.753658E-1,2.4674952E0,1.9516106E0,5.368201E-1,-5.0470966E-1,1.263693E0,-3.2369137E0,3.8925096E-1,1.4706126E0,-3.6506547E-6,-1.1209104E0,-5.0954495E-2,4.9881196E-11,-4.5579076E-1,3.8892975E-1,6.848321E-13,-2.5460566E-13,-1.4160426E-13,4.4676415E-13,1.4827993E0,7.771588E-16,1.9330351E-10,-2.4759247E0,9.6957165E-1,1.6887239E0,-2.2742487E-3,2.5201887E-1,5.6504565E-1,1.5572324E-10,-2.2609587E0,-1.0492207E-10,-1.0836036E-3,-1.2661008E0,3.7139964E0,-1.6358052E-1,6.2687474E-1,-2.342777E0,-1.593462E-1,-3.5680285E-15,3.367157E-1,1.4370643E0,1.70074E0,-8.708613E-1,1.392043E0,-4.4331765E-1,-1.403598E0,-1.1643164E-1,1.6873714E0,1.3569207E-1,-9.414704E-15,-3.699357E-13,1.479955E-1,2.1230266E0,-1.2080555E-2,-2.641389E-1,2.613489E-1,1.6596467E0,-4.3814608E-1,-1.1117058E0,5.006555E-1,-2.8047144E0,-8.5962564E-1,-3.9503488E-1,-2.2261877E0,1.02434866E-1,-4.814239E-15,3.9759746E-1,6.543478E-2,-1.3854167E0,-9.360817E-1,-3.7073054E0,4.3786827E-1,-7.729973E-14,-1.1554006E0,1.3199165E0,-1.0781171E0,7.40844E-1,1.3126772E-13,-2.0027956E-1,-7.8061765E-1,-2.1604869E-8,8.6053693E-1,2.5070503E-1,-2.0726703E-1,1.1014432E0,-3.2039555E-8,-4.2561796E-1,-1.8663166E-4,-1.769023E-3,-6.7842287E-1,6.804347E-12,-4.2274556E-1,1.866338E-9,2.1099442E-1,-1.242748E0,-1.6612363E-1,-4.955658E-4,6.755147E-16,4.6982383E-5,1.4688275E-3,-6.131709E-1,8.7130985E-8,-1.4432633E-2,-1.0760461E0,4.0039616E-9,1.2004403E0,-2.4015516E-4,2.6790495E0,-4.5086438E-4,-7.3804567E-9,-6.958975E-1,-1.0576235E0,-1.219644E0,7.181727E-4,-1.4034945E0,-2.311213E0,-6.070679E-1,-1.0458668E0,1.9976411E0,-1.2529047E-11,-2.223554E-16,-9.434955E-1,-1.899264E0,-3.2684562E-1,-2.1316018E0,-1.2888719E0,1.891316E-11,-4.6514785E-7,4.4537538E-1,2.519311E-1,-2.1237215E-6,-8.0762666E-1,-2.1993365E-13,1.4114309E-12,-1.596228E0,1.7453909E0,2.050336E-14,2.0963032E0,-5.8175725E-1,-8.997665E-1,-1.1213417E0,4.5268005E-1,-3.6383826E-1,-5.334682E-11,2.7959664E0,-6.0569453E-1,-2.4278102E0,1.4006272E-1,-6.67706E-1,-1.5722618E0,-2.4411413E-1,-9.3838945E-2,1.7626039E0,-1.367888E0,-5.3653007E0,7.435784E-1,1.5480909E-1,1.9184126E-6,5.787487E-1,-1.9436399E0,-1.8319538E-15,-1.3501583E0,-8.9950584E-13,-1.768364E0,1.629631E-4,7.505453E-1,-6.2936264E-1,-6.125515E-11,-1.1179177E0,2.5073578E-7,-2.4568813E0,-9.490631E-1,4.472414E0,2.9746887E-1,-9.7481143E-1,2.0010251E-15,1.4405861E0,1.646123E-10,5.1616084E-6,1.4240368E-5,-3.813231E0,-1.02126606E-1,-2.2492387E0,7.0082488E-6,2.6958635E-1,5.9904456E-1,-3.761929E-1,-4.998293E0,3.0297837E0,-1.79547E-11,4.0362275E-1,-5.6930745E-1,-2.963952E-1,-4.430509E-1,-1.977912E0,-6.72579E-13,2.2942168E-6,-5.0927925E-1,5.1464686E-17,2.1909478E0,1.7612052E0,-2.3697914E-1,-4.8599944E-1,3.2825007E-14,-1.9551232E-1,4.9028686E-1,-1.5256441E0,-8.52125E-1,7.3151165E-1,2.5054944E0,1.8973593E0,3.7962963E-11,-2.4941113E-5,1.3611455E0,2.1611478E0,-3.2392075E-12,2.5673452E-10,9.979265E-1,-8.690473E-10,5.4084365E-3,-6.684575E-1,3.5017322E-11,-5.8537446E-2,-4.227169E-1,1.193102E-1,1.6443774E0,1.1985778E0,2.4921837E0,-6.7453414E-1,-2.3690024E-3,-1.837448E-13,-2.054588E-2,5.864051E-2,7.625783E-11,7.9842037E-1,1.0461063E0,-6.1506347E-12,6.710398E-1,9.965368E-15,-1.1655203E0,9.352963E-3,-1.0396376E-1,-1.3404267E-2,-1.2665626E0,3.654181E-1,-8.343689E-1,-1.0514023E-9,1.1811982E0,-7.751154E-1,4.588898E-1,-1.9427983E0,8.603142E-1,1.2346112E0,9.981027E-1,3.4339662E0,7.5157255E-1,-2.2023036E-14,-5.306556E-1,9.187176E-1,6.026733E-11,1.8143431E0,7.2391417E-9,-5.2919215E-1,1.2290627E-1,-2.2934527E0,2.6628107E-1,4.7255585E-12,1.6871879E0,-3.3471306E-9,-3.8446924E-1,8.8101614E-1,1.6998035E-16,-1.2317767E0,2.431798E-10,-1.1513077E0,2.5622628E-4,1.15400426E-1,-7.710332E-13,-1.1129189E0,-4.843297E-1,3.3099513E0,-1.3288207E-1,4.348226E-1,-1.889146E0,1.5226201E-10,-5.2754325E-1,1.4530458E-2,2.5007969E-12,-3.356518E-10,-1.0289549E0,-3.0555317E-1,-1.2528986E0,1.9590782E0,-2.0738153E0,1.0621354E-9,6.688209E-12,5.9765095E-1,-1.2933292E0,-1.6058729E0,1.8189186E0,-6.5630076E-7,5.9638653E-16,-5.7420284E-1,1.6901487E0,-5.333989E-1,-4.5425014E-11,6.0574865E-1,5.3359088E-2,2.644514E0,-1.1837466E-1,1.0230696E0,1.6549873E0,6.5884346E-1,-4.7824287E-1,-1.3769575E0,-1.0739493E0,1.4094231E-9,5.841539E-1,4.9473473E-1,6.45014E-1,1.486277E0,-3.9416601E-16,4.1413015E-5,-1.664968E-10,-3.5704074E-15,1.6959145E-13,-2.3129241E-1,1.9349514E0,4.2304268E-1,-3.5565877E0,-1.1743875E-7,-2.1565013E0,-8.8545924E-8,1.7278558E0]},"name":"gblinear"},"learner_model_param":{"base_score":"5E-1","num_class":"0","num_feature":"1024","num_target":"1"},"objective":{"name":"binary:logistic","reg_loss_param":{"scale_pos_weight":"1"}}},"version":[1,6,0]}