{"learner":{"attributes":{"best_iteration":"49","best_ntree_limit":"50"},"feature_names":["0","1","2","3","4","5","6","7","8","9","10","11","12","13","14","15","16","17","18","19","20","21","22","23","24","25","26","27","28","29","30","31","32","33","34","35","36","37","38","39","40","41","42","43","44","45","46","47","48","49","50","51","52","53","54","55","56","57","58","59","60","61","62","63","64","65","66","67","68","69","70","71","72","73","74","75","76","77","78","79","80","81","82","83","84","85","86","87","88","89","90","91","92","93","94","95","96","97","98","99","100","101","102","103","104","105","106","107","108","109","110","111","112","113","114","115","116","117","118","119","120","121","122","123","124","125","126","127","128","129","130","131","132","133","134","135","136","137","138","139","140","141","142","143","144","145","146","147","148","149","150","151","152","153","154","155","156","157","158","159","160","161","162","163","164","165","166"],"feature_types":["float","float","float","float","float","float","float","float","float","float","float","float","float","float","float","float","float","float","float","float","float","float","float","float","float","float","float","float","float","float","float","float","float","float","float","float","float","float","float","float","float","float","float","float","float","float","float","float","float","float","float","float","float","float","float","float","float","float","float","float","float","float","float","float","float","float","float","float","float","float","float","float","float","float","float","float","float","float","float","float","float","float","float","float","float","float","float","float","float","float","float","float","float","float","float","float","float","float","float","float","float","float","float","float","float","float","float","float","float","float","float","float","float","float","float","float","float","float","float","float","float","float","float","float","float","float","float","float","float","float","float","float","float","float","float","float","float","float","float","float","float","float","float","float","float","float","float","float","float","float","float","float","float","float","float","float","float","float","float","float","float","float","float","float","float","float","float"],"gradient_booster":{"gbtree":{"model":{"gbtree_model_param":{"num_parallel_tree":"1","num_trees":"50","size_leaf_vector":"0"},"tree_info":[0,0,0,0,0,0,0,0,0,0,0,0,0,0,0,0,0,0,0,0,0,0,0,0,0,0,0,0,0,0,0,0,0,0,0,0,0,0,0,0,0,0,0,0,0,0,0,0,0,0],"trees":[{"base_weights":[1.0123153E0,1.5841584E0,7.1661234E-2,1.6257545E0,-1E0,1.0967742E0,-7.8208953E-1,1.7891738E0,1.2328767E0,-1.6666666E0,9.9999994E-1,1.323077E0,5.714286E-1,8.4745765E-1,-1.1304348E0],"categories":[],"categories_nodes":[],"categories_segments":[],"categories_sizes":[],"default_left":[1,1,1,1,1,1,1,0,0,0,0,0,0,0,0],"id":0,"left_children":[1,3,5,7,9,11,13,-1,-1,-1,-1,-1,-1,-1,-1],"loss_changes":[2.1839008E2,2.7141418E1,1.3434183E2,1.5954712E1,5.333333E0,8.292374E0,4.754027E1,0E0,0E0,0E0,0E0,0E0,0E0,0E0,0E0],"parents":[2147483647,0,0,1,1,2,2,3,3,4,4,5,5,6,6],"right_children":[2,4,6,8,10,12,14,-1,-1,-1,-1,-1,-1,-1,-1],"split_conditions":[5E-1,5E-1,5E-1,5E-1,5E-1,5E-1,5E-1,9.4734237E-4,6.527908E-4,-8.824765E-4,5.294859E-4,7.005506E-4,3.025634E-4,4.487169E-4,-5.985493E-4],"split_indices":[131,8,95,146,62,53,146,0,0,0,0,0,0,0,0],"split_type":[0,0,0,0,0,0,0,0,0,0,0,0,0,0,0],"sum_hessian":[4.06E2,2.525E2,1.535E2,2.485E2,4E0,6.975E1,8.375E1,1.755E2,7.3E1,3E0,1E0,4.875E1,2.1E1,1.475E1,6.9E1],"tree_param":{"num_deleted":"0","num_feature":"167","num_nodes":"15","size_leaf_vector":"0"}},{"base_weights":[1.0117794E0,1.58332E0,7.162327E-2,1.6248941E0,-9.994706E-1,1.0961937E0,-7.8167564E-1,1.788227E0,1.2322241E0,3.5299477E-4,-1.9992942E0,1.3223766E0,5.7112604E-1,8.4700894E-1,-1.1298364E0],"categories":[],"categories_nodes":[],"categories_segments":[],"categories_sizes":[],"default_left":[1,1,1,1,1,1,1,0,0,0,0,0,0,0,0],"id":1,"left_children":[1,3,5,7,9,11,13,-1,-1,-1,-1,-1,-1,-1,-1],"loss_changes":[2.181589E2,2.7112793E1,1.3419962E2,1.5937744E1,3.9985888E0,8.2836E0,4.748995E1,0E0,0E0,0E0,0E0,0E0,0E0,0E0,0E0],"parents":[2147483647,0,0,1,1,2,2,3,3,4,4,5,5,6,6],"right_children":[2,4,6,8,10,12,14,-1,-1,-1,-1,-1,-1,-1,-1],"split_conditions":[5E-1,5E-1,5E-1,5E-1,5E-1,5E-1,5E-1,9.46841E-4,6.524453E-4,1.8690577E-7,-1.0585982E-3,7.0017984E-4,3.024032E-4,4.4847932E-4,-5.982325E-4],"split_indices":[131,8,95,146,126,53,146,0,0,0,0,0,0,0,0],"split_type":[0,0,0,0,0,0,0,0,0,0,0,0,0,0,0],"sum_hessian":[4.0599994E2,2.5249995E2,1.5349998E2,2.4849995E2,3.9999995E0,6.974999E1,8.374999E1,1.7549995E2,7.299999E1,1.9999998E0,1.9999998E0,4.8749992E1,2.1E1,1.4749999E1,6.899999E1],"tree_param":{"num_deleted":"0","num_feature":"167","num_nodes":"15","size_leaf_vector":"0"}},{"base_weights":[1.011244E0,1.5824825E0,7.158531E-2,1.6240345E0,-9.989418E-1,1.0956135E0,-7.812619E-1,1.7872812E0,1.2315719E0,3.5272658E-4,-1.9982369E0,1.3216769E0,5.7082355E-1,8.465606E-1,-1.1292386E0],"categories":[],"categories_nodes":[],"categories_segments":[],"categories_sizes":[],"default_left":[1,1,1,1,1,1,1,0,0,0,0,0,0,0,0],"id":2,"left_children":[1,3,5,7,9,11,13,-1,-1,-1,-1,-1,-1,-1,-1],"loss_changes":[2.1792816E2,2.7083984E1,1.3405757E2,1.5920959E1,3.994359E0,8.274841E0,4.7439693E1,0E0,0E0,0E0,0E0,0E0,0E0,0E0,0E0],"parents":[2147483647,0,0,1,1,2,2,3,3,4,4,5,5,6,6],"right_children":[2,4,6,8,10,12,14,-1,-1,-1,-1,-1,-1,-1,-1],"split_conditions":[5E-1,5E-1,5E-1,5E-1,5E-1,5E-1,5E-1,9.463402E-4,6.521E-4,1.8676376E-7,-1.0580383E-3,6.998093E-4,3.0224305E-4,4.4824192E-4,-5.9791596E-4],"split_indices":[131,8,95,146,126,53,146,0,0,0,0,0,0,0,0],"split_type":[0,0,0,0,0,0,0,0,0,0,0,0,0,0,0],"sum_hessian":[4.0599976E2,2.5249982E2,1.5349995E2,2.4849982E2,3.999998E0,6.974998E1,8.374997E1,1.7549985E2,7.299997E1,1.9999996E0,1.9999983E0,4.8749977E1,2.0999998E1,1.4749997E1,6.899998E1],"tree_param":{"num_deleted":"0","num_feature":"167","num_nodes":"15","size_leaf_vector":"0"}},{"base_weights":[1.0107094E0,1.5816461E0,7.15475E-2,1.6231762E0,-9.984135E-1,1.0950339E0,-7.8084856E-1,1.7863369E0,1.2309204E0,3.5263717E-4,-1.9971815E0,1.3209779E0,5.705215E-1,8.461126E-1,-1.1286411E0],"categories":[],"categories_nodes":[],"categories_segments":[],"categories_sizes":[],"default_left":[1,1,1,1,1,1,1,0,0,0,0,0,0,0,0],"id":3,"left_children":[1,3,5,7,9,11,13,-1,-1,-1,-1,-1,-1,-1,-1],"loss_changes":[2.176977E2,2.705542E1,1.3391573E2,1.5904114E1,3.9901388E0,8.26609E0,4.7389484E1,0E0,0E0,0E0,0E0,0E0,0E0,0E0,0E0],"parents":[2147483647,0,0,1,1,2,2,3,3,4,4,5,5,6,6],"right_children":[2,4,6,8,10,12,14,-1,-1,-1,-1,-1,-1,-1,-1],"split_conditions":[5E-1,5E-1,5E-1,5E-1,5E-1,5E-1,5E-1,9.4584026E-4,6.51755E-4,1.8671642E-7,-1.0574795E-3,6.994392E-4,3.020831E-4,4.4800472E-4,-5.975996E-4],"split_indices":[131,8,95,146,126,53,146,0,0,0,0,0,0,0,0],"split_type":[0,0,0,0,0,0,0,0,0,0,0,0,0,0,0],"sum_hessian":[4.0599945E2,2.5249957E2,1.5349988E2,2.4849957E2,3.9999955E0,6.974994E1,8.374994E1,1.7549965E2,7.299993E1,1.9999996E0,1.9999958E0,4.8749947E1,2.0999996E1,1.4749993E1,6.899994E1],"tree_param":{"num_deleted":"0","num_feature":"167","num_nodes":"15","size_leaf_vector":"0"}},{"base_weights":[1.0101753E0,1.5808108E0,7.150969E-2,1.622319E0,-9.9788576E-1,1.0944548E0,-7.8043544E-1,1.7853938E0,1.2302698E0,3.5233915E-4,-1.9961276E0,1.3202795E0,5.702195E-1,8.456649E-1,-1.1280441E0],"categories":[],"categories_nodes":[],"categories_segments":[],"categories_sizes":[],"default_left":[1,1,1,1,1,1,1,0,0,0,0,0,0,0,0],"id":4,"left_children":[1,3,5,7,9,11,13,-1,-1,-1,-1,-1,-1,-1,-1],"loss_changes":[2.1746759E2,2.7026794E1,1.33774E2,1.588739E1,3.9859242E0,8.257362E0,4.7339336E1,0E0,0E0,0E0,0E0,0E0,0E0,0E0,0E0],"parents":[2147483647,0,0,1,1,2,2,3,3,4,4,5,5,6,6],"right_children":[2,4,6,8,10,12,14,-1,-1,-1,-1,-1,-1,-1,-1],"split_conditions":[5E-1,5E-1,5E-1,5E-1,5E-1,5E-1,5E-1,9.453409E-4,6.5141055E-4,1.8655862E-7,-1.0569214E-3,6.990694E-4,3.0192322E-4,4.4776767E-4,-5.972835E-4],"split_indices":[131,8,95,146,126,53,146,0,0,0,0,0,0,0,0],"split_type":[0,0,0,0,0,0,0,0,0,0,0,0,0,0,0],"sum_hessian":[4.0599902E2,2.5249924E2,1.5349979E2,2.4849925E2,3.999992E0,6.974989E1,8.374989E1,1.7549937E2,7.299987E1,1.9999996E0,1.9999923E0,4.8749905E1,2.0999992E1,1.4749989E1,6.89999E1],"tree_param":{"num_deleted":"0","num_feature":"167","num_nodes":"15","size_leaf_vector":"0"}},{"base_weights":[1.0096419E0,1.5799764E0,7.1471825E-2,1.6214628E0,-9.9735856E-1,1.0938761E0,-7.8002286E-1,1.7844521E0,1.2296196E0,3.5224974E-4,-1.9950753E0,1.3195819E0,5.6991756E-1,8.452173E-1,-1.1274477E0],"categories":[],"categories_nodes":[],"categories_segments":[],"categories_sizes":[],"default_left":[1,1,1,1,1,1,1,0,0,0,0,0,0,0,0],"id":5,"left_children":[1,3,5,7,9,11,13,-1,-1,-1,-1,-1,-1,-1,-1],"loss_changes":[2.1723795E2,2.699823E1,1.3363249E2,1.58706665E1,3.9817193E0,8.24865E0,4.728925E1,0E0,0E0,0E0,0E0,0E0,0E0,0E0,0E0],"parents":[2147483647,0,0,1,1,2,2,3,3,4,4,5,5,6,6],"right_children":[2,4,6,8,10,12,14,-1,-1,-1,-1,-1,-1,-1,-1],"split_conditions":[5E-1,5E-1,5E-1,5E-1,5E-1,5E-1,5E-1,9.448423E-4,6.510663E-4,1.8651129E-7,-1.0563643E-3,6.987E-4,3.0176333E-4,4.4753065E-4,-5.969677E-4],"split_indices":[131,8,95,146,126,53,146,0,0,0,0,0,0,0,0],"split_type":[0,0,0,0,0,0,0,0,0,0,0,0,0,0,0],"sum_hessian":[4.0599847E2,2.5249881E2,1.5349966E2,2.4849883E2,3.9999874E0,6.974984E1,8.374983E1,1.7549902E2,7.29998E1,1.9999996E0,1.9999877E0,4.874985E1,2.0999987E1,1.4749982E1,6.899985E1],"tree_param":{"num_deleted":"0","num_feature":"167","num_nodes":"15","size_leaf_vector":"0"}},{"base_weights":[1.0091089E0,1.579143E0,7.143408E-2,1.6206075E0,-9.9683183E-1,1.0932981E0,-7.796105E-1,1.7835116E0,1.2289699E0,3.520411E-4,-1.9940246E0,1.3188848E0,5.6961614E-1,8.447705E-1,-1.1268519E0],"categories":[],"categories_nodes":[],"categories_segments":[],"categories_sizes":[],"default_left":[1,1,1,1,1,1,1,0,0,0,0,0,0,0,0],"id":6,"left_children":[1,3,5,7,9,11,13,-1,-1,-1,-1,-1,-1,-1,-1],"loss_changes":[2.1700854E2,2.6969666E1,1.3349113E2,1.5854004E1,3.9775207E0,8.239937E0,4.723924E1,0E0,0E0,0E0,0E0,0E0,0E0,0E0,0E0],"parents":[2147483647,0,0,1,1,2,2,3,3,4,4,5,5,6,6],"right_children":[2,4,6,8,10,12,14,-1,-1,-1,-1,-1,-1,-1,-1],"split_conditions":[5E-1,5E-1,5E-1,5E-1,5E-1,5E-1,5E-1,9.443443E-4,6.507223E-4,1.8640081E-7,-1.055808E-3,6.98331E-4,3.0160372E-4,4.472941E-4,-5.966522E-4],"split_indices":[131,8,95,146,126,53,146,0,0,0,0,0,0,0,0],"split_type":[0,0,0,0,0,0,0,0,0,0,0,0,0,0,0],"sum_hessian":[4.059978E2,2.5249829E2,1.5349951E2,2.484983E2,3.9999816E0,6.974977E1,8.374975E1,1.7549858E2,7.2999725E1,1.9999998E0,1.9999819E0,4.8749786E1,2.0999983E1,1.4749973E1,6.899978E1],"tree_param":{"num_deleted":"0","num_feature":"167","num_nodes":"15","size_leaf_vector":"0"}},{"base_weights":[1.0085765E0,1.5783107E0,7.139626E-2,1.6197534E0,-9.963059E-1,1.0927205E0,-7.791987E-1,1.7825725E0,1.2283207E0,3.517729E-4,-1.9929757E0,1.3181887E0,5.6931466E-1,8.443235E-1,-1.1262566E0],"categories":[],"categories_nodes":[],"categories_segments":[],"categories_sizes":[],"default_left":[1,1,1,1,1,1,1,0,0,0,0,0,0,0,0],"id":7,"left_children":[1,3,5,7,9,11,13,-1,-1,-1,-1,-1,-1,-1,-1],"loss_changes":[2.1677954E2,2.6941223E1,1.3334998E2,1.5837463E1,3.9733298E0,8.231255E0,4.718927E1,0E0,0E0,0E0,0E0,0E0,0E0,0E0,0E0],"parents":[2147483647,0,0,1,1,2,2,3,3,4,4,5,5,6,6],"right_children":[2,4,6,8,10,12,14,-1,-1,-1,-1,-1,-1,-1,-1],"split_conditions":[5E-1,5E-1,5E-1,5E-1,5E-1,5E-1,5E-1,9.4384706E-4,6.503785E-4,1.862588E-7,-1.0552526E-3,6.9796236E-4,3.014441E-4,4.4705742E-4,-5.96337E-4],"split_indices":[131,8,95,146,126,53,146,0,0,0,0,0,0,0,0],"split_type":[0,0,0,0,0,0,0,0,0,0,0,0,0,0,0],"sum_hessian":[4.05997E2,2.5249767E2,1.5349934E2,2.484977E2,3.9999747E0,6.974968E1,8.3749664E1,1.7549808E2,7.299962E1,1.9999996E0,1.9999751E0,4.8749706E1,2.0999977E1,1.4749964E1,6.89997E1],"tree_param":{"num_deleted":"0","num_feature":"167","num_nodes":"15","size_leaf_vector":"0"}},{"base_weights":[1.0080448E0,1.5774795E0,7.135868E-2,1.6189003E0,-9.957803E-1,1.0921434E0,-7.7878696E-1,1.7816344E0,1.2276722E0,3.516835E-4,-1.9919286E0,1.3174932E0,5.690135E-1,8.4387714E-1,-1.1256616E0],"categories":[],"categories_nodes":[],"categories_segments":[],"categories_sizes":[],"default_left":[1,1,1,1,1,1,1,0,0,0,0,0,0,0,0],"id":8,"left_children":[1,3,5,7,9,11,13,-1,-1,-1,-1,-1,-1,-1,-1],"loss_changes":[2.1655078E2,2.6912842E1,1.3320897E2,1.5820801E1,3.9691474E0,8.22258E0,4.7139366E1,0E0,0E0,0E0,0E0,0E0,0E0,0E0,0E0],"parents":[2147483647,0,0,1,1,2,2,3,3,4,4,5,5,6,6],"right_children":[2,4,6,8,10,12,14,-1,-1,-1,-1,-1,-1,-1,-1],"split_conditions":[5E-1,5E-1,5E-1,5E-1,5E-1,5E-1,5E-1,9.433504E-4,6.5003516E-4,1.8621147E-7,-1.0546981E-3,6.9759414E-4,3.0128463E-4,4.4682107E-4,-5.96022E-4],"split_indices":[131,8,95,146,126,53,146,0,0,0,0,0,0,0,0],"split_type":[0,0,0,0,0,0,0,0,0,0,0,0,0,0,0],"sum_hessian":[4.059961E2,2.5249696E2,1.5349915E2,2.48497E2,3.9999666E0,6.974959E1,8.374956E1,1.7549748E2,7.2999504E1,1.9999996E0,1.9999669E0,4.874962E1,2.099997E1,1.4749952E1,6.89996E1],"tree_param":{"num_deleted":"0","num_feature":"167","num_nodes":"15","size_leaf_vector":"0"}},{"base_weights":[1.0075136E0,1.5766493E0,7.1320996E-2,1.6180484E0,-9.952553E-1,1.0915669E0,-7.783756E-1,1.7806981E0,1.2270246E0,3.5138548E-4,-1.9908829E0,1.3167983E0,5.6871235E-1,8.4343106E-1,-1.1250672E0],"categories":[],"categories_nodes":[],"categories_segments":[],"categories_sizes":[],"default_left":[1,1,1,1,1,1,1,0,0,0,0,0,0,0,0],"id":9,"left_children":[1,3,5,7,9,11,13,-1,-1,-1,-1,-1,-1,-1,-1],"loss_changes":[2.1632257E2,2.68844E1,1.3306813E2,1.5804321E1,3.9649718E0,8.213936E0,4.708953E1,0E0,0E0,0E0,0E0,0E0,0E0,0E0,0E0],"parents":[2147483647,0,0,1,1,2,2,3,3,4,4,5,5,6,6],"right_children":[2,4,6,8,10,12,14,-1,-1,-1,-1,-1,-1,-1,-1],"split_conditions":[5E-1,5E-1,5E-1,5E-1,5E-1,5E-1,5E-1,9.4285456E-4,6.4969226E-4,1.8605367E-7,-1.0541445E-3,6.972262E-4,3.011252E-4,4.465849E-4,-5.957073E-4],"split_indices":[131,8,95,146,126,53,146,0,0,0,0,0,0,0,0],"split_type":[0,0,0,0,0,0,0,0,0,0,0,0,0,0,0],"sum_hessian":[4.059951E2,2.5249615E2,1.5349892E2,2.484962E2,3.9999576E0,6.974948E1,8.374944E1,1.7549683E2,7.2999374E1,1.9999996E0,1.9999578E0,4.874952E1,2.0999962E1,1.474994E1,6.8999504E1],"tree_param":{"num_deleted":"0","num_feature":"167","num_nodes":"15","size_leaf_vector":"0"}},{"base_weights":[1.006983E0,1.5758201E0,7.1283326E-2,1.6171974E0,-9.947308E-1,1.0909909E0,-7.7796483E-1,1.7797626E0,1.2263774E0,3.5129607E-4,-1.9898387E0,1.3161043E0,5.6841147E-1,8.429853E-1,-1.1244737E0],"categories":[],"categories_nodes":[],"categories_segments":[],"categories_sizes":[],"default_left":[1,1,1,1,1,1,1,0,0,0,0,0,0,0,0],"id":10,"left_children":[1,3,5,7,9,11,13,-1,-1,-1,-1,-1,-1,-1,-1],"loss_changes":[2.160946E2,2.6856018E1,1.329275E2,1.5787842E1,3.9608047E0,8.205292E0,4.703976E1,0E0,0E0,0E0,0E0,0E0,0E0,0E0,0E0],"parents":[2147483647,0,0,1,1,2,2,3,3,4,4,5,5,6,6],"right_children":[2,4,6,8,10,12,14,-1,-1,-1,-1,-1,-1,-1,-1],"split_conditions":[5E-1,5E-1,5E-1,5E-1,5E-1,5E-1,5E-1,9.423593E-4,6.493496E-4,1.8600633E-7,-1.0535916E-3,6.968587E-4,3.0096588E-4,4.4634883E-4,-5.95393E-4],"split_indices":[131,8,95,146,126,53,146,0,0,0,0,0,0,0,0],"split_type":[0,0,0,0,0,0,0,0,0,0,0,0,0,0,0],"sum_hessian":[4.0599393E2,2.5249525E2,1.5349867E2,2.484953E2,3.9999475E0,6.974936E1,8.3749306E1,1.7549608E2,7.299922E1,1.9999996E0,1.9999478E0,4.8749405E1,2.0999952E1,1.4749927E1,6.899938E1],"tree_param":{"num_deleted":"0","num_feature":"167","num_nodes":"15","size_leaf_vector":"0"}},{"base_weights":[1.006453E0,1.574992E0,7.124569E-2,1.6163476E0,-9.9420696E-1,1.0904152E0,-7.775542E-1,1.7788286E0,1.2257308E0,3.5108742E-4,-1.9887965E0,1.3154107E0,5.6811064E-1,8.425399E-1,-1.1238804E0],"categories":[],"categories_nodes":[],"categories_segments":[],"categories_sizes":[],"default_left":[1,1,1,1,1,1,1,0,0,0,0,0,0,0,0],"id":11,"left_children":[1,3,5,7,9,11,13,-1,-1,-1,-1,-1,-1,-1,-1],"loss_changes":[2.1586707E2,2.6827698E1,1.3278702E2,1.5771423E1,3.9566453E0,8.196663E0,4.699005E1,0E0,0E0,0E0,0E0,0E0,0E0,0E0,0E0],"parents":[2147483647,0,0,1,1,2,2,3,3,4,4,5,5,6,6],"right_children":[2,4,6,8,10,12,14,-1,-1,-1,-1,-1,-1,-1,-1],"split_conditions":[5E-1,5E-1,5E-1,5E-1,5E-1,5E-1,5E-1,9.4186474E-4,6.490072E-4,1.8589586E-7,-1.0530398E-3,6.9649145E-4,3.008066E-4,4.4611303E-4,-5.9507886E-4],"split_indices":[131,8,95,146,126,53,146,0,0,0,0,0,0,0,0],"split_type":[0,0,0,0,0,0,0,0,0,0,0,0,0,0,0],"sum_hessian":[4.0599265E2,2.5249426E2,1.5349838E2,2.4849432E2,3.9999363E0,6.974922E1,8.374916E1,1.7549525E2,7.299906E1,1.9999998E0,1.9999365E0,4.874928E1,2.0999943E1,1.474991E1,6.899925E1],"tree_param":{"num_deleted":"0","num_feature":"167","num_nodes":"15","size_leaf_vector":"0"}},{"base_weights":[1.0059235E0,1.5741647E0,7.120812E-2,1.6154987E0,-9.9368376E-1,1.0898403E0,-7.77144E-1,1.7778958E0,1.2250848E0,3.5081923E-4,-1.9877559E0,1.314718E0,5.678103E-1,8.420947E-1,-1.1232876E0],"categories":[],"categories_nodes":[],"categories_segments":[],"categories_sizes":[],"default_left":[1,1,1,1,1,1,1,0,0,0,0,0,0,0,0],"id":12,"left_children":[1,3,5,7,9,11,13,-1,-1,-1,-1,-1,-1,-1,-1],"loss_changes":[2.1563977E2,2.6799377E1,1.3264671E2,1.5755005E1,3.9524932E0,8.188042E0,4.6940403E1,0E0,0E0,0E0,0E0,0E0,0E0,0E0,0E0],"parents":[2147483647,0,0,1,1,2,2,3,3,4,4,5,5,6,6],"right_children":[2,4,6,8,10,12,14,-1,-1,-1,-1,-1,-1,-1,-1],"split_conditions":[5E-1,5E-1,5E-1,5E-1,5E-1,5E-1,5E-1,9.413708E-4,6.486651E-4,1.8575385E-7,-1.0524888E-3,6.961247E-4,3.0064757E-4,4.4587732E-4,-5.9476495E-4],"split_indices":[131,8,95,146,126,53,146,0,0,0,0,0,0,0,0],"split_type":[0,0,0,0,0,0,0,0,0,0,0,0,0,0,0],"sum_hessian":[4.0599124E2,2.5249316E2,1.5349808E2,2.4849324E2,3.9999235E0,6.974908E1,8.374901E1,1.7549435E2,7.2998886E1,1.9999996E0,1.999924E0,4.874914E1,2.0999931E1,1.4749893E1,6.8999115E1],"tree_param":{"num_deleted":"0","num_feature":"167","num_nodes":"15","size_leaf_vector":"0"}},{"base_weights":[1.0053947E0,1.5733386E0,7.117066E-2,1.6146508E0,-9.931607E-1,1.0892657E0,-7.767339E-1,1.7769643E0,1.2244393E0,3.5081923E-4,-1.9867165E0,1.3140258E0,5.6750995E-1,8.4164995E-1,-1.122695E0],"categories":[],"categories_nodes":[],"categories_segments":[],"categories_sizes":[],"default_left":[1,1,1,1,1,1,1,0,0,0,0,0,0,0,0],"id":13,"left_children":[1,3,5,7,9,11,13,-1,-1,-1,-1,-1,-1,-1,-1],"loss_changes":[2.1541284E2,2.677118E1,1.3250653E2,1.5738647E1,3.9483485E0,8.179443E0,4.6890797E1,0E0,0E0,0E0,0E0,0E0,0E0,0E0,0E0],"parents":[2147483647,0,0,1,1,2,2,3,3,4,4,5,5,6,6],"right_children":[2,4,6,8,10,12,14,-1,-1,-1,-1,-1,-1,-1,-1],"split_conditions":[5E-1,5E-1,5E-1,5E-1,5E-1,5E-1,5E-1,9.408776E-4,6.483234E-4,1.8575385E-7,-1.0519384E-3,6.9575815E-4,3.0048852E-4,4.456418E-4,-5.944512E-4],"split_indices":[131,8,95,146,126,53,146,0,0,0,0,0,0,0,0],"split_type":[0,0,0,0,0,0,0,0,0,0,0,0,0,0,0],"sum_hessian":[4.0598975E2,2.5249199E2,1.5349776E2,2.4849208E2,3.9999104E0,6.974892E1,8.374884E1,1.754934E2,7.2998695E1,1.9999996E0,1.9999106E0,4.8748993E1,2.099992E1,1.4749875E1,6.899897E1],"tree_param":{"num_deleted":"0","num_feature":"167","num_nodes":"15","size_leaf_vector":"0"}},{"base_weights":[1.0048664E0,1.5725136E0,7.113307E-2,1.6138042E0,-9.9263847E-1,1.0886917E0,-7.763245E-1,1.7760341E0,1.2237945E0,3.506106E-4,-1.9856791E0,1.3133343E0,5.672099E-1,8.412055E-1,-1.1221035E0],"categories":[],"categories_nodes":[],"categories_segments":[],"categories_sizes":[],"default_left":[1,1,1,1,1,1,1,0,0,0,0,0,0,0,0],"id":14,"left_children":[1,3,5,7,9,11,13,-1,-1,-1,-1,-1,-1,-1,-1],"loss_changes":[2.1518631E2,2.6742981E1,1.323666E2,1.5722351E1,3.9442112E0,8.170868E0,4.6841278E1,0E0,0E0,0E0,0E0,0E0,0E0,0E0,0E0],"parents":[2147483647,0,0,1,1,2,2,3,3,4,4,5,5,6,6],"right_children":[2,4,6,8,10,12,14,-1,-1,-1,-1,-1,-1,-1,-1],"split_conditions":[5E-1,5E-1,5E-1,5E-1,5E-1,5E-1,5E-1,9.403851E-4,6.4798194E-4,1.8564337E-7,-1.0513891E-3,6.953921E-4,3.0032967E-4,4.4540648E-4,-5.94138E-4],"split_indices":[131,8,95,146,126,53,146,0,0,0,0,0,0,0,0],"split_type":[0,0,0,0,0,0,0,0,0,0,0,0,0,0,0],"sum_hessian":[4.059881E2,2.524907E2,1.5349739E2,2.4849081E2,3.9998958E0,6.974874E1,8.374866E1,1.7549232E2,7.299849E1,1.9999998E0,1.9998959E0,4.8748837E1,2.0999907E1,1.4749856E1,6.89988E1],"tree_param":{"num_deleted":"0","num_feature":"167","num_nodes":"15","size_leaf_vector":"0"}},{"base_weights":[1.0043386E0,1.5716895E0,7.109551E-2,1.6129584E0,-9.92117E-1,1.0881181E0,-7.759153E-1,1.7751052E0,1.2231501E0,3.503424E-4,-1.9846437E0,1.3126435E0,5.6690985E-1,8.407613E-1,-1.1215123E0],"categories":[],"categories_nodes":[],"categories_segments":[],"categories_sizes":[],"default_left":[1,1,1,1,1,1,1,0,0,0,0,0,0,0,0],"id":15,"left_children":[1,3,5,7,9,11,13,-1,-1,-1,-1,-1,-1,-1,-1],"loss_changes":[2.1496017E2,2.6714783E1,1.3222679E2,1.5706116E1,3.9400828E0,8.1622925E0,4.679182E1,0E0,0E0,0E0,0E0,0E0,0E0,0E0,0E0],"parents":[2147483647,0,0,1,1,2,2,3,3,4,4,5,5,6,6],"right_children":[2,4,6,8,10,12,14,-1,-1,-1,-1,-1,-1,-1,-1],"split_conditions":[5E-1,5E-1,5E-1,5E-1,5E-1,5E-1,5E-1,9.3989325E-4,6.476408E-4,1.8550136E-7,-1.050841E-3,6.950263E-4,3.001708E-4,4.451713E-4,-5.9382495E-4],"split_indices":[131,8,95,146,126,53,146,0,0,0,0,0,0,0,0],"split_type":[0,0,0,0,0,0,0,0,0,0,0,0,0,0,0],"sum_hessian":[4.0598636E2,2.5248935E2,1.5349701E2,2.4848947E2,3.9998798E0,6.974856E1,8.374846E1,1.754912E2,7.299826E1,1.9999996E0,1.9998801E0,4.8748665E1,2.0999893E1,1.4749834E1,6.899862E1],"tree_param":{"num_deleted":"0","num_feature":"167","num_nodes":"15","size_leaf_vector":"0"}},{"base_weights":[1.0038115E0,1.5708663E0,7.1058065E-2,1.6121137E0,-9.9159575E-1,1.087545E0,-7.7550656E-1,1.7741776E0,1.2225064E0,3.50253E-4,-1.9836093E0,1.3119534E0,5.666101E-1,8.403172E-1,-1.1209216E0],"categories":[],"categories_nodes":[],"categories_segments":[],"categories_sizes":[],"default_left":[1,1,1,1,1,1,1,0,0,0,0,0,0,0,0],"id":16,"left_children":[1,3,5,7,9,11,13,-1,-1,-1,-1,-1,-1,-1,-1],"loss_changes":[2.1473422E2,2.6686768E1,1.3208717E2,1.5689819E1,3.9359612E0,8.15374E0,4.6742397E1,0E0,0E0,0E0,0E0,0E0,0E0,0E0,0E0],"parents":[2147483647,0,0,1,1,2,2,3,3,4,4,5,5,6,6],"right_children":[2,4,6,8,10,12,14,-1,-1,-1,-1,-1,-1,-1,-1],"split_conditions":[5E-1,5E-1,5E-1,5E-1,5E-1,5E-1,5E-1,9.3940203E-4,6.472999E-4,1.8545403E-7,-1.0502932E-3,6.946609E-4,3.0001206E-4,4.4493613E-4,-5.935122E-4],"split_indices":[131,8,95,146,126,53,146,0,0,0,0,0,0,0,0],"split_type":[0,0,0,0,0,0,0,0,0,0,0,0,0,0,0],"sum_hessian":[4.0598447E2,2.5248788E2,1.534966E2,2.4848802E2,3.999863E0,6.974836E1,8.374824E1,1.7549E2,7.2998024E1,1.9999996E0,1.9998634E0,4.874848E1,2.0999878E1,1.4749812E1,6.899843E1],"tree_param":{"num_deleted":"0","num_feature":"167","num_nodes":"15","size_leaf_vector":"0"}},{"base_weights":[1.0032849E0,1.5700442E0,7.102065E-2,1.6112701E0,-9.910752E-1,1.0869725E0,-7.7509797E-1,1.773251E0,1.2218633E0,3.4986556E-4,-1.9825767E0,1.311264E0,5.6631035E-1,8.3987373E-1,-1.1203313E0],"categories":[],"categories_nodes":[],"categories_segments":[],"categories_sizes":[],"default_left":[1,1,1,1,1,1,1,0,0,0,0,0,0,0,0],"id":17,"left_children":[1,3,5,7,9,11,13,-1,-1,-1,-1,-1,-1,-1,-1],"loss_changes":[2.1450876E2,2.665863E1,1.3194771E2,1.5673645E1,3.9318461E0,8.145195E0,4.6693043E1,0E0,0E0,0E0,0E0,0E0,0E0,0E0,0E0],"parents":[2147483647,0,0,1,1,2,2,3,3,4,4,5,5,6,6],"right_children":[2,4,6,8,10,12,14,-1,-1,-1,-1,-1,-1,-1,-1],"split_conditions":[5E-1,5E-1,5E-1,5E-1,5E-1,5E-1,5E-1,9.3891146E-4,6.469594E-4,1.852489E-7,-1.0497465E-3,6.9429586E-4,2.9985336E-4,4.4470132E-4,-5.931996E-4],"split_indices":[131,8,95,146,126,53,146,0,0,0,0,0,0,0,0],"split_type":[0,0,0,0,0,0,0,0,0,0,0,0,0,0,0],"sum_hessian":[4.0598248E2,2.5248633E2,1.5349617E2,2.4848648E2,3.999845E0,6.9748146E1,8.374802E1,1.7548871E2,7.299777E1,1.9999996E0,1.9998454E0,4.8748287E1,2.0999863E1,1.4749787E1,6.899823E1],"tree_param":{"num_deleted":"0","num_feature":"167","num_nodes":"15","size_leaf_vector":"0"}},{"base_weights":[1.0027589E0,1.5692232E0,7.098328E-2,1.6104275E0,-9.9055505E-1,1.0864004E0,-7.7468973E-1,1.7723259E0,1.221221E0,3.4986556E-4,-1.9815458E0,1.3105754E0,5.660111E-1,8.394305E-1,-1.1197414E0],"categories":[],"categories_nodes":[],"categories_segments":[],"categories_sizes":[],"default_left":[1,1,1,1,1,1,1,0,0,0,0,0,0,0,0],"id":18,"left_children":[1,3,5,7,9,11,13,-1,-1,-1,-1,-1,-1,-1,-1],"loss_changes":[2.1428363E2,2.6630554E1,1.3180844E2,1.5657532E1,3.92774E0,8.136673E0,4.6643753E1,0E0,0E0,0E0,0E0,0E0,0E0,0E0,0E0],"parents":[2147483647,0,0,1,1,2,2,3,3,4,4,5,5,6,6],"right_children":[2,4,6,8,10,12,14,-1,-1,-1,-1,-1,-1,-1,-1],"split_conditions":[5E-1,5E-1,5E-1,5E-1,5E-1,5E-1,5E-1,9.3842164E-4,6.466193E-4,1.852489E-7,-1.0492007E-3,6.9393124E-4,2.996949E-4,4.4446666E-4,-5.9288734E-4],"split_indices":[131,8,95,146,126,53,146,0,0,0,0,0,0,0,0],"split_type":[0,0,0,0,0,0,0,0,0,0,0,0,0,0,0],"sum_hessian":[4.0598038E2,2.5248468E2,1.5349571E2,2.4848485E2,3.9998262E0,6.9747925E1,8.374778E1,1.7548735E2,7.2997505E1,1.9999996E0,1.9998266E0,4.874808E1,2.0999846E1,1.4749762E1,6.8998024E1],"tree_param":{"num_deleted":"0","num_feature":"167","num_nodes":"15","size_leaf_vector":"0"}},{"base_weights":[1.0022334E0,1.568403E0,7.094596E-2,1.6095859E0,-9.9003553E-1,1.0858288E0,-7.7428174E-1,1.7714019E0,1.220579E0,3.496569E-4,-1.9805166E0,1.3098872E0,5.6571186E-1,8.3898765E-1,-1.1191522E0],"categories":[],"categories_nodes":[],"categories_segments":[],"categories_sizes":[],"default_left":[1,1,1,1,1,1,1,0,0,0,0,0,0,0,0],"id":19,"left_children":[1,3,5,7,9,11,13,-1,-1,-1,-1,-1,-1,-1,-1],"loss_changes":[2.1405875E2,2.66026E1,1.3166928E2,1.5641418E1,3.9236412E0,8.128159E0,4.659451E1,0E0,0E0,0E0,0E0,0E0,0E0,0E0,0E0],"parents":[2147483647,0,0,1,1,2,2,3,3,4,4,5,5,6,6],"right_children":[2,4,6,8,10,12,14,-1,-1,-1,-1,-1,-1,-1,-1],"split_conditions":[5E-1,5E-1,5E-1,5E-1,5E-1,5E-1,5E-1,9.3793235E-4,6.462794E-4,1.8513842E-7,-1.0486556E-3,6.935668E-4,2.9953648E-4,4.4423217E-4,-5.9257535E-4],"split_indices":[131,8,95,146,126,53,146,0,0,0,0,0,0,0,0],"split_type":[0,0,0,0,0,0,0,0,0,0,0,0,0,0,0],"sum_hessian":[4.0597815E2,2.5248294E2,1.5349521E2,2.4848314E2,3.9998062E0,6.974769E1,8.374753E1,1.7548592E2,7.299722E1,1.9999998E0,1.9998064E0,4.874786E1,2.0999828E1,1.4749735E1,6.8997795E1],"tree_param":{"num_deleted":"0","num_feature":"167","num_nodes":"15","size_leaf_vector":"0"}},{"base_weights":[1.0017086E0,1.567584E0,7.090862E-2,1.6087455E0,-9.895166E-1,1.0852576E0,-7.738743E-1,1.7704793E0,1.2199377E0,3.4938872E-4,-1.9794888E0,1.3091997E0,5.6541264E-1,8.385451E-1,-1.1185635E0],"categories":[],"categories_nodes":[],"categories_segments":[],"categories_sizes":[],"default_left":[1,1,1,1,1,1,1,0,0,0,0,0,0,0,0],"id":20,"left_children":[1,3,5,7,9,11,13,-1,-1,-1,-1,-1,-1,-1,-1],"loss_changes":[2.1383432E2,2.6574646E1,1.3153033E2,1.5625366E1,3.9195487E0,8.119659E0,4.6545345E1,0E0,0E0,0E0,0E0,0E0,0E0,0E0,0E0],"parents":[2147483647,0,0,1,1,2,2,3,3,4,4,5,5,6,6],"right_children":[2,4,6,8,10,12,14,-1,-1,-1,-1,-1,-1,-1,-1],"split_conditions":[5E-1,5E-1,5E-1,5E-1,5E-1,5E-1,5E-1,9.3744387E-4,6.4593984E-4,1.8499641E-7,-1.0481115E-3,6.9320283E-4,2.9937804E-4,4.4399782E-4,-5.9226365E-4],"split_indices":[131,8,95,146,126,53,146,0,0,0,0,0,0,0,0],"split_type":[0,0,0,0,0,0,0,0,0,0,0,0,0,0,0],"sum_hessian":[4.059758E2,2.5248111E2,1.5349469E2,2.4848132E2,3.999785E0,6.9747444E1,8.374725E1,1.754844E2,7.299692E1,1.9999996E0,1.9997852E0,4.874763E1,2.099981E1,1.4749706E1,6.899755E1],"tree_param":{"num_deleted":"0","num_feature":"167","num_nodes":"15","size_leaf_vector":"0"}},{"base_weights":[1.0011842E0,1.566766E0,7.08713E-2,1.607906E0,-9.889982E-1,1.0846871E0,-7.734672E-1,1.7695578E0,1.2192973E0,3.492993E-4,-1.9784627E0,1.308513E0,5.651137E-1,8.381028E-1,-1.1179754E0],"categories":[],"categories_nodes":[],"categories_segments":[],"categories_sizes":[],"default_left":[1,1,1,1,1,1,1,0,0,0,0,0,0,0,0],"id":21,"left_children":[1,3,5,7,9,11,13,-1,-1,-1,-1,-1,-1,-1,-1],"loss_changes":[2.1361017E2,2.6546692E1,1.3139156E2,1.5609314E1,3.9154649E0,8.111183E0,4.6496243E1,0E0,0E0,0E0,0E0,0E0,0E0,0E0,0E0],"parents":[2147483647,0,0,1,1,2,2,3,3,4,4,5,5,6,6],"right_children":[2,4,6,8,10,12,14,-1,-1,-1,-1,-1,-1,-1,-1],"split_conditions":[5E-1,5E-1,5E-1,5E-1,5E-1,5E-1,5E-1,9.3695597E-4,6.456008E-4,1.8494907E-7,-1.0475682E-3,6.9283927E-4,2.9921977E-4,4.4376365E-4,-5.9195224E-4],"split_indices":[131,8,95,146,126,53,146,0,0,0,0,0,0,0,0],"split_type":[0,0,0,0,0,0,0,0,0,0,0,0,0,0,0],"sum_hessian":[4.0597333E2,2.5247919E2,1.5349416E2,2.4847942E2,3.9997625E0,6.974718E1,8.374698E1,1.7548282E2,7.2996605E1,1.9999996E0,1.9997629E0,4.874739E1,2.099979E1,1.4749677E1,6.89973E1],"tree_param":{"num_deleted":"0","num_feature":"167","num_nodes":"15","size_leaf_vector":"0"}},{"base_weights":[1.0006605E0,1.565949E0,7.083403E-2,1.6070676E0,-9.884804E-1,1.084117E0,-7.7306026E-1,1.7686378E0,1.2186571E0,3.490013E-4,-1.9774384E0,1.307827E0,5.6481504E-1,8.376607E-1,-1.1173875E0],"categories":[],"categories_nodes":[],"categories_segments":[],"categories_sizes":[],"default_left":[1,1,1,1,1,1,1,0,0,0,0,0,0,0,0],"id":22,"left_children":[1,3,5,7,9,11,13,-1,-1,-1,-1,-1,-1,-1,-1],"loss_changes":[2.1338638E2,2.651892E1,1.3125294E2,1.5593323E1,3.9113884E0,8.102715E0,4.6447186E1,0E0,0E0,0E0,0E0,0E0,0E0,0E0,0E0],"parents":[2147483647,0,0,1,1,2,2,3,3,4,4,5,5,6,6],"right_children":[2,4,6,8,10,12,14,-1,-1,-1,-1,-1,-1,-1,-1],"split_conditions":[5E-1,5E-1,5E-1,5E-1,5E-1,5E-1,5E-1,9.3646883E-4,6.452618E-4,1.8479128E-7,-1.0470258E-3,6.92476E-4,2.9906162E-4,4.4352954E-4,-5.91641E-4],"split_indices":[131,8,95,146,126,53,146,0,0,0,0,0,0,0,0],"split_type":[0,0,0,0,0,0,0,0,0,0,0,0,0,0,0],"sum_hessian":[4.0597076E2,2.5247716E2,1.5349359E2,2.4847743E2,3.9997392E0,6.974691E1,8.374669E1,1.7548116E2,7.299628E1,1.9999996E0,1.9997395E0,4.874714E1,2.099977E1,1.4749645E1,6.899704E1],"tree_param":{"num_deleted":"0","num_feature":"167","num_nodes":"15","size_leaf_vector":"0"}},{"base_weights":[1.0001373E0,1.5651327E0,7.079684E-2,1.60623E0,-9.87963E-1,1.0835475E0,-7.726538E-1,1.7677187E0,1.2180175E0,3.4891188E-4,-1.9764155E0,1.3071417E0,5.6451666E-1,8.372191E-1,-1.1168004E0],"categories":[],"categories_nodes":[],"categories_segments":[],"categories_sizes":[],"default_left":[1,1,1,1,1,1,1,0,0,0,0,0,0,0,0],"id":23,"left_children":[1,3,5,7,9,11,13,-1,-1,-1,-1,-1,-1,-1,-1],"loss_changes":[2.1316293E2,2.6490967E1,1.3111452E2,1.5577393E1,3.9073193E0,8.094254E0,4.6398193E1,0E0,0E0,0E0,0E0,0E0,0E0,0E0,0E0],"parents":[2147483647,0,0,1,1,2,2,3,3,4,4,5,5,6,6],"right_children":[2,4,6,8,10,12,14,-1,-1,-1,-1,-1,-1,-1,-1],"split_conditions":[5E-1,5E-1,5E-1,5E-1,5E-1,5E-1,5E-1,9.3598216E-4,6.4492313E-4,1.8474394E-7,-1.0464842E-3,6.921131E-4,2.9890364E-4,4.4329575E-4,-5.913301E-4],"split_indices":[131,8,95,146,126,53,146,0,0,0,0,0,0,0,0],"split_type":[0,0,0,0,0,0,0,0,0,0,0,0,0,0,0],"sum_hessian":[4.0596805E2,2.5247507E2,1.53493E2,2.4847534E2,3.9997149E0,6.974662E1,8.3746376E1,1.7547942E2,7.299593E1,1.9999996E0,1.9997152E0,4.8746872E1,2.0999748E1,1.4749612E1,6.8996765E1],"tree_param":{"num_deleted":"0","num_feature":"167","num_nodes":"15","size_leaf_vector":"0"}},{"base_weights":[9.996147E-1,1.5643177E0,7.075963E-2,1.6053936E0,-9.874461E-1,1.0829784E0,-7.722477E-1,1.7668011E0,1.2173784E0,3.4870324E-4,-1.9753942E0,1.3064569E0,5.642185E-1,8.367778E-1,-1.1162137E0],"categories":[],"categories_nodes":[],"categories_segments":[],"categories_sizes":[],"default_left":[1,1,1,1,1,1,1,0,0,0,0,0,0,0,0],"id":24,"left_children":[1,3,5,7,9,11,13,-1,-1,-1,-1,-1,-1,-1,-1],"loss_changes":[2.1293988E2,2.6463196E1,1.3097624E2,1.5561523E1,3.9032571E0,8.085808E0,4.634927E1,0E0,0E0,0E0,0E0,0E0,0E0,0E0,0E0],"parents":[2147483647,0,0,1,1,2,2,3,3,4,4,5,5,6,6],"right_children":[2,4,6,8,10,12,14,-1,-1,-1,-1,-1,-1,-1,-1],"split_conditions":[5E-1,5E-1,5E-1,5E-1,5E-1,5E-1,5E-1,9.3549635E-4,6.445847E-4,1.8463346E-7,-1.0459435E-3,6.9175055E-4,2.9874576E-4,4.4306208E-4,-5.9101946E-4],"split_indices":[131,8,95,146,126,53,146,0,0,0,0,0,0,0,0],"split_type":[0,0,0,0,0,0,0,0,0,0,0,0,0,0,0],"sum_hessian":[4.0596524E2,2.5247285E2,1.5349239E2,2.4847318E2,3.9996893E0,6.974632E1,8.3746056E1,1.754776E2,7.2995575E1,1.9999998E0,1.9996896E0,4.8746597E1,2.0999727E1,1.47495775E1,6.899648E1],"tree_param":{"num_deleted":"0","num_feature":"167","num_nodes":"15","size_leaf_vector":"0"}},{"base_weights":[9.990927E-1,1.5635037E0,7.072244E-2,1.6045583E0,-9.8692995E-1,1.0824099E0,-7.718419E-1,1.7658848E0,1.2167401E0,3.4843505E-4,-1.9743747E0,1.3057729E0,5.639204E-1,8.3633655E-1,-1.1156274E0],"categories":[],"categories_nodes":[],"categories_segments":[],"categories_sizes":[],"default_left":[1,1,1,1,1,1,1,0,0,0,0,0,0,0,0],"id":25,"left_children":[1,3,5,7,9,11,13,-1,-1,-1,-1,-1,-1,-1,-1],"loss_changes":[2.1271707E2,2.6435486E1,1.3083815E2,1.5545654E1,3.8992023E0,8.077385E0,4.630038E1,0E0,0E0,0E0,0E0,0E0,0E0,0E0,0E0],"parents":[2147483647,0,0,1,1,2,2,3,3,4,4,5,5,6,6],"right_children":[2,4,6,8,10,12,14,-1,-1,-1,-1,-1,-1,-1,-1],"split_conditions":[5E-1,5E-1,5E-1,5E-1,5E-1,5E-1,5E-1,9.3501114E-4,6.4424676E-4,1.8449146E-7,-1.0454037E-3,6.913884E-4,2.985879E-4,4.4282843E-4,-5.9070904E-4],"split_indices":[131,8,95,146,126,53,146,0,0,0,0,0,0,0,0],"split_type":[0,0,0,0,0,0,0,0,0,0,0,0,0,0,0],"sum_hessian":[4.059623E2,2.5247057E2,1.5349174E2,2.484709E2,3.9996624E0,6.974601E1,8.374573E1,1.754757E2,7.29952E1,1.9999996E0,1.9996629E0,4.874631E1,2.0999702E1,1.4749542E1,6.8996185E1],"tree_param":{"num_deleted":"0","num_feature":"167","num_nodes":"15","size_leaf_vector":"0"}},{"base_weights":[9.985712E-1,1.5626906E0,7.0685394E-2,1.603724E0,-9.864142E-1,1.0818418E0,-7.714362E-1,1.7649695E0,1.2161024E0,3.4834564E-4,-1.9733566E0,1.3050897E0,5.636223E-1,8.358959E-1,-1.1150416E0],"categories":[],"categories_nodes":[],"categories_segments":[],"categories_sizes":[],"default_left":[1,1,1,1,1,1,1,0,0,0,0,0,0,0,0],"id":26,"left_children":[1,3,5,7,9,11,13,-1,-1,-1,-1,-1,-1,-1,-1],"loss_changes":[2.1249469E2,2.6407715E1,1.3070021E2,1.5529846E1,3.8951554E0,8.068977E0,4.6251568E1,0E0,0E0,0E0,0E0,0E0,0E0,0E0,0E0],"parents":[2147483647,0,0,1,1,2,2,3,3,4,4,5,5,6,6],"right_children":[2,4,6,8,10,12,14,-1,-1,-1,-1,-1,-1,-1,-1],"split_conditions":[5E-1,5E-1,5E-1,5E-1,5E-1,5E-1,5E-1,9.345265E-4,6.439091E-4,1.8444412E-7,-1.0448645E-3,6.910266E-4,2.9843007E-4,4.425951E-4,-5.9039885E-4],"split_indices":[131,8,95,146,126,53,146,0,0,0,0,0,0,0,0],"split_type":[0,0,0,0,0,0,0,0,0,0,0,0,0,0,0],"sum_hessian":[4.0595926E2,2.5246819E2,1.5349107E2,2.4846855E2,3.9996347E0,6.974569E1,8.3745384E1,1.7547374E2,7.299481E1,1.9999996E0,1.9996352E0,4.874601E1,2.099968E1,1.4749505E1,6.899588E1],"tree_param":{"num_deleted":"0","num_feature":"167","num_nodes":"15","size_leaf_vector":"0"}},{"base_weights":[9.980504E-1,1.5618787E0,7.06483E-2,1.6028907E0,-9.8589903E-1,1.081274E0,-7.7103096E-1,1.7640556E0,1.2154653E0,3.4804762E-4,-1.9723399E0,1.3044068E0,5.633247E-1,8.354556E-1,-1.1144563E0],"categories":[],"categories_nodes":[],"categories_segments":[],"categories_sizes":[],"default_left":[1,1,1,1,1,1,1,0,0,0,0,0,0,0,0],"id":27,"left_children":[1,3,5,7,9,11,13,-1,-1,-1,-1,-1,-1,-1,-1],"loss_changes":[2.1227264E2,2.6380066E1,1.3056242E2,1.5514038E1,3.891115E0,8.060562E0,4.6202812E1,0E0,0E0,0E0,0E0,0E0,0E0,0E0,0E0],"parents":[2147483647,0,0,1,1,2,2,3,3,4,4,5,5,6,6],"right_children":[2,4,6,8,10,12,14,-1,-1,-1,-1,-1,-1,-1,-1],"split_conditions":[5E-1,5E-1,5E-1,5E-1,5E-1,5E-1,5E-1,9.340426E-4,6.435718E-4,1.8428632E-7,-1.0443262E-3,6.9066504E-4,2.982725E-4,4.4236198E-4,-5.9008895E-4],"split_indices":[131,8,95,146,126,53,146,0,0,0,0,0,0,0,0],"split_type":[0,0,0,0,0,0,0,0,0,0,0,0,0,0,0],"sum_hessian":[4.059561E2,2.524657E2,1.5349037E2,2.484661E2,3.9996064E0,6.974535E1,8.3745026E1,1.7547168E2,7.299441E1,1.9999996E0,1.9996067E0,4.87457E1,2.0999655E1,1.4749466E1,6.899556E1],"tree_param":{"num_deleted":"0","num_feature":"167","num_nodes":"15","size_leaf_vector":"0"}},{"base_weights":[9.9752986E-1,1.5610673E0,7.06112E-2,1.6020582E0,-9.8538435E-1,1.080707E0,-7.706262E-1,1.7631426E0,1.2148287E0,3.479582E-4,-1.9713252E0,1.3037246E0,5.6302714E-1,8.350156E-1,-1.1138717E0],"categories":[],"categories_nodes":[],"categories_segments":[],"categories_sizes":[],"default_left":[1,1,1,1,1,1,1,0,0,0,0,0,0,0,0],"id":28,"left_children":[1,3,5,7,9,11,13,-1,-1,-1,-1,-1,-1,-1,-1],"loss_changes":[2.1205084E2,2.6352417E1,1.304248E2,1.5498291E1,3.8870835E0,8.052193E0,4.615412E1,0E0,0E0,0E0,0E0,0E0,0E0,0E0,0E0],"parents":[2147483647,0,0,1,1,2,2,3,3,4,4,5,5,6,6],"right_children":[2,4,6,8,10,12,14,-1,-1,-1,-1,-1,-1,-1,-1],"split_conditions":[5E-1,5E-1,5E-1,5E-1,5E-1,5E-1,5E-1,9.335592E-4,6.432347E-4,1.8423897E-7,-1.043789E-3,6.9030386E-4,2.9811496E-4,4.42129E-4,-5.897794E-4],"split_indices":[131,8,95,146,126,53,146,0,0,0,0,0,0,0,0],"split_type":[0,0,0,0,0,0,0,0,0,0,0,0,0,0,0],"sum_hessian":[4.059528E2,2.5246313E2,1.5348965E2,2.4846356E2,3.9995763E0,6.9745E1,8.3744644E1,1.7546957E2,7.299399E1,1.9999996E0,1.9995767E0,4.8745377E1,2.0999628E1,1.4749426E1,6.8995224E1],"tree_param":{"num_deleted":"0","num_feature":"167","num_nodes":"15","size_leaf_vector":"0"}},{"base_weights":[9.9701005E-1,1.5602572E0,7.057413E-2,1.6012268E0,-9.8487014E-1,1.0801405E0,-7.702219E-1,1.7622311E0,1.2141927E0,3.4774956E-4,-1.9703118E0,1.3030435E0,5.627298E-1,8.3457565E-1,-1.1132876E0],"categories":[],"categories_nodes":[],"categories_segments":[],"categories_sizes":[],"default_left":[1,1,1,1,1,1,1,0,0,0,0,0,0,0,0],"id":29,"left_children":[1,3,5,7,9,11,13,-1,-1,-1,-1,-1,-1,-1,-1],"loss_changes":[2.1182938E2,2.632483E1,1.3028743E2,1.5482605E1,3.883058E0,8.043816E0,4.610549E1,0E0,0E0,0E0,0E0,0E0,0E0,0E0,0E0],"parents":[2147483647,0,0,1,1,2,2,3,3,4,4,5,5,6,6],"right_children":[2,4,6,8,10,12,14,-1,-1,-1,-1,-1,-1,-1,-1],"split_conditions":[5E-1,5E-1,5E-1,5E-1,5E-1,5E-1,5E-1,9.330766E-4,6.4289797E-4,1.841285E-7,-1.0432523E-3,6.899432E-4,2.979575E-4,4.4189606E-4,-5.894701E-4],"split_indices":[131,8,95,146,126,53,146,0,0,0,0,0,0,0,0],"split_type":[0,0,0,0,0,0,0,0,0,0,0,0,0,0,0],"sum_hessian":[4.0594937E2,2.5246048E2,1.534889E2,2.4846092E2,3.9995456E0,6.9744644E1,8.374426E1,1.7546738E2,7.299355E1,1.9999998E0,1.9995457E0,4.8745045E1,2.0999601E1,1.4749385E1,6.899488E1],"tree_param":{"num_deleted":"0","num_feature":"167","num_nodes":"15","size_leaf_vector":"0"}},{"base_weights":[9.964909E-1,1.5594482E0,7.0537165E-2,1.6003966E0,-9.843565E-1,1.0795742E0,-7.698176E-1,1.761321E0,1.2135574E0,3.4748137E-4,-1.9692998E0,1.3023626E0,5.624325E-1,8.3413625E-1,-1.1127037E0],"categories":[],"categories_nodes":[],"categories_segments":[],"categories_sizes":[],"default_left":[1,1,1,1,1,1,1,0,0,0,0,0,0,0,0],"id":30,"left_children":[1,3,5,7,9,11,13,-1,-1,-1,-1,-1,-1,-1,-1],"loss_changes":[2.1160834E2,2.6297241E1,1.3015013E2,1.5467041E1,3.8790388E0,8.035461E0,4.6056904E1,0E0,0E0,0E0,0E0,0E0,0E0,0E0,0E0],"parents":[2147483647,0,0,1,1,2,2,3,3,4,4,5,5,6,6],"right_children":[2,4,6,8,10,12,14,-1,-1,-1,-1,-1,-1,-1,-1],"split_conditions":[5E-1,5E-1,5E-1,5E-1,5E-1,5E-1,5E-1,9.3259464E-4,6.425615E-4,1.839865E-7,-1.0427166E-3,6.8958267E-4,2.978001E-4,4.416634E-4,-5.8916095E-4],"split_indices":[131,8,95,146,126,53,146,0,0,0,0,0,0,0,0],"split_type":[0,0,0,0,0,0,0,0,0,0,0,0,0,0,0],"sum_hessian":[4.0594586E2,2.5245772E2,1.5348814E2,2.484582E2,3.9995136E0,6.974428E1,8.3743866E1,1.754651E2,7.299311E1,1.9999996E0,1.9995139E0,4.87447E1,2.0999575E1,1.4749342E1,6.899452E1],"tree_param":{"num_deleted":"0","num_feature":"167","num_nodes":"15","size_leaf_vector":"0"}},{"base_weights":[9.9597216E-1,1.55864E0,7.050008E-2,1.5995673E0,-9.838434E-1,1.0790085E0,-7.6941395E-1,1.7604119E0,1.2129225E0,3.4748137E-4,-1.9682896E0,1.3016826E0,5.621353E-1,8.3369696E-1,-1.1121206E0],"categories":[],"categories_nodes":[],"categories_segments":[],"categories_sizes":[],"default_left":[1,1,1,1,1,1,1,0,0,0,0,0,0,0,0],"id":31,"left_children":[1,3,5,7,9,11,13,-1,-1,-1,-1,-1,-1,-1,-1],"loss_changes":[2.113877E2,2.6269653E1,1.3001303E2,1.5451416E1,3.8750288E0,8.0271225E0,4.600839E1,0E0,0E0,0E0,0E0,0E0,0E0,0E0,0E0],"parents":[2147483647,0,0,1,1,2,2,3,3,4,4,5,5,6,6],"right_children":[2,4,6,8,10,12,14,-1,-1,-1,-1,-1,-1,-1,-1],"split_conditions":[5E-1,5E-1,5E-1,5E-1,5E-1,5E-1,5E-1,9.321133E-4,6.422254E-4,1.839865E-7,-1.0421816E-3,6.892226E-4,2.9764272E-4,4.414308E-4,-5.888522E-4],"split_indices":[131,8,95,146,126,53,146,0,0,0,0,0,0,0,0],"split_type":[0,0,0,0,0,0,0,0,0,0,0,0,0,0,0],"sum_hessian":[4.0594223E2,2.5245488E2,1.5348734E2,2.484554E2,3.9994805E0,6.974389E1,8.374345E1,1.7546275E2,7.2992645E1,1.9999996E0,1.999481E0,4.8744343E1,2.0999546E1,1.4749297E1,6.899415E1],"tree_param":{"num_deleted":"0","num_feature":"167","num_nodes":"15","size_leaf_vector":"0"}},{"base_weights":[9.95454E-1,1.5578327E0,7.046322E-2,1.5987389E0,-9.833309E-1,1.0784435E0,-7.690104E-1,1.7595041E0,1.212288E0,3.4727273E-4,-1.9672812E0,1.3010033E0,5.6183875E-1,8.332582E-1,-1.1115379E0],"categories":[],"categories_nodes":[],"categories_segments":[],"categories_sizes":[],"default_left":[1,1,1,1,1,1,1,0,0,0,0,0,0,0,0],"id":32,"left_children":[1,3,5,7,9,11,13,-1,-1,-1,-1,-1,-1,-1,-1],"loss_changes":[2.1116724E2,2.6242249E1,1.2987613E2,1.5435791E1,3.8710265E0,8.018791E0,4.5959934E1,0E0,0E0,0E0,0E0,0E0,0E0,0E0,0E0],"parents":[2147483647,0,0,1,1,2,2,3,3,4,4,5,5,6,6],"right_children":[2,4,6,8,10,12,14,-1,-1,-1,-1,-1,-1,-1,-1],"split_conditions":[5E-1,5E-1,5E-1,5E-1,5E-1,5E-1,5E-1,9.3163265E-4,6.4188946E-4,1.8387603E-7,-1.0416477E-3,6.88863E-4,2.974857E-4,4.411985E-4,-5.885437E-4],"split_indices":[131,8,95,146,126,53,146,0,0,0,0,0,0,0,0],"split_type":[0,0,0,0,0,0,0,0,0,0,0,0,0,0,0],"sum_hessian":[4.0593848E2,2.5245195E2,1.5348651E2,2.484525E2,3.9994464E0,6.974349E1,8.374303E1,1.7546033E2,7.2992165E1,1.9999998E0,1.9994466E0,4.8743973E1,2.0999516E1,1.4749251E1,6.8993774E1],"tree_param":{"num_deleted":"0","num_feature":"167","num_nodes":"15","size_leaf_vector":"0"}},{"base_weights":[9.9493635E-1,1.5570266E0,7.0426084E-2,1.5979117E0,-9.8281896E-1,1.0778785E0,-7.686074E-1,1.7585975E0,1.2116543E0,3.4700453E-4,-1.9662743E0,1.3003243E0,5.6154174E-1,8.3281946E-1,-1.1109557E0],"categories":[],"categories_nodes":[],"categories_segments":[],"categories_sizes":[],"default_left":[1,1,1,1,1,1,1,0,0,0,0,0,0,0,0],"id":33,"left_children":[1,3,5,7,9,11,13,-1,-1,-1,-1,-1,-1,-1,-1],"loss_changes":[2.109473E2,2.6214722E1,1.2973933E2,1.5420349E1,3.8670297E0,8.010475E0,4.5911526E1,0E0,0E0,0E0,0E0,0E0,0E0,0E0,0E0],"parents":[2147483647,0,0,1,1,2,2,3,3,4,4,5,5,6,6],"right_children":[2,4,6,8,10,12,14,-1,-1,-1,-1,-1,-1,-1,-1],"split_conditions":[5E-1,5E-1,5E-1,5E-1,5E-1,5E-1,5E-1,9.311526E-4,6.415539E-4,1.8373402E-7,-1.0411146E-3,6.8850344E-4,2.9732846E-4,4.409662E-4,-5.8823545E-4],"split_indices":[131,8,95,146,126,53,146,0,0,0,0,0,0,0,0],"split_type":[0,0,0,0,0,0,0,0,0,0,0,0,0,0,0],"sum_hessian":[4.059346E2,2.5244893E2,1.5348567E2,2.4844951E2,3.999411E0,6.974308E1,8.374259E1,1.7545784E2,7.299167E1,1.9999996E0,1.9994115E0,4.8743595E1,2.0999485E1,1.4749206E1,6.8993385E1],"tree_param":{"num_deleted":"0","num_feature":"167","num_nodes":"15","size_leaf_vector":"0"}},{"base_weights":[9.944194E-1,1.5562214E0,7.038942E-2,1.5970855E0,-9.823075E-1,1.0773144E0,-7.682043E-1,1.7576921E0,1.2110213E0,3.4691513E-4,-1.9652687E0,1.2996463E0,5.612455E-1,8.3238137E-1,-1.1103737E0],"categories":[],"categories_nodes":[],"categories_segments":[],"categories_sizes":[],"default_left":[1,1,1,1,1,1,1,0,0,0,0,0,0,0,0],"id":34,"left_children":[1,3,5,7,9,11,13,-1,-1,-1,-1,-1,-1,-1,-1],"loss_changes":[2.1072742E2,2.6187378E1,1.2960272E2,1.5404785E1,3.8630414E0,8.002167E0,4.5863174E1,0E0,0E0,0E0,0E0,0E0,0E0,0E0,0E0],"parents":[2147483647,0,0,1,1,2,2,3,3,4,4,5,5,6,6],"right_children":[2,4,6,8,10,12,14,-1,-1,-1,-1,-1,-1,-1,-1],"split_conditions":[5E-1,5E-1,5E-1,5E-1,5E-1,5E-1,5E-1,9.306732E-4,6.4121874E-4,1.8368668E-7,-1.0405822E-3,6.881444E-4,2.971716E-4,4.4073423E-4,-5.879273E-4],"split_indices":[131,8,95,146,126,53,146,0,0,0,0,0,0,0,0],"split_type":[0,0,0,0,0,0,0,0,0,0,0,0,0,0,0],"sum_hessian":[4.059306E2,2.5244582E2,1.534848E2,2.4844644E2,3.9993749E0,6.974266E1,8.3742134E1,1.7545528E2,7.2991165E1,1.9999996E0,1.9993753E0,4.8743206E1,2.0999454E1,1.4749157E1,6.899298E1],"tree_param":{"num_deleted":"0","num_feature":"167","num_nodes":"15","size_leaf_vector":"0"}},{"base_weights":[9.93903E-1,1.5554172E0,7.035249E-2,1.5962603E0,-9.817965E-1,1.0767509E0,-7.6780206E-1,1.756788E0,1.2103888E0,3.465277E-4,-1.9642646E0,1.298969E0,5.609491E-1,8.319436E-1,-1.1097928E0],"categories":[],"categories_nodes":[],"categories_segments":[],"categories_sizes":[],"default_left":[1,1,1,1,1,1,1,0,0,0,0,0,0,0,0],"id":35,"left_children":[1,3,5,7,9,11,13,-1,-1,-1,-1,-1,-1,-1,-1],"loss_changes":[2.1050812E2,2.6159973E1,1.2946634E2,1.5389282E1,3.8590581E0,7.993889E0,4.5814915E1,0E0,0E0,0E0,0E0,0E0,0E0,0E0,0E0],"parents":[2147483647,0,0,1,1,2,2,3,3,4,4,5,5,6,6],"right_children":[2,4,6,8,10,12,14,-1,-1,-1,-1,-1,-1,-1,-1],"split_conditions":[5E-1,5E-1,5E-1,5E-1,5E-1,5E-1,5E-1,9.301945E-4,6.408838E-4,1.8348155E-7,-1.0400505E-3,6.877858E-4,2.9701466E-4,4.4050242E-4,-5.8761967E-4],"split_indices":[131,8,95,146,126,53,146,0,0,0,0,0,0,0,0],"split_type":[0,0,0,0,0,0,0,0,0,0,0,0,0,0,0],"sum_hessian":[4.0592648E2,2.5244261E2,1.5348389E2,2.4844327E2,3.9993374E0,6.9742226E1,8.374167E1,1.7545262E2,7.299065E1,1.9999996E0,1.9993378E0,4.87428E1,2.0999422E1,1.4749106E1,6.899256E1],"tree_param":{"num_deleted":"0","num_feature":"167","num_nodes":"15","size_leaf_vector":"0"}},{"base_weights":[9.93387E-1,1.5546138E0,7.031572E-2,1.5954359E0,-9.812861E-1,1.0761875E0,-7.6739967E-1,1.7558849E0,1.2097567E0,3.465277E-4,-1.9632624E0,1.2982922E0,5.606529E-1,8.3150584E-1,-1.1092118E0],"categories":[],"categories_nodes":[],"categories_segments":[],"categories_sizes":[],"default_left":[1,1,1,1,1,1,1,0,0,0,0,0,0,0,0],"id":36,"left_children":[1,3,5,7,9,11,13,-1,-1,-1,-1,-1,-1,-1,-1],"loss_changes":[2.10289E2,2.613269E1,1.2933E2,1.5373901E1,3.8550851E0,7.985611E0,4.5766678E1,0E0,0E0,0E0,0E0,0E0,0E0,0E0,0E0],"parents":[2147483647,0,0,1,1,2,2,3,3,4,4,5,5,6,6],"right_children":[2,4,6,8,10,12,14,-1,-1,-1,-1,-1,-1,-1,-1],"split_conditions":[5E-1,5E-1,5E-1,5E-1,5E-1,5E-1,5E-1,9.2971633E-4,6.405492E-4,1.8348155E-7,-1.0395198E-3,6.874274E-4,2.9685782E-4,4.4027064E-4,-5.8731204E-4],"split_indices":[131,8,95,146,126,53,146,0,0,0,0,0,0,0,0],"split_type":[0,0,0,0,0,0,0,0,0,0,0,0,0,0,0],"sum_hessian":[4.0592227E2,2.5243932E2,1.5348297E2,2.4844E2,3.9992993E0,6.9741776E1,8.3741196E1,1.754499E2,7.2990105E1,1.9999996E0,1.9992995E0,4.874239E1,2.0999388E1,1.4749056E1,6.8992134E1],"tree_param":{"num_deleted":"0","num_feature":"167","num_nodes":"15","size_leaf_vector":"0"}},{"base_weights":[9.9287164E-1,1.5538117E0,7.027886E-2,1.5946127E0,-9.8077613E-1,1.0756248E0,-7.66998E-1,1.7549832E0,1.2091254E0,3.4631905E-4,-1.9622616E0,1.297616E0,5.603572E-1,8.310684E-1,-1.1086317E0],"categories":[],"categories_nodes":[],"categories_segments":[],"categories_sizes":[],"default_left":[1,1,1,1,1,1,1,0,0,0,0,0,0,0,0],"id":37,"left_children":[1,3,5,7,9,11,13,-1,-1,-1,-1,-1,-1,-1,-1],"loss_changes":[2.1007034E2,2.6105347E1,1.2919392E2,1.5358582E1,3.8511171E0,7.977356E0,4.571851E1,0E0,0E0,0E0,0E0,0E0,0E0,0E0,0E0],"parents":[2147483647,0,0,1,1,2,2,3,3,4,4,5,5,6,6],"right_children":[2,4,6,8,10,12,14,-1,-1,-1,-1,-1,-1,-1,-1],"split_conditions":[5E-1,5E-1,5E-1,5E-1,5E-1,5E-1,5E-1,9.292389E-4,6.402149E-4,1.8337107E-7,-1.0389899E-3,6.8706943E-4,2.9670127E-4,4.4003903E-4,-5.870049E-4],"split_indices":[131,8,95,146,126,53,146,0,0,0,0,0,0,0,0],"split_type":[0,0,0,0,0,0,0,0,0,0,0,0,0,0,0],"sum_hessian":[4.0591794E2,2.5243593E2,1.5348203E2,2.4843666E2,3.99926E0,6.974132E1,8.37407E1,1.7544711E2,7.2989555E1,1.9999998E0,1.9992601E0,4.8741966E1,2.0999353E1,1.4749003E1,6.89917E1],"tree_param":{"num_deleted":"0","num_feature":"167","num_nodes":"15","size_leaf_vector":"0"}},{"base_weights":[9.9235684E-1,1.5530103E0,7.024209E-2,1.5937904E0,-9.8026675E-1,1.0750625E0,-7.665965E-1,1.7540827E0,1.2084945E0,3.4605086E-4,-1.9612621E0,1.2969406E0,5.600613E-1,8.3063155E-1,-1.1080519E0],"categories":[],"categories_nodes":[],"categories_segments":[],"categories_sizes":[],"default_left":[1,1,1,1,1,1,1,0,0,0,0,0,0,0,0],"id":38,"left_children":[1,3,5,7,9,11,13,-1,-1,-1,-1,-1,-1,-1,-1],"loss_changes":[2.0985196E2,2.6078125E1,1.29058E2,1.5343201E1,3.847156E0,7.9691086E0,4.5670406E1,0E0,0E0,0E0,0E0,0E0,0E0,0E0,0E0],"parents":[2147483647,0,0,1,1,2,2,3,3,4,4,5,5,6,6],"right_children":[2,4,6,8,10,12,14,-1,-1,-1,-1,-1,-1,-1,-1],"split_conditions":[5E-1,5E-1,5E-1,5E-1,5E-1,5E-1,5E-1,9.287621E-4,6.3988083E-4,1.8322906E-7,-1.0384606E-3,6.867118E-4,2.9654457E-4,4.398077E-4,-5.866979E-4],"split_indices":[131,8,95,146,126,53,146,0,0,0,0,0,0,0,0],"split_type":[0,0,0,0,0,0,0,0,0,0,0,0,0,0,0],"sum_hessian":[4.0591348E2,2.5243245E2,1.5348105E2,2.4843323E2,3.9992194E0,6.974085E1,8.37402E1,1.7544424E2,7.298899E1,1.9999996E0,1.9992198E0,4.874153E1,2.099932E1,1.4748948E1,6.899125E1],"tree_param":{"num_deleted":"0","num_feature":"167","num_nodes":"15","size_leaf_vector":"0"}},{"base_weights":[9.9184245E-1,1.5522097E0,7.0205376E-2,1.592969E0,-9.797579E-1,1.0745007E0,-7.6619524E-1,1.7531831E0,1.207864E0,3.4596145E-4,-1.9602646E0,1.2962657E0,5.5976564E-1,8.301948E-1,-1.1074725E0],"categories":[],"categories_nodes":[],"categories_segments":[],"categories_sizes":[],"default_left":[1,1,1,1,1,1,1,0,0,0,0,0,0,0,0],"id":39,"left_children":[1,3,5,7,9,11,13,-1,-1,-1,-1,-1,-1,-1,-1],"loss_changes":[2.0963382E2,2.6050903E1,1.2892221E2,1.5327942E1,3.8432038E0,7.9608765E0,4.5622345E1,0E0,0E0,0E0,0E0,0E0,0E0,0E0,0E0],"parents":[2147483647,0,0,1,1,2,2,3,3,4,4,5,5,6,6],"right_children":[2,4,6,8,10,12,14,-1,-1,-1,-1,-1,-1,-1,-1],"split_conditions":[5E-1,5E-1,5E-1,5E-1,5E-1,5E-1,5E-1,9.282858E-4,6.39547E-4,1.8318173E-7,-1.0379325E-3,6.8635447E-4,2.9638803E-4,4.3957646E-4,-5.8639114E-4],"split_indices":[131,8,95,146,126,53,146,0,0,0,0,0,0,0,0],"split_type":[0,0,0,0,0,0,0,0,0,0,0,0,0,0,0],"sum_hessian":[4.0590894E2,2.524289E2,1.5348004E2,2.4842972E2,3.9991777E0,6.9740364E1,8.373968E1,1.754413E2,7.298841E1,1.9999996E0,1.999178E0,4.874108E1,2.0999285E1,1.4748893E1,6.899078E1],"tree_param":{"num_deleted":"0","num_feature":"167","num_nodes":"15","size_leaf_vector":"0"}},{"base_weights":[9.913288E-1,1.5514104E0,7.016873E-2,1.5921487E0,-9.792497E-1,1.0739394E0,-7.657944E-1,1.7522851E0,1.2072344E0,3.4566343E-4,-1.9592686E0,1.2955915E0,5.5947024E-1,8.297585E-1,-1.1068937E0],"categories":[],"categories_nodes":[],"categories_segments":[],"categories_sizes":[],"default_left":[1,1,1,1,1,1,1,0,0,0,0,0,0,0,0],"id":40,"left_children":[1,3,5,7,9,11,13,-1,-1,-1,-1,-1,-1,-1,-1],"loss_changes":[2.0941608E2,2.6023743E1,1.2878659E2,1.5312683E1,3.8392577E0,7.952667E0,4.5574364E1,0E0,0E0,0E0,0E0,0E0,0E0,0E0,0E0],"parents":[2147483647,0,0,1,1,2,2,3,3,4,4,5,5,6,6],"right_children":[2,4,6,8,10,12,14,-1,-1,-1,-1,-1,-1,-1,-1],"split_conditions":[5E-1,5E-1,5E-1,5E-1,5E-1,5E-1,5E-1,9.278103E-4,6.392136E-4,1.8302393E-7,-1.0374051E-3,6.859975E-4,2.9623162E-4,4.3934546E-4,-5.860846E-4],"split_indices":[131,8,95,146,126,53,146,0,0,0,0,0,0,0,0],"split_type":[0,0,0,0,0,0,0,0,0,0,0,0,0,0,0],"sum_hessian":[4.0590424E2,2.5242523E2,1.5347902E2,2.484261E2,3.999135E0,6.9739876E1,8.373914E1,1.7543828E2,7.2987816E1,1.9999996E0,1.9991354E0,4.8740627E1,2.0999247E1,1.4748836E1,6.899031E1],"tree_param":{"num_deleted":"0","num_feature":"167","num_nodes":"15","size_leaf_vector":"0"}},{"base_weights":[9.908155E-1,1.550612E0,7.013198E-2,1.5913293E0,-9.7874177E-1,1.0733784E0,-7.653939E-1,1.7513881E0,1.2066052E0,3.4557402E-4,-1.9582736E0,1.294918E0,5.591749E-1,8.2932234E-1,-1.1063154E0],"categories":[],"categories_nodes":[],"categories_segments":[],"categories_sizes":[],"default_left":[1,1,1,1,1,1,1,0,0,0,0,0,0,0,0],"id":41,"left_children":[1,3,5,7,9,11,13,-1,-1,-1,-1,-1,-1,-1,-1],"loss_changes":[2.0919867E2,2.5996582E1,1.2865112E2,1.5297485E1,3.8353186E0,7.944458E0,4.552643E1,0E0,0E0,0E0,0E0,0E0,0E0,0E0,0E0],"parents":[2147483647,0,0,1,1,2,2,3,3,4,4,5,5,6,6],"right_children":[2,4,6,8,10,12,14,-1,-1,-1,-1,-1,-1,-1,-1],"split_conditions":[5E-1,5E-1,5E-1,5E-1,5E-1,5E-1,5E-1,9.2733535E-4,6.388805E-4,1.8297658E-7,-1.0368783E-3,6.8564084E-4,2.9607525E-4,4.3911452E-4,-5.8577844E-4],"split_indices":[131,8,95,146,126,53,146,0,0,0,0,0,0,0,0],"split_type":[0,0,0,0,0,0,0,0,0,0,0,0,0,0,0],"sum_hessian":[4.0589944E2,2.524215E2,1.5347797E2,2.484224E2,3.9990916E0,6.9739365E1,8.373861E1,1.754352E2,7.29872E1,1.9999996E0,1.9990919E0,4.8740154E1,2.0999208E1,1.4748778E1,6.898983E1],"tree_param":{"num_deleted":"0","num_feature":"167","num_nodes":"15","size_leaf_vector":"0"}},{"base_weights":[9.90303E-1,1.5498146E0,7.0095375E-2,1.5905112E0,-9.782344E-1,1.0728182E0,-7.649938E-1,1.7504925E0,1.205977E0,3.4536538E-4,-1.9572804E0,1.2942451E0,5.5888003E-1,8.2888675E-1,-1.1057377E0],"categories":[],"categories_nodes":[],"categories_segments":[],"categories_sizes":[],"default_left":[1,1,1,1,1,1,1,0,0,0,0,0,0,0,0],"id":42,"left_children":[1,3,5,7,9,11,13,-1,-1,-1,-1,-1,-1,-1,-1],"loss_changes":[2.0898163E2,2.5969482E1,1.2851587E2,1.5282288E1,3.831386E0,7.936264E0,4.547856E1,0E0,0E0,0E0,0E0,0E0,0E0,0E0,0E0],"parents":[2147483647,0,0,1,1,2,2,3,3,4,4,5,5,6,6],"right_children":[2,4,6,8,10,12,14,-1,-1,-1,-1,-1,-1,-1,-1],"split_conditions":[5E-1,5E-1,5E-1,5E-1,5E-1,5E-1,5E-1,9.2686113E-4,6.385478E-4,1.828661E-7,-1.0363525E-3,6.8528455E-4,2.959191E-4,4.3888387E-4,-5.8547256E-4],"split_indices":[131,8,95,146,126,53,146,0,0,0,0,0,0,0,0],"split_type":[0,0,0,0,0,0,0,0,0,0,0,0,0,0,0],"sum_hessian":[4.0589453E2,2.5241765E2,1.534769E2,2.4841861E2,3.999047E0,6.9738846E1,8.3738045E1,1.7543202E2,7.298658E1,1.9999998E0,1.9990473E0,4.8739677E1,2.099917E1,1.4748718E1,6.898933E1],"tree_param":{"num_deleted":"0","num_feature":"167","num_nodes":"15","size_leaf_vector":"0"}},{"base_weights":[9.8979086E-1,1.549018E0,7.005877E-2,1.5896938E0,-9.777277E-1,1.0722582E0,-7.645938E-1,1.7495978E0,1.2053488E0,3.4509719E-4,-1.9562889E0,1.2935728E0,5.5858517E-1,8.284512E-1,-1.1051602E0],"categories":[],"categories_nodes":[],"categories_segments":[],"categories_sizes":[],"default_left":[1,1,1,1,1,1,1,0,0,0,0,0,0,0,0],"id":43,"left_children":[1,3,5,7,9,11,13,-1,-1,-1,-1,-1,-1,-1,-1],"loss_changes":[2.0876492E2,2.5942383E1,1.2838072E2,1.5267151E1,3.8274603E0,7.9280853E0,4.5430733E1,0E0,0E0,0E0,0E0,0E0,0E0,0E0,0E0],"parents":[2147483647,0,0,1,1,2,2,3,3,4,4,5,5,6,6],"right_children":[2,4,6,8,10,12,14,-1,-1,-1,-1,-1,-1,-1,-1],"split_conditions":[5E-1,5E-1,5E-1,5E-1,5E-1,5E-1,5E-1,9.2638744E-4,6.382153E-4,1.8272411E-7,-1.0358274E-3,6.849286E-4,2.95763E-4,4.3865325E-4,-5.851668E-4],"split_indices":[131,8,95,146,126,53,146,0,0,0,0,0,0,0,0],"split_type":[0,0,0,0,0,0,0,0,0,0,0,0,0,0,0],"sum_hessian":[4.0588953E2,2.5241373E2,1.534758E2,2.4841473E2,3.999001E0,6.973832E1,8.373748E1,1.7542879E2,7.298594E1,1.9999996E0,1.9990014E0,4.8739185E1,2.0999132E1,1.4748657E1,6.898882E1],"tree_param":{"num_deleted":"0","num_feature":"167","num_nodes":"15","size_leaf_vector":"0"}},{"base_weights":[9.8927927E-1,1.5482224E0,7.002216E-2,1.5888774E0,-9.772214E-1,1.0716989E0,-7.641943E-1,1.7487044E0,1.2047213E0,3.4509719E-4,-1.9552989E0,1.2929013E0,5.5829036E-1,8.280162E-1,-1.1045834E0],"categories":[],"categories_nodes":[],"categories_segments":[],"categories_sizes":[],"default_left":[1,1,1,1,1,1,1,0,0,0,0,0,0,0,0],"id":44,"left_children":[1,3,5,7,9,11,13,-1,-1,-1,-1,-1,-1,-1,-1],"loss_changes":[2.0854843E2,2.5915405E1,1.2824577E2,1.5252014E1,3.8235435E0,7.919922E0,4.5382977E1,0E0,0E0,0E0,0E0,0E0,0E0,0E0,0E0],"parents":[2147483647,0,0,1,1,2,2,3,3,4,4,5,5,6,6],"right_children":[2,4,6,8,10,12,14,-1,-1,-1,-1,-1,-1,-1,-1],"split_conditions":[5E-1,5E-1,5E-1,5E-1,5E-1,5E-1,5E-1,9.259144E-4,6.37883E-4,1.8272411E-7,-1.0353032E-3,6.84573E-4,2.9560688E-4,4.3842293E-4,-5.848614E-4],"split_indices":[131,8,95,146,126,53,146,0,0,0,0,0,0,0,0],"split_type":[0,0,0,0,0,0,0,0,0,0,0,0,0,0,0],"sum_hessian":[4.058844E2,2.5240971E2,1.5347467E2,2.4841075E2,3.9989543E0,6.973777E1,8.37369E1,1.7542548E2,7.298528E1,1.9999996E0,1.9989547E0,4.8738678E1,2.099909E1,1.4748595E1,6.8988304E1],"tree_param":{"num_deleted":"0","num_feature":"167","num_nodes":"15","size_leaf_vector":"0"}},{"base_weights":[9.8876816E-1,1.5474278E0,6.99855E-2,1.5880619E0,-9.767157E-1,1.0711399E0,-7.6379526E-1,1.7478123E0,1.2040944E0,3.4488854E-4,-1.9543104E0,1.2922302E0,5.5799586E-1,8.275813E-1,-1.1040072E0],"categories":[],"categories_nodes":[],"categories_segments":[],"categories_sizes":[],"default_left":[1,1,1,1,1,1,1,0,0,0,0,0,0,0,0],"id":45,"left_children":[1,3,5,7,9,11,13,-1,-1,-1,-1,-1,-1,-1,-1],"loss_changes":[2.0833237E2,2.5888428E1,1.28111E2,1.52369995E1,3.8196328E0,7.9117737E0,4.5335285E1,0E0,0E0,0E0,0E0,0E0,0E0,0E0,0E0],"parents":[2147483647,0,0,1,1,2,2,3,3,4,4,5,5,6,6],"right_children":[2,4,6,8,10,12,14,-1,-1,-1,-1,-1,-1,-1,-1],"split_conditions":[5E-1,5E-1,5E-1,5E-1,5E-1,5E-1,5E-1,9.2544203E-4,6.375511E-4,1.8261363E-7,-1.0347798E-3,6.842177E-4,2.9545094E-4,4.3819266E-4,-5.845563E-4],"split_indices":[131,8,95,146,126,53,146,0,0,0,0,0,0,0,0],"split_type":[0,0,0,0,0,0,0,0,0,0,0,0,0,0,0],"sum_hessian":[4.0587915E2,2.5240562E2,1.5347353E2,2.4840671E2,3.9989066E0,6.973721E1,8.3736305E1,1.754221E2,7.298461E1,1.9999998E0,1.9989069E0,4.8738167E1,2.0999048E1,1.4748531E1,6.898778E1],"tree_param":{"num_deleted":"0","num_feature":"167","num_nodes":"15","size_leaf_vector":"0"}},{"base_weights":[9.882578E-1,1.5466341E0,6.994917E-2,1.5872476E0,-9.7621053E-1,1.0705817E0,-7.633962E-1,1.7469212E0,1.2034683E0,3.4462035E-4,-1.9533235E0,1.2915602E0,5.577015E-1,8.271467E-1,-1.1034311E0],"categories":[],"categories_nodes":[],"categories_segments":[],"categories_sizes":[],"default_left":[1,1,1,1,1,1,1,0,0,0,0,0,0,0,0],"id":46,"left_children":[1,3,5,7,9,11,13,-1,-1,-1,-1,-1,-1,-1,-1],"loss_changes":[2.0811655E2,2.586145E1,1.2797636E2,1.5221985E1,3.8157282E0,7.9036407E0,4.5287624E1,0E0,0E0,0E0,0E0,0E0,0E0,0E0,0E0],"parents":[2147483647,0,0,1,1,2,2,3,3,4,4,5,5,6,6],"right_children":[2,4,6,8,10,12,14,-1,-1,-1,-1,-1,-1,-1,-1],"split_conditions":[5E-1,5E-1,5E-1,5E-1,5E-1,5E-1,5E-1,9.249702E-4,6.372195E-4,1.8247162E-7,-1.0342574E-3,6.8386295E-4,2.9529512E-4,4.3796253E-4,-5.8425125E-4],"split_indices":[131,8,95,146,126,53,146,0,0,0,0,0,0,0,0],"split_type":[0,0,0,0,0,0,0,0,0,0,0,0,0,0,0],"sum_hessian":[4.0587378E2,2.5240143E2,1.5347235E2,2.4840257E2,3.9988575E0,6.973665E1,8.3735695E1,1.7541864E2,7.298393E1,1.9999996E0,1.9988579E0,4.873764E1,2.0999008E1,1.4748466E1,6.898723E1],"tree_param":{"num_deleted":"0","num_feature":"167","num_nodes":"15","size_leaf_vector":"0"}},{"base_weights":[9.877479E-1,1.5458415E0,6.991261E-2,1.5864342E0,-9.757058E-1,1.0700237E0,-7.6299775E-1,1.7291079E0,1.1572982E0,3.4453094E-4,-1.9523381E0,1.2908905E0,5.574075E-1,8.267124E-1,-1.1028558E0],"categories":[],"categories_nodes":[],"categories_segments":[],"categories_sizes":[],"default_left":[1,1,1,1,1,1,1,0,0,0,0,0,0,0,0],"id":47,"left_children":[1,3,5,7,9,11,13,-1,-1,-1,-1,-1,-1,-1,-1],"loss_changes":[2.0790112E2,2.5834595E1,1.2784191E2,1.5208496E1,3.8118322E0,7.895508E0,4.524004E1,0E0,0E0,0E0,0E0,0E0,0E0,0E0,0E0],"parents":[2147483647,0,0,1,1,2,2,3,3,4,4,5,5,6,6],"right_children":[2,4,6,8,10,12,14,-1,-1,-1,-1,-1,-1,-1,-1],"split_conditions":[5E-1,5E-1,5E-1,5E-1,5E-1,5E-1,5E-1,9.155383E-4,6.127731E-4,1.8242429E-7,-1.0337356E-3,6.8350835E-4,2.9513944E-4,4.377326E-4,-5.8394665E-4],"split_indices":[131,8,95,139,126,53,146,0,0,0,0,0,0,0,0],"split_type":[0,0,0,0,0,0,0,0,0,0,0,0,0,0,0],"sum_hessian":[4.058683E2,2.5239716E2,1.5347115E2,2.4839835E2,3.9988077E0,6.973607E1,8.373508E1,1.8641989E2,6.197846E1,1.9999996E0,1.9988079E0,4.8737103E1,2.0998964E1,1.4748399E1,6.898668E1],"tree_param":{"num_deleted":"0","num_feature":"167","num_nodes":"15","size_leaf_vector":"0"}},{"base_weights":[9.8723835E-1,1.5450493E0,6.9876105E-2,1.5856215E0,-9.7520167E-1,1.0694661E0,-7.625996E-1,1.7451992E0,1.2020793E0,3.4423292E-4,-1.9513541E0,1.2902215E0,5.5711347E-1,8.2627845E-1,-1.102281E0],"categories":[],"categories_nodes":[],"categories_segments":[],"categories_sizes":[],"default_left":[1,1,1,1,1,1,1,0,0,0,0,0,0,0,0],"id":48,"left_children":[1,3,5,7,9,11,13,-1,-1,-1,-1,-1,-1,-1,-1],"loss_changes":[2.0768594E2,2.5807678E1,1.27707596E2,1.5202881E1,3.807942E0,7.8874054E0,4.5192513E1,0E0,0E0,0E0,0E0,0E0,0E0,0E0,0E0],"parents":[2147483647,0,0,1,1,2,2,3,3,4,4,5,5,6,6],"right_children":[2,4,6,8,10,12,14,-1,-1,-1,-1,-1,-1,-1,-1],"split_conditions":[5E-1,5E-1,5E-1,5E-1,5E-1,5E-1,5E-1,9.2405843E-4,6.3648407E-4,1.8226649E-7,-1.0332146E-3,6.831541E-4,2.9498374E-4,4.375028E-4,-5.836423E-4],"split_indices":[131,8,95,146,126,53,146,0,0,0,0,0,0,0,0],"split_type":[0,0,0,0,0,0,0,0,0,0,0,0,0,0,0],"sum_hessian":[4.0586276E2,2.5239285E2,1.5346992E2,2.483941E2,3.9987566E0,6.973548E1,8.373444E1,1.7541174E2,7.298236E1,1.9999996E0,1.998757E0,4.8736557E1,2.099892E1,1.4748331E1,6.8986115E1],"tree_param":{"num_deleted":"0","num_feature":"167","num_nodes":"15","size_leaf_vector":"0"}},{"base_weights":[9.867295E-1,1.5442585E0,6.983968E-2,1.58481E0,-9.746979E-1,1.0689092E0,-7.622016E-1,1.7273947E0,1.1559461E0,3.441435E-4,-1.9503714E0,1.289553E0,5.5681974E-1,8.25845E-1,-1.1017065E0],"categories":[],"categories_nodes":[],"categories_segments":[],"categories_sizes":[],"default_left":[1,1,1,1,1,1,1,0,0,0,0,0,0,0,0],"id":49,"left_children":[1,3,5,7,9,11,13,-1,-1,-1,-1,-1,-1,-1,-1],"loss_changes":[2.0747113E2,2.5780823E1,1.2757345E2,1.5188904E1,3.8040583E0,7.879303E0,4.5145046E1,0E0,0E0,0E0,0E0,0E0,0E0,0E0,0E0],"parents":[2147483647,0,0,1,1,2,2,3,3,4,4,5,5,6,6],"right_children":[2,4,6,8,10,12,14,-1,-1,-1,-1,-1,-1,-1,-1],"split_conditions":[5E-1,5E-1,5E-1,5E-1,5E-1,5E-1,5E-1,9.146312E-4,6.120572E-4,1.8221915E-7,-1.0326942E-3,6.828002E-4,2.948282E-4,4.372733E-4,-5.833381E-4],"split_indices":[131,8,95,139,126,53,146,0,0,0,0,0,0,0,0],"split_type":[0,0,0,0,0,0,0,0,0,0,0,0,0,0,0],"sum_hessian":[4.058571E2,2.523884E2,1.5346867E2,2.483897E2,3.9987047E0,6.973487E1,8.37338E1,1.8641287E2,6.1976826E1,1.9999996E0,1.998705E0,4.8735996E1,2.0998875E1,1.4748261E1,6.898554E1],"tree_param":{"num_deleted":"0","num_feature":"167","num_nodes":"15","size_leaf_vector":"0"}}]},"name":"gbtree"},"name":"dart","weight_drop":[1E0,1E0,1E0,1E0,1E0,1E0,1E0,1E0,1E0,1E0,1E0,1E0,1E0,1E0,1E0,1E0,1E0,1E0,1E0,1E0,1E0,1E0,1E0,1E0,1E0,1E0,1E0,1E0,1E0,1E0,1E0,1E0,1E0,1E0,1E0,1E0,1E0,1E0,1E0,1E0,1E0,1E0,1E0,1E0,1E0,1E0,1E0,1E0,1E0,1E0]},"learner_model_param":{"base_score":"5E-1","num_class":"0","num_feature":"167","num_target":"1"},"objective":{"name":"binary:logistic","reg_loss_param":{"scale_pos_weight":"1"}}},"version":[1,6,0]}