{"learner":{"attributes":{"best_iteration":"49","best_ntree_limit":"50"},"feature_names":["0","1","2","3","4","5","6","7","8","9","10","11","12","13","14","15","16","17","18","19","20","21","22","23","24","25","26","27","28","29","30","31","32","33","34","35","36","37","38","39","40","41","42","43","44","45","46","47","48","49","50","51","52","53","54","55","56","57","58","59","60","61","62","63","64","65","66","67","68","69","70","71","72","73","74","75","76","77","78","79","80","81","82","83","84","85","86","87","88","89","90","91","92","93","94","95","96","97","98","99","100","101","102","103","104","105","106","107","108","109","110","111","112","113","114","115","116","117","118","119","120","121","122","123","124","125","126","127","128","129","130","131","132","133","134","135","136","137","138","139","140","141","142","143","144","145","146","147","148","149","150","151","152","153","154","155","156","157","158","159","160","161","162","163","164","165","166","167","168","169","170","171","172","173","174","175","176","177","178","179","180","181","182","183","184","185","186","187","188","189","190","191","192","193","194","195","196","197","198","199"],"feature_types":["float","float","float","float","float","float","float","float","float","float","float","float","float","float","float","float","float","float","float","float","float","float","float","float","float","float","float","float","float","float","float","float","float","float","float","float","float","float","float","float","float","float","float","float","float","float","float","float","float","float","float","float","float","float","float","float","float","float","float","float","float","float","float","float","float","float","float","float","float","float","float","float","float","float","float","float","float","float","float","float","float","float","float","float","float","float","float","float","float","float","float","float","float","float","float","float","float","float","float","float","float","float","float","float","float","float","float","float","float","float","float","float","float","float","float","float","float","float","float","float","float","float","float","float","float","float","float","float","float","float","float","float","float","float","float","float","float","float","float","float","float","float","float","float","float","float","float","float","float","float","float","float","float","float","float","float","float","float","float","float","float","float","float","float","float","float","float","float","float","float","float","float","float","float","float","float","float","float","float","float","float","float","float","float","float","float","float","float","float","float","float","float","float","float","float","float","float","float","float","float"],"gradient_booster":{"gbtree":{"model":{"gbtree_model_param":{"num_parallel_tree":"1","num_trees":"50","size_leaf_vector":"0"},"tree_info":[0,0,0,0,0,0,0,0,0,0,0,0,0,0,0,0,0,0,0,0,0,0,0,0,0,0,0,0,0,0,0,0,0,0,0,0,0,0,0,0,0,0,0,0,0,0,0,0,0,0],"trees":[{"base_weights":[1.0122396E0,1.4271638E0,-9.536544E-1,1.5322385E0,-3.46106E-1,2.019713E-1,-1.4836075E0,1.581013E0,-2.3445599E-1,-8.552882E-1,1.1505421E0,-6.6508293E-1,1.3640627E0,1.9603332E0,-1.5947148E0,-3.9806572E-1,1.6220406E0,-1.1927588E0,1.1330304E0,4.4146526E-1,-1.4689906E0,-3.9051196E-1,1.6995469E0,-1.1595166E0,1.9701017E0,1.7351398E0,-2.80839E-1,-1.6510844E0,9.7053766E-1],"categories":[],"categories_nodes":[],"categories_segments":[],"categories_sizes":[],"default_left":[1,1,1,1,1,1,1,1,1,1,1,1,1,0,1,0,0,0,0,0,0,0,0,0,0,0,0,0,0],"id":0,"left_children":[1,3,5,7,9,11,13,15,17,19,21,23,25,-1,27,-1,-1,-1,-1,-1,-1,-1,-1,-1,-1,-1,-1,-1,-1],"loss_changes":[3.3123907E2,6.2487488E1,4.3356934E1,2.728656E1,1.4341735E1,2.2477133E1,1.866484E1,2.5030762E1,1.1219744E1,1.1185331E1,4.064547E0,1.6721138E1,5.8319874E0,0E0,6.8493423E0,0E0,0E0,0E0,0E0,0E0,0E0,0E0,0E0,0E0,0E0,0E0,0E0,0E0,0E0],"parents":[2147483647,0,0,1,1,2,2,3,3,4,4,5,5,6,6,7,7,8,8,9,9,10,10,11,11,12,12,14,14],"right_children":[2,4,6,8,10,12,14,16,18,20,22,24,26,-1,28,-1,-1,-1,-1,-1,-1,-1,-1,-1,-1,-1,-1,-1,-1],"split_conditions":[8.110975E-1,5.832491E-1,7.8692013E-1,8.7591445E-1,5.8949447E-1,6.2408847E-1,6.030561E-1,1.862762E-1,4.8793843E-1,2.0699939E-1,7.19545E-1,7.249282E-1,7.1833444E-1,3.541289E-1,5E-1,-7.1909495E-2,2.9301727E-1,-2.1546866E-1,2.0467888E-1,7.974951E-2,-2.6536918E-1,-7.054493E-2,3.0701855E-1,-2.0946354E-1,3.5589355E-1,3.1344834E-1,-5.0732806E-2,-2.9826394E-1,1.75325E-1],"split_indices":[103,122,67,49,19,98,15,199,92,29,39,36,130,0,196,0,0,0,0,0,0,0,0,0,0,0,0,0,0],"split_type":[0,0,0,0,0,0,0,0,0,0,0,0,0,0,0,0,0,0,0,0,0,0,0,0,0,0,0,0,0],"sum_hessian":[4.06E2,3.3525E2,7.075E1,3.165E2,1.875E1,2.225E1,4.85E1,3.08E2,8.5E0,1.4E1,4.75E0,1.275E1,9.5E0,1.5E0,4.7E1,6.25E0,3.0175E2,5E0,3.5E0,4.5E0,9.5E0,1.25E0,3.5E0,1.075E1,2E0,7.75E0,1.75E0,4.6E1,1E0],"tree_param":{"num_deleted":"0","num_feature":"200","num_nodes":"29","size_leaf_vector":"0"}},{"base_weights":[8.4785074E-1,1.1952584E0,-7.9829824E-1,1.2411871E0,-1.6688198E0,1.6969006E-1,-1.2446395E0,1.398939E0,8.0263174E-1,-1.0407476E0,-1.8549833E0,-1.1189073E0,7.3515636E-1,1.6669841E0,-1.3377385E0,1.447225E0,-1.5442006E-1,-1.5239491E0,8.728919E-1,5.735718E-1,-1.8281491E0,1.1452688E0,-1.1304016E0,-1.4105734E0,2.9807726E-1],"categories":[],"categories_nodes":[],"categories_segments":[],"categories_sizes":[],"default_left":[1,1,1,1,1,1,1,1,1,0,0,1,1,0,1,0,0,0,0,0,0,0,0,0,0],"id":1,"left_children":[1,3,5,7,9,11,13,15,17,-1,-1,19,21,-1,23,-1,-1,-1,-1,-1,-1,-1,-1,-1,-1],"loss_changes":[2.275581E2,4.3279785E1,2.996976E1,2.2337585E1,5.4918766E-1,1.599195E1,1.2934952E1,1.7841766E1,1.4035999E1,0E0,0E0,8.068571E0,1.1705383E1,0E0,5.4951477E0,0E0,0E0,0E0,0E0,0E0,0E0,0E0,0E0,0E0,0E0],"parents":[2147483647,0,0,1,1,2,2,3,3,4,4,5,5,6,6,7,7,8,8,11,11,12,12,14,14],"right_children":[2,4,6,8,10,12,14,16,18,-1,-1,20,22,-1,24,-1,-1,-1,-1,-1,-1,-1,-1,-1,-1],"split_conditions":[8.110975E-1,5E-1,7.8692013E-1,6.030647E-1,1.1609388E-1,3.9931345E-1,6.030561E-1,5.832491E-1,1.7987189E-1,-1.8800825E-1,-3.3509773E-1,5.534227E-1,8.685867E-1,3.0113617E-1,9.9973446E-1,2.614373E-1,-2.7895568E-2,-2.7529728E-1,1.5768556E-1,1.03614196E-1,-3.302502E-1,2.0688972E-1,-2.04204E-1,-2.5481626E-1,5.384685E-2],"split_indices":[103,167,67,58,1,35,15,122,199,0,0,27,84,0,17,0,0,0,0,0,0,0,0,0,0],"split_type":[0,0,0,0,0,0,0,0,0,0,0,0,0,0,0,0,0,0,0,0,0,0,0,0,0],"sum_hessian":[3.9782803E2,3.285073E2,6.932073E1,3.233394E2,5.1679077E0,2.1882515E1,4.7438217E1,2.3775171E2,8.5587685E1,1.227309E0,3.9405987E0,6.6648307E0,1.5217685E1,1.453938E0,4.598428E1,2.3058606E2,7.1656556E0,2.4904785E0,8.3097206E1,1.9698728E0,4.6949577E0,1.2484822E1,2.7328625E0,4.402811E1,1.9561707E0],"tree_param":{"num_deleted":"0","num_feature":"200","num_nodes":"25","size_leaf_vector":"0"}},{"base_weights":[7.297324E-1,1.0290589E0,-6.873547E-1,1.1093857E0,-2.7778986E-1,1.424922E-1,-1.0775473E0,1.1397421E0,-1.0971737E0,1.1292673E0,-7.6206434E-1,-5.239725E-1,1.0469296E0,1.4858916E0,-1.1575804E0,1.1807961E0,-2.9038286E-1,1.6377892E0,-2.616887E0,-3.7589994E-1,1.678141E0,4.8245883E-1,-1.4600487E0,-1.0456182E0,1.1663742E0,-7.217434E-1,1.3223298E0,-1.2139376E0,8.422066E-1],"categories":[],"categories_nodes":[],"categories_segments":[],"categories_sizes":[],"default_left":[1,1,1,1,1,1,1,1,1,1,1,1,1,0,1,0,0,0,0,0,0,0,0,0,0,0,0,0,0],"id":2,"left_children":[1,3,5,7,9,11,13,15,17,19,21,23,25,-1,27,-1,-1,-1,-1,-1,-1,-1,-1,-1,-1,-1,-1,-1,-1],"loss_changes":[1.6141466E2,3.298706E1,2.149597E1,1.9862518E1,1.2438235E1,1.2827988E1,9.314869E0,1.715213E1,1.6887989E1,3.8824725E0,1.1808726E1,1.08447895E1,4.4260635E0,0E0,4.9672585E0,0E0,0E0,0E0,0E0,0E0,0E0,0E0,0E0,0E0,0E0,0E0,0E0,0E0,0E0],"parents":[2147483647,0,0,1,1,2,2,3,3,4,4,5,5,6,6,7,7,8,8,9,9,10,10,11,11,12,12,14,14],"right_children":[2,4,6,8,10,12,14,16,18,20,22,24,26,-1,28,-1,-1,-1,-1,-1,-1,-1,-1,-1,-1,-1,-1,-1,-1],"split_conditions":[8.110975E-1,5.832491E-1,7.8692013E-1,9.271878E-1,5.7024634E-1,6.2408847E-1,6.030561E-1,8.7591445E-1,4.1529807E-1,5.041615E-1,8.224334E-1,8.5911226E-1,7.505796E-1,2.684223E-1,9.989054E-1,2.1330763E-1,-5.2456878E-2,2.958622E-1,-4.727336E-1,-6.790531E-2,3.0315164E-1,8.715489E-2,-2.6375386E-1,-1.888881E-1,2.1070234E-1,-1.30381E-1,2.388753E-1,-2.1929455E-1,1.5214235E-1],"split_indices":[103,122,67,95,30,98,15,49,0,103,41,24,50,0,139,0,0,0,0,0,0,0,0,0,0,0,0,0,0],"split_type":[0,0,0,0,0,0,0,0,0,0,0,0,0,0,0,0,0,0,0,0,0,0,0,0,0,0,0,0,0],"sum_hessian":[3.8045978E2,3.14118E2,6.6341774E1,2.959328E2,1.8185219E1,2.1223555E1,4.5118217E1,2.9193127E2,4.001526E0,4.6459618E0,1.3539257E1,1.2226679E1,8.996877E0,1.3498442E0,4.376837E1,2.8378995E2,8.14133E0,1.428447E0,2.5730786E0,1.2440289E0,3.401933E0,4.868306E0,8.670951E0,9.352158E0,2.874521E0,1.2055273E0,7.79135E0,4.258032E1,1.1880527E0],"tree_param":{"num_deleted":"0","num_feature":"200","num_nodes":"29","size_leaf_vector":"0"}},{"base_weights":[6.387735E-1,8.2893735E-1,-1.1056813E0,1.1321906E0,3.8720602E-1,1.2897583E0,-1.2157379E0,1.1774039E0,-7.1812934E-1,1.32433E-1,1.2117076E0,-1.3120874E0,3.738043E-1,1.1968468E0,-1.5520189E0,-2.664297E0,1.4438076E0,3.7093976E-1,-6.3150173E-1,1.3536459E0,-6.450611E-1,-2.9314673E0,-1.2508543E0],"categories":[],"categories_nodes":[],"categories_segments":[],"categories_sizes":[],"default_left":[1,1,1,1,1,0,1,1,1,1,1,1,0,0,0,0,0,0,0,0,0,0,0],"id":3,"left_children":[1,3,5,7,9,-1,11,13,15,17,19,21,-1,-1,-1,-1,-1,-1,-1,-1,-1,-1,-1],"loss_changes":[1.1900226E2,4.3309586E1,9.344952E0,1.6067062E1,2.7658741E1,0E0,5.1811104E0,9.989868E0,1.9439651E1,1.8344082E1,8.218517E0,3.0431137E0,0E0,0E0,0E0,0E0,0E0,0E0,0E0,0E0,0E0,0E0,0E0],"parents":[2147483647,0,0,1,1,2,2,3,3,4,4,6,6,7,7,8,8,9,9,10,10,11,11],"right_children":[2,4,6,8,10,-1,12,14,16,18,20,22,-1,-1,-1,-1,-1,-1,-1,-1,-1,-1,-1],"split_conditions":[8.9214146E-1,3.5992497E-1,2.7292493E-1,9.84465E-1,9.178804E-1,2.3299135E-1,9.9973446E-1,9.1998523E-1,2.6912215E-1,8.2192206E-1,8.886068E-1,3.8524574E-1,6.7526735E-2,2.1620715E-1,-2.8036803E-1,-4.812981E-1,2.6081994E-1,6.700926E-2,-1.1407908E-1,2.4453248E-1,-1.1652854E-1,-5.2956164E-1,-2.2596344E-1],"split_indices":[67,103,11,97,11,0,17,81,38,15,59,103,0,0,0,0,0,0,0,0,0,0,0],"split_type":[0,0,0,0,0,0,0,0,0,0,0,0,0,0,0,0,0,0,0,0,0,0,0],"sum_hessian":[3.5861572E2,3.2337988E2,3.523586E1,1.9171678E2,1.3166309E2,1.5334803E0,3.3702377E1,1.8715463E2,4.5621514E0,1.0060969E2,3.1053406E1,3.1781273E1,1.9211057E0,1.858478E2,1.3068366E0,2.3971756E0,2.1649761E0,7.6683945E1,2.392574E1,2.8855791E1,2.1976151E0,1.1061163E0,3.0675158E1],"tree_param":{"num_deleted":"0","num_feature":"200","num_nodes":"23","size_leaf_vector":"0"}},{"base_weights":[5.6195766E-1,7.9757196E-1,-5.392553E-1,1.0102782E0,3.7949735E-1,6.5906644E-1,-7.3042285E-1,1.0458803E0,-1.2656713E0,-4.044901E-2,8.352219E-1,-4.6663126E-1,1.224132E0,-9.504518E-1,2.901904E-1,1.0652087E0,-2.0449657E0,-2.0531685E0,3.3816583E-2,-8.0320704E-1,4.1903707E-1,9.973573E-1,-9.0091115E-1,4.6586928E-1,-1.4566623E0,-1.3347103E-1,1.5682905E0,-1.1108359E0,6.747907E-1,-1.4194971E0,7.35804E-1],"categories":[],"categories_nodes":[],"categories_segments":[],"categories_sizes":[],"default_left":[1,1,1,1,1,1,1,1,1,1,1,1,1,1,1,0,0,0,0,0,0,0,0,0,0,0,0,0,0,0,0],"id":4,"left_children":[1,3,5,7,9,11,13,15,17,19,21,23,25,27,29,-1,-1,-1,-1,-1,-1,-1,-1,-1,-1,-1,-1,-1,-1,-1,-1],"loss_changes":[8.750712E1,2.469165E1,1.3633814E1,1.49574585E1,1.7937798E1,5.230364E0,1.1525536E1,1.0896042E1,2.9178247E0,1.711534E1,1.2679739E1,2.5694993E0,2.5596886E0,1.1022224E1,6.9790726E0,0E0,0E0,0E0,0E0,0E0,0E0,0E0,0E0,0E0,0E0,0E0,0E0,0E0,0E0,0E0,0E0],"parents":[2147483647,0,0,1,1,2,2,3,3,4,4,5,5,6,6,7,7,8,8,9,9,10,10,11,11,12,12,13,13,14,14],"right_children":[2,4,6,8,10,12,14,16,18,20,22,24,26,28,30,-1,-1,-1,-1,-1,-1,-1,-1,-1,-1,-1,-1,-1,-1,-1,-1],"split_conditions":[8.110975E-1,5.4138184E-1,7.124035E-1,9.271878E-1,4.748383E-1,5.243994E-1,9.616515E-1,9.99993E-1,6.219826E-1,3.8042238E-1,7.5915176E-1,3.7519628E-1,8.2838356E-1,1E0,6.632917E-2,1.9242707E-1,-3.6941755E-1,-3.7089935E-1,6.1088745E-3,-1.4509718E-1,7.5697914E-2,1.8016991E-1,-1.6274716E-1,8.4158026E-2,-2.631421E-1,-2.411118E-2,2.8330743E-1,-2.0066951E-1,1.2189911E-1,-2.5642833E-1,1.3292101E-1],"split_indices":[103,39,15,95,44,36,71,120,4,155,35,20,103,51,88,0,0,0,0,0,0,0,0,0,0,0,0,0,0,0,0],"split_type":[0,0,0,0,0,0,0,0,0,0,0,0,0,0,0,0,0,0,0,0,0,0,0,0,0,0,0,0,0,0,0],"sum_hessian":[3.3718365E2,2.7776233E2,5.942134E1,1.8406929E2,9.369302E1,8.1650305E0,5.125631E1,1.8125044E2,2.8188424E0,4.8774952E1,4.4918076E1,2.7305748E0,5.4344554E0,4.2167686E1,9.088626E0,1.8014381E2,1.1066275E0,1.7442329E0,1.0746096E0,1.8327755E1,3.0447199E1,4.1093334E1,3.824739E0,1.4144121E0,1.3161628E0,1.1027979E0,4.3316574E0,3.838895E1,3.7787344E0,1.8653781E0,7.2232475E0],"tree_param":{"num_deleted":"0","num_feature":"200","num_nodes":"31","size_leaf_vector":"0"}},{"base_weights":[4.9823275E-1,6.521212E-1,-9.261117E-1,8.9561534E-1,1.8555714E-1,1.1546072E0,-1.0258093E0,9.408413E-1,-8.061568E-1,3.1888592E-1,-1.0282569E0,-1.1241846E0,3.8389564E-1,9.811904E-1,-1.2336346E0,-2.0391676E0,1.0967804E0,-1.261146E-2,7.9824764E-1,-1.550037E0,4.1764334E-1,-1.1937187E0,2.3157515E-1],"categories":[],"categories_nodes":[],"categories_segments":[],"categories_sizes":[],"default_left":[1,1,1,1,1,0,1,1,1,1,1,1,0,0,0,0,0,0,0,0,0,0,0],"id":5,"left_children":[1,3,5,7,9,-1,11,13,15,17,19,21,-1,-1,-1,-1,-1,-1,-1,-1,-1,-1,-1],"loss_changes":[6.897671E1,3.2252922E1,6.4020863E0,1.4382065E1,1.5774391E1,0E0,4.076645E0,1.5983292E1,1.143864E1,1.3951116E1,7.2984915E0,2.59124E0,0E0,0E0,0E0,0E0,0E0,0E0,0E0,0E0,0E0,0E0,0E0],"parents":[2147483647,0,0,1,1,2,2,3,3,4,4,6,6,7,7,8,8,9,9,10,10,11,11],"right_children":[2,4,6,8,10,-1,12,14,16,18,20,22,-1,-1,-1,-1,-1,-1,-1,-1,-1,-1,-1],"split_conditions":[8.9214146E-1,6.030647E-1,2.7292493E-1,9.1671324E-1,8.111894E-1,2.0857666E-1,9.9973446E-1,9.271878E-1,7.621637E-1,2.1388622E-1,4.9997607E-1,4.729503E-1,6.9349706E-2,1.7724939E-1,-2.2285275E-1,-3.6837012E-1,1.9813041E-1,-2.2782262E-3,1.4420128E-1,-2.8001E-1,7.5446144E-2,-2.1564205E-1,4.1833423E-2],"split_indices":[67,58,11,79,84,0,17,95,95,46,51,184,0,0,0,0,0,0,0,0,0,0,0],"split_type":[0,0,0,0,0,0,0,0,0,0,0,0,0,0,0,0,0,0,0,0,0,0,0],"sum_hessian":[3.1457498E2,2.8391663E2,3.0658346E1,1.8653719E2,9.737944E1,1.3871391E0,2.9271206E1,1.8172137E2,4.815816E0,8.776182E1,9.617626E0,2.7367535E1,1.9036714E0,1.7842717E2,3.2941978E0,2.9209893E0,1.8948269E0,5.1900272E1,3.586154E1,7.0656686E0,2.5519576E0,2.6035845E1,1.3316913E0],"tree_param":{"num_deleted":"0","num_feature":"200","num_nodes":"23","size_leaf_vector":"0"}},{"base_weights":[4.4064167E-1,6.1437654E-1,-5.695322E-1,6.921605E-1,-1.1170809E0,-9.0966624E-1,2.4190557E-3,7.9581976E-1,1.5058532E-1,-1.469836E0,-3.9523745E-1,-3.5042662E-2,-1.160994E0,1.1112273E0,-3.504629E-1,4.816494E-1,1.0254513E0,-1.5668014E0,3.7312296E-1,-1.3493583E0,-1.9807916E0,9.223353E-1,-1.2946142E0,1.9085592E0,-6.066294E-1,-1.3450528E0,-5.154619E-1,1.833142E0,-3.640073E-1,7.7545665E-2,-1.2528521E0],"categories":[],"categories_nodes":[],"categories_segments":[],"categories_sizes":[],"default_left":[1,1,1,1,1,1,1,1,1,1,1,1,1,1,1,0,0,0,0,0,0,0,0,0,0,0,0,0,0,0,0],"id":6,"left_children":[1,3,5,7,9,11,13,15,17,19,21,23,25,27,29,-1,-1,-1,-1,-1,-1,-1,-1,-1,-1,-1,-1,-1,-1,-1,-1],"loss_changes":[5.1656475E1,3.3842186E1,8.404123E0,1.3488205E1,2.7342482E0,5.953539E0,6.3271375E0,1.4537155E1,1.4787985E1,3.6506176E-1,4.2894006E0,6.787504E0,2.4790611E0,4.1778474E0,4.740727E0,0E0,0E0,0E0,0E0,0E0,0E0,0E0,0E0,0E0,0E0,0E0,0E0,0E0,0E0,0E0,0E0],"parents":[2147483647,0,0,1,1,2,2,3,3,4,4,5,5,6,6,7,7,8,8,9,9,10,10,11,11,12,12,13,13,14,14],"right_children":[2,4,6,8,10,12,14,16,18,20,22,24,26,28,30,-1,-1,-1,-1,-1,-1,-1,-1,-1,-1,-1,-1,-1,-1,-1,-1],"split_conditions":[8.7591445E-1,5E-1,9.773922E-1,6.9690365E-1,9.624059E-1,6.363162E-1,4.898197E-1,5.306123E-1,5.1904745E-2,5.223765E-1,2.9734802E-2,4.934624E-1,8.641319E-1,5.588776E-1,9.3644917E-1,8.700866E-2,1.85245E-1,-2.8303844E-1,6.740365E-2,-2.4375793E-1,-3.5782465E-1,1.6661738E-1,-2.3386855E-1,3.4477606E-1,-1.09585956E-1,-2.4298017E-1,-9.3116805E-2,3.3115217E-1,-6.575693E-2,1.4008415E-2,-2.2632435E-1],"split_indices":[49,167,92,79,105,20,143,52,46,45,46,85,77,79,26,0,0,0,0,0,0,0,0,0,0,0,0,0,0,0,0],"split_type":[0,0,0,0,0,0,0,0,0,0,0,0,0,0,0,0,0,0,0,0,0,0,0,0,0,0,0,0,0,0,0],"sum_hessian":[2.9424396E2,2.5107474E2,4.3169216E1,2.4029784E2,1.0776909E1,2.7059364E1,1.6109854E1,2.0168112E2,3.8616703E1,7.218075E0,3.5588343E0,6.047747E0,2.1011616E1,3.8735104E0,1.2236342E1,8.5203705E1,1.16477425E2,4.408866E0,3.420784E1,5.930286E0,1.2877886E0,1.4434371E0,2.1153972E0,1.3582398E0,4.6895075E0,1.6324234E1,4.6873827E0,2.5958562E0,1.2776542E0,8.31854E0,3.9178033E0],"tree_param":{"num_deleted":"0","num_feature":"200","num_nodes":"31","size_leaf_vector":"0"}},{"base_weights":[3.8880038E-1,5.1242095E-1,-8.034077E-1,7.412107E-1,1.1278625E-1,1.2228575E0,-8.909792E-1,8.0751073E-1,-4.8448232E-1,2.2532581E-1,-9.0903264E-1,2.0577365E-1,-1.0508134E0,8.744636E-1,-3.297408E-1,5.4421973E-1,-1.187818E0,-1.4727563E-1,5.592278E-1,3.432346E-1,-1.4643E0,9.5275474E-1,-8.3102834E-1,-1.1705177E0,6.414289E-1],"categories":[],"categories_nodes":[],"categories_segments":[],"categories_sizes":[],"default_left":[1,1,1,1,1,0,1,1,1,1,1,1,1,0,0,0,0,0,0,0,0,0,0,0,0],"id":7,"left_children":[1,3,5,7,9,-1,11,13,15,17,19,21,23,-1,-1,-1,-1,-1,-1,-1,-1,-1,-1,-1,-1],"loss_changes":[4.0596718E1,2.2811348E1,4.6257057E0,1.2905945E1,1.0456621E1,0E0,4.3588333E0,1.1471146E1,5.9244947E0,1.019007E1,6.2885942E0,2.4894679E0,4.413391E0,0E0,0E0,0E0,0E0,0E0,0E0,0E0,0E0,0E0,0E0,0E0,0E0],"parents":[2147483647,0,0,1,1,2,2,3,3,4,4,6,6,7,7,8,8,9,9,10,10,11,11,12,12],"right_children":[2,4,6,8,10,-1,12,14,16,18,20,22,24,-1,-1,-1,-1,-1,-1,-1,-1,-1,-1,-1,-1],"split_conditions":[8.9214146E-1,6.030647E-1,2.722603E-1,5.832491E-1,8.111894E-1,2.209059E-1,3.9784744E-1,8.8479996E-1,2.8721797E-1,3.8325816E-1,1.6498494E-1,2.9857206E-1,9.9948585E-1,1.5796949E-1,-5.9566785E-2,9.831183E-2,-2.1457613E-1,-2.6604945E-2,1.01022996E-1,6.2004402E-2,-2.6452184E-1,1.7211257E-1,-1.5012303E-1,-2.1145086E-1,1.158724E-1],"split_indices":[67,58,112,122,84,0,86,79,96,78,24,18,68,0,0,0,0,0,0,0,0,0,0,0,0],"split_type":[0,0,0,0,0,0,0,0,0,0,0,0,0,0,0,0,0,0,0,0,0,0,0,0,0],"sum_hessian":[2.7533835E2,2.4948631E2,2.5852028E1,1.5863962E2,9.084671E1,1.0546876E0,2.479734E1,1.5050868E2,8.13093E0,8.185513E1,8.991573E0,3.1530347E0,2.1644306E1,1.4214714E2,8.361547E0,3.3045433E0,4.826387E0,3.869372E1,4.316141E1,2.7657304E0,6.2258434E0,1.8340976E0,1.3189371E0,2.0223143E1,1.4211632E0],"tree_param":{"num_deleted":"0","num_feature":"200","num_nodes":"25","size_leaf_vector":"0"}},{"base_weights":[3.4246576E-1,5.066021E-1,-4.003309E-1,1.6247013E-1,7.4983555E-1,-7.1197855E-1,2.3667224E-1,3.79973E-1,-5.099426E-1,8.0419743E-1,-1.2959758E0,1.2807485E0,-8.4979737E-1,5.264384E-1,-1.5334231E0,5.2652365E-1,-5.718269E-1,-2.367191E0,-1.1408292E-1,8.4097296E-1,-5.62478E-1,-2.219037E0,4.8823482E-1,1.1160054E0,-9.630281E-1,1.0983956E0,-3.1616053E-1,-8.212307E-1,-2.28701E0],"categories":[],"categories_nodes":[],"categories_segments":[],"categories_sizes":[],"default_left":[1,1,1,1,1,1,1,1,1,1,1,0,1,1,1,0,0,0,0,0,0,0,0,0,0,0,0,0,0],"id":8,"left_children":[1,3,5,7,9,11,13,15,17,19,21,-1,23,25,27,-1,-1,-1,-1,-1,-1,-1,-1,-1,-1,-1,-1,-1,-1],"loss_changes":[3.1528536E1,1.7722462E1,9.297701E0,1.2837281E1,1.3829544E1,8.667329E0,7.92355E0,9.258412E0,1.5766544E1,6.089493E0,5.340977E0,0E0,6.582016E0,6.399283E0,1.1098452E0,0E0,0E0,0E0,0E0,0E0,0E0,0E0,0E0,0E0,0E0,0E0,0E0,0E0,0E0],"parents":[2147483647,0,0,1,1,2,2,3,3,4,4,5,5,6,6,7,7,8,8,9,9,10,10,12,12,13,13,14,14],"right_children":[2,4,6,8,10,12,14,16,18,20,22,-1,24,26,28,-1,-1,-1,-1,-1,-1,-1,-1,-1,-1,-1,-1,-1,-1],"split_conditions":[8.464987E-1,3.9585483E-1,4.8793843E-1,4.9962357E-1,7.677049E-1,2.8929597E-1,9.3988127E-1,8.3352757E-1,2.985553E-1,9.015822E-1,8.732152E-1,2.3136376E-1,8.724665E-2,8.012641E-1,6.001604E-1,9.511507E-2,-1.0329898E-1,-4.2762667E-1,-2.0608772E-2,1.519195E-1,-1.0161013E-1,-4.0086305E-1,8.8198304E-2,2.0160337E-1,-1.7396842E-1,1.984222E-1,-5.7113547E-2,-1.4835311E-1,-4.1314217E-1],"split_indices":[67,76,92,115,56,95,78,14,95,15,45,0,35,73,18,0,0,0,0,0,0,0,0,0,0,0,0,0,0],"split_type":[0,0,0,0,0,0,0,0,0,0,0,0,0,0,0,0,0,0,0,0,0,0,0,0,0,0,0,0,0],"sum_hessian":[2.5851947E2,2.1174065E2,4.6778835E1,8.770472E1,1.2403592E2,3.1408815E1,1.5370019E1,6.627893E1,2.142579E1,1.2084326E2,3.1926582E0,2.0154607E0,2.9393354E1,1.3226205E1,2.1438148E0,5.744723E1,8.831702E0,3.7378466E0,1.7687944E1,1.17688095E2,3.155163E0,2.0992305E0,1.0934277E0,1.5862134E0,2.7807142E1,7.872881E0,5.3533235E0,1.1347897E0,1.009025E0],"tree_param":{"num_deleted":"0","num_feature":"200","num_nodes":"29","size_leaf_vector":"0"}},{"base_weights":[3.0187368E-1,6.3121545E-1,-1.1138576E-2,6.9025105E-1,-1.1455774E0,-1.7371972E-1,7.2863126E-1,1.6634281E-1,8.7421554E-1,-2.387435E0,1.1730154E0,1.2245693E-1,-5.245014E-1,-1.4347453E0,9.559027E-1,5.4261947E-1,-5.4465365E-1,9.2845124E-1,-1.5313972E0,-1.5679828E0,-3.086907E0,-7.9526466E-1,4.165871E-1,-6.861377E-1,5.262322E-1,3.4101632E-1,-3.146768E0,1.0612465E0,-7.941156E-1],"categories":[],"categories_nodes":[],"categories_segments":[],"categories_sizes":[],"default_left":[1,1,1,1,1,1,1,1,1,1,0,1,1,1,1,0,0,0,0,0,0,0,0,0,0,0,0,0,0],"id":9,"left_children":[1,3,5,7,9,11,13,15,17,19,-1,21,23,25,27,-1,-1,-1,-1,-1,-1,-1,-1,-1,-1,-1,-1,-1,-1],"loss_changes":[2.5082823E1,1.2460663E1,1.5011304E1,1.1057205E1,1.1096049E1,1.0632447E1,1.1098301E1,7.99864E0,1.1124802E1,1.2862034E0,0E0,1.4992036E1,7.967516E0,6.5688424E0,3.7805347E0,0E0,0E0,0E0,0E0,0E0,0E0,0E0,0E0,0E0,0E0,0E0,0E0,0E0,0E0],"parents":[2147483647,0,0,1,1,2,2,3,3,4,4,5,5,6,6,7,7,8,8,9,9,11,11,12,12,13,13,14,14],"right_children":[2,4,6,8,10,12,14,16,18,20,-1,22,24,26,28,-1,-1,-1,-1,-1,-1,-1,-1,-1,-1,-1,-1,-1,-1],"split_conditions":[3.5992497E-1,9.84465E-1,1E0,2.8148156E-1,2.6912215E-1,7.124035E-1,4.530888E-1,6.500554E-1,5E-1,2.9635826E-1,2.1190205E-1,2.7665293E-1,5.948974E-1,4.124251E-1,9.918263E-1,9.8022744E-2,-9.8390214E-2,1.6772221E-1,-2.7664277E-1,-2.8325185E-1,-5.576414E-1,-1.4366241E-1,7.5255334E-2,-1.2394892E-1,9.506242E-2,6.1603677E-2,-5.6845516E-1,1.9171132E-1,-1.4345483E-1],"split_indices":[103,97,51,53,38,15,34,39,188,17,0,41,19,2,77,0,0,0,0,0,0,0,0,0,0,0,0,0,0],"split_type":[0,0,0,0,0,0,0,0,0,0,0,0,0,0,0,0,0,0,0,0,0,0,0,0,0,0,0,0,0],"sum_hessian":[2.432822E2,1.185338E2,1.247484E2,1.1474002E2,3.793781E0,1.0229089E2,2.2457504E1,2.9834078E1,8.490594E1,2.4699554E0,1.3238256E0,5.5472954E1,4.6817936E1,2.1196332E0,2.033787E1,1.9513994E1,1.0320083E1,8.3052124E1,1.8538128E0,1.1827351E0,1.2872202E0,1.3451358E1,4.2021595E1,4.0585182E1,6.2327547E0,1.0523752E0,1.0672579E0,1.9194397E1,1.143474E0],"tree_param":{"num_deleted":"0","num_feature":"200","num_nodes":"29","size_leaf_vector":"0"}},{"base_weights":[2.6841137E-1,8.8965046E-1,1.17463194E-1,9.844168E-1,-1.1157286E-1,-1.601604E-1,4.5889094E-1,-5.336882E-1,1.0290282E0,1.1355981E0,-1.5098029E0,-6.1241116E-2,-1.3407478E0,-6.882594E-1,5.637725E-1,1.0741634E0,-1.695629E-1,6.9891477E-1,-1.6844434E-1,-9.506199E-1,-3.7656329E0,-1.5314636E0,5.1467544E-1,6.3508624E-1,-9.169974E-1],"categories":[],"categories_nodes":[],"categories_segments":[],"categories_sizes":[],"default_left":[1,1,1,1,1,1,1,0,1,0,0,1,1,1,1,0,0,0,0,0,0,0,0,0,0],"id":10,"left_children":[1,3,5,7,9,11,13,-1,15,-1,-1,17,19,21,23,-1,-1,-1,-1,-1,-1,-1,-1,-1,-1],"loss_changes":[2.1419352E1,4.240059E0,1.7426647E1,2.7794724E0,6.832368E0,1.1840192E1,9.931358E0,0E0,2.1500206E0,0E0,0E0,7.6311183E0,7.306596E0,7.0431776E0,7.996439E0,0E0,0E0,0E0,0E0,0E0,0E0,0E0,0E0,0E0,0E0],"parents":[2147483647,0,0,1,1,2,2,3,3,4,4,5,5,6,6,8,8,11,11,12,12,13,13,14,14],"right_children":[2,4,6,8,10,12,14,-1,16,-1,-1,18,20,22,24,-1,-1,-1,-1,-1,-1,-1,-1,-1,-1],"split_conditions":[5.57724E-2,5.2771795E-1,4.8793843E-1,1.3901845E-1,9.9393094E-1,8.885803E-1,1.8132817E-2,-9.640933E-2,6.030647E-1,2.0514272E-1,-2.7274182E-1,2.6487795E-1,4.2237845E-1,4.1240074E-2,5E-1,1.9404472E-1,-3.063108E-2,1.2625706E-1,-3.0429015E-2,-1.7172691E-1,-6.802514E-1,-2.7665478E-1,9.297473E-2,1.1472661E-1,-1.656531E-1],"split_indices":[103,61,92,29,109,21,113,0,58,0,0,58,109,44,118,0,0,0,0,0,0,0,0,0,0],"split_type":[0,0,0,0,0,0,0,0,0,0,0,0,0,0,0,0,0,0,0,0,0,0,0,0,0],"sum_hessian":[2.2841599E2,4.4622013E1,1.8379398E2,4.076418E1,3.857833E0,1.01377464E2,8.241651E1,1.1542069E0,3.9609974E1,2.042072E0,1.815761E0,9.356938E1,7.808081E0,6.889806E0,7.55267E1,3.817556E1,1.434414E0,1.1544207E1,8.202518E1,6.7623653E0,1.0457158E0,4.0456815E0,2.8441246E0,7.207301E1,3.4536924E0],"tree_param":{"num_deleted":"0","num_feature":"200","num_nodes":"25","size_leaf_vector":"0"}},{"base_weights":[2.3334922E-1,-8.7569825E-2,4.8489037E-1,-2.657272E-1,8.029488E-1,1.2670918E-1,7.9661214E-1,-4.541886E-1,2.714335E-1,1.2096646E0,-4.6780613E-1,4.2404926E-1,-6.873558E-1,8.497806E-1,-1.3584982E0,-1.0536011E0,-1.7244355E-1,6.775278E-1,-4.6441633E-1,1.2593378E0,7.167574E-1,3.263244E-1,-2.0025477E0,1.0066184E0,4.2868923E-2,-1.7629607E0,-1.5065822E-1,9.88533E-1,1.9611725E-1],"categories":[],"categories_nodes":[],"categories_segments":[],"categories_sizes":[],"default_left":[1,1,1,1,1,1,1,1,1,1,1,1,1,1,0,0,0,0,0,0,0,0,0,0,0,0,0,0,0],"id":11,"left_children":[1,3,5,7,9,11,13,15,17,19,21,23,25,27,-1,-1,-1,-1,-1,-1,-1,-1,-1,-1,-1,-1,-1,-1,-1],"loss_changes":[1.7683105E1,1.5280327E1,1.3707603E1,8.127352E0,8.316001E0,1.384868E1,7.5575905E0,1.0028638E1,6.243248E0,2.7061844E-1,4.79141E0,9.302852E0,8.829034E0,5.8068123E0,0E0,0E0,0E0,0E0,0E0,0E0,0E0,0E0,0E0,0E0,0E0,0E0,0E0,0E0,0E0],"parents":[2147483647,0,0,1,1,2,2,3,3,4,4,5,5,6,6,7,7,8,8,9,9,10,10,11,11,12,12,13,13],"right_children":[2,4,6,8,10,12,14,16,18,20,22,24,26,28,-1,-1,-1,-1,-1,-1,-1,-1,-1,-1,-1,-1,-1,-1,-1],"split_conditions":[4.520216E-1,5.8132726E-1,2.6427823E-1,4.879247E-1,5.9821117E-1,4.164803E-1,9.5324266E-1,7.606457E-1,9.9999994E-1,9.661137E-1,7.338926E-1,3.2358247E-1,9.848908E-1,9.2152286E-1,-2.4540903E-1,-1.903302E-1,-3.1151462E-2,1.2239356E-1,-8.389556E-2,2.2749597E-1,1.2948029E-1,5.8949623E-2,-3.6175483E-1,1.818429E-1,7.7441554E-3,-3.1847408E-1,-2.7216E-2,1.7857581E-1,3.542805E-2],"split_indices":[45,134,46,44,22,2,99,81,109,12,79,91,85,77,0,0,0,0,0,0,0,0,0,0,0,0,0,0,0],"split_type":[0,0,0,0,0,0,0,0,0,0,0,0,0,0,0,0,0,0,0,0,0,0,0,0,0,0,0,0,0],"sum_hessian":[2.1900905E2,9.624207E1,1.22766975E2,8.0215454E1,1.602662E1,5.7146263E1,6.562071E1,5.9385067E1,2.0830389E1,1.21419525E1,3.884668E0,4.186828E1,1.5277985E1,6.4058716E1,1.562E0,1.896144E1,4.0423626E1,1.3424314E1,7.4060745E0,1.0987474E1,1.1544787E0,2.575764E0,1.308904E0,1.6539957E1,2.5328321E1,5.0625954E0,1.0215389E1,5.2829163E1,1.1229548E1],"tree_param":{"num_deleted":"0","num_feature":"200","num_nodes":"29","size_leaf_vector":"0"}},{"base_weights":[2.0607412E-1,7.9070026E-1,8.6311735E-2,9.001532E-1,-1.6558608E-1,-1.3801572E-1,3.7881264E-1,3.5619447E-1,1.0719192E0,1.2177833E0,-1.2109246E0,1.9228814E-2,-6.912071E-1,4.991491E-1,-4.88095E-1,-1.5453361E0,8.025689E-1,1.104863E0,3.0767104E-1,2.498905E-1,-2.728294E0,-1.09499075E-1,9.073855E-1,9.4265944E-1,-8.413175E-1,6.027666E-1,-6.539694E-1,-1.3307444E0,4.6249098E-1],"categories":[],"categories_nodes":[],"categories_segments":[],"categories_sizes":[],"default_left":[1,1,1,1,1,1,1,1,1,0,1,1,1,1,1,0,0,0,0,0,0,0,0,0,0,0,0,0,0],"id":12,"left_children":[1,3,5,7,9,11,13,15,17,-1,19,21,23,25,27,-1,-1,-1,-1,-1,-1,-1,-1,-1,-1,-1,-1,-1,-1],"loss_changes":[1.4591679E1,3.7134418E0,1.1355085E1,2.9596233E0,5.3444343E0,8.520622E0,7.843009E0,6.553999E0,5.977936E-1,0E0,4.6814995E0,8.72631E0,5.3414E0,7.8943367E0,7.3645144E0,0E0,0E0,0E0,0E0,0E0,0E0,0E0,0E0,0E0,0E0,0E0,0E0,0E0,0E0],"parents":[2147483647,0,0,1,1,2,2,3,3,4,4,5,5,6,6,7,7,8,8,10,10,11,11,12,12,13,13,14,14],"right_children":[2,4,6,8,10,12,14,16,18,-1,20,22,24,26,28,-1,-1,-1,-1,-1,-1,-1,-1,-1,-1,-1,-1,-1,-1],"split_conditions":[5.57724E-2,5.2771795E-1,4.8793843E-1,2.8148156E-1,1.2497379E-1,8.514165E-1,9.9127364E-1,5.819827E-1,8.6568546E-1,2.1998927E-1,6.8426806E-1,9.179127E-1,3.1673193E-1,7.7342796E-1,3.3792034E-1,-2.791608E-1,1.449819E-1,1.9959052E-1,5.557994E-2,4.5142043E-2,-4.9285892E-1,-1.9780712E-2,1.6391675E-1,1.7028888E-1,-1.5198173E-1,1.0888816E-1,-1.1813781E-1,-2.4039538E-1,8.354775E-2],"split_indices":[103,61,92,53,28,67,70,44,13,0,46,11,112,88,10,0,0,0,0,0,0,0,0,0,0,0,0,0,0],"split_type":[0,0,0,0,0,0,0,0,0,0,0,0,0,0,0,0,0,0,0,0,0,0,0,0,0,0,0,0,0],"sum_hessian":[2.0840361E2,3.540453E1,1.7299908E2,3.1770037E1,3.6344905E0,9.791852E1,7.508057E1,7.6468534E0,2.4123184E1,1.5621601E0,2.0723305E0,7.626849E1,2.1650026E1,6.594021E1,9.140354E0,1.4395813E0,6.207272E0,2.3113317E1,1.009866E0,1.0687538E0,1.0035765E0,6.6636856E1,9.631635E0,1.8082249E0,1.98418E1,6.0516758E1,5.4234524E0,4.8388324E0,4.3015223E0],"tree_param":{"num_deleted":"0","num_feature":"200","num_nodes":"29","size_leaf_vector":"0"}},{"base_weights":[1.7925707E-1,2.9107356E-1,-3.7980002E-1,3.7877378E-1,-4.484345E-1,-5.085591E-1,7.0662904E-1,4.6021065E-1,-3.7216452E-1,1.092399E0,-7.0329726E-1,3.1897202E-1,-6.906351E-1,-9.129275E-1,1.696563E0,4.9795574E-1,-9.862505E-1,-3.011608E0,-1.4051503E-1,9.9951945E-2,-1.0379655E0,1.6313386E0,-4.6848544E-1,-8.0110157E-1,1.2547241E0,2.444436E0,7.928665E-1],"categories":[],"categories_nodes":[],"categories_segments":[],"categories_sizes":[],"default_left":[1,1,1,1,1,1,1,1,1,0,1,1,1,0,1,0,0,0,0,0,0,0,0,0,0,0,0],"id":13,"left_children":[1,3,5,7,9,11,13,15,17,-1,19,21,23,-1,25,-1,-1,-1,-1,-1,-1,-1,-1,-1,-1,-1,-1],"loss_changes":[1.2523821E1,1.083101E1,4.682594E0,9.132027E0,6.9784718E0,4.5080748E0,5.7406044E0,7.3666477E0,8.925095E0,0E0,4.0935044E0,5.6125526E0,5.294815E0,0E0,1.4379506E0,0E0,0E0,0E0,0E0,0E0,0E0,0E0,0E0,0E0,0E0,0E0,0E0],"parents":[2147483647,0,0,1,1,2,2,3,3,4,4,5,5,6,6,7,7,8,8,10,10,11,11,12,12,14,14],"right_children":[2,4,6,8,10,12,14,16,18,-1,20,22,24,-1,26,-1,-1,-1,-1,-1,-1,-1,-1,-1,-1,-1,-1],"split_conditions":[8.7591445E-1,9.882643E-1,9.616515E-1,5.784651E-1,3.188138E-1,2.910002E-1,6.1240804E-1,9.8170704E-1,7.0665567E-3,1.9733892E-1,5.0278413E-1,3.9987978E-1,9.9907863E-1,-1.6491789E-1,7.379916E-1,8.995436E-2,-1.781635E-1,-5.4403883E-1,-2.538366E-2,1.8056048E-2,-1.8750568E-1,2.946969E-1,-8.463063E-2,-1.4471683E-1,2.2666253E-1,4.4158077E-1,1.432292E-1],"split_indices":[49,63,71,187,81,17,87,77,4,0,26,129,68,0,36,0,0,0,0,0,0,0,0,0,0,0,0],"split_type":[0,0,0,0,0,0,0,0,0,0,0,0,0,0,0,0,0,0,0,0,0,0,0,0,0,0,0],"sum_hessian":[2.002593E2,1.6689362E2,3.3365677E1,1.4921289E2,1.7680735E1,2.984475E1,3.5209262E0,1.34625E2,1.4587889E1,2.4952629E0,1.5185472E1,5.378179E0,2.446657E1,1.3365875E0,2.1843388E0,1.3122072E2,3.4042697E0,1.147613E0,1.3440275E1,4.4723897E0,1.0713081E1,2.0046854E0,3.3734937E0,2.3168795E1,1.2977765E0,1.1668978E0,1.017441E0],"tree_param":{"num_deleted":"0","num_feature":"200","num_nodes":"27","size_leaf_vector":"0"}},{"base_weights":[1.5492208E-1,7.13741E-1,5.2412525E-2,8.35102E-1,-1.7606606E-1,1.2801576E-1,-5.53815E-1,2.858494E-1,1.0360906E0,-1.4134376E0,7.1549666E-1,4.307099E-2,7.401451E-1,1.1130077E0,-6.610928E-1,6.2498885E-1,-1.6610298E0,1.0788642E0,2.5248277E-1,1.5328552E-1,1.2554376E0,-1.7394905E-1,3.632103E-1,8.648208E-1,-9.684015E-1,-7.812945E-1,9.1333216E-1],"categories":[],"categories_nodes":[],"categories_segments":[],"categories_sizes":[],"default_left":[1,1,1,1,1,1,1,1,1,0,1,1,1,0,1,0,0,0,0,0,0,0,0,0,0,0,0],"id":14,"left_children":[1,3,5,7,9,11,13,15,17,-1,19,21,23,-1,25,-1,-1,-1,-1,-1,-1,-1,-1,-1,-1,-1,-1],"loss_changes":[1.0998615E1,3.2183857E0,7.4403024E0,2.8827648E0,3.9989824E0,7.503189E0,3.2410913E0,4.6926565E0,6.341171E-1,0E0,6.349124E-1,8.809083E0,3.7711945E0,0E0,3.2258773E0,0E0,0E0,0E0,0E0,0E0,0E0,0E0,0E0,0E0,0E0,0E0,0E0],"parents":[2147483647,0,0,1,1,2,2,3,3,4,4,5,5,6,6,7,7,8,8,10,10,11,11,12,12,14,14],"right_children":[2,4,6,8,10,12,14,16,18,-1,20,22,24,-1,26,-1,-1,-1,-1,-1,-1,-1,-1,-1,-1,-1,-1],"split_conditions":[5.57724E-2,5.2771795E-1,8.9214146E-1,2.8148156E-1,2.271789E-1,8.3693576E-1,2.746809E-1,4.5671016E-2,8.851236E-1,-2.553337E-1,8.3195376E-1,3.76661E-1,9.977975E-1,2.0106183E-1,9.9948585E-1,1.1290255E-1,-3.0006054E-1,1.9489391E-1,4.561033E-2,2.7690616E-2,2.2679141E-1,-3.1423427E-2,6.561296E-2,1.5622754E-1,-1.7493911E-1,-1.4113875E-1,1.6499099E-1],"split_indices":[103,61,67,53,2,9,112,103,12,0,30,141,63,0,68,0,0,0,0,0,0,0,0,0,0,0,0],"split_type":[0,0,0,0,0,0,0,0,0,0,0,0,0,0,0,0,0,0,0,0,0,0,0,0,0,0,0],"sum_hessian":[1.9199019E2,2.9731472E1,1.6225871E2,2.6164732E1,3.566739E0,1.4428833E2,1.7970383E1,7.029199E0,1.9135534E1,1.4862567E0,2.0804822E0,1.2673403E2,1.7554295E1,1.069439E0,1.6900944E1,6.0039434E0,1.0252557E0,1.8134222E1,1.0013113E0,1.0383178E0,1.0421644E0,7.553992E1,5.1194115E1,1.6374416E1,1.1798788E0,1.5716351E1,1.1845936E0],"tree_param":{"num_deleted":"0","num_feature":"200","num_nodes":"27","size_leaf_vector":"0"}},{"base_weights":[1.3355148E-1,-1.8802842E-1,2.9095688E-1,-5.195384E-2,-1.0350586E0,1.0085529E0,1.9861108E-1,5.8751667E-1,-2.7307954E-1,-1.4965745E0,-1.7333911E-1,1.1637774E0,1.9958325E-1,-2.0008585E0,2.397115E-1,8.375757E-1,-3.935066E-1,-4.1213515E-1,5.791427E-1,-2.1103492E0,-6.702933E-1,1.2951386E0,-9.533921E-1,1.2982248E0,1.1163616E0,-9.310059E-1,1.1076194E0,5.868807E-1,2.4444313E-4],"categories":[],"categories_nodes":[],"categories_segments":[],"categories_sizes":[],"default_left":[1,1,1,1,1,1,1,1,1,1,1,1,1,0,1,0,0,0,0,0,0,0,0,1,1,0,0,0,0],"id":15,"left_children":[1,3,5,7,9,11,13,15,17,19,21,-1,25,-1,27,-1,-1,-1,-1,-1,-1,-1,-1,-1,-1,-1,-1,-1,-1],"loss_changes":[9.415162E0,7.0444264E0,8.268528E0,7.457216E0,3.3565931E0,1.7797518E0,1.0018906E1,3.3343315E0,4.650531E0,2.7490578E0,3.456714E0,3.2064438E-2,2.4206557E0,0E0,9.033991E0,0E0,0E0,0E0,0E0,0E0,0E0,0E0,0E0,0E0,0E0,0E0,0E0,0E0,0E0],"parents":[2147483647,0,0,1,1,2,2,3,3,4,4,5,5,6,6,7,7,8,8,9,9,10,10,11,11,12,12,14,14],"right_children":[2,4,6,8,10,12,14,16,18,20,22,-1,26,-1,28,-1,-1,-1,-1,-1,-1,-1,-1,-1,-1,-1,-1,-1,-1],"split_conditions":[4.2564172E-1,6.825155E-1,2.5240058E-1,3.0060333E-1,9.871392E-1,7.3309493E-1,5.5530064E-2,9.790317E-1,6.637789E-1,6.3626164E-1,7.083689E-1,2.1023324E-1,6.1133873E-1,-3.614497E-1,3.2145786E-1,1.5130578E-1,-7.10859E-2,-7.4451104E-2,1.0462056E-1,-3.8122886E-1,-1.2108667E-1,2.339633E-1,-1.7222771E-1,2.3452081E-1,2.0166771E-1,-1.681837E-1,2.0008846E-1,1.0601841E-1,4.415799E-5],"split_indices":[199,22,0,91,85,26,26,29,18,86,67,0,199,0,81,0,0,0,0,0,0,0,0,2147483647,2147483647,0,0,0,0],"split_type":[0,0,0,0,0,0,0,0,0,0,0,0,0,0,0,0,0,0,0,0,0,0,0,0,0,0,0,0,0],"sum_hessian":[1.8593954E2,6.1101982E1,1.2483756E2,5.267243E1,8.429556E0,1.4199059E1,1.10638504E2,1.3520975E1,3.915145E1,5.4749417E0,2.9546142E0,1.1901992E1,2.2970665E0,2.002975E0,1.0863553E2,1.0778121E1,2.7428544E0,3.3672802E1,5.4786496E0,3.1143687E0,2.3605733E0,1.0180492E0,1.9365648E0,2.8943405E0,9.007651E0,1.0228035E0,1.2742628E0,4.4327435E1,6.43081E1],"tree_param":{"num_deleted":"2","num_feature":"200","num_nodes":"29","size_leaf_vector":"0"}},{"base_weights":[1.1634839E-1,7.78498E-1,4.9970914E-2,1.0688466E0,-4.8337556E-2,-1.3646823E-1,3.0684087E-1,-1.8039945E0,7.3116034E-1,4.8977576E-2,-5.157653E-1,5.9723634E-1,1.149772E-2,1.0594528E0,8.066377E-2,3.4853047E-1,-3.5344866E-1,-9.3130445E-1,1.4190564E-1,6.8985754E-1,-4.2501897E-1,-1.1790187E0,1.9484177E-1],"categories":[],"categories_nodes":[],"categories_segments":[],"categories_sizes":[],"default_left":[1,1,1,0,1,1,1,0,1,1,1,1,1,0,0,0,0,0,0,0,0,0,0],"id":16,"left_children":[1,3,5,-1,7,9,11,-1,13,15,17,19,21,-1,-1,-1,-1,-1,-1,-1,-1,-1,-1],"loss_changes":[7.8778663E0,3.922203E0,7.8057613E0,0E0,5.88829E0,6.6442223E0,5.8787475E0,0E0,6.340004E-1,7.6539845E0,8.480606E0,3.2813196E0,7.431467E0,0E0,0E0,0E0,0E0,0E0,0E0,0E0,0E0,0E0,0E0],"parents":[2147483647,0,0,1,1,2,2,4,4,5,5,6,6,8,8,9,9,10,10,11,11,12,12],"right_children":[2,4,6,-1,8,10,12,-1,14,16,18,20,22,-1,-1,-1,-1,-1,-1,-1,-1,-1,-1],"split_conditions":[4.0436033E-2,6.4559054E-1,4.8793843E-1,1.9308425E-1,6.9261014E-1,6.313256E-1,2.9971936E-1,-3.2588673E-1,5.079413E-1,4.9893105E-1,6.468158E-1,8.800322E-1,4.1385155E-2,1.9138728E-1,1.4571692E-2,6.296109E-2,-6.3849546E-2,-1.6823764E-1,2.563487E-2,1.246209E-1,-7.677853E-2,-2.1298654E-1,3.519764E-2],"split_indices":[103,88,92,0,20,73,130,0,13,116,73,39,44,0,0,0,0,0,0,0,0,0,0],"split_type":[0,0,0,0,0,0,0,0,0,0,0,0,0,0,0,0,0,0,0,0,0,0,0],"sum_hessian":[1.7923535E2,1.6300795E1,1.6293456E2,1.2057763E1,4.243032E0,9.4418625E1,6.851592E1,1.2923679E0,2.950664E0,6.3431923E1,3.0986708E1,3.453168E1,3.3984245E1,1.9483026E0,1.0023615E0,3.63662E1,2.706572E1,1.8981152E1,1.2005557E1,3.167193E1,2.8597503E0,4.513256E0,2.947099E1],"tree_param":{"num_deleted":"0","num_feature":"200","num_nodes":"23","size_leaf_vector":"0"}},{"base_weights":[1.00997314E-1,-1.0469953E-1,2.863379E-1,-2.439307E-1,6.931966E-1,1.4575237E-2,5.872791E-1,1.0297035E0,-3.0926904E-1,1.1458225E0,-4.6737313E-1,2.9883134E-1,-5.801163E-1,6.6864365E-1,-1.1967682E0,1.3639262E0,2.6294324E-1,-6.673985E-1,-7.6502115E-2,1.2127646E0,6.075606E-1,-1.3446506E0,5.9259766E-1,4.4745028E-1,-1.0471935E0,-3.371612E-1,-1.8992252E0,8.189469E-1,7.594837E-2],"categories":[],"categories_nodes":[],"categories_segments":[],"categories_sizes":[],"default_left":[1,1,1,1,1,1,1,1,1,1,1,1,1,1,0,0,0,0,0,0,0,0,0,0,0,0,0,0,0],"id":17,"left_children":[1,3,5,7,9,11,13,15,17,19,21,23,25,27,-1,-1,-1,-1,-1,-1,-1,-1,-1,-1,-1,-1,-1,-1,-1],"loss_changes":[6.6202226E0,9.149772E0,7.469966E0,5.84389E0,6.444801E0,8.124161E0,6.31581E0,8.676202E-1,5.5595E0,2.9517365E-1,3.2371264E0,6.518799E0,4.9617863E0,3.6925545E0,0E0,0E0,0E0,0E0,0E0,0E0,0E0,0E0,0E0,0E0,0E0,0E0,0E0,0E0,0E0],"parents":[2147483647,0,0,1,1,2,2,3,3,4,4,5,5,6,6,7,7,8,8,9,9,10,10,11,11,12,12,13,13],"right_children":[2,4,6,8,10,12,14,16,18,20,22,24,26,28,-1,-1,-1,-1,-1,-1,-1,-1,-1,-1,-1,-1,-1,-1,-1],"split_conditions":[4.520216E-1,5.8132726E-1,2.6427823E-1,1.9607625E-5,5.9821117E-1,3.89095E-1,7.327362E-1,8.565637E-1,3.8042238E-1,9.5292956E-1,5.6990314E-1,9.8837775E-1,5.8417326E-1,9.2152286E-1,-2.1619293E-1,2.4638958E-1,4.7499985E-2,-1.2056374E-1,-1.38199E-2,2.1908265E-1,1.09754175E-1,-2.4290751E-1,1.07051164E-1,8.0830686E-2,-1.8917269E-1,-6.0907263E-2,-3.430899E-1,1.4794055E-1,1.3719868E-2],"split_indices":[45,134,46,0,22,9,90,78,155,10,6,28,127,77,0,0,0,0,0,0,0,0,0,0,0,0,0,0,0],"split_type":[0,0,0,0,0,0,0,0,0,0,0,0,0,0,0,0,0,0,0,0,0,0,0,0,0,0,0,0,0],"sum_hessian":[1.735956E2,8.228559E1,9.131E1,7.0078186E1,1.2207412E1,4.7997795E1,4.3312202E1,3.3977678E0,6.668041E1,8.782574E0,3.4248383E0,3.248529E1,1.5512505E1,4.1441185E1,1.8710189E0,2.3498476E0,1.0479203E0,2.6244528E1,4.0435886E1,7.7772884E0,1.0052851E0,1.8694549E0,1.5553833E0,2.9273388E1,3.2119033E0,1.3131956E1,2.3805485E0,3.304868E1,8.392508E0],"tree_param":{"num_deleted":"0","num_feature":"200","num_nodes":"29","size_leaf_vector":"0"}},{"base_weights":[8.890852E-2,1.2137684E-1,-9.235462E-1,1.9131362E-1,-3.8236508E-1,-2.2679348E-1,-1.610916E0,3.559041E-1,-1.5028182E-2,-5.124192E-1,1.0578828E0,5.525472E-1,-1.3270221E0,-2.3497283E0,-1.100473E0,4.3655332E-2,7.1875185E-1,-1.340037E0,9.463875E-2,5.585279E-1,-7.0794636E-1],"categories":[],"categories_nodes":[],"categories_segments":[],"categories_sizes":[],"default_left":[1,1,1,1,1,1,1,1,1,1,0,0,0,0,0,0,0,0,0,0,0],"id":18,"left_children":[1,3,5,7,9,11,13,15,17,19,-1,-1,-1,-1,-1,-1,-1,-1,-1,-1,-1],"loss_changes":[5.4878807E0,5.6983175E0,2.4733996E0,4.8224983E0,3.7103434E0,2.261555E0,9.044366E-1,8.948358E0,9.163327E0,3.8037825E0,0E0,0E0,0E0,0E0,0E0,0E0,0E0,0E0,0E0,0E0,0E0],"parents":[2147483647,0,0,1,1,2,2,3,3,4,4,5,5,6,6,7,7,8,8,9,9],"right_children":[2,4,6,8,10,12,14,16,18,20,-1,-1,-1,-1,-1,-1,-1,-1,-1,-1,-1],"split_conditions":[9.729548E-1,9.882643E-1,3.6146587E-1,6.2082046E-1,6.014391E-1,9.631183E-1,9.5047086E-1,5.306123E-1,8.398688E-3,1.3871521E-1,1.9110367E-1,9.981616E-2,-2.3972295E-1,-4.2447206E-1,-1.9879748E-1,7.886218E-3,1.2984058E-1,-2.4207406E-1,1.7096234E-2,1.0089655E-1,-1.278886E-1],"split_indices":[179,63,88,73,44,0,150,52,34,129,0,0,0,0,0,0,0,0,0,0,0],"split_type":[0,0,0,0,0,0,0,0,0,0,0,0,0,0,0,0,0,0,0,0,0],"sum_hessian":[1.6680978E2,1.6165248E2,5.157301E0,1.4196208E2,1.9690401E1,2.58122E0,2.576081E0,7.8958305E1,6.3003784E1,1.8077557E1,1.6128439E0,1.5197862E0,1.0614336E0,1.0078932E0,1.568188E0,4.2456432E1,3.6501873E1,4.790004E0,5.821378E1,2.782234E0,1.5295322E1],"tree_param":{"num_deleted":"0","num_feature":"200","num_nodes":"21","size_leaf_vector":"0"}},{"base_weights":[7.5895846E-2,4.1218985E-2,9.6148694E-1,6.792432E-1,-1.3879068E-2,1.2903159E0,-4.6985245E-1,1.0491849E0,-1.7665309E-1,-9.797825E-1,2.4526818E-2,1.1186788E0,1.9116901E0,1.0507418E0,-1.1481328E0,-1.5561575E0,1.1311105E0,-2.630123E-1,1.6330755E-1],"categories":[],"categories_nodes":[],"categories_segments":[],"categories_sizes":[],"default_left":[1,1,1,1,1,1,0,0,1,1,1,0,0,0,0,0,0,0,0],"id":19,"left_children":[1,3,5,7,9,11,-1,-1,13,15,17,-1,-1,-1,-1,-1,-1,-1,-1],"loss_changes":[4.998501E0,5.5090313E0,2.9051824E0,3.950036E0,5.352873E0,4.6786594E-1,0E0,0E0,4.55033E0,6.7670336E0,5.5396547E0,0E0,0E0,0E0,0E0,0E0,0E0,0E0,0E0],"parents":[2147483647,0,0,1,1,2,2,3,3,4,4,5,5,8,8,9,9,10,10],"right_children":[2,4,6,8,10,12,-1,-1,14,16,18,-1,-1,-1,-1,-1,-1,-1,-1],"split_conditions":[5E-1,4.0436033E-2,5.1658106E-1,6.4559054E-1,2.037156E-2,8.979989E-1,-8.487757E-2,1.8953241E-1,4.5833442E-1,3.3856353E-1,3.8184953E-1,2.020863E-1,3.4534165E-1,1.8981367E-1,-2.0740709E-1,-2.8111565E-1,2.0433207E-1,-4.751246E-2,2.9501067E-2],"split_indices":[162,103,79,88,59,14,0,0,19,91,199,0,0,0,0,0,0,0,0],"split_type":[0,0,0,0,0,0,0,0,0,0,0,0,0,0,0,0,0,0,0],"sum_hessian":[1.6277623E2,1.5667319E2,6.1030416E0,1.2427035E1,1.4424615E2,4.9653277E0,1.1377139E0,8.671943E0,3.755093E0,5.487694E0,1.3875845E2,3.9572473E0,1.0080807E0,1.6579311E0,2.097162E0,4.3169413E0,1.1707524E0,4.516145E1,9.359701E1],"tree_param":{"num_deleted":"0","num_feature":"200","num_nodes":"19","size_leaf_vector":"0"}},{"base_weights":[6.565879E-2,1.2383449E-1,-4.0954286E-1,6.3535124E-2,6.715517E-1,-5.953812E-1,8.271849E-1,1.7640144E-1,-3.784922E-1,-1.1728283E0,8.533138E-1,-1.4961916E-1,-1.1825732E0,3.6210227E-1,1.2710298E0,9.165462E-2,7.786411E-1,1.050168E0,-4.833176E-1,1.0056826E0,-8.083251E-1,-1.0459795E0,2.6903093E-1,-2.2681105E0,-8.7062746E-1],"categories":[],"categories_nodes":[],"categories_segments":[],"categories_sizes":[],"default_left":[1,1,1,1,1,1,1,1,1,0,1,1,1,0,0,0,0,0,0,0,0,0,0,0,0],"id":20,"left_children":[1,3,5,7,9,11,13,15,17,-1,19,21,23,-1,-1,-1,-1,-1,-1,-1,-1,-1,-1,-1,-1],"loss_changes":[4.4122553E0,4.694109E0,4.0160646E0,6.3930798E0,4.755973E0,3.9607158E0,4.5809639E-1,5.2071266E0,3.919038E0,0E0,3.277875E0,3.253899E0,2.1528015E0,0E0,0E0,0E0,0E0,0E0,0E0,0E0,0E0,0E0,0E0,0E0,0E0],"parents":[2147483647,0,0,1,1,2,2,3,3,4,4,5,5,6,6,7,7,8,8,10,10,11,11,12,12],"right_children":[2,4,6,8,10,12,14,16,18,-1,20,22,24,-1,-1,-1,-1,-1,-1,-1,-1,-1,-1,-1,-1],"split_conditions":[8.545904E-1,8.562649E-1,9.365938E-1,9.1172814E-1,2.3713307E-1,2.9971936E-1,9.082621E-1,9.5047086E-1,3.032871E-1,-2.1186827E-1,9.3882054E-1,2.4449132E-1,5.974158E-1,6.54128E-2,2.296081E-1,1.6557159E-2,1.406594E-1,1.8971002E-1,-8.731002E-2,1.8167384E-1,-1.4602175E-1,-1.8895337E-1,4.859971E-2,-4.0972805E-1,-1.572765E-1],"split_indices":[79,8,87,64,39,130,24,150,81,0,1,82,50,0,0,0,0,0,0,0,0,0,0,0,0],"split_type":[0,0,0,0,0,0,0,0,0,0,0,0,0,0,0,0,0,0,0,0,0,0,0,0,0],"sum_hessian":[1.5951709E2,1.421385E2,1.7378592E1,1.280726E2,1.4065904E1,1.5122009E1,2.2565813E0,1.0203696E2,2.603564E1,1.2469822E0,1.2818921E1,8.617898E0,6.504112E0,1.1288464E0,1.127735E0,8.948032E1,1.2556638E1,1.7610202E0,2.427462E1,1.1753166E1,1.0657552E0,2.7291455E0,5.8887525E0,1.4093596E0,5.0947523E0],"tree_param":{"num_deleted":"0","num_feature":"200","num_nodes":"25","size_leaf_vector":"0"}},{"base_weights":[5.642414E-2,2.5988057E-2,8.8732165E-1,1.798976E-1,-1.6605097E-1,1.219265E0,-5.634549E-1,5.386316E-2,8.625037E-1,-3.2012823E-1,4.254642E-1,1.0697775E0,1.6344044E0,1.8096903E-1,-5.1065195E-1,9.930292E-1,-4.5385203E-1,-1.1597331E-1,-7.4188346E-1,8.5561424E-1,-6.4978063E-1],"categories":[],"categories_nodes":[],"categories_segments":[],"categories_sizes":[],"default_left":[1,1,1,1,1,1,0,1,1,1,1,0,0,0,0,0,0,0,0,0,0],"id":21,"left_children":[1,3,5,7,9,11,-1,13,15,17,19,-1,-1,-1,-1,-1,-1,-1,-1,-1,-1],"loss_changes":[3.9435499E0,4.44876E0,2.67447E0,7.186591E0,6.1073112E0,2.2579479E-1,0E0,5.06576E0,2.2507725E0,4.5732965E0,6.423426E0,0E0,0E0,0E0,0E0,0E0,0E0,0E0,0E0,0E0,0E0],"parents":[2147483647,0,0,1,1,2,2,3,3,4,4,5,5,7,7,8,8,9,9,10,10],"right_children":[2,4,6,8,10,12,-1,14,16,18,20,-1,-1,-1,-1,-1,-1,-1,-1,-1,-1],"split_conditions":[5E-1,6.1780477E-1,5.764656E-1,8.203989E-1,9.8930013E-1,9.0027016E-1,-1.0178661E-1,5.8316267E-1,9.505176E-1,8.3352757E-1,8.4151834E-1,1.9325241E-1,2.9525074E-1,3.2691568E-2,-9.2247896E-2,1.7938803E-1,-8.198714E-2,-2.0950265E-2,-1.3401924E-1,1.545644E-1,-1.1738112E-1],"split_indices":[162,73,79,45,85,71,0,133,29,14,69,0,0,0,0,0,0,0,0,0,0],"split_type":[0,0,0,0,0,0,0,0,0,0,0,0,0,0,0,0,0,0,0,0,0],"sum_hessian":[1.5593535E2,1.5045541E2,5.47993E0,8.352019E1,6.693523E1,4.4635105E0,1.0164195E0,7.05304E1,1.2989778E1,5.3114067E1,1.382116E1,3.3616035E0,1.101907E0,5.7585194E1,1.2945211E1,1.1824737E1,1.1650407E0,3.5815784E1,1.7298285E1,9.876349E0,3.944811E0],"tree_param":{"num_deleted":"0","num_feature":"200","num_nodes":"21","size_leaf_vector":"0"}},{"base_weights":[4.8998322E-2,-8.219703E-2,2.4718527E-1,-1.7445395E-2,-1.05114E0,3.400395E-1,-5.061491E-1,1.0916799E0,-5.6420624E-2,5.0214356E-1,-1.3854282E0,4.2142949E-1,-6.387765E-1,6.8618834E-1,-1.261236E0,4.855529E-1,1.4015248E0,-1.2976906E0,-8.973676E-3,-2.6759713E0,-9.267294E-1,6.101843E-1,-8.623634E-3,-1.3073605E0,8.182709E-1,-2.2845505E-1,1.3717425E0,-4.6434405E-1,-2.6834266E0],"categories":[],"categories_nodes":[],"categories_segments":[],"categories_sizes":[],"default_left":[1,1,1,1,1,1,1,1,1,0,1,1,1,1,1,0,0,0,0,0,0,0,0,0,0,0,0,0,0],"id":22,"left_children":[1,3,5,7,9,11,13,15,17,-1,19,21,23,25,27,-1,-1,-1,-1,-1,-1,-1,-1,-1,-1,-1,-1,-1,-1],"loss_changes":[3.9610693E0,5.750954E0,4.249591E0,3.7177682E0,3.002551E0,4.313062E0,6.0317583E0,5.2764964E-1,4.8920336E0,0E0,2.7265415E0,4.0513363E0,4.0853243E0,1.6435851E0,4.602865E0,0E0,0E0,0E0,0E0,0E0,0E0,0E0,0E0,0E0,0E0,0E0,0E0,0E0,0E0],"parents":[2147483647,0,0,1,1,2,2,3,3,4,4,5,5,6,6,7,7,8,8,10,10,11,11,12,12,13,13,14,14],"right_children":[2,4,6,8,10,12,14,16,18,-1,20,22,24,26,28,-1,-1,-1,-1,-1,-1,-1,-1,-1,-1,-1,-1,-1,-1],"split_conditions":[4.8793843E-1,8.885803E-1,5.784651E-1,1.9607642E-5,1.4308824E-1,9.222306E-1,3.2624334E-1,5.25031E-1,1.9607713E-5,9.071088E-2,4.2529145E-1,9.7540855E-1,9.849808E-1,2.2557232E-1,5.171308E-1,8.771382E-2,2.5318167E-1,-2.3442431E-1,-1.6210703E-3,-4.83407E-1,-1.6741116E-1,1.1022815E-1,-1.5578363E-3,-2.3617114E-1,1.4781843E-1,-4.1269787E-2,2.4780157E-1,-8.3882496E-2,-4.8475376E-1],"split_indices":[92,21,187,0,95,24,96,36,0,0,38,70,68,17,23,0,0,0,0,0,0,0,0,0,0,0,0,0,0],"split_type":[0,0,0,0,0,0,0,0,0,0,0,0,0,0,0,0,0,0,0,0,0,0,0,0,0,0,0,0,0],"sum_hessian":[1.5228763E2,9.164102E1,6.0646606E1,8.592951E1,5.711516E0,5.4006546E1,6.6400585E0,2.8892648E0,8.3040245E1,1.0088041E0,4.702712E0,4.987653E1,4.1300173E0,2.57566E0,4.0643983E0,1.0037111E0,1.8855537E0,3.0278606E0,8.001238E1,1.1947067E0,3.5080054E0,3.4653885E1,1.5222645E1,2.8331263E0,1.2968909E0,1.1121234E0,1.4635365E0,2.6306412E0,1.4337573E0],"tree_param":{"num_deleted":"0","num_feature":"200","num_nodes":"29","size_leaf_vector":"0"}},{"base_weights":[4.2136192E-2,7.041801E-2,-8.1513816E-1,2.0002026E-2,5.829419E-1,-1.9033498E-1,-1.489372E0,9.758082E-2,-7.1800023E-1,1.047227E0,-1.5158099E-1,-1.0362185E0,4.557008E-1,-1.9804012E0,-1.0585666E0,1.5498672E-1,-6.756759E-1,5.5445117E-1,-1.0119216E0,1.2101126E0,-5.40424E-2,1.393356E0,-6.786054E-1],"categories":[],"categories_nodes":[],"categories_segments":[],"categories_sizes":[],"default_left":[1,1,1,1,1,1,1,1,1,1,1,0,0,0,0,0,0,0,0,0,0,0,0],"id":23,"left_children":[1,3,5,7,9,11,13,15,17,19,21,-1,-1,-1,-1,-1,-1,-1,-1,-1,-1,-1,-1],"loss_changes":[3.6194067E0,3.7327616E0,1.9998543E0,7.534746E0,4.4169664E0,1.3856382E0,4.2050028E-1,5.289012E0,4.698902E0,1.4246559E0,4.130038E0,0E0,0E0,0E0,0E0,0E0,0E0,0E0,0E0,0E0,0E0,0E0,0E0],"parents":[2147483647,0,0,1,1,2,2,3,3,4,4,5,5,6,6,7,7,8,8,9,9,10,10],"right_children":[2,4,6,8,10,12,14,16,18,20,22,-1,-1,-1,-1,-1,-1,-1,-1,-1,-1,-1,-1],"split_conditions":[9.729548E-1,7.432262E-1,3.6146587E-1,9.999999E-1,7.027834E-1,8.0993974E-1,4.3974262E-1,9.4382733E-1,3.758477E-1,5.504117E-1,3.5133362E-1,-1.8719007E-1,8.232112E-2,-3.577541E-1,-1.912272E-1,2.7997933E-2,-1.2205903E-1,1.0016011E-1,-1.8280092E-1,2.1860357E-1,-9.762613E-3,2.51706E-1,-1.22588225E-1],"split_indices":[179,93,88,109,21,20,29,66,23,99,3,0,0,0,0,0,0,0,0,0,0,0,0],"split_type":[0,0,0,0,0,0,0,0,0,0,0,0,0,0,0,0,0,0,0,0,0,0,0],"sum_hessian":[1.4918105E2,1.4444366E2,4.7373877E0,1.3153624E2,1.2907416E1,2.4790313E0,2.2583563E0,1.1904824E2,1.2488003E1,7.9006076E0,5.0068083E0,1.0655475E0,1.4134839E0,1.004385E0,1.2539713E0,1.1084358E2,8.204654E0,2.3382528E0,1.0149751E1,6.880014E0,1.0205938E0,1.2608392E0,3.745969E0],"tree_param":{"num_deleted":"0","num_feature":"200","num_nodes":"23","size_leaf_vector":"0"}},{"base_weights":[3.6088858E-2,-1.442254E-2,4.780259E-1,9.3625575E-2,-3.1387958E-1,9.7917587E-1,-8.246457E-2,2.0268217E-1,-4.6505523E-1,2.266329E-1,-6.159543E-1,1.1678705E0,-1.6695704E-1,-1.4349961E0,1.5854934E-1,-8.502951E-2,6.055031E-1,1.0601491E0,-6.913899E-1,-7.596116E-1,5.398428E-1,7.168811E-1,-7.92233E-1,1.3779837E0,1.1181498E0,-4.7328892E-1,7.057683E-1],"categories":[],"categories_nodes":[],"categories_segments":[],"categories_sizes":[],"default_left":[1,1,1,1,1,1,1,1,1,1,1,1,0,0,1,0,0,0,0,0,0,0,0,1,1,0,0],"id":24,"left_children":[1,3,5,7,9,11,13,15,17,19,21,-1,-1,-1,25,-1,-1,-1,-1,-1,-1,-1,-1,-1,-1,-1,-1],"loss_changes":[3.2731578E0,4.2592044E0,4.2269993E0,5.896823E0,5.702953E0,1.723671E0,2.3303573E0,9.384377E0,5.4794426E0,3.8845305E0,5.279621E0,2.4504662E-2,0E0,0E0,2.111251E0,0E0,0E0,0E0,0E0,0E0,0E0,0E0,0E0,0E0,0E0,0E0,0E0],"parents":[2147483647,0,0,1,1,2,2,3,3,4,4,5,5,6,6,7,7,8,8,9,9,10,10,11,11,14,14],"right_children":[2,4,6,8,10,12,14,16,18,20,22,-1,-1,-1,26,-1,-1,-1,-1,-1,-1,-1,-1,-1,-1,-1,-1],"split_conditions":[8.940294E-1,7.8647447E-1,6.9117105E-1,5.816565E-1,5.7810545E-1,6.104883E-1,1.4961684E-1,2.5299746E-1,2.979054E-1,2.3479588E-1,1.0548631E-1,2.1097265E-1,-3.0160338E-2,-2.5922817E-1,9.876874E-2,-1.5360352E-2,1.09382495E-1,1.9151306E-1,-1.2489772E-1,-1.3722178E-1,9.752114E-2,1.2950264E-1,-1.4311475E-1,2.4892902E-1,2.0199074E-1,-8.549836E-2,1.2749514E-1],"split_indices":[41,43,15,84,30,44,6,41,103,56,78,86,0,0,199,0,0,0,0,0,0,0,0,2147483647,2147483647,0,0],"split_type":[0,0,0,0,0,0,0,0,0,0,0,0,0,0,0,0,0,0,0,0,0,0,0,0,0,0,0],"sum_hessian":[1.4658817E2,1.3157866E2,1.5009506E1,9.670649E1,3.487217E1,7.9122725E0,7.097234E0,8.092833E1,1.577816E1,1.2504677E1,2.2367493E1,6.793286E0,1.1189868E0,1.0506802E0,6.0465536E0,4.7223343E1,3.3704987E1,2.0244093E0,1.3753751E1,3.0035932E0,9.501083E0,2.601857E0,1.9765636E1,1.1447676E0,5.648518E0,2.8081956E0,3.238358E0],"tree_param":{"num_deleted":"2","num_feature":"200","num_nodes":"27","size_leaf_vector":"0"}},{"base_weights":[3.204142E-2,1.0343457E0,9.742125E-3,3.058143E-2,-1.0403559E0,1.0772594E-1,-2.740462E-1,-1.8196511E0,-1.6214791E-1,4.254015E-1,-2.8444769E-2,-8.825884E-1,1.4336881E-1],"categories":[],"categories_nodes":[],"categories_segments":[],"categories_sizes":[],"default_left":[1,0,1,1,1,1,1,0,0,0,0,0,0],"id":25,"left_children":[1,-1,3,5,7,9,11,-1,-1,-1,-1,-1,-1],"loss_changes":[3.200365E0,0E0,3.0671773E0,3.2303078E0,1.8576035E0,4.7446284E0,7.0595827E0,0E0,0E0,0E0,0E0,0E0,0E0],"parents":[2147483647,0,0,2,2,3,3,4,4,5,5,6,6],"right_children":[2,-1,4,6,8,10,12,-1,-1,-1,-1,-1,-1],"split_conditions":[1.3948342E-2,1.8685177E-1,7.9968345E-1,9.238649E-1,3.031479E-1,2.4286224E-1,1.823542E-1,-3.2871506E-1,-2.9291581E-2,7.6847635E-2,-5.138471E-3,-1.5943721E-1,2.5899189E-2],"split_indices":[38,0,148,0,20,7,72,0,0,0,0,0,0],"split_type":[0,0,0,0,0,0,0,0,0,0,0,0,0],"sum_hessian":[1.4317249E2,3.0859969E0,1.4008649E2,1.3738945E2,2.6970356E0,1.09642914E2,2.7746542E1,1.4117494E0,1.2852863E0,3.2877617E1,7.67653E1,1.1275047E1,1.6471495E1],"tree_param":{"num_deleted":"0","num_feature":"200","num_nodes":"13","size_leaf_vector":"0"}},{"base_weights":[2.7312743E-2,-2.5982514E-2,4.0903178E-1,6.657079E-2,-4.6983904E-1,6.821391E-1,-4.973375E-1,-9.823933E-1,1.00610375E-1,-1.0341147E0,-6.480156E-2,2.1922357E-2,1.1184176E0,-1.0609128E0,4.3627948E-1,1.079338E-2,-2.3230996E0,9.65152E-1,2.202576E-2,-1.3402466E0,6.0040283E-1,3.9151588E-1,-1.0207508E0,-6.282477E-1,7.921207E-1,2.2362273E0,9.113842E-1,-1.1522514E0,-9.0374553E-1],"categories":[],"categories_nodes":[],"categories_segments":[],"categories_sizes":[],"default_left":[1,1,1,1,1,1,1,1,1,1,1,1,1,1,0,0,0,0,0,0,0,0,0,0,0,0,0,1,1],"id":26,"left_children":[1,3,5,7,9,11,13,15,17,19,21,23,25,-1,-1,-1,-1,-1,-1,-1,-1,-1,-1,-1,-1,-1,-1,-1,-1],"loss_changes":[2.8772404E0,5.0997663E0,4.2993755E0,3.671062E0,4.8934116E0,3.8381658E0,2.1342926E0,4.3039627E0,6.76122E0,4.501939E0,5.465469E0,2.6861024E0,1.7951288E0,4.5785904E-3,0E0,0E0,0E0,0E0,0E0,0E0,0E0,0E0,0E0,0E0,0E0,0E0,0E0,0E0,0E0],"parents":[2147483647,0,0,1,1,2,2,3,3,4,4,5,5,6,6,7,7,8,8,9,9,10,10,11,11,12,12,13,13],"right_children":[2,4,6,8,10,12,14,16,18,20,22,24,26,-1,-1,-1,-1,-1,-1,-1,-1,-1,-1,-1,-1,-1,-1,-1,-1],"split_conditions":[8.368938E-1,6.8080163E-1,8.212757E-1,5.5530064E-2,3.813967E-1,9.953209E-1,1.02081805E-1,2.3505095E-1,2.1547772E-1,8.4794676E-1,8.4088814E-1,8.151304E-1,2.443139E-1,-1.9165105E-1,7.881271E-2,1.949795E-3,-4.1966167E-1,1.7435211E-1,3.978894E-3,-2.4211192E-1,1.0846115E-1,7.072628E-2,-1.8439586E-1,-1.13491245E-1,1.4309447E-1,4.0396842E-1,1.646391E-1,-2.081511E-1,-1.632592E-1],"split_indices":[9,8,21,26,38,68,199,18,26,39,69,35,76,7,0,0,0,0,0,0,0,0,0,0,0,0,0,2147483647,2147483647],"split_type":[0,0,0,0,0,0,0,0,0,0,0,0,0,0,0,0,0,0,0,0,0,0,0,0,0,0,0,0,0],"sum_hessian":[1.4138434E2,1.240876E2,1.7296738E1,1.0269859E2,2.1389013E1,1.32974615E1,3.999275E0,3.201308E0,9.9497284E1,8.917914E0,1.2471099E1,5.303544E0,7.993918E0,2.4912877E0,1.5079873E0,1.8562824E0,1.3450257E0,8.261929E0,9.123535E1,7.515745E0,1.4021686E0,8.453685E0,4.017414E0,2.8788865E0,2.4246573E0,1.2027217E0,6.791196E0,1.4540576E0,1.0372303E0],"tree_param":{"num_deleted":"2","num_feature":"200","num_nodes":"29","size_leaf_vector":"0"}},{"base_weights":[2.3512745E-2,9.26013E-1,3.5384303E-4,1.2391052E0,2.557142E-1,-1.5640129E-1,1.3463303E-1,1.0772187E0,1.4146817E0,-2.659256E-1,5.656136E-1,-8.466595E-2,4.159284E-1,1.6215819E-1,-4.5948187E-1,1.089598E0,-6.2859154E-1,-5.471598E-1,2.1603103E-1,8.212975E-1,1.3557908E-1],"categories":[],"categories_nodes":[],"categories_segments":[],"categories_sizes":[],"default_left":[1,1,1,1,0,1,1,1,1,1,1,1,1,0,0,0,0,0,0,0,0],"id":27,"left_children":[1,3,5,-1,-1,9,11,-1,-1,13,15,17,19,-1,-1,-1,-1,-1,-1,-1,-1],"loss_changes":[2.9097607E0,7.2134113E-1,2.858352E0,2.0986557E-2,0E0,4.959136E0,4.512997E0,0E0,0E0,4.5116153E0,5.1907187E0,5.72286E0,3.6385574E0,0E0,0E0,0E0,0E0,0E0,0E0,0E0,0E0],"parents":[2147483647,0,0,1,1,2,2,3,3,5,5,6,6,9,9,10,10,11,11,12,12],"right_children":[2,4,6,-1,-1,10,12,-1,-1,14,16,18,20,-1,-1,-1,-1,-1,-1,-1,-1],"split_conditions":[1.9607625E-5,8.8531005E-1,4.2475933E-1,2.2384101E-1,4.619408E-2,5.8132726E-1,2.594941E-1,1.9459663E-1,2.5555843E-1,6.7110825E-1,5.9821117E-1,2.7770406E-1,3.947314E-1,2.9293438E-2,-8.3004154E-2,1.9683293E-1,-1.1355336E-1,-9.884294E-2,3.9025422E-2,1.4836518E-1,2.4491994E-2],"split_indices":[0,78,45,79,0,134,46,2147483647,2147483647,112,22,41,23,0,0,0,0,0,0,0,0],"split_type":[0,0,0,0,0,0,0,0,0,0,0,0,0,0,0,0,0,0,0,0,0],"sum_hessian":[1.3918745E2,3.4526966E0,1.3573476E2,2.3358638E0,1.1168329E0,6.262379E1,7.311096E1,1.3279997E0,1.007864E0,5.4392097E1,8.231693E0,4.1094616E1,3.2016346E1,1.6937256E1,3.745484E1,5.7231836E0,2.5085094E0,1.618148E1,2.4913137E1,1.30656185E1,1.8950727E1],"tree_param":{"num_deleted":"2","num_feature":"200","num_nodes":"21","size_leaf_vector":"0"}},{"base_weights":[2.1607846E-2,1.0239456E0,2.8549817E-3,-2.2696981E-2,7.676354E-1,-1.24798976E-1,2.0825489E-1,1.1579269E0,-3.7628257E-1,-1.5321773E-1,1.2222507E0,4.4837254E-1,-3.3056158E-1,1.020275E0,1.404195E0],"categories":[],"categories_nodes":[],"categories_segments":[],"categories_sizes":[],"default_left":[1,0,1,1,1,1,1,1,0,0,0,0,0,1,1],"id":28,"left_children":[1,-1,3,5,7,9,11,-1,-1,-1,-1,-1,-1,-1,-1],"loss_changes":[2.5721023E0,0E0,2.6261582E0,3.0673544E0,1.9530344E0,3.4585724E0,5.163967E0,6.6571236E-2,0E0,0E0,0E0,0E0,0E0,0E0,0E0],"parents":[2147483647,0,0,2,2,3,3,4,4,5,5,6,6,7,7],"right_children":[2,-1,4,6,8,10,12,-1,-1,-1,-1,-1,-1,-1,-1],"split_conditions":[1.3948342E-2,1.84973E-1,5E-1,9.8623234E-1,5.1658106E-1,9.9469423E-1,8.7591445E-1,2.0917638E-1,-6.797443E-2,-2.767837E-2,2.2079629E-1,8.099729E-2,-5.9715055E-2,1.8430991E-1,2.5366402E-1],"split_indices":[38,0,162,68,79,26,49,73,0,0,0,0,0,2147483647,2147483647],"split_type":[0,0,0,0,0,0,0,0,0,0,0,0,0,0,0],"sum_hessian":[1.368128E2,2.4827552E0,1.3433005E2,1.3001555E2,4.314495E0,9.01673E1,3.984826E1,3.2166483E0,1.0978466E0,8.833068E1,1.8366133E0,2.7567995E1,1.2280264E1,2.1634805E0,1.0531679E0],"tree_param":{"num_deleted":"2","num_feature":"200","num_nodes":"15","size_leaf_vector":"0"}},{"base_weights":[1.9209571E-2,1.2857493E0,4.5409473E-3,-1.3825299E-1,1.5599169E-1,2.3810077E-1,-2.8778097E-1,-2.8876752E-1,3.408051E-1,-1.1024378E-1,9.161639E-1,-1.8640523E-1,-1.2157288E0,2.8608105E-1,-7.642169E-1,4.9129215E-1,-3.0624756E-1],"categories":[],"categories_nodes":[],"categories_segments":[],"categories_sizes":[],"default_left":[1,0,1,1,1,1,1,1,1,0,0,0,0,0,0,0,0],"id":29,"left_children":[1,-1,3,5,7,9,11,13,15,-1,-1,-1,-1,-1,-1,-1,-1],"loss_changes":[2.511835E0,0E0,2.8919652E0,3.8755162E0,5.337181E0,4.6296434E0,4.62827E0,5.217744E0,4.469966E0,0E0,0E0,0E0,0E0,0E0,0E0,0E0,0E0],"parents":[2147483647,0,0,2,2,3,3,4,4,5,5,6,6,7,7,8,8],"right_children":[2,-1,4,6,8,10,12,14,16,-1,-1,-1,-1,-1,-1,-1,-1],"split_conditions":[2.7262938E-1,2.3226714E-1,4.197629E-1,4.637138E-2,6.062174E-1,2.8468293E-1,9.779293E-1,3.296706E-1,9.065503E-1,-1.9915242E-2,1.6550253E-1,-3.36736E-2,-2.1961811E-1,5.1679768E-2,-1.3805372E-1,8.87506E-2,-5.5322796E-2],"split_indices":[112,0,78,35,20,125,70,35,69,0,0,0,0,0,0,0,0],"split_type":[0,0,0,0,0,0,0,0,0,0,0,0,0,0,0,0,0],"sum_hessian":[1.3518175E2,1.5175887E0,1.3366415E2,6.879964E1,6.4864525E1,1.9557201E1,4.924244E1,1.90362E1,4.5828323E1,1.2936614E1,6.620587E0,4.4425526E1,4.8169136E0,8.62278E0,1.0413421E1,3.7186954E1,8.641367E0],"tree_param":{"num_deleted":"0","num_feature":"200","num_nodes":"17","size_leaf_vector":"0"}},{"base_weights":[1.6948871E-2,4.1155513E-2,-7.043374E-1,9.707257E-1,1.8590553E-2,-1.3176042E-1,-1.3379532E0,2.6966435E-1,1.6653731E0,-2.3992538E-2,4.8680964E-1,-7.1357334E-1,4.619557E-1,-1.5897913E0,-1.0453128E0,1.7378002E-2,-8.2111794E-1,-9.784016E-2,9.762609E-1],"categories":[],"categories_nodes":[],"categories_segments":[],"categories_sizes":[],"default_left":[1,1,1,1,1,1,1,0,0,1,1,0,0,0,0,0,0,0,0],"id":30,"left_children":[1,3,5,7,9,11,13,-1,-1,15,17,-1,-1,-1,-1,-1,-1,-1,-1],"loss_changes":[2.3281736E0,2.7051928E0,1.5654624E0,1.4748294E0,2.511941E0,8.073053E-1,1.0077405E-1,0E0,0E0,3.8092039E0,3.0083635E0,0E0,0E0,0E0,0E0,0E0,0E0,0E0,0E0],"parents":[2147483647,0,0,1,1,2,2,3,3,4,4,5,5,6,6,9,9,10,10],"right_children":[2,4,6,8,10,12,14,-1,-1,16,18,-1,-1,-1,-1,-1,-1,-1,-1],"split_conditions":[9.729548E-1,3.1862038E-1,3.6146587E-1,1.2582868E-1,7.432262E-1,4.6846312E-1,8.8669115E-1,4.8714135E-2,3.0084515E-1,9.4382733E-1,2.176478E-1,-1.289051E-1,8.345105E-2,-2.871915E-1,-1.8883292E-1,3.139289E-3,-1.4833273E-1,-1.767456E-2,1.763589E-1],"split_indices":[179,112,88,38,93,67,67,0,0,66,28,0,0,0,0,0,0,0,0],"split_type":[0,0,0,0,0,0,0,0,0,0,0,0,0,0,0,0,0,0,0],"sum_hessian":[1.332635E2,1.2896405E2,4.2994537E0,3.0261307E0,1.2593791E2,2.277777E0,2.021677E0,1.5270859E0,1.4990448E0,1.15465454E2,1.0472456E1,1.1473341E0,1.1304429E0,1.0142738E0,1.0074033E0,1.09796715E2,5.6687384E0,4.7831926E0,5.6892633E0],"tree_param":{"num_deleted":"0","num_feature":"200","num_nodes":"19","size_leaf_vector":"0"}},{"base_weights":[1.4131015E-2,8.962822E-1,-6.57972E-3,1.2242548E0,2.535076E-1,-1.13748014E-1,1.6356722E-1,1.088681E0,-1.4615741E-1,-6.2031233E-1,2.5064233E-1,-1.7653069E-1,1.060122E0,9.663217E-2,-1.4213003E0,-6.18742E-2,5.2792454E-1],"categories":[],"categories_nodes":[],"categories_segments":[],"categories_sizes":[],"default_left":[1,1,1,0,0,1,1,0,1,1,1,0,0,0,0,0,0],"id":31,"left_children":[1,3,5,-1,-1,7,9,-1,11,13,15,-1,-1,-1,-1,-1,-1],"loss_changes":[2.4057474E0,6.273365E-1,2.3469071E0,0E0,0E0,3.0821962E0,3.3997593E0,0E0,2.8239894E0,2.8648868E0,3.8821468E0,0E0,0E0,0E0,0E0,0E0,0E0],"parents":[2147483647,0,0,1,1,2,2,5,5,6,6,8,8,9,9,10,10],"right_children":[2,4,6,-1,-1,8,10,-1,12,14,16,-1,-1,-1,-1,-1,-1],"split_conditions":[1.9607625E-5,2.1831786E-2,4.8793843E-1,2.2115833E-1,4.5795467E-2,9.451342E-2,1.8132817E-2,1.9666728E-1,9.537308E-1,1.4738622E-1,5.34716E-1,-3.1889793E-2,1.9150817E-1,1.745634E-2,-2.5675407E-1,-1.1177407E-2,9.536814E-2],"split_indices":[0,113,92,0,0,39,113,0,199,46,21,0,0,0,0,0,0],"split_type":[0,0,0,0,0,0,0,0,0,0,0,0,0,0,0,0,0],"sum_hessian":[1.3163689E2,2.9901962E0,1.286467E2,1.9617535E0,1.0284427E0,7.893746E1,4.970923E1,2.0458157E0,7.689165E1,4.9511714E0,4.4758057E1,7.50284E1,1.8632483E0,2.6267276E0,2.3244438E0,2.1053183E1,2.3704876E1],"tree_param":{"num_deleted":"0","num_feature":"200","num_nodes":"17","size_leaf_vector":"0"}},{"base_weights":[1.2997332E-2,-5.3913146E-1,4.177748E-2,9.754309E-1,-1.1538329E0,1.0927771E0,8.481441E-3,-1.731469E-1,-1.9061353E0,1.1813867E0,8.1978506E-1,-6.0996756E-2,3.3247605E-1,4.6270812E-1,-8.060358E-1,-1.2756606E0,-2.6136491E0,1.0431875E0,1.3055825E0,-1.3075353E0,-3.0587282E-2,4.4013736E-1,-1.4789293E0],"categories":[],"categories_nodes":[],"categories_segments":[],"categories_sizes":[],"default_left":[1,1,1,0,1,1,1,1,1,1,1,1,1,0,0,0,0,1,1,0,0,0,0],"id":32,"left_children":[1,3,5,-1,7,-1,11,13,15,-1,-1,19,21,-1,-1,-1,-1,-1,-1,-1,-1,-1,-1],"loss_changes":[2.0720246E0,6.0486813E0,4.3362694E0,0E0,3.390462E0,6.263542E-2,2.7052116E0,8.299534E-1,1.0609016E0,6.7710876E-3,0E0,3.7499368E0,4.158041E0,0E0,0E0,0E0,0E0,0E0,0E0,0E0,0E0,0E0,0E0],"parents":[2147483647,0,0,1,1,2,2,4,4,5,5,6,6,7,7,8,8,9,9,11,11,12,12],"right_children":[2,4,6,-1,8,-1,12,14,16,-1,-1,20,22,-1,-1,-1,-1,-1,-1,-1,-1,-1,-1],"split_conditions":[7.0727346E-3,9.0262145E-2,2.0481615E-1,1.7620896E-1,2.2297373E-1,1.9740723E-1,7.113979E-1,8.3965576E-1,9.3824077E-1,2.1341431E-1,1.4809196E-1,9.149072E-3,7.3476434E-1,8.358697E-2,-1.4560819E-1,-2.3044465E-1,-4.7214866E-1,1.8844901E-1,2.3584996E-1,-2.3620272E-1,-5.52551E-3,7.950962E-2,-2.671646E-1],"split_indices":[35,99,36,0,22,27,44,41,28,2147483647,2147483647,61,36,0,0,0,0,2147483647,2147483647,0,0,0,0],"split_type":[0,0,0,0,0,0,0,0,0,0,0,0,0,0,0,0,0,0,0,0,0,0,0],"sum_hessian":[1.303221E2,6.42991E0,1.2389218E2,1.8511182E0,4.578792E0,3.7747614E0,1.20117424E2,2.003897E0,2.5748951E0,2.7735035E0,1.0012578E0,9.892773E1,2.1189695E1,1.0036695E0,1.0002273E0,1.4065644E0,1.1683307E0,1.4477926E0,1.3257109E0,2.3255243E0,9.66022E1,2.0022625E1,1.1670709E0],"tree_param":{"num_deleted":"4","num_feature":"200","num_nodes":"23","size_leaf_vector":"0"}},{"base_weights":[1.1783825E-2,-2.9904952E-2,4.036509E-1,-8.728699E-2,3.9973244E-1,9.008168E-1,-1.02156855E-1,-4.785825E-2,-1.0637498E0,8.031895E-1,-1.0776883E-1,1.1571773E0,-1.363649E-1,-1.1302578E0,3.3523774E-1,-2.0863867E-1,1.6595066E-1,-1.4550889E0,-4.912613E-2,-3.9093077E-2,1.0909525E0,8.7477964E-1,-5.501449E-1,1.097195E0,1.3395156E0,1.1396115E0,-3.117685E-1],"categories":[],"categories_nodes":[],"categories_segments":[],"categories_sizes":[],"default_left":[1,1,1,1,1,1,1,1,1,1,1,1,0,0,1,0,0,0,0,0,0,0,0,1,1,0,0],"id":33,"left_children":[1,3,5,7,9,11,13,15,17,19,21,-1,-1,-1,25,-1,-1,-1,-1,-1,-1,-1,-1,-1,-1,-1,-1],"loss_changes":[2.1078176E0,2.876307E0,3.1226509E0,3.9605627E0,2.81734E0,1.6692224E0,2.7892225E0,3.4025128E0,1.5831704E0,1.8583989E0,2.6725523E0,1.0306358E-2,0E0,0E0,2.2782264E0,0E0,0E0,0E0,0E0,0E0,0E0,0E0,0E0,0E0,0E0,0E0,0E0],"parents":[2147483647,0,0,1,1,2,2,3,3,4,4,5,5,6,6,7,7,8,8,9,9,10,10,11,11,14,14],"right_children":[2,4,6,8,10,12,14,16,18,20,22,-1,-1,-1,26,-1,-1,-1,-1,-1,-1,-1,-1,-1,-1,-1,-1],"split_conditions":[8.940294E-1,8.368938E-1,5.73125E-1,7.5429714E-1,8.4732616E-1,9.1158324E-1,3.6078566E-1,4.197629E-1,7.238133E-1,3.7286097E-1,2.8900702E-2,2.0904095E-1,-2.4633951E-2,-2.0417802E-1,5.7077706E-1,-3.7690014E-2,2.9978538E-2,-2.6285788E-1,-8.874503E-3,-7.062059E-3,1.9707763E-1,1.5802658E-1,-9.938219E-2,1.9820532E-1,2.4197987E-1,2.0586774E-1,-5.632014E-2],"split_indices":[41,9,82,47,67,17,21,78,41,21,46,0,0,0,7,0,0,0,0,0,0,0,0,2147483647,2147483647,0,0],"split_type":[0,0,0,0,0,0,0,0,0,0,0,0,0,0,0,0,0,0,0,0,0,0,0,0,0,0,0],"sum_hessian":[1.2897238E2,1.1659629E2,1.2376087E1,1.0287993E2,1.371636E1,6.2294183E0,6.146669E0,9.8917564E1,3.9623632E0,7.63164E0,6.08472E0,4.9920335E0,1.2373849E0,1.8202049E0,4.326464E0,5.6460823E1,4.245674E1,2.8499558E0,1.1124077E0,1.9500464E0,5.6815934E0,1.8798212E0,4.204899E0,3.9166222E0,1.0754112E0,1.9183873E0,2.4080768E0],"tree_param":{"num_deleted":"2","num_feature":"200","num_nodes":"27","size_leaf_vector":"0"}},{"base_weights":[1.0859407E-2,1.0129541E0,-4.6316115E-3,-4.793119E-1,2.9784106E-2,-9.4887036E-1,6.040538E-1,-3.301566E-2,4.9666616E-1,-2.1379225E0,3.1708142E-1,1.1586144E0,-2.611858E-1,2.2633815E-1,-1.3498773E-1,-4.2046964E-2,9.885862E-1],"categories":[],"categories_nodes":[],"categories_segments":[],"categories_sizes":[],"default_left":[1,0,1,1,1,1,1,1,1,0,0,0,0,0,0,0,0],"id":34,"left_children":[1,-1,3,5,7,9,11,13,15,-1,-1,-1,-1,-1,-1,-1,-1],"loss_changes":[1.9762855E0,0E0,2.0489001E0,4.33044E0,3.429307E0,8.941892E0,1.2481959E0,2.7277899E0,3.6760588E0,0E0,0E0,0E0,0E0,0E0,0E0,0E0,0E0],"parents":[2147483647,0,0,2,2,3,3,4,4,5,5,6,6,7,7,8,8],"right_children":[2,-1,4,6,8,10,12,14,16,-1,-1,-1,-1,-1,-1,-1,-1],"split_conditions":[1.3948342E-2,1.8298742E-1,1.7746557E-2,9.293655E-1,7.113979E-1,1.1253521E-1,2.2751205E-2,6.369555E-1,6.758486E-1,-3.8620993E-1,5.7279903E-2,2.0930056E-1,-4.7182508E-2,4.0887374E-2,-2.4385167E-2,-7.5956704E-3,1.7858543E-1],"split_indices":[38,0,38,30,44,1,5,112,199,0,0,0,0,0,0,0,0],"split_type":[0,0,0,0,0,0,0,0,0,0,0,0,0,0,0,0,0],"sum_hessian":[1.2726944E2,1.9077232E0,1.2536172E2,8.448153E0,1.1691356E2,5.8963146E0,2.5518382E0,1.0307698E2,1.3836583E1,3.0297291E0,2.8665855E0,1.5488497E0,1.0029883E0,2.9079538E1,7.399744E1,6.617423E0,7.2191596E0],"tree_param":{"num_deleted":"0","num_feature":"200","num_nodes":"17","size_leaf_vector":"0"}},{"base_weights":[1.0771208E-2,-2.3966604E-3,1.1198442E0,-6.480419E-1,2.1693572E-2,-1.4672636E0,1.5318364E-1,8.683914E-1,-2.9241242E-3,-3.7333742E-1,-2.525811E0,1.154655E0,-7.0985746E-1,1.1737735E0,1.4777167E-1,8.530624E-1,-2.783528E-2],"categories":[],"categories_nodes":[],"categories_segments":[],"categories_sizes":[],"default_left":[1,1,0,1,1,1,1,1,1,0,0,0,0,0,0,0,0],"id":35,"left_children":[1,3,-1,5,7,9,11,13,15,-1,-1,-1,-1,-1,-1,-1,-1],"loss_changes":[1.843752E0,1.9414065E0,0E0,2.9537988E0,2.5082564E0,2.5453005E0,2.0104268E0,7.429242E-1,2.4947762E0,0E0,0E0,0E0,0E0,0E0,0E0,0E0,0E0],"parents":[2147483647,0,0,1,1,3,3,4,4,5,5,6,6,7,7,8,8],"right_children":[2,4,-1,6,8,10,12,14,16,-1,-1,-1,-1,-1,-1,-1,-1],"split_conditions":[9.995916E-1,5.506867E-2,2.0229682E-1,3.6237994E-1,4.601257E-2,2.0346196E-1,9.970918E-1,5.8407795E-1,1.02916956E-1,-6.7442395E-2,-4.5628092E-1,2.085853E-1,-1.2823384E-1,2.1203902E-1,2.6694553E-2,1.5410341E-1,-5.028368E-3],"split_indices":[197,26,0,34,28,35,85,82,39,0,0,0,0,0,0,0,0],"split_type":[0,0,0,0,0,0,0,0,0,0,0,0,0,0,0,0,0],"sum_hessian":[1.2621209E2,1.2476109E2,1.4509974E0,4.4593687E0,1.2030173E2,2.1924543E0,2.2669146E0,3.3695648E0,1.1693216E2,1.0984013E0,1.0940531E0,1.0445625E0,1.2223521E0,2.3532255E0,1.0163393E0,3.278217E0,1.13653946E2],"tree_param":{"num_deleted":"0","num_feature":"200","num_nodes":"17","size_leaf_vector":"0"}},{"base_weights":[9.677558E-3,7.4988705E-1,-9.392592E-3,5.332022E-2,1.1427145E0,-8.590936E-2,1.8182899E-1,-1.6346466E-2,-5.4143476E-1,3.8228068E-1,-2.90041E-1,-8.593309E-2,8.026764E-1,8.288232E-1,-7.393379E-1,-6.7813236E-1,5.2235955E-1,-6.085071E-1,4.1841397E-1],"categories":[],"categories_nodes":[],"categories_segments":[],"categories_sizes":[],"default_left":[1,1,1,0,0,1,1,1,1,1,1,0,0,0,0,0,0,0,0],"id":36,"left_children":[1,3,5,-1,-1,7,9,11,13,15,17,-1,-1,-1,-1,-1,-1,-1,-1],"loss_changes":[1.7688699E0,8.59339E-1,1.7881372E0,0E0,0E0,2.7654684E0,3.3069942E0,4.3192954E0,3.153943E0,3.653959E0,2.361074E0,0E0,0E0,0E0,0E0,0E0,0E0,0E0,0E0],"parents":[2147483647,0,0,1,1,2,2,5,5,6,6,7,7,8,8,9,9,10,10],"right_children":[2,4,6,-1,-1,8,10,12,14,16,18,-1,-1,-1,-1,-1,-1,-1,-1],"split_conditions":[1.9607642E-5,8.3199674E-1,9.8623234E-1,9.632154E-3,2.0642829E-1,9.999999E-1,8.7591445E-1,9.998772E-1,7.2240055E-2,1.6592799E-1,4.0527296E-1,-1.5523581E-2,1.4500132E-1,1.4972468E-1,-1.3355939E-1,-1.2250278E-1,9.436284E-2,-1.09925166E-1,7.558535E-2],"split_indices":[0,112,68,0,0,109,49,109,99,27,19,0,0,0,0,0,0,0,0],"split_type":[0,0,0,0,0,0,0,0,0,0,0,0,0,0,0,0,0,0,0],"sum_hessian":[1.25264435E2,3.1169574E0,1.2214748E2,1.1363883E0,1.9805691E0,8.7251E1,3.4896477E1,7.571941E1,1.15315895E1,2.4496202E1,1.0400274E1,6.98149E1,5.904508E0,1.4430801E0,1.008851E1,2.8447201E0,2.1651484E1,7.177931E0,3.222344E0],"tree_param":{"num_deleted":"0","num_feature":"200","num_nodes":"19","size_leaf_vector":"0"}},{"base_weights":[9.117912E-3,1.0048459E0,-3.9308155E-3,-3.9473942E-1,3.6099024E-2,7.92637E-1,-7.7226543E-1,7.175575E-1,-3.549778E-2,1.1461527E0,1.792165E-1,-4.962511E-1,-2.0577948E0,1.0440447E0,1.8627116E-1,-1.7388209E0,-1.290807E-2],"categories":[],"categories_nodes":[],"categories_segments":[],"categories_sizes":[],"default_left":[1,0,1,1,1,1,1,1,1,0,0,0,0,0,0,0,0],"id":37,"left_children":[1,-1,3,5,7,9,11,13,15,-1,-1,-1,-1,-1,-1,-1,-1],"loss_changes":[1.6072417E0,0E0,1.9108987E0,5.105948E0,5.406857E0,5.907252E-1,3.0298772E0,1.8216419E0,3.85848E0,0E0,0E0,0E0,0E0,0E0,0E0,0E0,0E0],"parents":[2147483647,0,0,2,2,3,3,4,4,5,5,6,6,7,7,8,8],"right_children":[2,-1,4,6,8,10,12,14,16,-1,-1,-1,-1,-1,-1,-1,-1],"split_conditions":[1.3948342E-2,1.815227E-1,1.368208E-2,9.783299E-2,4.3282896E-2,7.135959E-1,6.827041E-1,9.115163E-1,4.8828848E-2,2.070494E-1,3.2374978E-2,-8.964642E-2,-3.7173507E-1,1.8860386E-1,3.364938E-2,-3.141133E-1,-2.331808E-3],"split_indices":[38,0,32,99,7,44,199,26,7,0,0,0,0,0,0,0,0],"split_type":[0,0,0,0,0,0,0,0,0,0,0,0,0,0,0,0,0],"sum_hessian":[1.2366049E2,1.5697455E0,1.22090744E2,1.1318668E1,1.1077208E2,2.7225244E0,8.596144E0,1.0505646E1,1.0026643E2,1.7104293E0,1.012095E0,7.1113453E0,1.4847982E0,6.4888177E0,4.0168285E0,1.2821606E0,9.898427E1],"tree_param":{"num_deleted":"0","num_feature":"200","num_nodes":"17","size_leaf_vector":"0"}},{"base_weights":[8.468259E-3,1.2859583E-1,-1.0751353E-1,-1.8935572E-2,5.9442216E-1,-3.0754763E-1,2.1585779E-1,1.7200066E-1,-4.158927E-1,-7.387819E-1,7.6852256E-1,8.560884E-1,-3.9474815E-1,9.626548E-1,5.633605E-2,9.8024195E-1,-1.80391E-2,1.0278827E0,-6.2235504E-1,-6.237229E-1,9.607011E-1,5.026164E-2,1.3285409E0,-5.3559005E-1,5.239007E-1,1.1057113E0,5.1570565E-1,-1.1772668E0,2.6171783E-1],"categories":[],"categories_nodes":[],"categories_segments":[],"categories_sizes":[],"default_left":[1,1,1,1,1,1,1,1,1,0,1,1,1,1,1,0,0,0,0,0,0,0,0,0,0,0,0,0,0],"id":38,"left_children":[1,3,5,7,9,11,13,15,17,-1,19,21,23,25,27,-1,-1,-1,-1,-1,-1,-1,-1,-1,-1,-1,-1,-1,-1],"loss_changes":[1.7118392E0,4.148061E0,4.0456657E0,3.4785016E0,3.3869648E0,3.9304535E0,2.8466077E0,4.7606897E0,4.462431E0,0E0,3.4578729E0,1.0269983E0,4.6613874E0,2.5162745E-1,5.0088434E0,0E0,0E0,0E0,0E0,0E0,0E0,0E0,0E0,0E0,0E0,0E0,0E0,0E0,0E0],"parents":[2147483647,0,0,1,1,2,2,3,3,4,4,5,5,6,6,7,7,8,8,10,10,11,11,12,12,13,13,14,14],"right_children":[2,4,6,8,10,12,14,16,18,-1,20,22,24,26,28,-1,-1,-1,-1,-1,-1,-1,-1,-1,-1,-1,-1,-1,-1],"split_conditions":[5.2083874E-1,3.76661E-1,4.0098974E-1,9.0387434E-1,2.4754056E-1,6.3230544E-2,5.90986E-1,3.296435E-1,8.924051E-2,-1.3345896E-1,1.06045395E-1,1.6849557E-1,9.579226E-1,4.731915E-1,6.7337334E-1,1.7707807E-1,-3.2587147E-3,1.8568423E-1,-1.1242676E-1,-1.1267386E-1,1.7354806E-1,9.07963E-3,2.3999733E-1,-9.67529E-2,9.4641246E-2,1.9974376E-1,9.316083E-2,-2.1267007E-1,4.7278617E-2],"split_indices":[15,141,61,0,41,34,66,19,99,0,39,82,13,74,81,0,0,0,0,0,0,0,0,0,0,0,0,0,0],"split_type":[0,0,0,0,0,0,0,0,0,0,0,0,0,0,0,0,0,0,0,0,0,0,0,0,0,0,0,0,0],"sum_hessian":[1.2280517E2,6.0322845E1,6.248232E1,4.583544E1,1.4487404E1,3.8603878E1,2.387844E1,3.0960587E1,1.4874856E1,1.6619846E0,1.2825419E1,2.67256E0,3.5931316E1,4.175957E0,1.9702484E1,5.8698606E0,2.5090725E1,1.845892E0,1.3028964E1,1.5473543E0,1.1278066E1,1.000196E0,1.672364E0,3.1165821E1,4.765497E0,3.1295288E0,1.0464287E0,2.7915711E0,1.6910912E1],"tree_param":{"num_deleted":"0","num_feature":"200","num_nodes":"29","size_leaf_vector":"0"}},{"base_weights":[9.869246E-3,-5.6257215E-3,8.4916437E-1,4.6027455E-2,-2.796372E-1,1.324324E0,3.1808117E-1,1.1514486E-1,-3.1366417E-1,2.580588E-1,-6.3066536E-1,1.6172066E-2,5.6879824E-1,-9.585986E-1,1.9053306E-1,-6.350667E-1,7.72695E-1,5.4369414E-1,-9.410035E-1],"categories":[],"categories_nodes":[],"categories_segments":[],"categories_sizes":[],"default_left":[1,1,1,1,1,0,0,1,1,1,1,0,0,0,0,0,0,0,0],"id":39,"left_children":[1,3,5,7,9,-1,-1,11,13,15,17,-1,-1,-1,-1,-1,-1,-1,-1],"loss_changes":[1.564364E0,1.6723372E0,5.374582E-1,2.472737E0,3.5421562E0,0E0,0E0,3.7450447E0,5.21903E0,3.4270692E0,4.151014E0,0E0,0E0,0E0,0E0,0E0,0E0,0E0,0E0],"parents":[2147483647,0,0,1,1,2,2,3,3,4,4,7,7,8,8,9,9,10,10],"right_children":[2,4,6,8,10,-1,-1,12,14,16,18,-1,-1,-1,-1,-1,-1,-1,-1],"split_conditions":[9.968946E-1,5.832491E-1,4.8978215E-1,6.39518E-1,5.7810545E-1,2.3923555E-1,5.7460506E-2,5.817306E-1,7.310282E-1,4.3186954E-1,3.498247E-2,2.9214402E-3,1.02751866E-1,-1.7316826E-1,3.4419283E-2,-1.1472308E-1,1.3958527E-1,9.821688E-2,-1.6998973E-1],"split_indices":[43,122,98,88,30,0,0,76,45,78,34,0,0,0,0,0,0,0,0],"split_type":[0,0,0,0,0,0,0,0,0,0,0,0,0,0,0,0,0,0,0],"sum_hessian":[1.2024872E2,1.18098526E2,2.150188E0,9.938832E1,1.871021E1,1.1109116E0,1.0392762E0,8.338578E1,1.6002539E1,7.3933215E0,1.131689E1,6.8477585E1,1.4908192E1,7.00934E0,8.993198E0,2.7001781E0,4.6931434E0,2.360731E0,8.956159E0],"tree_param":{"num_deleted":"0","num_feature":"200","num_nodes":"19","size_leaf_vector":"0"}},{"base_weights":[8.433949E-3,-1.579989E-2,5.407979E-1,1.0725939E-1,-1.443649E-1,-6.4199525E-1,9.6866834E-1,-1.8825876E-2,5.402873E-1,-3.5026702E-1,1.7076021E-1,1.1527569E0,4.5171022E-1,-3.3597547E-1,1.5824713E-1,-5.688976E-1,7.1120995E-1,3.838879E-1,-5.333854E-1,9.324274E-1,2.0582242E-2,1.3461497E0,9.661774E-1],"categories":[],"categories_nodes":[],"categories_segments":[],"categories_sizes":[],"default_left":[1,1,1,1,1,0,1,1,1,1,1,1,0,0,0,0,0,0,0,0,0,1,1],"id":40,"left_children":[1,3,5,7,9,-1,11,13,15,17,19,-1,-1,-1,-1,-1,-1,-1,-1,-1,-1,-1,-1],"loss_changes":[1.5269068E0,1.7915875E0,2.6267245E0,3.1594455E0,3.5951228E0,0E0,3.4545517E-1,2.5198958E0,2.4862254E0,4.510459E0,2.5050948E0,6.081271E-2,0E0,0E0,0E0,0E0,0E0,0E0,0E0,0E0,0E0,0E0,0E0],"parents":[2147483647,0,0,1,1,2,2,3,3,4,4,6,6,7,7,8,8,9,9,10,10,11,11],"right_children":[2,4,6,8,10,-1,12,14,16,18,20,-1,-1,-1,-1,-1,-1,-1,-1,-1,-1,-1,-1],"split_conditions":[9.260778E-1,5.2083874E-1,7.065824E-1,3.76661E-1,4.0098974E-1,-1.1597471E-1,3.5808885E-1,7.717341E-2,2.4754056E-1,1.4771591E-1,5.90986E-1,2.0824243E-1,8.1600234E-2,-6.069306E-2,2.8586917E-2,-1.02769814E-1,1.2847815E-1,6.934831E-2,-9.635463E-2,1.6844049E-1,3.7181263E-3,2.4317831E-1,1.7453733E-1],"split_indices":[38,15,17,141,61,0,42,1,41,9,66,46,0,0,0,0,0,0,0,0,0,2147483647,2147483647],"split_type":[0,0,0,0,0,0,0,0,0,0,0,0,0,0,0,0,0,0,0,0,0,0,0],"sum_hessian":[1.1830286E2,1.1318019E2,5.1226664E0,5.783086E1,5.5349327E1,1.356789E0,3.7658775E0,4.4811924E1,1.3018935E1,3.3474075E1,2.1875252E1,2.7494562E0,1.0164216E0,1.6045744E1,2.8766182E1,1.7288734E0,1.1290062E1,6.675892E0,2.6798183E1,3.5767395E0,1.8298513E1,1.2574425E0,1.4920137E0],"tree_param":{"num_deleted":"2","num_feature":"200","num_nodes":"23","size_leaf_vector":"0"}},{"base_weights":[8.556409E-3,2.0737821E-1,-5.952881E-2,1.1829284E0,1.0669613E-1,-3.7256983E-1,8.009314E-2,1.5257505E0,9.45498E-1,-9.0360975E-1,2.6664326E-1,-4.603269E-1,7.60076E-1,1.5045095E-2,8.245235E-1,-1.5358288E0,2.761892E-1,8.771675E-1,1.9659506E-2,-2.1834499E-1,-1.0363458E0,-1.6425699E-1,2.594679E-1,1.1213454E0,-2.9367363E-1],"categories":[],"categories_nodes":[],"categories_segments":[],"categories_sizes":[],"default_left":[1,1,1,1,1,1,1,0,0,1,1,1,0,1,1,0,0,0,0,0,0,0,0,0,0],"id":41,"left_children":[1,3,5,7,9,11,13,-1,-1,15,17,19,-1,21,23,-1,-1,-1,-1,-1,-1,-1,-1,-1,-1],"loss_changes":[1.5734508E0,2.9083958E0,3.7854176E0,1.8172836E-1,4.3557787E0,2.6658158E0,2.9004323E0,0E0,0E0,2.7613764E0,3.5060978E0,3.4514213E0,0E0,2.4170415E0,1.607547E0,0E0,0E0,0E0,0E0,0E0,0E0,0E0,0E0,0E0,0E0],"parents":[2147483647,0,0,1,1,2,2,3,3,4,4,5,5,6,6,9,9,10,10,11,11,13,13,14,14],"right_children":[2,4,6,8,10,12,14,-1,-1,16,18,20,-1,22,24,-1,-1,-1,-1,-1,-1,-1,-1,-1,-1],"split_conditions":[1.38217E-1,1.3260376E-1,2.8211427E-1,3.6390897E-2,2.721048E-1,9.26625E-1,8.5742176E-1,2.756227E-1,1.7080165E-1,4.1240074E-2,5.0486565E-1,4.142465E-1,1.3730568E-1,7.5160116E-1,7.033932E-1,-2.7744332E-1,4.9892835E-2,1.5845795E-1,3.5514366E-3,-3.9443433E-2,-1.8721308E-1,-2.9672582E-2,4.6872176E-2,2.0256802E-1,-5.305135E-2],"split_indices":[44,11,44,46,34,72,41,0,0,44,67,84,0,20,77,0,0,0,0,0,0,0,0,0,0],"split_type":[0,0,0,0,0,0,0,0,0,0,0,0,0,0,0,0,0,0,0,0,0,0,0,0,0],"sum_hessian":[1.1617672E2,2.9619675E1,8.6557045E1,2.7404103E0,2.6879265E1,2.668255E1,5.9874496E1,1.0539387E0,1.6864716E0,3.654495E0,2.322477E1,2.478058E1,1.9019707E0,5.5091587E1,4.782909E0,2.3734717E0,1.2810231E0,6.6670017E0,1.6557768E1,1.7479443E1,7.301138E0,3.1784925E1,2.3306662E1,3.7795594E0,1.0033494E0],"tree_param":{"num_deleted":"0","num_feature":"200","num_nodes":"25","size_leaf_vector":"0"}},{"base_weights":[7.948918E-3,4.533154E-2,-3.53809E-1,4.5808247E-1,-1.4618322E-2,-1.6092637E0,-5.7608705E-2,-1.2721741E-1,8.089978E-1,3.7199542E-2,-5.2372473E-1,1.0628334E0,-4.2986274E-1,-1.1354375E0,6.364024E-1,1.0260321E0,-6.743698E-1,5.921561E-1,-1.675828E-2,-9.2411685E-1,2.1244174E-1,-1.1644673E0,1.0199687E-1],"categories":[],"categories_nodes":[],"categories_segments":[],"categories_sizes":[],"default_left":[1,1,1,1,1,0,1,1,1,1,1,0,1,0,0,0,0,0,0,0,0,0,0],"id":42,"left_children":[1,3,5,7,9,-1,11,13,15,17,19,-1,21,-1,-1,-1,-1,-1,-1,-1,-1,-1,-1],"loss_changes":[1.5379738E0,2.550596E0,3.9580774E0,2.688131E0,2.375585E0,0E0,3.621524E0,3.8145614E0,2.6534696E0,2.4479141E0,2.4579418E0,0E0,2.5487409E0,0E0,0E0,0E0,0E0,0E0,0E0,0E0,0E0,0E0,0E0],"parents":[2147483647,0,0,1,1,2,2,3,3,4,4,6,6,7,7,8,8,9,9,10,10,12,12],"right_children":[2,4,6,8,10,-1,12,14,16,18,20,-1,22,-1,-1,-1,-1,-1,-1,-1,-1,-1,-1],"split_conditions":[7.424561E-1,2.6487795E-1,1.962344E-1,3.2905126E-1,8.104896E-1,-2.9070914E-1,4.447494E-1,2.0186925E-1,7.7721053E-1,2.1547772E-1,9.872811E-1,1.9199799E-1,4.515624E-1,-2.0511371E-1,1.1496438E-1,1.8534993E-1,-1.2182309E-1,1.06971405E-1,-3.027338E-3,-1.6693921E-1,3.8377028E-2,-2.1035787E-1,1.8425459E-2],"split_indices":[46,58,1,26,84,0,1,9,11,26,85,0,38,0,0,0,0,0,0,0,0,0,0],"split_type":[0,0,0,0,0,0,0,0,0,0,0,0,0,0,0,0,0,0,0,0,0,0,0],"sum_hessian":[1.13660225E2,1.0303914E2,1.0621085E1,1.3042308E1,8.999683E1,2.0018055E0,8.619279E0,4.895803E0,8.146504E0,8.170849E1,8.2883415E0,2.1354616E0,6.483818E0,2.1036086E0,2.7921946E0,7.1148763E0,1.0316283E0,7.213639E0,7.449485E1,5.363475E0,2.924866E0,2.7077682E0,3.7760496E0],"tree_param":{"num_deleted":"0","num_feature":"200","num_nodes":"23","size_leaf_vector":"0"}},{"base_weights":[8.037882E-3,-1.8318364E-1,7.956295E-2,-2.043633E-2,-8.0191183E-1,1.0241785E0,3.838125E-2,-1.0421118E0,9.58438E-2,4.4149745E-2,-1.1631374E0,-4.0227944E-1,1.1444486E-1,-2.746904E-2,-2.0506399E0,1.0732511E0,-6.0441927E-3,-1.853381E0,-7.435607E-1,-6.1680394E-1,1.0570784E0,5.849662E-1,-7.698574E-3],"categories":[],"categories_nodes":[],"categories_segments":[],"categories_sizes":[],"default_left":[1,1,1,1,1,0,1,1,1,0,1,1,1,0,0,0,0,0,0,0,0,0,0],"id":43,"left_children":[1,3,5,7,9,-1,11,13,15,-1,17,19,21,-1,-1,-1,-1,-1,-1,-1,-1,-1,-1],"loss_changes":[1.534554E0,3.0750775E0,3.1751883E0,2.8796144E0,1.9453049E0,0E0,2.624999E0,2.5327487E0,2.1679015E0,0E0,1.2492881E0,3.6291118E0,3.8377957E0,0E0,0E0,0E0,0E0,0E0,0E0,0E0,0E0,0E0,0E0],"parents":[2147483647,0,0,1,1,2,2,3,3,4,4,6,6,7,7,8,8,10,10,11,11,12,12],"right_children":[2,4,6,8,10,-1,12,14,16,-1,18,20,22,-1,-1,-1,-1,-1,-1,-1,-1,-1,-1],"split_conditions":[2.7751145E-1,5.8316267E-1,4.3017887E-2,1.8238524E-1,3.6537993E-1,1.8501508E-1,6.5847486E-2,3.1578928E-1,7.3016375E-2,7.975533E-3,2.5476098E-1,4.9998972E-1,2.895667E-1,-4.962208E-3,-3.7044254E-1,1.9387992E-1,-1.0918671E-3,-3.348083E-1,-1.3432223E-1,-1.1142397E-1,1.9095835E-1,1.0567256E-1,-1.3907267E-3],"split_indices":[28,133,103,81,8,0,59,72,103,0,78,183,103,0,0,0,0,0,0,0,0,0,0],"split_type":[0,0,0,0,0,0,0,0,0,0,0,0,0,0,0,0,0,0,0,0,0,0,0],"sum_hessian":[1.121359E2,3.0512785E1,8.1623116E1,2.4183134E1,6.3296514E0,3.3795366E0,7.824358E1,2.4464316E0,2.1736702E1,1.901822E0,4.4278293E0,1.149855E1,6.674503E1,1.2350632E0,1.2113683E0,2.024691E0,1.9712011E1,1.6347628E0,2.7930667E0,1.0040179E1,1.4583716E0,1.373193E1,5.30131E1],"tree_param":{"num_deleted":"0","num_feature":"200","num_nodes":"23","size_leaf_vector":"0"}},{"base_weights":[8.009499E-3,8.025327E-1,-6.6816667E-3,3.9008684E-2,-3.0485865E-1,-7.6131346E-3,5.3293294E-1,-2.3089662E0,-1.3698886E-1,-7.375382E-2,3.4324515E-1,4.03207E-3,1.1148288E0,-3.7979758E-1,1.0457469E0],"categories":[],"categories_nodes":[],"categories_segments":[],"categories_sizes":[],"default_left":[1,0,1,1,1,1,1,0,1,0,0,0,0,0,0],"id":44,"left_children":[1,-1,3,5,7,9,11,-1,13,-1,-1,-1,-1,-1,-1],"loss_changes":[1.2862986E0,0E0,1.4746569E0,2.1615646E0,4.828952E0,1.9917711E0,2.4915369E0,0E0,3.8323352E0,0E0,0E0,0E0,0E0,0E0,0E0],"parents":[2147483647,0,0,2,2,3,3,4,4,5,5,6,6,8,8],"right_children":[2,-1,4,6,8,10,12,-1,14,-1,-1,-1,-1,-1,-1],"split_conditions":[6.266955E-2,1.4497536E-1,7.641656E-1,6.4583194E-1,1.0530451E-1,6.458893E-1,5.130541E-1,-4.171085E-1,8.390854E-1,-1.3323428E-2,6.200631E-2,7.283825E-4,2.0139082E-1,-6.860941E-2,1.8891136E-1],"split_indices":[57,0,23,23,37,6,199,0,199,0,0,0,0,0,0],"split_type":[0,0,0,0,0,0,0,0,0,0,0,0,0,0,0],"sum_hessian":[1.10154434E2,1.9703026E0,1.08184135E2,9.383234E1,1.4351799E1,8.576663E1,8.065704E0,1.0793151E0,1.3272484E1,7.218327E1,1.3583356E1,4.241271E0,3.824433E0,1.1028921E1,2.2435627E0],"tree_param":{"num_deleted":"0","num_feature":"200","num_nodes":"15","size_leaf_vector":"0"}},{"base_weights":[8.176843E-3,2.7441554E-2,-5.677449E-1,-8.05247E-3,4.4510862E-1,-2.3259789E-2,-1.2334248E0,2.0348732E-1,-9.28381E-2,1.0844431E0,9.5560126E-2,1.2822343E0,1.2647559E-1,4.292034E-2,-3.7172988E-1,-7.258346E-1,4.4569632E-1],"categories":[],"categories_nodes":[],"categories_segments":[],"categories_sizes":[],"default_left":[1,1,1,1,1,0,0,1,1,0,1,0,0,0,0,0,0],"id":45,"left_children":[1,3,5,7,9,-1,-1,11,13,-1,15,-1,-1,-1,-1,-1,-1],"loss_changes":[1.2165831E0,1.5728756E0,1.285527E0,1.7548648E0,1.8539867E0,0E0,0E0,2.3208237E0,2.6449847E0,0E0,1.5645784E0,0E0,0E0,0E0,0E0,0E0,0E0],"parents":[2147483647,0,0,1,1,2,2,3,3,4,4,7,7,8,8,10,10],"right_children":[2,4,6,8,10,-1,-1,12,14,-1,16,-1,-1,-1,-1,-1,-1],"split_conditions":[9.729548E-1,7.432262E-1,3.6146587E-1,1.4390828E-1,3.097159E-1,-4.201818E-3,-2.2281486E-1,1.1490826E-1,4.3474346E-1,1.9590172E-1,4.0370882E-1,2.3163216E-1,2.2847474E-2,7.7534434E-3,-6.7152E-2,-1.3112006E-1,8.0513835E-2],"split_indices":[179,93,88,44,34,0,0,9,9,0,7,0,0,0,0,0,0],"split_type":[0,0,0,0,0,0,0,0,0,0,0,0,0,0,0,0,0],"sum_hessian":[1.0957929E2,1.0606046E2,3.518829E0,9.778065E1,8.279817E0,1.9528993E0,1.5659299E0,2.7965141E1,6.9815506E1,2.9041722E0,5.3756447E0,1.8317486E0,2.6133394E1,4.6974827E1,2.2840677E1,1.5968826E0,3.7787623E0],"tree_param":{"num_deleted":"0","num_feature":"200","num_nodes":"17","size_leaf_vector":"0"}},{"base_weights":[7.325886E-3,-1.0365339E-2,6.42166E-1,9.810055E-2,-1.438449E-1,1.0734639E0,-1.5189359E-1,7.7394885E-1,5.595429E-3,-3.5597342E-1,1.3857393E-1,9.9938977E-1,-1.5873632E-1,-7.1898127E-1,1.01473406E-1,1.7679583E-1,-6.2856555E-1,-2.281115E-1,7.49716E-1],"categories":[],"categories_nodes":[],"categories_segments":[],"categories_sizes":[],"default_left":[1,1,1,1,1,0,0,1,1,1,1,0,0,0,0,0,0,0,0],"id":46,"left_children":[1,3,5,7,9,-1,-1,11,13,15,17,-1,-1,-1,-1,-1,-1,-1,-1],"loss_changes":[1.2187397E0,1.5290799E0,1.0125257E0,3.6427598E0,2.8379948E0,0E0,0E0,1.4798155E0,3.5649347E0,3.9313138E0,4.5611863E0,0E0,0E0,0E0,0E0,0E0,0E0,0E0,0E0],"parents":[2147483647,0,0,1,1,2,2,3,3,4,4,7,7,8,8,9,9,10,10],"right_children":[2,4,6,8,10,-1,-1,12,14,16,18,-1,-1,-1,-1,-1,-1,-1,-1],"split_conditions":[5E-1,6.1780477E-1,4.8477232E-1,4.0975608E-2,5.7189596E-1,1.9391836E-1,-2.7439166E-2,8.7591445E-1,2.7195874E-1,1.4385541E-1,3.0522305E-1,1.8053706E-1,-2.8675288E-2,-1.2988202E-1,1.8330896E-2,3.193769E-2,-1.13548666E-1,-4.1207727E-2,1.3543417E-1],"split_indices":[162,73,79,35,21,0,0,49,36,44,44,0,0,0,0,0,0,0,0],"split_type":[0,0,0,0,0,0,0,0,0,0,0,0,0,0,0,0,0,0,0],"sum_hessian":[1.084659E2,1.0555423E2,2.9116645E0,5.8237907E1,4.7316322E1,1.8799126E0,1.0317519E0,6.9845667E0,5.125334E1,2.7016214E1,2.030011E1,5.6232104E0,1.3613564E0,5.966384E0,4.5286957E1,9.147826E0,1.786839E1,1.2699444E1,7.600665E0],"tree_param":{"num_deleted":"0","num_feature":"200","num_nodes":"19","size_leaf_vector":"0"}},{"base_weights":[7.611828E-3,-1.6600095E-1,7.291549E-2,2.863961E-1,-3.320174E-1,1.014422E0,3.875458E-2,-6.001239E-1,6.227706E-1,-4.129864E-1,9.258933E-1,-1.1187464E-2,6.4697796E-1,-9.549167E-3,-1.1921048E0,1.2910526E-1,1.0631808E0,-5.0285083E-1,5.9013546E-1,7.218979E-2,-4.1940886E-1,-4.4697237E-1,1.000943E0],"categories":[],"categories_nodes":[],"categories_segments":[],"categories_sizes":[],"default_left":[1,1,1,1,1,0,1,1,1,1,0,1,1,0,0,0,0,0,0,0,0,0,0],"id":47,"left_children":[1,3,5,7,9,-1,11,13,15,17,-1,19,21,-1,-1,-1,-1,-1,-1,-1,-1,-1,-1],"loss_changes":[1.213172E0,2.1995883E0,2.4995937E0,2.3576422E0,2.1922965E0,0E0,2.2803528E0,7.616831E-1,1.239177E0,1.824225E0,0E0,2.3629644E0,2.2193477E0,0E0,0E0,0E0,0E0,0E0,0E0,0E0,0E0,0E0,0E0],"parents":[2147483647,0,0,1,1,2,2,3,3,4,4,6,6,7,7,8,8,9,9,11,11,12,12],"right_children":[2,4,6,8,10,-1,12,14,16,18,-1,20,22,-1,-1,-1,-1,-1,-1,-1,-1,-1,-1],"split_conditions":[2.7751145E-1,6.254011E-1,4.3017887E-2,5.2882534E-2,9.393667E-1,1.832526E-1,9.579226E-1,3.0990161E-2,1.1538183E-1,4.803534E-1,1.6726013E-1,5.8346236E-1,9.8495686E-1,-1.7250312E-3,-2.1535051E-1,2.3322515E-2,1.9206074E-1,-9.083864E-2,1.0660638E-1,1.3040891E-2,-7.576508E-2,-8.074435E-2,1.8081763E-1],"split_indices":[28,112,103,26,19,0,13,27,77,197,0,165,68,0,0,0,0,0,0,0,0,0,0],"split_type":[0,0,0,0,0,0,0,0,0,0,0,0,0,0,0,0,0,0,0,0,0,0,0],"sum_hessian":[1.06942085E2,2.9217934E1,7.772415E1,7.83779E0,2.1380144E1,2.6908455E0,7.503331E1,2.149343E0,5.688447E0,2.0106335E1,1.2738103E0,6.936724E1,5.666064E0,1.091394E0,1.0579491E0,2.7005763E0,2.9878705E0,1.8467106E1,1.6392275E0,5.7622986E1,1.1744259E1,1.3832003E0,4.2828636E0],"tree_param":{"num_deleted":"0","num_feature":"200","num_nodes":"23","size_leaf_vector":"0"}},{"base_weights":[7.767444E-3,-2.9637509E-3,1.0299934E0,-5.018527E-2,2.3543905E-1,-2.4257233E-2,-8.7521815E-1,4.4861445E-1,-8.544342E-1,-4.290793E-2,9.7673583E-1,-1.4994073E0,-1.8164786E-2,6.002754E-1,-1.5386914E0,-2.8361946E-1,-1.1753143E0],"categories":[],"categories_nodes":[],"categories_segments":[],"categories_sizes":[],"default_left":[1,1,0,1,1,1,1,1,1,0,0,0,0,0,0,0,0],"id":48,"left_children":[1,3,-1,5,7,9,11,13,15,-1,-1,-1,-1,-1,-1,-1,-1],"loss_changes":[1.1564484E0,1.1750782E0,0E0,1.8630025E0,4.0209866E0,1.5787762E0,1.4187579E0,4.384285E0,5.0888515E-1,0E0,0E0,0E0,0E0,0E0,0E0,0E0,0E0],"parents":[2147483647,0,0,1,1,3,3,4,4,5,5,6,6,7,7,8,8],"right_children":[2,4,-1,6,8,10,12,14,16,-1,-1,-1,-1,-1,-1,-1,-1],"split_conditions":[5E-1,9.21494E-1,1.8606552E-1,5.8417326E-1,8.208034E-1,9.6499854E-1,5.769663E-1,8.447882E-1,2.8921616E-1,-7.7512017E-3,1.764447E-1,-2.708639E-1,-3.2814194E-3,1.0843813E-1,-2.7796045E-1,-5.123509E-2,-2.1231735E-1],"split_indices":[149,112,0,127,21,81,14,44,42,0,0,0,0,0,0,0,0],"split_type":[0,0,0,0,0,0,0,0,0,0,0,0,0,0,0,0,0],"sum_hessian":[1.0538237E2,1.04317505E2,1.0648609E0,8.7090996E1,1.7226511E1,8.4467705E1,2.6232884E0,1.442324E1,2.803271E0,8.29512E1,1.5165074E0,1.5046796E0,1.1186088E0,1.342026E1,1.0029798E0,1.0293521E0,1.773919E0],"tree_param":{"num_deleted":"0","num_feature":"200","num_nodes":"17","size_leaf_vector":"0"}},{"base_weights":[6.5941517E-3,3.5075486E-2,-4.059404E-1,5.705532E-3,7.415529E-1,-7.131734E-1,5.169248E-1,5.6390993E-2,-6.66644E-1,1.1614513E0,-1.679238E-1,-1.022972E0,2.3431495E-2,2.0636654E-2,7.8807634E-1,-4.805025E-2,-1.2225575E0,-8.152779E-1,-1.1198586E0],"categories":[],"categories_nodes":[],"categories_segments":[],"categories_sizes":[],"default_left":[1,1,1,1,1,1,0,1,1,0,0,1,0,0,0,0,0,1,1],"id":49,"left_children":[1,3,5,7,9,11,-1,13,15,-1,-1,-1,-1,-1,-1,-1,-1,-1,-1],"loss_changes":[1.2290915E0,2.0300877E0,1.9266715E0,3.2035139E0,1.4972312E0,1.1602519E0,0E0,2.2862678E0,2.2643433E0,0E0,0E0,4.4264793E-2,0E0,0E0,0E0,0E0,0E0,0E0,0E0],"parents":[2147483647,0,0,1,1,2,2,3,3,4,4,5,5,7,7,8,8,11,11],"right_children":[2,4,6,8,10,12,-1,14,16,-1,-1,-1,-1,-1,-1,-1,-1,-1,-1],"split_conditions":[9.4382733E-1,7.9369223E-1,8.4307396E-1,6.6851175E-1,5.9879255E-1,9.999999E-1,9.338107E-2,4.803534E-1,3.5652825E-1,2.0981304E-1,-3.033498E-2,-1.8479712E-1,4.2328364E-3,3.7279557E-3,1.4236386E-1,-8.680148E-3,-2.2085172E-1,-1.4727774E-1,-2.0229943E-1],"split_indices":[66,36,87,36,84,115,0,197,46,0,0,71,0,0,0,0,0,2147483647,2147483647],"split_type":[0,0,0,0,0,0,0,0,0,0,0,0,0,0,0,0,0,0,0],"sum_hessian":[1.0454083E2,9.781546E1,6.7253776E0,9.394072E1,3.8747349E0,5.050808E0,1.6745695E0,8.738125E1,6.559471E0,2.64511E0,1.229625E0,3.547167E0,1.5036408E0,8.334E1,4.041254E0,3.1203187E0,3.4391525E0,1.2192624E0,2.3279047E0],"tree_param":{"num_deleted":"2","num_feature":"200","num_nodes":"19","size_leaf_vector":"0"}}]},"name":"gbtree"},"name":"dart","weight_drop":[1E0,1E0,1E0,1E0,1E0,1E0,1E0,1E0,1E0,1E0,1E0,1E0,1E0,1E0,1E0,1E0,1E0,1E0,1E0,1E0,1E0,1E0,1E0,1E0,1E0,1E0,1E0,1E0,1E0,1E0,1E0,1E0,1E0,1E0,1E0,1E0,1E0,1E0,1E0,1E0,1E0,1E0,1E0,1E0,1E0,1E0,1E0,1E0,1E0,1E0]},"learner_model_param":{"base_score":"5E-1","num_class":"0","num_feature":"200","num_target":"1"},"objective":{"name":"binary:logistic","reg_loss_param":{"scale_pos_weight":"1"}}},"version":[1,6,0]}