{"learner":{"attributes":{"best_iteration":"49","best_ntree_limit":"0"},"feature_names":["0","1","2","3","4","5","6","7","8","9","10","11","12","13","14","15","16","17","18","19","20","21","22","23","24","25","26","27","28","29","30","31","32","33","34","35","36","37","38","39","40","41","42","43","44","45","46","47","48","49","50","51","52","53","54","55","56","57","58","59","60","61","62","63","64","65","66","67","68","69","70","71","72","73","74","75","76","77","78","79","80","81","82","83","84","85","86","87","88","89","90","91","92","93","94","95","96","97","98","99","100","101","102","103","104","105","106","107","108","109","110","111","112","113","114","115","116","117","118","119","120","121","122","123","124","125","126","127","128","129","130","131","132","133","134","135","136","137","138","139","140","141","142","143","144","145","146","147","148","149","150","151","152","153","154","155","156","157","158","159","160","161","162","163","164","165","166","167","168","169","170","171","172","173","174","175","176","177","178","179","180","181","182","183","184","185","186","187","188","189","190","191","192","193","194","195","196","197","198","199"],"feature_types":["float","float","float","float","float","float","float","float","float","float","float","float","float","float","float","float","float","float","float","float","float","float","float","float","float","float","float","float","float","float","float","float","float","float","float","float","float","float","float","float","float","float","float","float","float","float","float","float","float","float","float","float","float","float","float","float","float","float","float","float","float","float","float","float","float","float","float","float","float","float","float","float","float","float","float","float","float","float","float","float","float","float","float","float","float","float","float","float","float","float","float","float","float","float","float","float","float","float","float","float","float","float","float","float","float","float","float","float","float","float","float","float","float","float","float","float","float","float","float","float","float","float","float","float","float","float","float","float","float","float","float","float","float","float","float","float","float","float","float","float","float","float","float","float","float","float","float","float","float","float","float","float","float","float","float","float","float","float","float","float","float","float","float","float","float","float","float","float","float","float","float","float","float","float","float","float","float","float","float","float","float","float","float","float","float","float","float","float","float","float","float","float","float","float","float","float","float","float","float","float"],"gradient_booster":{"model":{"boosted_rounds":50,"weights":[-8.590202E-1,7.05612E-1,1.3621375E-1,1.12033054E-1,-1.2128713E-1,-4.3044758E-1,-4.1138822E-1,-2.405092E-2,-6.593E-1,-7.254017E-2,-6.982358E-1,-6.2955326E-1,-1.8345287E-1,-2.7075046E-1,3.20396E-1,-2.0840863E-2,3.8418797E-1,4.1694194E-1,-4.6401516E-1,-3.0750445E-1,5.1495427E-1,1.18794076E-1,-5.977897E-2,7.53796E-1,-6.12825E-1,-4.0535152E-1,8.8039184E-1,-7.6139696E-2,5.068511E-1,4.8626354E-1,3.1634176E-1,1.7058133E-1,-3.767658E-1,2.4079673E-1,6.522546E-1,-6.106165E-1,-2.2747113E-1,5.5434096E-1,-5.238938E-2,-2.0524755E-1,2.165441E-1,1.4106575E-1,-9.0074115E-2,1.5221158E-1,3.0999574E-1,3.5692614E-1,-5.484934E-1,6.7665994E-1,-4.8203206E-1,-7.8090414E-2,-3.609247E-1,9.8836946E-1,4.5821655E-1,-2.2308773E-1,2.8769707E-2,5.4098064E-1,-1.1410629E-1,5.714388E-1,-8.7518436E-1,1.3871312E-1,-8.572772E-1,1.6536992E0,4.2718133E-1,8.21769E-2,-3.8439336E-1,4.7481507E-1,-5.2346027E-1,-8.353861E-1,4.6591112E-1,3.006386E-1,-3.6885554E-1,-8.263271E-2,9.012674E-1,-4.5360824E-1,-3.6950025E-1,-7.0997405E-1,1.224221E0,7.2261965E-1,5.460441E-1,-6.55741E-1,4.8105067E-1,-7.2124116E-2,5.4548997E-1,1.1428845E0,-1.6235037E0,-2.6499447E-1,-8.807863E-1,2.541617E-1,1.8386874E-2,0E0,1.6877027E-3,1.5309228E-1,1.1891359E0,-3.1566113E-2,1.8667017E-1,4.3803024E-1,-7.3325974E-1,4.3853265E-3,-2.0690843E-2,5.8131404E-2,-4.3870255E-1,-2.887017E-1,0E0,-2.4287342E-1,0E0,1.08748116E-1,-1.4803071E-1,0E0,0E0,1.4176624E-1,0E0,2.7655545E-1,1.0217734E-2,1.6270721E0,-6.18578E-1,-4.671646E-1,-6.794773E-1,5.988904E-1,-1.706811E0,4.424338E-1,-4.8877412E-1,-2.9819915E-1,-2.1065527E-1,-1.6380937E-1,-3.5151333E-1,-4.5324123E-1,2.8751495E-1,-6.089218E-1,8.4847605E-1,-5.648937E-1,-1.533366E0,-2.372108E-1,1.6695057E0,-3.3401865E-1,-7.1009256E-2,-2.1177456E-1,5.486147E0,-1.4405626E0,-1.7160527E-1,6.836487E-1,-3.7281755E-1,6.6733915E-1,-2.4180757E-1,-1.2769544E0,-4.094037E-2,5.7459563E-1,-4.691214E-1,1.0557568E0,-7.447221E-1,7.220643E0,2.4179581E-1,0E0,-7.100666E0,-6.3036636E-2,-1.7221454E-1,6.345066E-1,-1.1215807E0,-2.1698425E0,3.0663952E-1,-9.190778E-2,1.5041173E0,-7.1553123E-1,2.111983E0,0E0,-8.549067E-2,-1.9501559E0,1.1906587E0,-3.4680557E0,-5.754006E-1,-2.6016647E-1,-8.834991E-2,-9.853098E-1,2.7655718E-1,-1.7246151E0,-2.9845965E-1,1.3920228E1,-6.3255584E-1,1.3373291E0,8.891234E-1,-6.6566306E-1,4.9690458E-1,-3.4573533E-2,-1.11646995E-1,8.3517504E-1,-2.4957351E-1,2.2027785E-1,0E0,-1.1853391E0,-2.307422E0,2.8713128E-1,-6.441041E-1,-3.4921294E-1,-8.416195E-1,1.8735677E0,-3.8732782E-1,0E0,2.7743697E0,2.3586674E-1,3.8378766E-1,1.6171491E0,7.0339704E-1]},"name":"gblinear"},"learner_model_param":{"base_score":"5E-1","num_class":"0","num_feature":"200","num_target":"1"},"objective":{"name":"binary:logistic","reg_loss_param":{"scale_pos_weight":"1"}}},"version":[1,6,0]}