{"learner":{"attributes":{"best_iteration":"49","best_ntree_limit":"0"},"feature_names":["0","1","2","3","4","5","6","7","8","9","10","11","12","13","14","15","16","17","18","19","20","21","22","23","24","25","26","27","28","29","30","31","32","33","34","35","36","37","38","39","40","41","42","43","44","45","46","47","48","49","50","51","52","53","54","55","56","57","58","59","60","61","62","63","64","65","66","67","68","69","70","71","72","73","74","75","76","77","78","79","80","81","82","83","84","85","86","87","88","89","90","91","92","93","94","95","96","97","98","99","100","101","102","103","104","105","106","107","108","109","110","111","112","113","114","115","116","117","118","119","120","121","122","123","124","125","126","127","128","129","130","131","132","133","134","135","136","137","138","139","140","141","142","143","144","145","146","147","148","149","150","151","152","153","154","155","156","157","158","159","160","161","162","163","164","165","166","167","168","169","170","171","172","173","174","175","176","177","178","179","180","181","182","183","184","185","186","187","188","189","190","191","192","193","194","195","196","197","198","199"],"feature_types":["float","float","float","float","float","float","float","float","float","float","float","float","float","float","float","float","float","float","float","float","float","float","float","float","float","float","float","float","float","float","float","float","float","float","float","float","float","float","float","float","float","float","float","float","float","float","float","float","float","float","float","float","float","float","float","float","float","float","float","float","float","float","float","float","float","float","float","float","float","float","float","float","float","float","float","float","float","float","float","float","float","float","float","float","float","float","float","float","float","float","float","float","float","float","float","float","float","float","float","float","float","float","float","float","float","float","float","float","float","float","float","float","float","float","float","float","float","float","float","float","float","float","float","float","float","float","float","float","float","float","float","float","float","float","float","float","float","float","float","float","float","float","float","float","float","float","float","float","float","float","float","float","float","float","float","float","float","float","float","float","float","float","float","float","float","float","float","float","float","float","float","float","float","float","float","float","float","float","float","float","float","float","float","float","float","float","float","float","float","float","float","float","float","float","float","float","float","float","float","float"],"gradient_booster":{"model":{"boosted_rounds":50,"weights":[-8.306689E-1,6.5559816E-1,3.5367727E-1,1.7745161E-1,-1.1830209E-1,-2.839945E-1,-5.14659E-1,-7.808151E-2,-7.190275E-1,6.7042294E-3,-6.373371E-1,-5.240784E-1,-1.0777188E-1,-3.610406E-1,3.8583413E-1,-4.4746708E-2,3.7370598E-1,4.3831348E-1,-4.2191082E-1,-2.4512434E-1,5.069242E-1,1.0734452E-1,-6.6986635E-2,6.561005E-1,-5.741566E-1,-7.604757E-2,8.5939306E-1,4.3087876E-3,4.4685724E-1,4.4603497E-1,3.655419E-1,-3.2977212E-2,-4.740686E-1,1.9115481E-1,3.7249595E-1,-4.5837152E-1,-2.1070716E-1,3.7822154E-1,-2.4501747E-2,-2.2219014E-1,1.9115725E-1,1.0490244E-2,-6.4553306E-2,2.1627437E-1,4.378891E-1,3.9914346E-1,-4.1431916E-1,5.103789E-1,-3.7627697E-1,-1.203345E-1,-3.367532E-1,1.0012953E0,4.2527917E-1,-2.4203993E-1,-1.2970129E-1,4.496661E-1,-5.8795024E-2,5.3075874E-1,-9.011331E-1,9.098144E-2,-6.42985E-1,1.5986735E0,3.9147395E-1,9.277384E-2,-3.3177978E-1,4.3123373E-1,-5.3055644E-1,-8.170582E-1,4.70953E-1,2.9868078E-1,-3.268834E-1,-7.654876E-2,7.886812E-1,-5.213957E-1,-3.368366E-1,-6.8892026E-1,1.1600026E0,7.0775104E-1,5.0857073E-1,-6.734669E-1,3.981989E-1,-9.411792E-2,4.2334968E-1,6.774183E-1,-1.385887E0,-2.1480463E-1,-8.6905867E-1,2.1156037E-1,2.0058643E-2,0E0,-3.9277546E-2,1.725641E-1,1.2173824E0,-1.2788122E-2,1.9492878E-1,4.2176312E-1,-7.100904E-1,1.6455153E-3,-1.275406E-2,9.678093E-2,-4.5522118E-1,-2.887888E-1,0E0,-4.8717916E-2,0E0,1.4706515E-1,-1.6255222E-1,0E0,0E0,1.4241193E-1,0E0,2.5205883E-1,3.2642283E-2,2.019521E-15,-5.819473E-1,-4.4922543E-1,-6.6855705E-1,5.7411766E-1,-1.6440717E0,4.0180856E-1,-5.719879E-1,-1.9814771E-1,-2.4508572E-1,-1.14315294E-1,-1.9653256E-1,-5.023363E-1,1.9329616E-1,-5.770892E-1,7.9457253E-1,-5.0596297E-1,-1.5243232E0,-2.5796703E-1,1.5172453E0,-3.2434905E-1,-9.739964E-2,-2.5115741E-2,1.174029E0,-1.2518312E0,-1.4921342E-1,6.439662E-1,-3.4326255E-1,6.590643E-1,-7.3288955E-2,-1.214761E0,-1.4019633E-2,5.2152926E-1,0E0,3.9229202E-1,-4.860018E-1,3.0885313E0,2.3113292E-1,0E0,-2.9058836E0,-3.1177165E-2,-1.15737215E-1,6.486174E-1,-9.943379E-1,-2.084803E0,3.17542E-1,-4.1348677E-2,1.0337751E0,-6.7331296E-1,2.120575E0,0E0,3.8716048E-3,-1.8586586E0,1.1634398E0,-3.26744E0,-5.568735E-1,-2.305907E-1,7.432091E-11,-6.126499E-1,3.4872197E-2,-1.5374532E0,-2.3227905E-1,7.727375E-15,-1.8887298E-1,1.1809825E0,8.776815E-1,-5.5117756E-1,3.5181034E-1,-2.7836243E-15,1.3201953E-14,8.294005E-1,-2.4475916E-1,1.9820859E-1,0E0,-1.0773901E0,-2.1149547E0,2.3849228E-1,-6.0343635E-1,-2.1631654E-1,-7.746179E-1,1.6236888E0,-2.6875347E-1,0E0,2.6718817E0,2.4747793E-1,3.4606457E-1,1.6218864E0,7.3245174E-1]},"name":"gblinear"},"learner_model_param":{"base_score":"5E-1","num_class":"0","num_feature":"200","num_target":"1"},"objective":{"name":"binary:logistic","reg_loss_param":{"scale_pos_weight":"1"}}},"version":[1,6,0]}